5.647517386758956,1505.8608656237093,115.65552441557818,0.004215342877852561,1501.4119686685863
5.647517386758956,37.46223288252217,10.899704164941902,-0.025071959595508272,35.801789102806254
5.647517386758956,379.16606815995004,29.530308080605554,0.04183514829182262,378.0106080366854
5.647517386758956,62.37665104831087,20.100590138414187,0.03043943771753842,-59.025124611768156
5.647517386758956,417.6855036683739,17.447980512495786,0.004551405993845255,417.31750660609407
5.647517386758956,350.7512319615891,37.9038742889074,0.06751818321614701,-348.6930912244491
5.647517386758956,60.99537293979741,28.793067969750542,0.027485614731525596,-53.74520807848062
5.647517386758956,166.70974059138047,32.29704326794946,-0.046264662389948114,163.5426239659817
5.647517386758956,1023.5577086063006,16.61642098734307,-0.04313491183991507,1023.4214327100225
5.647517386758956,111.17215825173565,29.539268175609777,-0.041971362376951475,107.16264290463816
5.647517386758956,23.41035191616931,13.983630060691787,-0.06114408767951742,-18.698992445291026
5.647517386758956,50.29301417296678,22.41073437748884,0.013094376437908544,44.99221574567186
5.647517386758956,18.38457437794509,10.633940599099082,0.05657542940081388,14.901747263918933
5.647517386758956,28.41110746292941,21.078892115957995,-0.04666915021434623,-18.97426009962563
5.647517386758956,163.65825259885685,32.49036135359484,0.018090487905520636,160.39187362663424
5.647517386758956,79.61685320651884,48.00985662212737,-0.05185060520083381,63.49053223158381
5.647517386758956,582.5770646193478,46.84016149120106,-0.01949275785563746,580.6885469009269
5.647517386758956,119.23092299216012,46.830231411830724,-0.03708651032798601,-109.63619127811515
5.647517386758956,50.93667050590068,24.18487240799503,0.017464520301030843,-44.79720341416554
5.647517386758956,36.17069998124696,29.68432865933816,0.00001020342292643821,-20.598872762400617
5.647517386758956,59.55167917439466,26.971561914228495,-0.003358359538928969,-53.06685141425191
5.647517386758956,64.3752143347165,38.71632109252435,0.03797579733955159,-51.40395558168613
5.647517386758956,156.31507577495404,27.72446817394968,-0.005127432549886099,-153.82753375977467
5.647517386758956,27.496678876943975,15.464342867301621,-0.07092792306591704,22.673107596400282
5.647517386758956,24.52308731988049,21.070212495269413,0.018185033781608486,-12.4330614215133
5.647517386758956,104.69855577884927,69.3156902314695,0.058798850465015096,-78.44917209576441
5.647517386758956,150.12763280583246,32.16431754580273,0.02301166089473695,146.6319053584962
5.647517386758956,35.32888838744222,31.243487924036543,-0.002006436407407196,-16.40512733602046
5.647517386758956,33.59768805195778,28.772389202830738,-0.041586101191524,17.265744191826307
5.647517386758956,392.14334235302084,32.582691784952466,0.022718254950023064,-390.7837279386517
5.647517386758956,17.43036056669184,17.13720277967716,-0.0013958978356406427,2.6994700088129417
5.647517386758956,325.55455603585347,20.496099665423795,-0.05019012723640515,-324.9043393447704
5.647517386758956,230.42581881119156,49.249670773868914,-0.03764936884383488,225.09482418728007
5.647517386758956,34.698015893946476,32.87228212668481,0.011924106412887617,10.978097397991458
5.647517386758956,737.4996655832927,34.80465347753749,0.019600710060571284,736.6760114443072
5.647517386758956,328.9478182311089,42.91263878356741,0.07578062431513499,-326.13236607064715
5.647517386758956,144.73521595100388,36.97504267083347,0.029369733703742795,139.92241236912838
5.647517386758956,43.24796101636073,40.15613926963797,-0.00853522608805361,15.96946862246556
5.647517386758956,67.12355155969695,66.85204633737352,-0.01007502656320539,5.790368113574174
5.647517386758956,40.541764602167724,34.19745982633873,0.012179226967944717,21.709943805865983
5.647517386758956,76.84648240311064,41.5999045220151,0.07879466064439054,-64.59084287107713
5.647517386758956,97.62406959263137,41.11249149820596,-0.023177348131011292,-88.52894927283002
5.647517386758956,59.896110465799886,9.004742700678817,0.01394700486016769,59.191315690824354
5.647517386758956,120.21578725638321,11.482788202453191,0.05489334999171153,119.65421621235758
5.647517386758956,229.35427956318205,23.169173437912814,0.026048541669811787,-228.1747743891238
5.647517386758956,201.45462900578192,28.02249302265003,-0.03083264362620008,-199.48899686926285
5.647517386758956,23.690150053865448,16.661691104963037,-0.003945001061693496,-16.75603274759045
5.647517386758956,46.860339931313106,12.936913836209458,0.02363034003836007,-45.00756103571531
5.647517386758956,2151.6483396841227,37.372906817270554,0.012397183123982738,-2151.323080510616
5.647517386758956,33.18331434708935,33.13954994216014,-0.036921864537865556,0.23368219581025956
5.647517386758956,13.718726636233502,2.1915274205494084,0.01760110815698547,13.43702899414801
5.647517386758956,52.542160838275564,47.613193771795395,-0.05314529138248745,-22.154300031519522
5.647517386758956,63.89083351420552,34.589764095322636,0.020150116187745978,-53.69115207226022
5.647517386758956,280.6044331760476,31.125567330007016,0.0731580739904708,278.86770163329464
5.647517386758956,494.67753790444965,36.401229261719934,-0.033249599367578424,493.3335274434651
5.647517386758956,69.4161911998883,12.145701288543536,-0.04899529554280661,-68.32452363737222
5.647517386758956,32.03668759646575,26.633822199697118,0.008004726316465632,-17.724056900628586
5.647517386758956,46.39466253606886,27.689185532187885,0.02321066761100939,-37.18772065572986
5.647517386758956,103.67155001578826,20.858338616904103,0.014687265812177022,101.53754560263299
5.647517386758956,1577.6548943550783,23.304417391996772,-0.03806778332619633,1577.4818609902622
5.647517386758956,253.61440661068912,27.851338657150386,-0.03536865831115353,252.0748347504339
5.647517386758956,30.43469076183518,25.264796473737366,-0.06493443383258983,-16.885189792607196
5.647517386758956,34.42151793457306,33.91059614601173,-0.03237522436398574,-5.662570766972921
5.647517386758956,226.66809904123647,39.52330694106077,-0.062019242508829335,223.18934758390228
5.647517386758956,22.455932528054124,21.21206444348782,0.05386424068606306,-7.174100382439203
5.647517386758956,646.6992684834487,29.622224388353274,0.07795797952694604,-646.0182775988394
5.647517386758956,160.70129785249358,25.482858820206093,-0.04936569583401731,-158.65901169097606
5.647517386758956,97.38755676990078,9.132396463699802,-0.03264199509479714,-96.94373560392908
5.647517386758956,561.8107578679883,15.771589419809185,0.04021271018967508,-561.5868021919835
5.647517386758956,26.060265249121755,19.59589528834407,-0.0453978595829944,-17.096480387526633
5.647517386758956,183.40995186996602,26.123709083062163,0.01611267029568611,181.53213324084675
5.647517386758956,34.05660344205076,24.059080518891154,0.02424071897736395,-24.04507610480905
5.647517386758956,111.05902777301023,17.056681001018017,-0.03736429413989653,109.728434222535
5.647517386758956,40.10736004401105,39.025777774915255,0.04530879247395706,9.096171490252848
5.647517386758956,58.63941043316215,13.280430241489583,-0.03981929631877647,-57.090826170912216
5.647517386758956,208.80434108338164,59.01906342862837,-0.015936709561834628,200.28269057309447
5.647517386758956,191.81264351140314,26.740846300382977,-0.04496581156011662,189.93201077741372
5.647517386758956,65.79077141680877,27.792334930648877,0.005305317350954453,-59.60843132040067
5.647517386758956,111.69684551844458,55.82879358344684,0.04792944667283599,-96.72891087188046
5.647517386758956,86.56334669812786,34.17653693264622,0.04659756920710513,-79.51307146276137
5.647517386758956,42.36525437196962,42.26465101941094,-0.027470976019879426,-2.380480509996478
5.647517386758956,10.417649736836289,6.233679674759395,0.04415251890560028,8.174356501332142
5.647517386758956,1360.158610127139,34.45444743667408,0.06375797939671259,-1359.7211056241083
5.647517386758956,255.73569005069564,20.58528244890077,-0.01724433926736685,254.90025971885768
5.647517386758956,49.37333604210972,37.496216523837454,0.057047440322947396,32.07663002589335
5.647517386758956,44.441273814656505,43.431471133480784,0.03428017849345201,-9.267488776586871
5.647517386758956,26.0571024909938,24.732047946822373,-0.009129746990016351,-8.028181682912662
5.647517386758956,221.7792901659181,21.277026589312925,0.0030079930418767443,-220.74984726353046
5.647517386758956,1529.142338289909,33.26919785993021,-0.02619991811165916,-1528.7794490795443
5.647517386758956,3150.3841438115905,36.440244376504694,-0.025077448736376236,-3150.1729341308064
5.647517386758956,385.2840638587839,31.490100241617757,0.03063549413533937,-383.9913226906081
5.647517386758956,27.536135842045358,27.48329315932482,0.07799574357507981,0.23383925690228546
5.647517386758956,58.01141298571941,9.66059062763835,0.04668005089046298,-57.176465754728405
5.647517386758956,36.80061077291899,15.781530863809579,-0.021344138116354397,33.20212600401028
5.647517386758956,137.59927018686184,25.516112431991562,0.05842404730201984,135.20220833569826
5.647517386758956,11.968079221387509,6.6486090425757345,0.06247929926184662,9.807160867929685
5.647517386758956,824.395356059426,35.07497351708418,0.03284920154307476,-823.6471341757691
5.647517386758956,69.72284436905471,42.422142911320776,-0.007843241243522871,55.30633007269936
5.647517386758956,78.27058298732746,53.35867039824215,0.06605953470784919,57.238845905116285
5.647517386758956,48.975404202283684,45.790202435279205,-0.03057261883196409,-17.29161741804667
5.647517386758956,27.834327654408984,27.77466563119953,0.010559401143668958,0.6863114824975323
5.647517386758956,61.097189784906845,23.458041115707474,-0.06097831432087188,-56.38915301878356
5.647517386758956,71.55347086235886,28.84154733383226,0.0138229920693633,65.4615729926309
5.647517386758956,32.43936643774983,26.421178392702593,0.007084840371020437,-18.745323868435378
5.647517386758956,57.9526220720937,23.80285721365564,0.04542191719888386,52.8117574054356
5.647517386758956,410.35217825229927,43.305524705023565,0.016972897928808676,408.0572200418148
5.647517386758956,122.68195671736515,22.12156355658235,0.014218159021516024,120.65923966924953
5.647517386758956,222.2107777013507,21.2636898260874,0.0017357233086510826,-221.18462561514127
5.647517386758956,39.16942756714675,37.54524438080106,-0.007580960634429731,11.034129451697472
5.647517386758956,283.02518323304304,20.101875638713086,0.07802388639461993,-282.3053599244625
5.647517386758956,37.89804901519294,25.194943494252872,0.027234113387110303,-28.26003520320418
5.647517386758956,614.8676246544723,52.86924631106492,0.05685888661062349,612.58810696887
5.647517386758956,69.79481519703434,49.819768233549205,-0.06400534403852765,-48.85136860686149
5.647517386758956,158.9781424252882,33.219992554352544,-0.03065230028072097,-155.45942980091098
5.647517386758956,714.3387192351898,37.828629541161504,0.037076409219547725,-713.3343904515277
5.647517386758956,29.645205149628364,26.414288415104785,-0.06258889679322664,13.351892316114274
5.647517386758956,39.07548990768556,37.31207860317047,0.05762186266166534,-11.482716205728826
5.647517386758956,121.92512591346599,17.47065674707335,-0.07798991619705958,120.65512748871201
5.647517386758956,26.070486453983342,25.94727106789028,0.011754036157334632,1.8874956485478678
5.647517386758956,26.307995885186273,25.508726763955448,0.0009782811051902078,-6.2103860849150685
5.647517386758956,67.19599165806171,17.550437798971757,-0.0345599152770242,-64.84161953167795
5.647517386758956,96.7999279433816,35.41160880622002,0.013079584745164179,90.07439830732967
5.647517386758956,112.87881021658002,52.698954452180075,0.06764828000701217,99.80778932113392
5.647517386758956,45.93999867283874,33.22685697123629,-0.029018728226018285,-31.679835884845467
5.647517386758956,61.76907919206974,20.084483689963488,-0.05007151649458079,-58.388214066632564
5.647517386758956,735.5591839496177,34.08543505593179,0.03729697651613932,734.7670707159615
5.647517386758956,46.16705299283437,17.43426211147942,-0.0518346063857578,42.71526647170647
5.647517386758956,14.526224157670454,14.396272038267513,0.011792992874691422,-0.9548772215864746
5.647517386758956,28.209747917744014,23.451292834644796,-0.014933611318352224,-15.587812831104742
5.647517386758956,339.095082950703,31.571036017412403,0.042967566347064376,337.61797421023596
5.647517386758956,240.78255908463228,39.125290022467354,0.06366742955043994,-237.57651772926667
5.647517386758956,34.519342012467625,26.03653632367201,0.06010616097150789,-22.601626631575293
5.647517386758956,42.36093775276452,37.11868797081247,0.06951523098393671,-20.34208957200841
5.647517386758956,24.67641152519103,16.331945117881382,0.028552933873160904,18.421330816772127
5.647517386758956,334.5732779541075,34.96290937636541,0.006540491903102648,-332.7371735108994
5.647517386758956,798.9434758672182,30.449065821542632,-0.057571513893348414,-798.361247867663
5.647517386758956,642.8098301120688,20.25247392454957,-0.06116421356058381,-642.4884937782816
5.647517386758956,40.100188703376425,23.565748174150688,-0.03462799328014623,-32.40112402131897
5.647517386758956,18.020055093108265,14.59062539432214,0.04905714575116692,10.439684835356369
5.647517386758956,603.5584367723687,47.31516919529365,-0.030621266885935312,601.6986071243376
5.647517386758956,85.80596702746153,34.40744233777616,0.015354449402206701,78.58718116483888
5.647517386758956,22.783195873289763,22.01983058065707,-0.009378499117385596,-5.599497954951108
5.647517386758956,205.48385080443657,53.483906041698404,0.050841877395028164,-198.39414190179642
5.647517386758956,39.14400632423832,35.389514158381104,-0.013314931885214458,16.642978440238444
5.647517386758956,342.3520279456175,134.2956182452032,0.005081488786690749,-314.9075282089933
5.647517386758956,177.39884839343483,26.434992578496686,-0.055154665498642744,-175.41007076721246
5.647517386758956,485.39279131076523,42.20186655821099,-0.0019089331186022554,483.5517735483129
5.647517386758956,43.99604149456942,21.932902846284502,-0.022289716218844544,-38.101867841350895
5.647517386758956,740.1790360868796,28.241633241170796,-0.0026631301864582456,739.638133817602
5.647517386758956,85.9061051689372,25.68849714602867,-0.03858247561679921,81.95798875626129
5.647517386758956,20.346436560879788,8.757316279507576,-0.0510571978384336,-18.28763722772918
5.647517386758956,1350.414648664059,17.64952969571126,0.06742130013343783,-1350.2982508587747
5.647517386758956,2.1926936126515026,0.6699323485840516,0.005188260524924381,-1.229820683325858
5.647517386758956,69.49423246703276,48.90378632715366,0.08569630748191012,-49.345861782898
5.647517386758956,204.43572557761271,35.400933279111364,0.04229051290421329,201.34023794768225
5.647517386758956,58.367948986176934,58.13932492673632,0.03703706074325148,-4.877333705659521
5.647517386758956,102.41119415265902,24.713818685684597,0.030127019273870907,-99.37017830320795
5.647517386758956,151.1524801657317,7.624712937167349,0.044011797300871354,150.95061267097694
5.647517386758956,466.1053491908754,36.57013976046891,-0.005987744045267845,464.6654439231506
5.647517386758956,55.75889743090927,40.518977223266084,-0.07427702990402359,38.267675658678726
5.647517386758956,38.36271100243005,38.228989279156146,-0.0347856409927063,-2.7192193757055687
5.647517386758956,76.01775362185256,40.2802804874322,-0.017926588798585028,64.44649670934628
5.647517386758956,332.7207578777588,33.65513468512688,-0.004041257623050854,-331.0099515205673
5.647517386758956,147.8162165034128,35.0031098030603,0.05112716993725811,-143.60211329021274
5.647517386758956,430.8109947152377,32.37832967642651,-0.053564097610564035,-429.58923107509173
5.647517386758956,92.54207645712142,35.93271303934861,-0.059142357676104006,85.26444710846931
5.647517386758956,87.97415546566828,32.64926215858513,0.05423041508900923,-81.67391357932794
5.647517386758956,117.46010693370573,17.06984793976727,0.023534862079713673,-116.20090295778677
5.647517386758956,311.0903267980807,30.965283656853714,0.05771415471274922,309.5407771108153
5.647517386758956,241.38663975604902,45.884803681858905,-0.009133693089618762,-236.97942516234062
5.647517386758956,641.3048799991786,28.066267003464134,0.023121072225028582,640.6882132695833
5.647517386758956,37.10375301307958,37.06536735579586,-0.020498060365749683,-0.0004110182357156926
5.647517386758956,29.71774549212434,27.56567502283039,0.03752235206505633,10.974057574451518
5.647517386758956,185.9237234563136,19.656811700890998,0.037024176471281395,184.87399145561216
5.647517386758956,200.4225674749488,24.66565003874046,0.004977157372112475,-198.89184152837586
5.647517386758956,45.41687721090439,39.50233607044997,0.04423329035294011,22.347474440918777
5.647517386758956,58.72822791300889,44.984027405067394,-0.04141549317092969,37.717286579011585
5.647517386758956,28.721348299316798,17.556611025000514,0.043616388646758146,-22.667879145655426
5.647517386758956,1304.953589589693,18.551003672746326,-0.05080017010985052,-1304.8206321387643
5.647517386758956,35.772949620785646,34.48776732411208,0.06564943395264232,9.351305236430727
5.647517386758956,86.85950677805637,57.702173065644935,0.05678333395221296,-64.9013351695207
5.647517386758956,61.532025428031474,43.91640923659983,0.08533531584382381,-43.06605694543176
5.647517386758956,67.29662661410757,43.732488943981664,-0.026561355959692456,-51.12199183131856
5.647517386758956,199.59558278595426,60.93528365353715,-0.03424412529309612,190.05904369687713
5.647517386758956,213.30817384952994,26.386976421031946,0.01653506154864305,211.66307571910798
5.647517386758956,63.63976580426372,33.948894426903934,-0.023737636039155862,-53.80190689223755
5.647517386758956,50.17084132811823,47.22861393538884,-0.03298850699888235,-16.844098283242044
5.647517386758956,14.76711694273661,11.764232372521096,0.05210933092571228,8.764773471534552
5.647517386758956,16.66284291160363,8.514268798054106,-0.04905172539643602,14.22352082163194
5.647517386758956,28.246425951161825,27.973330419376406,-0.01779389158643399,-3.536444194976225
5.647517386758956,93.72043014863971,54.15061097292358,0.030491659519086122,-76.47472012807725
5.647517386758956,201.61390263384845,32.55952064012759,-0.03671714363188688,-198.96028596856033
5.647517386758956,632.0201591094465,24.60293781350331,0.04923684046586952,-631.5388570288549
5.647517386758956,2129.7638156116373,26.230491747516915,-0.018123392755028212,-2129.601611722899
5.647517386758956,40.21497572663754,25.821095915532336,0.05708242114022801,30.78417466679953
5.647517386758956,42.407722482582805,25.295892385324382,-0.05410015596820522,-33.99534111708355
5.647517386758956,289.8269495867161,32.0747564847872,0.05000149649495242,288.0417011353334
5.647517386758956,191.52034885370844,32.51669250203812,-0.011806648357343902,-188.7322494548322
5.647517386758956,45.633849912969836,28.799677649902915,0.044115289331598154,-35.35786007221431
5.647517386758956,134.8080030369855,25.950342356774065,0.028569649596349174,-132.27596148985324
5.647517386758956,63.98753460735711,41.20945245715072,-0.023222848803814602,48.921758593827676
5.647517386758956,47.607548490282504,41.13241097942459,-0.01435497204762168,23.911432916347554
5.647517386758956,41.37989722769634,38.97042044775691,0.01956738951350257,13.811416716648898
5.647517386758956,98.65734351954373,37.28289297993205,-0.05131549104244423,91.3258346690818
5.647517386758956,373.10863761907024,19.179287903412703,-0.042957288589136326,372.6115429318474
5.647517386758956,1347.967814036973,8.791536134668895,0.01489579004322333,1347.938088244422
5.647517386758956,553.54511162452,36.50857063138727,0.00798708752803297,-552.3372775759079
5.647517386758956,308.14552231184354,36.49103304350542,-0.005933350853554148,-305.9725817503194
5.647517386758956,368.07845836643406,22.86292111054588,-0.03171542529209311,-367.3638397226099
5.647517386758956,25.471411858110855,25.012576092522632,0.003071349607200855,-4.507464889712066
5.647517386758956,23.118571784706717,5.377760833466993,0.0790216794684272,-22.420865176454274
5.647517386758956,208.91162704808923,6.886672149144263,0.04879292121734552,-208.79126579372243
5.647517386758956,32.65696183330427,28.325338570939945,-0.02236012565048004,-16.164938631253587
5.647517386758956,324.58890843856193,44.75450333792186,-0.040032664219780294,-321.48428530738903
5.647517386758956,93.0753597623204,49.27029402878379,-0.04622889575042742,78.94689337773629
5.647517386758956,771.3572196135087,18.413175511471245,0.03492084964847877,-771.1355700445314
5.647517386758956,75.81589817956326,53.479046413320965,-0.06316483759958419,-53.71397780469211
5.647517386758956,170.83990909646363,43.847572813003985,-0.07693729239619289,-165.10848666574717
5.647517386758956,61.982816280615495,38.09353114388328,-0.007653692753964186,48.866202332403674
5.647517386758956,1082.464693706399,34.250665865959746,0.017407234105465606,1081.9213733425913
5.647517386758956,600.7059684165627,35.8391048224034,-0.036676669553196185,-599.6335306681365
5.647517386758956,36.35299976909138,34.11755576382829,0.014770999383823275,-12.437288797607865
5.647517386758956,20.02359694361073,19.885143525701334,-0.01135894638334544,-1.6366925186706507
5.647517386758956,39.424999793928336,37.39820074861535,-0.028201086562770164,-12.363566804127847
5.647517386758956,6.616934047952715,0.2188849418877438,-0.04527367288650596,-6.394313549992216
5.647517386758956,230.86313075167408,18.02420432737891,-0.04492340220507977,-230.15226388332852
5.647517386758956,1206.1890700669878,29.44914737548929,-0.004330055525095277,-1205.8283351452128
5.647517386758956,98.13433727689926,18.846214632583987,0.008858320566994536,-96.29289515967861
5.647517386758956,38.045632743213204,29.051856060103233,0.05669770831435222,24.50734595112803
5.647517386758956,48.24211731132586,39.83149885758132,0.08175956874375685,27.16432010404536
5.647517386758956,22.64769197505425,7.957806341043273,-0.010804546441530553,21.136332302484846
5.647517386758956,106.31699562612445,15.201373683994369,-0.02318620296928485,-105.21109565720158
5.647517386758956,16.0606401479104,4.867992007823418,-0.02539646962702664,-15.211823056283206
5.647517386758956,40.14551921447539,39.726350175808335,0.035512133907737053,5.534613220552198
5.647517386758956,860.1665144572994,29.61284273043746,-0.0563934279573335,859.654967035454
5.647517386758956,78.42554999977503,33.74152768888656,0.06306378858763136,-70.77588300296779
5.647517386758956,709.6640697586188,8.496502384430986,0.0007983047393837863,-709.6111997022479
5.647517386758956,364.733171033633,41.25568741781924,-0.0017020667310067676,-362.3884762170832
5.647517386758956,527.7493599615685,43.8698825735348,0.0009222786137931061,-525.920121056309
5.647517386758956,68.47818960449537,34.754934619004615,0.045241744016321944,-58.978880238831515
5.647517386758956,39.61528937254569,39.36485470961596,-0.015521021827980193,-4.1149137005701295
5.647517386758956,66.982776077731,18.79756872941015,-0.07125820476765207,64.2689039358437
5.647517386758956,357.08712112081224,2.7683097912606875,0.005401312786454549,-357.0724042711491
5.647517386758956,21.697735264072577,15.23598423690187,-0.03996568434106391,-15.356050682731924
5.647517386758956,210.60253800385132,15.469313185488483,-0.02617387173236253,-210.0268603490164
5.647517386758956,73.6663035566713,18.41173918464278,-0.022390552538292793,-71.30837979134984
5.647517386758956,511.20480218597527,44.63283457436551,0.0499844502580199,-509.24985100372686
5.647517386758956,81.02574007301175,22.267873515497058,-0.06350248431675495,77.88749399496348
5.647517386758956,165.13491590594862,46.66867492936634,-0.06790297988695475,158.3942044731785
5.647517386758956,19.024460753724092,14.985349175628079,0.03345350094760307,-11.598348495439577
5.647517386758956,1605.9347689319736,28.57206150110731,0.030118856912052613,-1605.6796915477653
5.647517386758956,1636.3716316856717,29.721207928016597,0.042139543280466686,1636.100827699531
5.647517386758956,61.25902619775858,33.709138118708225,-0.032019501658837775,-51.122545541541044
5.647517386758956,29.204093518587875,24.67096685714426,0.02138376572128875,-15.536260979224675
5.647517386758956,297.7377683405082,38.49056307880613,-0.004060510757920078,295.2344976856172
5.647517386758956,183.0215239977505,42.195448109691355,0.07643546803612504,-178.08304229433142
5.647517386758956,107.77674302008946,24.88520722082812,0.05733722346620888,-104.8508602727777
5.647517386758956,1300.1894671921125,22.3268548309643,-0.014364068655804994,-1299.9966597396487
5.647517386758956,192.70922027470277,30.909154628474024,-0.014872405989635686,-190.2067845996889
5.647517386758956,284.9098039084795,27.2155772108961,0.065991206454695,283.601935387103
5.647517386758956,568.9318097083515,38.59062070059874,-0.06084575501763432,-567.6189899744902
5.647517386758956,67.96689263521688,46.15427103691986,0.022247856799763033,49.864162025190076
5.647517386758956,30.00218593997691,19.707378614053734,-0.01633673205088267,-22.558889874157636
5.647517386758956,49.727681790847996,25.63817469621352,0.043488058853813356,-42.575554408967
5.647517386758956,104.19831600651804,103.41151368385091,0.004845211174104428,-12.668909291519075
5.647517386758956,410.93972522546636,40.48736291605497,-0.072747321980491,-408.9368891531021
5.647517386758956,37.527302825486125,37.48680735988054,0.015717035773434345,0.4368915170062604
5.647517386758956,599.094662011746,38.645758718844085,-0.07312635210705444,-597.8445177690046
5.647517386758956,50.237072374491845,33.181989331597215,-0.04918531167477593,37.68116234229932
5.647517386758956,37.91073478801498,37.47303276847773,0.07748156426485851,5.490265367985642
5.647517386758956,6.404965050273423,5.3018401957724715,0.057674842298626926,3.1724015115021604
5.647517386758956,436.46460218275655,35.974371849745545,0.03568911392679737,434.9762587139201
5.647517386758956,84.51997753220995,35.01564956574994,-0.05109623834457985,76.90696760770244
5.647517386758956,266.96081790484453,35.70089774726187,-0.022434043701184517,-264.5575118628853
5.647517386758956,47.07795769483685,35.40155835541105,0.062100786386587344,-30.987308694391388
5.647517386758956,40.10197187136659,37.72906603112542,-0.0012141243885462288,-13.484773369273103
5.647517386758956,49.37544102360819,37.654860383485314,-0.04141988615952404,-31.893531320206137
5.647517386758956,168.02255075130302,24.983061661489604,-0.030656179715072094,-166.14625075846564
5.647517386758956,35.11320903177949,25.745014572130287,0.05150450618822026,-23.8176911219367
5.647517386758956,73.69580459936164,40.68570369825756,-0.020168121849581045,61.42392134401422
5.647517386758956,372.1344111682175,34.54219561140384,0.035040319246422424,370.5239652977111
5.647517386758956,1613.6691040523453,28.928191340700074,-0.029627786419292913,1613.4089034187687
5.647517386758956,48.476352692794826,32.850836596541605,0.04238930556486022,35.60801733253667
5.647517386758956,310.0086893545852,24.781517040903086,0.05790308061961047,-309.01199641055405
5.647517386758956,20.39635802108711,8.415537351620472,0.06632452012464742,-18.502409101783893
5.647517386758956,80.21873851001403,17.728044569494113,-0.020823700779961974,78.2171042685513
5.647517386758956,122.49524626084967,44.16507939605882,0.02842489680092517,-114.24396570661915
5.647517386758956,80.48086045615182,23.71868356409528,-0.05245171661695942,-76.88786372679515
5.647517386758956,778.7688670672563,38.38433866202439,0.01033182813310819,-777.8205089491112
5.647517386758956,155.81213319543266,49.98197110102607,0.01646680193458959,-147.5682097692988
5.647517386758956,59.11381357677207,31.574848549129083,-0.014342535335654485,-49.94622186797019
5.647517386758956,28.63718325519361,14.341887807326936,0.06282155976045042,24.729495794882624
5.647517386758956,54.122379264312954,28.92528705510193,-0.03202313862214247,45.713368618300024
5.647517386758956,1021.9111975049975,39.19011815304928,-0.008815147791206398,1021.1580600168834
5.647517386758956,87.72947530056923,18.4898866284411,-0.00494409342866898,85.74227833712155
5.647517386758956,106.16892927263238,34.50872928345365,0.0610819488018022,100.38993378341256
5.647517386758956,176.5358847123899,29.995735141884918,0.06038188960406107,-173.9606973095228
5.647517386758956,270.22880495165236,37.85636418304764,0.01798345729663006,267.55869595835935
5.647517386758956,541.0859938314313,46.00336080109537,0.014658222520900674,539.1241941246863
5.647517386758956,16.185784881792685,12.6731621110595,-0.001044506104297312,9.925924801215325
5.647517386758956,298.33097853046644,20.051169225461617,0.027180705110312488,297.65160173389074
5.647517386758956,193.74732159021497,32.20657063624081,-0.045763142977983354,191.04426902389312
5.647517386758956,275.97854325415113,21.93832639363207,-0.06275639641626168,275.10001022040774
5.647517386758956,39.34941138951018,17.490706685325826,-0.010701718296948791,35.208019423505455
5.647517386758956,324.2154346832627,26.253530872723,0.016848225282482907,323.14633420420097
5.647517386758956,29.019213166191445,5.998101134878328,0.014496785023993866,28.34238337380528
5.647517386758956,51.468041122792194,36.5123688010323,0.06629230415947751,36.234723357425274
5.647517386758956,423.58811078652775,17.40415844203718,0.04358583728058788,423.2270482362899
5.647517386758956,52.464594668166285,44.25867935140243,-0.05966895152042015,28.122105633911044
5.647517386758956,98.66513977613994,8.821752972318397,-0.011582348121605182,98.25548197069584
5.647517386758956,393.25365192879474,38.79067931492489,-0.061863884041862334,-391.3321703059743
5.647517386758956,43.70073234849031,17.497619159834574,-0.04588255688582024,40.009231637544
5.647517386758956,143.00485092685847,29.391901201535475,-0.016821772128777734,-139.94161868187774
5.647517386758956,35.30913497424738,32.85114614297074,0.030173369268717668,-12.833148062517019
5.647517386758956,19.070074840478735,18.841248412442454,0.03159561824139993,2.4140224321456873
5.647517386758956,8.76763006435657,5.352597828183606,-0.03426695567717116,6.7359668285096195
5.647517386758956,957.7708243787029,47.31428770831623,-0.05271817388656419,956.5999481603648
5.647517386758956,790.8061818999263,50.371923616900396,0.026684618780052828,789.1984790406705
5.647517386758956,109.32114612429166,33.95035153146182,-0.012176456694057473,-103.90206861490628
5.647517386758956,117.87489790782004,26.757391914950762,0.06196639123165686,114.78537835786831
5.647517386758956,186.38104440099931,29.721390077300267,0.08076909874141389,183.98825927253299
5.647517386758956,5.40928641470439,2.3203453194746624,0.016268799890371218,4.585793534901853
5.647517386758956,69.34613079943313,14.670322355229006,0.07293075567650963,-67.7555574831654
5.647517386758956,33.843590222611276,33.1098065642024,0.049138472472324675,-6.802961395712304
5.647517386758956,409.5893291808986,79.14331861714265,-0.04643058019866659,-401.86677510243254
5.647517386758956,22.909261220566936,21.1151545954575,0.04454241093764885,8.725588917639302
5.647517386758956,27.368040498888554,21.632246148454524,-0.019018030897098647,-16.679586192105578
5.647517386758956,222.0067284407464,4.084227680372175,0.00992114197351457,221.96274428086585
5.647517386758956,383.5689374486189,28.760771699121253,-0.02451190098787721,-382.48542531161127
5.647517386758956,25.09695379883101,22.72513113663363,0.028701032889127325,10.515610821919669
5.647517386758956,4.164478624546621,3.7996895150125156,0.05914010136608631,0.23480663559636017
5.647517386758956,37.73221519035587,32.04301369595908,-0.0050338634134535504,-19.852423051507348
5.647517386758956,127.23651026043163,34.8110649145203,-0.03741926138812202,-122.37022224574388
5.647517386758956,348.5787883501209,39.481948429921616,-0.010404585141810781,-346.33148964173597
5.647517386758956,223.40560791400694,43.81557407107832,-0.06290112467931279,-219.06028975969437
5.647517386758956,32.78217709699445,13.63607827473071,0.002046236179220988,29.763768078335477
5.647517386758956,91.4143935184336,35.82679676129767,0.022721129676631497,84.08439123774328
5.647517386758956,740.0418045309005,19.766623398690275,-0.040182439855416044,739.7758476917459
5.647517386758956,94.47629232594234,37.332397326079,-0.008662040355671084,-86.7710506817662
5.647517386758956,322.56027493556803,78.5559566498229,-0.010581140738411614,312.84380434856587
5.647517386758956,30.61275779842488,21.29218101123663,0.0010031925745228954,-21.930284008814436
5.647517386758956,995.1004957667294,52.60648932162954,-0.014026500954235114,993.7075561499997
5.647517386758956,11.379613949606949,6.063509434919856,0.0062954318237014445,9.480654895426005
5.647517386758956,60.049614095068364,28.61391533151481,0.054421703956761415,-52.76694448752527
5.647517386758956,34.70276051036528,8.955525356568657,0.047450509320503806,33.4847919357533
5.647517386758956,409.28569477369086,37.52191781085079,0.03807304549518496,-407.55863083797607
5.647517386758956,30.26688209607812,29.515698585666367,-0.05166780685809355,-6.4852454972515154
5.647517386758956,33.8425900267579,33.76071628384291,0.07061146917991928,-1.6380902433616944
5.647517386758956,64.85293456217711,46.232349097093845,0.015008966692592947,45.449160420466434
5.647517386758956,71.30252144299918,37.866288874271156,0.04255513658424049,60.393255500791305
5.647517386758956,334.30631780706,29.479263293395526,-0.058380824581918754,-332.9997554698455
5.647517386758956,1409.4892353819903,33.96724017494571,-0.00799187419466852,1409.0788780542553
5.647517386758956,36.5781415624032,22.93214101138097,-0.057460006709118466,-28.446923156026493
5.647517386758956,275.9745791387145,31.382856306113847,0.05107214092559569,274.1792031544347
5.647517386758956,1028.9251666286727,34.319543159611065,-0.050597773255298906,-1028.3512621224943
5.647517386758956,38.36107939866991,29.41418083814377,0.007862919663972335,24.5668823079044
5.647517386758956,27.632042090437654,18.074385095268543,0.018767649760465917,-20.83265204420395
5.647517386758956,43.27813518743005,35.85917868232853,0.06854894098078576,24.171573810509233
5.647517386758956,26.214065332689113,22.002964277093206,0.015976915809223755,14.149202059816476
5.647517386758956,12.448945908338983,10.745248962736751,-0.008108021259197178,-6.055510145433325
5.647517386758956,113.84444978767998,35.64770647278034,-0.0230607624601505,108.10620994556794
5.647517386758956,515.4412983476949,30.374922721822266,0.027080056702899192,514.5427569877698
5.647517386758956,43.410729184299335,41.64043598883726,-0.04934850789201338,-12.153865788332242
5.647517386758956,710.6635215181913,35.69294397173777,-0.0022336000314186846,-709.7646144688971
5.647517386758956,207.76822132046493,31.065943438201817,0.03903411897807148,-205.4256381642895
5.647517386758956,13.472894908886591,13.190444737942844,0.020501607852834156,2.1642630221749113
5.647517386758956,14.837486517766441,13.874953880553745,-0.005362214230481909,-4.978957935950657
5.647517386758956,289.61029442501103,25.819760264842923,-0.02243812940573233,-288.45210261539404
5.647517386758956,64.64486680537968,21.151511080389493,-0.035651153743908585,-61.06328276632836
5.647517386758956,304.04222018121965,21.66592804251589,0.06812668899095314,-303.2645840902626
5.647517386758956,205.63087313658082,35.131847429275695,-0.046722320449489214,-202.60049479220768
5.647517386758956,74.16038191254944,18.169632440516157,-0.001551431502968029,71.88031781989207
5.647517386758956,64.57971159627854,21.392494325274455,0.0142533035859557,-60.9102086940182
5.647517386758956,288.76199343314596,39.21438405995618,-0.03297332748030905,286.0819344819698
5.647517386758956,140.6977287998047,35.96408523345179,0.005956979945016822,-136.01319354078376
5.647517386758956,101.5442999373165,55.5800731219503,0.04312485934018908,-84.96618063481941
5.647517386758956,125.28111894894955,39.3280427791783,-0.02101233139972355,118.93618778423074
5.647517386758956,100.97752204427047,33.67188955117143,-0.03682643108297102,95.183064911636
5.647517386758956,27.592139091184023,23.459801439084462,-0.06960430012742122,-14.426101386420369
5.647517386758956,24.075947223722903,22.691877526969606,0.036960117715659664,7.866508302550809
5.647517386758956,162.3123649874046,54.04868110917728,-0.029448331706621995,153.03985239427854
5.647517386758956,123.70267002390125,38.24449581083399,-0.004344507333617951,-117.63019375248199
5.647517386758956,38.332143593807565,23.263622864705322,-0.014594459488001596,-30.41891287687143
5.647517386758956,29.957431446842758,27.012026719038086,0.018925487013623163,12.843330687640858
5.647517386758956,7.640144105497804,5.345404090015793,-0.009453553620335202,5.191508220299687
5.647517386758956,405.7998700372032,37.47043443615122,0.011070274279431441,404.0626861425465
5.647517386758956,702.1956090779659,41.23549899703509,-0.03838064261372292,700.981782179588
5.647517386758956,38.864811915086165,32.27293235785502,-0.012504311234124604,21.588994320404066
5.647517386758956,317.001078623864,41.04674082023693,-0.03901420110600428,314.3278555656904
5.647517386758956,412.8062608088965,38.504787320645015,-0.010741247848100046,411.00309438122736
5.647517386758956,1638.1120031204605,35.062242284825054,-0.06865517319593124,-1637.7358525139696
5.647517386758956,50.68856143758322,38.00932262467382,0.017686821977145314,-33.49290568620968
5.647517386758956,134.00114036623063,30.23331168615295,-0.04322277956071936,-130.5350681067482
5.647517386758956,31.99340051849784,10.220408017724951,-0.015755074422642096,30.27001946431108
5.647517386758956,632.1959553602848,23.514037559353145,0.050065187461432875,-631.7562559207004
5.647517386758956,43.19357544604823,34.02542695395023,0.01351947717947372,-26.553878954730777
5.647517386758956,471.57924185870604,35.27937792629553,0.014620819319306508,470.25471823396003
5.647517386758956,88.46156591013238,33.03397814160666,-0.03448948028525933,-82.04484829525981
5.647517386758956,75.86592462326242,26.112650191330957,0.04880857364233621,-71.21038566497695
5.647517386758956,6.9195204281260185,3.077340212689934,-0.0427447015048915,-5.9633298554589445
5.647517386758956,69.11981354541709,31.1991595429126,0.05769171135297251,-61.654773780620175
5.647517386758956,8.270380797291805,4.6901505614611025,0.02033394535834802,6.5995956450077555
5.647517386758956,1069.5210243610313,39.32337512056081,-0.015441205373865105,-1068.7965413823483
5.647517386758956,422.0820259012396,38.97847578108054,0.03527103083698571,-420.2749899298515
5.647517386758956,569.8874303724116,44.24440566936611,0.06920299244134746,568.1648215652607
5.647517386758956,169.17688072865406,50.50893415858543,-0.04649793380421549,161.45220893839445
5.647517386758956,459.84599632622457,31.50391228765313,0.021038241821591572,458.7624622777308
5.647517386758956,832.7457488329719,24.679058174999117,0.0643041436395042,-832.3782646981257
5.647517386758956,349.30074919703264,22.024342912589724,0.03520578997946703,348.60162630047097
5.647517386758956,274.5748910044864,10.660614058086942,-0.011316577854607473,-274.36267118518344
5.647517386758956,45.87261689891561,17.333683116917655,0.009245157869275978,-42.43811630112624
5.647517386758956,123.64162874450018,24.430573383542875,0.01803989870590407,-121.1922130634229
5.647517386758956,172.02209014038394,23.24987876840022,-0.01065604764426679,-170.43531297789676
5.647517386758956,146.6615044639007,35.86361508565133,-0.035882818029170156,-142.19898068175553
5.647517386758956,161.95186723308618,15.98520739974147,0.0638486594680299,161.1521943937563
5.647517386758956,922.4314243633274,31.370510319196832,0.0513397261458324,-921.8962926975064
5.647517386758956,967.9616781646395,11.630175015591233,0.019421883678508608,967.8903359560451
5.647517386758956,174.57068627570996,45.77495063600322,-0.05038530045046737,168.45393807290236
5.647517386758956,153.24845726438818,13.571786223591882,-0.054282743469158797,-152.6369768958485
5.647517386758956,42.967110219859144,34.73589497605033,-0.019013542127317883,-25.233770809124838
5.647517386758956,430.1225472043851,43.08254037988541,0.06120231943055964,-427.95613089682905
5.647517386758956,167.98328625796165,39.98809970227628,0.0018429028764956907,-163.14560898391565
5.647517386758956,524.3527834142583,66.31370401337537,-0.04814757210914689,520.1398708097868
5.647517386758956,90.5110552850634,27.641399251237388,-0.03670462597945143,86.17050666512196
5.647517386758956,40.18604602300933,20.669450415169393,0.002517788491052964,-34.42158476977664
5.647517386758956,42.31437875666332,13.612698105150942,-0.06280662384908599,40.02937103043563
5.647517386758956,65.53201036043163,32.93695172536574,-0.06193052691882725,-56.62818333157424
5.647517386758956,58.50540208096226,21.53459659963801,-0.03586149172826736,-54.37182474226181
5.647517386758956,1076.317233165002,55.66923246396981,-0.06983558138471428,-1074.8752818247021
5.647517386758956,96.13604707927149,44.942166115465355,0.03199618034208674,-84.96760334990135
5.647517386758956,1086.154267387718,37.856618192984556,0.015962455770151596,-1085.4930318332974
5.647517386758956,169.1208799858033,29.56815077261869,-0.07729967706183456,-166.5074890859988
5.647517386758956,200.19049357607136,0.8934855408819774,-0.048210800238761994,200.18138391829035
5.647517386758956,352.51825551520005,26.758232907288352,-0.05626043642843848,351.4971801705191
5.647517386758956,139.69776476400676,46.368878538619185,-0.03951566649919522,-131.76700805416564
5.647517386758956,130.83756468451696,41.39070737603242,0.020985356304271872,-124.10652934074636
5.647517386758956,3040.4201575186794,21.75478415131235,-0.03590918727799431,-3040.341858362786
5.647517386758956,1136.2952581053153,39.11977039118271,0.043869170446601484,1135.6204069241473
5.647517386758956,12.723388044748951,5.552503930536031,-0.07057147129898136,-11.322663688813737
5.647517386758956,2192.0330628011397,40.87167135233606,0.008541609868584323,-2191.6513427575924
5.647517386758956,216.64575076437995,38.23986711740429,-0.0565988218300785,213.23752970240102
5.647517386758956,49.33542630940093,23.2800503422878,-0.007216388159810212,-43.464662462953946
5.647517386758956,468.55681568679756,43.491576736676905,-0.00016350342118141866,466.5309482439365
5.647517386758956,467.1066643414261,44.948922822035385,-0.02152829973599868,464.9358914256337
5.647517386758956,21.418533673039946,14.045047071847439,0.0545821777363241,16.082308545184343
5.647517386758956,18.65801225052996,18.555674531921053,-0.033998023065989466,0.9801009359603037
5.647517386758956,193.19949553801402,20.47063253418185,0.0036727925496610994,192.10453314851287
5.647517386758956,1734.1908519363328,36.25790869137014,-0.032301143953649566,1733.8109549035419
5.647517386758956,20.526489951565242,17.533709405898353,0.07467396635577057,10.538198987676658
5.647517386758956,157.64237520024787,19.51150211236703,0.00395567315558114,156.4211402539675
5.647517386758956,507.00178379449864,34.71150155229301,0.08009090721496921,505.8093192163814
5.647517386758956,140.76059786658902,37.541361639933356,0.01000741763934146,135.65155866312347
5.647517386758956,261.27122568570223,24.434714342207258,-0.014373490816760447,260.1206475649916
5.647517386758956,89.39876494312063,56.19670732451602,0.07968397586729252,-69.50695144808117
5.647517386758956,39.05093447831995,30.89563876369069,-0.013936214033018961,-23.82410931597254
5.647517386758956,49.302339896335994,22.497476966447305,0.06151464791036074,-43.83758496142333
5.647517386758956,327.8333849228929,53.769780392514484,0.05790142651651576,323.3893767950195
5.647517386758956,170.0188836880394,19.11430380296048,-0.05561483612291451,-168.9325738202941
5.647517386758956,169.84604052411714,28.396232881987398,-0.061436198329314365,-167.44694997320616
5.647517386758956,185.56418092699002,30.694147387263097,-0.043023009808334504,-183.0002352408274
5.647517386758956,216.467424999553,35.317118018890085,-0.021147024204531496,-213.56029641177258
5.647517386758956,314.0967242557138,46.918184037592226,-0.002995871783042915,-310.56817218722404
5.647517386758956,100.52101126744833,20.18742492645327,-0.01639175157106049,98.45859384677229
5.647517386758956,877.8912044900046,47.3739792775917,0.041377301869685724,876.6104178517046
5.647517386758956,608.2616648979877,43.7735681672105,0.028729287384285682,606.6821905074471
5.647517386758956,681.8958833448904,42.277571857670424,0.0056991525831972915,-680.5819245307295
5.647517386758956,1091.1629462420512,30.371743771980146,-0.025064048477969447,1090.7388712215127
5.647517386758956,41.320827017055905,15.139139967743192,-0.04564362935681125,38.41052580964672
5.647517386758956,57.296480012758586,48.02327959450005,0.05622067004838308,-31.205792218450057
5.647517386758956,21.541779670522736,19.611845464794122,0.031502538961016305,8.750782041184658
5.647517386758956,50.073879403144964,10.429755580256716,0.03600406697532029,48.946559538213414
5.647517386758956,365.2962107889422,10.101937682501442,-0.03235247886367674,365.15260483123916
5.647517386758956,57.05637106490713,12.762732193604634,-0.07311506834827561,55.58498169597054
5.647517386758956,511.5378103331053,26.021561822311632,0.005837338470749381,510.87274646094113
5.647517386758956,781.043165588119,16.244802154499524,0.06510086709490312,-780.872385263208
5.647517386758956,45.01253640168867,42.40627281765249,-0.0012735736805235117,14.999661573185044
5.647517386758956,1618.7999341751413,21.30112169285105,0.013370291936477364,1618.6589023976633
5.647517386758956,253.7252323352423,48.207163889519194,-0.030989540263370502,-249.09780268572024
5.647517386758956,550.305665568092,5.6232418447016395,0.02760327343290421,550.274347335454
5.647517386758956,205.42934473110446,23.881524367905765,0.04250322069224674,-204.02950780192606
5.647517386758956,40.54977306576894,31.04647895628731,0.04264309536691433,-26.029825423396282
5.647517386758956,267.32150722331096,43.96332843894969,0.0415372586062982,263.6762515686079
5.647517386758956,76.6462334796694,34.43322267929087,0.04350126833828785,-68.45545836587405
5.647517386758956,30.24425052615471,30.196950719904986,-0.053767195654824705,0.09672694045796301
5.647517386758956,61.41340190643771,38.68575763822896,-0.032957753835549164,-47.66728850446833
5.647517386758956,45.89394542105295,39.428478716499015,0.00005065646823790783,-23.426537992509804
5.647517386758956,2019.082347091228,65.92810761212466,0.0384305714119926,-2018.0049952552401
5.647517386758956,514.1035062588797,39.23720971036377,0.015985174149823846,-512.6012189374866
5.647517386758956,26.78068023027355,23.274383190776998,-0.022087042724190573,13.140046527751924
5.647517386758956,106.78914991197603,42.773439419901344,-0.045917433403493295,97.83407739948144
5.647517386758956,416.9697432359216,69.78368442872751,0.05047310153733351,411.0853378608292
5.647517386758956,21.465035220335867,21.285396850909144,-0.02826226360884428,-2.1982286182110364
5.647517386758956,20.800814247576383,11.582274055911531,0.05038358067462919,-17.19522179137663
5.647517386758956,15.481011010811716,14.878207713309138,-0.022602252489962116,-3.9310960556293293
5.647517386758956,44.26701253168334,28.753435974872353,0.005652800048005667,-33.614902589013674
5.647517386758956,100.02500100021554,44.51427084073306,0.020169706617066237,-89.55798959164846
5.647517386758956,175.57784625721453,48.15023024190388,-0.022354405598734767,-168.83805351329462
5.647517386758956,193.9288847666822,18.10703284863549,0.005746567740594744,193.07434077356936
5.647517386758956,43.04137680586759,26.451175466255936,0.017468621678422808,-33.91236527506115
5.647517386758956,63.32229646098357,37.71540175142953,0.034396559585165055,50.83713117989201
5.647517386758956,11.947910333778463,11.39178957630245,0.03837919836890069,-3.1830187769300986
5.647517386758956,208.65222954959404,29.090514700333237,0.0053102331265404545,206.60747375685975
5.647517386758956,3123.9398655852806,36.43717960845755,-0.00207931938156005,-3123.726903735463
5.647517386758956,326.75697837864476,32.57720063934794,0.01878877528322809,325.12459450883074
5.647517386758956,377.82948628343377,37.52891396787573,-0.036397984940670015,375.95724941366115
5.647517386758956,464.5165730380561,43.76514628225456,0.011718476842455755,-462.44719898653693
5.647517386758956,68.38888599935979,31.992882265000794,-0.012580622852521747,60.42059619238339
5.647517386758956,187.33308537983623,37.80835419319945,0.03549018721605035,-183.4703391872406
5.647517386758956,115.14547004827595,41.42359236150385,-0.021752514716241952,-107.42308031907473
5.647517386758956,54.84746426971226,19.329196932925985,0.031941126230361244,51.30086600062306
5.647517386758956,122.35217895974765,19.851693290722174,0.023857495960986897,120.71917325103331
5.647517386758956,36.06825524762827,35.712663337855716,0.03014877601345225,4.762057840917712
5.647517386758956,61.07729478088223,39.404366623096465,0.037237739593472687,-46.63564979753187
5.647517386758956,77.1415102528498,18.569076610528263,0.030069368190047636,74.8542215486866
5.647517386758956,238.18042078527026,28.752353177377,0.045854952503209756,236.4325830325402
5.647517386758956,46.441651839110136,15.263321409587036,-0.006901008418586039,-43.829343907623645
5.647517386758956,169.61017237740322,11.02207209074019,-0.020372107085614943,169.24324942401725
5.647517386758956,7.849990318229358,7.499240750675917,-0.0404876454084481,-1.5923212032016751
5.647517386758956,727.7056813084971,28.791413661175493,0.0699847721269783,-727.1339364931956
5.647517386758956,38.22004274457607,37.22691532347031,0.04511454334727315,-8.48998218362517
5.647517386758956,685.8260531077314,33.66068067661261,0.05280605201093216,684.9974337901863
5.647517386758956,38.325144795541696,27.064541142475875,0.012249074447106895,-27.08284653079403
5.647517386758956,960.9192145599328,26.875683071683845,0.02126635877182446,-960.541819759845
5.647517386758956,88.63769111619705,24.75801719842163,0.045371840990017974,-85.09307963702429
5.647517386758956,59.80771466822051,33.77456530970212,-0.04514246429781697,49.329431620866686
5.647517386758956,15.76962696112366,0.42962611962734415,-0.0291847015451173,-15.673196676090935
5.647517386758956,399.375023956756,42.818792790914294,0.02245571059506833,-397.06940656519123
5.647517386758956,51.85492007066812,42.909164019782494,0.03634283191448636,29.06696488732959
5.647517386758956,49.53372338264891,43.48595109145351,-0.0507345679523046,23.658246463506266
5.647517386758956,68.36618871148606,39.77300135486473,0.02880644344333846,55.580542299020145
5.647517386758956,297.11511822137214,21.284304164214753,-0.029495908976544874,296.34696622682065
5.647517386758956,48.705229141229644,27.332141582236652,0.03225072596178954,40.277856596681396
5.647517386758956,51.60988152391932,45.17934585159659,0.03229662790364194,-24.890940644470163
5.647517386758956,104.1382616569579,23.250128198231756,0.041885042444343434,101.49561919238648
5.647517386758956,110.1691522365704,22.69073839472049,0.04372007553168288,107.79389581087548
5.647517386758956,10.575849635785792,5.571592191587287,0.008300874581042944,8.829455077680345
5.647517386758956,53.3857210120645,53.07177628700934,0.0018275970470979974,5.529480652231969
5.647517386758956,106.27620434973947,32.128308084402086,0.07811626659477883,101.28944031030142
5.647517386758956,181.9804731194513,33.22168983618447,-0.011708321140846027,-178.91440739646092
5.647517386758956,87.53974279268473,59.51412134803782,-0.012234142879027375,64.1749886529797
5.647517386758956,341.6522612353457,22.395112581967798,0.020064297922478998,340.91330206812654
5.647517386758956,38.93022836244622,30.144873662902796,-0.0035140797767345537,24.57646536333052
5.647517386758956,123.66146717735089,40.81321921501221,0.023261640930109666,-116.72014586420954
5.647517386758956,112.18358470913202,49.61895231424165,0.026597117773033023,-100.59954737435571
5.647517386758956,18.635006086504514,18.318180676103747,0.014080541445315663,2.976726424099487
5.647517386758956,135.01371859849135,23.542774270071984,0.045697373746688114,-132.93454513825583
5.647517386758956,141.25697910294645,40.303292386725985,0.01723698695019393,-135.37478295779644
5.647517386758956,118.32931331406382,24.328576307875547,0.037746321006442964,-115.78902680879956
5.647517386758956,109.59973209216494,33.21179659344149,0.046644510517931,104.43289259569387
5.647517386758956,62.94166483495519,34.39517299537835,-0.0038536590638308965,-52.68565859763965
5.647517386758956,36.60762289083289,27.017373944535027,0.012149552594200504,-24.644123055017893
5.647517386758956,160.60614238917213,17.875352429584794,0.022227543026358907,159.5993660529057
5.647517386758956,29.492718289130362,24.463187830621436,0.022310258454594854,-16.386755792468726
5.647517386758956,68.97307966908002,37.06583926697948,0.038230376540087305,-58.14259373999333
5.647517386758956,280.94897122687564,50.46979642867417,0.04264264287434772,276.37343514418467
5.647517386758956,32.815443955098644,25.139260387016762,-0.02513748352148496,21.02435985172467
5.647517386758956,85.44142455800856,11.373289377039615,-0.016110242093227724,-84.66426902543945
5.647517386758956,86.29844904271188,9.942485973729914,-0.04963041804448527,-85.70717710066778
5.647517386758956,106.64683380817422,12.332021064208122,-0.006753118888463419,-105.91799545912652
5.647517386758956,22.759381311193803,10.761820797877258,0.016094024751577552,-19.983137433069945
5.647517386758956,107.67387768739307,30.065754512668462,-0.04849018149061208,-103.3772962522712
5.647517386758956,119.47238523363924,42.28551300932234,-0.008475664353514477,-111.72618109029122
5.647517386758956,217.3556830748046,17.2249582715726,0.007798386542747623,-216.66551896078562
5.647517386758956,202.49437897496597,34.19673109690517,0.010370077202681394,-199.5788324976086
5.647517386758956,71.61529540217053,33.35835630351664,0.04898477644394353,63.349203551926
5.647517386758956,8.251435423236375,7.909946272807548,0.027049778045043684,1.6345013669452078
5.647517386758956,47.74196667257449,23.794592207827048,0.016738117724898884,-41.355360875801146
5.647517386758956,103.70295191686779,11.964116247393305,-0.015612475979951008,102.99667618348441
5.647517386758956,45.89482188621333,21.63973939379834,0.008160851539287388,40.43772592814957
5.647517386758956,476.2408269881049,30.21422047720683,-0.05289969869214984,-475.27842025784696
5.647517386758956,2080.862985513577,23.283848371243014,0.021868684353943665,2080.7320297907577
5.647517386758956,601.8496826488697,35.38826488917459,0.040022120014596846,600.8060111224025
5.647517386758956,121.07481196249125,29.6552065191013,-0.0013457041413223608,117.37475114416662
5.647517386758956,237.512391234587,46.59901042392131,0.01771571832983229,-232.89014855407692
5.647517386758956,526.1475353912972,25.244812732572328,0.009431459242155238,-525.5388489249726
5.647517386758956,23.89519282402083,23.75148766878389,-0.020292410533139692,-2.000012934637705
5.647517386758956,131.9127569827158,40.638590067795285,0.0024089422102618017,125.48559214580618
5.647517386758956,158.7752246060864,49.44380645990767,-0.057139169372587444,150.87091196280215
5.647517386758956,171.08800613590566,39.798405202739886,-0.014862208035168299,166.38613510715638
5.647517386758956,107.43090124299896,45.99387258922701,-0.015422434488366932,-97.07273241328569
5.647517386758956,125.1148067757708,37.864651015429374,0.05001566385046098,-119.23562373030752
5.647517386758956,334.4137257789088,22.224783002049406,-0.010721876017136908,-333.67012495095855
5.647517386758956,360.32833095377345,44.81159083969399,0.058826502885589875,357.52703022805764
5.647517386758956,72.28737159390853,50.45316525627662,-0.007899402555576942,-51.74065650029963
5.647517386758956,106.76889035052751,32.31528675284886,0.024269703043017492,-101.74709327371241
5.647517386758956,64.98864433768065,39.61225360617181,0.054362296709070765,51.49314218160001
5.647517386758956,50.18186429894382,42.63805346833991,0.04432353602569875,26.40771338599109
5.647517386758956,204.48505968157454,25.28027448339908,0.033312847635221195,-202.90933846222845
5.647517386758956,38.84944572931934,38.799026600922836,-0.019119922038936324,-1.0334372882244738
5.647517386758956,20.732688201816316,20.587989249286643,-0.03702902855710555,-1.769485094578384
5.647517386758956,177.1448059229245,16.100714776944827,-0.058744315933886966,-176.40351240310184
5.647517386758956,53.43234421379246,32.723436905168555,0.00005942916512190045,-42.20598861767157
5.647517386758956,54.3974428985712,53.02957552615628,0.04976920439388225,12.004033753251193
5.647517386758956,34.462161474688145,34.40855410449462,0.015399856526125258,-0.919309900884874
5.647517386758956,1406.1826017388237,33.58082658526024,0.051652099546134284,-1405.780561908857
5.647517386758956,61.998387711590894,42.76920084407278,-0.06382090906358438,-44.85247880320077
5.647517386758956,62.04793811430987,13.610037792210807,-0.03187056052075344,-60.51335282153101
5.647517386758956,627.2457110042537,18.236109205133527,-0.020765417518053636,626.9782924894542
5.647517386758956,257.71707790075686,20.17222188349933,-0.027848344644213662,256.9208561412663
5.647517386758956,298.00716434532006,36.37439824231205,-0.0437938563660247,-295.7741108103451
5.647517386758956,69.61520358628314,21.851998749001282,0.026440598200029045,-66.07510432706077
5.647517386758956,118.64490837710933,27.820485309299336,-0.0032999783333275113,115.3247079336504
5.647517386758956,219.43868244938753,30.701346419762416,-0.021862196031361192,-217.27382630009802
5.647517386758956,347.43514647432403,39.21876770931968,-0.05307209747051683,-345.2103993773273
5.647517386758956,82.38344695912278,20.530404421024496,0.05337496064900711,79.76644261964582
5.647517386758956,34.734219996570644,34.60012958516471,0.0032367490410273154,-2.539773786645882
5.647517386758956,23.771751375596168,9.159222372600587,0.029497088910947697,-21.871381502275003
5.647517386758956,49.57582119552939,19.75135641170533,0.06857479992892364,45.44001160331721
5.647517386758956,38.2979695090316,12.203855696795445,-0.0461461600175495,36.262261858333154
5.647517386758956,28.809730018515463,15.65952336134189,0.010134921415478188,24.123290800025732
5.647517386758956,70.56090745445466,14.948720853700621,-0.01940746252109821,-68.93859890430433
5.647517386758956,14.883540002563825,14.08548663807921,-0.07923805935639233,-4.5017708082774535
5.647517386758956,42.08421566700871,26.102991290541592,0.06337288484118661,-32.96762696607959
5.647517386758956,63.343051354912745,43.51345784577696,-0.017121013393921695,-46.000806928027956
5.647517386758956,34.82363292487376,12.365644562914966,0.013281936069108033,-32.5104515213812
5.647517386758956,94.59703563290248,53.97960642465162,-0.05789175406272764,-77.66563769918484
5.647517386758956,39.464222016128005,26.407595367327453,0.01900007513555738,-29.278264210072166
5.647517386758956,131.06651817025133,38.59203724874097,-0.04648013435788043,125.24471276571168
5.647517386758956,945.1307308473937,32.784237692133594,0.008672618643375249,944.5604509324768
5.647517386758956,311.4202965958351,31.820839052980336,0.08057983280981826,309.7857037221
5.647517386758956,573.1926689988892,35.77334505505875,0.07944596401906472,572.072766923828
5.647517386758956,108.90026161868403,22.66642268286104,-0.057797008263711334,106.50187938618475
5.647517386758956,23.50431798983663,18.375727908912346,-0.005328054921373095,14.558123144853138
5.647517386758956,16.237365091023808,16.019733450128978,0.013251889958097446,2.0428851111429847
5.647517386758956,34.993884559951674,34.73815848827763,-0.04768516967096221,-3.8708419584145566
5.647517386758956,152.18363879901835,22.278767355806405,0.02475070242696329,-150.53461137068302
5.647517386758956,32.7673234869562,7.355069724501088,0.002206788733349033,31.886577472042084
5.647517386758956,100.0786443808392,34.49199409905336,0.05271514534605587,93.93182642318148
5.647517386758956,127.16051289021767,22.648872101479316,0.04836912618494279,-125.1158490414607
5.647517386758956,42.822805843169284,42.69904041930824,-0.0465000936208045,-2.781344134990938
5.647517386758956,11.325767948182751,10.84974515591251,-0.03693658020013398,-2.7763420648003443
5.647517386758956,20.300456270660106,10.470940293193324,0.03683101336750942,-17.309534007411003
5.647517386758956,108.330723897462,19.92694609459452,-0.023006260579565896,106.46884718126302
5.647517386758956,13.968871858263904,13.109559366739347,0.005748724158753151,-4.519091840027646
5.647517386758956,521.3985808374161,21.46982529556428,0.0028483851472484926,520.9536256547602
5.647517386758956,77.18420489862172,28.487671427142566,-0.0026426755201598264,-71.71476448690152
5.647517386758956,327.25527727070073,23.616906744349922,0.007993650182040438,-326.3976279683377
5.647517386758956,26.714378398459385,25.747606779059154,0.03947911283132693,6.918857540849544
5.647517386758956,1530.5044954738557,25.442626287271715,0.00458298440847008,-1530.2920756516346
5.647517386758956,544.5161390799705,38.53776996519231,-0.034984934813725235,-543.1480628434811
5.647517386758956,480.5376189384001,43.05078242436853,0.025880332758028833,478.6023255979321
5.647517386758956,1701.4357111811994,25.442583051850043,-0.01239729138507493,1701.2446348149153
5.647517386758956,745.9745068082755,43.38813138839299,-0.03811018368191971,744.7097332518161
5.647517386758956,44.61647009714244,30.1802574690373,-0.048742721821102994,32.81664938842467
5.647517386758956,504.3350307806658,32.31027692902433,0.017233202316124307,503.29615771454627
5.647517386758956,71.66260310824578,6.1684528649287715,-0.010563065816462986,71.37669193671451
5.647517386758956,105.50310678515167,27.439503003732238,-0.0016319686306546241,101.85839486005983
5.647517386758956,139.09479139914686,16.013642878020313,0.00832914045067012,138.1596089914731
5.647517386758956,77.04988006918808,6.48453828895091,-0.050964571830103604,76.75796749765927
5.647517386758956,63.6938396504008,10.283872069269197,0.013233041173180249,-62.83550269922565
5.647517386758956,46.636397630626604,25.832302930921838,0.013210078438759529,-38.791737839967034
5.647517386758956,389.5500154515759,31.251348131200505,-0.03730268796151614,388.29076705056855
5.647517386758956,7.392577609828234,6.1660644728517155,0.01689852663879101,3.712540501821775
5.647517386758956,4.553734005394379,4.14326693095344,0.017005982199310675,0.8502548037043005
5.647517386758956,38.84943124065249,32.243676522784305,-0.054175938320585204,21.60495514662877
5.647517386758956,308.7620194451869,27.39015142243752,-0.08084165763130546,307.5400967539943
5.647517386758956,42.8941939200659,39.62590887407052,0.00760852803330006,16.33562211763848
5.647517386758956,96.53994133030068,31.344485844381456,0.009121972394362786,91.29423194212649
5.647517386758956,33.22705995341096,30.804611652883914,-0.07342562562363242,12.339425134258759
5.647517386758956,139.71563748753337,41.07625676081879,-0.00414837987220186,133.53034809271622
5.647517386758956,14.946280864182311,13.805589498035749,0.01840140893774158,-5.47266494267615
5.647517386758956,839.9583551651011,35.43746298887551,-0.07288619577361921,-839.2087777818346
5.647517386758956,469.546040825852,50.79586791332189,0.025722597986172997,-466.7873359319177
5.647517386758956,29.148240550388245,28.810494358552006,-0.05396078966831609,-4.089721278549312
5.647517386758956,423.4689149020051,8.096282849431324,-0.02731998709521244,423.38814902619305
5.647517386758956,8.839621353529388,8.676629561254044,-0.016194847124393424,0.09018182395477284
5.647517386758956,36.34122474040528,34.00030511553932,-0.00786601901131517,-12.720738803722075
5.647517386758956,124.01759986102931,38.419059242675836,0.06133472540401625,117.90458256638502
5.647517386758956,157.64773333608906,52.68419679029239,0.01916520691869884,-148.57434589176944
5.647517386758956,439.60539168749955,10.31720344668697,-0.05373959550231792,-439.4810646839285
5.647517386758956,214.17704689759216,28.455081231774322,-0.0014514839038985421,-212.27168713152403
5.647517386758956,79.87619067278229,18.30052398020934,-0.01623434532319443,77.73319615707555
5.647517386758956,38.75262949209721,38.15087979124677,0.02696993211943274,-6.590093036692445
5.647517386758956,205.10212538476995,39.20580669821496,0.009202921696783481,201.31303947758138
5.647517386758956,310.11242566591613,54.86406546918762,0.007917961858393063,305.2159959762935
5.647517386758956,133.3809043627128,30.866296635664128,0.05754549173830373,129.7493254665881
5.647517386758956,12.205539378207764,12.053973831098,-0.032428944389569996,-0.9106287166846343
5.647517386758956,958.0785583286912,12.56012739637282,-0.006884376022177398,-957.9947392712967
5.647517386758956,713.7574282595385,69.93929764064981,0.0019247514489978707,-710.3205715924341
5.647517386758956,165.23001635202763,29.0372857203962,-0.011323942664710885,162.64976976115162
5.647517386758956,49.51903671693598,47.64414714520391,-0.012070333050486793,13.391171882638659
5.647517386758956,38.16045521764393,35.07226949744575,0.007397377970586049,-14.943546764374343
5.647517386758956,313.9020895638224,32.200702439059256,-0.03225079812831088,312.24155544186476
5.647517386758956,135.14792289549274,15.594382659887259,0.01687657862613317,134.23460581201877
5.647517386758956,12.620558465951484,12.471547176303982,0.06815092376625577,-0.9422061224666496
5.647517386758956,42.21729601389628,40.24302872883276,0.009928242898742752,-12.647213637365994
5.647517386758956,425.8517893084424,38.63069987905675,-0.05667210125000377,424.09263806653496
5.647517386758956,1486.476888882131,20.465465172513092,-0.027728712831904766,-1486.3350424910914
5.647517386758956,116.38845671436265,35.258078336033776,-0.05314444230910403,110.90667849130331
5.647517386758956,42.38722676616754,21.392939493584983,-0.06903815979361425,-36.55362849823138
5.647517386758956,37.220303644145226,36.1829694263128,0.011148944030992008,8.561366273079923
5.647517386758956,100.64452894837562,26.99913596976338,-0.024760280887628276,96.94080998712069
5.647517386758956,827.8546002931088,17.970592225723696,0.03173066719705019,-827.6578093781199
5.647517386758956,66.49201065990044,23.2225417465296,0.035577188441300714,-62.28204525057417
5.647517386758956,77.4731104956194,50.3740440503113,0.0026152401330138313,58.83614466421273
5.647517386758956,183.1976772110225,17.170841904493304,0.055229954611590644,-182.3833914131462
5.647517386758956,124.58810760849357,40.527189729498794,-0.005203363258951523,117.80024114119502
5.647517386758956,1067.9080780785184,27.61985389003869,-0.01776854462955006,1067.5495117186044
5.647517386758956,137.80018613373252,42.73149734495429,-0.06160765914227146,130.99641226976306
5.647517386758956,305.3429021902185,36.41370528218375,0.030921472637253793,-303.15917010595945
5.647517386758956,239.93703674105925,46.224786651664,0.023590369071986077,-235.43619843279612
5.647517386758956,7.453525404729258,7.213311264413653,0.028690238381162376,-0.8220391327359082
5.647517386758956,210.9734342986933,37.42119371050664,0.0568618027863669,207.62127636084188
5.647517386758956,922.7809529097784,39.57880632511172,0.0008272783463299353,921.9302351762728
5.647517386758956,753.8279295939601,34.415335422211584,0.08607396722525147,-753.040024238333
5.647517386758956,77.05917487506596,3.5614647357530558,0.054037665498496874,76.95831905126691
5.647517386758956,215.53113770322875,26.42213132149528,-0.042490420644605585,213.89879354626078
5.647517386758956,87.9470991565506,30.387190098832633,0.014360206848249353,-82.51341776728142
5.647517386758956,63.0107933740888,20.888161188527718,-0.05950373116175231,59.423855925075024
5.647517386758956,246.29083106262252,39.97977026139343,-0.02075420068759055,-243.0184034070887
5.647517386758956,29.367597051779832,28.358152318755206,0.032257257467151475,-7.444682870023863
5.647517386758956,92.7874807605685,37.651728300140135,0.031394573639351955,-84.78806723938186
5.647517386758956,29.42651315757435,19.48235773657991,0.049387821181054635,-21.988823624374273
5.647517386758956,524.2917783556385,28.55862216506668,-0.04884753703075301,523.5106732008173
5.647517386758956,38.989345163641815,38.018054761978874,0.022181387900335144,8.482301945504299
5.647517386758956,1240.9814725408992,18.113172320899924,-0.0693476304628521,-1240.8481279991772
5.647517386758956,66.13210042800165,34.99860276181233,0.0529522400223658,-56.08656789022068
5.647517386758956,80.34898481321184,37.18973764429565,0.038697658126252844,71.20417590884233
5.647517386758956,65.91861265826843,39.91872191722054,0.0029483907027939692,-52.43007263486611
5.647517386758956,52.70426157629482,8.729418824806947,0.057431308678719595,-51.94888378812673
5.647517386758956,819.2473964505774,13.30972057766323,0.04715435844116247,-819.1375336874539
5.647517386758956,191.52382698523604,8.054735467320127,0.007255166560873182,191.34693850931762
5.647517386758956,23.77554471219051,21.90833247873898,-0.0026599949613758467,-9.080466793658104
5.647517386758956,195.98803801580146,19.608372350284032,0.00587456106734628,-194.99737468604366
5.647517386758956,134.498345719637,40.50673952064921,-0.04757761149282246,-128.2425833372053
5.647517386758956,278.8014097572566,37.21302341793108,0.01882768646700564,-276.3015924784949
5.647517386758956,734.8145293458934,50.28352277628891,0.06619165072451388,-733.0901096615631
5.647517386758956,1151.5891119927214,27.14566448200211,0.02495977447560881,-1151.2678873863063
5.647517386758956,191.62557377981142,55.18225577504673,0.06440337153797464,183.50048614684627
5.647517386758956,42.755636073321035,28.996179373341846,0.031053205032636973,-31.375442999033694
5.647517386758956,45.53416278898495,25.758221878467726,0.012601332197287863,-37.51036147071546
5.647517386758956,335.4091429304148,25.163778613283263,0.001290390207411387,334.45961011078145
5.647517386758956,63.580273715168865,52.4253291822886,-0.06433140518703223,-35.933067183287875
5.647517386758956,153.58887381094516,33.078520236557374,-0.053542940441862696,149.97501185374693
5.647517386758956,351.70880930594205,98.84207448489252,-0.021647740310732036,337.52997463366967
5.647517386758956,29.130626209779297,26.015533151170658,-0.052853233846012766,12.997538792932799
5.647517386758956,24.96950496123783,21.347355012290272,0.008382165405786424,-12.842115543465924
5.647517386758956,102.57797507134812,24.082677867577225,-0.03562387613791559,-99.69662841494679
5.647517386758956,457.13945708954833,24.507046641164486,-0.04123258819471654,-456.47895853240846
5.647517386758956,51.45875938018129,24.199455967075497,0.05966470013001846,-45.382155941211394
5.647517386758956,229.93336525346484,47.98696270224428,0.0016712854733572369,224.863863825443
5.647517386758956,139.0738551765937,28.81427178784429,0.029532335935237287,-136.04568149250983
5.647517386758956,27.18882329146327,21.897113793059376,0.02271931864288348,16.028143786623744
5.647517386758956,199.81075009298675,36.38424494473767,0.02793359957229938,196.46291044912581
5.647517386758956,74.73150926914133,32.33494835254984,0.006827110190929553,67.35282426131926
5.647517386758956,62.02386492733935,40.91682231765548,-0.043071762976767,-46.58245384989269
5.647517386758956,50.62994214531123,24.39851345475518,0.02145904639047481,44.33121374662464
5.647517386758956,29.362905303819744,18.029282856984658,-0.019028346273995165,-23.114458578341456
5.647517386758956,39.92641830393396,19.09351500073363,-0.04926255506254557,-35.02438474266238
5.647517386758956,890.4421411502758,13.644807702944112,-0.004530360847643624,890.3359923806388
5.647517386758956,42.612503517331064,38.28616527621198,-0.03023341308369888,-18.631894168381415
5.647517386758956,57.54250505924163,22.01984655738459,-0.0032713944778336064,-53.135860069109306
5.647517386758956,234.87788738789092,30.824936531825742,-0.0018962349740189821,-232.8402857280412
5.647517386758956,734.8519866080726,37.66868854088525,-0.0492922676772277,-733.8839575066463
5.647517386758956,281.2502874584441,35.47860569607886,0.029685468194521843,-278.9984681714157
5.647517386758956,218.8333919251656,47.35352603033139,-0.03005767419672923,-213.64187202046324
5.647517386758956,70.45193506844899,34.180607556532905,-0.07435985474482738,-61.58172685522175
5.647517386758956,8.359414997621904,8.022132280974347,-0.010233068187781951,-1.636611730750703
5.647517386758956,73.14871211678388,18.605937024236074,0.005319959774403589,-70.72274424395745
5.647517386758956,53.74496439638465,47.75827684163474,0.03930439662869091,-24.593089195030654
5.647517386758956,35.83147560678212,33.391155482184296,-0.0248128370661277,-12.887131331333313
5.647517386758956,204.51092996839682,23.00265498194966,-0.010347870430896867,-203.2061800810826
5.647517386758956,8.538967884794307,2.4774027673736776,0.02131517679058919,7.995585258934846
5.647517386758956,14.275716892776078,12.456934826551755,0.004051776819529115,-6.765666339447938
5.647517386758956,49.40571074938641,49.37620120820641,-0.03550962700398324,-0.25910976253727913
5.647517386758956,82.405866513032,38.75831978042532,0.004215639980672174,72.70263307263512
5.647517386758956,23.607832675284,18.750411295335972,0.010503956000713334,14.24447680509019
5.647517386758956,629.0928381610569,17.60351298498936,0.025148722976476728,628.8442319951472
5.647517386758956,20.0306491333094,13.952827850302912,0.02113158708072039,14.272296347872247
5.647517386758956,88.15555146447743,35.35811659117478,-0.009460406610721013,80.73634959258206
5.647517386758956,24.822467266772314,24.30219143454777,-0.026817862424883196,-4.7656104954907
5.647517386758956,85.04352063683457,20.455466020889165,-0.007469998856326627,-82.52955619824316
5.647517386758956,58.635034117144926,37.67810570175404,0.04483675449639007,44.89519970125475
5.647517386758956,330.37988245385236,33.774950963599146,-0.01415824528131446,-328.64459923612884
5.647517386758956,57.318050341185085,42.62031701376933,0.0641859107680757,38.28859807610079
5.647517386758956,89.31664647217742,17.408538823169053,-0.026025413277824552,87.58743531842855
5.647517386758956,45.044961761946695,19.28669331471903,0.07962068657961695,40.67209229397204
5.647517386758956,144.9840622238982,48.683676467799984,-0.0191713628792901,136.55559661502164
5.647517386758956,118.29883612794937,35.46130364348161,0.05158253153864805,-112.84618426104869
5.647517386758956,87.55870479993811,65.10765440092216,0.002240330073963786,58.52071009085257
5.647517386758956,33.10606258190446,29.02348784770045,0.03627010669605664,15.836685487014602
5.647517386758956,95.38680061529281,13.478361057630696,0.047867995049326276,-94.41465253540213
5.647517386758956,34.82087304652774,13.978861482340557,-0.027883518931833235,-31.847091606506382
5.647517386758956,106.43573417320134,22.339004499980174,0.047130589224220185,-104.05136018116103
5.647517386758956,127.10087959428898,44.02928523647522,0.033410153349285446,119.2191591518436
5.647517386758956,124.4551651172145,41.46288713007695,0.0008295758047833975,117.33316029327487
5.647517386758956,117.36378183484946,30.222955058058595,0.015623031384488787,113.39304837582199
5.647517386758956,382.31510449980357,33.865223983292985,0.01185149670735886,-380.8085332325197
5.647517386758956,189.69061709424489,39.71538770017634,0.06438088981283016,-185.47875198637988
5.647517386758956,39.36156086032813,26.20502069248072,-0.009522310353107811,29.322050799653805
5.647517386758956,346.70229571818163,36.38198232504238,0.0393214731460558,344.78396868486135
5.647517386758956,331.2357048843884,45.99163372848475,-0.04274846856411549,328.0228854511752
5.647517386758956,37.33611635918022,36.17631578068095,0.010674088153174655,9.078162660496886
5.647517386758956,468.4914805270999,78.55615048694304,0.026228157839988428,461.8553358456892
5.647517386758956,111.50345188186955,88.771059989818,0.04437031391946361,67.45272500822833
5.647517386758956,61.37620814730286,13.985639286158541,0.0797109457377779,-59.73765861136117
5.647517386758956,210.16620184651498,43.61001866044569,0.015243974258250224,-205.5849017524166
5.647517386758956,175.50907851731196,41.75760850449005,-0.06053426551892991,-170.4608122105732
5.647517386758956,300.0262796058508,31.320859588066224,0.010027931638369708,298.38218026238974
5.647517386758956,502.17087547893397,42.51853373982602,-0.021263303003873198,500.364782339515
5.647517386758956,1329.8409016781716,44.04774727535093,-0.05278447249293328,-1329.1101422906545
5.647517386758956,288.0790958838253,30.68332120283651,-0.0031483750218840464,-286.4354249480979
5.647517386758956,77.34361671815265,12.736145024595798,-0.004645073265267329,-76.26912235816117
5.647517386758956,1660.653776639232,39.81667387858463,-0.013200277265036113,-1660.175518300113
5.647517386758956,571.3004469467616,34.16332760886931,-0.04619371272827754,-570.2755640778441
5.647517386758956,37.8154282532686,35.68433396630338,0.04274749518695815,-12.401067934455806
5.647517386758956,14.411659659330006,8.022157105977545,0.05996722769828314,-11.852878272338586
5.647517386758956,48.87045566835084,47.05434939528187,-0.03428019666311534,-13.090525390181961
5.647517386758956,41.94363280692472,41.558179844541385,0.034537740133107356,5.41647653916194
5.647517386758956,43.70782300349805,33.87443327498877,0.06168770381209222,-27.56893444684697
5.647517386758956,2.467948344954816,1.7583309347452623,0.08505357565665567,-0.3810474385835519
5.647517386758956,34.28829300003159,25.986526675712238,0.015104637554879567,-22.305618797566133
5.647517386758956,108.01259329498532,29.943463443309668,0.05082437319812411,103.76540904421893
5.647517386758956,395.78414001498095,2.3461032633256225,-0.028052042267830174,395.77358917677
5.647517386758956,316.7735115748083,53.66315324912599,0.031393911491495265,312.19044832140884
5.647517386758956,128.97067907707634,47.720823834411405,-0.042220015934847206,119.8053030610142
5.647517386758956,22.061753754940334,20.269331440909756,-0.036691392064391766,8.545596838595857
5.647517386758956,614.7111944245526,34.76310573598976,0.054377106048707484,613.7251253317585
5.647517386758956,73.29829532575394,27.509468077103424,-0.019053146190763703,-67.91923358414603
5.647517386758956,23.380614127605618,13.194221681325354,-0.017983456340196036,19.22807056642016
5.647517386758956,524.4051944814287,26.258112192792904,-0.010120358062987233,523.7446637729668
5.647517386758956,245.02599687315382,30.334124237668863,-0.056372339465414145,-243.13520983699527
5.647517386758956,124.85074804993565,42.80716022648862,-0.057548963716339364,117.27065447072815
5.647517386758956,15.185378640819593,13.57148974816994,0.027893162805178465,-6.600227447273834
5.647517386758956,92.02848214186865,32.984442092096124,-0.07949038050673184,85.89770181089074
5.647517386758956,37.12931306412174,35.91943535194936,-0.04767663868555099,9.248306301843375
5.647517386758956,49.44481533463487,21.08804052194623,-0.010064485792247316,-44.69046429643491
5.647517386758956,30.391931258551082,29.85049614081455,-0.041747481680176786,-5.456098681602392
5.647517386758956,264.8702053332316,72.4495879113644,0.005598908966966525,-254.7634907974411
5.647517386758956,44.01676996610489,36.96330152747989,0.023209593126294576,23.839950286363493
5.647517386758956,292.01645861313784,92.41934698685155,0.03689305828457131,-277.0007733424016
5.647517386758956,24.204698811993495,23.979416458607076,-0.027269107668861925,-2.829783946464823
5.647517386758956,27.461504703711352,20.00590819224088,-0.033492757932875546,-18.736332248726168
5.647517386758956,178.26250482171673,24.63677847032301,-0.05363410468845715,176.54376308780644
5.647517386758956,40.27762701478112,15.25715573150616,-0.052650550057829835,-37.23784438914091
5.647517386758956,878.7423734485793,40.82910063023304,0.017145202798819575,-877.791715916546
5.647517386758956,33.188862211599236,33.142221057765084,0.014010476949751454,0.49694252101009584
5.647517386758956,731.890798305186,33.51014791560759,-0.048650990866364575,-731.1213043356495
5.647517386758956,19.25445822789235,7.437057621519394,0.013620117412405321,-17.679862555465565
5.647517386758956,157.93087519845213,27.854720068544935,0.022613323871490433,-155.4459030962011
5.647517386758956,30.941236748812425,30.820754718986,-0.0350411890204761,2.1432153688174056
5.647517386758956,5.622509234437454,0.6667365535683432,-0.04489669080013634,-5.321601887639233
5.647517386758956,185.764185776654,67.76750813663433,0.022159356567690636,172.95389691209976
5.647517386758956,766.5328520086134,13.92433765132661,0.06680627004216479,766.4045113099588
5.647517386758956,95.2550398907358,78.57021171188286,0.07123681726169856,-53.82743511774769
5.647517386758956,39.2857446362723,34.62709067454701,-0.014559727015708618,-18.47938042687973
5.647517386758956,78.1834660784835,37.396983030261325,-0.010627429003071039,68.63871578957011
5.647517386758956,459.0848534112756,31.634532464029313,0.030787886538393514,457.99051456274145
5.647517386758956,819.6149213572544,59.10230965518793,-0.06944085376970131,817.4794706124136
5.647517386758956,594.0677584836214,43.520897651161796,0.0443795003721803,-592.4690578905833
5.647517386758956,55.31967672316309,28.665830554545163,0.06118732366277935,47.28304598255806
5.647517386758956,48.31439116426667,35.015633650902785,0.014755401115860212,-33.24663841325272
5.647517386758956,78.80398748600948,14.381069359623142,-0.04892597733421497,-77.46227652168176
5.647517386758956,59.22764945387771,17.66737994637447,-0.01248392039540464,-56.50602958727058
5.647517386758956,919.9710401033636,60.06184386168096,0.04790106770488005,-918.0067759206308
5.647517386758956,54.023438327190945,39.44387722860305,-0.016702489780593386,36.87635487405754
5.647517386758956,143.82531268354768,35.59271930805982,0.0033088218955920467,-139.34142341648996
5.647517386758956,208.8825530756,37.598118833417274,-0.007773322564208704,205.46400115117106
5.647517386758956,15.073919468288054,8.784663921842757,-0.033646392138926784,12.132806177505016
5.647517386758956,37.37900372864856,37.07853249328609,-0.05489377609075669,-4.418452723284116
5.647517386758956,77.99175982042345,38.34618321046489,0.03564964735715126,-67.89283432058659
5.647517386758956,34.04940759180331,33.85066833364198,-0.042148655749708816,-3.2628245605976525
5.647517386758956,348.41588380758424,22.796346884825734,-0.05044565392776881,-347.6652204395295
5.647517386758956,25.552503364966935,25.43887721422284,0.02405857137903646,1.7166145127500085
5.647517386758956,17.142409795985515,16.212286027524616,0.06266338610878237,-5.307867611307915
5.647517386758956,402.5452344891237,33.49260266215584,-0.017424721366586488,-401.14593910832696
5.647517386758956,1323.539696545108,27.02374393491191,0.03985943314946589,-1323.2627091381312
5.647517386758956,139.18430619954384,25.827014840303356,0.025864211131483354,-136.75667851199668
5.647517386758956,1741.6077561444756,39.05794122605262,-0.060883331580036656,1741.1689186213096
5.647517386758956,52.7579429011317,33.78757522841427,-0.06003399747150785,40.483948487843506
5.647517386758956,25.599412957215026,20.634427631895417,0.03733212366583348,15.056637615169661
5.647517386758956,1509.7643078825893,29.10760557991901,-0.0013387730273748965,1509.482747845006
5.647517386758956,161.92912267548346,32.611825583568375,0.021379675630570305,158.60221478709576
5.647517386758956,43.23720502366075,32.26937341121328,0.023821979576014746,-28.727970000035576
5.647517386758956,119.36884161377944,76.93753771107524,0.024649067440564793,-91.25068997821226
5.647517386758956,464.3421161732427,27.290411343734444,-0.032135418942055384,-463.5363919458252
5.647517386758956,47.84940858343979,43.70611046970215,0.06308982798626522,19.403381637556343
5.647517386758956,56.94902584439469,9.742051040816731,-0.022235620712759734,-56.08419457944214
5.647517386758956,45.439413688980856,44.00806187212682,-0.056509528232942766,-11.188431670011639
5.647517386758956,169.28265132318978,33.37173369571735,-0.0651850287934526,-165.95207913722172
5.647517386758956,37.041800327554185,37.001424031938285,-0.05538959768113889,0.37404947729046456
5.647517386758956,194.74612651734827,32.483519316479224,0.027455308895375705,192.01048774074
5.647517386758956,169.6544400952106,23.357482311820583,-0.07031778920489709,168.03037079464178
5.647517386758956,384.8356723799913,34.57964286541724,0.0044970481422535675,-383.2752227905434
5.647517386758956,17.2619417276974,11.436901103878693,0.03174318901754856,-12.81890430670149
5.647517386758956,84.70381936980432,12.107527922308778,0.0006582250193802545,83.81705180280198
5.647517386758956,31.406488811426303,28.339600202726153,0.03420240378091697,-13.43081605530226
5.647517386758956,317.9377448523129,37.64138612881934,0.07910373097629844,315.69713775164195
5.647517386758956,551.663454894074,17.735521295260572,-0.05427197779133692,551.375706024946
5.647517386758956,195.41455134573602,35.75226798392205,-0.03169456208271405,-192.1087572106482
5.647517386758956,98.53456732081742,42.27482551261865,0.013224250739983023,-88.98906281111988
5.647517386758956,1144.147786558951,29.11706050513625,-0.06781231924240756,-1143.7759846520123
5.647517386758956,246.34911833887725,19.920733618590933,0.04842892450120201,245.53656249728363
5.647517386758956,36.02892197001289,20.264826824657927,-0.0036613413684887307,-29.741778504090526
5.647517386758956,273.8323571062247,20.484263637678314,-0.030450397401080288,-273.0598967337574
5.647517386758956,320.3188598622445,38.02516719737925,-0.017957928113115574,-318.0493856470663
5.647517386758956,74.2714234318114,33.590609040977405,-0.030986834385343887,-66.21984409951163
5.647517386758956,31.652803105085493,30.088439719299828,-0.007315472714126471,9.68189423899729
5.647517386758956,124.83601146889315,41.88439103390007,-0.0852584947642397,117.58772754022394
5.647517386758956,55.99583326492168,34.03838968825106,0.027320577004877163,-44.430552708171945
5.647517386758956,39.438153677757875,37.43161621256961,-0.0271646455665986,12.304256385953343
5.647517386758956,12.576704961249986,12.236445953773904,0.017968391347544594,-2.3655792405904874
5.647517386758956,9.823167568032625,9.626686662472913,0.03981472770254342,0.9865747126153919
5.647517386758956,413.04650233601853,29.427141796772034,-0.03880881736661301,-411.9934566245813
5.647517386758956,36.88853376704913,34.37599460928893,0.01737386324057661,13.274336373530653
5.647517386758956,33.495952873684566,11.86604292398258,0.04338775689099917,-31.278225519500815
5.647517386758956,103.10222459559957,28.872008496741394,0.013967728290229683,-98.96276591088194
5.647517386758956,978.1249977639357,38.86147177971194,-0.0391401260112733,-977.3512414274453
5.647517386758956,326.9357779441254,35.745085024978934,-0.001696918573570285,-324.97145287472847
5.647517386758956,307.02893617522716,37.044870287802816,0.04490234090714725,-304.78122745329193
5.647517386758956,314.93894787722706,32.493582809367545,-0.03859405714535554,-313.253666964376
5.647517386758956,62.344136571078366,37.65424992900362,-0.05991690214047521,-49.659829107097615
5.647517386758956,28.673040640641332,10.54566038803325,0.04960734186584789,-26.60983343757846
5.647517386758956,41.90151960149068,22.443694941799258,-0.0036927583873101453,-35.3436172249106
5.647517386758956,81.36155414045841,29.706085881276188,0.03067881878321736,75.72584368944969
5.647517386758956,74.64237489746219,35.35908586545437,-0.03857939192961734,65.71431410756058
5.647517386758956,16.810473823189064,16.2300079941572,-0.04211319507835151,-4.041099733045243
5.647517386758956,194.65850130285506,35.2108585529863,0.018542158244289102,191.44001832304417
5.647517386758956,895.6966890649784,30.768200629108,0.05094684895683869,-895.1664802852789
5.647517386758956,36.962319436395916,32.22760992543058,-0.03973322737497448,-18.02071107883932
5.647517386758956,558.7023507993168,68.8448207147131,-0.0740697171954791,-554.4419314527199
5.647517386758956,73.19228464428026,28.256120805789315,-0.003442631718072552,-67.49707805905506
5.647517386758956,89.46482216118058,10.820224512998418,-0.005045983868938993,88.7920633292296
5.647517386758956,75.1883863290709,36.914605770523536,0.04815490849515322,65.48096204688149
5.647517386758956,93.40269533610483,53.06372041227573,0.0386367059003843,76.84697111250324
5.647517386758956,94.72959922136926,30.138628572766855,0.007334046337281895,89.79149944460059
5.647517386758956,44.804371847588975,8.993450829228406,0.02346776491471834,-43.860032125013134
5.647517386758956,89.18131347088976,47.5768362441194,-0.04092231983377883,75.41155773925499
5.647517386758956,3374.9134312080914,43.65123078170682,0.01070924371944296,3374.6307044586724
5.647517386758956,42.66930431528478,33.55639594823564,-0.04664792456897737,-26.301882738516053
5.647517386758956,80.20159484362196,42.168673223606945,-0.007266390090308993,-68.20008908443315
5.647517386758956,29.376320158959786,20.303133331777094,-0.016688009103087802,-21.163744338090115
5.647517386758956,33.53139866720938,24.86628488187507,-0.02276223872235902,-22.43157249363384
5.647517386758956,316.7310612526054,36.83361884588675,0.048403574691135334,-314.57749559037984
5.647517386758956,46.58569535052559,28.21141773008738,-0.006082706340056481,37.03371806685196
5.647517386758956,50.31063184175638,21.88503538766856,0.02633796569972446,-45.26983099827863
5.647517386758956,131.09470196865317,110.08094438830317,0.07543893562048205,71.16989718764667
5.647517386758956,183.51904994181933,35.67093896905688,0.03243873807399481,-180.01105005595065
5.647517386758956,165.98068784606002,29.324578382857062,-0.01040927131829336,163.36098408760233
5.647517386758956,1357.6308849903226,40.61557112154789,0.0319107526776491,-1357.0221618063883
5.647517386758956,788.8540631232148,21.075409103269898,-0.01468868230292805,788.5706773722196
5.647517386758956,67.91155042010581,20.143141306022077,-0.07210754621854912,-64.83348462942496
5.647517386758956,53.58476708798472,34.436061858997846,-0.039950840081890315,-41.01995491649304
5.647517386758956,86.98007083754703,21.14200928521348,-0.0008436677213990905,84.35461786695956
5.647517386758956,908.2945473078299,47.1583392936089,0.03862281154061834,907.0679288798534
5.647517386758956,31.0522488119824,27.595007565048302,-0.011529871657234094,-14.138987613409565
5.647517386758956,42.849162939706375,36.989258013045024,-0.005703277752648213,21.563833463797987
5.647517386758956,868.7518102179387,165.9151865599092,0.00916797807821689,852.7596448774929
5.647517386758956,162.23144496865177,42.0200659095619,0.017538663612769952,156.6860200524346
5.647517386758956,1198.3932535674267,19.25708654224193,0.04439428551298779,1198.2373330158257
5.647517386758956,80.3988283772282,20.696770177703257,0.026697115626699405,77.67089535862351
5.647517386758956,46.65224656724577,9.211532817736176,-0.0380051846051921,45.70264454524166
5.647517386758956,50.55174247573342,36.792467881801095,0.008921297821556434,-34.625803742496004
5.647517386758956,90.95575893140888,41.61019331597153,0.035511569784271224,-80.86219155964275
5.647517386758956,256.93334004822333,73.12540947846676,-0.016087603697091547,246.3017840943005
5.647517386758956,52.34206111310679,33.20327771863772,-0.006558959559345867,-40.42755319322667
5.647517386758956,51.68377199788806,23.7976433975164,0.018037676627462286,45.847982738616146
5.647517386758956,31.07540013697621,31.009509482697545,0.01414435099903806,1.1153497912794323
5.647517386758956,307.02892709845526,87.99303080515784,-0.036963680078058905,-294.1447613481181
5.647517386758956,64.31764774420692,24.674916934141773,0.053229290688355684,-59.3722059737349
5.647517386758956,48.0485500821317,43.02476621306059,-0.053123746133932725,21.323302396160273
5.647517386758956,22.495508743035902,18.426900865136467,-0.051763937185997394,-12.79249578906105
5.647517386758956,36.307559774360605,22.356663868048347,0.00490845574257767,-28.558218489094017
5.647517386758956,159.79697974998018,48.27419661649547,0.04007550611882075,-152.32146421993596
5.647517386758956,368.10742530475005,36.05607253331006,-0.00294344346290559,-366.33344043262673
5.647517386758956,31.542531895675545,30.97737885311399,0.03295434070644952,-5.699615925278091
5.647517386758956,48.77986083977447,28.510091452882442,0.020983447013064534,39.54494226187331
5.647517386758956,134.66516391925228,38.941299035810104,0.00006136962387500096,128.9008727383288
5.647517386758956,1156.2322681347162,39.08249027835143,-0.03770887325353125,-1155.570321874674
5.647517386758956,41.214628894803816,39.59589876292072,0.0022889302507877246,11.312109474259419
5.647517386758956,53.48186807674829,25.267426534444137,0.03733768742426324,47.10646839985116
5.647517386758956,350.9792477291082,37.2791177633384,0.04123318137403883,-348.9897583096193
5.647517386758956,88.1128318012239,10.546177638996864,0.00035879580433536683,-87.46315026920003
5.647517386758956,389.9057077927665,36.20100644429136,0.00006353101342576927,-388.21785313364774
5.647517386758956,84.09948383317582,31.533336314117378,0.004009000855743873,-77.94565578490683
5.647517386758956,137.7286510335868,35.51145427292459,-0.02726217149852233,133.06115352585604
5.647517386758956,62.07708960537298,40.46477810418825,0.044028160970468515,47.04591627630664
5.647517386758956,135.95881395788965,40.41628557959424,0.05058885976169064,-129.80167095787286
5.647517386758956,48.50046096662602,36.55084320932792,-0.04642762848918679,-31.83522905589897
5.647517386758956,22.951757165720036,22.478624840781535,-0.0633080004055317,-4.317865706870117
5.647517386758956,1679.828894845048,36.55104405036994,-0.012926043754887834,-1679.4303469801848
5.647517386758956,586.8006152991127,20.74469011558761,0.05208185405276581,586.4313861184528
5.647517386758956,151.6382109738839,33.413328122790375,-0.01126874194254251,147.901486787788
5.647517386758956,48.538248661856926,30.74387393858986,-0.034032345088748986,37.52236706434895
5.647517386758956,211.08544488935908,48.15484301908545,0.026468981520462648,205.51235687238574
5.647517386758956,735.3469509645568,16.42495459984812,0.08267352270974637,735.161550758917
5.647517386758956,125.39708661891241,15.340561914847942,-0.03143094665960139,124.44375795775068
5.647517386758956,90.69454357584189,12.717057652739976,0.05495882339427718,-89.78266563495875
5.647517386758956,240.75512552644582,40.29215089434762,-0.07238395100947681,-237.35357843105996
5.647517386758956,1506.864937262294,26.921656113768456,-0.05857950630485171,1506.6234810134
5.647517386758956,64.75504380820676,16.717686290562288,0.019177250813048153,62.53709048101034
5.647517386758956,12.44042752507526,7.0647620339046115,-0.004236144915792128,10.099838927919908
5.647517386758956,117.1184908189607,35.09449875014434,-0.056448282165427244,-111.72406747287012
5.647517386758956,492.3868093798661,48.04488734748325,0.018337593308516534,-490.03429666166113
5.647517386758956,271.25638729813363,37.423488291421194,0.06713659404863552,-268.6571403419581
5.647517386758956,1480.1347873209786,40.63624335667953,-0.06269282724710601,-1479.5758966079056
5.647517386758956,37.3080995379414,15.884758473320916,0.012464444825217871,33.71530770909139
5.647517386758956,34.647527914562474,21.102045297292747,0.022799947312854583,27.428228979059035
5.647517386758956,238.27223781564692,23.33293516459381,-0.01547132123084962,-237.1210378705846
5.647517386758956,6.083171006763374,3.2521569238093835,0.027130622253297983,4.856037342698402
5.647517386758956,228.97893966079906,28.638314848259558,-0.03730421023812376,227.17472070883153
5.647517386758956,65.00646690396192,21.053916040920186,-0.028795933158447046,61.47947559450971
5.647517386758956,375.7094759632462,17.41841052758008,0.016604607134473114,375.3016951966253
5.647517386758956,737.4381394209175,38.878142933650125,0.008649327887933293,736.4106549946899
5.647517386758956,117.66229286243781,29.746622186050747,-0.03411718675855299,-113.82752679421573
5.647517386758956,33.303388343915664,13.852617422466585,-0.043319558902360264,30.238587583618205
5.647517386758956,35.25084444172245,32.15669966650094,0.04118304158005339,14.342956259919324
5.647517386758956,3456.005400029979,32.24120432892373,-0.009584751331579131,-3455.8545951873944
5.647517386758956,874.5388522016265,35.90322833801188,0.05694139697748669,-873.7999269584705
5.647517386758956,138.2409288848279,44.404670053307356,-0.038451744450948656,130.90428414595226
5.647517386758956,421.7782385057399,21.71484161908468,-0.010453308069615374,421.21550471355533
5.647517386758956,44.85526904573744,36.289913320814044,-0.018053757872335773,26.309511897772282
5.647517386758956,501.10968646317474,31.165903426626045,-0.07206687733146483,-500.1367338309521
5.647517386758956,776.6299192542879,38.54181055432229,-0.008601494537779846,775.6711375551076
5.647517386758956,41.811158807011445,37.350563692233386,-0.022485731637091815,-18.715268551461435
5.647517386758956,49.53982876990344,19.333985953088366,0.07050491425784151,-45.58003993721484
5.647517386758956,253.4467075362483,37.30200993333693,-0.025937174650467278,-250.68096523881638
5.647517386758956,10.367141852310544,9.645275514725878,-0.031851585331314845,3.4056814019180144
5.647517386758956,229.70140723550938,34.634283909055796,-0.07046343136540623,227.06904520187024
5.647517386758956,44.564117199111685,35.93432979670093,-0.0068492691179557535,-26.302810245095596
5.647517386758956,1257.140513112889,18.041312222180185,0.04276646108661727,1257.0099173530705
5.647517386758956,1198.6348365754345,36.19882992091805,0.027718612250369937,-1198.086920380219
5.647517386758956,141.56198268826702,25.433811042294945,0.05638712312750648,-139.2482186919973
5.647517386758956,65.55829148553032,30.541569994773646,0.019564574324089142,-57.9849557375655
5.647517386758956,235.8062024113442,55.98956961883447,0.01736416354673765,-229.05651328427066
5.647517386758956,41.561036140591035,41.27504624037053,-0.03704217547490706,4.56533686773765
5.647517386758956,40.60835469606148,19.533484912181688,-0.008729456582357834,35.561703446364824
5.647517386758956,275.4458270206639,23.699402739162032,0.02199344427441736,-274.41919546397764
5.647517386758956,241.4531054195633,45.92097727344819,-0.07000235776354662,-237.04011148448274
5.647517386758956,496.54505974657945,29.302139425821146,0.010488718750103541,-495.6768445910042
5.647517386758956,35.60214822509413,34.22057401967813,0.036333049223024695,-9.675605501400836
5.647517386758956,406.8818312058892,61.099529692818514,0.058386815427324774,-402.2646169098867
5.647517386758956,120.61360797068804,32.0967893104808,-0.004132011446910533,-116.25227703789636
5.647517386758956,75.47130406345643,10.089978063066482,0.06212187982173742,-74.77472574674867
5.647517386758956,38.73450983949159,19.588500868728293,0.034818898090558784,-33.37371815920032
5.647517386758956,30.07982684603047,29.861553371222477,-0.013692747805570789,-3.1995024234034015
5.647517386758956,178.62450310146914,37.754117511461196,0.07144499210014396,-174.5808924387046
5.647517386758956,65.42624385915393,65.15177108974024,-0.030216935635712077,5.743917324288814
5.647517386758956,663.7380628871655,13.726328398895284,-0.06579244926944797,663.5939670424603
5.647517386758956,57.184381390584846,25.738863742886306,-0.07184168093221063,51.03638502995466
5.647517386758956,128.18510862573797,22.955578883365092,-0.021322963738938615,-126.10161143600412
5.647517386758956,46.91040900186671,24.401786939461296,-0.00010169523330448017,40.028647950900265
5.647517386758956,1042.9933473073374,34.33023188786039,0.07959746640190979,1042.4268342478706
5.647517386758956,40.41756777536594,39.93944909632873,-0.00958543910279199,5.964351497130481
5.647517386758956,902.7689802972159,24.943476103938103,0.00419747504405086,-902.4227435958228
5.647517386758956,78.30405059720869,46.17652689704342,0.01327662585730348,-63.21713309927897
5.647517386758956,104.19697768897584,37.059184670491895,-0.028495825368075864,-97.36929479547003
5.647517386758956,1071.1143548031955,51.96900648739935,-0.04544856756640679,-1069.8515479983707
5.647517386758956,203.52253524073467,32.69170734626858,-0.012721091517811386,200.87266576037604
5.647517386758956,67.18053945392124,17.774543924959904,-0.0361267655477159,-64.76451616695869
5.647517386758956,1981.0718280495553,27.025931888831494,0.04583383807524614,-1980.88675551792
5.647517386758956,321.2496139156062,35.81568813777366,-0.04904729762683897,319.2423873930438
5.647517386758956,36.64065712346391,35.99551510771488,0.02007632875435577,6.634277158397906
5.647517386758956,152.44570265651797,37.60734765173788,-0.0025897328883961383,147.72451741074664
5.647517386758956,23.03411249288804,17.261238550216248,-0.03443117091362933,-15.158238236876965
