552733.2241174658,1327.1024622426862,102.41086733196562,-0.1776525230206727,1323.1449301892496
552733.2241174658,18.660618502838652,5.382853256567514,-0.7110027448802894,17.841422360383532
552733.2241174658,325.2320806148598,25.720095040311563,0.17835112762754643,324.21278424220304
552733.2241174658,29.568508338400147,9.488863298354635,-0.6335446101119687,-27.989910376924247
552733.2241174658,191.424889090455,8.190443217579844,-0.3595084367940816,191.248147337156
552733.2241174658,271.4080022139039,29.139461635518387,-0.5926057639558099,-269.8377708230655
552733.2241174658,24.980498446574774,12.036797489702858,-0.15361434103516475,-21.879111373259928
552733.2241174658,96.3162725180863,18.374715975350167,0.5365237414456743,94.54355932529947
552733.2241174658,789.7858358213457,12.475865616226336,-0.4405468898660935,789.6869021723758
552733.2241174658,46.87341380067952,12.157308287589823,0.06605262709150736,45.2646740471945
552733.2241174658,10.47244896670216,5.744175614643358,0.09168394408616119,-8.73192595827464
552733.2241174658,13.690063810780442,5.870832845307456,-0.16254155295193656,12.349212610824203
552733.2241174658,9.70044261055753,6.157145256651819,-0.34525364251505114,7.459708578062303
552733.2241174658,15.520567255052832,11.939641959691517,0.05066594430373421,-9.894882201075243
552733.2241174658,142.83181732098188,27.914988449994656,0.13761439967931502,140.07583954539083
552733.2241174658,30.245128793686586,18.084000927446,-0.43373528151579366,24.230701659804783
552733.2241174658,317.59077146418343,25.527693844404542,0.5967122794476615,316.56193265090354
552733.2241174658,93.26967524086812,36.58145884125502,0.5317068024925011,-85.79233520237594
552733.2241174658,29.76838410443444,14.010032659111298,-0.4603134996770074,-26.253420569134814
552733.2241174658,21.151335986563744,17.28414208188193,-0.25654757654470783,-12.171685703667745
552733.2241174658,21.726356233773053,9.774290995920005,0.06192363245003162,-19.39258258215513
552733.2241174658,30.238316827777314,18.205669727951953,-0.2772574330807155,-24.133189297472725
552733.2241174658,85.04137697794673,14.671416965154815,-0.4628293763399383,-83.7624582645847
552733.2241174658,8.788911704736767,4.995900725957108,0.46309920043133845,7.186778627359828
552733.2241174658,22.615040876877792,19.307535310136846,0.3696038577020733,-11.751631806567131
552733.2241174658,45.32124618217931,29.7222848146155,-0.17159090016941653,-34.20745533484819
552733.2241174658,63.96487588161989,14.011699453355227,-0.5703722754050637,62.40537319386375
552733.2241174658,31.81126576240414,28.233268399996916,-0.13412205787193415,-14.642387071502707
552733.2241174658,22.043780630685472,19.080416224975032,0.1688439585840969,11.0188826979517
552733.2241174658,311.11330212745554,25.738066813978392,0.08897326816912893,-310.04614021803957
552733.2241174658,3.293759360615976,3.1527461292186234,0.010425062340860677,0.6980235715887663
552733.2241174658,160.27463013565142,9.706028376826081,-0.3149948644122625,-159.97883972426348
552733.2241174658,81.32262829441149,17.62251562791257,0.32942843229046825,79.3869422233976
552733.2241174658,14.841513408141013,14.200873734027152,0.47324850559374787,4.237929247200395
552733.2241174658,460.7364709306249,22.247433265602425,0.26869903009535806,460.1984935465874
552733.2241174658,246.88995885270737,32.72416843133645,0.32167987564528794,-244.71055434501542
552733.2241174658,110.40244854161915,28.534079604635487,-0.19100223557013815,106.6491854927419
552733.2241174658,29.85910026767299,27.671794622106347,0.5652397812852695,11.184652797232632
552733.2241174658,49.338173702076624,49.13421952840113,0.5740856887975732,4.396883467999059
552733.2241174658,15.114150431572263,12.709412044951835,-0.30172777329952805,8.148352723632232
552733.2241174658,14.336973403073225,7.676303443160808,0.06001996644575858,-12.091231220626394
552733.2241174658,37.21195497892517,15.65865218219026,-0.38344527327276395,-33.74859223628777
552733.2241174658,26.691859687240935,4.015933695000223,-0.5417434382062576,26.374466197175554
552733.2241174658,76.89192992383968,6.758562750290672,0.05635252120788705,76.59155204312344
552733.2241174658,105.14497829601243,10.471362013427886,0.2739885678921765,-104.61988468611216
552733.2241174658,163.06756601151497,22.346942417178997,-0.048535938017593455,-161.52777221519486
552733.2241174658,11.51219554915602,7.9960792891695185,-0.5889335992896839,-8.235582711443413
552733.2241174658,27.61425852558239,7.129449778214925,-0.2636829692901739,-26.668839383958822
552733.2241174658,782.3165365496251,13.066192380417144,0.3292416608755364,-782.2070748073212
552733.2241174658,10.727787549786358,10.696388973623161,-0.2367642607536585,0.44151369311696226
552733.2241174658,5.6788724536356305,0.5456707508664973,0.21424871851263594,5.61108156071555
552733.2241174658,32.49049202863432,29.193929879340402,0.35772584001470614,-14.240676448271964
552733.2241174658,17.46064610687094,9.462162774096011,-0.2959830347155559,-14.657159860189
552733.2241174658,166.20795177221746,18.404722889737336,-0.685573036671141,165.1831035557124
552733.2241174658,129.94188394156382,9.22711056336041,0.012446792418967617,129.61223623188437
552733.2241174658,23.973926909723236,4.325720162760924,-0.010235678651360486,-23.57149793278302
552733.2241174658,8.411282675664221,6.9797011606155035,-0.21541131367974545,-4.643850658930195
552733.2241174658,32.42301596737562,19.00237901584321,-0.30204191561611504,-26.261162005102193
552733.2241174658,57.70554039362947,11.824232365641503,0.3086266668927076,56.47654357060705
552733.2241174658,898.6440843747753,13.642082170062736,-0.1230105615523329,898.5402868804846
552733.2241174658,127.2571957761937,13.661400017983956,0.2976778729886821,126.51976018500478
552733.2241174658,16.57862707208457,14.02041158430537,-0.005675735933272227,-8.823673011055467
552733.2241174658,6.8832960697891235,6.686613254587471,0.16131316289646438,-1.4903855372023422
552733.2241174658,165.96334553075164,29.339838158595636,0.16872512765587375,163.34795925090845
552733.2241174658,20.412406006546817,19.27597182431112,0.3458304084066924,-6.675472533923703
552733.2241174658,475.85882471347935,21.91079034409117,0.5931588928435644,-475.3533052264779
552733.2241174658,126.91543936994042,20.459606746842592,-0.019909157814076168,-125.25378696419955
552733.2241174658,37.359369286380144,3.7168663807316644,0.5773239253629036,-37.16385849030197
552733.2241174658,221.93700390469616,5.950578221411529,-0.5090410173824648,-221.8556816970993
552733.2241174658,7.850477915925186,5.744004031676408,0.5132552961772139,-5.28689825999482
552733.2241174658,43.00002896435776,6.309538149000388,0.2969928473614033,42.52860587356007
552733.2241174658,17.0283731951987,12.343743213704432,-0.3189119537928097,-11.707864678620588
552733.2241174658,107.77661710348507,16.29413262106007,-0.11652696027419095,106.5357459301062
552733.2241174658,23.454283420423398,22.66462938206212,0.21945582874565728,5.9956757664686915
552733.2241174658,17.455626512989543,4.21215474843568,0.4342850108946554,-16.921771446382394
552733.2241174658,108.56810904771781,30.04720426824667,-0.0907550993227958,104.32530797648973
552733.2241174658,167.9497425471551,23.547726478048865,0.11899263263777887,166.28946070975792
552733.2241174658,45.918355184110624,19.531719498840133,0.6637898066013783,-41.54690075497203
552733.2241174658,72.49455473466658,36.31508558096677,-0.18616935239889454,-62.739291272813496
552733.2241174658,38.95718046190668,15.15821962300306,0.6989708866581247,-35.874503900682015
552733.2241174658,32.18077953009303,32.14185612595849,-0.2915402084914496,-1.4131395074610962
552733.2241174658,3.0709543678413262,1.871812702553466,0.09416808194233538,2.344464400741139
552733.2241174658,1092.3501023829717,27.525852965553245,-0.14489911706855937,-1092.00303612301
552733.2241174658,66.43774151296263,5.170032985943823,0.3348974172273079,66.23224594565323
552733.2241174658,19.908875633741758,15.089649268493499,0.6610489639409015,12.954039186253778
552733.2241174658,22.98353583389555,22.51251336547845,0.2815128785995981,-4.574791242709761
552733.2241174658,18.71410798897591,17.847849652115396,-0.297330120018892,-5.582293295442464
552733.2241174658,49.525318207356236,4.764237109546141,0.3865268069208444,-49.289837576822265
552733.2241174658,722.2713168694804,16.304098869896947,-0.017220943108134542,-722.0869819757667
552733.2241174658,527.7456592459032,6.052406996491841,-0.1988337070672197,-527.7105153307227
552733.2241174658,153.82744737204126,12.472522715179728,0.27641743674232805,-153.3193452847233
552733.2241174658,20.160048978208273,20.147631182444876,0.2601783000366171,-0.10555951021773696
552733.2241174658,26.834072356626933,3.976554489182784,-0.2991399024641812,-26.52815998089728
552733.2241174658,22.844298816014984,10.331802710065336,-0.45944780179286854,20.35885684146273
552733.2241174658,59.4747729008772,10.749260935922113,0.5459722267876217,58.48916325515374
552733.2241174658,4.877112403164996,2.617539259113377,-0.6334769957240053,4.013941147310275
552733.2241174658,325.2006274055839,14.221343759794358,0.43653179537405223,-324.88857965410364
552733.2241174658,33.682006506977785,20.479520137017985,0.6464690875416029,26.72502942992763
552733.2241174658,46.55685366866207,31.284388236399714,0.09348372696519806,34.473137948412784
552733.2241174658,27.220696725824478,25.30338706807532,-0.5983514594526047,-9.996259884152527
552733.2241174658,16.931276127478156,16.879770060484926,-0.3694177516030935,1.0877994084136071
552733.2241174658,41.04355613005137,16.150702294599988,-0.11592338131481224,-37.72655801924715
552733.2241174658,59.07631786828976,24.26212530613542,-0.3166885770821569,53.859433898508605
552733.2241174658,17.319948772100098,14.393653563052162,0.29096171524045444,-9.607133124577171
552733.2241174658,40.24393168941231,16.607418468062306,-0.3134768105763315,36.65034413148196
552733.2241174658,204.37996121115458,21.39516111663001,-0.28338080436635704,203.25578374010485
552733.2241174658,26.93798581922116,4.786979394686913,0.3377826669996511,26.499134215278715
552733.2241174658,92.01321947852438,8.841511555445752,-0.0007140602485464877,-91.5851436354511
552733.2241174658,19.71504854574438,19.00502878569984,0.5390932711013781,5.174910770139654
552733.2241174658,201.94307083901583,14.202994609323056,-0.5413830183193872,-201.4412172606809
552733.2241174658,22.798885763920524,15.481393055934536,0.33868976565780995,-16.720623594372153
552733.2241174658,162.36916331391075,13.67863546146518,0.4586008161508263,161.79001240954662
552733.2241174658,25.844548129259955,18.590935990307024,-0.49687982522370755,-17.9345805768438
552733.2241174658,108.69463643980184,22.40192158314898,0.013934085176107098,-106.35908992193609
552733.2241174658,483.17428835073474,25.768302073748977,0.6564264229916933,-482.4857872920654
552733.2241174658,15.087030598764812,13.53694677736847,-0.23890763824181044,6.625012482495765
552733.2241174658,28.924667194271176,27.478770731928993,-0.13804044227450007,-9.006263332581511
552733.2241174658,30.48227362386229,4.713547835684517,-0.05299354717469,30.10858626343586
552733.2241174658,16.949421230259436,16.91969081890665,-0.19749156567990545,0.7390823586967942
552733.2241174658,11.829902011596777,11.558157435664137,0.5613383367305562,-2.3703967149352563
552733.2241174658,37.587158742021685,9.613265910973732,0.723009949859148,-36.324030344295885
552733.2241174658,60.06522022735314,21.440170524827888,0.5332666115759592,56.10208283625297
552733.2241174658,35.524148175843685,16.539921618812418,-0.14112838319283966,31.43174322655957
552733.2241174658,18.630070861279336,13.209187398942694,0.5215560448532384,-13.111185715489496
552733.2241174658,17.583858476939632,5.488817978888347,-0.3603137264952461,-16.688721735598833
552733.2241174658,145.83641544683644,6.38189957547003,0.012151639813265249,145.6952627354321
552733.2241174658,14.958032534372498,5.403466062767504,-0.2948802274624968,13.929703531568565
552733.2241174658,3.0956818406333513,3.016458880974269,0.20024971572723332,-0.1497496151771598
552733.2241174658,15.462707942717905,12.810262351551383,0.6743177286391087,-8.609071612266659
552733.2241174658,188.82597848893667,17.84395625090586,0.5744303823391156,187.9789661381668
552733.2241174658,203.73283554886982,33.4872052109954,0.05842235136778655,-200.96081771774925
552733.2241174658,9.119054510072658,6.995864554984971,-0.06685642484076834,-5.81281924048176
552733.2241174658,21.2514842721147,18.662452180040763,-0.16845319254092975,-10.1433913922134
552733.2241174658,19.042601689500884,12.625058435629533,-0.28504113838154654,14.238175205040415
552733.2241174658,83.32122797525668,9.052167035307146,0.10696055825527302,-82.82543187769471
552733.2241174658,728.3561922345281,27.271805850596508,0.25275288589342243,-727.8451111266908
552733.2241174658,280.91771483579885,8.34132701358539,0.18990313121180713,-280.79303234239717
552733.2241174658,20.994746579017,12.821015241902552,0.3593972684853311,-16.60873531324796
552733.2241174658,10.250140502742992,7.921042050923492,0.21471080994558717,6.46951894963162
552733.2241174658,508.62502851013835,40.2077724312765,0.43731143193661476,507.0326830932926
552733.2241174658,49.014334743537,20.067360048958264,0.05553105057215878,44.71332340966695
552733.2241174658,13.97757857361554,13.570350883832308,0.30120880732579586,-3.2719804314410594
552733.2241174658,184.80892598359293,47.88343010350587,-0.3293412290496391,-178.49645957862788
552733.2241174658,14.682040762691738,13.068377700069572,-0.06346980929727529,6.6598873749523655
552733.2241174658,96.35009011426176,37.720084951965404,0.031800511912741296,-88.65727464787305
552733.2241174658,58.04432735905452,8.50913723459215,-0.305307863538061,-57.41274781975255
552733.2241174658,280.2422603503871,24.068038551853228,0.12408183736072663,279.20604741530286
552733.2241174658,15.133766179885091,7.634281780666962,0.3047675467164659,-13.047376757086258
552733.2241174658,301.1969314999337,10.82085252264428,-0.06441739389229653,301.0017854582867
552733.2241174658,40.8242074347931,11.969724986443934,-0.20467166473267362,39.024069610378255
552733.2241174658,6.643726748122264,2.9037642140733917,0.13862739597792487,-5.938547293399486
552733.2241174658,473.69684236960495,5.670126579224446,-0.09947091569501358,-473.6624500042884
552733.2241174658,0.9273646411767626,0.26142614228963984,-0.5823607330996724,-0.17555780943061172
552733.2241174658,46.849787609953296,32.58475698056472,-0.14127927603932897,-33.655527849069756
552733.2241174658,151.39490018505413,26.008145147217252,-0.626853377042201,149.14146823035352
552733.2241174658,35.10654701708803,34.956910850139614,0.7161873586936323,-3.0902113137659675
552733.2241174658,29.308753996948337,7.19161993987502,0.023284671192635432,-28.40530627076903
552733.2241174658,80.75543709215955,4.5475825999555255,0.5505369037368167,80.62279655642082
552733.2241174658,286.4294084390297,22.261875175739387,0.3687280167128078,285.5620025056907
552733.2241174658,45.41241647692494,32.93890562531988,0.06822025791434506,31.25523500942585
552733.2241174658,22.06940195579811,21.9429478042816,0.39134739109501404,-2.233986253923174
552733.2241174658,15.5361253603533,8.418472229263529,-0.13594586528007283,13.040718472443178
552733.2241174658,195.34728537538004,20.336376472966585,0.3074298699795393,-194.28452713835208
552733.2241174658,61.82214624763886,14.634052501074473,-0.12083312704349443,-60.06151826613883
552733.2241174658,226.7210562567566,16.626271534206417,-0.11749913575941004,-226.1096392063404
552733.2241174658,33.12490913205058,12.792018147720857,-0.26962447627461517,30.547168156391493
552733.2241174658,65.10466930262837,24.544299834883056,0.19470830953440996,-60.29706213665997
552733.2241174658,90.93443634365971,13.820008663272112,-0.25402068820552526,-89.87542962453213
552733.2241174658,123.45486525912749,12.54233151142448,-0.2304469111490712,122.81416397812615
552733.2241174658,62.07635429524493,11.405897550024536,-0.25428751084118717,-61.015513638311894
552733.2241174658,326.96886683652446,14.155438629654222,-0.08030050422478932,326.66165261997014
552733.2241174658,19.32604509833749,19.314891443239183,0.07304731336543668,0.0628870968194553
552733.2241174658,5.906594241308917,5.410830083834694,-0.14691096423057132,2.273212159477846
552733.2241174658,88.18337713330122,8.844509689996107,-0.18883019408145005,87.736111705235
552733.2241174658,105.93881975578849,13.483884845234869,0.08472788442106957,-105.07516121773766
552733.2241174658,13.160841867207798,11.433894738845579,0.11501540569057933,6.483739987783194
552733.2241174658,30.73787409558755,23.501458231772737,-0.501872143667152,19.79456471524243
552733.2241174658,6.959321784920401,4.0419592805807305,-0.2991113215906917,-5.619925294482772
552733.2241174658,496.9531578906708,7.238918858582366,-0.547927769732765,-496.89970544310654
552733.2241174658,15.039199364081702,14.374141227268098,-0.5457880007274047,4.340737260821593
552733.2241174658,54.38765133505891,35.76054443794071,0.5339732920499202,-40.96941853123445
552733.2241174658,37.31402906155881,26.55668387226527,0.336036661741191,-26.201997803516115
552733.2241174658,17.27779221086431,11.120888840583865,0.3485572412726555,-13.202452270120613
552733.2241174658,98.44987080016446,30.062553516452382,0.7092550784791477,93.74270743311843
552733.2241174658,76.3942922748704,9.893676360966749,0.22641259628828245,75.74780591275953
552733.2241174658,45.92379368042979,24.608119200509485,0.21852311162364868,-38.76810346256264
552733.2241174658,18.385903341671973,17.27714224634487,-0.28303469215547017,-6.248199090136494
552733.2241174658,4.928496565915957,3.863000155416954,-0.44855501704079515,2.9570947929103477
552733.2241174658,4.864382560606355,2.719525575079879,-0.18267538004253364,3.976346446930902
552733.2241174658,22.33641296763505,22.095520791712772,0.45140576972582636,-3.1745615528538544
552733.2241174658,29.627774191850957,17.45717952063651,-0.1368390033255192,-23.929301386643605
552733.2241174658,65.74067540526711,10.33029182076776,-0.09993441998058113,-64.92064224704073
552733.2241174658,370.7581391768071,14.46487102090164,-0.6528585900799996,-370.47471890923515
552733.2241174658,613.1324885597578,7.730953975650781,0.34085657089693083,-613.0833083667538
552733.2241174658,13.755059491170526,8.42327322467169,0.22783871640595024,10.852489222549446
552733.2241174658,18.631448208280055,11.018577493473506,0.34659764482832517,-15.005998315634208
552733.2241174658,195.59677148665583,22.25636622248348,-0.3314938306638628,194.32503594089997
552733.2241174658,135.70446249245163,23.411031129848347,0.20726025626942088,-133.66809682196694
552733.2241174658,17.53993153873526,11.236532759020783,0.40975036858390534,-13.44618673053792
552733.2241174658,95.70719864151076,18.56042487799059,0.16815676579361202,-93.88785079271048
552733.2241174658,62.8579585944881,40.680407233655714,-0.27043479555832234,47.91380379399803
552733.2241174658,19.665962073613287,17.181577322724987,-0.29017051389731857,9.541360965551997
552733.2241174658,37.10566682762187,34.962747582265855,0.08686794956513419,12.40997780814516
552733.2241174658,25.804780254036846,9.915853911776809,0.12655745064168836,23.8143824482012
552733.2241174658,106.13452193527519,5.724216544667302,0.10107523628320737,105.97800799313912
552733.2241174658,877.5737678515087,5.488690698084973,-0.1820487788110087,877.5563443202805
552733.2241174658,463.1091893333955,30.714781910799807,0.3513701379961546,-462.0889289511824
552733.2241174658,63.61627179770832,7.688561373276325,0.3267881183082762,-63.14576449765313
552733.2241174658,228.51903298566512,14.460235444499952,0.22848144713569019,-228.06002746391027
552733.2241174658,11.530619561683254,11.331556882372054,0.2964068184636247,-2.010336318600282
552733.2241174658,15.633213847431122,3.4870994755701394,0.696112129952761,-15.209577356639443
552733.2241174658,167.5148240205212,5.067637773085508,0.3054965901937978,-167.43661573526396
552733.2241174658,25.567665610543713,21.916757077881922,0.22808231379502644,-13.148671622559522
552733.2241174658,201.64095151435194,28.394233800158418,0.1542108425391412,-199.6306472878082
552733.2241174658,24.923930705196838,12.98889414509687,0.4890983873763272,21.256294043658315
552733.2241174658,238.83219020695654,5.839978372212861,0.058023613619183685,-238.75988915214015
552733.2241174658,34.14533016012144,23.80931951658383,0.04646883416930508,-24.46622201253078
552733.2241174658,88.67831886213027,22.66409684281302,-0.5628839072166194,-85.72890070004583
552733.2241174658,15.207352335679275,9.501075078773638,0.06478484450078151,11.856105741388925
552733.2241174658,325.82233342415,10.284386939058354,0.15186955712761627,325.6592998547738
552733.2241174658,462.1831187203916,28.047013039964128,0.0795774532323781,-461.3308706992094
552733.2241174658,14.345227386073159,13.404113649905282,-0.3202965775745845,-5.058754702398242
552733.2241174658,7.018617391648583,6.935454937316525,0.29682470512796355,-0.8066306560660332
552733.2241174658,19.46980462659212,18.260100375720956,0.23186816896934234,-6.720607609179257
552733.2241174658,2.4641396818882955,0.49869409342290927,-0.19537493865253988,-2.3159059187419873
552733.2241174658,169.92276653725412,13.399159698289175,-0.2699147226872905,-169.39219154410418
552733.2241174658,272.2574317566901,6.420410879249303,0.23672869007729458,-272.18084012919763
552733.2241174658,76.33399162815158,14.710656593078212,-0.2057075408992805,-74.90000566029974
552733.2241174658,8.075209347861936,6.082239637610192,-0.11156176832876598,5.270789693433384
552733.2241174658,43.554236678243996,36.06737013231562,-0.38180510681400387,24.403870025910425
552733.2241174658,12.733605013136533,3.933801361024567,-0.1682845178368941,12.092141531660532
552733.2241174658,37.736059576487285,4.923226431233382,0.13971726550125335,-37.4076304511633
552733.2241174658,11.507835256980567,3.877199340437028,0.13316483303008125,-10.814719955765835
552733.2241174658,21.89390732275857,21.742889401335944,-0.32236259425914077,2.4625847629498665
552733.2241174658,244.5528011924027,8.727800116508291,-0.0716326983306533,244.39613591043494
552733.2241174658,17.414139198007245,7.803852484126265,-0.06087425719893747,-15.553993948708328
552733.2241174658,287.6837025047461,4.00495834054748,0.0008278936871832863,-287.655090860326
552733.2241174658,140.86587304298274,15.781392109383454,0.44754530916889546,-139.97685472057847
552733.2241174658,433.0985526004123,36.026515765651546,-0.5105907264990119,-431.5967609082435
552733.2241174658,47.74764438467653,24.03650214685215,0.21190981695753563,-41.2506667349445
552733.2241174658,22.46428663122807,22.302554207746063,-0.4994413510175631,-2.5630277047839725
552733.2241174658,25.503086790039976,6.9752657770091036,0.02091900806771203,24.522050660040126
552733.2241174658,271.9042133580524,2.014265278550223,0.06638007972009256,-271.89596884461525
552733.2241174658,9.20650578306336,6.760057866973055,0.5272489993843019,-6.19368047928524
552733.2241174658,64.00775357864184,4.974083788625416,-0.22737984716716772,-63.81048197648289
552733.2241174658,35.600555453760414,8.633752536419147,-0.19457483004134607,-34.53112088261452
552733.2241174658,251.8133801947663,21.627567286275458,0.3946817713648965,-250.8817436716131
552733.2241174658,60.54042724070344,16.608757593575348,0.5821772079281882,58.21109751929957
552733.2241174658,122.84490124480652,35.2093851719347,-0.41760303624108247,117.6884568187671
552733.2241174658,16.341094410499917,12.696931907320428,0.4502463647358026,-10.25645493837214
552733.2241174658,406.7959137167161,7.481444015543695,-0.16823530080905982,-406.7265585279156
552733.2241174658,867.244890605742,15.734054498400678,-0.7488066444897914,867.1015842462947
552733.2241174658,46.371190304692334,25.670499284770155,-0.42764229948746546,-38.609690258099356
552733.2241174658,24.401440113054036,20.71235007087522,-0.2674391822181532,-12.881599801048319
552733.2241174658,70.79675076201845,9.033100637232518,-0.3162269869276685,70.21439535343026
552733.2241174658,44.91951836721744,10.445209673633677,0.20962719592026907,-43.68289235700197
552733.2241174658,51.55310914637346,11.330924321862543,0.42115463177582657,-50.286520544419545
552733.2241174658,600.3581476388598,10.471499906941464,-0.24245021093272565,-600.266418056995
552733.2241174658,68.80546860995183,11.11491775809076,-0.509783198203071,-67.89675646137195
552733.2241174658,134.55219010067475,13.138590634295989,0.022956453578622735,133.90760647943728
552733.2241174658,281.69020673236844,19.783374394443943,-0.25441314017437117,-280.9937797237972
552733.2241174658,38.452179169293245,25.701616642197816,0.38195253473156704,28.590722273566612
552733.2241174658,12.866682708000651,8.604422078849318,0.08925016671467088,-9.54388715478084
552733.2241174658,35.799720787923185,18.845281539034005,0.04153446537974967,-30.431101690771314
552733.2241174658,86.80390059594441,86.16583944031201,0.0869152807704662,-10.485037957442634
552733.2241174658,324.74774618526413,32.04109330966729,0.19233322995851637,-323.16251067052417
552733.2241174658,29.738381946445887,29.731017883721098,0.0909883474272189,-0.0892217981409591
552733.2241174658,243.6843191004442,15.472837510512395,0.06647684470170234,-243.1917197576176
552733.2241174658,19.671865630000667,12.919979806519422,0.39438686194088696,14.81482977239821
552733.2241174658,6.764358262170225,6.63378860500661,0.08043783868349004,1.1494451771437246
552733.2241174658,4.824488262217362,3.9656186617090556,-0.39842663052164323,2.6399081158906172
552733.2241174658,149.73059014520044,12.239145040642596,0.5424104665919431,149.22713241166272
552733.2241174658,41.61199750366413,17.364778479792825,-0.4854543516699383,37.80694964795749
552733.2241174658,107.67496103893004,13.892600537800611,0.2866271635788382,-106.77260431833339
552733.2241174658,12.173563071251456,9.145155905399188,0.040026386275337465,-8.008649213329125
552733.2241174658,12.749203906744356,12.087734219007219,-0.18541711725344792,-3.9965992064620335
552733.2241174658,9.697630315945501,7.468016775039744,0.2229818029774873,-6.148279541960258
552733.2241174658,82.95966337862104,11.80860983840098,0.18990736236450786,-82.11214721215329
552733.2241174658,8.983865344940146,6.478044285710116,0.4877071282856852,-6.171322673745907
552733.2241174658,32.36050969856542,18.07277364312693,-0.5619698953424044,26.829832903878632
552733.2241174658,148.70538928237926,14.050082734255355,0.3502469804032018,148.03831803575494
552733.2241174658,816.8234704039487,15.116466151105081,-0.282325586132403,816.6832757251335
552733.2241174658,15.607489759801968,10.883878468519807,0.24005084720833444,11.164927437903241
552733.2241174658,89.71920898138774,7.330204404067927,-0.11752272023575616,-89.41682758334034
552733.2241174658,9.975889672683264,4.078481888024374,-0.23495167944530448,-9.077855527436398
552733.2241174658,36.67084767960892,8.288281648800687,0.6667433903115813,35.709791558069675
552733.2241174658,21.21601941376931,7.603082940052996,-0.15486997845385825,-19.795629009454622
552733.2241174658,30.872033550453118,8.611182210397068,-0.44005457185338576,-29.63637379085894
552733.2241174658,336.6499951778977,16.961336587565476,-0.05189126929637683,-336.221813576627
552733.2241174658,75.48725862283145,23.934237387084462,0.3706848457071392,-71.58854231545834
552733.2241174658,36.058690861636826,19.501800877330346,-0.048264568903424516,-30.32300979034754
552733.2241174658,9.658742679929546,5.284149008987644,0.1631964284040246,8.057341332706443
552733.2241174658,31.039606627419968,16.160743591837708,-0.4350302599231349,26.48917888185433
552733.2241174658,605.7077092575934,23.68805532438969,0.5895061147034137,605.2436995744679
552733.2241174658,70.28761115601674,15.350642170393675,-0.13016239861295187,68.58766235806556
552733.2241174658,66.57884578573689,21.68474961946947,-0.05605194371509446,62.945130878404996
552733.2241174658,143.7066670619446,24.182015034622694,0.23011601274485044,-141.65578582097032
552733.2241174658,57.39366207561717,8.126734407353764,0.015118816230831202,56.81167757391027
552733.2241174658,243.86135866639538,20.453157267276715,0.049846285441032034,243.0012477885376
552733.2241174658,7.443409438998783,5.79416698759644,-0.059718336915081556,4.626738563473829
552733.2241174658,216.50207732460518,14.795162200005429,0.6440667323194378,215.994018765352
552733.2241174658,62.951378256346615,10.208612778364813,0.3896401985195523,62.113498798963256
552733.2241174658,173.66420484738816,14.282322509426239,0.5810828238288868,173.07371826705017
552733.2241174658,26.689616622738036,11.608862137783657,-0.0842186682677927,24.023762518986466
552733.2241174658,205.69719160763333,17.17822268581046,-0.10646143232939494,204.97758479796184
552733.2241174658,19.284682653498493,3.8381413883373576,-0.11951969636109648,18.887341628443508
552733.2241174658,17.978901505104723,12.918709661261882,0.35182126926355145,12.482081750687485
552733.2241174658,260.15078812114814,10.416077542129889,0.0477522939814011,259.94136629522313
552733.2241174658,19.300100819972798,16.17531588530419,0.2943342762643388,10.504509413753333
552733.2241174658,62.98685346499443,5.067092537768463,0.3308150959874887,62.77847678165436
552733.2241174658,245.7996716992719,24.236768614092597,0.6649760133260297,-244.60006901989328
552733.2241174658,9.401479305966948,3.7418737921995224,-0.19902304872370055,8.597958275540062
552733.2241174658,90.32711171982595,18.760202528237304,-0.2097107526832753,-88.3548314307923
552733.2241174658,22.953365002810095,21.184140787616506,-0.1448712684682182,-8.811722838146821
552733.2241174658,5.9652680882163995,5.800919212611573,-0.43289039293458637,1.1509424741609662
552733.2241174658,8.327466004809782,5.274109639889603,0.039539990819785424,6.411489466176182
552733.2241174658,869.3236860869674,43.444026417974285,0.0006187041255592014,868.2372176214642
552733.2241174658,563.9876020242987,36.12395783808544,0.3395052024237971,562.8290485986545
552733.2241174658,74.3926325907899,23.035553722356664,-0.7455036391585347,-70.72941096767845
552733.2241174658,27.98624360204217,6.085898226776621,-0.11686435082781366,27.308539314063378
552733.2241174658,56.386741120564295,8.72553175548777,-0.2618987199030581,55.70313619411479
552733.2241174658,2.0700814868621285,0.7714160903618442,0.48544339430339795,1.7414942741173067
552733.2241174658,25.50008061826569,5.970105314526011,0.1069080193511174,-24.782631574653088
552733.2241174658,8.867802706406044,8.65434822239941,-0.33417108396996403,-1.7907580489582833
552733.2241174658,169.84138033269673,32.59238134812769,0.3176241949944939,-166.6832582152833
552733.2241174658,14.405964264216811,13.364791152187447,0.12093780016176056,5.336463333226592
552733.2241174658,8.492834414787975,6.71623299691416,-0.18128877421395329,-5.15421071810112
552733.2241174658,160.04185593044207,2.427793562889456,-0.1787582559127331,160.02202291116174
552733.2241174658,278.7775218365347,20.842501837779466,0.4642061228039682,-277.9961503585173
552733.2241174658,11.326814576316417,10.458040299914975,0.28934857055873575,4.291934523545296
552733.2241174658,1.0950001597917427,0.7285846146853335,-0.24934114970159707,0.42932716933505677
552733.2241174658,17.40458807554494,14.9402737938642,0.48144007838925973,-8.89125545200296
552733.2241174658,84.00849113778531,22.383555211734635,-0.13000378638108306,-80.96891033825382
552733.2241174658,284.5524136977618,32.810417626676305,0.3688801055860458,-282.6534890406822
552733.2241174658,101.92848824464991,20.576500955552333,-0.24159667087529252,-99.82757263568311
552733.2241174658,7.468234362057925,2.9045247967125003,0.21882023154369326,6.84607047263232
552733.2241174658,45.662026946103424,17.594169384229552,0.42114366670866216,42.129168630959036
552733.2241174658,154.94497680676267,3.9721944135969203,0.23360700999877546,154.892515119265
552733.2241174658,61.80751081648036,24.929223505996273,-0.4158084906613901,-56.55181354328604
552733.2241174658,199.4438394855578,49.07476657019726,0.017758552361290196,193.3108646260564
552733.2241174658,10.009482553189452,6.659347356981153,0.44585969092757394,-7.431173925817785
552733.2241174658,362.49949333647095,18.70174241308891,-0.053461273614966644,362.0161639275558
552733.2241174658,8.673239067983035,4.378366549716212,0.45966535553150756,7.444594889294747
552733.2241174658,43.50198498010215,20.937013341886995,0.3040532994016528,-38.125451133591554
552733.2241174658,30.343324804878446,7.870142396185146,0.42446171851956394,29.294647192716077
552733.2241174658,193.35106862257177,17.608997541945104,0.22855401909379225,-192.54631912642907
552733.2241174658,22.472751603496555,21.967349281106046,0.026025837386403617,-4.694438823566793
552733.2241174658,12.60875315358701,12.579457227289943,0.2021789884366345,-0.524727195391913
552733.2241174658,37.40651339192375,27.00897792851174,0.4311069332371231,25.868026697595766
552733.2241174658,32.76243978924887,17.00791689553218,-0.50575487680653,27.989832776233076
552733.2241174658,157.15323654907075,13.57720867174611,-0.07920665064303525,-156.56427176037522
552733.2241174658,739.6710993358884,18.15584152384878,0.176818902136619,739.4479343736219
552733.2241174658,14.831234945603168,9.511520830764443,0.1848237054430716,-11.35960583442916
552733.2241174658,133.0959317255557,14.822865554221814,-0.6171543213659286,132.26491266476134
552733.2241174658,642.5390435920634,21.85406228552718,0.15351031031967377,-642.1669387623649
552733.2241174658,23.002007231102425,17.702153871653486,-0.3909177014404285,14.668045927551779
552733.2241174658,15.070367019950805,9.362094347364277,-0.38182538886953354,-11.785570157508774
552733.2241174658,34.94382266100756,29.23926758475651,-0.22242454429323552,19.122363965031226
552733.2241174658,16.058407487522917,13.25564403977001,0.15840480354676556,9.03955546819263
552733.2241174658,8.729151550607337,7.689764124497476,0.01053495457588277,-4.079682161133409
552733.2241174658,26.45506965480312,8.155735610706218,0.42504582914519523,25.15456869337943
552733.2241174658,312.10152193280203,18.332146820854003,-0.5357830578834645,311.56152462273474
552733.2241174658,30.5023212229055,29.08091045925721,0.06027869122391681,-9.179701321036328
552733.2241174658,314.80779370892446,15.66416961443539,-0.4669732369777085,-314.41682685439247
552733.2241174658,109.34080180514245,16.21866423751959,0.07589483571266262,-108.12926714231457
552733.2241174658,5.819225996581803,5.629946143177558,0.676745078522248,1.134643882892573
552733.2241174658,8.587878357966297,8.193419860377073,0.2949326155820831,-2.4720120252835267
552733.2241174658,78.0744345010562,7.275408798022063,-0.05150547407320583,-77.73198440594192
552733.2241174658,30.85098931636153,10.315845944383685,0.5599887098530735,-29.062545998465254
552733.2241174658,178.10817296269101,12.714698672503362,-0.34420037736082804,-177.65223765236843
552733.2241174658,47.36439591067209,8.214338664954074,-0.37695098197207433,-46.64061375298998
552733.2241174658,33.32968515667883,8.389609520256794,0.18796365820030145,32.24942383085665
552733.2241174658,28.873464332435553,9.489202192681851,-0.6281940177810145,-27.25464473437381
552733.2241174658,256.33916240402914,34.72841554830823,0.09959713206112873,253.974943092685
552733.2241174658,60.45688826233882,14.874562750031506,-0.24566257908096545,-58.59437408382833
552733.2241174658,88.72455232669435,48.64895736803245,-0.09835723082224725,-74.19497126792965
552733.2241174658,80.87259945794634,25.654865160244672,0.37126475062947767,76.69188811209503
552733.2241174658,74.0177990372929,24.325038140904468,-0.22748263903705127,69.9031733788648
552733.2241174658,7.080232207539085,6.070840955901479,-0.22486964248682953,-3.578032261283682
552733.2241174658,12.393775048186583,11.777895258974537,0.41654981059951113,3.7804275534710365
552733.2241174658,148.6073749678258,49.68854178383177,-0.15843332382596778,140.05268263094555
552733.2241174658,115.22628087853718,35.68510173740951,0.13902927229060544,-109.55924558415778
552733.2241174658,23.97378942866387,14.65080777150836,-0.2291458288680946,-18.963707612685184
552733.2241174658,18.189902241165232,16.457436167607174,0.5568527564928334,7.700230928871266
552733.2241174658,5.123634662646979,3.472727698186204,0.3736295206729004,3.6919504993818255
552733.2241174658,160.86556466555277,14.733009660402754,-0.42592518154920456,160.1875938150998
552733.2241174658,431.440488053841,25.63115962099933,-0.024205596031303487,430.6779726265631
552733.2241174658,27.682864669534247,22.715935329167422,0.5016668935888956,15.800440240030774
552733.2241174658,241.161830939622,30.982559540992224,0.2268449181587767,239.1623644113782
552733.2241174658,126.8707718965454,11.543939198135883,-0.2532111989635827,126.34256771382236
552733.2241174658,877.6591619503248,18.893050194836167,0.7381315537897976,-877.4552357097822
552733.2241174658,15.57822737908874,11.508917260709735,0.2225231727565478,-10.476391469222113
552733.2241174658,74.95453519736594,17.506603125468615,-0.23445828188338264,-72.87814848082131
552733.2241174658,13.458293272155274,4.625273005274294,-0.34056085336624153,12.617243310218415
552733.2241174658,121.48435567510847,4.871651457027294,0.10665114277051031,-121.38485331551604
552733.2241174658,29.00142357959936,22.773752502578542,0.10075117074853523,-17.944551229114325
552733.2241174658,406.281069411034,29.93658709309105,-0.09040802370353151,405.1761076919498
552733.2241174658,68.83096293176484,25.37546297508038,-0.09936514289055107,-63.97933859067914
552733.2241174658,34.350472406374166,12.233050567786446,-0.47238729066061347,-32.08835585711351
552733.2241174658,5.756567070411801,2.860437620303758,-0.44047782558128634,-4.93358321706928
552733.2241174658,25.90222621801519,11.514509974685103,-0.06762955285712836,-23.19299705414906
552733.2241174658,5.45432561793984,3.6150266685084578,0.32409961666484394,4.019267668250171
552733.2241174658,835.9227398824656,30.35737200823179,0.5473247380885384,-835.370897120561
552733.2241174658,75.53062603322144,7.220917115575013,-0.10938028904785313,-75.18178079794862
552733.2241174658,199.61315233002625,14.945762810189498,-0.09623590988198803,199.05176160692358
552733.2241174658,79.1179566670709,24.09323199042861,-0.27266686497727044,75.35695850567959
552733.2241174658,207.15301013263797,13.881797738515694,-0.4925566527255165,206.68575420072307
552733.2241174658,492.4097091270363,14.026405310330672,0.334379560890765,-492.20935392368375
552733.2241174658,212.1719986867691,13.800708530439323,-0.288865566886666,211.72149709110445
552733.2241174658,61.13595256924978,2.527607560483346,-0.22937974285079862,-61.07979686051188
552733.2241174658,23.494948274035988,8.833200250698436,-0.49324111606616705,-21.755968926944753
552733.2241174658,30.70386205584214,5.809126267883292,-0.017284932562764175,-30.142315793534397
552733.2241174658,61.85714650359996,8.505033595141077,0.24371712939295626,-61.26573171106558
552733.2241174658,103.66485413760306,25.580889868341632,-0.3218149430487744,-100.45643232304637
552733.2241174658,57.113256553359,5.749144376419727,0.5770969906937717,56.816517626041616
552733.2241174658,956.4380810534681,32.58775101143983,0.07499271485194603,-955.8825315133482
552733.2241174658,254.82062622845964,3.183620284265296,-0.11088188386090937,254.7998864237891
552733.2241174658,73.60738240748803,19.723082574330586,-0.3358965909718944,70.91200346307079
552733.2241174658,53.84227156839809,5.012102636237782,0.4099617570012002,-53.60297817458299
552733.2241174658,40.38748647991818,32.94885503758148,-0.06146649538735583,-23.347302644332093
552733.2241174658,70.27837306891612,6.938111694130924,-0.16419376759157836,-69.93185018829595
552733.2241174658,95.43863239460798,22.530176233380423,0.3936985870784996,-92.73805592466636
552733.2241174658,286.1455613594634,36.64340498753306,-0.5183225755076558,283.78839440922854
552733.2241174658,34.78037821739595,10.104384584654788,0.4104311672632408,33.27139868393746
552733.2241174658,20.041564104473718,10.135768398895477,0.6086304303689143,-17.26668360557366
552733.2241174658,18.579599788572526,6.3927831602728,0.26957234752670545,17.430992098465925
552733.2241174658,57.500813500509935,29.060353465488156,-0.3952206409594619,-49.61110272251921
552733.2241174658,39.11158667373729,14.826569754863776,-0.4642807661947369,-36.18358450775214
552733.2241174658,424.09890074134455,21.410418541601004,-0.39286995754348236,-423.5574288619017
552733.2241174658,29.190460225698914,13.473343077970444,-0.43063855928241346,-25.883292834196187
552733.2241174658,442.2035189483416,15.83578532874618,0.4290775417322763,-441.91919427515177
552733.2241174658,89.17632429034879,15.696743296748313,0.3910514879492599,-87.7807179599557
552733.2241174658,132.53220816474905,0.6397974166995429,0.6990413418144918,132.52722929462635
552733.2241174658,74.09411332569623,5.590638028017681,-0.2087774134092962,73.87974763743122
552733.2241174658,100.02393960387285,33.5852781941764,-0.09638026607074036,-94.2145774090261
552733.2241174658,69.47183464009302,22.49411240625183,0.011860448096611144,-65.72616585244558
552733.2241174658,1208.4711180956288,8.028914027429401,0.18012562188323358,-1208.4442584035965
552733.2241174658,582.4102957128006,19.98370953210202,-0.537444412538696,582.0667430476765
552733.2241174658,6.85685210047729,3.6273708378405405,0.0020526459005117082,-5.782464901521204
552733.2241174658,1591.478617665553,29.940810664030437,-0.6538476527493788,-1591.1966846149805
552733.2241174658,134.14365726334415,23.411954857874125,-0.5970094334485949,132.0818800459505
552733.2241174658,21.868815338290407,9.917506805600839,0.5349852479935688,-19.47255085661897
552733.2241174658,366.6893321672599,34.28399471597545,0.37463421839873656,365.0823358967214
552733.2241174658,112.375576854905,11.186848925070313,-0.16460601704022426,111.81536518957287
552733.2241174658,6.324745381911836,3.89573149758485,0.09827236980826055,4.939061227009508
552733.2241174658,10.431602167289821,10.393057526236495,-0.5835974008933199,0.2009878720002365
552733.2241174658,180.75903474284667,19.37697071463905,0.04204356161489085,179.71627133469764
552733.2241174658,573.9979220525422,12.04550522279185,-0.4647912751310347,573.8709633677702
552733.2241174658,13.232235853333219,11.24049312388096,0.2258940266868143,6.94770860910309
552733.2241174658,35.222951505419495,4.7851775264910135,0.0433843098198904,34.89032544435259
552733.2241174658,361.4370961816605,24.143557712492747,0.22654802645446448,360.62915868829043
552733.2241174658,43.799952283213635,11.563995354855095,-0.47716098015841474,42.238139777478025
552733.2241174658,69.23548856497743,6.860876834101168,-0.22005501854574028,68.8912993396503
552733.2241174658,47.49485306918819,29.379992780472424,0.10485477939635214,-37.311451335702245
552733.2241174658,8.460049165981488,6.759373332378637,-0.16813120776738946,-5.043147723337402
552733.2241174658,26.387671967536587,11.564219492628817,-0.29666268655652256,-23.707980801010887
552733.2241174658,193.52800900937808,31.523577237463527,-0.28964784183821884,190.94200364622077
552733.2241174658,127.77921287739463,15.053615030403153,0.10305800019783268,-126.88768104173718
552733.2241174658,131.860400607153,21.810125571683553,-0.2240169703576375,-130.04234614248287
552733.2241174658,82.23382403349828,13.587375966436664,0.24587004256934275,-81.10057262719728
552733.2241174658,110.21214868087078,18.348222715015286,0.5542612145727511,-108.67074830688645
552733.2241174658,95.97198072459474,14.449288933046645,0.16712795476629566,-94.87565285570444
552733.2241174658,44.22969105943118,8.930681560037403,-0.6774815164798789,43.30851902222978
552733.2241174658,771.2639631293407,41.5479122397262,0.13945159081677913,770.1437727247874
552733.2241174658,429.30317959701324,31.017595545534647,0.024362636080743107,428.1806937359029
552733.2241174658,296.97668270035075,18.73264680865414,-0.6358430339535691,-296.38389297986714
552733.2241174658,685.3741256997689,18.840734443995373,0.0878869877900217,685.1148002219984
552733.2241174658,36.78975938374149,13.735189619316218,0.41942680009120353,34.12086379053825
552733.2241174658,24.091410660170133,20.520724343156637,-0.3323281622403347,-12.600150834009709
552733.2241174658,13.016923396226687,12.119812422517704,0.05590442096621002,4.703787756692652
552733.2241174658,15.089148653942672,2.9223168711902807,0.47178996005519513,14.781684222604802
552733.2241174658,75.08090143551391,2.234732406577777,0.2702129882511135,75.04434035554846
552733.2241174658,35.959764597313765,8.382465032529703,-0.49975031223135424,34.95951233235581
552733.2241174658,228.54574306940492,11.338942133575788,-0.6160662894223907,228.26253269378873
552733.2241174658,610.6659077820291,12.84455900069762,0.3315299532562879,-610.53037321843
552733.2241174658,33.45483599688182,31.622676703413397,0.4140521837934111,10.892163857417241
552733.2241174658,913.3062142290695,11.863717932592772,-0.04733633385520122,913.228924864155
552733.2241174658,122.3108500696159,23.409053641281133,0.17565263829120997,-120.04793918073071
552733.2241174658,428.26502359114426,4.5169482513380235,0.6034995965941522,428.2402850051278
552733.2241174658,129.28511507079224,15.227929198240808,0.3589543141170192,-128.3830230444034
552733.2241174658,8.440978792324131,6.461763705940193,-0.11380966050608061,-5.390833252875787
552733.2241174658,60.35652335844381,9.615500552828781,0.061980210119407464,59.58209901059671
552733.2241174658,38.31293169259668,17.585119827375465,-0.3335135700241457,-34.031035353851806
552733.2241174658,17.05587417797692,17.036727013787107,0.42220138814525726,0.22983828793473768
552733.2241174658,60.27504774281376,37.78256870997632,-0.11880824643768753,-46.958737948256775
552733.2241174658,20.678720558184363,17.422509741808483,-0.15178345526315076,-11.118493738850127
552733.2241174658,1749.158107072291,57.2294407418143,-0.4366281399398599,-1748.2214568835336
552733.2241174658,242.01921585098682,18.51213755528489,-0.5877392635257582,-241.30858764212465
552733.2241174658,14.255454918327672,12.682775207527218,0.3390377421276437,6.467500629400403
552733.2241174658,65.64098407888994,26.716276404705717,-0.10904015812207787,59.954530931151794
552733.2241174658,96.68615260647847,16.10082588286223,0.05268029323034961,95.3338923968689
552733.2241174658,13.11444589799941,12.983853783161255,0.39105470541682225,-1.6833334145350054
552733.2241174658,8.867466995380438,4.810438393757319,0.04949599759322739,-7.420748381283731
552733.2241174658,10.814740268097122,10.360334497914858,-0.44440364577821634,-3.0004807240526863
552733.2241174658,16.731751065063115,10.704573999570167,-0.33937609189035367,-12.838485739264435
552733.2241174658,40.34757666613395,18.245735123456427,-0.3402110744404325,-35.978919551275155
552733.2241174658,126.39388335880682,34.119996088646815,-0.2323437820928678,-121.69948207291347
552733.2241174658,38.018360971602206,3.6877812611614447,-0.09402035683409593,37.83339138284392
552733.2241174658,26.401746096471882,16.15555076813115,-0.6040257342461903,-20.86297754998911
552733.2241174658,50.71973705643178,30.490955924048865,0.31185708055005207,40.52498466490367
552733.2241174658,7.56586646217316,7.252142231557582,-0.19626693597289277,-2.0465948999778747
552733.2241174658,56.108349613234566,8.278183989961583,-0.16841118986198217,55.49025596299323
552733.2241174658,2623.1448775827685,30.549476684975268,-0.00852962647918283,-2622.9668996183027
552733.2241174658,165.3578533726137,16.613196295030477,-0.05132179090085193,164.519898644369
552733.2241174658,348.9346792277332,34.16180487990591,-0.20636369374877225,347.2577100254972
552733.2241174658,223.17648696599056,20.99022943449388,-0.01473360012530512,-222.18625675029352
552733.2241174658,14.094346948787983,6.767920215729784,0.10509490083109405,12.345571268524608
552733.2241174658,34.14062363013295,7.139769753407199,-0.10233038735202998,-33.37924057303617
552733.2241174658,42.431899034785175,15.151020269395094,0.40249726223860904,-39.627376136536576
552733.2241174658,32.377438062345604,11.108140277946305,0.40902032488720014,30.40261042144898
552733.2241174658,19.103820407844502,3.117026072652486,0.14619963096282285,18.83605668189503
552733.2241174658,27.116083952723038,26.816867195182738,0.40707965347153885,3.9433782396393786
552733.2241174658,21.292372368544424,13.313636166496003,-0.2457985296432307,-16.602111287659305
552733.2241174658,54.45312031033182,12.667021075000001,0.49679166231258465,52.95300170603467
552733.2241174658,161.20505900246917,19.599280904286818,-0.3591800195178934,160.00746397826597
552733.2241174658,28.098860029909662,9.058941706755657,-0.24042553339421646,-26.589509373341695
552733.2241174658,32.52857388736857,2.0056180520493996,-0.17410285190631353,32.45972283600592
552733.2241174658,3.7413986334785863,3.6442611426180442,-0.1083633483018019,-0.5329023004458514
552733.2241174658,451.93866988583346,17.721481111782065,0.5208811872720351,-451.5903203470906
552733.2241174658,27.469615717507722,26.741865287381717,0.48592539242024413,-6.228531781259005
552733.2241174658,468.79215771589827,22.96673921625487,-0.4938468606250971,468.22852374027417
552733.2241174658,15.68344610891116,11.188254072700781,-0.6796374062310269,-10.95033555056385
552733.2241174658,453.4647528260918,13.076527962847388,0.476508934727499,-453.2754545685423
552733.2241174658,48.326932810175144,14.032956411954322,-0.25890976250881664,-46.23937540594948
552733.2241174658,31.356568537722666,17.897345129176745,0.5990703667546422,25.73205871091127
552733.2241174658,7.622839287650564,0.27296969623383605,-0.5562487036924695,-7.569812200312728
552733.2241174658,178.22431131652897,19.008172974835535,-0.1667370558672346,-177.20650384842548
552733.2241174658,18.121556748055077,14.778875326195212,0.3628138952974982,10.460512997038622
552733.2241174658,18.967398667979662,16.68280509718333,0.5020626481205505,8.987350134211345
552733.2241174658,41.50875103111836,24.188320620725385,-0.1120173273199264,33.726359318029225
552733.2241174658,95.11979087165562,7.286063815106179,0.4120329471631768,94.83721010984156
552733.2241174658,41.54850410185167,23.09615774859788,0.23194144230683658,34.53071381449975
552733.2241174658,21.38165546945202,18.466313707369615,0.09462980343232673,-10.758243206664325
552733.2241174658,67.80472531985748,14.664432952690417,0.39812725549852734,66.19558126932549
552733.2241174658,31.722652983290452,6.068179484044562,0.1994856325407054,31.129446165137168
552733.2241174658,5.054672209844513,2.9906042309958196,-0.2410015639466399,4.015746349905032
552733.2241174658,33.038069559356536,32.80868884024683,0.20383393983349038,3.826320887718644
552733.2241174658,33.92104238026202,9.900602874355517,-0.15239303833799006,32.437174017903864
552733.2241174658,151.16337463100572,27.529696270893922,-0.22342401803901932,-148.63381189282723
552733.2241174658,77.0478374865859,52.69313247888446,0.12494035459158777,56.20823555181178
552733.2241174658,121.75858452106581,8.068857663554923,-0.4578604070038374,121.4883332153528
552733.2241174658,35.097987252184964,26.839894964764042,-0.12045586144047196,22.60647121597028
552733.2241174658,75.465987913211,25.42294860186932,0.09277725111228778,-71.05180301374041
552733.2241174658,72.4367692117493,31.68288775542833,-0.5724189011061742,-65.13471268788166
552733.2241174658,10.242729511110312,10.170090996595725,0.053799767892816874,1.0286717463716855
552733.2241174658,70.19846428691315,12.241851888264133,0.08988451454029722,-69.11969093086967
552733.2241174658,96.12845811292115,27.540945516469847,0.5808638180299338,-92.09461265171518
552733.2241174658,33.91816872243878,6.62517145003415,0.41918336094486086,-33.255854538253246
552733.2241174658,43.322398382594656,13.186492125803916,0.4336044990318897,41.259385807266284
552733.2241174658,26.513446324290406,14.971581180672294,0.2060427174664727,-21.871224070870436
552733.2241174658,9.426651961604904,6.966710282958465,0.016520065985099388,-6.317020274151906
552733.2241174658,112.32734565549312,11.926764195885877,-0.20504690903411713,111.6902911474741
552733.2241174658,13.644947544941894,11.42694434522391,-0.2040511342842121,-7.426048921737886
552733.2241174658,45.39371277148521,24.743279369041524,0.025274835490970923,-38.05176670598135
552733.2241174658,88.33606753700197,16.44506839227573,0.1548571037239966,86.78925553183785
552733.2241174658,7.526410909778944,5.755145033135868,-0.08814601448411191,4.805798594262732
552733.2241174658,40.69337460626819,5.628236575111362,0.6924953847094423,-40.29109632488156
552733.2241174658,59.71015629596097,7.098841968494183,0.5537045528905732,-59.28052734145182
552733.2241174658,26.05347136044191,3.116519610462896,0.42304520298111303,-25.854787007849787
552733.2241174658,8.267185010066015,4.21414198992849,-0.25974638469517447,-7.0780074959762205
552733.2241174658,84.2897216042876,23.06242488609181,-0.4912163519654344,-81.06922187868415
552733.2241174658,65.28533505640235,23.31504864038971,0.18061874883788226,-60.97646398577589
552733.2241174658,91.48639536444328,7.730708721002548,-0.1406471952210218,-91.15676168466493
552733.2241174658,39.96279690365793,6.643303911046326,-0.1981193082393416,-39.40089721397558
552733.2241174658,47.68913750964961,22.223391580964783,-0.582100896352309,42.18547338383101
552733.2241174658,3.172071412047699,3.074880999041528,-0.23934702889885856,0.35799427746397144
552733.2241174658,41.8113677348506,20.471689027000263,-0.3137171351459753,-36.44969553806855
552733.2241174658,67.19571962928573,7.316902138407896,-0.5096935943500606,66.79106373649466
552733.2241174658,16.394754791459697,7.408492884167893,0.376372223344898,14.60612422324604
552733.2241174658,268.03585640157087,17.53000270623147,0.32008031019316957,-267.4610161755468
552733.2241174658,589.5815499727239,6.5481102946996135,-0.006078481955405989,589.5448283089914
552733.2241174658,94.30991151926088,5.481137568497216,-0.1429090865014972,94.14815145151329
552733.2241174658,112.1533573978489,27.85397068363884,-0.14653324568505163,108.63741861711647
552733.2241174658,139.9717760123035,27.281050596231253,-0.2897200394644327,-137.28560275469948
552733.2241174658,370.3069753174425,18.18670498687745,-0.6023416432724896,-369.85904777095294
552733.2241174658,23.40628977940702,23.304386526036527,0.05661030664398361,-2.082082652998773
552733.2241174658,62.24959552052785,19.13671294657233,0.011247752944753938,59.23155017873449
552733.2241174658,60.90659461119146,18.71623236999671,-0.15269727834109795,57.95576674985473
552733.2241174658,66.20082517957451,15.583280983718833,-0.4884548644786308,64.33545152637461
552733.2241174658,74.71072021070009,32.270608171506474,0.40991749377216163,-67.37736885118761
552733.2241174658,69.70915601579077,20.77083432706095,-0.06003006372575323,-66.53956396912417
552733.2241174658,127.62872665348675,7.917962598925442,0.1987395612058108,-127.38106822082057
552733.2241174658,187.0610038788906,23.0974952572645,0.2766105348817113,185.62819471903788
552733.2241174658,52.71809873197585,36.78737965381831,-0.5440706535982313,-37.75140954007092
552733.2241174658,26.02742438600147,8.203548583650415,0.2885279647139456,-24.690558224478544
552733.2241174658,16.57337430871104,10.168482212077375,-0.32377565894916577,13.067217677074835
552733.2241174658,17.562902602613462,15.219700922904117,0.1049869454896287,8.739767296993168
552733.2241174658,146.50345415237564,18.83395216231585,0.12467889731665195,-145.28629351289635
552733.2241174658,10.640049027517327,10.617033667628165,-0.1300341614938229,-0.22501898440575374
552733.2241174658,14.757634822461055,14.685486119995433,-0.14634869428759678,-1.2965986465721966
552733.2241174658,66.26131029626364,6.490739257267794,0.006472867025365869,-65.93944045252402
552733.2241174658,14.171704954045223,8.823481158538131,0.03239734033985714,-11.07071158416872
552733.2241174658,11.966318644556802,11.648712787355334,0.4189004443324595,2.6273746852297455
552733.2241174658,9.26107192662683,9.229022537437924,0.10687900181036843,-0.399344626439907
552733.2241174658,525.6800282223456,12.637317884066835,-0.5950072155423007,-525.5273680199489
552733.2241174658,27.510855184516693,18.775329883580042,0.24391992173254826,-20.09609282512531
552733.2241174658,13.215140132452625,2.7701297090355155,-0.2928910097325567,-12.901892418942762
552733.2241174658,214.22551927016104,5.753686307459624,-0.21232177021642434,214.14714899556668
552733.2241174658,188.21921526536948,14.597064380619347,0.6283944024903664,187.65015888635037
552733.2241174658,267.16524140532715,32.60633444414326,-0.47354376393085346,-265.16682905032656
552733.2241174658,43.50046057804084,14.039203541697354,-0.34162316006136184,-41.16615637937386
552733.2241174658,98.58637190151046,22.776086350844388,0.5658344951883884,95.91548753764401
552733.2241174658,66.49794049682122,8.9463695667706,-0.06672138299452594,-65.89015414436867
552733.2241174658,312.95621865253673,34.93210234515291,0.04517027470547764,-310.9998702277969
552733.2241174658,58.00747955697889,14.415784007933157,0.25976039534643386,56.183304313158985
552733.2241174658,16.539828202065145,16.448916309158935,0.0856091330547006,-1.6031354598187857
552733.2241174658,20.735908930217505,8.006061206669429,-0.19218275258052497,-19.11602134140427
552733.2241174658,37.98195461420716,15.750039908888352,0.01939298090278778,34.55637489833801
552733.2241174658,28.781160791398108,9.57466099312131,-0.39306037074681627,27.131253010691147
552733.2241174658,28.502666930398938,15.428974937032322,-0.26640742559430575,23.955293457591992
552733.2241174658,34.0859676233689,6.656696885354744,-0.04879653147326281,-33.42330769559551
552733.2241174658,10.140331972156206,9.417392705123227,-0.27130625121373075,-3.6937437755146934
552733.2241174658,19.908916244508653,11.95276902434345,-0.48147772076992384,-15.901029554844381
552733.2241174658,39.65804001549451,27.212167848854175,0.5639794203150198,-28.836058833826225
552733.2241174658,8.885752293551377,3.1017117659889624,0.33012818768728114,-8.29489580048173
552733.2241174658,81.00041904267738,46.17042499634824,-0.33776507769502795,-66.54940990359178
552733.2241174658,26.591432359180665,17.978516899731893,-0.011059709033390526,-19.58201689560724
552733.2241174658,93.0020501979512,27.173212417822278,0.43558000861102797,88.94035327674564
552733.2241174658,606.8825869686691,21.215465311482927,0.6466975047758531,606.5109549569215
552733.2241174658,214.9439390477345,21.301990579413626,0.07774124170007402,213.8847689528831
552733.2241174658,388.025068650967,23.453992732320387,-0.0003286353304715842,387.3150428648621
552733.2241174658,85.14558372020136,18.058530518933225,0.25837694574664627,83.20559744946584
552733.2241174658,7.452385859501866,5.63276479734595,-0.16119284356880187,4.833460005207636
552733.2241174658,5.641710196006203,5.567504849461627,0.43408795435069086,0.47080181913969166
552733.2241174658,23.139967976667364,23.0551835399991,-0.015166321559822499,-1.8694124475118548
552733.2241174658,30.33251118317419,4.236689511889911,0.0680037993081124,-30.028076447861018
552733.2241174658,15.244482231187117,3.8270042487816323,0.45688311416197347,14.734918995870208
552733.2241174658,38.34573819680109,12.949340748428792,0.2851034614560879,36.08610856095506
552733.2241174658,38.613224225718696,6.9094168514974195,-0.11504582226343206,-37.984287690500764
552733.2241174658,20.060020497399748,19.986296326977723,0.10239026287061112,-1.5875140120579103
552733.2241174658,6.555544751232026,6.435466395831327,-0.26881072581030674,-1.0324645588575263
552733.2241174658,5.912526157792264,2.7294635426172187,0.4031374786623956,-5.1888127281175755
552733.2241174658,52.11794891957239,10.057536443318394,0.12010539631253374,51.1340438258733
552733.2241174658,6.443837588011386,6.068557990295177,-0.3188832701793127,-2.0426118713962054
552733.2241174658,485.0913583827238,19.678358153210915,-0.031269858988671156,484.6916189941849
552733.2241174658,39.826669444101064,15.166580693307193,0.47178394476454866,-36.817036165485035
552733.2241174658,162.1348774963224,12.383265290873696,-0.23306358573610828,-161.65981945389643
552733.2241174658,16.093996933173287,15.458104474828922,0.02578423584124367,4.431859826475023
552733.2241174658,440.6669295927031,7.494366078481248,-0.009287210434041612,-440.6027184783453
552733.2241174658,409.7689622372235,28.650851149809643,-0.4011628842755901,-408.7653954442828
552733.2241174658,114.1186489577351,10.605170143409493,-0.17605359839994814,113.62281335329044
552733.2241174658,1132.7297575304115,17.618682511839836,0.17690764916566198,1132.5925271818428
552733.2241174658,228.7390209201307,13.178148851890743,-0.07012381809592334,228.3581605067041
552733.2241174658,11.17057167351815,7.570983864118725,0.22159740774191133,8.18480741675808
552733.2241174658,220.42600496852617,14.335459492108939,0.09711743462285093,219.95837592316593
552733.2241174658,27.386771953023178,2.44839500255605,0.45586288909835054,27.26556678234975
552733.2241174658,43.00994649414875,10.597470213454171,0.2743166903287736,41.67795791393782
552733.2241174658,76.05497559808056,8.517209170663437,0.18557021600305887,75.57354251244814
552733.2241174658,28.827272955781922,3.012400381680373,0.13396090041598357,28.661777116969635
552733.2241174658,22.3971374659373,3.4694571479651364,0.4701666121201611,-22.112256333116456
552733.2241174658,19.23377895677094,10.689719700041044,0.35721483249194086,-15.972440210374957
552733.2241174658,307.6252479268603,24.64883469579171,-0.6274189510189628,306.63481987321626
552733.2241174658,2.26204752188986,1.7221199884340668,0.49169575475925115,1.2197130972288697
552733.2241174658,2.7928420935243117,2.691602206505228,-0.16180425228857118,0.3276689233277813
552733.2241174658,11.909420856609598,9.921065221365778,0.46357043669208403,6.5398910909552
552733.2241174658,214.05832785546338,18.865583789545106,-0.698867281182084,213.22323363108927
552733.2241174658,33.037413336213504,30.35381866046042,0.25082992783485913,13.024275797182767
552733.2241174658,72.5213146678007,23.207458595632673,-0.11680649274927632,68.70458213204914
552733.2241174658,6.1351400684248905,5.630931756273856,0.23688165100370628,2.3355387637273246
552733.2241174658,38.81993541698258,11.305610471007856,-0.030508067410081177,37.13149512115605
552733.2241174658,3.369398226467224,3.176851742006784,-0.25433594085688516,-0.8798145629013956
552733.2241174658,158.97788278239864,6.801642830994888,-0.2525464333900704,-158.83078855212773
552733.2241174658,151.7928003399828,16.77280677304539,-0.47125525492072945,-150.8611394942738
552733.2241174658,27.740356022048097,27.426776160496804,-0.32863184024080944,-4.095070915581357
552733.2241174658,187.4285395828267,3.3938029741198754,-0.3265642836547296,187.3964012736392
552733.2241174658,3.204568460881267,3.098924135789595,-0.03758151072472363,0.49276654637190276
552733.2241174658,14.41149334789393,13.595997767702789,-0.49200413886444444,-4.7091634249012975
552733.2241174658,108.41706904672893,33.43351053443545,-0.00719949731729337,103.13117610699635
552733.2241174658,53.122710016431384,17.27168406313096,-0.371043177482755,-50.23098524906483
552733.2241174658,344.04437506364593,7.880996943710211,-0.16420109154343993,-343.95344632831853
552733.2241174658,92.84791689937191,12.376423843974397,0.47170531849895214,-92.01584430138948
552733.2241174658,57.70861784126608,13.975303436749758,0.15013879254830068,55.98688443163374
552733.2241174658,18.63820817928966,18.39342274606125,0.33232630854378287,-2.9210727587552436
552733.2241174658,123.2401545028759,24.310981151983068,-0.11495448148892924,120.81670814008265
552733.2241174658,172.24565425414306,30.28019200946096,-0.623327359797743,169.56080073922914
552733.2241174658,41.475314120169934,9.437298929527604,0.11803800410213384,40.381969247786415
552733.2241174658,5.515604694956963,5.434972756678527,-0.4432795775093574,-0.5145605109533988
552733.2241174658,231.76926615326374,3.3197992509807737,-0.21959772202538816,-231.74447511432533
552733.2241174658,618.7158196500088,60.930869209489074,0.2763708263893083,-615.7078825098334
552733.2241174658,120.20639520294708,21.119423985164527,-0.06031711778685993,118.33478796653728
552733.2241174658,14.768245793392936,14.284173982867738,0.18684133501110262,3.6887465045513568
552733.2241174658,18.508541477396875,17.060471362027123,0.6519361959466413,-7.117563258620416
552733.2241174658,275.48036989832383,28.75496591999064,0.2661902176897546,273.97462214600023
552733.2241174658,62.0885816352212,7.637030474048093,0.1826254323342236,61.613413198600924
552733.2241174658,1.912580067628563,1.7952682670880118,-0.06931444922823463,-0.09204829971853976
552733.2241174658,28.719012749957844,27.273179779332295,0.3626151169101656,-8.966725787684451
552733.2241174658,199.97343608563318,18.657381429377168,0.13482199967134947,199.10006876980236
552733.2241174658,962.9324093163099,12.806350240796771,0.5430010843450372,-962.8468755508654
552733.2241174658,36.45760404485034,11.046910881981127,0.08515226632690626,34.73749709991021
552733.2241174658,17.207798761401683,9.127316647864099,0.46384475567659117,-14.565836058504415
552733.2241174658,7.595224467376404,7.355102369868849,0.32361101738822223,1.7502807677866454
552733.2241174658,84.6682249341239,22.904732876928737,0.4840227444321638,81.50721164616593
552733.2241174658,154.5240816954796,3.5744831932389722,-0.04986791691170568,-154.48136039646158
552733.2241174658,59.2924339869843,20.7946489580506,-0.12294394818743323,-55.522414308241466
552733.2241174658,58.88957231374797,38.64113297511515,-0.014241658568122898,44.434476140592196
552733.2241174658,53.966472868999354,4.59142483015021,-0.18415375776711146,-53.76656398135462
552733.2241174658,63.02906234977545,20.847582705936592,-0.10271128345903678,59.47780047565092
552733.2241174658,253.06121097969685,6.3517344199538615,-0.27361345754562477,252.98050401377384
552733.2241174658,63.641888379684374,19.856713967833382,-0.36424203718200665,60.460288600769026
552733.2241174658,292.13329146107566,34.7024666326289,0.31994055611036026,-290.06391490592495
552733.2241174658,58.36967470805884,11.475049308863245,0.09835490318148582,-57.226836346375634
552733.2241174658,3.3281043605144194,3.102281554881709,0.5291983771829296,-0.8662447023669317
552733.2241174658,119.5492957363155,21.331839898698572,-0.47641902342141385,117.6279645557021
552733.2241174658,316.6353444934502,13.423210923814674,-0.0994118300690876,316.3500074463201
552733.2241174658,227.59153566558086,10.076159388689337,0.34631101265546205,-227.36718428632503
552733.2241174658,40.20650650793817,2.437857698132845,-0.1430384665980979,40.127021549470605
552733.2241174658,76.53820878216465,9.44598104505681,-0.3862032439297811,75.94932518298705
552733.2241174658,50.70540480737052,17.173376730148796,-0.1939198503309481,-47.70381438075388
552733.2241174658,55.150660946370614,17.976916425280983,-0.3760882727754437,52.133125163269746
552733.2241174658,156.30863951704004,25.305819854738086,-0.5161179484431497,-154.24434574540774
552733.2241174658,13.353689156562549,12.95839131229006,0.4855654162540541,-3.121480086797885
552733.2241174658,41.660944492644234,16.69944464851784,-0.6734921234191811,-38.15609460922384
552733.2241174658,14.098619086916653,9.251385382225497,-0.09442114614293144,-10.61848936208687
552733.2241174658,118.30907602277767,6.496333046885588,0.11571924839795228,118.12874348938514
552733.2241174658,27.510192472453117,26.97339992684398,-0.22983408605757916,5.363941234662399
552733.2241174658,865.1199697719675,12.100972172154986,0.14897488124260094,-865.0350771386334
552733.2241174658,56.71489629997433,29.949689099974844,-0.6363447181507413,-48.153597514094905
552733.2241174658,64.3487969818907,30.19768741088571,0.17287848458172703,56.819149624916655
552733.2241174658,36.30486549136023,21.825878918939537,0.6140172266407629,-28.997854293464794
552733.2241174658,19.10015918711563,3.487512657133612,0.1306010810057038,-18.767380819262094
552733.2241174658,182.33011659626652,2.8702206196002993,0.29111891497356485,-182.30613485123973
552733.2241174658,129.22498179007323,5.039981981532711,-0.34070595475248,129.12457830614997
552733.2241174658,8.906447458167218,7.945866458272702,-0.049717869334756117,-3.9703707262590644
552733.2241174658,141.50836610998414,14.460886759661415,0.44510443911468595,-140.76533883842964
552733.2241174658,93.74028369277717,28.6681998448362,-0.40314576233748867,-89.2456770996291
552733.2241174658,76.41947498830105,10.554442196272955,0.34882662983464996,-75.68352879202642
552733.2241174658,631.8046366012026,42.92460321897898,0.40031081635532617,-630.344346626143
552733.2241174658,806.5328117626689,19.2009772525685,0.09348181888506035,-806.3039553955509
552733.2241174658,163.82784407125843,46.87922210023599,-0.17356077638368966,156.97595104979712
552733.2241174658,34.642467962616664,23.61944147546821,0.04074184169610205,-25.333756414086423
552733.2241174658,36.41097070642098,20.258806312627225,-0.1669152973518495,-30.24714857425223
552733.2241174658,78.66647740149071,6.159421121334593,0.3222544703582821,78.4216210829878
552733.2241174658,38.341289220171106,31.439455770188005,-0.52653762579308,-21.9298002974469
552733.2241174658,49.383897339992146,10.71952840967046,0.5200334328353229,48.19926239485373
552733.2241174658,280.09171596452313,78.56928980552914,-0.6432420570635679,268.8445658630279
552733.2241174658,26.13042110962959,23.419622691899583,0.5076812181389141,11.560308954974449
552733.2241174658,15.714331999009953,13.776703877877758,0.2514679030376974,-7.527132744159217
552733.2241174658,32.89398626470077,8.083712378228073,0.2652112889176165,-31.877513901788387
552733.2241174658,207.39239769557383,11.421258743998205,-0.22520559089191522,-207.07652946696203
552733.2241174658,27.53665650798699,12.653283851857413,0.5061029967484351,-24.443486293447275
552733.2241174658,69.57575475038396,14.553011577420849,-0.3561249600522125,68.03269053288963
552733.2241174658,63.48683005802393,12.733292230926054,-0.3339323811213409,-62.19250478925226
552733.2241174658,21.944445890894713,17.738183961962726,-0.6739489763199356,12.885636615447751
552733.2241174658,139.24081886839264,25.897234702779965,-0.36100291607401863,136.80930835949107
552733.2241174658,16.633261070323503,7.369835229745078,0.02833997950461254,14.897261573308885
552733.2241174658,27.432311992788925,18.43559158209193,-0.5333628332654924,-20.296663060566857
552733.2241174658,24.884806513531043,11.928128297745056,0.470387669584992,21.824994593052917
552733.2241174658,22.16560513877708,13.503588607771626,0.6400211705777921,-17.553797930918815
552733.2241174658,21.260258132365813,10.744920940394454,0.11490658974924024,-18.333312557560557
552733.2241174658,171.91609906638087,2.5115810779909404,0.2856889800267014,171.89628781191038
552733.2241174658,24.40782456715096,22.095239070346366,0.34867129687911985,-10.344034119716824
552733.2241174658,43.368407115876764,16.611919820700884,0.2514831390740885,-40.05468655335943
552733.2241174658,128.1923849838956,17.308482315257006,-0.3794350875786273,-127.01629163156251
552733.2241174658,328.1451520027291,16.082013438549634,-0.032231055939612285,-327.750189764756
552733.2241174658,179.9857102028983,22.185448587276444,0.504349922257071,-178.61126975193082
552733.2241174658,36.38325455716371,7.695537298820238,-0.054880357123755635,-35.554116625481186
552733.2241174658,26.68403356152784,13.049235696659105,0.22228157899053588,-23.265510713575566
552733.2241174658,1.7686090736533808,1.624027779430861,-0.07777741118223482,-0.25053047605376755
552733.2241174658,25.77850780231926,6.287026519628285,0.4767630800841818,-24.987111918732623
552733.2241174658,19.579591984466287,17.50434513551629,0.2550874401368515,-8.74480171706962
552733.2241174658,8.788554725186572,8.32622976242829,0.08846209759846244,-2.7355199827851835
552733.2241174658,40.744661126202686,4.529321778099165,0.35667131442968136,-40.485352204359884
552733.2241174658,4.705539728008056,1.1402279084984748,-0.33498752009756255,4.506447695025232
552733.2241174658,13.678753800375848,11.902075821102386,0.2877943698193816,-6.7040565405434105
552733.2241174658,30.63662920461893,30.6196735674766,-0.19895567199963904,-0.7598416289857404
552733.2241174658,40.69328806125965,18.931507456431333,0.6553709933647284,36.00958914709906
552733.2241174658,15.81042153714187,12.621628657662153,0.3670937652727837,9.492495161746195
552733.2241174658,189.8381671325865,4.924532141055035,-0.1773265664010839,189.77308961430356
552733.2241174658,5.212813204072685,3.561626065630702,-0.514191959728827,3.7151246164564515
552733.2241174658,60.662313707606174,23.89368516884017,-0.039987010701868456,55.7546842648169
552733.2241174658,12.733721816136912,12.483659415191223,0.4726925724656388,-2.379240140523959
552733.2241174658,53.627503078602416,12.93633679013828,0.5230661111734392,-52.03715001572477
552733.2241174658,49.30059691180938,31.487087579332808,-0.440334492333236,37.927517453493735
552733.2241174658,99.61498525574261,10.321258953722749,-0.5611762913303544,-99.07512445260997
552733.2241174658,33.890794288007925,24.74732630894104,-0.1864552507792625,23.1451790982139
552733.2241174658,64.55003986339112,12.132927650492904,0.005203098080541169,63.39619853697171
552733.2241174658,17.57436718870516,7.418585851081682,-0.5163731881744843,15.910205146451686
552733.2241174658,129.82192183068074,43.53999303180137,0.30404850403888567,122.30080233640064
552733.2241174658,34.84324239934203,9.982841611505755,-0.014588108201254325,-33.3762266360964
552733.2241174658,69.72477378665907,52.26299918560029,-0.002673814075820323,46.148686780833955
552733.2241174658,21.40082852117479,18.8969878711789,-0.6685468670314803,10.001532827217243
552733.2241174658,30.526019572773272,4.145681149391152,0.4405102591868596,-30.233019242122452
552733.2241174658,11.880721554135404,4.446440942189996,-0.17036909178034718,-10.996817038814278
552733.2241174658,36.71428038892973,7.647113757210283,0.49030612768346477,-35.899832013262504
552733.2241174658,57.907881279883505,19.67505603547086,-0.4721458411149278,54.457049733243544
552733.2241174658,31.56975683255734,10.214914229626572,0.35007964264607716,29.862364625227755
552733.2241174658,20.439449000819735,5.341724457000662,-0.13774731497020123,19.71792037659872
552733.2241174658,100.88088001523312,8.929305149133256,-0.0497769970728385,-100.48281090549847
552733.2241174658,177.74228551646718,37.12442556234104,-0.15609524217903778,-173.8207439420766
552733.2241174658,11.459437871613552,7.938435420021374,0.25263481983028657,8.234952220954673
552733.2241174658,140.64869845068966,14.680716836936607,0.5392532998980929,139.87787687094536
552733.2241174658,65.14452919502018,8.87588792901156,-0.10432029060583281,64.53367894214234
552733.2241174658,20.947846729886724,20.25090302437514,0.021415300573901896,5.318933513323591
552733.2241174658,194.54309426595478,32.50791823670123,-0.259170482364546,191.80657421519015
552733.2241174658,99.51304652728967,79.36274380442045,-0.4738236707564381,60.03128450336162
552733.2241174658,25.109696535537832,5.968782741429087,-0.296620110082624,-24.379516242550615
552733.2241174658,134.62097163087037,28.06870690005377,0.2809771054075306,-131.66037008410234
552733.2241174658,33.125842559378825,7.952852417316812,-0.020580082090376057,-32.15045043503168
552733.2241174658,252.78214281806015,26.300785237430425,-0.10172361336070816,251.40932436747312
552733.2241174658,118.30969675890881,10.047571487521763,-0.360196139744975,117.87993559612727
552733.2241174658,659.4603207567604,22.427976946807114,0.15165672059947571,-659.0784898674362
552733.2241174658,131.16077345073236,13.453477979069815,0.2538076543798582,-130.46710814283298
552733.2241174658,22.744174302021708,4.142607652052308,0.422427941827908,-22.35030478928513
552733.2241174658,1348.078733558631,32.447032723703074,0.0314473667320926,-1347.6880348413542
552733.2241174658,229.50376050709423,14.304124985117607,0.048547579744439684,-229.05663937432232
552733.2241174658,21.38893442616015,20.21290217010705,0.006171876826043708,-6.964435847523694
552733.2241174658,5.902999425326304,3.1387517991898295,0.019968257918394093,-4.956969199544921
552733.2241174658,27.795069305381748,26.90894701461993,0.11093434826731173,-6.931121470858983
552733.2241174658,19.357487071133846,19.167582151591077,-0.025848778660915298,2.625592319808779
552733.2241174658,19.470113531568412,15.295544710334033,0.5260242417912598,-12.018037879015855
552733.2241174658,1.1003461408305315,0.6788579542583149,0.5044569751010002,0.2715505218717288
552733.2241174658,8.890865112500109,6.850679934970907,0.3272114901771663,-5.620222641144267
552733.2241174658,19.877818070215767,5.747895718369225,-0.04383172300541328,19.017511084300253
552733.2241174658,66.75283028103789,0.3892310143857387,0.15806226072620244,66.74834956076668
552733.2241174658,238.18193793295035,39.93705922097299,0.3357423435070191,234.80871457076108
552733.2241174658,53.51229674542319,19.20210967574475,-0.06822574286296523,49.944154164796785
552733.2241174658,4.881587027470379,4.444382053712396,-0.22280664390373492,1.8989524177594947
552733.2241174658,101.27272874123958,5.745193960426073,-0.21601303622026846,101.10731909431695
552733.2241174658,32.63309223036226,11.579881872697383,-0.00025963018774385405,-30.502513786250006
552733.2241174658,21.21115022416842,12.390816780415403,-0.06944945265577328,17.20331459742621
552733.2241174658,236.02499296823115,11.760015005511619,0.4907890201321167,235.73043244748754
552733.2241174658,89.12226454288097,11.315586072846628,-0.446706650490779,-88.39747906623664
552733.2241174658,40.842351144396424,14.301124632225534,-0.32843109391774783,38.249783231939425
552733.2241174658,15.479748434119108,13.917601764728063,-0.356806251498709,-6.736019968721789
552733.2241174658,17.427940591051787,6.479290323860699,0.12530356644132123,16.165225398325525
552733.2241174658,14.130818427846739,13.650261305047012,-0.6775470729660672,3.5312361471162386
552733.2241174658,7.609792695322845,3.2198417187913027,-0.1079026217476901,-6.863543123927762
552733.2241174658,14.830771919588232,14.612581739810066,-0.524396007184205,-2.3932326409986855
552733.2241174658,39.99710569841049,10.931815688643468,-0.02019279940327477,-38.46871151037264
552733.2241174658,22.907873528403282,19.1590283580356,-0.3721380534154583,12.535633939158547
552733.2241174658,196.0970688763392,62.184669487960825,0.4640971489103541,-185.97443431670723
552733.2241174658,15.00983608002182,14.918530885786565,-0.34317001299385175,-1.4809296807123737
552733.2241174658,9.029387566259865,6.558349637027702,-0.4225032357980574,-6.157733665403452
552733.2241174658,35.7007740341268,5.000067065064761,-0.09768751295955846,35.34279779740881
552733.2241174658,20.89561283509731,8.495201000528075,-0.14490411730805122,-19.07919027447899
552733.2241174658,429.69414809886905,19.299175444803463,-0.0406792209869645,-429.2600370239262
552733.2241174658,9.267186753404959,9.238056691708096,0.11886218776761136,-0.32129998703182194
552733.2241174658,576.1375590667917,26.941199969371105,0.04094911369115815,-575.5069376974003
552733.2241174658,6.904339836452461,2.9625068104701584,0.2813057718154417,-6.1961788269837434
552733.2241174658,38.326818928277284,6.8754623343543955,-0.3264712689863958,-37.69807404070439
552733.2241174658,11.923455545866656,11.865460487484862,0.19009398207222936,0.9601077388760764
552733.2241174658,1.691989970402717,0.18795142904588397,0.44142323598500266,-1.4869273233993399
552733.2241174658,78.33534573120805,28.69356078373007,0.13295603352409377,72.888041447754
552733.2241174658,567.2842897153332,10.341742310659058,-0.21114056920583033,567.1896044943772
552733.2241174658,91.03878020047691,75.18903763245515,-0.0669362823514167,-51.324866710476364
552733.2241174658,20.356520738239958,17.682511601953657,-0.23912881505215886,-10.061701667265607
552733.2241174658,20.765196033384463,9.956630981910823,-0.04085264244906301,18.210862139795033
552733.2241174658,195.2181750849449,13.127840815601402,-0.09945223130496518,194.77516292199115
552733.2241174658,440.5811014873188,31.501043462840773,0.2981974657188149,439.4529333498877
552733.2241174658,383.6613312625349,27.718714812732014,-0.42112354726166346,-382.65792937458775
552733.2241174658,17.654888554700307,9.24342226306109,0.16693710261080602,15.026798387130981
552733.2241174658,24.46952521351353,17.986160457465225,0.49740640260674124,-16.5706543643216
552733.2241174658,40.377435928026145,7.122703671562004,-0.533711495142408,-39.73534798623265
552733.2241174658,29.65939103938875,8.770284632063898,-0.3067418223015462,-28.323943877442016
552733.2241174658,566.3433170782062,36.43957743634422,0.08904375413775913,-565.1694262516631
552733.2241174658,11.406388695490516,8.114905086941661,0.20307143919361278,7.986932046236658
552733.2241174658,89.83636134110662,22.395740433486736,-0.2507665850554373,-86.99723012018062
552733.2241174658,43.0442477645271,7.438057369783847,0.1990719210291135,42.391287330843504
552733.2241174658,9.595348334026866,5.588128203270317,0.03323094301731175,7.773077354409203
552733.2241174658,25.35698424725111,25.239754003759447,-0.2614306012634599,-2.3326862206153978
552733.2241174658,35.15697250986618,17.314270130588753,0.44169450107606917,-30.58777492545483
552733.2241174658,22.281807552969717,22.17198687180491,-0.6850442745561498,-1.9977395586168643
552733.2241174658,169.45148276019356,10.452287067095472,-0.118764736073369,-169.12752260543155
552733.2241174658,7.826488030827866,7.788317442156418,-0.3849180398709719,0.16176352355176193
552733.2241174658,5.776329028947163,5.272146358742279,-0.20336887987750013,-2.259954410918855
552733.2241174658,252.94547086880382,20.44667516417301,0.4144967159597559,-252.1165428988392
552733.2241174658,629.0087304449456,12.573744599168311,-0.5154716199052728,-628.882498178113
552733.2241174658,25.582231099587688,4.9942997910874904,0.06069971833263564,-25.081509846732217
552733.2241174658,1159.2454474689098,26.14727668465297,-0.25072928889025803,1158.9503193999346
552733.2241174658,30.52660506645599,19.301039386307608,-0.19411956643050035,23.640730024759893
552733.2241174658,13.023251063467992,10.699047492320322,0.13004634666792836,7.395731335371016
552733.2241174658,891.541969968732,16.80152979838405,0.4601240276823379,891.3832842279795
552733.2241174658,27.721753882153614,5.480779837806873,0.12317730368528804,27.16652022328443
552733.2241174658,12.602292104217415,9.498205891453077,-0.40170589341134244,-8.247350272473046
552733.2241174658,66.70808161333358,43.5197342207872,0.1295370506081749,-50.552570746242075
552733.2241174658,162.1351113568175,9.285915468156071,0.14757255258091284,-161.86760835314047
552733.2241174658,37.63467812745235,34.15448813656459,0.3214719999177387,15.789708567847391
552733.2241174658,14.799840450818301,2.5178174577717547,-0.5054758943219602,-14.560860886546262
552733.2241174658,31.177097350817792,30.190902788816345,0.049884940856673526,-7.75219985096896
552733.2241174658,72.33845128267198,13.92312631564272,0.24913130350315718,-70.98249308234995
552733.2241174658,9.002420163502359,8.971058633706697,0.2512976334563452,-0.28076379454190514
552733.2241174658,41.192515703589926,6.839874100860628,-0.23177474880657248,40.614825566026646
552733.2241174658,40.50350909040496,5.713146449413434,-0.166340164435355,40.09295250105488
552733.2241174658,288.9640091511563,26.083732978775352,-0.32591476796493485,-287.7834420900264
552733.2241174658,10.727346157377246,7.647206797842704,-0.011572806149385828,-7.494955160603599
552733.2241174658,24.444138068465698,3.860552097885653,0.11753412972120117,24.12833421842775
552733.2241174658,5.760603870444633,5.153541135957244,-0.037498478769654724,-2.490475375173215
552733.2241174658,163.40397514299542,19.464650469499745,-0.5748748200102914,162.23820233407503
552733.2241174658,457.5369268291974,14.60333126812786,-0.5339392794698012,457.3030454086694
552733.2241174658,165.61858850806138,30.745957862856237,-0.09211897266766787,-162.73835673132191
552733.2241174658,82.47376853294392,35.86956855345407,-0.16536279960961506,-74.26201926945731
552733.2241174658,415.7313237215994,11.177296346927076,-0.09089526699042803,-415.58052361817283
552733.2241174658,64.44540525948305,5.191129688729865,-0.34474243966858337,64.23178253234269
552733.2241174658,10.878362851802688,5.780879875611288,-0.2660994217848135,-9.188454729443626
552733.2241174658,239.3037113798767,17.772297791362053,0.2512889875260252,-238.64183805079387
552733.2241174658,83.41310529128313,9.530384849140557,-0.2668299077111406,-82.86389445217013
552733.2241174658,16.59304107654548,7.8897987484605,-0.09217246783505219,-14.582520191344365
552733.2241174658,17.804724108813403,16.893108829764085,-0.6283652948771979,5.5510841041167565
552733.2241174658,54.86754837941599,18.483788172020102,-0.17684216471570327,51.65602065438547
552733.2241174658,16.113161879061426,9.913549989084277,-0.24538341625695068,-12.683595797401756
552733.2241174658,25.14785486332228,23.929116886714734,-0.13784638490686027,7.705275507138573
552733.2241174658,4.600349996433552,4.3467838736282545,0.05741776985249863,-1.357827773847883
552733.2241174658,6.153775773992746,6.069080548133975,-0.5680386831216325,0.5393075647487994
552733.2241174658,225.28035321647727,16.54674730278882,-0.06742010386371917,-224.6709070097552
552733.2241174658,22.491796403700317,21.046315789904416,-0.4472918866253123,7.89377793729731
552733.2241174658,18.89924351501944,6.892529451011682,0.4264196530365925,-17.580412751255896
552733.2241174658,57.2458926359013,16.274574228798453,0.5663741958703534,-54.87702598210654
552733.2241174658,453.5852855185538,18.525646007655347,0.0884634692366803,-453.20633507948645
552733.2241174658,87.25722932179205,9.856957617283856,-0.23467755734766885,-86.6959496453498
552733.2241174658,84.16519137535646,9.962348160516193,-0.24962737258958573,-83.57061114753179
552733.2241174658,168.08484839338232,17.417569860814943,-0.33450348242022204,-167.17838057000154
552733.2241174658,32.92924266487649,19.478554422816856,-0.26617082851026597,-26.54106998950514
552733.2241174658,23.551741393842807,8.610583672452778,-0.2655468496450588,-21.91004699654608
552733.2241174658,16.163149552313076,8.297652848081654,0.37610315900373087,-13.850386640632973
552733.2241174658,49.347564183165346,17.447735791849453,-0.09840240268863859,46.15546800255263
552733.2241174658,52.526239582027415,24.66941541372362,0.469769389335214,46.36575684179649
552733.2241174658,11.956266203467445,11.578380270997513,0.6041896573232681,-2.8472214006664474
552733.2241174658,43.66538314710559,8.083060809982426,-0.01227123542661136,42.90580340420763
552733.2241174658,276.51474261240827,10.085474174541579,0.16737424905766465,-276.32994116012827
552733.2241174658,13.766810934731616,11.867613305477107,0.5674783102984623,-6.923951843400237
552733.2241174658,211.7950783761297,26.19491917526767,-0.5861281967023677,-210.16711491217455
552733.2241174658,41.915181745022466,16.52947956905643,0.3740249829000617,-38.51100069103181
552733.2241174658,27.04014601983191,2.888802152382065,0.15058331926770432,26.87712682896479
552733.2241174658,37.39254333901642,18.257292707748583,0.480198041315817,32.62240446691512
552733.2241174658,35.64098887120573,19.998008443660222,-0.31831223462904346,29.492994529956892
552733.2241174658,38.63027127699398,12.857138802246368,0.3197300961857963,36.42070724790481
552733.2241174658,28.68913278499457,6.031534999511063,-0.2586002588612346,-28.039228848684765
552733.2241174658,72.39073115587082,38.080116497284365,-0.05560222576895936,61.56214661823759
552733.2241174658,1161.9986904275868,14.954814269934692,-0.016973058962508017,1161.9022713208337
552733.2241174658,15.204440046196975,11.999545899688604,-0.021351873324664095,-9.314705708461553
552733.2241174658,14.517266327531846,7.723391182551829,-0.2634581427469874,-12.272291680483594
552733.2241174658,7.994737577753244,5.754214595900708,-0.10680935416573167,-5.511055987866732
552733.2241174658,18.64411782736793,13.59536536064416,-0.561487406985717,-12.72918713749028
552733.2241174658,203.2072477428669,24.267075561272833,-0.002752303539085593,-201.7520083527727
552733.2241174658,48.334446699130055,29.24434145117167,-0.07593943183569475,38.47804266096568
552733.2241174658,50.25863656734353,22.04221360404711,-0.034057464499519664,-45.16246795901514
552733.2241174658,79.10713625869292,66.71521882964875,0.3138684220644716,42.5029219371468
552733.2241174658,134.8320430337892,25.871358732720406,-0.3931148517377027,-132.32451167383877
552733.2241174658,114.922789605122,20.346598918855786,-0.38099441834518616,113.10480374117458
552733.2241174658,341.63445954652985,10.402527235365014,-0.20510786273420806,-341.4753689661227
552733.2241174658,519.2999221091203,13.940386174563386,-0.02608904624136354,519.1123696833107
552733.2241174658,22.456572700009207,6.179691049333915,-0.20546998718878492,-21.5788127817084
552733.2241174658,17.33264807545107,11.392792291958775,-0.06315685732718793,-13.046044892195141
552733.2241174658,78.80091187639934,19.164388976925608,-0.23850281203254103,76.43187376428682
552733.2241174658,533.7503300673532,28.145882757735382,-0.22629783586949845,533.0072712666346
552733.2241174658,7.636440799904806,6.5970901110776,-0.3342007099143861,-3.7762737004011866
552733.2241174658,33.65334764891731,28.79515075102484,-0.3207730484869597,17.4029454080073
552733.2241174658,699.9921032714341,134.08060587865145,0.027209053191086966,687.0305039314231
552733.2241174658,118.25187260961903,31.186003966006886,0.014439802614416313,114.06365164601715
552733.2241174658,805.7937734746469,12.681288280371971,-0.6180144941662741,805.6934818274029
552733.2241174658,66.47805577188491,16.962980875396024,-0.20745414372513954,64.27382394744471
552733.2241174658,13.950432061413258,2.6420094654741524,-0.3025006311089638,13.679222824075442
552733.2241174658,17.9453888808211,13.40700367981382,0.16828284117992032,-11.90962712752992
552733.2241174658,83.25528945028155,37.77034665934198,-0.15618183588471307,-74.19163055854422
552733.2241174658,59.284189766151194,16.650302567420464,0.15039208614266128,56.89409693352097
552733.2241174658,15.257695415706621,10.08042015973845,-0.01555668863448725,-11.435053992401093
552733.2241174658,27.58570944017078,12.643138751032414,0.29789899368678824,24.507385969280904
552733.2241174658,17.26041838500871,17.235425238030885,0.6335160164000639,0.19778818173792145
552733.2241174658,82.98894300349993,24.23190918366885,0.12152804291394138,-79.36965901467286
552733.2241174658,13.828085690072406,5.026665354513721,-0.02003153017071866,-12.865709891863396
552733.2241174658,21.438624975485517,19.09729674983154,-0.08024313959052692,9.72007004835921
552733.2241174658,6.318511419216144,5.218728557921534,0.06446980316663777,-3.5018003164164995
552733.2241174658,8.683794403939933,5.586813212889823,-0.286067888724789,-6.610012976938446
552733.2241174658,51.84725403676674,15.552949011329805,0.13610344622629594,-49.45506351299129
552733.2241174658,306.3920845134196,30.29372809005279,0.3358338123984259,-304.88992277468424
552733.2241174658,28.05421385362468,27.649890402965806,0.1391813253817288,-4.699085786153209
552733.2241174658,13.883093626847149,8.210056825037976,0.23481772333136144,11.174006409356348
552733.2241174658,78.58671842847124,22.35897471281897,0.07358245941154608,75.336056784166
552733.2241174658,260.91665215469305,9.142189457465934,-0.1864919588425657,-260.7555622940846
552733.2241174658,29.085995680060982,27.903077022958957,0.24780919440636817,8.181095951801932
552733.2241174658,18.11298625649038,8.056707035297396,-0.10051227117179796,16.209193168588577
552733.2241174658,155.31117474410036,17.036854208897356,-0.10981439801103032,-154.37251323624074
552733.2241174658,18.042389376895756,1.9486921970933113,-0.10275605638070938,-17.92479169640366
552733.2241174658,109.97891589517144,10.102378353626932,-0.008179853566236258,-109.51201819519825
552733.2241174658,78.25685374774429,29.23417879198933,-0.13665298714618818,-72.58827438252698
552733.2241174658,78.07735853337961,20.75855001138776,0.12556429885205234,75.26432789575385
552733.2241174658,26.095002262888713,17.012255652768182,0.14482626657465705,19.775986172011997
552733.2241174658,109.77389791802264,32.51888921879315,-0.21323249382541035,-104.84447216240812
552733.2241174658,37.32336985683133,27.954569729086078,-0.5622491763696634,-24.71514004842452
552733.2241174658,11.445157784792595,11.234138622209894,0.4961304142462754,-2.0292668050077474
552733.2241174658,410.08072001915104,9.068667511265685,0.45115510612278364,-409.97967140223386
552733.2241174658,289.5630634691254,10.417644104316457,-0.42233089332474427,289.37456757043304
552733.2241174658,112.85821962734508,24.545876191006016,0.035991051185166704,110.1546853616866
552733.2241174658,11.36787815685162,7.152763995185204,0.4349177814428203,8.800896008911106
552733.2241174658,76.12787828545154,17.506637421732513,0.49786411915147055,74.0830745363977
552733.2241174658,519.6315647481332,11.997806008987345,0.38987984980110685,519.4924850566031
552733.2241174658,58.037812869398536,6.8219229647867605,-0.432516294755473,57.63020321323433
552733.2241174658,38.49861734859788,4.813459104545979,-0.23930058746233776,-38.19024990032851
552733.2241174658,60.77266797816683,10.163577087711529,-0.0769621967187809,-59.913197659655935
552733.2241174658,356.91610559743464,6.337534754630535,0.25313568044072027,356.8591547283303
552733.2241174658,15.092267062757127,3.84998689382173,0.27174038906993886,14.57595918593383
552733.2241174658,8.238898878955329,4.192530530812478,0.022120285475912355,7.062574332132942
552733.2241174658,71.25743722120403,21.41939164958449,0.021537108123717744,-67.95888359785344
552733.2241174658,111.83627700927096,10.730735405718928,-0.12928423839849215,-111.31830829450563
552733.2241174658,93.7522873122424,13.462601743516618,0.2391684640344533,-92.77807301316727
552733.2241174658,1201.3303497889926,33.57391772728597,-0.23196009747506555,-1200.8609102931596
552733.2241174658,11.367832282913277,5.305667764195,-0.14570098025190306,10.031678555000505
552733.2241174658,17.035227346391363,10.067403035119671,0.07979481662447549,13.726554654283035
552733.2241174658,130.24025861089916,12.291811802684046,0.07041641455861915,-129.65727773707087
552733.2241174658,3.0778277385358788,1.1470592578839747,-0.20559200585320414,2.7736823163817443
552733.2241174658,67.73805356065968,8.722337960685877,0.07115201619335478,67.1709606980207
552733.2241174658,36.931780238546494,11.288159808767148,-0.031744296116960107,35.158372189817996
552733.2241174658,131.04224952718727,5.74421345091032,-0.2579305169613586,130.9144260493949
552733.2241174658,542.705233869277,28.709340128200893,-0.00196177739541666,541.9449445817163
552733.2241174658,17.287304176753956,4.322619525807649,-0.06143359842800542,-16.725440952805442
552733.2241174658,19.71472500550599,8.700772618093618,0.492483673976482,17.672088182778463
552733.2241174658,19.255652224485605,17.690506371222394,-0.5669226511868484,7.5553311407061745
552733.2241174658,1621.044675363782,14.96266342902841,0.14807257046250852,-1620.9754824197407
552733.2241174658,594.7117455654904,24.343973673843774,0.09781182175093397,-594.2129247964787
552733.2241174658,52.002436322408236,17.050605859567924,0.0007174385138970182,49.1234009998407
552733.2241174658,182.79469415988657,9.475919332914714,0.6506182384166176,182.54660272031492
552733.2241174658,15.6317144278494,12.937445407566257,0.20224494162900172,8.74702248092111
552733.2241174658,387.8023244756939,24.6027467867536,-0.053794173140517855,-387.02057197066836
552733.2241174658,217.5450309771593,10.442606866131387,0.12152737326817542,217.29324885694965
552733.2241174658,30.980889634530186,27.858724732181276,-0.31128301888276977,-13.534710367928936
552733.2241174658,29.65524094048259,11.502358077132074,0.7000946333167752,-27.316977219780124
552733.2241174658,190.3962703893038,28.38444173156626,0.3116356524398214,-188.26721549962545
552733.2241174658,4.284859935510503,3.928401119541263,-0.4354372198695566,1.521968053724614
552733.2241174658,112.65557580318821,17.679934669449512,0.0334634168837913,111.25770019576032
552733.2241174658,20.735309786983553,16.612951506593305,0.42882365678897066,-12.383752560965084
552733.2241174658,1161.1788388189004,16.96823777744572,-0.06543099437856272,1161.0546708270635
552733.2241174658,299.37911317547514,9.293019946216344,0.05423076951545534,-299.2341366690222
552733.2241174658,61.255316671023905,10.747936332083722,0.21593926700986268,-60.301138947120506
552733.2241174658,45.7510754636531,21.64070046847427,0.4386552114738714,-40.30169815204046
552733.2241174658,166.36378036967153,39.04493567446519,0.6022175235463878,-161.71461298886254
552733.2241174658,27.9651932271375,27.78572240123307,-0.3979632483265252,3.070112562074805
552733.2241174658,9.399187220336295,4.827769241985459,-0.13314996445599117,8.037284283519751
552733.2241174658,105.55445820948276,9.00180368976734,-0.48181828094206586,-105.1668071797873
552733.2241174658,37.736034788596086,7.055726607481542,-0.021423989935394624,-37.06484706075756
552733.2241174658,170.78250139879611,9.664798960030984,-0.17949876066916412,-170.50747939109587
552733.2241174658,6.379936990271206,6.0729848135776905,0.08237668201768156,-1.8422726601188326
552733.2241174658,226.66250264184706,34.44014331416462,0.0167430057558,-224.0297851961988
552733.2241174658,49.74490245486888,13.57287912852848,0.44435959282403925,-47.85094690784204
552733.2241174658,65.71731592804876,8.827986387399813,0.12316674793461828,-65.11831848336637
552733.2241174658,23.208346086170945,12.003382783471979,-0.2812887225978083,-19.850574537820055
552733.2241174658,21.63256537309794,21.521667044647717,-0.1410496813251329,-2.0842601195999064
552733.2241174658,77.55435490045974,15.983887949718893,0.5336102395610798,-75.88469445920967
552733.2241174658,40.53749720752902,40.39112801317028,-0.38033062190032774,3.3584385226225164
552733.2241174658,578.1246952072518,11.830360593720279,0.5150147934226289,578.0030439707743
552733.2241174658,21.735339687356763,9.752994512381317,-0.4504430145845812,19.40823262110525
552733.2241174658,24.683654819343182,4.368522722163337,-0.16831138617270297,-24.284744156811428
552733.2241174658,30.669130158332692,16.06183191171272,0.03443853841883499,26.118771359192728
552733.2241174658,532.0154877202425,17.73736049378351,0.44236891341519846,531.7191437494831
552733.2241174658,11.675835618249513,11.537850791755133,0.5201152177864133,1.5845881704349747
552733.2241174658,575.5581347840343,15.561173828584346,-0.2713477692965642,-575.3473047286825
552733.2241174658,28.296193470304846,16.578707757910426,0.5503872677590073,-22.91498179925719
552733.2241174658,26.503277429989417,9.762604998982559,-0.08389965415722811,-24.631007328790588
552733.2241174658,821.6269147356882,39.71005301392181,0.5419590341295769,-820.6663044692041
552733.2241174658,56.15113005619679,9.378824884861272,0.03757045691430433,55.35850378980522
552733.2241174658,24.48228046585403,6.987396877307704,0.09203299521933621,-23.454811332295876
552733.2241174658,388.6628632040356,5.0885383062976945,0.12617746365391022,-388.62898810321656
552733.2241174658,206.01696518150285,22.630048070261783,-0.3104577760752514,204.7690230135446
552733.2241174658,13.841701867910375,13.668462763249604,0.16505541596758985,2.0777141327690734
552733.2241174658,88.1829407641309,21.933123192183224,-0.3560719259063044,85.40855147260368
552733.2241174658,9.436031086542062,6.6830680116664425,0.25462927972398497,-6.6248586072166225
552733.2241174658,281.17816893212637,15.03203753886487,0.6034273253070381,-280.77466892498467
552733.2241174658,27.33255535483145,14.218631447604691,0.5668662345163139,23.32715301258071
552733.2241174658,103.16851306109139,9.838653903305083,-0.11490083174594601,-102.69619310093488
552733.2241174658,43.79338472429906,15.596662037599383,0.23079752429744366,-40.916130247327025
552733.2241174658,144.7784250573631,14.016355112246401,0.14519762337448566,-144.09681249814707
552733.2241174658,13.955186594229751,6.06553945918329,0.32232842144677426,12.547145944622784
552733.2241174658,80.76352765494642,6.413755384531177,0.5721249889631292,80.50380188012096
552733.2241174658,18.16520266368708,8.78676661840307,-0.08133795978638703,-15.885182005910902
552733.2241174658,17.547147398722487,5.135177112001113,0.07866844870730637,16.766169871325037
