2.04146282700237e7,4.283889004551659,3.2944801007357305,0.035863952014690836,-2.0379192402351913
2.04146282700237e7,3.38970403904404,1.3585162516085407,0.0036976832776287752,2.5101411468611357
2.04146282700237e7,3.372926075346212,0.9872195251050085,-0.03704065624572404,-2.6564922534023556
2.04146282700237e7,2.40037444829254,0.6374345506803006,0.012301908272453083,-1.4183153853313355
2.04146282700237e7,7.189933653160723,1.1550441113556313,0.014397160597649719,6.856902138943102
2.04146282700237e7,14.15056335091344,2.4812704271795982,0.009712206201166826,-13.81079074753033
2.04146282700237e7,9.638040797860073,8.876753294132815,-0.039922614017563626,3.278686130877349
2.04146282700237e7,11.256763423511424,10.178438229214388,-0.022143205685391357,4.44633813930224
2.04146282700237e7,13.431548705293226,3.1534389784876162,-0.012349840545607432,12.927430753891416
2.04146282700237e7,5.623507662562045,1.4653694887716897,0.02147576408020261,5.11198245961664
2.04146282700237e7,15.334738873852976,1.7063501105435674,-0.00021951019470330628,-15.129404507941507
2.04146282700237e7,2.131343492809542,0.8820981998543013,0.0387647197698409,0.64754948093296
2.04146282700237e7,7.216198641683229,1.0972081761816896,0.03929418304777669,-6.893794905937479
2.04146282700237e7,3.544418910421026,1.5407782146869173,-0.0040829936529878505,2.616330716568377
2.04146282700237e7,2.488568857011729,1.0651626828537892,-0.030713405555147087,-1.309104764892247
2.04146282700237e7,2.6052922012125936,1.6441571623158118,-0.03158406082301557,0.8599955290620456
2.04146282700237e7,3.778912018039054,2.3033398419087643,0.00982618245990365,2.3729728701554875
2.04146282700237e7,9.125087002061738,2.6371598827218383,0.007092611900045342,-8.542180367249047
2.04146282700237e7,2.1380846745670476,1.0054896446007195,0.007316217607407818,0.4654442037227635
2.04146282700237e7,2.852852378076227,0.5782016250293582,-0.006893312719927352,2.1120362775644606
2.04146282700237e7,2.8837514847141197,0.9955656932644055,0.03007124788867831,-1.9950595178180204
2.04146282700237e7,5.353548026218038,2.2215650818594757,-0.009067082911110356,4.514569528503603
2.04146282700237e7,14.667585338862926,6.80949155064584,-0.03626520854463151,-12.86172090012681
2.04146282700237e7,7.973660921405227,2.736278645565842,-0.033184004164882645,-7.262729629335847
2.04146282700237e7,20.188075564677114,2.4424174720827296,0.018273720360440678,19.956175814817886
2.04146282700237e7,2.9589772121922326,1.0690106637224632,0.021562482434950896,-2.0660572562423867
2.04146282700237e7,6.584715707358315,1.7483490730457272,-0.02359123751275156,-6.07926764525334
2.04146282700237e7,31.33361206048844,5.212707224298608,-0.0057906408464024626,-30.842814232864843
2.04146282700237e7,2.119702987067081,1.070613020332017,0.008154924072927946,-0.05618892141719398
2.04146282700237e7,4.285643443696763,2.9001181518365176,0.012774884727076767,2.5714172002632334
2.04146282700237e7,2.829857146530448,2.0134401928127414,0.007306545880805735,-0.7812757885170445
2.04146282700237e7,5.153231269891204,2.3189980462563815,0.04027553553603866,4.222879781296276
2.04146282700237e7,4.3623327244643395,1.5322660072737548,-0.02590356389301109,-3.6520859615928334
2.04146282700237e7,1.942668520375277,0.3078052419864864,0.03770981300485176,0.5780052479570125
2.04146282700237e7,5.106230527516379,1.8140223277191951,-0.016339913851954987,-4.408961486052214
2.04146282700237e7,3.1683412146165955,2.254132526396868,0.0252027169239765,1.2700128394380443
2.04146282700237e7,2.364951122968129,1.0592625704251724,0.02912306577991691,1.0613216532060636
2.04146282700237e7,6.969759196156234,0.850558843367987,0.02123088890669909,6.671576825558493
2.04146282700237e7,4.92039813361761,1.6218137738905787,-0.026660146063676886,4.2703187581652875
2.04146282700237e7,4.845957920952168,4.409496903818695,0.0077957302924194965,-0.834194004438778
2.04146282700237e7,9.454562730403842,5.151980740485432,0.02923351607347915,-7.713708022601484
2.04146282700237e7,2.522875949984025,1.7229356062798644,0.028614136271000318,0.22775506674122634
2.04146282700237e7,2.263031932650206,1.234100716873738,0.0017151765791096794,0.5045802122314698
2.04146282700237e7,18.423073996055564,4.404643448594259,-0.005574282361555926,-17.795084592827045
2.04146282700237e7,2.035742841120584,0.7417102930244083,-0.01585396817826574,0.5001585665450056
2.04146282700237e7,11.822310109626429,1.3911322577732481,0.010423598029715148,-11.596894148941868
2.04146282700237e7,18.58820298320353,2.822709678281242,-0.00911522128224745,-18.28140619080642
2.04146282700237e7,2.367916663346352,0.9794321729106172,-0.01969620712742624,-1.1417745776840986
2.04146282700237e7,10.951421847906285,1.25915211873558,-0.018444463142284585,-10.723997921393975
2.04146282700237e7,8.287860743685293,0.8985760277783923,-0.03450069293827864,8.033448930242136
2.04146282700237e7,2.3397553272050438,0.3984331076771058,0.015918055534113584,1.4041893921402333
2.04146282700237e7,10.075386657695516,1.7506695002494412,0.006847681560414263,-9.75217006085427
2.04146282700237e7,14.173689715710912,2.789723208653055,-0.010940969107204336,-13.775597992651601
2.04146282700237e7,5.3152696339864836,2.555203667106809,-0.027679502898648914,-4.287021638655678
2.04146282700237e7,4.053971260379852,0.8603632244941999,0.011524006793066957,-3.5143449578536226
2.04146282700237e7,2.439878739139114,1.4101005042024122,-0.011512324740203767,-0.7879006788487078
2.04146282700237e7,2.781695289242194,2.02281387611528,0.011119283819665,0.54974926094996
2.04146282700237e7,5.601081420277246,1.7518320056015624,-0.017126055059138535,4.99591829222247
2.04146282700237e7,32.07413961181673,7.684113726204176,0.0364069019133673,31.08632814923893
2.04146282700237e7,6.3613777495987165,1.1038674479170452,-0.03803894235172995,5.9919489110792234
2.04146282700237e7,4.728822509020844,1.041471151069014,0.0014617897217774744,-4.234783726482852
2.04146282700237e7,3.144310092555439,2.4837596110513482,0.0036268506798718915,0.6114786850007046
2.04146282700237e7,5.73680226154092,3.0980464627610225,-0.0370306477549146,-4.468549229595864
2.04146282700237e7,12.446124081858583,5.666925585490435,0.032667463641966495,-10.929189681305438
2.04146282700237e7,2.432669859569465,1.2900525343595894,-0.022920643173418964,-0.9536335417583829
2.04146282700237e7,30.047656790991006,4.566019655659434,-0.03080240572172449,-29.64234284817449
2.04146282700237e7,12.231779632973183,2.141620066117987,-0.0018324004819825193,-11.90320075895248
2.04146282700237e7,5.532010599987725,1.7892412125647537,0.034507687123426604,4.90477946137905
2.04146282700237e7,13.169314096743438,3.821276245009997,-0.02321246416176905,-12.469339918500706
2.04146282700237e7,3.194607106904342,2.4915580190864874,0.02866801687207959,-0.808162442469439
2.04146282700237e7,2.4645129307549305,1.4221269783657673,0.028099341524646732,0.8407642082465168
2.04146282700237e7,7.728693387337911,0.7996895416112415,-0.005441522562610817,7.466556347202542
2.04146282700237e7,26.809463632280856,4.8818949959610904,-0.02588126375736639,26.29771980310814
2.04146282700237e7,4.565506543708416,1.7611030340886393,-0.015709637547943116,-3.794524277805621
2.04146282700237e7,10.443333254374327,1.2711362842485079,-0.005425243355471055,10.203121471349933
2.04146282700237e7,6.418333387710681,2.1237708308917576,0.033520597144511395,5.774060312018057
2.04146282700237e7,6.2925571336538715,1.619349310342101,-0.02394694710147151,-5.799112416457998
2.04146282700237e7,7.694446466993231,3.29195044038118,0.011648501462018481,-6.7099722970748905
2.04146282700237e7,38.44654448983515,4.947260330462614,0.027072073498948985,38.08302720002627
2.04146282700237e7,12.834953481937548,1.286585402176353,0.01653354755433937,-12.638700515156323
2.04146282700237e7,12.663335529255873,1.3793453576301682,0.040338028039192335,12.454402480167088
2.04146282700237e7,6.5970905178512425,3.8582633850987835,0.021124752903216706,5.0290412486222085
2.04146282700237e7,4.151752980834494,1.6749833687864146,0.027110417515727733,-3.329721270169492
2.04146282700237e7,2.7478762661184155,0.9178105643365871,0.03380186411956248,-1.834012093600007
2.04146282700237e7,2.171218036600399,1.0828397312763696,-0.02235176673831642,0.44434385440994484
2.04146282700237e7,10.682102816890367,2.7844757584174467,0.005502420114190886,10.149398023940908
2.04146282700237e7,17.564677375301873,1.9205307316914977,-0.010712746613277258,-17.363341654984794
2.04146282700237e7,11.109559055706097,2.0118872095425537,0.010790172183546717,-10.771758956831734
2.04146282700237e7,7.162863397913788,3.470539284789744,0.009076608523043265,-5.993177949025196
2.04146282700237e7,16.59972520047794,3.318315149890357,0.028418338023999307,-16.161532999039864
2.04146282700237e7,13.632871326066724,8.019715474556886,0.01958402426022923,10.871764159962213
2.04146282700237e7,2.0758310290487065,0.9716137433280141,-0.009055773713299674,0.1457887907213406
2.04146282700237e7,3.9867952988156192,1.8195160765886735,0.023331861818564094,-3.039679063571969
2.04146282700237e7,50.18870251551738,5.603961090670341,0.030942386000069665,-49.841316375450006
2.04146282700237e7,14.714209796278489,2.7512336209146135,0.01296985190171532,-14.338577699987843
2.04146282700237e7,2.063740378635006,0.833066554574065,-0.02192290466231513,0.4699351401095912
2.04146282700237e7,1.9203901473624836,0.5834006936153507,0.027505097591791917,0.05550317092288117
2.04146282700237e7,7.93562342865279,1.1764472534017851,0.03758479936404758,7.631839465541924
2.04146282700237e7,6.385351839852748,1.5241371826196242,-0.008918776565949669,5.925026548994675
2.04146282700237e7,2.5892644172964743,0.6848939449192989,0.027786958562375858,1.700215743787941
2.04146282700237e7,3.9344039088752014,1.0886822446736646,-0.007032086649124386,-3.309161649370145
2.04146282700237e7,12.168992393912612,1.340757494962558,-0.017152365553015452,11.95586660191392
2.04146282700237e7,4.041293651045361,0.931963160147046,-0.03393463530054836,-3.481184089679156
2.04146282700237e7,22.36378574099996,2.496546622254917,-0.011197150819753558,-22.148641887024905
2.04146282700237e7,3.5524849071321642,2.1514576991255163,-0.0004718082633397142,2.1558464104087562
2.04146282700237e7,2.1949772870173274,0.698341196677529,-0.01593115273944661,-0.9931194517868097
2.04146282700237e7,12.518242290783444,3.065670963466887,-0.0037013787589238916,-11.998513786211626
2.04146282700237e7,3.3169100791756123,1.4933492570719165,0.014022967823107092,2.3297851853149365
2.04146282700237e7,4.954099810120752,4.5524615317167845,0.024240750633400768,0.6884086725819618
2.04146282700237e7,3.181620819367154,0.5091950210857878,-0.040866178668054476,-2.553048493032013
2.04146282700237e7,4.5537705065423895,1.6609015296522518,-0.0351574244497578,-3.82534849055092
2.04146282700237e7,36.457583920238555,6.348485451150442,0.03375068188971253,-35.85397207915519
2.04146282700237e7,2.5580952234423324,1.2252653367118902,0.03327351820703549,1.3029827640597944
2.04146282700237e7,4.1486548272995325,1.019417506568971,0.01253445080586359,-3.5816564456295095
2.04146282700237e7,7.168200548762894,4.500534203040953,0.02308296216251628,-5.2710580868551435
2.04146282700237e7,8.728142604207147,1.6273760204329246,-0.02935026266786963,-8.377801283939432
2.04146282700237e7,5.550204270452826,2.0485663909569563,-0.00045206326649026865,-4.823322316083924
2.04146282700237e7,3.622185068103392,2.181414393299561,-0.038102222769335205,-2.23975429824718
2.04146282700237e7,6.624208410184135,2.861529545690464,0.017161207921297907,5.68751144150387
2.04146282700237e7,6.096517810989416,2.418832587791943,-0.0401139838892813,-5.288805572512894
2.04146282700237e7,5.997721168598788,2.214641330860828,-0.02616240404002736,5.265323703640246
2.04146282700237e7,5.2825099962931645,4.289368983637318,0.0016173470397339374,-2.4824419733270537
2.04146282700237e7,5.296632926150748,1.6267361993272604,0.03376713942830508,4.697148566532397
2.04146282700237e7,4.784142302645372,1.7298824712380283,0.030531739100450282,4.068278162094114
2.04146282700237e7,6.0918323740722045,1.4163217940390955,-0.012907034363699372,5.635652831889843
2.04146282700237e7,2.3402026905027156,1.363011761601635,0.03659786073825766,-0.523166656583865
2.04146282700237e7,9.182058780537671,1.030421819255864,0.027219186649928798,8.9389030995491
2.04146282700237e7,9.037794148193624,1.6306755724026838,0.011964400569595279,8.69935470477041
2.04146282700237e7,3.1202189606887094,0.3409096022599002,-0.021543510855031634,2.505070471357716
2.04146282700237e7,7.485992635643283,6.85983141028705,-0.009726988636212517,2.374657729576357
2.04146282700237e7,55.07549835455172,7.291316486487593,0.016241838347678398,-54.56008847392378
2.04146282700237e7,9.576290931263333,2.0090755221100633,-0.03063450949798948,-9.182827465279
2.04146282700237e7,7.143383761938878,1.4265799727891628,0.016360951690625344,6.756391688943785
2.04146282700237e7,60.19833221597461,6.317738774996348,-0.013590022313287313,-59.837960266461685
2.04146282700237e7,15.304555339641075,7.387220097449371,-0.029549757062216044,13.278321255770015
2.04146282700237e7,6.819183228175429,2.308063842831497,0.018554561065645896,-6.150613961931495
2.04146282700237e7,5.3330498697385345,1.3651217429093017,0.02391765883626892,4.820123096908445
2.04146282700237e7,2.460359586287746,1.4543826018621029,-0.009952651713458112,-0.7709323378628634
2.04146282700237e7,3.203603529407773,1.6497982271863505,-0.009553834308971176,-2.0487667732215677
2.04146282700237e7,2.602955480848446,1.4575065493974442,-0.01937647460657221,1.143228599001242
2.04146282700237e7,4.240258245820636,1.5353057471824065,-0.03430135649936949,3.5039613089274932
2.04146282700237e7,11.808549917717135,1.6531700808040166,0.007035975972160929,-11.54838194388261
2.04146282700237e7,3.968894430137645,2.7937184755233044,-0.0321536426119376,-2.145348783756186
2.04146282700237e7,3.8815664618099217,2.118838938658841,-0.03944571780851981,-2.6892041514948692
2.04146282700237e7,6.93352138910223,6.596574107195664,-0.017480925340368266,1.1022334155082945
2.04146282700237e7,16.412303458932158,3.3504444612589968,-0.030679483630202297,-15.96225487495359
2.04146282700237e7,4.459651248955548,3.370659613162868,-0.03752328302341904,2.276407305675912
2.04146282700237e7,18.16810718013836,2.2081641645798538,-0.015498395199098194,-17.94046221574591
2.04146282700237e7,3.0786195930239524,2.3317186041886555,0.011919132323440796,-0.8349491405565537
2.04146282700237e7,6.0627339422037245,5.501791042804343,-0.013075080389840949,-1.7728966132123491
2.04146282700237e7,13.85674601293865,3.4187757630965256,-0.013344219260172105,13.303289046854813
2.04146282700237e7,12.86611740985491,1.3068180807931715,-0.00043345643266880625,-12.668287125874562
2.04146282700237e7,13.712953942494822,2.2737193610974438,-0.03880572199619027,13.39888411008526
2.04146282700237e7,4.015316430487945,2.4048280277247707,0.016736764349033824,-2.6449164936411456
2.04146282700237e7,19.62748479599789,3.1118969598565585,-0.01898690680948912,19.292749710949284
2.04146282700237e7,3.5673313357033725,0.8216868837093866,0.036442328391100835,-2.950533962545186
2.04146282700237e7,40.881146545472596,5.472300287857675,-0.008070142341240835,40.47194463438003
2.04146282700237e7,26.640434051697333,3.34953785499844,0.01092153916866061,-26.36568790159569
2.04146282700237e7,2.5252853375873334,1.057647865441689,-0.011747752058405187,1.3836922356079717
2.04146282700237e7,8.142099497652056,2.641842531581306,-0.004908933389780792,-7.481358389621961
2.04146282700237e7,2.3433859487027195,0.9897546823873608,0.028613570796127644,1.080425758872833
2.04146282700237e7,4.244317542474762,2.2935517627429642,0.028135973842897396,3.067467239198091
2.04146282700237e7,9.515826372898964,1.1562844914768642,0.024444198577728903,9.266588120699303
2.04146282700237e7,4.129926270628124,3.3162150244392232,0.028583917170862574,1.6475700457907854
2.04146282700237e7,7.7421546672793635,2.6094856669025313,0.017304455852707335,7.056028570358366
2.04146282700237e7,14.344535253381112,1.3729044087398115,-0.003879132218546323,14.161112430027858
2.04146282700237e7,2.8192674232120996,2.0429328851683186,-0.0085765528433883,-0.6564416627729895
2.04146282700237e7,4.096877904750991,1.9624636629989938,0.00262445442432021,3.096681002893973
2.04146282700237e7,2.892584656535152,1.116913785497396,-0.0029365159502625885,-1.9431510881716159
2.04146282700237e7,3.002774745451984,1.6728363760543246,0.027037657449067793,1.6952400359693414
2.04146282700237e7,7.812047862622262,2.3767214159890733,-0.016710518688428915,7.213549962455732
2.04146282700237e7,4.843921243058782,0.6581621106390559,-0.038486262398563835,-4.436801735065686
2.04146282700237e7,5.6179278813883435,4.718336665366027,0.0017504570120425993,-2.4402264059392875
2.04146282700237e7,13.964989143392843,2.008280491406642,0.0014867694720163045,-13.698321948911554
2.04146282700237e7,14.018568872441007,3.649222226002072,-0.020098370408373888,-13.411164812041173
2.04146282700237e7,5.409489002027042,3.2643552088062284,-0.012554895226935345,3.9067497862029783
2.04146282700237e7,3.3976543202450755,1.9818724111577273,-0.010133939342059138,-2.0669855134096364
2.04146282700237e7,2.1981255797189774,0.8201167695335508,0.018828546580215388,-0.9028317772311851
2.04146282700237e7,23.894756808347875,4.29433653863097,0.008081402823689505,23.434468342541816
2.04146282700237e7,2.128000163744677,0.7384941092769438,-0.04035765588300124,-0.7985471749823273
2.04146282700237e7,2.329620197645458,1.144588086905408,-0.02878889856386452,0.8789281879148941
2.04146282700237e7,9.898069863465885,2.258710462056891,0.020931773639963604,9.461811196335438
2.04146282700237e7,25.68013403768862,3.65190637416074,0.0034686761791037778,25.353286713558532
2.04146282700237e7,2.5811884970570853,0.4750086373965489,-0.013222217843091865,-1.758698725846414
2.04146282700237e7,5.011835131481952,0.9951465923714417,0.009604222792363042,-4.558988658392646
2.04146282700237e7,4.9830217556903555,3.185640988493657,-0.017534255709603916,3.3672221553662394
2.04146282700237e7,2.072742174525256,0.5177986457854602,-0.0118169423566286,0.827224412086448
2.04146282700237e7,12.775867863325164,2.8287332240752354,-0.020145753272628342,-12.323836956905208
2.04146282700237e7,5.6424042325580945,3.91964667681434,0.015633505580135855,-3.6234163754157596
2.04146282700237e7,6.796669384727986,2.3000610500274,-0.03517221863422863,-6.128579932584863
2.04146282700237e7,4.177629008622091,3.1379122715461927,-0.02316810061685609,-2.0644246492605176
2.04146282700237e7,6.544039230402281,3.9579061052198274,0.02606933541626104,-4.8800660123259245
2.04146282700237e7,14.71428470053018,4.039033986328744,-0.0013212765779385012,14.03041952841632
2.04146282700237e7,19.74018140760332,5.444243691940455,0.019547461022273976,-18.886261824623254
2.04146282700237e7,4.7383405289483465,1.4520247805499464,0.03036493149520475,4.12296836750886
2.04146282700237e7,6.352277368851836,2.494061474232666,-0.039127582436095584,-5.548499738620188
2.04146282700237e7,8.486731214615814,4.878988849937181,0.015478716708184263,6.6989648531883015
2.04146282700237e7,4.131214614818218,3.6554791370475503,0.007490897110283466,0.6005377110208889
2.04146282700237e7,4.880313100899219,4.252667847077476,-0.033974283828225434,1.5451255861192417
2.04146282700237e7,5.005955779159962,3.128105247481463,-0.016651214231609215,3.4540655384993153
2.04146282700237e7,3.5556407238895464,1.710876218741155,0.0269475549361199,-2.5240943988707527
2.04146282700237e7,3.402879230411825,2.403100737440113,-0.027433617941726923,1.5685141002520788
2.04146282700237e7,7.442094175312022,1.2008088046298657,0.005765161703060843,7.113303443228545
2.04146282700237e7,39.82797271465895,4.464779770124772,0.007993043366003079,39.53466053299004
2.04146282700237e7,3.971841061252784,1.601904462543816,0.023518315314256247,3.1408861140099655
2.04146282700237e7,8.073528157489894,1.6725510597311661,0.021067490474675928,7.683767383700488
2.04146282700237e7,20.471809136113777,3.302054352557256,-0.020587775910852528,20.120817023304802
2.04146282700237e7,2.6029453977141785,1.8014793074262574,-0.03074732713140191,0.4305192607430109
2.04146282700237e7,11.868773365156882,3.6089334735283902,0.03912021306281679,11.157873684964962
2.04146282700237e7,2.1152694060910995,1.0614795718317112,0.02030724213430838,-0.05923325456073743
2.04146282700237e7,4.99315411404326,1.8953074814129725,-0.009012001065879929,4.242123468844811
2.04146282700237e7,15.09502386512266,2.5744884856199572,-0.021050764312308148,-14.76101644789256
2.04146282700237e7,3.674065066813452,0.5997310090067967,0.028447522151991676,-3.1296266157639367
2.04146282700237e7,5.8195683494686525,2.8844439390131953,0.035027024921306174,4.71194516393734
2.04146282700237e7,11.055972121753088,2.49367726809494,0.039454634221271545,-10.61465174911577
2.04146282700237e7,22.37894653193957,2.3801972325862786,0.012318623987859843,-22.176745758755985
2.04146282700237e7,16.518502867494124,2.4892450699142663,-0.015221309029365365,-16.227158083308076
2.04146282700237e7,5.83217242689699,1.4733396842016124,0.009117125158340266,5.3385126630591655
2.04146282700237e7,5.762286421699437,2.8345775209198143,0.003049156053406254,-4.6717663650749
2.04146282700237e7,3.187718000106644,1.8235047227187167,-0.0012880132191236844,-1.8688686682183921
2.04146282700237e7,9.397221964307166,2.206454598364276,0.035171567500296444,8.94954730119092
2.04146282700237e7,11.647592060313638,4.491519380326505,0.03457139665049151,-10.589983685623235
2.04146282700237e7,2.7702369218752785,2.0232543203255973,0.010732909941140654,-0.4866564977980079
2.04146282700237e7,3.3871579757588397,2.570103883588108,0.03346925349239789,-1.233928755229695
2.04146282700237e7,2.200937149246257,1.08026027973205,0.03825450457257944,-0.5761890657114038
2.04146282700237e7,24.343343934583505,7.176882215392545,-0.039399560614296544,23.189340189880976
2.04146282700237e7,9.06042082731425,3.6236173557153344,-0.036408758373750835,-8.100345203341776
2.04146282700237e7,6.186596068216601,1.3442575581790566,-0.02407429339826138,-5.7552287652663265
2.04146282700237e7,8.975638348203905,1.1936969241286863,0.018324929143358745,8.70592503939967
2.04146282700237e7,52.72350635105732,6.809563280374477,0.02480033170722495,52.24991531100987
2.04146282700237e7,4.490450856124224,3.21413266410236,0.010436967302123441,-2.547486283011271
2.04146282700237e7,15.665456858143981,8.728085933902108,-0.019173480556062848,-12.879556749594833
2.04146282700237e7,11.870326868325703,4.072899532158726,0.01067979906097892,10.998742222969334
2.04146282700237e7,2.33555275540298,0.897281030092424,0.012084348232172823,-1.142734692933813
2.04146282700237e7,3.5427390914452395,2.9617369999192555,-0.03686552478476103,0.6588249616141398
2.04146282700237e7,10.606856467985134,2.46831420414446,-0.01660812120607342,-10.152282919420973
2.04146282700237e7,5.1996158889773065,1.6221174624852783,0.02948291303095605,4.589135678125543
2.04146282700237e7,4.451074389679433,2.9025901777636216,0.03177269702927677,-2.835898298905264
2.04146282700237e7,4.071449066104642,3.6278198970370137,0.036168342453679496,0.2657203928020306
2.04146282700237e7,2.8278278725376294,1.4063123979442937,-0.03813905728455835,-1.6351564182053995
2.04146282700237e7,2.936232920031607,0.7379705778398576,0.028275651961131108,2.175398551536296
2.04146282700237e7,2.3930115438889037,0.952940199469476,0.027680369833564394,1.214058567840327
2.04146282700237e7,11.128091542449074,6.421484373430802,0.012574843687927741,-8.902533171845914
2.04146282700237e7,5.7924863479590964,0.858861195803634,0.021097171893149854,5.428729651637975
2.04146282700237e7,3.7004163888810706,1.1369774743784287,0.003997301782793205,3.0094256726216266
2.04146282700237e7,15.974498789047644,2.585083312693486,0.019462122239794356,15.657518073983383
2.04146282700237e7,3.5518251805303285,1.8724355284505818,-0.03195943277590657,-2.400983357522899
2.04146282700237e7,2.9793389481272565,1.5712613267596427,0.005704324823712144,-1.7503888296992351
2.04146282700237e7,2.2583242843811893,0.6688584832990715,-0.03403838975656806,1.143587982783772
2.04146282700237e7,2.6543937011545937,1.9237751122738693,-0.015659891339099133,0.03074393481798718
2.04146282700237e7,2.268247151480012,1.2439537199445108,0.02938879018595199,-0.5029470801633189
2.04146282700237e7,4.655341299714221,1.0302210981322921,0.03771877767120197,4.155203915958755
2.04146282700237e7,2.7665084213925626,1.240557539717628,0.02652803548037955,1.6643849564386437
2.04146282700237e7,7.064052502141229,1.1391322849551095,-0.03657569782478094,-6.727419474977708
2.04146282700237e7,14.964853552974224,2.305021857935478,-0.021932266854475812,-14.672747876784213
2.04146282700237e7,7.5462307931025485,2.1499989727589344,0.008714121458416012,-6.998522904698667
2.04146282700237e7,10.946107786878276,2.7760123176771923,0.02930861167990015,-10.429116332793644
2.04146282700237e7,16.68812451587741,3.6813483476816793,0.01945811487467363,16.173963359851395
2.04146282700237e7,3.7250006634547406,0.8099254696168571,0.0033790371016627387,-3.1425999494228396
2.04146282700237e7,2.5487731839064196,1.7568612919069098,0.022394723623655414,0.25588435660171704
2.04146282700237e7,10.662741853086386,1.3183097320934303,0.02010342140019467,10.421708799994164
2.04146282700237e7,5.33526548063508,2.706318705698629,-0.035832484475290347,-4.2185196489643495
2.04146282700237e7,3.2643374921118777,2.552815520949351,0.00536853685115982,0.8917951226708044
2.04146282700237e7,21.370624414928635,2.8080163408028294,0.007083756334098122,21.10627577564844
2.04146282700237e7,24.919794605173763,2.961569598927504,0.03670507890991065,-24.675498304908416
2.04146282700237e7,14.221451668858363,1.8229234173156854,0.014311397689203614,-13.985089493877847
2.04146282700237e7,4.205964401301654,1.060351447990281,-0.008009419352800605,-3.636209892809177
2.04146282700237e7,2.5284216586344437,1.0774277348524792,0.010661599148178208,1.3741350275449675
2.04146282700237e7,4.00863660141659,3.3618440258604645,0.030868107323738996,1.1926921193473636
2.04146282700237e7,5.999488665729857,2.4101578124778706,-0.0388289291063615,-5.180713374337299
2.04146282700237e7,7.417993635137577,2.2415637161780886,0.019530773295071076,6.8306614181754
2.04146282700237e7,7.507925360270771,2.411222192734299,0.0213995331065559,-6.8710106968513305
2.04146282700237e7,6.056255596785063,1.1365677946997486,0.007339278470623287,-5.66062600957114
2.04146282700237e7,5.219048294687021,1.3052386687814383,0.040507126974866345,4.710570185875316
2.04146282700237e7,4.639664938192366,2.2591751519197425,-0.024096941198673127,3.61639777854495
2.04146282700237e7,40.242147292871444,4.5423656132382355,0.03840128992794257,39.94311146995641
2.04146282700237e7,11.216827252133946,2.0916586303793285,-0.01168537660167444,10.867305848909751
2.04146282700237e7,15.377571666392013,7.047649114743626,0.033620531984494946,-13.544575192818149
2.04146282700237e7,12.762961212675608,1.3365570397218092,-0.005625322617253379,-12.560376496553658
2.04146282700237e7,1.933985640385976,0.43045289358719785,-0.004643872778426361,-0.45965680857263463
2.04146282700237e7,5.081078505485832,2.2753445848024585,-0.02573126274656271,4.158821814533259
2.04146282700237e7,2.6099461026267035,0.4429149069041363,0.020328115357390212,-1.8087362978567205
2.04146282700237e7,2.2523159127913037,1.294351429308855,-0.019759324740745068,-0.23127062317734579
2.04146282700237e7,112.10433805253075,12.411051510539268,-0.020323946735441287,111.40019880017998
2.04146282700237e7,17.035232622208735,5.734880248215973,0.023517206995242543,-15.936312031206038
2.04146282700237e7,8.164007537382192,2.0953847509232606,0.0182193971274821,-7.675698343030412
2.04146282700237e7,3.2417163623724345,2.671408501204832,-0.01944024606262293,-0.1679846844112424
2.04146282700237e7,3.3502845136854043,2.2216418872933414,-0.015236462013033166,-1.7160351631272757
2.04146282700237e7,17.096439238857133,2.6562161891537186,-0.0038701278695787624,16.7895512271806
2.04146282700237e7,2.821181340347633,1.4627562763144044,-0.0302091419620701,-1.5731467898992764
2.04146282700237e7,5.9957605355371255,0.7709910200256753,0.016899965086639643,5.657802296061986
2.04146282700237e7,17.497838779934362,2.6755031387062336,-0.038231872875347316,17.195082972490837
2.04146282700237e7,11.13220807661384,1.6849997042467708,0.02786034060806314,10.850914783682336
2.04146282700237e7,2.302239836328815,1.3979962433689626,-0.0003133303196163799,0.04700907284458273
2.04146282700237e7,7.49612024269445,2.4084328675433198,-0.01919304619646164,6.85909590442124
2.04146282700237e7,3.5592356075189153,0.7119247169451827,0.000011001336813830915,-2.9694471692070956
2.04146282700237e7,14.418006928104296,1.9937650853880733,0.00868746623745609,-14.161922336839773
2.04146282700237e7,7.868333978450064,1.305778776831989,-0.021790237963910008,7.540652607801027
2.04146282700237e7,11.195721583436859,1.0839082593999834,0.003598876400155281,10.992070182214405
2.04146282700237e7,3.0586330214113864,0.7396985612773711,0.02913788831717497,-2.3374191248419165
2.04146282700237e7,22.499356672337523,2.345901933603458,0.028076641572329322,22.30186767229984
2.04146282700237e7,16.8970542742516,1.9260691588188965,-0.01737827134250277,-16.687021721138137
2.04146282700237e7,2.8648470566459006,2.027564658626591,-0.0026605800182269773,-0.8675357733114405
2.04146282700237e7,2.868326215199552,1.2074871647516043,0.012658700960235789,-1.8507849590514605
2.04146282700237e7,3.5258516732872276,1.2535652175939953,-0.03571606010144789,-2.741390853911877
2.04146282700237e7,8.471925391427964,1.8455110650342441,-0.03664017118992727,-8.063656827284579
2.04146282700237e7,56.63941996026003,5.9613815433234265,-0.026553490450600428,-56.295127796509796
2.04146282700237e7,31.223510109023685,10.625366684403923,-0.02403042483646309,-29.302984217866715
2.04146282700237e7,3.8746609698930685,2.8789573023616484,-0.015197206042853462,1.8386589437195053
2.04146282700237e7,4.964829283846671,0.6391601710121109,0.031365533552276,4.57124878785198
2.04146282700237e7,4.81004695846582,1.5855093591790868,0.028121027123394222,4.156707375560051
2.04146282700237e7,2.5049585592508956,1.1424382923663454,-0.024220946129476253,-1.2748963334593073
2.04146282700237e7,6.694653085327821,1.6921675461818524,-0.010989378892045503,-6.21378494523988
2.04146282700237e7,3.6470520186653284,2.18095450571263,-0.018853745484388024,2.2804310098627925
2.04146282700237e7,4.312754309871259,1.2852280211533098,0.004210596150674432,-3.688402923412181
2.04146282700237e7,2.9429384820907707,1.2098676690042738,0.001990946593884834,-1.9630074764504981
2.04146282700237e7,8.416900589304687,2.729708168075469,0.028532458737950274,7.7490896194184
2.04146282700237e7,5.045118080704516,1.6473412441571078,-0.014260471554856727,-4.40404076912346
2.04146282700237e7,2.0263125513927736,0.870100400000678,0.001140561197237322,-0.07184519866146838
2.04146282700237e7,7.369728778320625,4.341575407850273,-0.01140637631897485,-5.667432427663892
2.04146282700237e7,4.672174500728468,4.055816054620141,-0.026418738209898356,1.4265931200640924
2.04146282700237e7,5.381446544456049,2.4942441616654,0.038486958515664374,-4.403808228165735
2.04146282700237e7,2.426723716275343,0.6163993752597071,-0.01928172457560873,-1.4713813931167012
2.04146282700237e7,13.656915378495432,3.316055335687406,-0.0293305482281503,13.12137757892001
2.04146282700237e7,15.273390363072984,1.5716260494180936,-0.007563601440315659,-15.081866022450084
2.04146282700237e7,13.351768000596493,3.606073511671834,0.007667374969667186,12.724864595159051
2.04146282700237e7,7.996103299761839,3.226656751832611,-0.0038922861884205817,7.083970230035092
2.04146282700237e7,8.573845006562909,1.0389530985648683,0.03198633162269269,-8.311838948977265
2.04146282700237e7,3.253912440326083,2.690915478499214,-0.025207934534036237,-0.050791736716868464
2.04146282700237e7,5.871048574454934,1.0870248015648902,0.0339803490766356,-5.471994971111428
2.04146282700237e7,22.294683284669187,2.5926546651941753,0.02962493074048026,-22.067769758129913
2.04146282700237e7,2.8986452004895926,2.2425042377578497,-0.00464086058937351,0.17202438191263317
2.04146282700237e7,64.9341203226735,8.370860571591008,-0.002304928211363139,64.36633409820173
2.04146282700237e7,17.462545037299048,3.33127362895566,-0.009812199772932628,17.044039840749544
2.04146282700237e7,3.443327366313049,2.8012926439052257,0.014982695693410179,0.8156798251964963
2.04146282700237e7,6.020175714829221,2.871650370780702,-0.023877417734699754,4.965064434419447
2.04146282700237e7,3.971473519093856,0.49445925739126306,0.00880915287686032,-3.490605898417839
2.04146282700237e7,3.620607920180633,0.6089184049535428,0.024767762139414142,3.06491465286428
2.04146282700237e7,13.38432443104291,1.6879290447917623,-0.03940990705857629,13.15088506747687
2.04146282700237e7,1.992144484119856,0.45219382703681293,0.01358274606633191,-0.6482831796431742
2.04146282700237e7,3.8523702604223953,1.6921539796090077,0.022586918066897353,2.9382233658135233
2.04146282700237e7,3.931801081017608,3.455378982670978,0.03567144205548164,-0.41765842338996384
2.04146282700237e7,3.0940209328312567,2.290496758235593,0.035194755828499937,-0.9907808264557881
2.04146282700237e7,14.651827570362155,8.515636460705691,0.038874506019301015,11.781968034972175
2.04146282700237e7,4.639735542669263,1.6064474354002551,0.008805994906628147,-3.9500240735036143
2.04146282700237e7,4.494715290771681,1.3873656450227088,0.0002042083488877029,-3.8644504465714693
2.04146282700237e7,2.205258813446023,1.2237859994207876,0.0035025063726615165,-0.14763867363307887
2.04146282700237e7,10.981120579510176,5.271565193517024,-0.02808196280017301,-9.457860021125656
2.04146282700237e7,6.648534897729952,1.4580271209253557,0.03957083908255497,6.223496005724872
2.04146282700237e7,2.2055951857347442,1.171327329226997,-0.0045402753051269895,0.38589762974445174
2.04146282700237e7,6.083099540743366,1.5461809351841969,-0.0321607242174601,-5.591840967846178
2.04146282700237e7,1.9734095017247708,0.6217909037712236,0.02812038312796334,0.40401183291793535
2.04146282700237e7,8.16401683465431,1.943966866047016,0.019245649241894914,7.7154448017477
2.04146282700237e7,9.733498865229482,5.068736856760688,-0.032009125510984,8.105811337295203
2.04146282700237e7,9.508123551634915,2.0414521884831482,0.03284198673111973,9.104510037492378
2.04146282700237e7,3.3842255362758205,1.9611615884354627,-0.03384368449205013,-2.0644557377300816
2.04146282700237e7,7.143933525794597,1.6852607377875453,-0.00916845715255522,6.697155634270212
2.04146282700237e7,22.852915650003034,2.52011049184116,-0.026661599027712927,-22.639796402746274
2.04146282700237e7,11.320657395425908,1.5320035086393542,0.03121892150279573,-11.066416297820547
2.04146282700237e7,2.513001010024261,0.9319434322770567,0.015277086387073494,-1.4500749324259548
2.04146282700237e7,9.306102334044555,2.7566199829658298,-0.021982086925688597,8.698298620573876
2.04146282700237e7,3.6422807136541486,2.1226898420045894,0.031939742271566256,-2.3271595708440658
2.04146282700237e7,3.5045606133372513,1.228424194950454,-0.040539007185601855,-2.7253570155690623
2.04146282700237e7,17.282209906222924,2.1673907576340685,-0.01349826083943543,17.047970833123404
2.04146282700237e7,2.423735275846582,1.354669290127765,-0.00657080511015924,0.8340358564762378
2.04146282700237e7,7.67155801713274,7.443194994819888,0.009850331133828525,-0.328403462068145
2.04146282700237e7,2.6731632889592523,1.4604711229467344,-0.015118166397335327,-1.291856297396477
2.04146282700237e7,2.7287301631276883,1.7882997051588558,0.016716806722979188,-0.950772422646239
2.04146282700237e7,5.507778386043779,3.09402509693508,0.03715431758413229,-4.17343338147283
2.04146282700237e7,3.035031237116663,1.2529774057624368,-0.0026754576326659574,-2.07310160302123
2.04146282700237e7,2.746898898838739,1.4183006319965867,0.03802928814785634,1.4794342954530042
2.04146282700237e7,4.89467426736696,2.5113341449068396,0.03520506222530964,-3.7823395912375486
2.04146282700237e7,10.269714804632192,6.56857208456526,-0.024631259748465258,7.6796218281237545
2.04146282700237e7,29.307950844788206,3.87829520110692,0.034660431335887906,-28.992583584283977
2.04146282700237e7,14.647969274475274,7.823747835469837,-0.039138290064537756,12.247723749775039
2.04146282700237e7,5.3729219335910905,1.8598193538041496,-0.03312851694766613,-4.697292811891185
2.04146282700237e7,3.522109438581973,2.9073519992193266,0.02359973433713782,0.7799342832077704
2.04146282700237e7,15.567325244223936,1.6721719673945872,-0.005953202603428292,15.368855387239817
2.04146282700237e7,2.3542703190849377,1.085292859626338,0.0017739090049825553,1.0104554324735069
2.04146282700237e7,42.10207286091765,4.730579043076853,0.014813129720412587,-41.7954810578609
2.04146282700237e7,2.0861801466214542,0.8814402130673978,-0.010650235576013954,0.4810327546304801
2.04146282700237e7,2.4695504190782818,1.5816076979630247,0.025134616502590554,0.5028516647751003
2.04146282700237e7,17.84317402006434,3.606806075719037,0.03336771740453407,-17.37886621219838
2.04146282700237e7,6.470416063527522,1.5361279937973429,0.00588587260551408,6.0135559664753115
2.04146282700237e7,2.4147220413494295,1.5764488054696635,0.02416270332108277,-0.0374572834071235
2.04146282700237e7,6.506231394178895,2.2682639138862952,-0.0025381123168518637,5.817414762000913
2.04146282700237e7,5.57486829072486,4.118710218578627,0.014641733126853667,3.2819907674392628
2.04146282700237e7,3.6323178569547485,2.5276022866595302,0.0390801598718069,1.8600343059014381
2.04146282700237e7,3.0756964325062945,2.0500463394486204,-0.03867887596323118,-1.382757274144482
2.04146282700237e7,13.070182688812855,1.9132814109484646,0.01888301758137522,12.799412813746937
2.04146282700237e7,3.0637527968353337,1.7560568385298136,0.03555517656061269,-1.7198478400686346
2.04146282700237e7,33.73452446441236,4.365563234694837,-0.020504065195062444,-33.400836415437674
2.04146282700237e7,4.575371497425151,0.7343268500871287,-0.003633636820375773,4.129294176608764
2.04146282700237e7,9.621138801758187,1.3335141736391998,0.029145675001837446,-9.351122793794817
2.04146282700237e7,4.510901481337775,3.3881829941107937,-0.02435390771454436,2.3503510894189334
2.04146282700237e7,13.420687351717165,2.93729171297487,0.013266432585003261,12.967007579653707
2.04146282700237e7,5.536744086938034,3.8236072697018857,-0.025890373278331994,-3.5624692845690156
2.04146282700237e7,2.9724922466889456,1.3353500150095723,-0.02439608056111279,1.9256818296107707
2.04146282700237e7,2.011494426452179,0.45022287820715906,0.03259536290969269,0.7061458160350639
2.04146282700237e7,11.533223057427083,3.075204034313811,0.0016639282990085526,-10.964244007438467
2.04146282700237e7,8.864284353756853,2.213856888549797,-0.023799881961367883,-8.386304521688784
2.04146282700237e7,5.879086987212859,0.7721313054488642,0.03409397668331031,5.533769947758519
2.04146282700237e7,7.080296191785572,1.154588507531375,0.03888388030624779,-6.741832300579872
2.04146282700237e7,5.522447710699259,3.954337876290188,-0.028012722397751592,-3.393545512959588
2.04146282700237e7,4.001654117974878,3.1932876129832586,-0.0401707885989356,1.5718878433324452
2.04146282700237e7,4.284429165274413,2.741754715149764,-0.021574327874108734,-2.737689552557926
2.04146282700237e7,1.9772302784028577,0.7517042090293661,0.0228101778113155,0.012459347847816674
2.04146282700237e7,28.746870253031336,3.492474852160239,0.029035838629120875,-28.475263314942698
2.04146282700237e7,5.674388029144116,1.3945780037477462,0.028845158954545033,-5.1874169715921115
2.04146282700237e7,20.982133738621503,2.6673389482058836,0.02663295601912414,-20.73139708341038
2.04146282700237e7,4.442559209656079,0.5289831743014316,-0.0012080839932252158,4.014075591806797
2.04146282700237e7,2.7100011815729026,1.6739653533827812,0.010572384280121937,1.0945911602471596
2.04146282700237e7,3.3538683408327064,0.8148499287079636,-0.03876282433096924,-2.690584521693092
2.04146282700237e7,11.368926433201468,3.2831896183290215,-0.01682803693874832,-10.729826008580774
2.04146282700237e7,11.26502648894087,2.7075905142967103,-0.02118531993746355,10.780798753768158
2.04146282700237e7,7.977991633659257,1.8941994069686205,0.02113271590953439,-7.531016379300678
2.04146282700237e7,3.169154986144092,1.7036136976522718,-0.03650198550622037,1.9483856096850076
2.04146282700237e7,2.6163248803424675,1.8610642004376292,-0.03663252244777751,-0.19117835454775975
2.04146282700237e7,2.9930591806920592,2.246758697269552,-0.04010379858296708,-0.7517748893836921
2.04146282700237e7,7.18678397574558,2.5888776704798255,-0.0009687739391656041,-6.450106244582444
2.04146282700237e7,3.0740404207611296,2.4701514652712087,-0.027788072962920286,0.05999378045075108
2.04146282700237e7,1.92803071319439,0.5923039654460052,0.011404413108120924,-0.1504777940410598
2.04146282700237e7,2.580897992317163,1.0048264937561981,0.014506420657843399,1.5190269620885881
2.04146282700237e7,11.73322077272852,2.606651036839013,-0.03367061276729722,-11.292873927710785
2.04146282700237e7,6.267752197976779,5.963615421546443,0.01612523238736211,0.6132241675086142
2.04146282700237e7,3.267885319259097,2.1542486534920693,-0.024721142205652916,1.6413321563549481
2.04146282700237e7,35.924237176450504,7.085830335468009,0.006688410284551165,35.1709834325911
2.04146282700237e7,3.2781667014096794,1.713956685656959,0.010284547593564713,-2.113035450153126
2.04146282700237e7,21.89697242506412,3.1911210247910846,-0.03414602263931772,-21.585858269290398
2.04146282700237e7,10.85485542766101,1.817636210149026,-0.01407213048130579,10.544201350586988
2.04146282700237e7,32.470130092347404,8.22463395123921,-0.009817035946855162,-31.357948647695267
2.04146282700237e7,3.4661960067273943,1.7034550216437256,-0.008650962818348698,-2.4018692909340484
2.04146282700237e7,3.474082674050515,1.385737043615697,0.033578378795543776,-2.6084767486344727
2.04146282700237e7,5.968815854836994,2.4567966389636813,0.00693908303590404,5.123198221468389
2.04146282700237e7,19.21253983975996,2.3697996444829927,-0.0059281401245792975,18.977934470856585
2.04146282700237e7,2.8707778936462964,2.127177320385698,-0.007794747454147577,0.6105053544377115
2.04146282700237e7,10.597880674810801,1.491291781191432,0.029603672442539704,-10.331821834848734
2.04146282700237e7,12.260455198571885,1.2608122824255714,-0.0020156666043651236,12.057587038266044
2.04146282700237e7,45.70787761849246,7.509004536364522,-0.035118149650457176,-45.049750156455985
2.04146282700237e7,6.630131264092805,1.8270715868077578,0.012497360278216347,6.105455674670541
2.04146282700237e7,5.158986401696093,2.233593261668322,0.02617549570782359,4.275723548282736
2.04146282700237e7,4.003457373803732,0.9159794235881106,0.005808305386680738,3.4416440964479755
2.04146282700237e7,2.4428428834072844,1.6176264997681316,-0.028671703146388883,0.07898719706511713
2.04146282700237e7,4.324247147565271,2.434057597993992,-0.006494368196747239,-3.0709493661823593
2.04146282700237e7,13.394379955176698,3.0692840836978466,-0.031525788261365074,12.909074750169854
2.04146282700237e7,17.9585066238108,4.741604824320189,-0.013982296829084993,17.224437393610717
2.04146282700237e7,6.347066822819782,4.495128659602206,-0.0012961320812260948,4.090888545365678
2.04146282700237e7,2.3969754931266265,1.5026884387823587,-0.014773838168240797,-0.37880851086697265
2.04146282700237e7,3.4847825418317453,2.43266369155465,-0.035806631856574296,-1.6973125217125193
2.04146282700237e7,25.226237690788476,3.2231396845542775,0.0079974073340224,24.952568401490947
2.04146282700237e7,10.451182857596626,1.6925257780879017,-0.02703529930779844,10.149785411013418
2.04146282700237e7,3.07202489907958,1.8785063679862697,0.014963959972694922,1.6014437453441412
2.04146282700237e7,4.802455785478027,2.0663086237475787,-0.006980468833785593,-3.9306738225846987
2.04146282700237e7,3.0068540176572736,2.373254235638692,0.004392949880930563,0.25516916372485177
2.04146282700237e7,3.2585592099247886,2.642698320516331,0.025981601627518315,-0.5384922017101968
2.04146282700237e7,4.9240192382744175,4.497546858476082,0.00913941267520915,0.8211268899777006
2.04146282700237e7,4.464351177320405,2.990283238963698,-0.02099605014769335,2.7648674352838456
2.04146282700237e7,9.159594126151474,2.0268614375897225,0.004775939411355896,8.743355742656421
2.04146282700237e7,5.711449907532002,0.8898007676966027,-0.0051822860560046145,5.33715120336356
2.04146282700237e7,14.870060862575068,1.6239322344731129,0.010291355754046475,14.667574558396582
2.04146282700237e7,2.4037032647970857,1.2332139894101346,-0.008883254097562927,-0.9556091841940126
2.04146282700237e7,2.626775353918654,1.6386180041998681,0.0009675369656188519,0.9333670466321017
2.04146282700237e7,7.547497888748465,3.829717281801583,-0.029849641332369208,-6.241265424947506
2.04146282700237e7,2.691231742915923,1.9702152231706656,0.00661742913661264,0.13126942407302994
2.04146282700237e7,2.8021353081534763,1.883009084237496,0.025320134107474798,0.9807615144815893
2.04146282700237e7,40.307178396844165,7.945172750392581,0.039103325221932446,39.474012038238484
2.04146282700237e7,3.4849923056576113,1.0931704051770992,-0.03277314896216996,2.7577837007359354
2.04146282700237e7,2.6427223785797365,1.8839404688911636,0.0036298284135617876,0.3017149115737717
2.04146282700237e7,5.320928346643395,1.9100070165342182,-0.024275143041999434,-4.617343128676227
2.04146282700237e7,14.718581440386878,1.6009968970393402,0.02973139864052197,14.5165030148623
2.04146282700237e7,62.78525525257117,10.58781084599284,0.01718735547159547,-61.8590538110502
2.04146282700237e7,4.639086853215908,2.39219435117551,0.009356690543069032,-3.529127463527882
2.04146282700237e7,3.303715391643408,2.1733345054928224,-0.03495409149715263,-1.6870761427106469
2.04146282700237e7,12.933190248688325,2.1119578856487835,-0.02272346216582109,-12.627858992160146
2.04146282700237e7,8.863021493117035,1.5690287575908228,-0.030047738213469954,-8.529167079049149
2.04146282700237e7,3.391157726614482,1.4923400325955742,0.0005120061176522458,-2.4349880647221824
2.04146282700237e7,13.125779881169079,1.967249968420458,-0.013341285081352919,-12.848040404838596
2.04146282700237e7,21.06773133401604,5.151810036846388,-0.03926481416565414,-20.346078500892965
2.04146282700237e7,7.687455189627471,1.814993991294704,0.01590706255973055,-7.2428451766591815
2.04146282700237e7,2.093694166456034,0.8176277381283525,-0.011787548343391423,0.6092588791303697
2.04146282700237e7,16.130519873447636,2.840105870927073,0.0013073338785648055,-15.772880634306876
2.04146282700237e7,6.087311038671523,0.5687592614414698,0.01353923142731916,-5.778233333543143
2.04146282700237e7,3.314162305194927,2.092688615428417,0.030419534298157785,-1.8054628158907984
2.04146282700237e7,2.306803211761134,0.24121772384835066,0.00954799723021156,1.3854093571366535
2.04146282700237e7,10.191262637670391,7.053134941950011,0.005637756672663983,-7.125404201862514
2.04146282700237e7,11.615324373699691,3.163870853816863,0.030359316704763138,11.025473006729442
2.04146282700237e7,25.967910808322845,3.328964283312406,-0.014248595401610638,-25.688644976147923
2.04146282700237e7,4.452384252909424,1.7645422638053463,0.02508878954700863,3.6559242157133918
2.04146282700237e7,4.5889876634730085,3.756075174137689,0.004844633399089667,-1.8992047743361453
2.04146282700237e7,8.556174920776156,2.191244526875849,-0.006554372833519049,8.06615329151091
2.04146282700237e7,3.0200182335475754,1.7053793759535694,-0.03699120492969835,1.6932566696723461
2.04146282700237e7,2.4088807048806737,0.6181260889862595,-0.03128976783431797,1.440813146278807
2.04146282700237e7,17.068085847418192,9.575019721737757,-0.004615938417817848,-14.010525532608785
2.04146282700237e7,7.770444547663974,0.9657948408470313,0.004354056608038169,-7.490215285257501
2.04146282700237e7,3.27081404128589,2.315196961886992,0.005627259181246122,-1.4122149404025879
2.04146282700237e7,2.6088543355156526,1.8437033339208944,-0.004700024431035569,-0.2513007238313232
2.04146282700237e7,4.145855125480221,0.8396885851836561,-0.02671333709202126,3.624723352561447
2.04146282700237e7,2.606503622927882,0.22511709424778256,0.030069266905157998,1.8435222952276438
2.04146282700237e7,10.65542708179049,2.8528151667427566,0.008917284610659913,10.10226645784954
2.04146282700237e7,8.06331838816662,1.4389319878377886,0.012620373765707337,-7.72027940382271
2.04146282700237e7,15.936037154829666,14.471357490597889,0.002993182544437118,6.4182068215262555
2.04146282700237e7,9.208370446463393,2.723353128962159,-0.01024716603593191,8.60427941163353
2.04146282700237e7,6.835497754658508,3.7395979322901858,-0.02391366196326724,5.42173036761549
2.04146282700237e7,2.614977493911255,1.7191640627633986,0.030943899419128177,-0.7334302132132086
2.04146282700237e7,3.894038902597443,2.616771438355454,-0.002990260115601991,-2.2298727444170146
2.04146282700237e7,3.7873214471689116,1.1211490563686006,-0.028905317224668648,3.1212638792363507
2.04146282700237e7,4.422305680773531,2.485443903135221,0.0018910214919227223,-3.167909049547906
2.04146282700237e7,3.4495267390410844,1.6720359548338566,0.036716613923169286,-2.3996828046565377
2.04146282700237e7,16.135855229396473,3.794487942886825,0.004215767267457319,-15.576391194568604
2.04146282700237e7,13.079832521435078,1.9971329813788021,-0.031575723377380155,12.796436097631751
2.04146282700237e7,9.025986903015166,1.1748568039106713,0.001419978749560053,-8.760390643742234
2.04146282700237e7,2.4281674764849135,1.1278528585193552,-0.015373677685899043,1.1313726428649595
2.04146282700237e7,2.6323388127271525,1.0507260112952235,-0.021267417428364986,1.5751270916130393
2.04146282700237e7,35.25042806389687,4.540726428406105,-0.001341375537583064,-34.90889249997276
2.04146282700237e7,14.23865543433001,3.4159206156990685,-0.011991041662660382,13.701348339610135
2.04146282700237e7,14.265640744791364,2.6050353719907156,0.02370925872378012,-13.906042917551332
2.04146282700237e7,5.241558630525081,0.816553425013356,-0.03431367388066356,-4.8437893365335105
2.04146282700237e7,2.2305776146706795,0.8761415594259592,-0.02559847889692447,-0.9292428984903516
2.04146282700237e7,5.0485667705308765,1.490398896655753,0.0018476614340805697,-4.463522077362573
2.04146282700237e7,2.9707962731616155,2.154817208445197,0.03123254525898998,0.9152666313900221
2.04146282700237e7,15.329888202859513,2.1505710781623852,-0.009914983710780003,-15.06773749527914
2.04146282700237e7,2.727888844286263,2.023792548828447,-0.03628825159014974,-0.024892016479882074
2.04146282700237e7,39.36621070846644,4.222638339883502,-0.01238801276066519,39.09634270254271
2.04146282700237e7,2.77553776192561,2.0526325375210535,0.028293161028511243,-0.3818431804077695
2.04146282700237e7,3.612938007798486,0.7656407687194418,-0.0395682515534526,3.0202391955834558
2.04146282700237e7,2.552764044410054,1.779774999494493,0.024927692030915497,-0.06840329946110833
2.04146282700237e7,31.490345086478108,5.19532110431398,0.028522683065493108,31.004934348079114
2.04146282700237e7,9.92298742071918,1.3610116707646642,-0.00716524959042945,9.657617223031348
2.04146282700237e7,3.971374667153601,3.5056834572249342,0.013193137446886358,0.3716468342030048
2.04146282700237e7,3.100018471076225,1.453804851020065,-0.032899318260053656,2.037591419942263
2.04146282700237e7,1.853078574015318,0.263144334702256,-0.001111993254828498,-0.14473841114145336
2.04146282700237e7,8.448471756223952,4.166493828817761,0.010784451466142278,-7.118509891075794
2.04146282700237e7,9.797228695650247,2.3948728427896757,-0.0035446093602877196,9.322368626110299
2.04146282700237e7,2.083809779448622,0.5866299192063544,-0.022459894315920215,-0.808652750916596
2.04146282700237e7,2.3766307107825053,1.4532013448437595,0.023113798776617626,-0.43856621242973187
2.04146282700237e7,2.8561414604534607,0.7571769615065673,-0.027438480003500635,2.0590700338988004
2.04146282700237e7,20.910337907328753,2.555072431706384,0.030894568433329394,-20.672909252851788
2.04146282700237e7,9.64101905707494,2.537397827806507,-0.028755445675546575,9.119557501889494
2.04146282700237e7,9.357559335432308,1.4821952515411758,-0.016714419520811066,9.056656654871334
2.04146282700237e7,19.199855395411753,2.168036715006502,-0.0184759168720776,18.9892079305905
2.04146282700237e7,3.5738960780477793,3.0185826220424588,0.039109872813327326,-0.561834256731554
2.04146282700237e7,5.303510785875659,1.8774500755338188,0.00837431169662359,-4.610708505672541
2.04146282700237e7,15.925499234559968,2.744676103304035,-0.03218652562969693,15.5802290794805
2.04146282700237e7,8.200184340064144,3.332532164422632,-0.015403091509781839,7.265900530044005
2.04146282700237e7,1.930254006936626,0.320581180575584,0.004023025637235006,0.5285709383047711
2.04146282700237e7,7.688152664362174,2.8007500726351062,-0.040148802630442716,6.922295405313253
2.04146282700237e7,11.761121287223633,1.3211179861693958,0.012914501520701479,11.542735793504718
2.04146282700237e7,27.044518984179152,2.783660454301438,-0.003494946534637037,-26.838657278815823
2.04146282700237e7,4.122596330337144,2.5634926404138243,-0.0025854883061056538,2.660938647226512
2.04146282700237e7,12.946625216125213,1.4687840111599,0.035957203654702334,12.73235171829916
2.04146282700237e7,23.662421219803374,3.448659257077063,-0.03913235128202822,23.33820239767109
2.04146282700237e7,4.756309472000194,2.0738567129108674,-0.024123168336696536,-3.870053150035888
2.04146282700237e7,2.6368943798725324,1.8315271721032702,0.01510797094700836,0.5047644215518825
2.04146282700237e7,2.868359410819372,2.1618696985819486,-0.03050236077187665,-0.457350965426544
2.04146282700237e7,4.855400298591365,3.9049406748502045,-0.000891471908225301,2.232183857646899
2.04146282700237e7,2.9206017006839264,1.8600814217926316,-0.03069294988008226,-1.3135313185331376
2.04146282700237e7,4.408105377942746,3.99719950132546,0.005395848685199323,0.33174574310490523
2.04146282700237e7,44.97946713374454,10.221803298982183,0.020566814962458074,-43.76440417899282
2.04146282700237e7,5.146761982535089,1.4138260479728173,0.023326222423154193,4.598478648628212
2.04146282700237e7,18.595477122422604,3.033298950006508,0.027860444866010636,18.25503727384975
2.04146282700237e7,2.632825308047531,1.893468285087232,-0.03748545056900109,0.037907527748873585
2.04146282700237e7,2.7972123071580794,1.820697640154047,-0.021880144492419366,-1.079478224574772
2.04146282700237e7,3.456281584524743,1.7009799312520133,-0.008288858319488147,-2.3893045313292567
2.04146282700237e7,19.165810752840297,3.382425000318277,-0.0339313129524473,-18.776119055345596
2.04146282700237e7,2.7930029363668614,1.3715940994251716,-0.02906280105213488,1.6046948514191002
2.04146282700237e7,2.252465118158549,0.8760125119163761,-0.033103437102705156,-0.9805103434125289
2.04146282700237e7,4.715947952958925,2.796062213406431,0.0401930688543456,3.3281948402391155
2.04146282700237e7,18.7913436933401,2.9631575889289175,-0.01579540478946129,-18.465923767664403
2.04146282700237e7,2.372343351656608,1.1657376634486334,0.007876103659424153,0.9619261035847692
2.04146282700237e7,6.0596681330090165,1.2287732076126359,-0.006239234154245358,-5.644993404957663
2.04146282700237e7,7.799594637359008,1.7566788290489908,0.03836143149127422,-7.375810435664977
2.04146282700237e7,4.133686462958179,3.003137188792634,-0.0034856183287264022,2.1736636891201084
2.04146282700237e7,10.973580272572029,4.779351949850066,0.030915256687604937,9.707347648485158
2.04146282700237e7,15.699554263811134,2.767433599858059,-0.03605881639977694,15.345107047462617
2.04146282700237e7,7.977127545137796,1.7483370782954233,0.01576068792738628,7.565310840697138
2.04146282700237e7,3.0665661822090886,0.9555488584196766,0.011805990859796061,2.2686803060856975
2.04146282700237e7,5.837090748384425,1.325859155028879,0.01862861137574223,5.382348378202526
2.04146282700237e7,2.239703909346559,1.2926206666038185,-0.0345964143740144,0.022442939277649534
2.04146282700237e7,9.679676408320363,1.3114968057225924,0.031319795155540425,9.414426469647774
2.04146282700237e7,3.2898992927807886,2.714558377002257,-0.03425634491264795,-0.33125799751799284
2.04146282700237e7,1.9557532803119861,0.41368445820663835,-0.005556027545816058,-0.556866569877635
2.04146282700237e7,16.184466886214384,5.298346185138691,-0.0107339081010455,-15.182907365198972
2.04146282700237e7,9.878626927674281,1.3806772915484529,-0.0036887812759770207,-9.609228989324091
2.04146282700237e7,5.141726087136337,2.4063316734890403,0.019292678293849865,-4.159668016616955
2.04146282700237e7,4.396415444884477,0.9791311622942964,0.012703551919225614,3.876326190403954
2.04146282700237e7,7.020354605035299,1.0348973896199116,-0.01956418663624633,6.6985280920213714
2.04146282700237e7,4.862617167712624,4.198666757548445,0.0064231733536384995,1.6347773870577156
2.04146282700237e7,21.108685629560917,3.9402087524566936,0.040727377791095754,20.656863277346666
2.04146282700237e7,2.0766861463108777,0.983532515466088,0.034227996186715036,0.020316721623208033
2.04146282700237e7,48.28191003043867,5.60762331744456,0.025531037987549427,47.920277965248964
2.04146282700237e7,20.86748617202297,3.968492190741373,0.014731964955102868,-20.40487998064197
2.04146282700237e7,2.023575603479089,0.6303569220015459,-0.029658985226635966,-0.5940739870385017
2.04146282700237e7,1.8830933236413516,0.19584270308587895,-0.0030596302415183026,0.40493446809753586
2.04146282700237e7,11.140350716695337,1.2310240731976563,0.015823782324046243,10.920075027841847
2.04146282700237e7,4.186283458626097,1.7581195216374328,0.03582897737242816,-3.33001447618239
2.04146282700237e7,4.229199909173,1.2315601872685706,0.01006182775863047,-3.6090975769721263
2.04146282700237e7,8.590784902660596,2.3983211252097827,0.009436986008227883,8.043994477313419
2.04146282700237e7,10.72731286496578,2.5058136732829928,0.01403919166687253,10.268993973235434
2.04146282700237e7,17.22195998917917,2.01339166203169,-0.029017536210379957,-17.00581115531811
2.04146282700237e7,2.830976039754087,1.3599019476468452,-0.012262106228033426,1.6796537901600148
2.04146282700237e7,5.367167028414847,2.23525404448967,0.006125111357712944,4.523978219897494
2.04146282700237e7,58.45029630408931,6.199333722828035,0.03534381756480001,-58.091827699143735
2.04146282700237e7,6.5553608158799435,0.9560571650815474,-0.03778611060836562,6.222023586978395
2.04146282700237e7,3.3296591136754166,1.703530696205246,0.034004471696299936,-2.199943603793717
2.04146282700237e7,2.992433970794058,2.2642299153909584,0.010587943134961463,0.6957780097639783
2.04146282700237e7,3.407124094682078,1.9177644177307591,-0.009782077665293386,-2.141698795163673
2.04146282700237e7,2.113602190446049,0.9697027887929722,-0.005756027775145116,0.42808033429453285
2.04146282700237e7,2.205465888035796,1.0795306839662966,0.02652464193145074,0.5952183739059056
2.04146282700237e7,25.85743485914256,3.8927100945424895,-0.007986710084031224,-25.497254303369804
2.04146282700237e7,4.941888628014132,0.9005990921002953,0.01825168561813101,4.50190476871464
2.04146282700237e7,14.194119881979466,5.211837234033975,0.040135082792277996,13.0753384747268
2.04146282700237e7,2.8023499126505214,1.3157480138540438,-0.01733660325800732,-1.666723379196139
2.04146282700237e7,2.432952201996039,1.474245040634797,-0.026335066944883863,-0.633608416303072
2.04146282700237e7,3.5865879381918897,2.9000031799092563,0.03393671393537571,-1.0529663232729842
2.04146282700237e7,5.33763429657674,4.145041081674114,0.025583431366770267,-2.82216494678565
2.04146282700237e7,16.02413681020753,1.5924808799086958,-0.021024679755858252,15.839596532292559
2.04146282700237e7,3.3561521113320407,1.2232518598389315,0.021847004001850533,-2.534409156749409
2.04146282700237e7,5.975007084636772,1.8424254583213258,-0.019606397811276894,-5.381643695447882
2.04146282700237e7,10.492613972314704,2.248315115525696,0.022589116994063286,10.08443414519158
2.04146282700237e7,3.197747367761678,1.1700077441305918,0.026350071180260323,2.3478226006344642
2.04146282700237e7,28.584004017912523,3.0872155258939986,-0.030903522420525457,-28.357886489451573
2.04146282700237e7,13.691012736729752,2.4226459083785303,-0.029189958448785042,13.350283131448519
2.04146282700237e7,4.575968688061842,0.502843391307553,0.0333816137022731,-4.164350946955283
2.04146282700237e7,2.932867800565941,1.6573356440990357,0.00028097129130921495,-1.5846915166840732
2.04146282700237e7,4.507688752596265,1.8256672008688013,0.035076758556147586,-3.6934079068746177
2.04146282700237e7,5.480955236445579,1.4798612568312013,0.03137450924159739,4.950372893855578
2.04146282700237e7,9.063900573560531,2.0225230901125824,-0.04089133839981298,-8.643975765780247
2.04146282700237e7,4.403855742191367,1.6768176065561078,-0.020581154823343453,3.6384199471805707
2.04146282700237e7,3.5738756753538192,1.7680131432751156,0.03749246496458498,-2.510300055125491
2.04146282700237e7,5.823290666822464,3.866896634991123,0.01523617900240357,3.9514412113867197
2.04146282700237e7,11.677736931659366,1.3034016740953116,-0.021631110951051684,11.459777973400953
2.04146282700237e7,11.36737902061903,2.558076123334945,-0.01335616424029218,-10.923812024293998
2.04146282700237e7,13.703983487451595,1.7492009916892188,-0.012239897550626759,-13.468318554427178
2.04146282700237e7,4.177115204190425,3.3770575411473174,-0.03628844602423612,-1.6427879124050049
2.04146282700237e7,10.9991050265811,5.250527270342181,0.022278027643696158,9.49042009830118
2.04146282700237e7,8.74114051883803,1.5293357753348784,0.024892455913793875,-8.40977676312466
2.04146282700237e7,3.320955198914482,1.5478563056083396,0.009276776861782283,2.299802907945957
2.04146282700237e7,4.519342220271305,1.556794801589311,-0.009439895224333384,3.828452705943934
2.04146282700237e7,9.15760332225985,3.131868936146406,-0.02491385345876084,-8.408850697816659
2.04146282700237e7,3.776533897111377,2.937295512631784,-0.008957502388480355,-1.5135119075367034
2.04146282700237e7,3.301863862202553,1.4385144387894029,0.02996718918870219,2.3427288202192114
2.04146282700237e7,2.7260868902141384,0.9571083138901243,-0.020603657210652025,-1.7808324124940398
2.04146282700237e7,2.6699400207208814,1.9034873944039168,0.00005486007907998837,-0.40200825138643453
2.04146282700237e7,3.937198749371418,0.5371335625100888,-0.0023439423596021427,3.4451866738409525
2.04146282700237e7,4.586166469075134,3.278161049220134,-0.01048494790479905,-2.6349133319546705
2.04146282700237e7,3.7696350616338017,2.3237055514236045,0.03963160867448835,2.337790736438117
2.04146282700237e7,4.573962619986369,4.131387712717247,0.0006192941499759268,0.7134875025648831
2.04146282700237e7,2.5783282346064866,1.813290301759352,-0.03062496263943015,0.12293112778223741
2.04146282700237e7,4.444144151200359,1.7034676756194036,-0.026423997161992674,3.6748077596987545
2.04146282700237e7,12.93598245295365,3.8832989222125476,0.010512507269113479,-12.20310682468438
2.04146282700237e7,3.835425058636961,2.9138636201936694,0.00027339504382656944,-1.695930214421372
2.04146282700237e7,2.524344091865931,1.1701434989894712,-0.024138983929173723,1.287940130194714
2.04146282700237e7,5.599084973226367,3.94570648968907,0.03592665135677938,3.5264936259629276
2.04146282700237e7,7.396690656355386,2.24121453761344,0.03208600571143423,-6.807588099616687
2.04146282700237e7,5.212827239100706,1.2491360912774627,0.03156307973405703,-4.718953888922423
2.04146282700237e7,6.380770575015925,1.4938595514572859,0.036421614086684456,5.927696468370845
2.04146282700237e7,3.3439480445747103,1.408036982065994,-0.02600696208105641,2.419718827358425
2.04146282700237e7,2.9873675121365015,2.214688139775333,-0.038675334969960284,0.8211702004895665
2.04146282700237e7,2.2389814004679187,1.233484788452559,-0.009260730182591319,0.38439876531267847
2.04146282700237e7,9.106374110476162,1.5694382884147073,-0.04075182149557512,8.78165971621841
2.04146282700237e7,12.484659871111857,1.8855546566169095,-0.03789886111773037,-12.205174091105253
2.04146282700237e7,8.243393035575686,1.7006176171037581,0.03870453148607129,-7.8559675153488575
2.04146282700237e7,5.288222671379913,1.4831798590891392,-0.030354312237455237,4.735066031959577
2.04146282700237e7,3.08969371950372,1.8116647112406712,0.030279227134312036,1.708641743136969
2.04146282700237e7,73.02008836294033,9.013840063620878,0.0019450683761072596,72.43852761645135
2.04146282700237e7,3.7015268876129364,1.1166596658790207,0.02686460749576356,-3.018268703542572
2.04146282700237e7,9.594984686488159,1.1226239156850073,0.00429372908711299,9.351990345662514
2.04146282700237e7,4.193135036504049,1.6780598235380677,0.01298440117832145,-3.379737157222621
2.04146282700237e7,9.292133877162117,2.2250870798110594,0.003716269864510532,-8.834535689627387
2.04146282700237e7,31.99941098582218,3.6677058800312237,-0.003325217545999199,-31.735886960090934
2.04146282700237e7,11.763913926333858,2.6869414376081804,0.02670985222460607,-11.305998334709322
2.04146282700237e7,4.612821947955717,3.226947069383409,0.027489710960197394,-2.7423490722975314
2.04146282700237e7,3.6561946447568547,0.8637778835918588,-0.010428758307502313,3.0459536228850292
2.04146282700237e7,4.56414780440643,2.199724960615751,-0.025963394062443964,-3.5564415310645603
2.04146282700237e7,3.3049729380728965,1.7624593412938703,-0.0022445925333572053,-2.1149168629250013
2.04146282700237e7,4.257008506736035,1.2391971854112371,-0.014872426463087163,-3.6390363774800236
2.04146282700237e7,2.3774888106221868,1.0799753084564805,-0.011322413611966675,1.068771895358421
2.04146282700237e7,3.3656768719544745,2.27972860743901,0.035019000535181484,-1.6690377874796496
2.04146282700237e7,3.9542826664937327,2.8495336762739494,0.013059287350523335,2.0427025904245966
2.04146282700237e7,12.405129860640914,7.4305106637042035,-0.02695212973263783,9.763725052573216
2.04146282700237e7,4.2159515931952125,2.5406968945461053,0.02843512760796218,-2.8239323209537
2.04146282700237e7,3.0624992359745153,0.96542353002437,0.021742263427876656,2.2589115599334133
2.04146282700237e7,4.554189159136651,3.8613206606914314,0.0359065807306647,-1.576657081795378
2.04146282700237e7,7.57496386219019,2.9327667027544826,0.0379117324479467,-6.740461027618564
2.04146282700237e7,17.624591824430926,1.7409184475020383,-0.04079377967866044,17.442765577398674
2.04146282700237e7,2.817825953726285,2.1201242504168105,-0.01649745005049991,-0.3181812157086537
2.04146282700237e7,3.440820928477374,1.9267652479313728,-0.035178737646043484,-2.186751467640867
2.04146282700237e7,3.539932572638881,1.9256741577747216,0.018570699467708163,-2.340694762165632
2.04146282700237e7,2.2140280552899014,1.1290871962371916,0.022974944466964214,0.5318361293018364
2.04146282700237e7,3.0214082327430645,2.1997661830353477,0.015975037375503067,-0.9726131968272453
2.04146282700237e7,6.986468839464286,2.8682587507848267,-0.01867859272736604,-6.102440895012867
2.04146282700237e7,7.672913141342304,6.968559416521962,-0.030155656301096786,-2.639727552793961
2.04146282700237e7,2.344023927586489,1.4642614782344887,0.023674896223642238,-0.0782379661375388
2.04146282700237e7,10.205468439297082,1.2230116592853308,0.01055952074922805,9.96554124103967
2.04146282700237e7,41.167599219107345,6.983371347880128,0.03364668850758446,-40.529728757624405
2.04146282700237e7,2.737584495469542,1.622057661590775,0.0078880480023649,1.2326924898808325
2.04146282700237e7,23.81387574862892,4.090427315002286,0.0285660294445117,-23.388556212758875
2.04146282700237e7,18.35598351610893,2.0285374448664255,-0.016028869827419984,-18.151672235289226
2.04146282700237e7,5.194122897451922,1.8858254946335227,0.00532387657984986,-4.480942056929853
2.04146282700237e7,6.852508669303632,2.582493508746401,0.029717286269783018,-6.078076538401018
2.04146282700237e7,4.352588089123096,3.948374200347202,-0.003205692578040729,0.10793125008045543
2.04146282700237e7,48.50354585848249,8.10386720736443,-0.016868085085805125,47.7867900970825
2.04146282700237e7,14.613253381517088,3.879844317770208,-0.010878671340225169,-13.969615574538786
2.04146282700237e7,2.9715923065251575,0.8937706087748427,-0.037489095893571606,-2.1648151621740914
2.04146282700237e7,14.576876883094505,2.0521416626633235,0.03711181745421104,14.315340448548948
2.04146282700237e7,2.8793918606750224,1.6646058919063984,-0.036821822241682636,1.474762370335938
2.04146282700237e7,17.93224022076176,1.8613970180211494,-0.02908286272756629,-17.741360991961784
2.04146282700237e7,3.9507038358607294,1.7795220078214993,-0.030279704699023052,3.0160803280826194
2.04146282700237e7,16.11253553175709,6.363303666107314,-0.020948144868403688,14.689384741161438
2.04146282700237e7,10.349207142617104,1.270785741065974,-0.032481763050337384,10.10675181251471
2.04146282700237e7,7.160446556848212,4.703305747397193,-0.027432248830304148,-5.08000517670052
2.04146282700237e7,3.212334179860564,2.6068877140751945,0.03545340579229423,0.42221507424768273
2.04146282700237e7,7.203426826586957,5.285980466310653,-0.0060848705115861415,4.5391658610063725
2.04146282700237e7,6.9573903694459025,1.343962480504252,0.030420623920678937,-6.576808905015846
2.04146282700237e7,11.623301155371168,1.7121773533822575,-0.0023442559328572103,11.35014837555359
2.04146282700237e7,4.6978429106483395,2.955007710660166,-0.009959345668020241,3.1613056540141278
2.04146282700237e7,6.624611998973857,1.7573618503795474,0.03751675185133015,6.119808096722438
2.04146282700237e7,5.893428183120696,2.557914843320767,-0.029756419343993153,-4.984473607416176
2.04146282700237e7,4.724918106788407,1.3251836539747883,0.03674469643267187,-4.150142697544149
2.04146282700237e7,1.9224301612086308,0.5242800740313303,0.03400944171961355,0.27569307240528357
2.04146282700237e7,6.530252360013457,1.8162445142208279,0.026086993660604595,6.000088866207386
2.04146282700237e7,4.082560261921426,0.8331737608464342,0.015293498223787266,-3.5537559101560454
2.04146282700237e7,2.367372316455086,1.3440921575795344,-0.013234189491848803,-0.6737863136630251
2.04146282700237e7,2.319545518359526,1.1610294159285681,0.03474114448863428,-0.8290900696365562
2.04146282700237e7,4.144918668584145,1.4246736844375512,0.01747144502148523,-3.436079974950722
2.04146282700237e7,13.378725922826517,1.4337832311667909,0.007823615028432856,13.175386405672626
2.04146282700237e7,5.355719269179518,2.8456355086085425,-0.02231079452068543,-4.152334867812909
2.04146282700237e7,3.8968278028723744,1.659104036789007,-0.022263681226791576,-3.014704004118446
2.04146282700237e7,8.862949231655566,1.870008599119742,0.002080957370923927,8.468248211722342
2.04146282700237e7,2.361801922646288,1.4922783459072544,-0.006742211811240431,0.08639089264444338
2.04146282700237e7,10.508522957461752,2.7807026202992966,0.03498146156971173,9.967538270099984
2.04146282700237e7,4.520446847429862,3.360651327352141,0.036281447650481864,2.4073722596560048
2.04146282700237e7,6.925369123383041,2.246202501045753,0.022892215082806422,6.29055505893491
2.04146282700237e7,2.7553718312817277,2.028979412059529,0.030085851182629464,0.3615335381648642
2.04146282700237e7,12.914489770165106,2.9767051963971003,0.01463196681300435,12.432994542208602
2.04146282700237e7,3.71303322916939,0.9028776050624704,-0.005017565836965401,3.1028531706843303
2.04146282700237e7,2.088032628329448,1.0061346359236267,-0.02224552497475041,-0.0580833158644797
2.04146282700237e7,11.000072359473666,2.338152507208786,-0.027731846869280687,-10.591985691784098
2.04146282700237e7,20.063775139297835,2.040608831756353,0.03777695693807831,-19.87576052686257
2.04146282700237e7,4.744588496040391,2.0855415431520137,-0.03533946543614069,3.8492444420078886
2.04146282700237e7,3.997622847484548,1.2202848094559546,-0.03820099068085007,-3.3386717841759337
2.04146282700237e7,3.7316823042245666,3.0429995576612603,0.009409343673380047,1.1497013349508562
2.04146282700237e7,5.568420723332903,1.087681269315886,-0.021280388557381524,5.145881959109202
2.04146282700237e7,36.87630713693969,3.7547509036663635,0.03562929569419053,-36.63903518716362
2.04146282700237e7,3.3281468187514545,1.7007133891090485,-0.00969225209498175,2.200076466652914
2.04146282700237e7,51.772972254435714,13.252728233297756,0.02661633329782908,-50.01461223669863
2.04146282700237e7,8.479291871378376,1.4147074282120031,0.020583315752882577,8.157993934987802
2.04146282700237e7,13.813288435098135,3.22838055359205,-0.030885006475007117,13.305631803577748
2.04146282700237e7,12.706359957849749,2.7372511293129635,-0.010858499355862116,-12.27253913866703
2.04146282700237e7,7.143338985056263,2.710673201225437,0.035243862872661444,6.350952346326708
2.04146282700237e7,8.636029406638862,3.8528349756704614,-0.030562415199210994,-7.509462543015895
2.04146282700237e7,4.908999663935398,2.388801346228417,-0.02491993046574172,3.879121035678151
2.04146282700237e7,6.553700802552357,5.895760327876985,0.018885854930676613,2.2015773603693343
2.04146282700237e7,3.713383445397704,3.1957514202817134,-0.004503908477644012,0.4823529524420457
2.04146282700237e7,10.74274526155624,1.19239680868226,0.03975623547143403,-10.518530326555823
2.04146282700237e7,14.431932253346664,2.3718016242495543,0.03108430385546907,-14.117739003468245
2.04146282700237e7,6.4403385851124915,1.152003251501401,0.020795424038028528,-6.066853577708798
2.04146282700237e7,18.691834182642246,2.281629336566909,0.025886029297056173,18.461702461555316
2.04146282700237e7,4.226073905251349,1.5444978531969358,-0.014851278682074006,-3.482858259711118
2.04146282700237e7,22.90737547285893,3.7297269676094857,0.030443640955326416,-22.527590997928534
2.04146282700237e7,2.3131790438339346,0.23501018512753546,0.012625725723191773,1.3970337420294323
2.04146282700237e7,4.196414641164808,2.5401713579233065,0.023065487132537983,-2.7952081281850494
2.04146282700237e7,7.021800240443737,2.174423077139124,0.027567661779676584,-6.421300343849721
2.04146282700237e7,8.52501077926238,3.9835014555566515,0.02147281052746438,-7.311864265843963
2.04146282700237e7,12.964248377640407,4.046495541130202,-0.03326292358650648,12.180016362644174
2.04146282700237e7,2.1068407771468824,1.018150171671193,0.013556163231742285,0.24137046673782125
2.04146282700237e7,37.599991315943335,11.59190408019735,0.031070023772943867,35.72173619229251
2.04146282700237e7,4.723955636231703,3.841275493119028,0.024768905233744518,2.0533000569770503
2.04146282700237e7,4.21376738317969,3.7686633239753236,0.03587468283654069,-0.45609264497868496
2.04146282700237e7,24.38870340732933,2.677441516417214,0.03296636728922346,24.172202407291536
2.04146282700237e7,3.0113198691427128,0.9628768705402508,0.003944387791349371,-2.190250011272058
2.04146282700237e7,2.662719405013447,1.5804485054654764,0.0004860104836494576,-1.1173862800307321
2.04146282700237e7,2.653792939030947,0.8747375074557542,0.003765712967434982,1.7128141344893348
2.04146282700237e7,15.11985185464311,2.1358988140956274,-0.03640319304439616,14.856070353678184
2.04146282700237e7,15.039462369922079,1.5203759520309483,-0.004919736223906667,14.850257786334343
2.04146282700237e7,14.85880395949337,1.4132958479647018,-0.007962492642939493,14.677972671152256
2.04146282700237e7,17.64112808794033,1.9127456912724752,0.0010954632710464133,17.441533708914363
2.04146282700237e7,8.368176871855427,2.2748293565166327,-0.016255617432697884,7.84267597799935
2.04146282700237e7,8.690996081242446,3.093195935054346,-0.031062901650910024,7.913335710765461
2.04146282700237e7,2.0123051391963664,0.8393270284904129,0.012695283960888723,-0.032188908753073675
2.04146282700237e7,2.9001824683665927,0.6610667552847092,0.032681577590693574,-2.151575281733007
2.04146282700237e7,2.8890594312576052,2.0546607349080332,-0.009742674344503049,0.8838743834178663
2.04146282700237e7,3.491950228494424,1.455999124930936,0.027036775849709777,-2.5940985221911412
2.04146282700237e7,8.64376334182748,1.9205362401573105,0.03372606111432342,8.226867143461396
2.04146282700237e7,7.2091391503127396,6.797448220800135,0.005564916531263598,1.5564861674351496
2.04146282700237e7,18.954079501026037,2.3662115459566126,-0.0011002381727978424,-18.716689520961577
2.04146282700237e7,4.714936063039665,3.757481110419824,-0.0014014522588043407,2.183632524698638
2.04146282700237e7,5.138959618253758,2.202781126186298,0.019365686619875287,-4.267620112186881
2.04146282700237e7,1.9551258924638661,0.40484889188658774,-0.028840390415224605,-0.560426663892367
2.04146282700237e7,3.0978517004979538,1.2766507705015129,-0.01692786908756942,-2.150082928471391
2.04146282700237e7,24.35710813168252,5.610341671759536,-0.01304212913951701,-23.631523606214238
2.04146282700237e7,10.335293051772371,2.3353973128819985,-0.022572151915802308,9.900504408289294
2.04146282700237e7,7.828551210444285,1.038268869552363,-0.031971195882055735,-7.540788077866994
2.04146282700237e7,2.1571612760583054,0.731921671838699,-0.03025883058551934,0.8792127296564457
2.04146282700237e7,14.856917639460388,2.0063354604748054,-0.03631378897170884,14.606765427639381
2.04146282700237e7,3.5343865783517106,2.0792002911087,0.03651603187078145,-2.196309722626256
2.04146282700237e7,13.677877996672207,1.5935490361049511,-0.03568384939760995,13.461053814908807
2.04146282700237e7,25.842872884594385,3.0980233335808824,0.03056986420192981,-25.59124246731477
2.04146282700237e7,7.021079476319126,0.7227730140150679,0.0046633416413286435,6.740135727108615
2.04146282700237e7,23.220859433585147,3.226908527900337,0.03591529380371273,22.922704453492294
2.04146282700237e7,23.598392441163803,4.509274931286044,0.02495461754135862,23.091258905739974
2.04146282700237e7,7.016621583972792,3.9396958220689844,-0.033332809577618965,-5.510622413997416
2.04146282700237e7,2.340463525856329,0.866588211083168,-0.031653324480360734,-1.1756222347866925
2.04146282700237e7,3.0380385215067873,2.3555827362339548,0.025599793591417716,-0.5801274558954921
2.04146282700237e7,5.65632325563233,0.6834013285930004,-0.017573826255041478,-5.308760847930071
2.04146282700237e7,8.006185668172815,2.545068485171095,-0.028377913289177145,-7.367301082260859
2.04146282700237e7,2.433056684896166,0.8195266803092565,-0.03268960489268918,-1.3796258280820823
2.04146282700237e7,12.65395500921662,3.1460321977018735,0.034408006205810256,-12.119412942012099
2.04146282700237e7,4.016563555699973,1.6499329603881001,-0.02437891843180012,3.1727283014998724
2.04146282700237e7,4.890297485189594,1.860857624635183,-0.03230916359425935,4.136117708194074
2.04146282700237e7,5.5761130607536415,1.069308548758091,-0.01796236548692606,5.158060549362165
2.04146282700237e7,6.025867148119925,1.9356752688486787,-0.028615305773483285,5.405526106516743
2.04146282700237e7,2.5536722461755677,0.34726154023009087,0.03609040888770914,1.7480400537604142
2.04146282700237e7,18.201401705771136,5.179040262549342,0.029849141265837875,17.352923967623063
2.04146282700237e7,16.277606123727914,2.8928315639518623,-0.016749970443409118,-15.913767664632985
2.04146282700237e7,5.694961536675452,2.8866355004159,0.03874307299736292,-4.555734468759807
2.04146282700237e7,54.26874322555892,5.605635410275869,-0.006869732095700465,-53.94747066285027
2.04146282700237e7,7.750790534653244,1.1921748081389358,0.027613475918049767,-7.4370024753563815
2.04146282700237e7,21.706667874413114,5.989684757043672,0.0028936416330050336,-20.783632828063414
2.04146282700237e7,14.38932215813212,4.7771008658557585,-0.03180036746045988,-13.449430597916834
2.04146282700237e7,2.8029222691507427,2.010801657597784,-0.007286568753606473,-0.6850489254198915
2.04146282700237e7,13.377858235511681,2.068265624352923,-0.0035653206954601308,13.089906445374469
2.04146282700237e7,5.283088807068988,0.8534752052313153,-0.023459461120744762,4.8824535076861615
2.04146282700237e7,10.804223400617218,1.7982681585612688,-0.03067781768986672,10.495371788338478
2.04146282700237e7,5.869878503882967,2.2071211834717652,-0.004083002912913156,-5.122535333651174
2.04146282700237e7,24.394607742654518,8.676068227550035,-0.0014731477803541127,22.726174778046396
2.04146282700237e7,9.193376566080033,2.6055846164329446,-0.03543856699140105,8.624624095224505
2.04146282700237e7,2.320409906542369,0.7614602075270759,-0.0342096887256266,1.2081412862451488
2.04146282700237e7,10.946544853636492,1.6946989366598646,-0.036322286734856324,-10.658790532787755
2.04146282700237e7,3.781881963134194,2.029649840375542,-0.014240726940729259,-2.6151950393497385
2.04146282700237e7,2.7012313384804014,1.6543464681540823,-0.038102669435852776,-1.1021033878346422
2.04146282700237e7,21.695972974584365,5.0630070618356395,-0.029025479263720948,21.017532098485088
2.04146282700237e7,2.5389959196207377,1.40291255065848,0.00007397637760953999,1.0651909843700194
2.04146282700237e7,8.578631005071061,3.484970159619382,0.003221002855657843,-7.622609639517791
2.04146282700237e7,9.110758085553579,1.0326046780918192,0.040755047736202366,-8.865341205049406
2.04146282700237e7,8.989727736035181,1.6995699617794013,0.030813085607642555,-8.636087797748049
2.04146282700237e7,2.377562010168665,1.325084408919247,0.03643999441523815,-0.7429130042228441
2.04146282700237e7,14.033560776565345,2.542724124171246,-0.017278634304078118,13.679597169884337
2.04146282700237e7,5.2414226386974,0.8547784221437882,0.013489068659005097,-4.837145682643195
2.04146282700237e7,5.869150163126528,1.548843359826621,-0.003954504841438628,5.357638232424861
2.04146282700237e7,3.4617044118728444,0.6625793861416905,0.002905690403992695,-2.863681674488855
2.04146282700237e7,5.563743413056456,4.792393810394401,0.01478174797476643,-2.1550589356092678
2.04146282700237e7,3.6339198197219504,0.6875350688028405,0.013023740163389978,-3.0641139585737407
2.04146282700237e7,2.4593398814689658,1.2459897953900247,-0.0048831851165062135,-1.0733747809925607
2.04146282700237e7,4.2243029044849925,1.3311671035086672,0.023684743870857217,3.567697210790801
2.04146282700237e7,7.898925820114617,2.201265444458469,0.004914077893525279,7.36231828910873
2.04146282700237e7,6.003491445057067,5.6227650353923515,-0.012708438302184467,1.0404597862669007
2.04146282700237e7,1.914291421124714,0.4843968990674401,-0.013856784228235426,0.2932140213161317
2.04146282700237e7,2.343585892408993,1.3643701149649035,0.030876732544339956,-0.5350054536885572
2.04146282700237e7,5.001727504887399,2.612611563631211,-0.012109977028286626,3.8532697002395224
2.04146282700237e7,9.760394958303632,0.947014948068349,-0.017730571524838992,-9.5406736261465
2.04146282700237e7,16.731384455313606,3.0859284478919684,0.027657126185001758,-16.34233158618965
2.04146282700237e7,17.10191074607126,4.0464773833278835,0.025996017843950905,-16.515356228173218
2.04146282700237e7,6.95190642237298,1.4102118142497388,-0.026385662255928533,6.557126239810278
2.04146282700237e7,2.360445871191111,1.3847280826603476,-0.010641909753079729,0.5571487963477705
2.04146282700237e7,2.0029541685527343,0.5021382388950603,0.0077084769084185545,-0.6449173228762695
2.04146282700237e7,3.860861659591288,3.035423691645039,0.021675229708496384,-1.532410237083755
2.04146282700237e7,8.53153879856106,1.3859214755956684,0.03031404755348039,8.21716205127758
2.04146282700237e7,9.1437867234755,3.5145326472276928,0.02042865110891687,-8.24092068702226
2.04146282700237e7,3.0079546062748417,0.6628151345989672,0.02099286745209892,-2.294410925242627
2.04146282700237e7,3.233857295323146,1.7381525951126198,-0.017542297359692132,-2.0230289207080903
2.04146282700237e7,8.789854050452751,4.242200633522224,0.010364098286991471,-7.478064975798953
2.04146282700237e7,22.51750481570553,9.706553052248719,0.026823580353787728,20.235523878771694
2.04146282700237e7,3.129685316564691,1.8283884267211503,0.03715754540112838,1.76262317078057
2.04146282700237e7,2.708986473841472,1.4509532725505838,0.012260794186294017,-1.374586182404263
2.04146282700237e7,14.01984619613645,4.185894797370672,-0.025934952185309182,-13.254810246492477
2.04146282700237e7,3.6610850622363484,2.592326469001145,-0.005387332381495206,-1.827471879755197
2.04146282700237e7,2.5502744643478787,1.3995756179539802,-0.012039110148586251,1.0960101169972962
2.04146282700237e7,19.469811318422135,6.7456714604761014,0.007157218669801563,-18.172113616200452
2.04146282700237e7,3.7929639017073,2.2944136488786615,-0.02574331050088649,-2.403720789330247
2.04146282700237e7,3.184578602554627,1.6188497026301267,-0.010642473109796591,-2.0437828743555997
2.04146282700237e7,6.612282200002136,1.3178573116591876,0.04093902696469189,-6.216119945612593
2.04146282700237e7,12.411194094128536,2.275217507459976,-0.04002126025161402,12.062993725365466
2.04146282700237e7,10.977702385828012,2.5661356114200893,0.02030125913953134,-10.51573966671356
2.04146282700237e7,2.9259427847830954,0.8536104023345529,0.014233153746439,-2.1186276364158303
2.04146282700237e7,3.486349109972383,1.4983458896937192,0.006481214903458493,2.5623900735244307
2.04146282700237e7,29.017765178263165,3.305627510392053,0.0137370368216712,-28.770812104992462
2.04146282700237e7,2.5880137460531607,1.3612974247397682,0.014647062444630538,1.2250571898155338
2.04146282700237e7,6.636361358293582,2.0572820618035625,0.025135616198153004,6.038588078386526
2.04146282700237e7,4.551522818786396,4.155505416312999,-0.033474580002680415,0.32141770489540344
2.04146282700237e7,11.836243282332394,1.7444097209782852,0.022645994684775978,-11.563281199834238
2.04146282700237e7,7.937928912753222,1.014656679693928,-0.011948664361859762,-7.657502181475106
2.04146282700237e7,11.211634473546079,2.2507581680889204,-0.01712599916022857,10.830089432730489
2.04146282700237e7,3.493880837892565,1.9850353801120595,0.015499901000619242,-2.218759289730456
2.04146282700237e7,8.01950288975964,1.4262220767953044,0.0008564763883163676,7.676888147978519
2.04146282700237e7,2.4712209887026333,1.6040983822143,-0.03929384283664823,-0.4342265914209024
2.04146282700237e7,2.2901704630301913,0.8066911202076265,0.030255775023382902,-1.1178148138183797
2.04146282700237e7,3.743679139625418,3.2593416407120563,0.017493232786209723,-0.2186658180732428
2.04146282700237e7,7.626911091846169,3.3150180460131997,-0.031363512165491374,6.620856415240976
2.04146282700237e7,17.660896133760318,5.834177924990251,-0.024490724963137825,16.56880549632403
2.04146282700237e7,3.2008133283677678,2.539146278846062,0.011902220276955042,-0.6738662021732685
2.04146282700237e7,7.807078608990223,3.269907450229516,0.013796109455658904,-6.8494004500284635
2.04146282700237e7,5.026193126463622,1.6614394325852995,-0.00943405544135272,4.377035816458295
2.04146282700237e7,6.005072224950175,1.0924800446740495,0.037930445760458203,-5.614466692727051
2.04146282700237e7,10.95251536207713,1.8846212937405942,0.012181611797538627,10.633058926181548
2.04146282700237e7,18.068123537321814,4.55442759201703,0.031792822985468754,-17.38877689399122
2.04146282700237e7,4.663610038434722,3.069647953744715,0.0191405053404679,-2.997073381703444
2.04146282700237e7,5.495712868130879,2.9043999064755304,-0.02288136959154408,-4.292213035105536
2.04146282700237e7,4.886617555761036,2.97702313433208,-0.013767697683321737,-3.41649967481691
2.04146282700237e7,12.821566186136765,2.672373719142781,0.012617378257138939,-12.40593060419437
2.04146282700237e7,21.58138305110818,6.59713849110642,0.03339066524223814,20.466778895930254
2.04146282700237e7,3.9909028655099497,2.7249808705717626,-0.02881820889730671,-2.2709578664936614
2.04146282700237e7,73.56812025575246,8.590844137746789,-0.021191283187324148,-73.04191646636137
2.04146282700237e7,2.2667576484449765,1.3279737434173595,-0.03430105360807147,0.17261110885241945
2.04146282700237e7,5.185748272375088,1.8463019090051178,0.017714411609752952,-4.487664848054786
2.04146282700237e7,4.476306858432725,2.2982375298981075,0.000038823988348562433,3.3781241139295632
2.04146282700237e7,1.927790497087351,0.5445277585536634,0.0020511717031878444,0.2759650287979658
2.04146282700237e7,73.20486725875557,8.900590134652788,0.03929416052497655,-72.6387419823574
2.04146282700237e7,6.559710207003477,1.4514248242499403,0.03547918371305751,-6.130106066826224
2.04146282700237e7,3.752860427825898,2.4254445058309306,-0.009511592000737193,2.203947606703424
2.04146282700237e7,9.373604567818768,2.104588082932532,-0.015690204575830476,8.949369843519243
2.04146282700237e7,8.227422452432084,1.1026297795222788,-0.009743972488462984,-7.945494825289005
2.04146282700237e7,19.888030458254832,4.378339392568918,0.006495682514748393,-19.313729641414675
2.04146282700237e7,52.780371555926116,7.038409526439865,-0.026084393097200686,-52.27699329253521
2.04146282700237e7,9.768087429208878,2.736072885650881,0.02691738475106945,-9.197010809337602
2.04146282700237e7,3.8322022951478933,2.5683030773507705,-0.02223023052821246,-2.1783926951442907
2.04146282700237e7,8.085257524242618,5.340979575593193,0.02341300100739732,5.788011180137965
2.04146282700237e7,5.773287190043548,2.8495307310489815,-0.026484721168164447,4.676175075280331
2.04146282700237e7,12.102180170054988,3.86454641905682,-0.03179745435519499,11.321807715595767
2.04146282700237e7,3.0093483055912156,2.3869660081963877,0.00713893883908571,-0.12171573124282986
2.04146282700237e7,12.029127567609795,1.2450923575996191,-0.010850592424912804,11.823951645161653
2.04146282700237e7,24.608205412965056,2.5266787192144418,0.034913606041675475,-24.409726432720724
2.04146282700237e7,5.511708202156753,1.693792765403772,0.02100858961117576,-4.915877052607237
2.04146282700237e7,5.005833942983052,1.3631503336920685,-0.03919048344239579,-4.45588980138468
2.04146282700237e7,2.217742563011256,1.141460721366185,0.025611300608587108,0.5206618309911536
2.04146282700237e7,11.218951063517162,2.1008386544309254,0.014126554582695273,-10.86772448756856
2.04146282700237e7,5.618944543996653,1.1803658559615988,-0.039617337616926575,-5.180154426728026
2.04146282700237e7,18.545089480251022,2.0034052921398353,0.02582682845518603,-18.345635427111134
2.04146282700237e7,8.562049580368502,2.3223208495298726,-0.00719446737084404,8.035655686486733
2.04146282700237e7,3.163968973024597,0.7341676977975129,0.002007761946391598,2.475477450162895
2.04146282700237e7,21.783775842105403,2.2296704918799874,0.024217333701518462,-21.592062618959847
2.04146282700237e7,4.736919999997804,0.9162320562816527,-0.0165632258817385,4.272581274659323
2.04146282700237e7,21.918893853110486,2.1426704021711362,0.02692342402681112,-21.737121281449003
2.04146282700237e7,10.45060658876551,1.219068104576092,0.0014474021559341516,-10.216914608539179
2.04146282700237e7,7.853916761962879,2.812435840667946,0.029006620196494297,-7.101384861106505
2.04146282700237e7,4.55652174430796,0.5491771919683153,0.008997823203996065,4.13721029692118
2.04146282700237e7,10.758336858856412,4.317079300750662,-0.00600404197777792,-9.683021089243717
2.04146282700237e7,10.13332473492364,2.399325424829184,-0.004756565946185642,-9.673871006368856
2.04146282700237e7,3.4710261933983095,0.6170662556834474,-0.015126886548251872,-2.885016192720125
2.04146282700237e7,10.378122920514167,1.3577407800347747,0.04048689358862205,-10.125049694820248
2.04146282700237e7,2.400162690969268,0.4484691908832846,-0.015710400296125436,-1.488524334658949
2.04146282700237e7,16.412980700338615,3.1984505101176204,0.0274501725248503,15.994104897606631
2.04146282700237e7,7.153802410039694,2.0680286394562133,0.0054529805954160624,-6.599728169923458
2.04146282700237e7,3.8266492216265084,1.3411578924853134,-0.02685685785611205,3.0822254404221017
2.04146282700237e7,2.6161416405738485,1.8493641751232628,0.02430832035447089,0.2824066579891928
2.04146282700237e7,5.036271924501575,4.598219500473147,0.019274644718755868,0.9361281934982263
2.04146282700237e7,20.622971763733343,5.100840792969547,0.006343204944939104,19.89835778449748
2.04146282700237e7,3.3942668617481746,2.279831553509127,-0.031976663015599496,1.7258876826167884
2.04146282700237e7,7.414664861863919,3.061227644233695,0.008550129579751568,6.500950884510902
2.04146282700237e7,6.031493636548373,1.7629353564993098,-0.020455532187871644,5.470543955707794
2.04146282700237e7,6.7291155630793735,1.7122992027175554,-0.028830162694235866,-6.245357612416512
2.04146282700237e7,4.508871546654325,0.4233899982773326,0.03356545259933914,-4.099491685267759
2.04146282700237e7,6.967123974099349,5.738383549604114,0.01289122234406667,-3.5025561677279704
2.04146282700237e7,11.488853623655483,2.386067354366817,-0.02790644988904891,11.088550697898317
2.04146282700237e7,1.900002933907183,0.1310528794392766,-0.030367028211284078,0.4982061007697439
2.04146282700237e7,8.154260068398969,1.8641902592070625,-0.03709703281346022,7.724744069179244
2.04146282700237e7,4.991432427624484,1.5727492794748397,0.00647435245252054,-4.370024101742796
2.04146282700237e7,2.681243914267977,1.3327521622764693,-0.018646320493884184,1.4383282309954486
2.04146282700237e7,3.045290818355453,2.1579093927854798,-0.03419126771960729,-1.1279846460390985
2.04146282700237e7,3.6362984004501593,1.1442313823267762,0.013413511845187723,2.927373543317444
2.04146282700237e7,3.9759017653211255,0.9763120821779068,0.007399605333702384,-3.392764358914127
2.04146282700237e7,3.764668326428689,0.7969602653482522,-0.008361205979051546,3.1927742195943014
2.04146282700237e7,6.0379673154541535,3.4281006531244893,0.018655224036053138,-4.621809427135248
2.04146282700237e7,3.7577648658206284,3.280587320596129,0.01061442454438255,0.12135129307687477
2.04146282700237e7,3.621392370605468,2.8900881201691178,-0.01946716078522386,1.1907096929091434
2.04146282700237e7,6.905084934471628,2.4966287812387717,-0.007461210608295964,6.17278561063751
2.04146282700237e7,2.4170002076186656,1.4886419708455316,-0.0016617960763881411,-0.5311567643357337
2.04146282700237e7,2.3500838721551647,1.4321272373570952,-0.02106068643130311,0.357431690356055
2.04146282700237e7,9.113339258410516,4.5893314467014665,-0.032996565409152905,7.658080420149331
2.04146282700237e7,4.439702091142296,1.2800763935244668,0.0337437361286051,3.8376445417347793
2.04146282700237e7,2.711571269554432,1.8529579392784532,0.01046528417974677,0.7585191405396574
2.04146282700237e7,8.367301802609939,1.0676274234910068,0.01701024244399965,8.094931560910288
2.04146282700237e7,5.977909078706512,1.10947005194742,-0.014742860881658281,-5.582163647616089
2.04146282700237e7,11.191933007428597,2.2483355079320964,0.020924328346401844,-10.810190065055501
2.04146282700237e7,14.137558674135725,4.704262729240713,-0.004622354547720775,-13.205936212792544
2.04146282700237e7,3.822320393941226,1.8310609405621057,-0.009501508569802948,-2.8131039672969282
2.04146282700237e7,17.496430041811042,2.1636260086495476,-0.009951135285730611,-17.26557218458716
2.04146282700237e7,11.028179208623976,1.7822506233849145,-0.006575785040188801,10.728493431774163
2.04146282700237e7,2.4964640246894523,1.4272586793784254,-0.014749223007979904,0.9226824658181562
2.04146282700237e7,7.4129248694436205,1.2982100169505717,0.020030643841871188,-7.065550214159701
2.04146282700237e7,2.8822359586979163,1.7187650573281634,-0.0133258731791648,-1.4174795956284603
2.04146282700237e7,2.379775526667171,1.3970259538353305,0.01830749984157497,-0.6063085523758078
2.04146282700237e7,2.390272302192306,0.7035969485951059,-0.03333133674423787,1.368772157134343
2.04146282700237e7,3.0257073298332138,2.4072267458947647,-0.03585939026500232,0.1231808726432782
2.04146282700237e7,85.42336897978372,14.785173244765947,-0.01968442673426762,-84.11424687700338
2.04146282700237e7,4.8578944027636535,4.086175224675306,-0.024171121256420885,1.886271720126601
2.04146282700237e7,14.82893724627952,6.587661239160023,-0.025436079762206108,-13.158865735374421
2.04146282700237e7,5.254579454582331,4.914969433832299,-0.013024197780867663,0.3313702806304931
2.04146282700237e7,25.336452769547186,5.396724581404936,0.00874085504648778,-24.687393979863646
2.04146282700237e7,19.08954229746683,4.675521092154608,0.0043517471158807984,-18.417556946823588
2.04146282700237e7,16.822876229613865,5.843258268664833,-0.02501688569604338,-15.669115060577527
2.04146282700237e7,3.7742933859686683,1.4326348242638192,-0.03249960044663151,-2.9745734119776266
2.04146282700237e7,2.2754100149750833,0.7738715011666355,-0.03398364311915988,1.11074476435019
2.04146282700237e7,20.43448104940433,2.05393783063773,0.017006925577104846,-20.24858911367462
2.04146282700237e7,8.767339483462742,0.9835384185167747,-0.0156382494420119,-8.517919019710192
2.04146282700237e7,3.9519969791914327,1.7162248022105655,-0.018851097764966844,-3.0543071835571105
2.04146282700237e7,36.57239586043642,9.584261858930327,-0.03314820524058099,-35.246804961187756
2.04146282700237e7,3.441800402669358,1.3140651429896864,0.004400127389458579,2.6029788001966914
2.04146282700237e7,46.102094115907676,5.73322974799935,-0.040362540090458546,-45.707634204557365
2.04146282700237e7,16.90767880323152,6.098331809767937,0.02915487938476029,15.663186036941047
2.04146282700237e7,4.583377357643386,2.505142879703371,-0.03264063084857764,-3.3744387574302444
2.04146282700237e7,4.76694861130123,2.252157165049342,-0.00029219145178318814,3.7825761413258805
2.04146282700237e7,5.175557008149898,4.734134133230746,0.03940362255513111,1.014449058020481
2.04146282700237e7,7.020991490827533,1.081705276809974,0.005641857573092191,-6.6918232613718365
2.04146282700237e7,2.099103197017788,0.830225368873347,0.00007482402124366033,0.6109461896196585
2.04146282700237e7,2.075819068834876,0.9810289659175588,0.014041694293726155,0.052009508655420866
2.04146282700237e7,2.086330263517145,0.5062904578862216,0.0011516617268707398,-0.8676046323044538
2.04146282700237e7,10.76516908112864,1.5695152730616095,-0.00012096163426788151,10.491986576520324
2.04146282700237e7,10.881970727885896,8.508236948971913,0.03192981573525939,6.533181966942433
2.04146282700237e7,4.7629100283335335,3.124750291827531,-0.03577355684026695,-3.094553762330668
2.04146282700237e7,2.0653078629669177,0.8611658030791617,0.034720202999348575,-0.4230599479313591
2.04146282700237e7,2.198068413653631,0.1318153348585714,0.0040599629762967755,-1.2126038796319862
2.04146282700237e7,2.253057088781908,1.3031992271117918,0.024994530167131327,0.1833261487823206
2.04146282700237e7,22.58934694115772,2.8755954151208036,0.02063244050064659,-22.33081762324271
2.04146282700237e7,6.806918119244693,2.850850442902795,-0.010244202690075359,5.904487807948618
2.04146282700237e7,3.104104490866574,2.32882036902817,-0.0093747060973122,0.9318088202539844
2.04146282700237e7,17.357004085637573,3.0689692762228726,0.040588529742240705,-16.985336798700597
2.04146282700237e7,4.306526890691688,2.029309138931719,-0.009239609409387254,3.329307449322875
2.04146282700237e7,16.309364044880674,3.0761122274731623,-0.031062892307831637,15.911889246496091
2.04146282700237e7,4.885581018607979,1.8501574727063257,0.033371321440897946,4.135335627742544
2.04146282700237e7,8.052539414555582,4.381034140795504,-0.010156481728258776,-6.504315714172726
2.04146282700237e7,2.365165182150885,0.8532504392832221,-0.001118787780805712,-1.233800615430109
2.04146282700237e7,8.486889634825678,2.5660906959370755,0.023116042550544166,7.8802433367322795
2.04146282700237e7,5.306499465761638,1.0245743170092911,0.02952668261291702,4.874895630438396
2.04146282700237e7,12.498139785148261,1.6684819791673076,-0.005269351748651608,12.250548289437168
2.04146282700237e7,21.01699671686527,2.2123264693106943,0.010005442746039784,-20.82008543845649
2.04146282700237e7,2.5087785717828495,0.7276390814939783,0.012582584090781643,-1.5558432284446249
2.04146282700237e7,18.555062796236285,3.751713372135113,0.03764477654684288,18.079543141352133
2.04146282700237e7,10.65957699513002,1.739831940682511,-0.039630230525816705,-10.356364765771556
2.04146282700237e7,4.676127921621203,0.42703608474659654,-0.004222185209483999,-4.28253311469296
2.04146282700237e7,18.352323922327113,2.6271832868749616,-0.015553253261627174,18.07101974452736
2.04146282700237e7,101.19330923979817,10.41010941857784,-0.005320573531002979,-100.63981182250765
2.04146282700237e7,2.171570291290767,0.8885631854601512,-0.002465983546649049,-0.7631920452852765
2.04146282700237e7,7.367745571027101,2.2108632820106076,-0.03509089670797276,6.786075608200587
2.04146282700237e7,1.897313606502292,0.29094152763416953,0.03358563279116338,0.4126973925125368
2.04146282700237e7,1.8868925035770632,0.3978561184457369,-0.03850106771019195,0.23850928798640889
2.04146282700237e7,1.9588727211517825,0.7007335882736399,0.0179987522909641,0.04610861582942778
2.04146282700237e7,21.901459083816476,3.686933235330738,0.022002059328600596,21.51130503738176
2.04146282700237e7,2.1106930858511035,1.0537809260507158,0.006323574852255054,-0.028744713469374093
