1.4025497214366584e6,675.0817987122666,51.666204320681494,0.46971205910504926,673.1016300077544
1.4025497214366584e6,20.453293909579653,5.930024854660895,0.1703568498639004,19.573698688545623
1.4025497214366584e6,58.15811646779551,4.366202277586313,0.17101238039779681,57.99362213511183
1.4025497214366584e6,11.46267674896345,3.281461389418467,-0.23622936448065607,-10.979791888731597
1.4025497214366584e6,283.6235298458174,11.382108994627472,0.17406555979753227,283.3949728612844
1.4025497214366584e6,48.857143001854965,5.650161985697226,-0.25930264559762806,-48.528502128219344
1.4025497214366584e6,13.863151795547138,6.109615003462464,0.19632359240952485,-12.442174411831221
1.4025497214366584e6,78.6697649350418,14.987201059821377,-0.08951508911043429,77.22884416594334
1.4025497214366584e6,849.2037774138321,13.15045132779892,-0.21314006625621754,849.1019152256931
1.4025497214366584e6,32.46651617857715,8.134525271368213,0.5441149183498405,31.42602067030486
1.4025497214366584e6,3.2858854131928523,2.0442080122434616,-0.11975905445734984,-2.567212330857088
1.4025497214366584e6,13.43070581855272,6.561676921080737,-0.26395748676282016,11.715171618229077
1.4025497214366584e6,2.3186814397874707,1.4282879483355035,-0.20351519531186849,1.8114975994043232
1.4025497214366584e6,13.345211056709719,9.62917110386584,-0.31754683689334506,-9.23360984872642
1.4025497214366584e6,156.1431296427657,30.61063335981907,-0.048332358434708185,153.11319469191056
1.4025497214366584e6,56.5359451015414,33.44424847166959,-0.2605994508304102,45.58194911856528
1.4025497214366584e6,16.924865310704263,1.1340414801910974,0.055532895576371456,16.886343495135606
1.4025497214366584e6,28.621773636965106,11.223242828393342,0.3588850954127808,-26.326842060155922
1.4025497214366584e6,2.2376663702172515,1.08435458768857,-0.29587293777175017,-1.9314372753911346
1.4025497214366584e6,23.531349741355214,18.869088134221528,0.3076420297487053,-14.056100271626077
1.4025497214366584e6,23.858674595242412,10.651585072161163,-0.681243155766043,-21.337822322964847
1.4025497214366584e6,0.5560816280083607,0.3261713955925023,-0.021279696275342447,-0.43479995831197726
1.4025497214366584e6,111.68457488607429,19.428110217959023,-0.42917580700895924,-109.9808859475144
1.4025497214366584e6,8.690361965520163,4.870617539070497,-0.6247443695206722,7.169088867082522
1.4025497214366584e6,11.354698422027829,9.70774296181004,-0.3279269166853305,-5.879458445423196
1.4025497214366584e6,26.479092183723957,17.38922438910872,-0.21651080656957672,-19.967398075901933
1.4025497214366584e6,8.688194640671172,1.7817872656941423,0.018639109978966287,8.502721780059176
1.4025497214366584e6,5.647360276419844,5.153351075431857,0.02392783803445909,-2.30689034744028
1.4025497214366584e6,23.52952519105935,20.16538048214747,0.7074479035452805,12.102981782280255
1.4025497214366584e6,229.5030600753214,18.544356740283074,-0.6388771251479014,-228.75169926773484
1.4025497214366584e6,2.494570328688171,2.480089095525149,0.24206358495906358,-0.01045252990557477
1.4025497214366584e6,119.42739346881747,7.759474540031026,-0.637359585561283,-119.17329106477072
1.4025497214366584e6,44.544700755696745,9.346141114237714,0.19221492490314213,43.55260876160561
1.4025497214366584e6,13.360429651692755,12.814422056628954,0.4229764514750987,3.754919917311927
1.4025497214366584e6,334.7031513238604,15.231232749543114,0.6541342593657664,334.35575040404865
1.4025497214366584e6,3.647652569099918,0.41423243649142627,-0.02060673151985549,-3.622156946841443
1.4025497214366584e6,16.57632408177397,4.347969722733971,-0.3907353817829511,15.990737007628105
1.4025497214366584e6,11.41516618430246,10.41025732961743,0.541200385352095,4.650411629178622
1.4025497214366584e6,12.098979754712477,12.056684254815716,0.05719141227560231,1.0025317244352923
1.4025497214366584e6,29.20721895726239,24.40980693768937,0.370701320771394,16.033471546876363
1.4025497214366584e6,7.065005918443823,3.908475275703646,0.3676841514221673,-5.872784930777602
1.4025497214366584e6,9.064499024600881,4.015281291103062,0.180637865073524,-8.123834901912137
1.4025497214366584e6,28.665466075349084,4.9153079831387885,0.595468652019633,28.234389929018462
1.4025497214366584e6,47.20732505066044,4.59378981638232,0.5318347385106842,46.98012824805871
1.4025497214366584e6,118.36248548100396,11.473376102695962,-0.5069520471395117,-117.80394422301987
1.4025497214366584e6,52.01804250510746,7.451730947495512,-0.7071187973659031,-51.47654902756432
1.4025497214366584e6,2.2948704464090715,1.5813232962710675,-0.006795621326028724,-1.659055649916232
1.4025497214366584e6,15.007185253225263,4.002868727534894,-0.7249479338753783,-14.444852595282192
1.4025497214366584e6,1328.6293705954547,22.91011900976551,0.34487358661731715,-1328.431781682023
1.4025497214366584e6,10.145217164769758,10.126914352084498,0.576633397644359,0.15873179303790702
1.4025497214366584e6,6.951553798862151,1.8602157470274507,0.16943847789890484,6.694897536684875
1.4025497214366584e6,25.601241757647866,23.303945013161936,-0.4777428717401516,-10.588113757278734
1.4025497214366584e6,38.187999318923204,20.867284625224034,-0.6009942983573461,-31.976635142504062
1.4025497214366584e6,195.19089751052763,21.445110111956932,-0.7297170146839042,194.00785525633066
1.4025497214366584e6,337.20414277934356,25.29774654309056,-0.316586222708458,336.2536904859017
1.4025497214366584e6,57.10223662552552,9.79846988781981,0.43772071680225016,-56.253448613401424
1.4025497214366584e6,0.7308516882903906,0.5772737206264564,-0.09870889494288536,-0.4216878316078809
1.4025497214366584e6,4.343342592603355,2.470964235022705,-0.032520011440088294,-3.5699534879789447
1.4025497214366584e6,45.921468350943,9.874482807328368,0.3617555160017565,44.845642403388474
1.4025497214366584e6,748.6047755350115,11.309445630258013,0.5383970134699505,748.5191401606567
1.4025497214366584e6,100.7885679103294,10.576989347284128,-0.4699538485284091,100.23087611097834
1.4025497214366584e6,17.888745120546798,14.913740408402477,-0.4593913770053422,-9.867277913027431
1.4025497214366584e6,1.8762037641733609,1.8200244688180802,-0.17866338842114635,-0.40298352665540765
1.4025497214366584e6,42.659740301029395,7.574562778043548,-0.1377424126809146,41.981509419410045
1.4025497214366584e6,3.709765257189434,3.369505524792773,0.1794206295558703,-1.537291075576297
1.4025497214366584e6,391.11867188836516,17.14687225583197,0.3572330279399532,-390.7424462749806
1.4025497214366584e6,125.7529552739935,20.264593664911622,0.3595346001323751,-124.10886109960825
1.4025497214366584e6,60.248790498908576,5.966372118888962,-0.5678634844962382,-59.949840335190316
1.4025497214366584e6,191.5088782035437,5.128556874073952,0.5425633301432564,-191.43939151865644
1.4025497214366584e6,3.5651481916882775,2.8212364688452816,0.15144266780398558,-2.1713213408982117
1.4025497214366584e6,99.28367093406978,13.703200107637436,0.6835739036670619,98.33101755043745
1.4025497214366584e6,7.620194080798614,5.443262743826108,-0.45002372031120064,-5.312475130613432
1.4025497214366584e6,32.02628093008003,4.364256706509612,0.2319944771583848,31.726468082756668
1.4025497214366584e6,23.741873501488357,23.077723066381758,-0.1795796123792119,5.572223203210716
1.4025497214366584e6,12.531044346738588,3.316630358062533,0.027081706720834292,-12.08358253584524
1.4025497214366584e6,49.78606830798537,13.499894847512014,-0.2576844105355811,47.91999269876392
1.4025497214366584e6,9.207289798563508,1.4563919724151884,0.07943095653223986,9.090295012378675
1.4025497214366584e6,59.13478978071713,24.9982258612729,0.06135829503753429,-53.59099706284199
1.4025497214366584e6,108.38603993523807,54.38590892706058,0.10976327918270289,-93.75329956793283
1.4025497214366584e6,70.86446521007528,28.026195581877673,0.18882594486826987,-65.08652548961551
1.4025497214366584e6,24.700746649290306,24.666758966390205,-0.17342067510619205,-1.2784667486471455
1.4025497214366584e6,0.9621007679411606,0.41844859666867157,0.04013543007115827,0.8576669740569431
1.4025497214366584e6,191.64306534152826,5.20530990961046,0.17046514659622458,-191.5722496832657
1.4025497214366584e6,78.93046768777674,5.80986553054154,-0.44006774115275904,78.71503793521862
1.4025497214366584e6,5.25673243032343,4.0220613506279035,-0.4719945628919446,3.349648384519753
1.4025497214366584e6,18.379334771321737,18.06530776829199,0.24123754959381613,-3.3723984268451437
1.4025497214366584e6,12.641357579028963,11.953373920255107,-0.1812887032182959,-4.107867159614522
1.4025497214366584e6,152.60107259922137,14.079694628466342,-0.3259118048560072,-151.94976144742358
1.4025497214366584e6,455.7783539640814,10.474008476083347,0.20560666583934267,-455.65792814279087
1.4025497214366584e6,658.2432789276888,7.396844569186964,-0.08575150180043802,-658.201701802271
1.4025497214366584e6,52.521195360725045,4.312318020158473,0.5777438223706878,-52.340545968872846
1.4025497214366584e6,12.122324492406715,12.09571251246501,0.7309642506728982,0.31120091702196484
1.4025497214366584e6,7.596681921656361,1.168561728527731,-0.18179986820393168,-7.503176217101522
1.4025497214366584e6,5.197747469454585,2.3529369012426824,-0.31227752106810636,4.622706380070401
1.4025497214366584e6,54.777827439471544,9.569602392752483,0.1280198571328328,53.93517743347881
1.4025497214366584e6,1.5067302088451917,0.728458326373241,-0.4354697154921354,1.2396028990726702
1.4025497214366584e6,731.003293790538,31.23284826611773,-0.13054887309878974,-730.335740836791
1.4025497214366584e6,24.804532944957103,15.221516825483198,0.19351279089963802,19.58365384141245
1.4025497214366584e6,43.79298071522213,29.342835963769602,-0.012329099060734991,32.508608865221525
1.4025497214366584e6,3.5291031139547195,3.285278277574438,0.07037795979066318,-1.2818842389678304
1.4025497214366584e6,13.849010874848538,13.82083525918602,0.7469991912518504,0.45636826127446867
1.4025497214366584e6,6.696494880336042,2.5555088329086937,-0.2501273490195786,-6.1835685027402185
1.4025497214366584e6,2.4642633490858046,1.1589386063039893,0.15836429529328933,2.165881054434429
1.4025497214366584e6,16.08908733412052,13.063477812636217,-0.2397614704588594,-9.387942157497465
1.4025497214366584e6,3.17369198500986,1.422357624601843,0.22807544239149957,2.8255735749661106
1.4025497214366584e6,74.60173717747256,7.330077185875018,-0.1858666896434081,74.24042885618996
1.4025497214366584e6,8.733768609384914,1.8138956446254073,0.044955993896903045,8.54243176752469
1.4025497214366584e6,181.03632600462856,17.175832786935768,0.22080127054634796,-180.21953282860272
1.4025497214366584e6,27.099731970513037,25.88865982371197,0.30271525725519494,8.004235985421053
1.4025497214366584e6,84.61563405788506,5.559453232662055,-0.4481854464878586,-84.43153321720999
1.4025497214366584e6,21.30394576652726,14.67232477247374,0.19316415718021038,-15.444427585187
1.4025497214366584e6,381.89746784325246,32.950644853375906,-0.17864138020826567,380.47323913900107
1.4025497214366584e6,3.858822406600914,2.850786039866878,0.02510218730285426,-2.5979923079743727
1.4025497214366584e6,27.16171755974262,5.359084477054699,-0.3847195604737263,-26.6247585914751
1.4025497214366584e6,108.89516899488606,5.800131518776919,0.5265612245273756,-108.73925557450724
1.4025497214366584e6,16.41428253201241,14.4206173079262,0.5556085913487686,7.820002009194279
1.4025497214366584e6,28.816068203047973,27.543601030118236,-0.28620961776299747,-8.462894177679278
1.4025497214366584e6,34.136757587135904,4.284891475678538,0.13427088685229133,33.866304194065805
1.4025497214366584e6,5.508327042601767,5.476069004407863,0.2291063527084742,0.5371314344609164
1.4025497214366584e6,12.463823421500551,11.882293995066307,-0.059299624833603994,-3.7604696625777247
1.4025497214366584e6,31.49327709395722,7.9089995610632755,0.2640324623039109,-30.48263734899323
1.4025497214366584e6,50.04206736162763,18.481311307200198,0.4370122075603189,46.50210020368963
1.4025497214366584e6,2.053784136953409,0.9477164785428656,-0.07785069172552246,1.8167187065733703
1.4025497214366584e6,1.1728879839414756,0.7355460544566577,-0.019256089264727473,-0.9060531216158187
1.4025497214366584e6,12.045279112954962,3.8116214855967585,0.49166212391111674,-11.415131350403001
1.4025497214366584e6,121.81964281265904,5.402230973135062,-0.015549731292154088,121.69974403651841
1.4025497214366584e6,1.483274314273542,0.4426240609919423,0.033980235210973354,1.4105661300150585
1.4025497214366584e6,9.395597911979511,9.373369037655651,-0.46159997794190977,-0.43681037006021917
1.4025497214366584e6,5.1276825857747745,4.340382522731643,0.5334642888695029,-2.6751240982131135
1.4025497214366584e6,66.2346890592024,6.005480553821333,0.3870732687817664,65.96063278352484
1.4025497214366584e6,55.87527728551135,9.620209259767174,0.004048715631558961,-55.04075611735804
1.4025497214366584e6,3.0228947474472427,2.4664936509929056,-0.3376875868186446,-1.7108283516999698
1.4025497214366584e6,17.641906262197605,15.730845388117878,-0.05707655538128051,-7.985033940919685
1.4025497214366584e6,7.730786544515693,5.354867336591687,0.24203871012602882,5.5694289203368825
1.4025497214366584e6,129.07928776253618,13.427041161056856,-0.38254420963683555,-128.37841492907634
1.4025497214366584e6,408.87919983532083,16.283043972373832,-0.016689411852633732,-408.5548297637185
1.4025497214366584e6,94.59951157584929,2.9263954538288566,0.36373464929087473,-94.55346721286041
1.4025497214366584e6,37.87775800658653,22.611541223276383,0.17921378159942433,-30.387453041767156
1.4025497214366584e6,1.0555495449673158,0.8181337234687414,0.378882176879223,0.5366145543713308
1.4025497214366584e6,9.900744697306152,0.7717024209347763,-0.03410679607081724,9.869889689998416
1.4025497214366584e6,39.51190159333902,16.43239557394086,0.22710844751793427,35.93190545751529
1.4025497214366584e6,3.079032088398006,2.9152373371750437,0.1678919572111264,-0.9696942773601179
1.4025497214366584e6,30.980198337100703,7.608806856221529,-0.3255547143939381,-30.029309452437722
1.4025497214366584e6,6.227846825021965,5.499965901854386,0.007730555907572678,2.9194273795380807
1.4025497214366584e6,13.174988453141644,5.071775627388613,-0.06443912785554391,-12.158944245129174
1.4025497214366584e6,62.1025103136596,9.643715981300751,-0.06831941657758966,-61.34902221404215
1.4025497214366584e6,222.28845740667333,18.576682754777945,0.3379414836972013,221.51058126972592
1.4025497214366584e6,30.271655894740505,14.864053734976466,0.6269612477456611,-26.3633579348051
1.4025497214366584e6,276.622513900161,10.55091784418944,-0.1853768196284665,276.4211381739034
1.4025497214366584e6,78.188011568537,23.331000547429976,-0.06609122696679179,74.6258123123543
1.4025497214366584e6,0.5758595921477361,0.27075000259281645,0.14399290047005422,-0.4735394197897036
1.4025497214366584e6,373.5480242291164,4.9764286078398925,0.10824550500723698,-373.51484108604006
1.4025497214366584e6,0.5779050071809091,0.07849337363767961,0.1966098646357705,-0.5251879475612957
1.4025497214366584e6,6.608650093181115,4.504611732552308,-0.05205109363346873,-4.833909877958255
1.4025497214366584e6,147.49205824218433,25.574975215041093,0.060778508346742095,145.25773940850922
1.4025497214366584e6,13.563043564960207,13.526713957531282,0.07447959527793185,-0.9824855609830503
1.4025497214366584e6,11.409241422663364,2.9234217555118533,0.29813260610535475,-11.023709759455313
1.4025497214366584e6,47.191610704160496,1.928278762856694,0.558655534230027,47.14874792283822
1.4025497214366584e6,57.977491144641164,4.542726748421936,-0.10307308407053915,57.799041115635944
1.4025497214366584e6,25.854645699791096,18.7136277026629,-0.49137364333636574,17.83278046862025
1.4025497214366584e6,16.08469600781657,16.001059171476143,-0.1494244589745738,-1.627233301455471
1.4025497214366584e6,14.023317154230309,7.315394227346429,0.053420264553535796,11.963370863326425
1.4025497214366584e6,203.41116655073233,21.11173573144768,-0.22394858577249233,-202.31246576471187
1.4025497214366584e6,40.628433470324616,9.481123473694812,0.3098090430283972,-39.5052982157776
1.4025497214366584e6,15.069449442266496,1.1109317340994895,0.10338523830499276,-15.027644975152093
1.4025497214366584e6,44.118057745878794,17.10845140493608,0.7654814070141436,40.65838920617329
1.4025497214366584e6,64.73525246066171,23.83939737266779,-0.7266554503016918,-60.18134827952687
1.4025497214366584e6,26.785537740136093,3.7702001058726764,0.15159707015187654,-26.518188217707674
1.4025497214366584e6,125.42414133582916,12.897007718137601,0.259834001691392,124.75897391719533
1.4025497214366584e6,99.3823934304303,18.906649792321552,0.27789122404145034,-97.56694193675673
1.4025497214366584e6,310.83206803205826,13.707278379606333,-0.12652830258229794,310.5296373809274
1.4025497214366584e6,6.225627380545298,6.211989422325297,-0.354043347385235,-0.17590292209682631
1.4025497214366584e6,9.061341952783026,8.350361872943468,-0.4141044448523496,3.4920705772402867
1.4025497214366584e6,73.90097448973893,8.3355936946547,-0.3745176025301392,73.4283208965559
1.4025497214366584e6,22.921061020789608,3.064101457186517,0.47226507397737333,-22.710128821965
1.4025497214366584e6,3.188554373200397,2.812061777350669,0.22233869447309473,1.4820316756651222
1.4025497214366584e6,17.861507464227465,13.634168394193333,-0.35959345599236625,11.532573800819858
1.4025497214366584e6,14.323435721321852,9.119384591423819,-0.540392158815259,-11.03142224206597
1.4025497214366584e6,383.6253837844532,6.100255185228093,-0.1254961908517876,-383.57684091454433
1.4025497214366584e6,9.095462631400363,8.63176302117659,-0.4215773526611971,2.833556950669584
1.4025497214366584e6,43.520154380519365,28.490883441332905,-0.5648602941471722,-32.89287150305113
1.4025497214366584e6,9.388401779916958,7.008448537313356,-0.35301434699344514,-6.235846597159913
1.4025497214366584e6,45.052192253678434,29.23717632324518,-0.015037248964349777,-34.276434852804265
1.4025497214366584e6,8.303245044154124,2.4634818846022917,0.25876633071564104,7.9243195345159165
1.4025497214366584e6,13.761396441456114,1.5690719929445551,-0.20110082451262895,13.669684282739475
1.4025497214366584e6,12.218878054685447,6.83742841003329,0.41548968731220043,-10.11753857438638
1.4025497214366584e6,14.03156226849663,13.256440930935433,0.6099204314104063,-4.556991928693986
1.4025497214366584e6,1.62569791736115,1.1883351217146605,0.1458453891201533,1.0936851973946502
1.4025497214366584e6,10.484903724783463,5.482368057065726,0.2471092718503026,8.933221616199003
1.4025497214366584e6,14.536058706447125,14.46019421155911,-0.22729465269338447,-1.4610913912697572
1.4025497214366584e6,33.52803204133775,19.57209493116252,-0.5809449174320422,-27.21601000155899
1.4025497214366584e6,73.94786908271308,11.723972274319276,-0.09638831083300128,-73.01241805412363
1.4025497214366584e6,472.16838056925235,17.704639201638702,-0.06436876370630436,-471.83631471265954
1.4025497214366584e6,803.5265160175093,10.465247504030575,0.12321693762004104,-803.4583449192208
1.4025497214366584e6,16.53911071078214,10.905130195168168,0.5971738677563146,12.419757112485124
1.4025497214366584e6,15.043380212995046,9.52906197625342,-0.09962940976486663,-11.63945896069393
1.4025497214366584e6,60.175912809118685,6.651732752837956,-0.45457762211259617,59.805308776165234
1.4025497214366584e6,161.29337747316117,27.650067222857814,-0.6179345186778903,-158.904475144765
1.4025497214366584e6,23.563850907270087,14.8106522943686,0.2421402706456611,-18.32560179410802
1.4025497214366584e6,62.2719758071047,11.525407163262416,0.27235051185302356,-61.195395665620644
1.4025497214366584e6,3.4674289119489368,2.229270550980701,0.11175529885640778,2.650960515481719
1.4025497214366584e6,21.772772993134705,18.520963062508887,0.4896186002284533,11.435668301659673
1.4025497214366584e6,13.88787534096014,12.88120825153414,-0.1502067502130834,5.187644767171694
1.4025497214366584e6,31.69084959598779,11.630004948756548,0.6278743394357228,29.472790360819445
1.4025497214366584e6,195.94087141677198,9.575559919945004,0.435075347558085,195.7062367888591
1.4025497214366584e6,681.4671896652428,4.2830659550881665,-0.1823210367101349,681.4536956830887
1.4025497214366584e6,466.523495147199,30.71866730500131,0.43846986026165274,-465.5108263105987
1.4025497214366584e6,195.73307136833887,23.013349733896884,-0.12518212015247168,-194.37538927440607
1.4025497214366584e6,55.95101039541798,3.2911418624874993,0.06931123387090586,-55.853968617221184
1.4025497214366584e6,2.15320488803639,2.083549891222529,0.34117531471200485,-0.4066637146310878
1.4025497214366584e6,17.256263906064753,4.392368152953436,0.4893085685575213,-16.680317381900313
1.4025497214366584e6,24.873853501709092,1.3763978957621563,0.04336429466192129,-24.835436400967296
1.4025497214366584e6,3.5365699936392776,3.210932394277893,-0.18481526343720353,-1.4662021106256775
1.4025497214366584e6,128.8329422935742,18.313658424078803,-0.19177860094745983,-127.5244557759229
1.4025497214366584e6,4.535648156130055,2.4826478900360556,0.30113238974911016,3.7821353447048267
1.4025497214366584e6,233.50144374102305,5.409622226258217,0.6643876566940122,-233.43779786140988
1.4025497214366584e6,27.26638314197255,19.583689617907535,-0.6594329118291341,-18.9601308977712
1.4025497214366584e6,89.75037648165815,22.91525254065165,0.14080059810651624,-86.77550414500988
1.4025497214366584e6,5.962660462042539,3.693423933712517,-0.14703856592870349,4.677283818962724
1.4025497214366584e6,805.0291687005821,25.12812922211818,-0.6809468675956377,804.6366027945421
1.4025497214366584e6,231.19803932804547,14.593816410135375,-0.15051785008071228,-230.73690194879546
1.4025497214366584e6,30.574212230024887,28.659479098283626,0.0646733179853096,-10.648905741676185
1.4025497214366584e6,0.8961525693647907,0.8758104621588372,0.12677986690455506,0.08146875975429402
1.4025497214366584e6,37.445085351877054,35.565826557055615,0.42378434430351797,-11.705275305768543
1.4025497214366584e6,3.2898978585578993,-0.41064570049513704,0.534022622988818,-3.2181178813183418
1.4025497214366584e6,90.62310309665024,6.693584441069449,0.6718376578457049,-90.37299398155062
1.4025497214366584e6,231.97905142644112,6.29262500378028,-0.15452913283804498,-231.89360913326578
1.4025497214366584e6,11.893753135035915,2.488921150140668,-0.3532871050145319,-11.624477975311649
1.4025497214366584e6,8.686454636785484,6.819929496831443,-0.263653048585432,5.372169740120663
1.4025497214366584e6,30.58590836727612,25.029680190825914,0.5634088671149908,17.56935216439014
1.4025497214366584e6,8.010640813550706,2.800053370288024,0.24279241099591303,7.500518918311039
1.4025497214366584e6,16.853329340797536,2.8652519136412997,-0.04788916432181263,-16.607510734610976
1.4025497214366584e6,3.577868355626619,0.9000863800778385,-0.5667568068318718,-3.41415260819115
1.4025497214366584e6,23.574216550108783,23.440397786625617,0.3599074324968141,2.4796308248869354
1.4025497214366584e6,86.44671955573926,3.0933109528951226,-0.32653104871943434,86.39066379883346
1.4025497214366584e6,12.435487312358394,5.519709393727052,0.40401214958067105,-11.135420599112331
1.4025497214366584e6,283.2085814314312,2.955261163934365,0.6616753912684535,-283.19236550155205
1.4025497214366584e6,297.9450941483278,33.92138914417493,0.36403838733494503,-296.00755501586343
1.4025497214366584e6,12.196606086676312,0.9418439691141565,0.05989212261296771,-12.159490439017489
1.4025497214366584e6,23.35243538203077,12.393883297998604,0.006699267172062213,-19.791778975596138
1.4025497214366584e6,25.834976974829402,25.637772155819448,0.08491369937312726,-3.182786306277777
1.4025497214366584e6,26.21218855431485,7.217224755283702,-0.29114623259819267,25.19707114609621
1.4025497214366584e6,37.541327648072176,0.25127592691247774,-0.3407468659931876,-37.53876261137671
1.4025497214366584e6,1.7716793320260917,0.9916511774569379,-0.18407670010438937,-1.451983539084161
1.4025497214366584e6,23.41794018899835,2.1875606245901933,0.034545369716572114,-23.315230486919774
1.4025497214366584e6,18.976336354922587,4.468143880931709,-0.09359857101519276,-18.442205287152323
1.4025497214366584e6,401.59212601239847,34.72448113377621,0.6059642285994904,-400.0875723605188
1.4025497214366584e6,60.88940856406695,16.86529552215186,-0.11960989386274092,58.50687344694775
1.4025497214366584e6,31.6588849142561,8.853664257831793,-0.41745283413831996,30.392598131559758
1.4025497214366584e6,0.8773427350114908,0.8136526475262449,-0.07093186119581932,-0.29888651096071595
1.4025497214366584e6,449.5064101763318,8.060987648368268,-0.22823181371964943,-449.43405282957394
1.4025497214366584e6,647.2381279365753,11.170624105942432,0.07463619228475078,647.1417097562147
1.4025497214366584e6,25.113993420491365,14.104810388784664,-0.2263564906008159,-20.777449722995232
1.4025497214366584e6,16.087791375956186,13.362908249531827,0.045203650948408225,-8.957362107916676
1.4025497214366584e6,15.715591595975184,2.1409952084135737,-0.17237552712022405,15.567688018398961
1.4025497214366584e6,132.25340024638302,31.070093226637034,0.41203107101792147,-128.55126634477818
1.4025497214366584e6,92.5106978665307,21.06096875705394,0.46886964373665596,-90.08014010233123
1.4025497214366584e6,509.73289602735184,8.799355286676459,-0.7598135897985505,-509.6563606854232
1.4025497214366584e6,48.73253119066214,8.381704036041999,0.46873608555935986,-48.00389135283373
1.4025497214366584e6,18.435830784754913,1.9937448122406192,0.15785152713326642,18.32666325534136
1.4025497214366584e6,140.82902813054983,9.670053328403592,-0.5282749733523358,-140.49559716661963
1.4025497214366584e6,61.33444941379835,41.41316491722326,-0.3818822771366977,45.240527043687095
1.4025497214366584e6,13.683342629971897,9.085438695570478,-0.1728463118191662,-10.229636270280743
1.4025497214366584e6,4.217622801547501,1.9150459097034087,0.25279909941227785,-3.747492322435628
1.4025497214366584e6,3.999472843593933,3.9413418590078217,-0.27328851014649175,-0.611216490955548
1.4025497214366584e6,180.61885295688472,18.03204554378114,0.25002043687661696,-179.71627508820788
1.4025497214366584e6,23.281981985582963,23.259799056278645,0.2187727011386902,0.9855132547566922
1.4025497214366584e6,263.3491371546181,16.90864798826464,0.5547150137025454,-262.80514572469065
1.4025497214366584e6,12.205125157503952,7.675781789030573,0.5421454038158504,9.473130276215977
1.4025497214366584e6,13.343711111219847,13.129505389613477,-0.5650047195161373,2.310443451427287
1.4025497214366584e6,2.4838775513795053,2.1960556662645363,-0.035457755395122664,1.1542940613261459
1.4025497214366584e6,16.614015936823705,1.251567113728365,0.2517542931067064,16.564491839965598
1.4025497214366584e6,6.5827655223716715,2.6505426226357276,-0.2767239982606032,6.018098901515254
1.4025497214366584e6,172.81581507950776,23.165661121285392,0.3120993564918389,-171.25579507050725
1.4025497214366584e6,0.5198317860008261,0.41190880784874917,-0.020460283705808494,-0.2946225179108142
1.4025497214366584e6,0.2512627651607726,0.22070690152198758,0.004529088819775746,-0.03264597444195205
1.4025497214366584e6,30.567935895894063,23.37353577162803,0.2295394860233862,-19.697982305906006
1.4025497214366584e6,44.843724017950265,7.24957235405159,0.11897212427924204,-44.25353991430086
1.4025497214366584e6,1.1709806866275345,0.6503181496439581,-0.036118006490616,-0.966251723838822
1.4025497214366584e6,72.45592276217494,40.15245696836329,0.09317451409588384,60.31267632980179
1.4025497214366584e6,193.42214274341026,18.187483339848168,0.671066239112678,192.56395583844127
1.4025497214366584e6,932.34598840496,17.332026584842406,-0.4357503254740278,932.1847669511501
1.4025497214366584e6,32.57366022918839,21.92041657268738,0.02313558805468804,24.094082418356244
1.4025497214366584e6,90.25946230991093,6.67368979344708,0.34435790008161354,-90.01166859626167
1.4025497214366584e6,14.651137182262755,6.227867372502225,-0.1020090810776414,-13.260684284866226
1.4025497214366584e6,35.899134817656794,8.28607529425136,0.35313073855365296,34.92779409563822
1.4025497214366584e6,29.911192153643164,11.332670762985,0.20830910149440118,-27.68019619835994
1.4025497214366584e6,44.32370173645644,13.370443636429894,0.4162181134589236,-42.25677697010205
1.4025497214366584e6,108.71460387891324,5.895004493716799,0.046813933451365246,-108.5545876131232
1.4025497214366584e6,77.10158688736259,24.80118111414383,0.10298473571859253,-73.00364494234984
1.4025497214366584e6,54.83987077404658,29.006671641492407,-0.2468300858447291,-46.53976973016741
1.4025497214366584e6,26.99565157036415,13.285372401336272,-0.3255159471144216,23.497761341583306
1.4025497214366584e6,10.750150055471092,5.2903640443486335,-0.27644905243475887,9.35350283296756
1.4025497214366584e6,362.1976035041191,14.593005262990197,-0.07478092285723277,361.9034805775796
1.4025497214366584e6,39.07855749279971,8.213507897781305,0.6483569070311199,38.19997698800035
1.4025497214366584e6,65.20876120893728,21.487120059214515,0.033355912999956626,61.56680730864391
1.4025497214366584e6,141.83235434514683,24.008793113146325,0.14968522997919068,-139.78540285559455
1.4025497214366584e6,157.80858650754544,22.734987662670367,0.4534652806689597,156.16161931011865
1.4025497214366584e6,134.36588416206067,10.774439382648978,0.29536573390692794,133.9328253512061
1.4025497214366584e6,4.91486961047458,4.0847002898642835,0.0936043569940845,2.7292984237376654
1.4025497214366584e6,252.91463454214787,16.841446856894247,0.3278827871594337,252.35304078030055
1.4025497214366584e6,89.949314025506,14.908898281296292,0.3826092500083818,88.70425086031884
1.4025497214366584e6,99.04840935969324,8.131500958905693,-0.08242125964965807,98.71396031164062
1.4025497214366584e6,14.670064205238853,6.422043592148549,-0.08275020400075093,13.188933130531368
1.4025497214366584e6,133.15418682634987,10.892278260560058,0.5587396129589458,132.70670751155515
1.4025497214366584e6,12.523817473556534,2.687920941782261,0.7809181513608677,12.206470283996083
1.4025497214366584e6,18.68089605586019,13.819741276710289,-0.0252272145867897,12.568876517565236
1.4025497214366584e6,144.55911236653301,6.0448323355324085,0.8047437945958993,144.43038469273628
1.4025497214366584e6,16.1679370677555,13.538721939453902,-0.7674472325117546,8.803572391357832
1.4025497214366584e6,27.365321071387697,2.7912998816675465,-0.300889306712755,27.220682812291106
1.4025497214366584e6,35.713293661165096,3.639597422799022,-0.09267504543781563,-35.52704252954414
1.4025497214366584e6,2.7768472558763264,1.4504233507786424,0.1262343637936633,2.361754115672831
1.4025497214366584e6,2.2745851321651536,0.4296397165021286,-0.028839510305123467,-2.230466397781445
1.4025497214366584e6,10.674561529544992,9.966300704943158,0.03690595098912149,-3.821572567541925
1.4025497214366584e6,13.820758974669845,13.671708735814855,-0.731225511311058,1.884073502304176
1.4025497214366584e6,0.25860169316695636,0.2193637669082038,-0.05303653252409497,-0.05105224001433184
1.4025497214366584e6,903.8109860336194,44.393380606007085,0.2280327308323084,902.7200346172333
1.4025497214366584e6,712.4501184110104,45.780188882788195,0.11120863149997637,710.9777210484101
1.4025497214366584e6,3.3087429551308603,0.9356808458150407,-0.18366158424331253,-3.166261920923805
1.4025497214366584e6,14.93848507196125,3.1508583174561604,0.14111441093684235,14.601273220615674
1.4025497214366584e6,104.45605498920675,16.96783006353417,0.1670626079241015,103.06851566681146
1.4025497214366584e6,0.9519860622053333,0.5048057997055689,0.4274324461184485,0.6748443544537047
1.4025497214366584e6,10.921477308924896,1.7302399247678588,0.04004012228621968,-10.782856673081765
1.4025497214366584e6,19.483132289884843,19.163627558052127,0.3684602648594179,-3.4926672481291487
1.4025497214366584e6,48.53359985012413,9.451522191865472,0.2886492872762565,-47.60338631955835
1.4025497214366584e6,6.28711934047808,6.0344069526630335,0.0953196692252045,1.7582324428926794
1.4025497214366584e6,20.31848537878363,16.09836336087114,0.17274135026133375,-12.395175289064362
1.4025497214366584e6,41.4362891513517,0.7129557915757412,-0.01545801834325943,41.42999129320292
1.4025497214366584e6,20.794379793432967,1.498637879816549,0.34022728307442357,-20.737194258772774
1.4025497214366584e6,5.347594326783605,4.977048353923076,-0.4255005256825584,1.9056150977360764
1.4025497214366584e6,1.0748030248120137,0.8823028815859653,-0.23194890348837546,0.556424033428371
1.4025497214366584e6,12.11893412439345,10.207549826588323,-0.7631878210796521,-6.486809695865634
1.4025497214366584e6,101.78844180521847,27.979474632769737,0.3339994844626331,-97.86680230591188
1.4025497214366584e6,92.32991975101466,10.285347047465436,0.32249303527442097,-91.75460958674347
1.4025497214366584e6,181.62643550663105,35.726422892062104,-0.3005544218263752,-178.07773896265923
1.4025497214366584e6,2.4477620214897557,0.8791091088950934,0.1505743614189856,2.276554036631803
1.4025497214366584e6,45.87618067078207,17.926548792168454,-0.6592574723234701,42.22339216307643
1.4025497214366584e6,257.7084791491761,7.522862303629254,0.25873815209371553,257.5984986127484
1.4025497214366584e6,34.284616221360054,13.836727129152226,-0.5087271507578687,-31.364115694802006
1.4025497214366584e6,34.958661310330264,8.81315434330567,0.04482545917707371,33.82929154802357
1.4025497214366584e6,11.051393018921116,8.105891674220747,0.02668113692565596,-7.51090945045309
1.4025497214366584e6,979.7116295926947,52.14931869024743,-0.18177130609021463,978.3226867160654
1.4025497214366584e6,0.4637243524570134,0.28629587021981107,-0.24361614441630788,0.24574571298903614
1.4025497214366584e6,27.594420556925698,12.598396497729057,-0.5930322315202767,-24.54317479794303
1.4025497214366584e6,0.21630043105079544,0.034957083991088655,-0.017308629333890196,0.17868721727695913
1.4025497214366584e6,112.55371106764107,10.3445800290536,0.4008759819008237,-112.07655197408234
1.4025497214366584e6,2.5244880737343,2.501193634499267,0.21971516742012812,-0.23550056027238686
1.4025497214366584e6,10.696143441238215,10.644243460257613,0.3505591239629027,-0.9855652218035499
1.4025497214366584e6,36.310791013661365,26.175166813405088,0.13510332533624325,25.16550413266556
1.4025497214366584e6,45.288651743867035,23.547381460602985,-0.5850908654612813,38.68109533915491
1.4025497214366584e6,36.81891676798068,3.694229189983071,-0.1973061474902045,-36.63240420413388
1.4025497214366584e6,229.55888687568677,5.189294073545785,-0.1397692675317158,229.500154466192
1.4025497214366584e6,26.925351453745396,16.72598339159603,-0.06709050706299297,-21.099720239546805
1.4025497214366584e6,44.346558118278764,5.342520735945546,0.07538922203533009,44.02335369347257
1.4025497214366584e6,362.0093152242442,12.365822654494131,0.5085448897691055,-361.7976765902878
1.4025497214366584e6,6.1184283484302044,4.45167855856184,-0.3459980734663618,4.1814678799183325
1.4025497214366584e6,0.8842657265576577,0.7179087220299634,-0.11095612736647649,-0.4908019063875786
1.4025497214366584e6,2.3161467396781537,1.7903853969114123,0.2372421764017823,1.445488440458881
1.4025497214366584e6,7.516001443426919,6.133777422067714,-0.08260793920445064,4.34130084122539
1.4025497214366584e6,0.39008664779295077,0.35110868025572683,0.10387046127342604,-0.06903655717277024
1.4025497214366584e6,39.65004232687154,12.618393833982891,0.27040048946862416,37.58743861957102
1.4025497214366584e6,226.18690239307173,12.701876846845837,0.18070636373972704,225.82987213560153
1.4025497214366584e6,21.04839450496607,20.361926635352688,-0.2711164663749589,-5.32353412935212
1.4025497214366584e6,46.736952299362656,2.375906109512819,-0.41630802136731226,-46.674523381118206
1.4025497214366584e6,134.4494454798773,20.169532103033532,-0.40095025300371645,-132.92730821135785
1.4025497214366584e6,3.779567926005467,3.571588227009952,-0.18540463513474223,1.2170378781121518
1.4025497214366584e6,8.804260961736102,8.14853423650401,0.5910609429797935,-3.279285390458128
1.4025497214366584e6,160.53685395629103,14.244668647236235,-0.3665829150474969,-159.90316812093457
1.4025497214366584e6,18.510796256026442,6.777745267387689,0.12858707568671585,-17.22445579163558
1.4025497214366584e6,187.8447266469031,13.564633255869389,-0.03564960117573454,-187.35428323798993
1.4025497214366584e6,75.375340428298,13.463475396895294,-0.27080337023271894,-74.16259235817743
1.4025497214366584e6,17.74493838104697,3.884695169685317,-0.2979043193744654,17.311553928916705
1.4025497214366584e6,43.969876823774726,15.044803580292179,-0.38131508056526764,-41.31398330794549
1.4025497214366584e6,15.904744398263666,2.3389181329613837,0.13802141781914345,15.730796904834264
1.4025497214366584e6,81.2427769393303,21.179615243288925,-0.6933222837574938,-78.43034280176508
1.4025497214366584e6,8.316074031727474,4.748479933888836,-0.20329118277529498,-6.823075783336208
1.4025497214366584e6,13.760635536941251,4.166723284501366,0.4983340603493957,13.104649382823496
1.4025497214366584e6,44.364191052703006,15.205309262775964,-0.689577370573765,41.671227074152505
1.4025497214366584e6,24.14934918356008,20.806604341518202,0.46562141223856707,-12.249332361276295
1.4025497214366584e6,2.0279967759229107,1.8329655283436381,0.29017520115333045,0.8096119312419229
1.4025497214366584e6,46.57278984938452,16.1383621861848,-0.29354730780715166,43.68613641777045
1.4025497214366584e6,13.160933049349225,4.279251894455342,-0.2061506844204541,-12.443565754239497
1.4025497214366584e6,3.4810341623743923,1.8182504469439005,-0.29802166085390364,-2.951171305258944
1.4025497214366584e6,30.316721231372526,27.449830860460427,-0.11848266810269262,12.867905759747527
1.4025497214366584e6,1.7019422043120458,1.05164408907572,-0.11120169644194099,1.328514580633227
1.4025497214366584e6,332.71359639792604,30.222132880394238,0.051829439443888146,331.3381111353515
1.4025497214366584e6,282.32604503693415,16.870242816226366,0.11491000451222816,281.8215110207894
1.4025497214366584e6,24.9982267968954,20.59130315732695,-0.6279542418258015,14.159869899605898
1.4025497214366584e6,52.1055534086247,6.369855124683275,0.15100499549859214,51.71438391813672
1.4025497214366584e6,265.711197001492,24.79156929444369,0.565036292760512,264.55148025044923
1.4025497214366584e6,42.211244842942165,0.7260198927440253,0.02607495122472181,-42.20483469028858
1.4025497214366584e6,24.925611396088495,19.22852809750497,0.0208662977417525,-15.859887770769792
1.4025497214366584e6,83.93321126784559,19.596796834764028,-0.20352339975426473,-81.61307953145166
1.4025497214366584e6,7.484293975571395,2.157540465631527,0.08020775186883945,7.165187157359739
1.4025497214366584e6,115.6609901994139,4.362968160620919,-0.06377197223902824,-115.57859559929511
1.4025497214366584e6,7.211924719802713,5.404437378754726,0.33567062238121775,-4.762132384552783
1.4025497214366584e6,73.32194181910612,5.996110239891976,-0.32764575507712024,73.07553029028352
1.4025497214366584e6,51.77056494216656,20.093766215731048,-0.21720991669354164,-47.71133448544734
1.4025497214366584e6,30.40386469592218,10.217822917524565,-0.757334604940084,-28.625236984202047
1.4025497214366584e6,2.109231542730803,0.72138618732453,-0.528412339254337,-1.9068048932252348
1.4025497214366584e6,47.14222362356501,20.73987270100637,-0.4470175888977759,-42.332419829570256
1.4025497214366584e6,0.2832647112864448,0.19460227199340352,0.10350475888638838,0.13535305241873552
1.4025497214366584e6,271.12612266074234,9.936876265623514,-0.4195165976018285,-270.94361692017293
1.4025497214366584e6,9.432617410527769,1.03241742759052,0.09116035208775204,-9.374792802527622
1.4025497214366584e6,378.07093463256524,29.83074957330732,-0.6780958195503434,376.8916088807591
1.4025497214366584e6,46.51652390532723,13.721970501791091,-0.29640167823696845,44.44539720442951
1.4025497214366584e6,26.889322180943907,2.127072363444686,0.04461764000033017,26.804773541460676
1.4025497214366584e6,511.2178739277267,14.797813741579937,-0.21804315638931418,-511.0035992570581
1.4025497214366584e6,310.68124331406483,19.889349641928064,-0.17494114868549238,310.04387556992685
1.4025497214366584e6,67.8197971922324,2.1647264574977063,-0.41971944222243823,-67.7838428460727
1.4025497214366584e6,41.71661141606833,15.417445430966836,-0.1827229027962138,-38.76249890802593
1.4025497214366584e6,31.142884453472064,6.2249310630372525,-0.7222038585338576,-30.505648194407872
1.4025497214366584e6,44.043130224737574,5.597402741671191,-0.5119265764840341,-43.68284558671207
1.4025497214366584e6,16.935762440093207,4.141791256669416,0.27226961396369576,-16.418835181043644
1.4025497214366584e6,36.492186592554106,3.7775602524440908,0.01954784445879627,36.29595023633125
1.4025497214366584e6,164.25169552412112,5.512664257533401,-0.20103747705989328,-164.15899690268768
1.4025497214366584e6,290.5337307402479,2.9202941235651974,-0.45037478395329567,290.51868168409436
1.4025497214366584e6,100.73795562857285,26.577397072307598,-0.30233691844865185,97.168271191292
1.4025497214366584e6,45.85381755838452,3.5536391760204107,-0.25737037621413866,-45.71503755445498
1.4025497214366584e6,22.233810405175806,17.799095879309625,0.3545792266317505,-13.318988303020777
1.4025497214366584e6,262.48745734277213,26.59313591524882,0.6721695298127843,-261.13598993134093
1.4025497214366584e6,47.967676570302544,11.381329013877263,-0.6814167090642058,-46.592764261536914
1.4025497214366584e6,8.213005337757807,0.9299184132913965,0.09113499403930765,8.158864361357928
1.4025497214366584e6,21.196786070014834,6.358902106894881,0.33319908898379674,20.217411973136404
1.4025497214366584e6,8.859858132354974,4.676430620160874,0.19693964524440083,-7.521699434830227
1.4025497214366584e6,31.505310009256597,9.549585658046237,0.5192856215711721,30.01844399388061
1.4025497214366584e6,57.40321831862852,28.810539031590736,-0.4365642412139052,-49.647541636420684
1.4025497214366584e6,11.721739936502082,4.830653324031154,0.3685502912243704,-10.673088171488555
1.4025497214366584e6,557.2443853422409,28.170551707721916,-0.3792739067288562,-556.5317311960475
1.4025497214366584e6,10.92589232960411,4.6378916737486415,-0.09462278738463278,-9.891551717516249
1.4025497214366584e6,222.5674440601334,7.422566381406094,0.4560071780112125,-222.44314191734327
1.4025497214366584e6,92.81520234556064,15.749597162885902,0.3649243082698689,-91.46838508870118
1.4025497214366584e6,33.872344507409,0.7228338918689818,-0.25651198601569847,33.86346261128524
1.4025497214366584e6,222.97513423669972,17.541501845563694,-0.4148805297858359,222.28364928589298
1.4025497214366584e6,82.60898612487725,27.442746736646008,0.22638580717448542,-77.91710758508874
1.4025497214366584e6,115.19129076802835,36.29493062717215,-0.015198697324626101,-109.32382134468375
1.4025497214366584e6,2159.858814106249,14.963697005697421,0.2245851657357398,-2159.8069637980866
1.4025497214366584e6,647.3694122784614,22.505456625225108,-0.028219706681287,646.9780879166854
1.4025497214366584e6,0.41955411211979143,0.11878309843336954,0.24104395440463158,-0.3007970612957722
1.4025497214366584e6,404.1270082433315,7.1370099784581615,-0.013780080146438665,-404.0639656727807
1.4025497214366584e6,183.79386623982813,32.933457406342825,0.17157040434508913,180.819052865223
1.4025497214366584e6,35.03785506582999,16.168807125186515,0.06891172034888675,-31.083804139277106
1.4025497214366584e6,29.824249114292996,2.4395825374956566,0.13229777443871102,29.7237856674507
1.4025497214366584e6,81.22554371817391,7.584705038545471,0.4129006324268466,80.86950834332123
1.4025497214366584e6,7.137549165949509,5.130065221914761,0.19249021000554892,4.9574843686909595
1.4025497214366584e6,3.7995421629350714,3.7716487121623365,-0.4362749244132882,-0.08669291672151722
1.4025497214366584e6,16.077248937276007,1.6350688441069718,-0.11731554393864195,15.993041773247498
1.4025497214366584e6,352.05160772905106,7.820378770571876,0.14383344214601101,351.96468879316114
1.4025497214366584e6,6.003472017721282,4.910297827858589,0.28306534822021506,3.440521813539719
1.4025497214366584e6,125.50314580349345,15.865760122161682,-0.4956524607951847,124.49521378666964
1.4025497214366584e6,379.84460809643593,26.110544906991592,-0.3705720069095105,378.94592633489833
1.4025497214366584e6,6.3678661682913855,1.5261578553650388,-0.09752155097399881,6.180430091538067
1.4025497214366584e6,71.24194054807532,6.823858741534516,0.6631169045990618,70.91118378460081
1.4025497214366584e6,29.167347037317434,18.276804279015227,0.41324347217196666,-22.72682232970778
1.4025497214366584e6,23.353630696300392,18.172592535914028,-0.5166524099450798,-14.65839971967062
1.4025497214366584e6,35.2838482829795,16.009605892241154,-0.8032012612010746,-31.43221279828949
1.4025497214366584e6,127.16666922806003,20.39718143375537,-0.5058676797546414,125.51911214966184
1.4025497214366584e6,15.785526667683758,1.808580403226681,0.17035026652684992,-15.680227508535381
1.4025497214366584e6,16.72012913868175,2.8076931693417198,0.1459978246349639,-16.48165425398022
1.4025497214366584e6,74.11867956671006,13.001518675287421,0.08677643437350802,-72.96929701957357
1.4025497214366584e6,99.98086588352325,16.53245452202874,-0.10207141913212578,-98.6044001885972
1.4025497214366584e6,55.02555229793255,8.160595092371015,0.3961228389020402,-54.41549269242076
1.4025497214366584e6,90.49112050868528,18.646469498034428,0.0395294860780373,88.54906644582721
1.4025497214366584e6,94.32508065065555,5.182583895968177,0.07081870134662564,94.18250003826074
1.4025497214366584e6,171.6206480720017,12.81804817846632,0.3969903279487296,171.14080036350015
1.4025497214366584e6,672.0325717458962,41.72613204197915,-0.2464011840193022,-670.735889410658
1.4025497214366584e6,348.1294324685333,9.070020234912963,-0.3322648083047081,348.0110813590999
1.4025497214366584e6,27.36066151219626,9.936933840502764,-0.03651301936455533,25.49212576199524
1.4025497214366584e6,7.179886808747817,6.055925032826328,-0.1434843358087254,-3.8526125759167464
1.4025497214366584e6,3.1140511806503754,2.8879148808895865,-0.21737909670073147,1.1387157486748203
1.4025497214366584e6,14.082159012824345,2.566489368339293,0.3614406810834303,13.841111236105476
1.4025497214366584e6,60.94113522503551,1.8067213960350943,0.40498295689822533,60.9128916892747
1.4025497214366584e6,5.482772169258038,0.8952280645263819,-0.32411732334035764,5.398237690645114
1.4025497214366584e6,324.1709245438259,16.398376874730065,-0.4477134350699867,323.75556794128613
1.4025497214366584e6,51.524874074906364,0.8481317087842761,-0.20587033141557134,-51.517352448254485
1.4025497214366584e6,10.794247493049657,10.080785668179375,-0.38153731167661653,3.8385717871042413
1.4025497214366584e6,555.3528083163473,7.7887856229912416,0.36454530483394604,555.2980553674979
1.4025497214366584e6,30.397231151860424,5.731814297756209,0.38873758997782754,-29.84917946063718
1.4025497214366584e6,8.20216378364347,0.1753996510254212,0.12057508644641654,8.198588425831446
1.4025497214366584e6,117.57077312845203,14.016878207467002,-0.15874855481268613,-116.73206621604382
1.4025497214366584e6,7.137532910236347,5.445409120050009,0.23807296926318272,-4.606721356106244
1.4025497214366584e6,6.460082269894528,0.843072998918867,-0.06483894063270298,6.403464030943937
1.4025497214366584e6,49.731541202307795,22.086281392017636,0.10528022294865519,-44.557804541243115
1.4025497214366584e6,16.754243259315455,16.737148526066616,-0.36710537983465025,-0.6514789945315413
1.4025497214366584e6,7.792906150724013,4.8787686075857355,-0.2821400800741767,-6.069107426496902
1.4025497214366584e6,7.0163644068725715,5.897907962750232,-0.4599405427923183,-3.7708315636696828
1.4025497214366584e6,1362.7319578858533,44.29121839814347,0.38054166858557664,-1362.0119378585082
1.4025497214366584e6,442.3714215826426,33.22575319385938,0.27499751216240215,-441.1217915711586
1.4025497214366584e6,3.567262826428594,2.8769651703879244,0.43276157356976297,2.061023467394663
1.4025497214366584e6,46.93989102766357,18.64891697978532,-0.639323000228355,43.071442930355836
1.4025497214366584e6,10.102041217227836,1.6499549841883159,0.09268274970589463,9.965287755210326
1.4025497214366584e6,4.541333650381404,4.485342464875027,-0.29225929481583957,-0.6377018370563589
1.4025497214366584e6,2.1354896626428523,1.32849213518922,-0.08337956862896519,-1.665874372528168
1.4025497214366584e6,1.1938154772549876,1.1420242471751316,0.19442365660438446,-0.26427312740081477
1.4025497214366584e6,6.224347761473096,4.301039638479128,-0.4242450865183717,-4.477749883821943
1.4025497214366584e6,8.63983294631723,3.976865966355085,0.16824272905577858,-7.6674382711275335
1.4025497214366584e6,2.489708215917858,0.6852579160399932,-0.014188334018742206,-2.390717907158262
1.4025497214366584e6,48.46195339764611,4.378273068919347,-0.3008571125951154,48.26269575851431
1.4025497214366584e6,41.00808882124755,24.9741407424762,0.27829942161589133,-32.52483446859895
1.4025497214366584e6,50.148148010141156,29.781015725472916,0.21047425444582726,40.34687369085604
1.4025497214366584e6,3.5173614366280663,3.1265663652103273,0.11534177914212465,-1.6030518847854134
1.4025497214366584e6,97.6369739876964,13.49555792604086,0.6022907730386551,96.6978413223129
1.4025497214366584e6,1705.2100798779468,19.451027299505764,-0.3895221405217914,-1705.0990906664872
1.4025497214366584e6,55.4714349630409,5.707632197878835,0.4531534931029304,55.17503374077643
1.4025497214366584e6,236.18707363628593,23.893479004753818,-0.020275316934236263,234.97536395900056
1.4025497214366584e6,58.484326523322835,5.628503558083953,-0.05975673727004704,-58.21270901226934
1.4025497214366584e6,20.530155746737936,9.565810619753979,0.09928276370669864,18.164783784473336
1.4025497214366584e6,6.385191701267303,1.3266053561135047,0.15625112101917496,-6.242839234655975
1.4025497214366584e6,3.213069874416661,1.2922436496299738,0.06433265918985835,-2.9387838485251763
1.4025497214366584e6,25.300315111715047,9.022094719743261,0.4117911912623071,23.6331302299626
1.4025497214366584e6,110.11888043311662,18.270471549395005,-0.31417993782733816,108.59210677118281
1.4025497214366584e6,1.4141378543261685,1.348100148499497,0.17684515913852428,0.3712175667437187
1.4025497214366584e6,7.0949871927190244,4.4297355708026025,0.15282440624980878,-5.538916461726384
1.4025497214366584e6,12.935582772176575,2.7635259742048475,-0.008084644026871812,12.63640871908524
1.4025497214366584e6,100.9243904039783,12.34837573024441,0.7308195370067259,100.16338034868423
1.4025497214366584e6,32.239352248122316,10.225367097373102,-0.4754249686626742,-30.570873998516248
1.4025497214366584e6,135.19873189224234,8.162545120766822,-0.14927975661840284,134.9519705036116
1.4025497214366584e6,2.133632577857004,2.100548571229496,0.34054780708824456,0.10380606823223071
1.4025497214366584e6,36.826779366026585,1.5760815035085294,0.2641570363086874,-36.791908505267656
1.4025497214366584e6,26.708083650758695,26.067236227585827,-0.43085297507299947,-5.798444472144899
1.4025497214366584e6,281.31474714650597,13.170635100679082,0.4512960530534406,281.0058795289724
1.4025497214366584e6,3.343551225923756,2.441946345924967,0.14337442659546798,-2.276475664116437
1.4025497214366584e6,672.146993244919,18.579655508849886,0.16932570842304592,-671.890121167884
1.4025497214366584e6,23.96549677235794,6.035981598037699,-0.23884852839891332,-23.191411727319377
1.4025497214366584e6,27.75882102071943,15.945088645860187,-0.5824428595590778,22.7146146276546
1.4025497214366584e6,2.2811292436993753,0.07169088194247636,0.2656471333545265,-2.261527686313683
1.4025497214366584e6,40.91611194915103,4.461974318780678,0.3692027645542906,-40.67025149128246
1.4025497214366584e6,11.858918175952143,9.78210434684879,-0.6150006951638554,6.674789421978352
1.4025497214366584e6,16.50821584140851,14.209522546854986,-0.3428008315964889,8.39522552873497
1.4025497214366584e6,41.99155552914239,24.010865784704308,-0.3349500049040561,34.44769271448663
1.4025497214366584e6,171.021031586114,12.725958963052406,0.37504805226467386,170.54644299146
1.4025497214366584e6,9.433745158999994,5.065446380010184,0.4125830361206249,7.946901331086166
1.4025497214366584e6,34.400136961911,30.505376144155733,-0.11658546515541152,-15.898569808716799
1.4025497214366584e6,3.253627863579233,0.49481198963059736,-0.007221719214157355,3.2137000556779647
1.4025497214366584e6,27.181133818950244,6.192903278463164,-0.3598884778554313,26.463543409420893
1.4025497214366584e6,0.6457054948112204,0.22067515497806645,0.22466711954905788,0.5517495617708625
1.4025497214366584e6,12.371892495134409,12.32804445419736,-0.38544117520515125,0.9597623552053318
1.4025497214366584e6,51.461152882460695,14.96688793471047,-0.08472468671541898,49.23638906439817
1.4025497214366584e6,41.88954192290345,7.2335733574512755,-0.17509402557867662,-41.259727894240626
1.4025497214366584e6,28.64388706182919,18.99594398427461,0.21468443780565627,21.437512765729302
1.4025497214366584e6,66.66515103346936,4.689031406661117,0.5879736381859912,66.49734053791126
1.4025497214366584e6,23.820060335291267,18.81380420158401,0.15367102112266162,14.608185920577519
1.4025497214366584e6,102.81840031212802,33.82214254110346,0.6002320102126152,-97.0943484608642
1.4025497214366584e6,88.85282094230544,39.025597152683346,-0.31629994480679763,-79.82301156595321
1.4025497214366584e6,6.36399568304723,6.316191406040954,-0.37116363924971074,0.6745884378738649
1.4025497214366584e6,62.090066822131675,10.620238415284442,0.6296021264890111,-61.171702608094286
1.4025497214366584e6,77.71110091572235,22.486047756354353,-0.6197591598708238,-74.38410734322088
1.4025497214366584e6,6.316258908077007,1.154209582940066,0.0007453632190090146,-6.208831702378562
1.4025497214366584e6,25.24532945622459,7.582633161417127,0.17008460307662857,24.078788793292954
1.4025497214366584e6,30.731285786438768,16.9087922494588,0.29061725252886983,-25.659440313390782
1.4025497214366584e6,16.468891112560197,12.287570343584267,-0.674345690120105,-10.944035464606511
1.4025497214366584e6,59.59472182114029,6.695116634602272,0.4713626460129865,59.21546051729756
1.4025497214366584e6,3.421030363267584,2.694809142062133,-0.2493596305397584,-2.0894824814843895
1.4025497214366584e6,27.975547040196126,14.627982617711783,-0.21658762644069093,-23.8451905290299
1.4025497214366584e6,98.67538620677665,17.684526981171917,-0.7008054882139539,97.07515070813916
1.4025497214366584e6,7.817224686157733,5.559119529687573,-0.24638469541059502,5.489184936026799
1.4025497214366584e6,6.305536818752536,0.9835144628414556,0.17624959255045597,-6.224796766695869
1.4025497214366584e6,4.429747784606668,0.3177409656188779,0.07638152296244712,-4.416167660818735
1.4025497214366584e6,34.875594162737855,4.1249024697060666,-0.709666472055205,-34.623334416970366
1.4025497214366584e6,2.138570703496608,0.7809064123037053,-0.38088300427797295,-1.9507082810213108
1.4025497214366584e6,14.690682461231939,4.155238389897894,0.30097076463905453,-14.087094325311202
1.4025497214366584e6,68.05426581197008,23.833665857333145,-0.3033492192056949,-63.743502500960794
1.4025497214366584e6,6.358409293400676,0.6263345818568191,0.05482277908636372,-6.326194197808306
1.4025497214366584e6,113.36730207155183,19.77325202218264,0.24434680756123422,-111.62925531830302
1.4025497214366584e6,16.497339478818986,7.163488184059523,0.44157279543632966,14.853899326913643
1.4025497214366584e6,5.565795945509151,5.3711039656639255,-0.4840850470658764,1.3717336460838845
1.4025497214366584e6,5.678769097626802,2.6869472767910567,-0.3092945817745804,-4.99196699599538
1.4025497214366584e6,0.8826246017168486,0.061033033202712694,-0.09208456503879947,0.8680359559439452
1.4025497214366584e6,20.748253163898077,9.572061256590594,0.774659652945544,18.391634508843907
1.4025497214366584e6,166.08806460614613,11.017903838335005,0.5859021313562615,-165.7211343889142
1.4025497214366584e6,522.0972571900979,6.135204782343509,-0.5691549092415679,522.0608852952141
1.4025497214366584e6,357.8945179958662,21.043269322988053,0.4798144551362328,357.2749967050783
1.4025497214366584e6,54.42117409417488,13.829521957815922,-0.3317320925562896,52.63349818183343
1.4025497214366584e6,18.386405303102514,3.283610539150766,-0.1517002135396263,-18.08981629740508
1.4025497214366584e6,475.68382271395166,23.4135632512435,-0.21894360350082417,-475.10719103815745
1.4025497214366584e6,7.665327902170861,7.582844764443225,0.4163313841478752,-1.0349155213082117
1.4025497214366584e6,23.447273813802582,7.4447071582808615,-0.5457876496824756,22.227005315602987
1.4025497214366584e6,39.27464784306938,11.674547274256197,-0.04649655009286649,37.49916548458934
1.4025497214366584e6,122.87730430042357,28.20125655767601,-0.3875042480650624,119.59664521213074
1.4025497214366584e6,2.6055407583513883,1.3157038171949473,-0.040635122276563324,-2.245613441178733
1.4025497214366584e6,19.999514668232003,5.717099860695129,0.4831670298940068,-19.158511701079647
1.4025497214366584e6,219.51362865799342,14.898873528045806,0.2999678912212199,-219.00719946679942
1.4025497214366584e6,110.58436247866729,14.283278817782378,0.12178469613833283,109.6579272298454
1.4025497214366584e6,2.350261659624956,1.6940151513178132,-0.012942100858921569,-1.6249738057427563
1.4025497214366584e6,39.04211881526374,12.150216686541691,0.38754407434933025,-37.101155648809744
1.4025497214366584e6,50.32089931803455,30.279097098363756,0.5186646606487519,40.18814301364196
1.4025497214366584e6,5.742070889787358,4.825230849157336,-0.4165171741253357,3.082483354514408
1.4025497214366584e6,140.58019030630064,17.942103545284013,-0.004796177961087287,-139.4304753945643
1.4025497214366584e6,24.230973397173845,24.230600770863752,-0.04059746596806689,0.055450291579675626
1.4025497214366584e6,3.294525023730437,3.2678770421163215,0.08364766186297502,-0.3931191546795597
1.4025497214366584e6,55.45257365040722,4.787497269368672,-0.3569853569374851,-55.24424875619246
1.4025497214366584e6,9.883091073996118,5.823363341869925,-0.3289367231982348,-7.977618318089364
1.4025497214366584e6,3.029603241414082,2.9257991471093483,-0.10649690366713004,0.7704014487176369
1.4025497214366584e6,20.21380950956102,20.210580459783696,-0.1714514131977801,-0.2963133676658302
1.4025497214366584e6,1213.6941125671678,29.480128070872418,0.33011041585243117,-1213.3359792823564
1.4025497214366584e6,38.97957532546458,26.732218149255058,0.777668663128907,-28.358027111491886
1.4025497214366584e6,17.147153893053684,3.8177495961017867,0.14743859311075422,-16.715699247901902
1.4025497214366584e6,73.46353663688438,1.9979401140232518,-0.06968559582322331,73.43623941385397
1.4025497214366584e6,88.57114438602937,7.192628201371425,0.3014393477891936,88.27802397289383
1.4025497214366584e6,160.93259751273723,19.495385876873065,0.4219398018694733,-159.74679810044267
1.4025497214366584e6,4.2003578723264035,0.9625758544991863,-0.06942651709886642,-4.0863551938358285
1.4025497214366584e6,70.32260297681792,15.9007505882131,-0.31986127188979313,68.50050345628755
1.4025497214366584e6,9.759993108873163,1.398510136015697,-0.021107695693111824,-9.658563774258132
1.4025497214366584e6,78.9951578571133,8.690927675348037,0.1995638985823044,-78.5152824620406
1.4025497214366584e6,4.155361477768068,0.952875139299461,-0.20122258011870076,4.037973784534792
1.4025497214366584e6,13.51116951920571,13.393146538572491,0.2801281619929356,-1.7559956199864761
1.4025497214366584e6,7.6601813622366866,2.823817484207431,0.10629675091099484,-7.118974585606025
1.4025497214366584e6,14.209005946442838,5.80154030824556,-0.13525207811338313,12.9694391453421
1.4025497214366584e6,36.181313361701996,11.449749130842005,0.33114851871881074,34.32007702363916
1.4025497214366584e6,18.993837918537306,10.148943395945995,-0.29356460521887856,16.05195662452488
1.4025497214366584e6,5.649207640515581,1.368129843267715,0.03951548810501191,-5.479678006537944
1.4025497214366584e6,8.519086953537162,8.08899570749434,-0.2749685836440631,-2.655945796809495
1.4025497214366584e6,22.541629714391213,13.441854888027535,0.12096302648674484,-18.094574881098325
1.4025497214366584e6,28.862577807954906,19.372053894176858,0.049416336626411365,-21.39523658430887
1.4025497214366584e6,9.958473319051313,3.59961131095702,-0.7270016016718286,-9.255923657797185
1.4025497214366584e6,64.41971787165362,36.612535130120236,-0.6762041639681623,-52.99954466567904
1.4025497214366584e6,17.518194885876113,12.223667344264094,-0.01979081991280821,-12.54812264329891
1.4025497214366584e6,21.740615995396023,6.057643677780864,-0.39746154978736187,20.87553654592542
1.4025497214366584e6,492.60469604112336,16.807539940648706,-0.28493716969638294,492.3177821677295
1.4025497214366584e6,195.17502021541608,20.47482888813003,-0.15130273496819452,194.09800017105735
1.4025497214366584e6,16.723868001873356,0.948704085221646,-0.004513136973098591,16.696537544229898
1.4025497214366584e6,101.3317786852881,21.43821698832004,-0.04952391643983934,99.03795452299653
1.4025497214366584e6,16.019029715772675,12.385376753074608,-0.07031302969527273,10.158419002412636
1.4025497214366584e6,0.36063909882897127,0.3053154129071087,-0.040637647300032116,-0.1478393431514483
1.4025497214366584e6,18.877073739637677,18.73418426471037,-0.5887368935582714,-2.2392647474732206
1.4025497214366584e6,21.946935572406687,3.6572545359863753,-0.27567297809034863,-21.638002207205822
1.4025497214366584e6,14.650659943351268,2.795694340560355,0.4815950393933927,14.372914143604412
1.4025497214366584e6,18.088606217715203,6.471975688687332,0.26389327274422303,16.88870127501584
1.4025497214366584e6,106.99943457335286,19.14454464014102,0.3585160400732098,-105.27214038205642
1.4025497214366584e6,14.2240226627485,14.186215158341065,0.5779944162810137,-0.8524713941834827
1.4025497214366584e6,0.5283462965598813,0.3502126749991812,0.02113610852045658,-0.37778166682764247
1.4025497214366584e6,1.7896078066266936,0.6780787712640906,-0.3734854773275202,-1.60937214815021
1.4025497214366584e6,79.480535211258,14.224668280293134,0.08833453541400503,78.19714286100874
1.4025497214366584e6,10.649648024866782,10.271222382711201,0.0743801545995224,-2.8103605182536984
1.4025497214366584e6,96.49998260761691,3.6126059253615646,0.5194304773402945,96.43086942732148
1.4025497214366584e6,6.8804862756628005,2.4511563003681416,0.055986164976641994,-6.427787687968304
1.4025497214366584e6,105.00778729420941,8.263129195003552,-0.23777900312303,-104.68183325825831
1.4025497214366584e6,6.453775007301322,6.0934107916289495,0.5467153620810549,2.051663694104766
1.4025497214366584e6,433.8368184696441,7.224856992055332,0.04219674107048454,-433.7766376668686
1.4025497214366584e6,31.54625395456486,2.4515905696576272,0.24450507381460362,-31.449685600098803
1.4025497214366584e6,265.13292273452913,24.117618905855977,0.6054618665554423,264.0330041052167
1.4025497214366584e6,860.3770367371052,13.550429809890177,0.3905850306339928,860.2702280706073
1.4025497214366584e6,164.36561171747897,9.569086815135414,0.13371700120123564,164.0867321796024
1.4025497214366584e6,14.744643824237993,9.777848449881414,0.2550763323314233,11.032669762618276
1.4025497214366584e6,85.53985960393842,5.985089769211397,0.23348568299492667,85.32982146227266
1.4025497214366584e6,57.48786081678122,5.106197576447238,-0.09061370588888287,57.260451810894004
1.4025497214366584e6,85.34726560083062,22.523059983704876,-0.30947093902626355,82.32106903508102
1.4025497214366584e6,36.303598268239206,4.056899398192648,0.3694334481978717,36.0741319819828
1.4025497214366584e6,52.558490777385956,4.721800929159278,-0.14894671911317975,52.34562091033344
1.4025497214366584e6,40.54006182222331,6.253882193622356,0.7616027680714225,-40.0473743972456
1.4025497214366584e6,16.6448010923787,9.72102054737593,0.3183414488459593,-13.506905140549733
1.4025497214366584e6,239.3607412673887,19.477972712303167,-0.0739508683184157,238.5668758130373
1.4025497214366584e6,2.5131208038377073,2.210264797470632,-0.16663987470125444,1.178728842193801
1.4025497214366584e6,3.43130735535102,3.2140592682907907,0.4429980290370244,1.1109053805727072
1.4025497214366584e6,16.233654877527368,13.739374511004886,-0.6251961653338354,8.623046637667288
1.4025497214366584e6,197.14441691360105,17.92494092811235,-0.34865186294284956,196.32748844631365
1.4025497214366584e6,5.726239575207777,5.312066577683196,-0.17223368170971967,2.128090396890508
1.4025497214366584e6,4.197261750238092,1.3264613256730056,0.0502706146898783,3.980156309533615
1.4025497214366584e6,23.424830454991287,21.55694716035595,-0.29794660592478994,9.160709777208453
1.4025497214366584e6,49.2077276464194,14.466695692069802,-0.4030950112304361,47.031259340152424
1.4025497214366584e6,5.955095024391636,5.438582036820352,-0.3699891601711143,-2.394734856133531
1.4025497214366584e6,108.2929643185496,4.461414607634615,-0.4218192049617705,-108.20014156177092
1.4025497214366584e6,294.74235180696985,32.04426606474427,0.4370825323980012,-292.9949053904639
1.4025497214366584e6,10.02200772653859,9.917973004179043,0.15041375024073447,-1.4277572953515165
1.4025497214366584e6,36.308305439717884,0.521511515297907,0.14686154594372294,36.304079194507864
1.4025497214366584e6,1.0257741033663854,0.9824397707431783,0.11487574751681912,0.24595325195584342
1.4025497214366584e6,21.47251020284633,19.901395902710235,-0.2781217168361839,-8.056826216139221
1.4025497214366584e6,7.955802421526148,2.210674967035753,0.03904596105034917,7.6415213540841815
1.4025497214366584e6,114.19714869388685,38.42475157751007,-0.5015547899052989,-107.53726025729213
1.4025497214366584e6,297.8420283920771,6.851868449636241,0.025297708168617976,-297.76318073313433
1.4025497214366584e6,133.57533673120372,18.15503912469805,0.1144508345868962,-132.33570456635326
1.4025497214366584e6,36.58886860814971,9.205317767986966,-0.05791277762294917,35.41173169666419
1.4025497214366584e6,12.71487744110796,12.556994137906722,0.4143667985887805,-1.950633628008005
1.4025497214366584e6,60.995341296920756,11.435693317021169,0.4560512616339011,59.911895816817236
1.4025497214366584e6,90.2553004212825,15.637647269728573,-0.6856728602729294,88.88756808217735
1.4025497214366584e6,109.5598649326135,25.808003017426184,0.019937208271652365,106.47674512138447
1.4025497214366584e6,5.848145126830105,5.794030353509142,-0.2459909232673273,-0.7457660385586902
1.4025497214366584e6,20.267254841800934,0.4693009445982783,0.009474464702234514,-20.2614893458487
1.4025497214366584e6,282.57790971416097,27.814028197890032,0.27102494824900747,-281.20556200783165
1.4025497214366584e6,42.45184721150622,7.323712726988269,-0.09118817758278887,41.815079972533866
1.4025497214366584e6,24.49974429349262,23.72392762070827,0.3728362158417739,6.104128658669644
1.4025497214366584e6,11.036791839707188,10.104635707249951,0.3363182699567182,-4.425004654190295
1.4025497214366584e6,31.73881957601015,3.2401309323259087,-0.25043325425148705,31.57179386155611
1.4025497214366584e6,101.99036970021945,11.483483034718954,0.17663095793070016,101.34160347712574
1.4025497214366584e6,4.938599242809658,4.885267166026485,0.3007936506563582,-0.6481629493148316
1.4025497214366584e6,11.092334659816947,10.44607874520409,-0.5879790364025115,-3.6824275333859418
1.4025497214366584e6,141.94041258455383,13.145145775712068,-0.7757293107450473,141.32823771658872
1.4025497214366584e6,39.75005437791174,0.7533921499984784,0.007562308893287789,-39.74274563940287
1.4025497214366584e6,12.137703214356165,3.306234819839781,-0.11633786603689583,11.677575988548003
1.4025497214366584e6,4.250536965633817,2.060162178203502,0.48482794889238773,-3.684345666086198
1.4025497214366584e6,8.66516841430738,8.245279622235607,-0.0028259195639978893,2.662172880402624
1.4025497214366584e6,17.196063087348858,4.991834161938419,0.3385891209687026,16.451692911140295
1.4025497214366584e6,598.7374550343923,12.659243350923003,0.3416874924290195,-598.603502774025
1.4025497214366584e6,11.599255294533778,4.18372548681298,-0.225974438997835,-10.815487267025789
1.4025497214366584e6,52.612561548865926,34.56685373477387,-0.08524572729468322,39.66350531167724
1.4025497214366584e6,130.83272225914814,12.145680158695702,0.41005667406719837,-130.26704182400715
1.4025497214366584e6,78.34746058880154,25.732640089571582,-0.7577484386641612,73.99708302946543
1.4025497214366584e6,398.5299537277648,10.643761818357454,0.7334265088127284,398.3871020791162
1.4025497214366584e6,20.633078297089078,6.680489490435159,0.4925532346465292,19.515097650909908
1.4025497214366584e6,111.25127562706683,13.49866965062882,-0.29415557606101234,-110.42885666184077
1.4025497214366584e6,83.38930239689907,16.802573061013163,0.053977775243793116,-81.6788408585852
1.4025497214366584e6,3.973445702931705,3.9077279323969982,-0.035304956620825126,-0.7094727282036395
1.4025497214366584e6,161.3678882062596,28.799652161275443,-0.5280550314849839,158.77620477342526
1.4025497214366584e6,161.08421446322677,6.572496389253132,-0.11506545996824911,160.94999181490982
1.4025497214366584e6,331.888447025915,15.559112070062673,-0.5934702449817569,-331.52298526461885
1.4025497214366584e6,11.980636430824312,0.8965502802568139,-0.48458968382452366,11.93665298785271
1.4025497214366584e6,92.5523737640374,11.22138751165949,0.15083533240685135,91.86939787113698
1.4025497214366584e6,10.046015137345387,3.550647360355639,0.3353903034330042,-9.390926559080919
1.4025497214366584e6,3.7360201064187715,1.0836157056556783,0.11192692743350327,3.5718007268677487
1.4025497214366584e6,39.260293218318594,6.143809103884812,-0.05547233930022022,-38.776382256915916
1.4025497214366584e6,18.037749028119258,17.32254013454783,0.608324299167588,-4.990651226739355
1.4025497214366584e6,11.282435152857193,4.947334317592398,-0.2251890286876183,-10.136724365458246
1.4025497214366584e6,25.788455248346093,17.172142482408738,-0.5424392243495251,-19.231598248174937
1.4025497214366584e6,62.61731626207845,3.7174043581606204,0.1777089855911213,62.50651394095685
1.4025497214366584e6,17.61879622742463,17.249384873380023,0.014631901001647664,3.5870813668649943
1.4025497214366584e6,679.2712159462808,10.202237915461296,0.1310423686259924,-679.1945734819915
1.4025497214366584e6,35.603034029913964,19.015546537500903,-0.5384219769810955,-30.09454748989538
1.4025497214366584e6,29.235476147462236,13.487272959217664,-0.6683876271690632,25.92964435744834
1.4025497214366584e6,45.69464687871256,27.114292984035178,0.48413649140663895,-36.777277577810736
1.4025497214366584e6,16.8884242869412,2.894551308046211,-0.7876282336028678,-16.619469131653425
1.4025497214366584e6,515.4871548803565,7.886472899933137,-0.5575306920049738,-515.4265090351895
1.4025497214366584e6,32.37412297364599,1.0215069849626903,-0.0802704919562063,32.35769743464548
1.4025497214366584e6,9.942588449450975,8.962830682912639,-0.39226347321164723,-4.284334886968532
1.4025497214366584e6,106.76420558432065,10.336622926246964,0.5012869363883233,-106.26140031436906
1.4025497214366584e6,40.25145648613932,11.401192862440324,0.17591839934467654,-38.60243862915003
1.4025497214366584e6,134.6158676079937,17.42690351069233,-0.10230583660398634,-133.48299908313876
1.4025497214366584e6,178.14445605014123,11.657800124263854,-0.1126582492222184,-177.76252948980505
1.4025497214366584e6,541.6611425621923,12.749972012749613,0.03039740926287229,-541.5110500407934
1.4025497214366584e6,58.57046692156006,16.477725947340446,-0.4764946759959393,56.20270243208213
1.4025497214366584e6,10.931178755900744,7.2769638420118135,0.5549344058011211,-8.137270972032487
1.4025497214366584e6,5.786674107967698,3.0799913422458403,0.11918699664932374,-4.896091283346352
1.4025497214366584e6,49.435029391027584,4.053052941407947,-0.32270401484390393,49.267407275969234
1.4025497214366584e6,13.807639128140124,11.317656709977168,0.13007291841630997,-7.907672903924748
1.4025497214366584e6,89.56175353457294,18.65661787678854,0.032711391274132605,87.59694001723736
1.4025497214366584e6,118.31785938052207,33.24488318534571,-0.28534367002406885,113.55086452424395
1.4025497214366584e6,26.537861563159485,23.700170681935944,-0.37317194354320865,11.93345773548428
1.4025497214366584e6,4.532472312751279,3.887925690217345,-0.00900137050369199,-2.326783810337776
1.4025497214366584e6,3.807552434008345,0.746435879445317,-0.037445742173483426,-3.7316955480731036
1.4025497214366584e6,166.05832729168537,9.15047010010112,0.4488252361480629,-165.80537440203364
1.4025497214366584e6,28.596154157180955,13.395524187531183,0.46206430448699676,-25.260109376892242
1.4025497214366584e6,47.22448140340028,9.470120728431025,-0.5438775954815951,46.26185598526809
1.4025497214366584e6,82.96240850457173,17.47056351472691,0.8357694896550732,-81.09764971655473
1.4025497214366584e6,25.748025735907973,20.910357900308632,-0.2669567359574747,15.021090530005555
1.4025497214366584e6,67.93177065550174,12.378843914903502,0.2846791526351165,66.79367717332018
1.4025497214366584e6,28.055995627240097,12.447427732738504,-0.11441639991714818,25.143070759016567
1.4025497214366584e6,28.025021206486297,18.826354897203704,0.10001856206285742,-20.75925904331124
1.4025497214366584e6,4.30110321736757,2.2615781767694356,0.06326173533561705,3.6561476749672206
1.4025497214366584e6,11.094345747102597,6.258002274086971,0.24420132808757505,-9.156906990717557
1.4025497214366584e6,5.568826191746665,2.2758641707650704,0.33573250952236744,-5.070129775822043
1.4025497214366584e6,390.20604739548094,5.2530151752964995,-0.27246485706758466,390.17057511209833
1.4025497214366584e6,15.61844836131883,13.90303753160462,-0.7792109097445481,-7.07255058657252
1.4025497214366584e6,50.43168173351458,19.079641279704845,-0.29240303709625143,-46.68214836962523
1.4025497214366584e6,70.20527584737218,8.863347478747201,0.06392200660314819,-69.64340892780301
1.4025497214366584e6,104.0732725036525,5.653488507184303,0.4699585530978104,-103.91847728440092
1.4025497214366584e6,192.79039361964328,24.712595487128198,-0.4908453115289296,-191.19929192342272
1.4025497214366584e6,157.1762014779506,33.71140848736417,0.08263691354060165,-153.51833468614564
1.4025497214366584e6,29.847038348068594,15.074971626832514,-0.21944597239985064,-25.759065140217828
1.4025497214366584e6,3.007892406691159,2.7275246673466036,0.008471417913198562,-1.2627822400717679
1.4025497214366584e6,13.57755201098012,3.3126730475149264,-0.1916393182637255,-13.165335358218183
1.4025497214366584e6,1.9838199736719329,1.7261603225489917,0.14446731726846276,-0.9600553393187894
1.4025497214366584e6,6.892294382630055,6.214110156225373,-0.037156810559757676,-2.978899297739945
1.4025497214366584e6,153.75281141097787,17.14014711102891,0.0020613871994098697,-152.79440118791723
1.4025497214366584e6,1.228832213621186,0.5863325304472118,-0.10714300009705241,1.0683763297727615
1.4025497214366584e6,9.994956451221366,8.845011059727408,-0.3631436744047123,-4.638935795887595
1.4025497214366584e6,41.799962968642866,41.79725262857572,-0.4122901563182423,-0.20798687808114336
1.4025497214366584e6,5.224812940635655,2.52973145521992,0.1477013950101872,4.567710384703998
1.4025497214366584e6,5.909219928824552,4.786503311929689,0.28624976481995185,3.451520261531124
1.4025497214366584e6,160.8492134559555,4.789663813108246,-0.3008386747425737,160.77756295851802
1.4025497214366584e6,0.3836543760921325,0.1708866427490201,0.18205726699741506,0.267410580706978
1.4025497214366584e6,60.04732735093188,24.527394870865535,0.16152724115376899,54.809205400374964
1.4025497214366584e6,6.673541943878689,6.637136289939445,-0.04526850139472632,-0.684981415641683
1.4025497214366584e6,52.46334417301428,12.228001382600471,0.39516578245351,-51.01675188444641
1.4025497214366584e6,41.00505123400701,26.192532192182295,-0.40978625856799217,31.54654060461843
1.4025497214366584e6,125.75290123647525,12.523974014143164,-0.10214466979262003,-125.12760876633786
1.4025497214366584e6,32.68136520231509,24.16149848689519,0.49024474884486086,22.000907873826456
1.4025497214366584e6,28.22556046403163,4.988165551626497,-0.2759373961026553,27.7796866671174
1.4025497214366584e6,26.669734627003027,12.181369071200026,0.24957291493144967,23.723687968307626
1.4025497214366584e6,34.05357729142965,11.57698955980622,0.3836204723934084,32.022787811809685
1.4025497214366584e6,1.156836734776718,0.4512344093553864,-0.03542875077235008,-1.0583328275534498
1.4025497214366584e6,3.3711638408031916,2.6654618534028653,-0.05010468434875651,2.060148805721429
1.4025497214366584e6,10.163881723204732,8.81692099028228,-0.22987087483504062,5.049774266918619
1.4025497214366584e6,52.258644342357,7.496143771441491,-0.6803821567886238,-51.71361022024164
1.4025497214366584e6,18.76278491305878,7.947880790319833,0.26064856583316076,-16.99388171646538
1.4025497214366584e6,66.2949013605475,14.211132876816723,-0.12119798660754154,-64.75360703962166
1.4025497214366584e6,56.072901038117884,19.444144220164453,0.41344021431636857,52.59193111492209
1.4025497214366584e6,37.59248998855418,13.06101178805975,-0.37719427279116097,35.24839945194391
1.4025497214366584e6,45.31678958898935,10.966091831447724,-0.38188967416459246,43.9681370279123
1.4025497214366584e6,239.64628787945819,21.50993538498541,-0.030421959609105438,-238.67897208064596
1.4025497214366584e6,29.81137326412881,6.193466503930178,0.4729720065204248,-29.156850153445447
1.4025497214366584e6,17.58756232535833,11.290556400665738,-0.6672478157298648,13.468003931380085
1.4025497214366584e6,32.42174751639766,3.480386888973776,0.057557349614167204,32.23414294041519
1.4025497214366584e6,70.43106452436463,10.167640305192048,0.5349301627525216,69.69113613087346
1.4025497214366584e6,14.404458163268595,13.83502096194741,-0.5277759022408399,3.9735031632503737
1.4025497214366584e6,347.4329652166806,58.31368362219867,0.5874263361130735,342.50375358059426
1.4025497214366584e6,45.97792610590081,36.64721807213841,0.5923659619525818,27.759446391659935
1.4025497214366584e6,30.79062042937262,7.234925303093992,0.4486851382390974,-29.924964640958027
1.4025497214366584e6,64.67309757285598,13.186980587134347,-0.5150515382648663,-63.31219850397818
1.4025497214366584e6,109.2741370308196,25.677804843484317,-0.6786904870861861,-106.21211515785063
1.4025497214366584e6,127.31054683479368,12.708873579747696,0.38023178536752816,126.67399873821421
1.4025497214366584e6,291.86008544469263,25.161881709619454,-0.0917084060407964,290.7733953425144
1.4025497214366584e6,320.33623117033795,11.183878688850815,0.34640747876215905,-320.140732373404
1.4025497214366584e6,2.603014719519237,0.2678082006443532,0.06995095898093748,-2.5856790389673705
1.4025497214366584e6,58.34335556388284,9.899873170363104,0.1250586647322899,-57.497049270604094
1.4025497214366584e6,407.22327776213535,9.61319171615252,0.39712242160414923,-407.1095840863729
1.4025497214366584e6,261.57843133757603,14.969192960681866,-0.06302274148094078,-261.14973041551934
1.4025497214366584e6,11.794744778421888,11.313553380560741,-0.31053916074239973,-3.318093512014763
1.4025497214366584e6,2.6104641582674635,1.404393473853226,-0.3172436741961178,-2.1744478321854666
1.4025497214366584e6,13.50218701681628,13.095552718638508,-0.6217897685683365,-3.2273201802209592
1.4025497214366584e6,35.226483685646926,34.87444825511128,-0.44178096030492703,4.9466661673638805
1.4025497214366584e6,20.78988002402061,16.412013031961873,-0.3073811135921094,-12.75762992622093
1.4025497214366584e6,0.8505995928846486,0.7329644270378232,0.41259057156200396,-0.05212166427488904
1.4025497214366584e6,1.1257879039830652,0.7766729205059322,-0.030990343671655627,-0.8061525968589824
1.4025497214366584e6,78.03463342005341,21.712954768527222,0.789595913796203,74.9487478971226
1.4025497214366584e6,15.31652399722904,0.22153090105148887,0.23998583938858867,15.31260601746095
1.4025497214366584e6,147.00805428581083,24.692299334287316,0.821015345286151,144.91711761251733
1.4025497214366584e6,40.360020732344,14.557650596898164,-0.22060271955094124,37.64231770076745
1.4025497214366584e6,1.1931613815340878,0.911079329322002,0.0900426367592793,0.7563899081478707
1.4025497214366584e6,51.93232740505715,3.0088821412141367,0.008665409855979257,51.84495971363582
1.4025497214366584e6,3.242702874965474,1.3577586509251862,-0.2895211227558917,-2.9282171593208837
1.4025497214366584e6,7.668677105297524,3.671584790945137,0.012493117533569286,6.731610685545105
1.4025497214366584e6,167.60322198783643,8.370788084466655,0.7817033653977583,167.39219077432787
1.4025497214366584e6,151.74735836400512,18.922695389230554,0.7503944255384448,-150.5610040571523
1.4025497214366584e6,46.35715288956653,16.37253196573689,0.1840831792742651,43.36909728449733
1.4025497214366584e6,6.337109339102367,5.353200601188224,0.18933293896346998,-3.384230484011978
1.4025497214366584e6,7.4102145842491804,2.7597189413532104,-0.16872248524906508,6.874112968510406
1.4025497214366584e6,4.14628007595981,4.101872143976833,-0.07442106980110455,0.58941472551492
1.4025497214366584e6,16.666227199605768,7.815834978379874,-0.17599575657868413,-14.718408303372863
1.4025497214366584e6,3.5901934305010337,3.4220713851330493,0.2777376773207321,-1.0432846771513784
1.4025497214366584e6,42.90348694868806,11.418317126713756,0.020639059747958082,-41.35598463597223
1.4025497214366584e6,1.4935286476866754,1.185218674693683,0.057074462715092394,0.8996064983313108
1.4025497214366584e6,69.18297046031493,21.373570740505183,-0.13903321620487213,-65.79833744183617
1.4025497214366584e6,14.24252942048929,14.04163395924788,0.39080719995922275,-2.3486367560726995
1.4025497214366584e6,11.43376305349675,8.502290769669598,0.4992040217852416,-7.627545437927453
1.4025497214366584e6,36.148640646780464,4.646659483895749,-0.4648889346242714,35.84554811075944
1.4025497214366584e6,6.017238780107428,1.8912550585421888,-0.07521999095319162,-5.710632506548143
1.4025497214366584e6,60.250806097626494,2.6244924700975973,0.11098888712129781,-60.19340512869026
1.4025497214366584e6,14.487240982153896,14.469744409865775,-0.6966382067179429,-0.0894875891637337
1.4025497214366584e6,440.13465390860404,19.809632479849633,-0.3168100738455243,-439.6885014740192
1.4025497214366584e6,4.7603139376957975,1.9089767465567307,0.05287753374378944,-4.358929382826444
1.4025497214366584e6,8.479623602141118,1.5547168709970958,0.33592048345903863,-8.32830679942414
1.4025497214366584e6,13.29132623067827,13.186194792772634,-0.34678801809602244,1.6278890500870045
1.4025497214366584e6,1.3507001083466472,0.12601298964148425,0.64845447486329,-1.1724688203423723
1.4025497214366584e6,38.28402075121221,14.57752446368885,0.17855543135692195,35.39938994077791
1.4025497214366584e6,155.81759807630297,2.7247338378405193,0.4406994546079073,155.79310685843407
1.4025497214366584e6,13.26091583641168,10.71352096553017,-0.4165028973308636,-7.8029191659000565
1.4025497214366584e6,23.74416362327492,20.64521830364862,-0.4733204888622722,-11.718485393167624
1.4025497214366584e6,16.69956357745626,7.491705381008407,-0.4273613474258903,14.918237203903004
1.4025497214366584e6,192.19678072814023,13.161508941641426,-0.7811526130948527,191.7439794884483
1.4025497214366584e6,167.9998084731096,11.890890557700455,0.3877949995190597,167.57797781515373
1.4025497214366584e6,198.87625796841542,14.834858671590737,-0.04710830911410122,-198.3221555887097
1.4025497214366584e6,2.2831120838364036,1.2246134950373961,-0.1671869628662927,1.9161513317313021
1.4025497214366584e6,19.50728552611271,13.871249987965143,0.0963312618167389,-13.714955249222516
1.4025497214366584e6,4.973477143368294,0.7113040338513748,-0.16362917797193793,-4.918273252948218
1.4025497214366584e6,2.6386669512026177,0.8313699814429727,0.18752880035542022,-2.4945711082023116
1.4025497214366584e6,648.1508615761456,41.62585771778129,0.11442866296006678,-646.8128020548694
1.4025497214366584e6,14.848871045191686,10.546067659373087,0.5290712446827469,10.439165516947366
1.4025497214366584e6,75.01836133244859,18.252073788316924,-0.5346838794113598,-72.76205822688269
1.4025497214366584e6,116.58697378437972,20.576898890412153,-0.49260087801852187,114.75564342314452
1.4025497214366584e6,2.4097856763855003,1.292654366067908,-0.41390192754417704,1.9878283934710037
1.4025497214366584e6,27.53969789301713,27.306666757281537,-0.5506037146012456,-3.5304972774965835
1.4025497214366584e6,52.87086927466513,25.453792068437938,-0.18906720164033236,-46.33987705659388
1.4025497214366584e6,0.9065359601818606,0.840366535009275,0.07873538819272592,-0.3099308053445121
1.4025497214366584e6,66.37947077216319,4.263506166787642,-0.5511118213369528,-66.24001506453733
1.4025497214366584e6,11.078793764468957,10.999113153395403,-0.11246941924660353,1.3165092387411494
1.4025497214366584e6,1.8594784087674712,1.6801704038123852,0.12477172417292139,-0.7783214086662714
1.4025497214366584e6,245.81166698074009,20.822394668722026,0.05222388632975381,-244.92812709365876
1.4025497214366584e6,829.8484283162636,17.15584514998486,-0.526053256376209,-829.6708991455382
1.4025497214366584e6,37.959869137248376,7.479447188079251,-0.46238737089938164,-37.212664476337935
1.4025497214366584e6,400.40096178019076,9.313948433403054,-0.5902634786655174,400.29216681436435
1.4025497214366584e6,7.875599276440543,4.729592828387395,-0.10856634153483839,6.295307285727921
1.4025497214366584e6,0.8898720177872272,0.6196895587902587,-0.22774519197282678,0.5853665670469279
1.4025497214366584e6,217.71441832176333,3.9248814688143985,0.057437063015125196,217.67899902483668
1.4025497214366584e6,40.47248622489598,8.387284429252894,-0.15918577305211992,39.59339497755125
1.4025497214366584e6,18.953274800566973,14.390463588956251,0.7206724357167938,-12.31293951226291
1.4025497214366584e6,28.061768165013486,17.747962241372324,-0.2990928093835642,-21.734071803246568
1.4025497214366584e6,346.5057144867598,20.384513279975373,-0.32513625989021827,-345.90542456220953
1.4025497214366584e6,41.319775359197244,37.82127641052158,-0.584133586019485,16.628900721293878
1.4025497214366584e6,10.355443029870557,1.7273451252015768,-0.04254397647892324,-10.209619679739223
1.4025497214366584e6,38.66087330420037,37.427553503374924,-0.04544237965766817,-9.686380294882456
1.4025497214366584e6,11.613509737798484,2.3784052731657295,0.1597575543878752,-11.365647326124886
1.4025497214366584e6,22.89688323997283,22.887653824794175,0.5427467503446699,0.3386078821284745
1.4025497214366584e6,22.04634095856904,3.8544054566813375,-0.16655184202916473,21.705843304336675
1.4025497214366584e6,57.615754349546066,7.599391895281017,0.6012236171490635,57.109102488857864
1.4025497214366584e6,266.9158755488581,24.476474991954742,-0.1650723590417679,-265.7911702971517
1.4025497214366584e6,17.03212048979749,11.276365379555001,-0.36692713421824164,-12.758869131527415
1.4025497214366584e6,54.09877795488433,7.58247549358781,0.6888131334350913,53.56020951135034
1.4025497214366584e6,5.801260352352709,5.315851066613364,-0.45269977676069534,-2.275538805865953
1.4025497214366584e6,78.07191845407165,9.452845146076207,0.5374017875025934,77.49558718981245
1.4025497214366584e6,59.12889019858471,1.6993483361022683,-0.49131830160436474,59.10231080513603
1.4025497214366584e6,38.70885055122313,7.4474298996491965,0.3962351930406542,-37.98342482438956
1.4025497214366584e6,13.456047950740349,5.545356913728769,-0.23655395895130318,-12.257444685088512
1.4025497214366584e6,528.6639039789512,14.102589757039576,-0.2713023992507488,-528.4756885536458
1.4025497214366584e6,188.53277442252676,15.790718429629539,0.30724708907769643,187.8700415366678
1.4025497214366584e6,17.633188909280623,10.319355183537265,0.5173727126595477,-14.288430635100937
1.4025497214366584e6,67.21561454782983,4.861564522220543,-0.6405049248734767,-67.03641135764539
1.4025497214366584e6,276.9760181525727,33.38729289610116,0.24720144149782367,-274.95623080956545
1.4025497214366584e6,17.354627042655878,8.127097779455273,0.2837103737102663,-15.330999143181145
1.4025497214366584e6,6.26261510729234,5.884497386175973,-0.23626129840413157,2.1269423886336867
1.4025497214366584e6,8.250409440738323,2.6460453470221683,-0.38492558378544445,7.8042422494300965
1.4025497214366584e6,23.41452191173303,14.359827992531505,0.3799466369596153,-18.489929198472172
1.4025497214366584e6,18.6212387911306,17.653469468888353,-0.5990957765690463,5.893496323011233
1.4025497214366584e6,2.7532285381785915,2.6302049151659883,-0.6158893357212981,-0.5192635605725485
1.4025497214366584e6,8.145495619292612,8.04098152152101,-0.5563134254335534,1.1699979737893706
1.4025497214366584e6,111.28697183751925,7.44420167785412,0.5738911494347253,-111.03617102514094
1.4025497214366584e6,28.66789585201749,26.662370497386505,0.18736727889189492,10.53175248363406
1.4025497214366584e6,10.189399934179526,3.3141153482486123,-0.6015958232757731,-9.615885698888784
1.4025497214366584e6,36.1212552094257,10.258487006856454,0.03983975102995987,-34.633706123664766
1.4025497214366584e6,33.727700861932874,1.6354058099179838,0.0030045657537907423,-33.68783028146851
1.4025497214366584e6,48.4370783488922,5.782207015768739,0.27444132609277605,-48.089790889476376
1.4025497214366584e6,29.84992921264873,3.608197767294355,-0.2370014724370406,-29.629878130120797
1.4025497214366584e6,88.3648370293617,9.198410001175608,-0.5574200114043847,-87.88293136006743
1.4025497214366584e6,17.764350833580675,10.410395452236834,-0.6224975051537903,-14.380368171718638
1.4025497214366584e6,3.9551715255967617,1.5314472198295066,0.3308063630934646,-3.6297772922619855
1.4025497214366584e6,22.748588371959144,12.529419609991605,-0.5800725587666758,-18.97793713267263
1.4025497214366584e6,31.079263939570804,11.851864287103691,-0.1748121324575482,28.72995066990968
1.4025497214366584e6,18.46455090182216,8.810144673221812,0.4241131289022281,16.221214002912717
1.4025497214366584e6,3.9902853771390387,3.942953685390277,0.05447412768663957,-0.5993254765197709
1.4025497214366584e6,35.82904390373877,6.605496063578322,0.024040940800148444,35.21468295576113
1.4025497214366584e6,404.90577806727697,13.843458786439799,-0.6753165221452179,-404.6684795898015
1.4025497214366584e6,4.1855958289068145,3.5264189741510767,-0.3762100899801278,-2.2200703730788676
1.4025497214366584e6,170.3815582283542,20.969012490031247,0.28161946301077345,-169.08602323913271
1.4025497214366584e6,23.739621264228532,9.33371245880698,0.49237590228521205,-21.821907806323622
1.4025497214366584e6,56.27916689074404,6.162124293561362,0.09793891934960362,55.94059280081426
1.4025497214366584e6,24.408211543127443,11.998041874338922,-0.7889442682945111,21.240810099633922
1.4025497214366584e6,12.444446263583341,6.675570418975859,-0.025852613283233957,10.50176170280065
1.4025497214366584e6,55.347096811817664,17.432946062057823,0.15494206778838424,52.529574288026026
1.4025497214366584e6,0.42840155226416243,0.14889927908493306,-0.051982394517770335,-0.3812080230615926
1.4025497214366584e6,30.57771293675192,16.47348034732947,0.1105198308895908,25.760345958217474
1.4025497214366584e6,1446.0460815576607,18.384004788816757,-0.5835950005220076,1445.929093848622
1.4025497214366584e6,1.9987438360552416,1.5653976195761774,-0.09732759318857907,-1.2335718000644214
1.4025497214366584e6,67.49221829414147,35.29837707072258,-0.34548428527581954,-57.524702623110315
1.4025497214366584e6,6.026635106173575,4.1067509232883825,-0.22751418040945803,-4.403388432362333
1.4025497214366584e6,11.875816468885159,8.72378566783166,-0.7489823002310975,-8.022236020576521
1.4025497214366584e6,125.58705919381325,14.500489015512176,0.21310975115652983,-124.74688975812919
1.4025497214366584e6,12.855568402095006,8.144837449583584,-0.017658650544124035,9.945532407286262
1.4025497214366584e6,17.65416497617088,7.423058174852132,0.7637572572151956,-15.999096475182167
1.4025497214366584e6,32.70130432987055,27.575792437450612,0.25445878215630113,17.574779995241805
1.4025497214366584e6,35.067165385376676,6.859501445271876,0.3776267243113101,-34.387459792434136
1.4025497214366584e6,9.738474718066335,1.5910157906525262,-0.1110555549061561,9.606294295072994
1.4025497214366584e6,218.48030796513413,6.976123525248015,-0.0012296047888859507,-218.36887445883832
1.4025497214366584e6,487.47948266054493,12.59286151731784,0.37634976444731655,487.3166433434062
1.4025497214366584e6,31.941265843264365,9.827168359422135,0.6740427974596471,-30.384264954814494
1.4025497214366584e6,35.01276289604315,22.251134543017248,-0.23264488142157755,-27.031705798076164
1.4025497214366584e6,66.21711206936604,15.807516100405158,0.32603678049007667,64.30170083591644
1.4025497214366584e6,434.66920870034505,22.701245830646286,0.08552816725192285,434.07597696680335
1.4025497214366584e6,19.961339309604277,17.563399231742217,0.47539197638357017,-9.473264577741727
1.4025497214366584e6,11.208667491329054,10.010043473269137,0.040805315904423746,5.041652145095748
1.4025497214366584e6,230.87614176138126,43.473004109646105,-0.2174071031445938,226.74618000594222
1.4025497214366584e6,48.88957896738198,13.264018402716697,-0.1442038361634264,47.05552696023522
1.4025497214366584e6,59.19911403903569,0.8886328131711636,0.2470732169407625,59.191815772005896
1.4025497214366584e6,27.28688559238584,6.890780102496087,-0.6890929746231406,26.39323948693754
1.4025497214366584e6,12.503041449626537,2.1980255226616094,0.612112597965824,12.292547022148621
1.4025497214366584e6,11.272113612295266,8.009686046789067,0.23325647476128208,-7.927025354372386
1.4025497214366584e6,13.978308744217937,6.124691626866896,-0.4260081699728935,-12.55732653454144
1.4025497214366584e6,132.18928552996348,38.00481510560055,0.027209187534790413,126.60816388449427
1.4025497214366584e6,5.4412173956296765,3.4391145454331555,-0.04338762535762243,-4.214750317085809
1.4025497214366584e6,20.833899559017755,9.401287440892215,-0.49836151042458754,18.58508719176227
1.4025497214366584e6,19.084557801777272,19.034637269498827,-0.5139397111908766,1.2749358073099606
1.4025497214366584e6,191.94627170010355,54.81773113395559,0.7133801360360136,-183.95071439521058
1.4025497214366584e6,45.76065145576726,17.23783781357214,-0.7307549164994365,-42.38333199800039
1.4025497214366584e6,7.649280339656791,6.731938425125355,-0.14182347097215375,3.627539894967121
1.4025497214366584e6,3.259838461391147,2.860652187740657,-0.3764694209653026,-1.5126636974997587
1.4025497214366584e6,15.246633777329802,8.824823208443402,-0.024483736840769134,-12.43255413251352
1.4025497214366584e6,105.53115201108031,31.440189591207776,-0.5654327064746094,-100.73730924508862
1.4025497214366584e6,266.37156730617977,26.35967843376082,-0.07539867998424042,-265.06406810786325
1.4025497214366584e6,2.67013286096813,2.6571683262882875,-0.03565942858332872,-0.23336498807931905
1.4025497214366584e6,17.486339162962395,10.531781200508341,0.694735011686839,13.941221257903626
1.4025497214366584e6,41.01131551232128,12.02997597715984,-0.4935648269753016,39.20396327711281
1.4025497214366584e6,564.5103237704758,19.883583373149307,0.22755688917472852,-564.1599805360037
1.4025497214366584e6,26.69849137772624,25.785168165650454,-0.26541311857535516,6.917424753739849
1.4025497214366584e6,13.20381635792766,6.241123197569312,-0.7088888459582883,11.613495988815439
1.4025497214366584e6,123.96947257857352,12.952819175029928,0.6235476935693458,-123.28930391536008
1.4025497214366584e6,6.312362438874017,0.6902347141619712,0.016873257399639307,-6.273426155122414
1.4025497214366584e6,75.27111270533568,6.843755430801179,0.04679349245216713,-74.95924155635052
1.4025497214366584e6,4.1014003071912235,1.5299366847504725,-0.2445007363428937,-3.795742673302126
1.4025497214366584e6,6.730301452046177,1.894844545579783,0.29737501601539856,6.450174781730119
1.4025497214366584e6,13.759011960456991,9.381392550623145,0.30082882749097484,10.059624783617803
1.4025497214366584e6,49.88645969807547,14.178034731764603,-0.09015002933451491,-47.82907829089236
1.4025497214366584e6,25.960707773247954,19.931859425136793,0.3025430136464611,-16.630527968196684
1.4025497214366584e6,16.80356995899098,16.456181442448514,0.6678842806397104,-3.3308634194616302
1.4025497214366584e6,538.3331335567485,11.001311191698825,0.3260221122855508,-538.2205999508988
1.4025497214366584e6,82.32379899413382,2.8670943653722993,-0.4332623263823419,82.27263578684381
1.4025497214366584e6,63.956931326124256,14.681396449238559,0.518429715927206,62.24679556745085
1.4025497214366584e6,10.799922405675613,6.864375350427618,0.40542878464913473,8.327122393068912
1.4025497214366584e6,54.52540753163159,11.718366309514927,-0.02115283795316775,53.25116125415008
1.4025497214366584e6,39.4554689694436,1.093353357662294,0.03610131936270696,39.44013148507841
1.4025497214366584e6,71.35503471068267,8.324931075335925,0.7924884615082081,70.86321420894997
1.4025497214366584e6,38.06756258378844,5.0878752036792605,0.48314307467470846,-37.72275287652461
1.4025497214366584e6,163.55237340103005,27.41367593718798,-0.13920935246968516,-161.23844610485583
1.4025497214366584e6,1273.6019379284262,23.120139186453564,-0.17550541412235854,1273.3920493397636
1.4025497214366584e6,22.657767032045648,5.9180149738369,-0.22996829219045964,21.86973445344044
1.4025497214366584e6,0.5904404991695976,0.3634027271682978,0.12253943904392288,0.4338287200509987
1.4025497214366584e6,12.757449028004036,3.3308882812800302,0.10780739754153708,-12.31392428741966
1.4025497214366584e6,91.10311274572067,8.718123523168135,-0.49501770534767725,-90.68358780119578
1.4025497214366584e6,85.70612628544063,12.071911735217157,0.739810573215503,-84.84838463435997
1.4025497214366584e6,201.7924744433235,6.07057074523507,-0.21286359687269116,-201.7009971881822
1.4025497214366584e6,31.16987843378384,13.168311794110526,-0.27527914463013914,28.25009331478394
1.4025497214366584e6,28.015201607063528,17.11925354154417,-0.42315700717831856,22.171835337732738
1.4025497214366584e6,149.51224116548337,14.038290820189747,-0.3476157092379284,-148.85127637116065
1.4025497214366584e6,0.22932075994033152,0.18552313563666145,-0.011812510793327012,-0.06851622572726423
1.4025497214366584e6,92.93584971162926,11.926879372407956,-0.403540499260164,92.16640130739368
1.4025497214366584e6,23.621006647258472,8.307975812292446,0.3686373353688008,22.108375432823664
1.4025497214366584e6,62.02540689374706,3.357600404905095,-0.20820562965274236,61.93400467516342
1.4025497214366584e6,134.91889333206308,7.716375550402978,-0.2401808493736118,134.69778878773351
1.4025497214366584e6,61.473802006998234,15.688915232704097,0.3731272085965774,-59.43680436341077
1.4025497214366584e6,18.62498777754727,7.278358738109698,0.0310078728274869,17.14355176550373
1.4025497214366584e6,8.517703968548854,8.009107450667184,0.2069493697814441,2.889518217517129
1.4025497214366584e6,470.0582980579864,4.425580714240594,0.25109108289313187,-470.03738300970497
1.4025497214366584e6,32.45334695114044,1.3726042208480145,0.0023205390981534723,-32.42410130490315
1.4025497214366584e6,55.914559144329495,17.478196094762453,-0.010471294050451625,53.112495147199304
1.4025497214366584e6,215.87132614196938,11.309031392106153,-0.3825525968061773,215.5745244169799
1.4025497214366584e6,6.669936617893712,5.49281070077226,0.01760929597612411,3.7819888731211746
1.4025497214366584e6,186.60779473133186,12.18438168452901,0.09708836048788011,-186.20952482657378
1.4025497214366584e6,336.8908120606446,17.104380266150887,-0.5192381085990412,336.4559057041644
1.4025497214366584e6,15.688897600191765,13.890822476248713,0.7493116092975813,-7.253396155342299
1.4025497214366584e6,3.380384204969861,1.513132644914141,0.06261215942673212,-3.019962172132753
1.4025497214366584e6,152.73753663762915,22.907123884550334,-0.2186085417219225,-151.00979322085695
1.4025497214366584e6,2.5607260013155337,2.211532506172096,-0.16888858561239503,1.2745913482851896
1.4025497214366584e6,210.91267531794412,31.481970493366937,0.21649362236206832,208.54971095393608
1.4025497214366584e6,13.61540736307934,11.148498031367122,-0.4226978562924187,-7.803736326978268
1.4025497214366584e6,448.6991023279328,6.360963305882245,0.7014702952788189,448.653448866684
1.4025497214366584e6,509.70631919348773,15.142677020198708,0.3230967365322828,-509.4812199009556
1.4025497214366584e6,26.857701582710796,5.345727184928967,0.21063551857754154,-26.319225533440132
1.4025497214366584e6,15.275719583276437,7.74104058295829,-0.07793182391793067,-13.168313898985883
1.4025497214366584e6,93.45509152945962,21.99455313836983,0.138733933015893,-90.82984742225679
1.4025497214366584e6,17.441206979364132,17.352157701646437,0.6115691777787082,1.6465029506561901
1.4025497214366584e6,16.28323582919279,8.215175856006208,-0.2801393521355134,14.055704944928996
1.4025497214366584e6,149.121610108658,12.738013916253756,-0.09510256988181164,-148.57649620044432
1.4025497214366584e6,106.43884138919519,19.81518898782526,0.3774715628399578,-104.57738484826334
1.4025497214366584e6,126.96621721146755,7.276235379155249,-0.3979009311259054,-126.75687378354365
