7210.872977888219,1146.6602101679298,88.16008102364331,0.19955665201742318,1143.2652772731863
7210.872977888219,29.911128972761475,8.841331987365061,0.00009412181718599265,28.541247874481723
7210.872977888219,322.81523293079175,25.377036273709574,0.17206729182943742,321.8132181562751
7210.872977888219,64.24927310807125,20.651169596266392,-0.036299365911321546,-60.82428229502511
7210.872977888219,400.7240036197351,16.819455030826813,0.20399621894719483,400.3684399901735
7210.872977888219,264.893931860358,28.73402139445649,0.06713783673380803,-263.32725454950696
7210.872977888219,57.05114947937733,27.1429623000999,0.07741303299976168,-50.161575003612406
7210.872977888219,145.04708965001936,27.912110853899513,-0.02943324564774633,142.3294339285853
7210.872977888219,1018.5506118453325,16.58444953536782,0.06462310844738182,1018.4146488994995
7210.872977888219,105.76165434242189,28.102408374054797,-0.006458735716471994,101.9503726145011
7210.872977888219,17.117557033962733,10.15731000898543,-0.07420193274541362,-13.708780084041331
7210.872977888219,37.22668939310271,16.564530624516603,-0.014025174829373025,33.30974146974979
7210.872977888219,14.115579490428336,8.074369655012973,0.12225068204336166,11.49502235416037
7210.872977888219,27.913767922232307,20.749237718016545,0.11597210893137692,-18.62070002267731
7210.872977888219,157.72973060607498,31.492744533369017,0.11510129094480637,154.54759155561393
7210.872977888219,67.78130956524936,40.91296468261439,0.2768910189877315,54.022725993326354
7210.872977888219,391.2826646998745,31.35985726727847,-0.010453783330232095,390.021511307589
7210.872977888219,124.64261454372715,49.13077955314665,0.003104258233214788,-114.54276143120931
7210.872977888219,51.37524095504346,24.545986055788518,0.11096014165142924,-45.11090760239563
7210.872977888219,30.83895362839115,25.210981241126955,-0.17986355244660854,-17.706255391335745
7210.872977888219,49.05162719805231,22.13073207574712,0.1357172892800221,-43.75352276688922
7210.872977888219,56.037218424403235,33.60272862684604,0.26967503990725766,-44.82242851603169
7210.872977888219,118.27876641855903,21.08879873214462,0.1486911430752894,-116.37526966500322
7210.872977888219,24.547186673957206,13.831862689904437,0.24680488734811878,20.230654478004734
7210.872977888219,18.89607129026649,16.3041666502871,0.1648452426687615,-9.450123344145776
7210.872977888219,94.10170578138565,62.49685784145115,0.20676189680033238,-70.33724038912136
7210.872977888219,133.48239122438224,28.845472878522088,0.19203245185804352,130.3209381874533
7210.872977888219,33.23232542573911,29.46065458894891,0.14932700266373014,-15.314415789257051
7210.872977888219,28.32164163805634,24.18762077516498,-0.04871565166937845,14.66861814294982
7210.872977888219,271.32470677227843,22.522695330457374,0.12891622379773535,-270.3847340843204
7210.872977888219,13.818293640858313,13.606155111481465,-0.1985075472866326,1.9684313826146926
7210.872977888219,252.50916675556542,16.02733007507325,-0.13333152994595715,-251.99619551510065
7210.872977888219,177.36917007154673,37.84663055230434,-0.30370455797111506,173.27855942491908
7210.872977888219,33.38026654546725,31.634102972172016,-0.04417537458299886,10.565042236349008
7210.872977888219,535.4520017521818,25.32220679097537,0.290520451673394,534.8510483925855
7210.872977888219,240.64235986617115,31.45961348813426,-0.28174853814077466,-238.57295539106147
7210.872977888219,113.3578776652632,28.896412770433578,-0.1968426392419696,109.60412107159095
7210.872977888219,34.08921021401517,31.57729540468366,0.14005463189729214,12.768139949414907
7210.872977888219,46.5293669035071,46.337261948079416,0.2084705944085007,3.9866056658039426
7210.872977888219,31.717588750966456,26.77369875193091,0.11494734528829252,16.948676159252027
7210.872977888219,53.881849493839354,29.202454354398363,-0.06031319537689563,-45.2610546938712
7210.872977888219,92.92783844063715,38.99915553163659,-0.24185828736896178,-84.33674688274566
7210.872977888219,55.85248980899334,8.416760788817461,-0.1979766000348571,55.197064288605674
7210.872977888219,93.50630775408757,9.255150255231804,0.17914585422774756,93.03674561938004
7210.872977888219,162.9108507188854,16.358900695261724,0.09352062075189985,-162.0815203809926
7210.872977888219,184.27842521999114,25.73782826787346,-0.20134987629381929,-182.46686822809156
7210.872977888219,22.295229585843476,15.776882159363037,-0.11875742712784965,-15.692338685347208
7210.872977888219,36.505841712616814,10.16579277935673,0.21124866487139168,-35.03405279784944
7210.872977888219,1556.8049351140253,27.034715416754082,0.21973505871465557,-1556.5695545716394
7210.872977888219,25.44247331401531,25.403189486941454,0.12695339496240338,0.27863988863029254
7210.872977888219,11.917205990306842,1.8000619964343105,-0.19150514891962414,11.697830838639934
7210.872977888219,37.608316099083616,34.05728882211217,0.035884064226005756,-15.892815211813778
7210.872977888219,60.39435359609532,32.6359679696083,0.09233111904156098,-50.79822202664626
7210.872977888219,270.1072444411083,29.791957143584316,0.13718079267697963,268.4556580064587
7210.872977888219,408.09637934708957,29.95974786550472,-0.13772179071957572,406.99280794858583
7210.872977888219,63.66493709987837,11.436399072777798,0.15684782646692605,-62.613934040803336
7210.872977888219,25.31898808809338,20.967110425759092,0.22504244435126144,-14.12363760595618
7210.872977888219,38.64260621329489,22.779171404742296,0.1788930984838835,-31.18372504136673
7210.872977888219,70.96382327258377,14.213192565990065,-0.19913804801164012,69.51191307761223
7210.872977888219,1156.4110106038236,16.902422685067044,0.17791942913789952,1156.2866419028355
7210.872977888219,223.37916494115603,24.775882693770296,-0.21831329072114555,221.9965217092081
7210.872977888219,31.589122784370492,26.25027531900281,0.11641200490950798,-17.517948433957656
7210.872977888219,34.61438787592571,34.09043383855502,-0.008376499967571832,-5.839044757962014
7210.872977888219,169.32860807013415,29.347639685361433,-0.05306649259753147,166.76026830435893
7210.872977888219,16.125700977782998,15.242232080234132,-0.05332556551514561,-5.079969955454023
7210.872977888219,557.985644301448,25.51186589395343,-0.18968197251430718,-557.4003806161128
7210.872977888219,139.44701111975806,22.104436406487086,0.16122219082625913,-137.67691583529094
7210.872977888219,80.41488072108629,7.438314045116238,0.21321250858802607,-80.0579503304078
7210.872977888219,534.1649324735884,14.765718903943174,-0.03848163609129018,-533.9590279169869
7210.872977888219,22.562222286550803,16.838911541838307,-0.11877509217930837,-14.95283151107014
7210.872977888219,148.28409035780723,21.05820554069755,0.0751375752084827,146.77470535524833
7210.872977888219,31.509509934963397,22.04669636575059,0.15833664623683083,-22.46917155418765
7210.872977888219,91.89933590982429,14.129313887816298,0.24267396988205273,90.79585829870062
7210.872977888219,32.81281306086579,31.882731136509552,-0.0390267732238093,7.633280964463494
7210.872977888219,44.11566707081463,9.82571391844071,-0.18309669889334731,-42.98500026546322
7210.872977888219,191.4112279631736,54.3426420700488,-0.1054339051041888,183.52989040490198
7210.872977888219,176.21738239585594,24.388980023919313,0.18115906491657113,174.51592201962686
7210.872977888219,58.55545983007088,24.51336938234985,0.21116596889557965,-53.15908531470607
7210.872977888219,81.96709910618942,41.009264551729444,-0.055475487436842795,-70.9573028264712
7210.872977888219,86.30383432363676,33.97181895337609,0.04131401557563726,-79.32440969991518
7210.872977888219,36.831177555665604,36.765513425063894,-0.12488990263859338,-1.7068715147107798
7210.872977888219,8.886979059427963,5.28021306507858,0.04492103039793416,7.013706154253438
7210.872977888219,1002.1658382904741,25.28819128703825,0.12926639428801742,-1001.8457737861677
7210.872977888219,258.6405749345215,20.77410790538448,-0.23665378701327736,257.80113223821854
7210.872977888219,39.06738246613892,29.795075530606663,-0.22747093880089833,25.23010996765817
7210.872977888219,35.24922372883877,34.3849723090816,0.13052248588138363,-7.632873757452173
7210.872977888219,22.70580588189055,21.564044845891686,-0.16233487012171513,-6.972487586759142
7210.872977888219,212.57352941870425,20.275255542691056,0.2604876785044308,-211.599735145155
7210.872977888219,1024.322794433179,22.437219003210206,0.04074280079947992,-1024.0760973111078
7210.872977888219,2891.765888243096,33.38694789547527,0.10370120533944925,-2891.5728159096725
7210.872977888219,384.30593469896144,31.463795388892684,-0.07235348758043579,-383.01327931896594
7210.872977888219,20.216162038099263,20.168783965300744,-0.08391916912784231,0.05161019149501761
7210.872977888219,42.35287172912613,6.980981720879755,0.23140520028978298,-41.750142930018015
7210.872977888219,28.072663271149672,11.81582094630615,0.09823798536795529,25.42729818375361
7210.872977888219,129.7219872924024,23.97713722379169,0.3199730820367397,127.47895842057834
7210.872977888219,9.700215495304015,5.3581334621327885,-0.05286115356204173,7.96731681828036
7210.872977888219,666.9690496849128,28.43553349084838,-0.16028630382659928,-666.3611665801918
7210.872977888219,58.13326718385004,35.18725283480408,0.19201339288960143,46.25357788747289
7210.872977888219,69.29344209194338,47.22465977863016,0.17516166023474464,50.69002159460997
7210.872977888219,34.27583754082418,32.07122046898728,-0.19370917125926093,-12.013687137538323
7210.872977888219,22.591319923363702,22.547753003100837,-0.029998909697327422,0.2490292823021799
7210.872977888219,59.26002793443958,22.78883303330325,0.2539704391175562,-54.68502394544544
7210.872977888219,59.22867150851675,24.221460891032347,0.0664109710029775,54.031919230007034
7210.872977888219,30.192362102086655,24.575534360803008,0.01492854932262305,-17.484792319327806
7210.872977888219,49.588565136716106,20.144695577551722,0.05245352818670113,45.291396822802724
7210.872977888219,339.22418317962297,35.758324341465034,0.1461844314142895,337.33138553863034
7210.872977888219,97.86893639682165,17.400229992525666,0.11447302800818511,96.29976089640772
7210.872977888219,209.31420347866512,19.84853434391405,-0.14858347172269448,-208.36637379957807
7210.872977888219,40.59476416082174,38.89007857984514,0.03252292229764967,11.558198506377746
7210.872977888219,267.9898055611977,19.24232576870342,0.03110529493185464,-267.29452699471295
7210.872977888219,26.642940505506132,17.611345857280703,0.1336649203846046,-19.944053115937592
7210.872977888219,498.7598701152713,42.879462314281405,0.3483398404238579,496.91119403121024
7210.872977888219,46.82586451674464,33.51568614834287,0.0026742146695285032,-32.67195598249328
7210.872977888219,104.23718779806832,21.80442076922453,0.02094817964434884,-101.92180562210052
7210.872977888219,571.5196030060472,30.337482628631577,-0.28660173913894227,-570.7121060329082
7210.872977888219,22.381815813390762,19.965810915474492,0.0023712972247645495,10.02039984711777
7210.872977888219,30.341919038562406,28.928657837635402,0.2180660388352966,-9.045087008177324
7210.872977888219,86.79188136949944,12.610125563625404,-0.017104284651705493,85.85983611385134
7210.872977888219,21.730146025674557,21.627631995744434,-0.16000102712729308,1.5860407788608908
7210.872977888219,19.48601415741321,18.80456682389287,-0.08594878820298614,-4.917516877608255
7210.872977888219,55.700187818480885,14.457262807436399,-0.010906494479177638,-53.77355020180685
7210.872977888219,63.965765089545314,23.311195732427976,-0.07266109168666215,59.55080454962958
7210.872977888219,96.9931179663034,45.18518154685376,-0.18587837371823182,85.81390386039081
7210.872977888219,40.69323686907464,29.611180626348496,0.2323317736607952,-27.877587339481632
7210.872977888219,51.34254204869928,16.474994503759845,-0.13675524411259646,-48.60770333243327
7210.872977888219,505.41191266547594,23.50112538321133,0.18403363729628178,504.86330926959306
7210.872977888219,40.80927096611632,15.482890277689545,-0.1754971042909126,37.73250921060534
7210.872977888219,13.609143975166155,13.486246763948811,0.06483848190642955,-1.1925137554953102
7210.872977888219,21.036106490728983,17.56651804992334,0.2758055534440426,-11.48718835550271
7210.872977888219,286.6660538128496,26.35464486337518,-0.11597272402460385,285.4486678865595
7210.872977888219,172.6211508898331,27.95758719115954,0.23577664961783812,-170.3363607908711
7210.872977888219,24.186561103822736,18.06987286421898,-0.1193894278932032,-16.017225851923328
7210.872977888219,32.72341896732731,28.717965392079034,0.08823485125426737,-15.626553439217245
7210.872977888219,19.054795615199644,12.858579229993694,-0.04537623064261643,13.994158147162658
7210.872977888219,282.25388266859846,29.779442599979784,-0.07776655501827909,-280.6751313839961
7210.872977888219,576.3268651720474,21.746602781344993,0.11085479219919019,-575.9147722040578
7210.872977888219,441.80496341968035,13.804041262507717,0.09151497424650842,-441.5870945999494
7210.872977888219,36.533908950009824,21.612244873810653,-0.2051806443808544,-29.42263789520451
7210.872977888219,17.073557831692465,13.923923943904407,0.057124125163948915,9.783854097334899
7210.872977888219,572.0272493087024,45.046162737905654,0.06641570584839081,570.2491640575649
7210.872977888219,61.69502483407444,24.73340043159105,0.2608449420114782,56.50277247543664
7210.872977888219,16.77556241254627,16.19087014576199,0.01775643332779884,-4.167882917799373
7210.872977888219,146.72712895530236,38.0146638753809,-0.09725373524297955,-141.7103475006177
7210.872977888219,33.24456377775606,29.998849241944427,0.07472699265275463,14.26046373495791
7210.872977888219,271.09393147309146,106.29439868423829,0.23702402574947082,-249.3821578514224
7210.872977888219,163.5275501011322,24.261073512886483,-0.16161190190012695,-161.71187396354316
7210.872977888219,330.9996296897525,28.66668825721422,-0.0282453646072216,329.75304606090214
7210.872977888219,34.27667020446644,17.286518315054114,-0.02273655537638956,-29.566234677841635
7210.872977888219,629.18931664601,23.655930938754647,0.18583908341318325,628.7429163989493
7210.872977888219,85.57575181532235,25.70938691238135,0.1930939707207715,81.61063523336095
7210.872977888219,18.406946743089357,7.592198104251764,-0.04342393014346688,-16.71133375401601
7210.872977888219,1148.3233856617653,14.87813687576913,-0.00922415472344055,-1148.2261690803111
7210.872977888219,1.940966574000103,0.5371591250369836,0.3156471309123132,-1.2147112132610056
7210.872977888219,66.96184397420569,47.30755663086473,0.02200142974988853,-47.370660699504526
7210.872977888219,166.01088168736365,28.561082254837718,0.2731984254065204,163.52950537073028
7210.872977888219,47.134541932381154,46.954737532491166,-0.12279044588433456,-3.8728457319860627
7210.872977888219,81.61371647856319,19.601514566680464,-0.006961175192449012,-79.21285022522956
7210.872977888219,137.82830472889165,6.845822885707722,0.08446012666010144,137.65124592633313
7210.872977888219,358.07963244851703,28.098904686305612,-0.2833220001929546,356.9726751498864
7210.872977888219,52.695745636192704,38.23589814000948,0.0850848041897416,36.23460786712527
7210.872977888219,28.90216490931754,28.791722462229917,0.020496364431474293,-2.113712168072243
7210.872977888219,56.0751027501682,29.81569751584044,-0.001943927018455795,47.47144058730548
7210.872977888219,251.60371522256875,25.411539065521108,-0.24107603037859354,-250.31324660032607
7210.872977888219,102.05669743515928,24.18612640412739,-0.2369549285078732,-99.13950261335881
7210.872977888219,352.4762020073662,26.69179322207865,0.23401067483526014,-351.46132467208776
7210.872977888219,76.26978266238712,29.38284803924116,0.13046931983919285,70.36907922769994
7210.872977888219,72.61714971680155,26.892090844410838,-0.06043131926419761,-67.44003689345874
7210.872977888219,84.90057040733757,12.165379306195044,0.06439528320894061,-84.01310969248959
7210.872977888219,218.16115142468536,21.807702052348805,0.05389283871305115,217.0640586620215
7210.872977888219,180.80221650243192,34.350779973643995,-0.03594108731319518,-177.503691400376
7210.872977888219,604.498567630263,26.23741491630049,0.10777073917314134,603.9273143815773
7210.872977888219,31.172275079601217,31.141034237900904,-0.20711025176151707,0.013065332980071148
7210.872977888219,26.722755492237578,24.712459532003333,-0.06373073735729086,10.074338117078813
7210.872977888219,152.04690577738387,16.057778005858033,0.3073471660695776,151.18998381122287
7210.872977888219,178.112939130861,21.98396614165827,-0.03827561041593931,-176.74563417131682
7210.872977888219,37.724683696040806,32.85948297448559,0.20537903219447687,18.478644517281374
7210.872977888219,44.57192932710345,34.06145245505521,0.18836974009612184,28.714721007880854
7210.872977888219,25.632222292421982,15.5299229022401,0.10929559416361219,-20.344943202152454
7210.872977888219,1237.3245842222734,17.707744317435168,-0.07523825404096986,-1237.1970955334248
7210.872977888219,32.36721113307304,31.235725608343127,0.09260163781902353,8.369801211319036
7210.872977888219,77.41677346215737,51.488026957119786,-0.06048747396692516,-57.79647549588549
7210.872977888219,52.86316242645159,37.90545670387662,-0.21384851786522868,-36.820387120920444
7210.872977888219,49.552331772778416,32.01453877105784,0.056947828193837466,-37.796772262561035
7210.872977888219,145.97778447367057,44.461260874105804,-0.1674380749699311,139.0351687557658
7210.872977888219,164.75751892728857,20.49945445807452,0.19658631500063278,163.47131280119163
7210.872977888219,57.374075836379305,30.726363351526288,-0.058685524217069275,-48.433129925753626
7210.872977888219,40.62297074540037,38.17147596789393,-0.2241558980289833,-13.827880310251075
7210.872977888219,11.721333913622008,9.142909357798056,0.16594575805005854,7.201783412613807
7210.872977888219,15.828679457320305,7.936080810883697,-0.20311505931614926,13.62427260904216
7210.872977888219,21.035479777202838,20.83006452366611,-0.2774605239738083,-2.5727771341008965
7210.872977888219,86.71427457609143,49.97734930776789,-0.15877689663321135,-70.84984902207854
7210.872977888219,178.01589567371792,28.868676430654094,0.18603107615408182,-175.65397909305676
7210.872977888219,528.6725556217713,20.619893704268513,0.17122854378794666,-528.2684526613267
7210.872977888219,2047.3029295231704,25.12500427547567,-0.04076943451412964,-2047.1482882481412
7210.872977888219,27.587640984045205,17.577363456280704,-0.04430422874484549,21.21811988025314
7210.872977888219,33.98097738630049,20.133790946619527,0.013218809485074947,-27.33922926192805
7210.872977888219,268.4924633229186,29.569959478416227,-0.07898699240404626,266.8555985244375
7210.872977888219,153.76066149824288,26.17218993134238,-0.2822476312348969,-151.51031047416123
7210.872977888219,34.428868852800086,21.86055695742383,-0.14395440556508715,-26.56197813135826
7210.872977888219,111.04593106397124,21.654714303996208,0.10867465089234221,-108.9052647452083
7210.872977888219,52.60874241296439,34.02055125814603,-0.2250315039715357,40.103959608931596
7210.872977888219,32.134858035874124,27.709247655535506,0.10090815417420289,16.215204532213125
7210.872977888219,30.49223677473609,28.65032842190416,-0.044514284235017236,10.345508612397815
7210.872977888219,96.633204229207,36.723044944383396,0.1645566926510344,89.37260987482925
7210.872977888219,301.47905769106893,15.61475837719946,0.26838025128110515,301.071130904782
7210.872977888219,1031.734673145262,7.001602340719989,-0.2287166862429728,1031.7099676598204
7210.872977888219,537.373819244594,35.402039465827876,-0.21988052669965344,-536.2045926778906
7210.872977888219,225.631542082976,26.90039377652769,0.15047800156808128,-224.01793521704383
7210.872977888219,315.74543788034754,19.8714244325674,0.07023807601279068,-315.116485517678
7210.872977888219,19.250901872795993,18.891473909533694,0.2720748357164378,-3.425165229926557
7210.872977888219,19.79968177600255,4.579120644577743,-0.12107417745135238,-19.213035645728233
7210.872977888219,197.67988259869574,6.436078329695678,-0.042229060964871425,-197.57025950735007
7210.872977888219,27.0368020229675,23.410992418819433,0.04006046554853896,-13.45395250033679
7210.872977888219,285.3836333222281,39.29536265808314,0.11612480208285994,-282.66194562042324
7210.872977888219,75.27144444143414,39.97065280700345,-0.2892970699180846,63.76636977917382
7210.872977888219,560.7145380389665,13.356664340901938,0.08497614551667784,-560.5537278531986
7210.872977888219,70.57881343888654,49.76226867429707,0.2574002861823977,-50.03114642947927
7210.872977888219,123.81144473757018,31.556216376397234,-0.07866645740820402,-119.71453217018382
7210.872977888219,54.58076465936187,33.72264875751,0.06280028979077525,42.8944662261807
7210.872977888219,903.236342258689,28.85115610415692,0.06762136567664997,902.7743862897236
7210.872977888219,512.1108929851309,30.41437061063197,-0.2711857946987601,-511.20500347490656
7210.872977888219,25.70065628318413,24.17423974211082,0.09856246656038484,-8.614899700205862
7210.872977888219,16.338720561702434,16.21782490678465,0.16112041493909,-1.4164498668372874
7210.872977888219,30.839645782704068,29.24956887550699,-0.253200894287494,-9.67360879061488
7210.872977888219,6.176197822040528,0.0869952667390498,0.10803689874537724,-6.018515142138685
7210.872977888219,222.33396541004538,17.47120884632252,-0.14410375757314547,-221.642109301544
7210.872977888219,947.1722718382529,23.292188296277523,-0.04577029354605199,-946.8848297199693
7210.872977888219,92.1407584978647,17.78076606058508,-0.13820416427210208,-90.39823548939796
7210.872977888219,33.91356865382577,26.054493856985232,0.08557139954700628,21.665237394424086
7210.872977888219,41.7438694319399,34.432466550190796,-0.2790910880064159,23.55789327831618
7210.872977888219,16.574453416041205,5.614458525367583,-0.1255230254086075,15.532898976193705
7210.872977888219,87.96591453841287,12.682903076156048,-0.1590193484255534,-87.03572340202679
7210.872977888219,14.925492479504666,4.532988919038219,0.18697542088490604,-14.15216317510196
7210.872977888219,29.300183960846248,28.951655991470048,0.061192988675477386,4.288938800711044
7210.872977888219,576.0057064876972,19.865289209207937,0.06776777544611479,575.6613900060362
7210.872977888219,65.40977812838288,27.98147116463981,0.04354240456491425,-59.10643615929496
7210.872977888219,629.750237948541,7.310618548040416,-0.018380800602354926,-629.7062911071814
7210.872977888219,297.9331058050274,33.608399878409905,-0.056478756423289846,-296.02821512065316
7210.872977888219,477.9162032861793,39.621390496837236,-0.05300389508547212,-476.2689747551145
7210.872977888219,58.25786230095677,29.755842265860338,0.16641882373164002,-50.06632621661678
7210.872977888219,38.78749007653457,38.56329009582945,0.08204973052543925,-3.9283147011142714
7210.872977888219,50.88773564850753,14.57034477176238,0.006167456666992633,48.737695880641894
7210.872977888219,298.62298057237166,2.4851181654863694,-0.09450230436081218,-298.6094374397303
7210.872977888219,20.52907563150517,14.268204945703555,-0.13876709285189745,-14.694841364659279
7210.872977888219,183.95637924228473,13.63248387094314,0.1244206278517563,-183.44532076908973
7210.872977888219,74.48744047798446,18.67308565074966,0.17314795219192625,-72.09549934742665
7210.872977888219,359.49143878479606,31.338345582032034,0.06093613075184781,-358.12022462806954
7210.872977888219,77.07180329959036,21.128716241444835,0.2523368368840769,74.10582220775305
7210.872977888219,168.72898169139376,47.80195993728467,0.1350209288243113,161.81013566289596
7210.872977888219,13.79116423307441,10.939567491587432,0.10616577677413253,-8.282943194032919
7210.872977888219,1181.2720204651587,20.86359075460544,-0.18690551789353071,-1181.0869393597227
7210.872977888219,1282.592542222493,22.9812238310897,0.039436957778997375,1282.3858964858575
7210.872977888219,44.45560363055834,24.587592106721086,-0.1652926843965517,-37.01107985463818
7210.872977888219,22.327761394567133,18.780551756776486,-0.25573606516349784,-11.993779587596089
7210.872977888219,250.65527876961062,32.357303484899575,0.10906088451262,248.55413522431667
7210.872977888219,165.17182194090498,37.9986819116301,-0.28360401445781913,-160.73533167958706
7210.872977888219,100.99569923101629,23.14952977780431,-0.21783626084680516,-98.29689428826842
7210.872977888219,1160.2406828789863,19.998366697170173,0.19715954867543276,-1160.0674829552727
7210.872977888219,187.423220955878,30.045653106766004,-0.18910488041649348,-184.994008193063
7210.872977888219,250.80061781108145,23.956979513793936,-0.17726845687257048,249.6499107710978
7210.872977888219,457.13277059098044,30.807700055452006,0.09059782379304669,-456.0913764835295
7210.872977888219,58.52525432951623,39.686070531340675,0.09502265309408219,42.99195873577418
7210.872977888219,30.794425780057708,20.39304718175924,0.03261031678095561,-23.03292355434637
7210.872977888219,45.388774449689855,23.222688030540457,-0.02531471659354975,-38.97362327232657
7210.872977888219,96.72716083210001,96.02176086358324,-0.09676583119960305,-11.578085541089619
7210.872977888219,329.42299706897364,32.41058235270402,0.011637909245412954,-327.8218439322642
7210.872977888219,32.187195659885674,32.1558119253482,0.12031683863734514,0.3181082439000692
7210.872977888219,546.11601503983,35.09688623980665,-0.14122219138185482,-544.9853088484806
7210.872977888219,46.5628658586486,30.62515299406089,-0.008233374356154819,35.04706490420437
7210.872977888219,30.143911715746185,29.772016010693047,0.0651145161171815,4.513821154258063
7210.872977888219,6.345577834508642,5.306988771684889,0.001548717722306395,3.193520151743419
7210.872977888219,444.86026304613597,36.494807256249125,0.017314978715977012,443.3586344328089
7210.872977888219,82.90154793391929,34.48192819233883,0.21114611436670513,75.37715197872491
7210.872977888219,279.94249291288264,37.542152553644684,0.02089567984593291,-277.41031348602723
7210.872977888219,42.08029211901183,31.64280444690688,-0.08640475502484615,-27.70510405866739
7210.872977888219,37.38677021502967,35.10442481868653,-0.0731207260050492,-12.788312779532056
7210.872977888219,35.60072039818062,27.087155545120666,-0.26019495258828834,-23.059183442993373
7210.872977888219,152.11906773915754,22.555758186999306,-0.2733975889611368,-150.43094808358242
7210.872977888219,30.487114276524228,22.30353464754699,0.1882677764490949,-20.73830705498811
7210.872977888219,65.52916286372714,36.261373824292484,0.3374370292583325,54.56341663948636
7210.872977888219,295.190276668334,27.207806233880408,-0.1113006680503239,293.93046571724335
7210.872977888219,1358.9112302269045,24.350726810260163,-0.2172355778823373,1358.6923209080276
7210.872977888219,38.964413524897786,26.265971835241043,-0.21032204473587807,28.746762507353065
7210.872977888219,279.8989546084259,22.09342297728479,0.043605230187932234,-279.02222115048016
7210.872977888219,16.822565828446088,6.673371430383421,0.23292727338139077,-15.37878164280121
7210.872977888219,82.71454451151844,18.2854436494528,0.11373559788671848,80.65619525883626
7210.872977888219,107.07216151261055,38.55708111189293,-0.10309081356641032,-99.87935214309677
7210.872977888219,60.06363985533302,17.88215167472425,0.05271148244165301,-57.32332030491626
7210.872977888219,791.1381836743838,39.00975458219726,-0.12294416623258052,-790.1746300311715
7210.872977888219,127.02805196402406,40.808693547029144,0.1133200486335099,-120.28657456446723
7210.872977888219,59.676787749632936,31.841003362073437,-0.21221485334146317,-50.45315461885697
7210.872977888219,23.99833681814639,12.106169630870399,-0.3118881839700501,20.672684823060397
7210.872977888219,54.86740160304922,29.351949668992916,-0.08592868548869678,46.335556225077354
7210.872977888219,978.8539325284661,37.5759950817841,-0.053633745721606736,978.1314631932689
7210.872977888219,68.5916014144649,14.36515743436405,-0.1677878252717909,67.05608271334935
7210.872977888219,97.00441652532,31.376240428926483,-0.024166272388508218,91.77954087421855
7210.872977888219,172.47688513812392,29.218789314764088,-0.11828391708352386,-169.97829453189328
7210.872977888219,229.66805912780734,31.915510333451273,-0.26004393424372013,227.43536731557106
7210.872977888219,506.4513285541861,43.33955271223192,-0.09227087109283724,504.5916360743777
7210.872977888219,10.920605778684077,8.489503583209528,0.13107313421438774,6.728084753084483
7210.872977888219,267.27549856908985,17.84980004245455,-0.2474408061770655,266.67510549725944
7210.872977888219,201.0509689666943,33.42541542708433,-0.00837437283144992,198.2481525789597
7210.872977888219,250.80232387731522,20.147674614207208,0.05482412735811976,249.9879401278068
7210.872977888219,30.803867922890714,13.50142942260527,-0.04650699348953879,27.652917834904166
7210.872977888219,276.50067086639166,22.24923251353831,-0.10653288475249516,275.6005762657159
7210.872977888219,24.039242426557564,5.1099441586001815,-0.25712260622669,23.447897138789656
7210.872977888219,43.68830285000432,31.129343213529843,0.18387816570807486,30.621795031565913
7210.872977888219,380.7871132400542,15.797285509454078,-0.1592883949582874,380.45675490462907
7210.872977888219,54.0016308321228,45.65362961250681,0.05401069389080927,28.809992428061527
7210.872977888219,68.81660807791269,6.159962111590688,0.07439509286256163,68.52642719878267
7210.872977888219,321.42544767724047,31.968253315943294,0.20985403938378244,-319.8287064990436
7210.872977888219,34.15378836017542,13.627713398168353,0.059627514247113114,31.286730039677867
7210.872977888219,139.07974812739698,28.50418871116319,0.03309266161851429,-136.120471697322
7210.872977888219,27.55830757352258,25.63961025043205,-0.04615750478360003,-10.008242459825988
7210.872977888219,19.349829195786924,19.148467947315662,0.00663567807815446,2.4183395691319
7210.872977888219,7.438026043848,4.498683883125273,0.041973171949975525,5.760265456435709
7210.872977888219,874.979140227175,43.14921292652304,0.13030247326364308,873.9134514486549
7210.872977888219,813.0812107967369,51.76818921470985,0.1045337039665578,811.4303391875051
7210.872977888219,93.31671981989435,28.93379283738703,0.16088228747164152,-88.70691231242643
7210.872977888219,86.71361773411411,19.54703364167324,0.25289711333534237,84.4700974577781
7210.872977888219,129.90356908705755,20.928008180332263,0.001394375361189244,128.19926707412452
7210.872977888219,3.994916837731203,1.5971314505577234,-0.2124647427889194,3.3852231137990447
7210.872977888219,61.81511104974146,13.117980792747458,-0.32774304480485345,-60.390524617994984
7210.872977888219,27.858141189351308,27.299217741981003,-0.05755609479029811,-5.377896765910786
7210.872977888219,410.4588713351572,79.41369261150291,0.01265682369202654,-402.7009394929056
7210.872977888219,17.04097084044315,15.718775619813345,0.1591067663617067,6.433180423615771
7210.872977888219,20.763862033606003,16.54780940071733,-0.19693916503760656,-12.4645710187126
7210.872977888219,187.64423311221123,3.4490830361139566,-0.09094479784815578,187.60743620829828
7210.872977888219,335.35645423620076,25.09540149803324,0.33487996555256455,-334.41315228630776
7210.872977888219,21.574853706722138,19.593821940130056,0.11554093554375662,8.924093772717418
7210.872977888219,4.066990218560205,3.81336436690006,0.12647077225693534,0.2810905796821142
7210.872977888219,27.050442448986637,23.048177759245146,-0.029832876632572357,-14.092671634248328
7210.872977888219,88.19896469519746,24.19255014738337,-0.24409928867010863,-84.80456739666442
7210.872977888219,282.3384745905419,31.767160240428705,0.08486038652382154,-280.542244427136
7210.872977888219,161.9495784051578,31.697146475040732,0.09225812429912021,-158.81134935675655
7210.872977888219,27.853703748264895,11.268609082391029,0.10665712788756129,25.4348625164071
7210.872977888219,83.0407400189484,32.39047515235854,-0.23432827993982344,76.4503960596892
7210.872977888219,730.8249256268491,19.60198579128974,0.03438086143302836,730.5606951058968
7210.872977888219,71.46167259727144,28.260081755586448,-0.2894844524402239,-65.62126921544633
7210.872977888219,317.6921725689523,77.36650400305012,0.1399434487075571,308.1246782243922
7210.872977888219,21.488846682943016,15.094298747266095,0.0617347069148456,-15.232373782322117
7210.872977888219,932.8252905836093,49.1070711184862,0.07201509169956767,931.5307882606526
7210.872977888219,8.349205318841673,4.606909088872655,0.13128556224627405,6.823835236234992
7210.872977888219,49.76733748848101,23.543793831805196,-0.23578150395297598,-43.823719660787724
7210.872977888219,27.62990875399844,6.879648384651995,0.01831355744626328,26.724114683157392
7210.872977888219,316.49934220781887,28.73903262148238,0.1436264160654304,-315.18879634045226
7210.872977888219,25.49855275666199,24.861880189622987,-0.30909111738018386,-5.483056987608578
7210.872977888219,33.45071784259365,33.387032979388394,-0.010116928889081065,-1.533882587714951
7210.872977888219,51.912200979614475,36.79089243117101,-0.11217411898906049,36.59768581153759
7210.872977888219,63.31522175384275,33.7517303211489,0.16364091915979648,53.55098106331385
7210.872977888219,271.3990668732751,24.046108756826964,-0.1449459975299752,-270.328158890494
7210.872977888219,1090.6285250395126,26.54664854901775,0.1835099095971991,1090.3045068924175
7210.872977888219,28.790965123229743,18.22105164498508,-0.20437240619123426,-22.24786566672196
7210.872977888219,229.95670040874958,26.30068354968108,0.26743947488269804,228.44339108180242
7210.872977888219,972.3677609011031,32.61208806287276,-0.06854703241046099,-971.819739354185
7210.872977888219,27.28452060270906,21.015401681525496,-0.06903188080099264,17.346167773036317
7210.872977888219,21.417373688391027,13.91636742134859,-0.18421259635741324,-16.22038915527785
7210.872977888219,36.27528299169648,30.091592052815937,-0.2785672680101834,20.20918081612567
7210.872977888219,21.935440150565686,18.559694347773267,0.15274436848902692,11.609233161638079
7210.872977888219,10.204650633174273,8.864418952796239,0.12524376436329293,-4.861854615374568
7210.872977888219,103.54322647029025,32.36487570237613,0.043744465115760564,98.34535576323076
7210.872977888219,480.4867176684943,28.169039320134786,0.08823523167228206,479.65829466328944
7210.872977888219,30.74311107318198,29.472241006164197,0.2528738876808172,-8.6347141502546
7210.872977888219,483.01101774535687,24.10284579642275,0.15967371184107323,-482.4072625255057
7210.872977888219,149.78961656485603,22.340571968122077,-0.2666629050852629,-148.10757344175852
7210.872977888219,12.16880528951683,11.863872907210991,0.05791352295796452,2.3283756068719694
7210.872977888219,9.7912184579878,9.100652457305172,-0.02169143578891288,-3.337957212442933
7210.872977888219,265.9940119673514,23.993147714544165,-0.043501647900250524,-264.9060922628418
7210.872977888219,46.24425083502212,15.104224527570572,0.06086903798735759,-43.68621952973836
7210.872977888219,203.98300826669788,14.693542001487575,-0.0804714871049859,-203.44841448005712
7210.872977888219,197.2400785739484,33.4392753502284,-0.03897557520235234,-194.37993282728695
7210.872977888219,51.15289267820111,12.48258867639326,-0.16038499072128368,49.58703490898997
7210.872977888219,52.97373699615663,17.644902166925846,0.18598270474045528,-49.929309973383646
7210.872977888219,279.2001833215698,38.01870146551551,0.05724940488427077,276.59612031499455
7210.872977888219,108.50329388072328,27.648577349929823,0.133061619169063,-104.91234242558954
7210.872977888219,81.87505799004718,44.9386508712714,0.2924423272285949,-68.42553325591197
7210.872977888219,92.99294169871139,29.049900148618107,-0.24428373919717242,88.3279524143808
7210.872977888219,76.42457721365437,25.311200081534576,0.22737490878270297,72.0978765186347
7210.872977888219,24.39584039231217,20.727460725425065,0.2511840190268677,-12.78916150647949
7210.872977888219,19.464469168307907,18.24159269762621,0.022792182372961278,6.648735330981518
7210.872977888219,139.0345992155065,46.40344577673599,-0.1728317890014996,131.05497500423954
7210.872977888219,94.82726627739882,29.585592613076383,0.14096677705477034,-90.08318163160448
7210.872977888219,38.38833049844831,23.320535846439373,0.21116610484926038,-30.46093039117972
7210.872977888219,24.748736705646557,22.28824465821875,0.2797135635918693,10.66546876748713
7210.872977888219,5.598119426316278,4.003341061598893,-0.2055320388675165,3.6559955092853844
7210.872977888219,373.30405814421493,34.592026264327416,0.02388964467255436,371.69531517128297
7210.872977888219,664.8670046450778,39.133899495390104,0.1137188049683582,663.7128559770129
7210.872977888219,34.965093686602216,29.071946295479236,-0.02123354403116674,19.37719302090345
7210.872977888219,283.0036560316368,36.861579947876336,0.11870422305435158,280.5893360508447
7210.872977888219,298.61700255455884,27.795122373534724,-0.12273361525726195,297.3173837307473
7210.872977888219,1413.5748436880956,30.068900755522442,-0.12207318367160974,-1413.254322957635
7210.872977888219,38.95417978933709,29.213763349182372,0.2920203651904477,-25.729267833954804
7210.872977888219,117.69885639822988,26.203157799487776,-0.1199648902653857,-114.73664311081481
7210.872977888219,24.87414933056706,7.6790393105715,-0.14898551614766142,23.618420959690038
7210.872977888219,547.4255800641632,20.54670834325474,-0.18931008049760603,-547.0380781916954
7210.872977888219,37.2938563474606,29.59787004535903,0.003190814100797521,-22.647166378796076
7210.872977888219,329.3387999468688,24.646402440532093,0.0011484415508830823,328.41238761805437
7210.872977888219,87.4861103163759,32.576320691048736,-0.0770028548217772,-81.18308471726418
7210.872977888219,74.53140414331153,25.6665842970887,0.2002752669763327,-69.95865128087172
7210.872977888219,4.9829671201100245,2.120209088031228,-0.18637099122126222,-4.289089148509108
7210.872977888219,55.11820427674642,24.978818105929992,-0.016099238599887992,-49.11385929313259
7210.872977888219,5.5029181874619475,3.0900065272348116,-0.06882261806131268,4.338845101393794
7210.872977888219,795.8766418143374,29.462991835557368,-0.06148273600657565,-795.3299024070233
7210.872977888219,318.2452809161888,29.393136201078157,-0.03994731232643189,-316.8819924183578
7210.872977888219,480.6879336742912,37.381258891393564,0.3258094596131969,479.23013392010057
7210.872977888219,126.78925054037614,37.78883550453392,0.20655081952340845,121.01888962342868
7210.872977888219,460.80792155715085,31.378655129855417,-0.07601722961694787,459.7362408366027
7210.872977888219,640.2872148345232,18.899358758085878,-0.2813976834215519,-640.0066787773038
7210.872977888219,305.0981462605319,19.080697979362768,-0.29540753483941506,304.4976434978581
7210.872977888219,252.69685954447277,10.034074564345977,-0.13386542734120893,-252.4937595198159
7210.872977888219,37.38711999286736,14.341754344384555,-0.11199419888948665,-34.49919747056307
7210.872977888219,86.71263362738144,17.160473045435122,0.005946220545812111,-84.9864418905918
7210.872977888219,157.435161938816,21.045815486270843,-0.0731460155880544,-156.01600834531877
7210.872977888219,113.77344106161036,27.615252755173042,0.10319765005692702,-110.36249091806398
7210.872977888219,116.20872046479349,11.584571365391126,-0.01921916692689373,115.62162597929245
7210.872977888219,734.4278781962412,25.102222085348384,-0.22371272526470226,-733.9974339300883
7210.872977888219,737.9016061734021,8.97871827280904,-0.11950831913860074,737.8456783598808
7210.872977888219,134.9255335052708,35.40713120000707,-0.30899967962757635,130.18922964743484
7210.872977888219,98.77847855008912,8.7888294667761,-0.08120473428722376,-98.37699960962712
7210.872977888219,31.609913651374853,25.468754237754055,0.20304613713606667,-18.670412850752754
7210.872977888219,398.1602989290042,40.118606284443004,0.05268404922403476,-396.13156229028993
7210.872977888219,159.14864281030373,37.71363664907865,0.04328613207492928,-154.60940007160232
7210.872977888219,445.2812858978326,56.31647723565588,0.24648536260624096,441.7034226182612
7210.872977888219,67.73676795096036,20.92502622187464,0.0349064957297445,64.40891348811721
7210.872977888219,30.14208008381835,15.546937126569803,-0.19590305097908903,-25.785571641589055
7210.872977888219,31.506206187204977,10.280933154538994,-0.2409118176402387,29.748642799391625
7210.872977888219,51.67038379702996,25.862032700664827,0.32369996900795783,-44.70990259192346
7210.872977888219,42.531099585843165,15.478626688461727,0.042364370721965305,-39.59041674707835
7210.872977888219,744.8717224224616,38.571775111752025,0.11240860532909322,-743.8710807248563
7210.872977888219,77.88160621290844,36.28894758544369,-0.07749088379647193,-68.89664149821448
7210.872977888219,757.7923941782772,26.371814681653845,-0.16906185911349242,-757.3320987704512
7210.872977888219,166.0529455000638,29.197775580241377,0.12797888813753272,-163.45993569356474
7210.872977888219,169.2954791662795,0.5011313192556388,0.12784571111732476,169.28906678856225
7210.872977888219,310.9306151372716,23.847108670570385,-0.14502299096424068,310.01167421752905
7210.872977888219,116.98368700778865,38.622713932064634,0.04469115002168422,-110.41541261203693
7210.872977888219,107.06187490689359,33.85336968207254,0.18317706381993423,-101.55913159848629
7210.872977888219,2117.4570408977643,15.313881507201497,-0.23669205965263315,-2117.4012008598406
7210.872977888219,910.9028900527501,31.578291218623,-0.18922963081081193,910.3542976047504
7210.872977888219,12.25214329779373,5.503559391512875,0.025828133080042556,-10.859167898527206
7210.872977888219,1908.2864475227511,35.70006596904277,0.017315694583491876,-1907.9519823973826
7210.872977888219,145.74679783667062,25.72712875860498,-0.15269052444950978,143.45144459437256
7210.872977888219,40.774750614724965,19.11555014678634,-0.11290110849944869,-35.98971559689671
7210.872977888219,317.1278220396913,29.372672122656923,-0.17802856872578746,315.76156557594027
7210.872977888219,470.98330956640916,45.4223584022215,-0.008933953379921537,468.78586104171245
7210.872977888219,17.42021266833178,11.352298144282194,0.23150714427019045,13.138945384713564
7210.872977888219,14.047969311557166,13.969489015189202,0.1772506637520526,0.5135618387882807
7210.872977888219,137.51503578512956,14.287155252629216,0.13613293125221124,136.7638112759543
7210.872977888219,1651.2208654796916,34.696695313628034,0.025687894371499664,1650.8557119309592
7210.872977888219,19.301842280599445,16.43240550328141,0.0007300649881827461,10.031625461258434
7210.872977888219,126.6522672601094,15.881861657698611,-0.2566515171417061,125.64471237397042
7210.872977888219,381.8929782537268,25.93773818187423,0.19260728130201418,381.00858235093915
7210.872977888219,124.22479651066743,33.293895310322505,0.13960440101106805,119.6720245459244
7210.872977888219,218.5773456461172,20.16260744639961,-0.21879392448899776,217.64092851531922
7210.872977888219,64.80256938451708,40.904572616814555,-0.0019899156627686066,-50.242265862899046
7210.872977888219,31.8432471067704,25.085003778442452,-0.22426514256982208,-19.564790364614122
7210.872977888219,41.88954169669974,18.872205138397,-0.035483481995534985,-37.37203048836675
7210.872977888219,279.3958752745143,45.79872840163899,-0.28443457576979464,275.6130385872629
7210.872977888219,131.69374087192537,14.740966343312362,0.1520091992766405,-130.8587732421392
7210.872977888219,124.46570374106186,20.7708830738305,0.2205901402954715,-122.71238531300804
7210.872977888219,130.0417202523532,21.533562553772544,-0.014454643623680865,-128.23903783998233
7210.872977888219,188.97873727965282,30.67324575692278,0.09625808480816007,-186.46769751904935
7210.872977888219,245.01475956713193,36.67176631652873,0.1999098935708008,-242.25084177795327
7210.872977888219,85.18963151379809,17.034074569639568,-0.011229410335621505,83.457832706344
7210.872977888219,613.8271550422143,33.3529936183094,0.028070468285506404,612.9187953074139
7210.872977888219,491.8557424489783,35.26997199343772,-0.23056722056911982,490.5875494134575
7210.872977888219,487.8123143985062,30.44449009862283,-0.016445655034587277,-486.85940801850535
7210.872977888219,1009.823815480945,28.12516769006942,0.13308841578315533,1009.4311229041333
7210.872977888219,30.040002671589914,10.962999681150551,-0.18208126696131471,27.933449304365254
7210.872977888219,50.04661041355502,42.060669888094694,0.16260220551374097,-27.085663515977224
7210.872977888219,18.13653888055938,16.38583586522141,-0.16469805358723605,7.649029039185986
7210.872977888219,41.194131757211125,8.466500506236072,-0.22691665580404097,40.29044197284008
7210.872977888219,287.0933633029345,8.015626457525055,0.009208925700264258,286.9781267717227
7210.872977888219,50.46789456442634,11.3885033849486,0.27273604852005495,49.146030690097504
7210.872977888219,472.79108581184454,23.70686523094106,0.03614651545291898,472.1943354198792
7210.872977888219,639.2408929817528,13.056309847980478,-0.21067277423820466,-639.1060193703166
7210.872977888219,43.663917643627215,41.14332398618283,0.1430064419878838,14.554741139645936
7210.872977888219,1078.6366027062088,14.110056783495207,-0.1736378399748127,1078.5434127517472
7210.872977888219,211.13611372704284,40.2534139405736,-0.23915391994444965,-207.25867976134867
7210.872977888219,382.7153333282561,3.753784292678554,-0.0844483186828457,382.6944272936972
7210.872977888219,159.2465624397154,18.380869400941485,0.23036613175376883,-158.17602399069258
7210.872977888219,33.57832225317282,25.653311517649232,0.2746427920730932,-21.620181543646417
7210.872977888219,214.76257859814285,35.156355911116286,0.10202646487505052,211.86099627090863
7210.872977888219,65.55377473381728,29.740338311124468,-0.13885577462328874,-58.402797220620165
7210.872977888219,23.9674752666722,23.927324262420527,0.13651094721701382,-0.02709590219084511
7210.872977888219,58.760643711477584,36.90315599084285,0.1974044794244484,-45.70588259624063
7210.872977888219,36.237245694780185,31.153131997721296,-0.10952757284711925,-18.458187644357317
7210.872977888219,1824.56626677002,59.503853182292126,0.21595855427743657,-1823.5951861634696
7210.872977888219,435.72497067483863,33.29052063976698,-0.17573454822950008,-434.4491417503525
7210.872977888219,18.706956852776482,16.25266618620027,-0.0009885151354575691,9.159553519769467
7210.872977888219,100.47817827054018,40.155338090515016,-0.11199547591602439,92.0950429368669
7210.872977888219,385.04414939626935,64.5272130638555,-0.27081014685892135,379.59617854438403
7210.872977888219,14.069752695726098,13.92954626010242,-0.14085068099087678,-1.4149869678985982
7210.872977888219,16.353800561056147,8.850962826941002,0.011757397498731602,-13.6822314231858
7210.872977888219,14.975797818122036,14.363866755744509,-0.19250852131183901,-4.001641876631242
7210.872977888219,35.02691399113052,22.47261355944671,-0.07567861394532566,-26.832013741505087
7210.872977888219,67.78999157561674,30.383974299832143,0.13655683250243597,-60.583617925375876
7210.872977888219,146.57707512650674,40.19336930256682,0.1823421219967456,-140.9517474642536
7210.872977888219,154.9232439611685,14.144540751431876,-0.024096449499751108,154.27002058362163
7210.872977888219,29.09831629731304,17.91771523380687,-0.012391635853255202,-22.88588393995608
7210.872977888219,56.11222344341979,33.69378085055757,0.08594744851038932,44.84863108191894
7210.872977888219,10.421416469158856,9.880387273503018,-0.07751169348156044,-3.012342213914064
7210.872977888219,148.12479829864202,20.735535036899897,0.2679402522100405,146.65953092416197
7210.872977888219,1981.855728492737,23.120875281791115,-0.11316468777752052,-1981.720373116389
7210.872977888219,293.867141312436,29.51820179180134,0.06321586895618389,292.3776066236994
7210.872977888219,325.15682489702806,32.117685098997036,0.15093705283790324,323.56373196656546
7210.872977888219,308.0249826380824,29.121856061957818,0.1763397562360308,-306.6420921499771
7210.872977888219,54.313689524895885,25.433121777827438,0.1380025182062852,47.97093377111865
7210.872977888219,137.16739818217894,27.56705316784457,-0.12328012556963075,-134.3615787747651
7210.872977888219,85.86309469825439,31.013171301440924,0.07125281398695456,-80.0546407471327
7210.872977888219,34.86642412419816,12.235609291016052,-0.031427175551081626,32.61982148856437
7210.872977888219,98.60751267807483,16.10571834572084,0.020711684392875643,97.27354886750165
7210.872977888219,31.721472716001717,31.425658322368136,-0.12657343103506588,4.093916776324619
7210.872977888219,57.44452601270633,37.29147450491969,0.11371057690692314,-43.67267925265428
7210.872977888219,47.96466424859554,11.51314911389141,-0.08041379939184579,46.5418767639399
7210.872977888219,189.98791500955244,22.76701286899988,-0.19996668271309448,188.61369868902048
7210.872977888219,33.05232106096229,10.76881848069276,0.1731463937068878,-31.21786093729466
7210.872977888219,131.65714100100973,8.531531110017701,0.08693053576017593,131.37315000291198
7210.872977888219,5.810368242108494,5.516175094762302,0.28029794272792175,-1.1618819317080211
7210.872977888219,552.9527558265536,21.794406250389642,0.26962254599348756,-552.5212916089142
7210.872977888219,29.722139899900796,28.961674448491,-0.22176236306872557,-6.53254773808233
7210.872977888219,574.1274795148128,27.9382250374364,0.005520711607814049,573.4456509822342
7210.872977888219,25.735501136346187,18.02774891375444,-0.03686168033407225,-18.31423692609453
7210.872977888219,883.2650254957314,24.90049099507656,0.08479263346717475,-882.9128835663888
7210.872977888219,70.81729816965013,19.891808663251357,-0.1974277044746892,-67.95191708540925
7210.872977888219,46.67899095558302,26.334457833198222,0.2771069592429134,38.51550446408752
7210.872977888219,14.45968786487426,0.49967470884412546,0.04967749732537502,-14.38494962133316
7210.872977888219,327.3954481664891,34.96176681409948,-0.17384839406620495,-325.5203840978867
7210.872977888219,45.82024220766089,37.859873083210815,0.2795589672860312,25.770968123118468
7210.872977888219,38.97503011871452,34.131351535076945,0.09074595823755086,18.76677717248936
7210.872977888219,65.3039291060958,38.10986945856133,0.22196002568997308,53.012150356493706
7210.872977888219,250.2993356061483,17.66737387572784,0.13109443859459396,249.6711846901636
7210.872977888219,44.133367356015754,24.582056379376905,-0.25027451325718414,36.62663410876415
7210.872977888219,43.34947340268692,38.00778456955715,-0.011163944127171203,-20.80099461318727
7210.872977888219,98.17784725988959,21.722234741734745,-0.11143118478343138,95.7346235101457
7210.872977888219,107.95158783609315,22.01572836900886,-0.01763595581509657,105.67378603426639
7210.872977888219,8.410479576662851,4.516327484281043,-0.2673654269025488,6.954409652859674
7210.872977888219,52.07474691460615,51.78301848596433,0.25243163035102584,5.322676591871613
7210.872977888219,90.34536865434576,27.501616287703623,-0.22558749995912553,86.04645369950185
7210.872977888219,135.62718769852236,24.73048670269062,-0.000732633661282986,-133.34629134343635
7210.872977888219,85.31602740579783,57.878919756824494,0.052920895029222585,62.66537101618313
7210.872977888219,261.040948428985,17.15341598935992,-0.011182170449230571,260.47309514935733
7210.872977888219,28.48563418616169,22.16752599165781,-0.2050235035688021,17.834978466123342
7210.872977888219,84.62901273352347,27.8061852489149,0.20047346734824262,-79.9183459142511
7210.872977888219,110.52833276209167,48.913047429778715,0.12630239584239414,-99.10654129335656
7210.872977888219,13.675902104415275,13.4140071289049,0.07610918563192308,2.2771173957881614
7210.872977888219,114.0371563211923,19.74056032765115,0.18996087641124787,-112.30691679396665
7210.872977888219,117.5004564571892,33.40139720181907,-0.08504501295188839,-112.64454289972062
7210.872977888219,123.26868564959007,25.2602423235277,0.019601962396992495,-120.64487133908463
7210.872977888219,78.81849029600168,24.15235479633635,-0.02660575043162713,75.01409072696904
7210.872977888219,40.789418629263515,22.389225793935378,-0.1028265253779048,-34.067359925510324
7210.872977888219,23.576679914800234,17.31375853730977,-0.01808084807328553,-15.94332522802915
7210.872977888219,147.07723818901476,16.350559316808265,0.003483435268154314,146.15905560836285
7210.872977888219,26.09497856015132,21.62009984083247,0.18600611022431776,-14.545821935568034
7210.872977888219,45.74906890838504,24.478779430300577,-0.18764810529244622,-38.62418668273206
7210.872977888219,236.14996307144258,42.26528721978605,0.24756430746032562,232.3327045680686
7210.872977888219,31.984722887305374,24.422986418212666,-0.07652802428760097,20.606569854833058
7210.872977888219,62.644480090921505,8.420399985320756,-0.2879569527768397,-62.059980469458075
7210.872977888219,70.42750314693536,8.222312997461607,0.25135509363050146,-69.93182347277505
7210.872977888219,91.63730890375665,10.534365336975666,-0.23848478676927312,-91.01902548480304
7210.872977888219,20.668687608509547,9.523361037328227,-0.11038254163952135,-18.29164844491758
7210.872977888219,88.93493563954955,24.50154578315693,0.11700507615826,-85.48204306394378
7210.872977888219,106.4288981767635,37.64596758238826,0.1665446018310734,-99.53873668039176
7210.872977888219,211.2051165713525,16.88132398012032,0.07434581574129935,-210.52485122764864
7210.872977888219,155.43739330923185,26.15035180503746,-0.12437640381206826,-153.21561021932095
7210.872977888219,62.87846543755818,29.261838784876154,0.027680931633629845,55.63759327651798
7210.872977888219,6.008347957973159,5.690791161815829,0.14187065418325392,1.3384165948092197
7210.872977888219,49.82087710369123,24.678024111347508,0.03848396881945552,-43.25748242156611
7210.872977888219,90.30532849645402,10.339888733691147,-0.32731672749765583,89.70021329246858
7210.872977888219,44.82445830441112,21.146795842351267,0.13400823179055296,39.498398382804304
7210.872977888219,325.2545049707896,20.70436412038674,-0.1692166361937409,-324.59188224757094
7210.872977888219,1590.2724500671636,17.720211679174984,-0.008224546644365357,1590.1731213355822
7210.872977888219,559.2071560163431,32.90130860422558,-0.020784215525715324,558.2367267971176
7210.872977888219,116.19168121928102,28.25009796355737,-0.15622192877815233,112.69654249110084
7210.872977888219,210.97577299839028,41.17584762164202,0.012348771076838936,-206.91404630315114
7210.872977888219,426.780091254432,20.597345095354108,-0.28536667742617894,-426.28043654049
7210.872977888219,20.862468020985627,20.733923871322858,0.32537307494428486,-1.8268689920291294
7210.872977888219,121.31170974317688,37.138229977475575,-0.03497426565004871,115.47890680501254
7210.872977888219,140.92355605577097,43.73519757201932,-0.26955319244104026,133.95784721674204
7210.872977888219,139.37137416888447,32.245766893511714,-0.1392928132747313,135.58269579047237
7210.872977888219,101.01531007783124,43.15260493107987,0.3073736078323167,-91.32331260075298
7210.872977888219,92.27454188330617,27.93877800836348,0.1808188836816014,-87.93224330603543
7210.872977888219,275.90649091908864,18.34147608518071,0.2512632658049514,-275.2925992434236
7210.872977888219,254.23707348904287,31.482251226117025,0.054855686438974635,252.2765362256058
7210.872977888219,65.56099183638763,45.786477359141514,0.2841275537137586,-46.90264127180929
7210.872977888219,68.21351730647655,20.550865630249383,0.06169854169382396,-65.02951947835277
7210.872977888219,49.28270153340988,29.89373524731222,-0.11909747182754603,39.156499132507584
7210.872977888219,47.73756368975924,40.523052567159816,-0.23943844725899774,25.195162472786272
7210.872977888219,159.08691498812442,19.96233397412554,0.014037708665442595,-157.82347065887896
7210.872977888219,32.76194452726176,32.720319982908435,0.2632829450939377,-0.867580913449478
7210.872977888219,17.78425892142489,17.6439083119538,-0.06667358598305408,-1.7505041055880275
7210.872977888219,133.00148263193077,12.05580007393433,0.03411045376725352,-132.44677137806403
7210.872977888219,42.152254797467876,25.698806748853794,-0.06135645231952039,-33.38377595043106
7210.872977888219,38.44571900066214,37.500036836229114,-0.19902667323933732,8.359263141555726
7210.872977888219,25.49993732979619,25.445479921807397,0.0236932544047998,-0.9328124834208256
7210.872977888219,1223.300540144783,29.490557164557103,-0.01726908136060417,-1222.944240185769
7210.872977888219,47.322732735849165,32.67287366713594,-0.3078876815465249,-34.20417971860511
7210.872977888219,55.21891324832546,11.88806985434982,-0.04891195229828353,-53.90636444996281
7210.872977888219,580.4727855168387,16.864431907008,-0.21825409465838982,580.2260717792753
7210.872977888219,216.40373157366463,16.915600395061777,0.24192644930884857,215.73705133565144
7210.872977888219,206.17091667802563,25.38405565270039,0.12010706654275667,-204.5976014568539
7210.872977888219,59.96135848451745,18.943549897830692,-0.2341305838321275,-56.873086399227766
7210.872977888219,100.31312110959672,23.22377124215186,-0.0014408637336311091,97.57804598930964
7210.872977888219,196.6893006784318,27.359576406254295,0.10869316968424692,-194.77222366436868
7210.872977888219,258.2318603547376,29.140308062168508,0.05521032867050336,-256.57870029536224
7210.872977888219,63.43426006585455,15.754703908968004,0.29284668570392,61.43049113257186
7210.872977888219,28.54236980211356,28.407541435764998,0.22474404514048765,-2.3925506759884616
7210.872977888219,17.612047994449625,6.966565397011282,0.11859329291986118,-16.116249001735376
7210.872977888219,48.143560463922235,19.211095643749115,0.1882861395980531,44.122523859892645
7210.872977888219,35.425955934657615,10.951251112950699,-0.09368060902435406,33.66238289271857
7210.872977888219,20.70254750009518,11.405888020013489,0.09334309881634988,17.22175437235165
7210.872977888219,66.49483485811581,13.862003044371855,0.033248685618725585,-65.01925233388896
7210.872977888219,14.370840994083741,13.585015250144606,0.08128742691899145,-4.478634726331351
7210.872977888219,31.30738942855931,19.516300774514345,-0.14171826699075432,-24.44059937828979
7210.872977888219,49.321811251328704,33.90597636036425,-0.05200207183715651,-35.792729332557755
7210.872977888219,29.062406052408853,10.263048618220207,-0.09226706817671328,-27.15476220721457
7210.872977888219,67.66181748815792,38.429904200814484,0.14163724910826472,-55.67171896873473
7210.872977888219,34.77605270724648,23.108300520920807,0.27570349126989296,-25.94996380814428
7210.872977888219,99.68078395188554,29.247758800734353,0.060727270561195826,95.28336660573166
7210.872977888219,853.00796334117,29.66238269173827,-0.28378743311061,852.4909057499203
7210.872977888219,317.9768049424033,32.392965134176094,0.03091713242778086,316.3195214975726
7210.872977888219,515.0268695271435,32.26599733650512,0.11828405874352521,514.0132917588985
7210.872977888219,82.46094514755193,17.269337395120342,-0.05714090810523471,80.62053423666198
7210.872977888219,17.4862212120609,13.829970632661393,0.11394182969608024,10.610523406665548
7210.872977888219,15.381766701589916,15.185777664321764,-0.04831347810560739,2.021117148227643
7210.872977888219,32.457820987605515,32.225234332143806,-0.12585291574249716,-3.622833376318102
7210.872977888219,105.85156638602912,15.39875198408973,-0.03145291361249011,-104.71641657137505
7210.872977888219,27.940051463124973,6.022303359550008,0.052544938053541705,27.248337970676477
7210.872977888219,104.65172640750892,36.15599425508972,0.029124576358207185,98.19787887925165
7210.872977888219,95.60086452799231,17.194012564074825,-0.07425266518050062,-94.03181409562822
7210.872977888219,35.78398917595058,35.68749755003251,0.06257122988470465,-2.2335688772150064
7210.872977888219,10.822139744391182,10.354554607646739,-0.09480085304270068,-2.8265288694360398
7210.872977888219,15.230383695953046,7.867477377104111,0.05504916678758959,-12.967679127856432
7210.872977888219,109.41088536385479,20.200335417406652,-0.07158231261302168,107.5210654068609
7210.872977888219,10.86327050181969,10.124858707092205,-0.19878379080469408,-3.6816724852624083
7210.872977888219,417.2089200382179,17.225953172265573,-0.17202409709958832,416.85083213255086
7210.872977888219,64.57698803004132,23.732897434336465,0.17157135042635263,-60.041684443411285
7210.872977888219,273.7326893425995,20.013364482365954,0.078823619757929,-272.996594463726
7210.872977888219,21.07337840363725,20.378746861792862,0.03498759233020996,5.185467643456605
7210.872977888219,1379.4483474593487,22.96491118243085,0.21725941176163513,-1379.2564682850636
7210.872977888219,415.5850836776709,29.57906754670481,0.14556043069719005,-414.52878753559736
7210.872977888219,378.46390018871455,33.84594996521654,-0.11997300565889923,376.94489964530663
7210.872977888219,1639.7735848642283,24.74633635922433,-0.16583682081124038,1639.58625796222
7210.872977888219,606.8311978844786,35.26432611074076,0.2996987417740745,605.8040413827376
7210.872977888219,33.88967176684265,22.8446403254164,-0.05079902632833568,24.994519908426224
7210.872977888219,353.8888798634529,22.556115946685583,0.06628873768506761,353.1666078146962
7210.872977888219,54.63768450437512,4.6439539338325755,0.19163869015713256,54.42214512126114
7210.872977888219,104.55899926323609,27.161742620350587,0.03365202784101234,100.95998849753975
7210.872977888219,109.92113022214939,12.527355000339094,0.30425501657642307,109.19580587193903
7210.872977888219,59.18101624927313,5.208685709668308,0.1437098953900969,58.93503177285727
7210.872977888219,54.632010391362336,9.005961696992422,0.05003844754549053,-53.866901290078815
7210.872977888219,42.57469530582764,23.81471730100213,-0.1312392998337815,-35.26390564912927
7210.872977888219,269.2529303324836,21.66786662956941,-0.10676367131130458,268.37609616915967
7210.872977888219,7.622782627317828,6.4852499163656905,0.1038351303734898,3.759509528970184
7210.872977888219,3.6794268516984374,3.292222922889872,-0.25234407867297076,0.8556388116820315
7210.872977888219,37.420299954661175,31.06938035962926,-0.1522708030738631,20.809747992110086
7210.872977888219,275.27723219938946,24.56873410760786,-0.20570611354732543,274.17510080572265
7210.872977888219,38.51003254703088,35.612716230024,-0.05600784592821925,14.5893885321304
7210.872977888219,86.98320366501542,28.21287915578075,-0.32971961122291804,82.2684556781999
7210.872977888219,27.199674882763507,25.28442978597577,0.2778729066927432,9.926684033498972
7210.872977888219,110.20047247734884,32.42821579707268,-0.18581686178254167,105.3119972826951
7210.872977888219,11.171809194113141,10.299609306317349,-0.14559670015955625,-4.099087158733594
7210.872977888219,815.5706257208262,34.325125538189106,0.09055652673784785,-814.8468073448469
7210.872977888219,395.18668580794565,42.90043745559098,0.19092266172913847,-392.8487355199852
7210.872977888219,22.42772375225604,22.19388040785033,0.11462869822778252,-2.9185048463536427
7210.872977888219,382.39401212344995,7.407019265962054,0.3072989506947973,382.3196548517286
7210.872977888219,7.038705900529722,6.9020029097296955,-0.041176855100376546,0.019651512378970643
7210.872977888219,36.06675696975345,33.786968055029334,-0.05112055226544299,-12.543742654404317
7210.872977888219,108.50586627255265,33.78148261434475,-0.18713695994256638,103.10381066099896
7210.872977888219,134.37820101359338,44.87145334736209,-0.32621643744810025,-126.65718893970553
7210.872977888219,370.71062483807924,8.71576539232959,-0.3261801741363337,-370.60544080340503
7210.872977888219,152.03036570242318,20.11470700274962,0.1532527234524349,-150.6874364920179
7210.872977888219,77.32959189839887,17.66300644990361,-0.08280025972925198,75.27266087742393
7210.872977888219,32.52815016030407,31.989196019030764,-0.20384671177475616,-5.729457439628505
7210.872977888219,167.44205360503378,32.040674542248155,-0.0035285635756463606,164.3421212684839
7210.872977888219,233.1002957189142,41.060201919045895,0.14949633779810337,229.4512620984781
7210.872977888219,121.47372506299112,28.170384371421324,-0.07219532976284163,118.15407931174869
7210.872977888219,9.142037057221453,9.026548808257113,0.09500009491213128,-0.4307879720106645
7210.872977888219,638.2394608640137,8.226999702587321,-0.1225293651065546,-638.184931827415
7210.872977888219,607.9762914214683,59.89106561725984,0.1685784424945437,-605.0176023193599
7210.872977888219,121.38896056918867,21.567995131583668,-0.06587747200640222,119.44954306885317
7210.872977888219,43.118595398255586,41.5183951218693,-0.012882824011674981,11.555618321091865
7210.872977888219,28.380446702008378,25.971973003640787,-0.1190467424827528,-11.357312459552073
7210.872977888219,268.3896376096357,27.42423957121534,0.16505561099237864,266.98123110425684
7210.872977888219,112.51602055386225,12.879981917967937,-0.27085142116379607,111.76754417855271
7210.872977888219,12.10300196027917,11.999740211462214,0.15727660328236312,-0.7486658167020825
7210.872977888219,32.901570028602784,31.333777436561466,-0.029784907500740095,-9.939977861618692
7210.872977888219,378.1568724779688,34.147235573606885,-0.23794265395191866,376.60938149947873
7210.872977888219,1205.600894652207,16.40363234778852,-0.18157344561515448,-1205.488490782144
7210.872977888219,105.54842251211758,31.6782117529334,-0.16017499415928158,100.67289150526646
7210.872977888219,29.767769960160358,14.869095599837285,-0.17098772814850624,-25.75067441384492
7210.872977888219,29.76250818033672,28.95823373863229,0.1698034701220228,6.730163729953633
7210.872977888219,91.29827496174217,24.52351592586805,-0.210767420917467,87.93192878496953
7210.872977888219,784.1598484743748,16.776479784932224,-0.18739141242536655,-783.9791316833413
7210.872977888219,63.12312287824281,21.917585397249997,-0.046058161777217284,-59.17974582599041
7210.872977888219,59.366070235446735,38.41773604340702,-0.13608259583327886,45.23809986232081
7210.872977888219,154.9622994535288,14.232492433389696,-0.054352781077235526,-154.30114647001471
7210.872977888219,122.1515057245918,39.72737506492343,0.21813500261793475,115.50227176763067
7210.872977888219,837.2440355010533,21.32894408274181,0.08902623280324998,836.9711700804642
7210.872977888219,112.88534932215498,34.725580882034464,-0.07416561065108354,107.40263948609241
7210.872977888219,265.29965435832406,31.524392399403624,0.26777754413499916,-263.4162939660502
7210.872977888219,200.81525464664955,38.80989334797389,0.323713784156346,-197.02423767554754
7210.872977888219,7.245322912650095,7.071963695356912,0.16381645160332037,-0.7426593414280558
7210.872977888219,193.72603925979263,34.30192082101684,0.2804446236644457,190.65983900972847
7210.872977888219,591.2913966434601,25.306412505401166,0.040174735099185704,590.7479970019348
7210.872977888219,626.5965876702555,28.478905268729683,-0.2739927088074084,-625.9474873404522
7210.872977888219,69.5342053007341,3.311094567894814,0.26859251732720146,69.4411013935827
7210.872977888219,175.16673620882233,21.383927982961698,0.2631766132516332,173.85091366244814
7210.872977888219,80.47832360653557,27.96004958976028,-0.14036795977913655,-75.45245416432373
7210.872977888219,61.53361075841343,20.17353800593544,-0.06651826709143131,58.116310427781414
7210.872977888219,214.0473180614871,34.90041686845223,-0.07652400748195241,-211.17837427380448
7210.872977888219,22.384194225508523,21.649997045322632,0.00001872844913431282,-5.515988051977603
7210.872977888219,76.08431641864472,30.916651509895917,-0.032266853390739716,-69.50596498348447
7210.872977888219,20.20640414966728,13.39063120385263,0.0099539857064592,-15.06937326723868
7210.872977888219,404.3325124638011,21.853295463123008,-0.22610960909999858,403.7390980971042
7210.872977888219,28.9740616083205,28.22224659294737,0.13087824898226832,6.409388374928305
7210.872977888219,1031.8882463959037,15.031962035933136,-0.040200217056316226,-1031.7778287482402
7210.872977888219,59.01760822064501,31.379308279573216,-0.29339634274430226,-49.964260784026585
7210.872977888219,63.191480287465986,29.175637014840408,-0.288872193000889,56.035330673448236
7210.872977888219,50.066602167441815,30.404309655505926,0.11003530622384688,-39.753324946769965
7210.872977888219,35.50979700349692,5.826381169944342,0.015307470016958293,-35.00135820936866
7210.872977888219,752.4069741738322,12.051219868486157,0.009607874275828267,-752.3091911826674
7210.872977888219,173.26037840443678,7.192134485515998,-0.2090513603493513,173.10541461504525
7210.872977888219,21.176149349380076,19.490624069982072,-0.1440322086841737,-8.162136636925853
7210.872977888219,176.36072795978725,17.40665137162346,0.026886249639995446,-175.49418929636826
7210.872977888219,103.13936621515441,31.289999125902366,-0.00652664400295585,-98.26882069351795
7210.872977888219,226.60150025175685,29.997272441685997,0.21397246628782848,-224.6028809328077
7210.872977888219,651.7820450154005,44.4755545331897,-0.03809834514822895,-650.2613737160358
7210.872977888219,1121.8489025790539,26.334626673081388,0.04038315872006561,-1121.5389170109725
7210.872977888219,168.5849618626965,48.35534247799476,0.19632046277395476,161.49522600834263
7210.872977888219,36.53519496409114,24.964340970697705,-0.231430520150984,-26.639161698603367
7210.872977888219,44.421220997321626,25.2737258891091,0.10120225490718948,-36.50437998111686
7210.872977888219,284.5694449341859,21.327076639083195,-0.3049951030725067,283.7656217995681
7210.872977888219,42.447394874641176,35.050866671043494,0.011116576653281763,-23.90218188369569
7210.872977888219,150.80030976978549,32.32053143970602,0.03446556709222688,147.28955099181348
7210.872977888219,297.38455876072436,83.35331305145846,-0.07850261487671621,285.46084000283264
7210.872977888219,21.067659059504717,18.817216852970347,0.24640259195138495,9.369858005626304
7210.872977888219,18.676734333006035,15.997373541315557,-0.14673540704047106,-9.538304826997521
7210.872977888219,96.88195646548074,22.983472628829016,0.08206358138027339,-94.10612671444343
7210.872977888219,343.1612150411198,18.671635996482635,0.15126181351051005,-342.6500590729606
7210.872977888219,42.931773331766266,20.25339084876198,0.01461902730880221,-37.829002788185974
7210.872977888219,152.40396105288204,31.763729813755184,0.15529752850354692,149.05067943733724
7210.872977888219,109.98641244900932,22.929742260567338,-0.1631796667383712,-107.56071569486237
7210.872977888219,25.097083441961757,20.29397224754549,-0.10683810216252261,14.700449600460214
7210.872977888219,138.59900348304282,25.23699642699388,-0.11060289682935835,136.27494960543086
7210.872977888219,53.102859979944604,23.06075566902594,0.03936274611628857,47.81432925101437
7210.872977888219,48.865757302552915,32.13640118674088,0.20693948503790452,-36.78542478609531
7210.872977888219,36.85627462928689,17.494701921533586,0.10828459665074001,32.40995223383295
7210.872977888219,26.206511010150297,16.268450635609526,-0.18321679527840523,-20.49832944351546
7210.872977888219,33.42941565773217,16.16682877995557,-0.25402294978592554,-29.226551214351502
7210.872977888219,881.1409105599654,13.490125291676453,0.1696986123597696,881.0365419944667
7210.872977888219,36.40027324859941,32.66081949698796,0.22669447701158238,-16.009238492166514
7210.872977888219,43.34628051491117,16.564501462743763,-0.32042019408227274,-40.031375217377324
7210.872977888219,169.42970674673225,22.17876617939564,-0.20058243843778323,-167.96602028641354
7210.872977888219,549.3302642335894,28.07418718169773,-0.060949183645363274,-548.6106742010734
7210.872977888219,268.08760171300014,33.75250713555661,-0.17429129686738745,-265.9507405929965
7210.872977888219,201.56769825680675,43.78087895611251,-0.07177245100975732,-196.7507631807808
7210.872977888219,50.533949131845944,24.33763751240784,0.09667302692144254,-44.26563469134491
7210.872977888219,7.5456492391267505,7.241408147199166,0.17116269823678668,-1.6018361162877928
7210.872977888219,51.576183719510276,13.207674268194914,-0.0004443444346719813,-49.8372994094142
7210.872977888219,45.60123641237751,40.47484447429545,-0.2506350865198334,-20.959323803492424
7210.872977888219,36.01289561038974,33.66188631952128,0.09222620761633428,-12.723753342083594
7210.872977888219,167.55186359670356,18.716628282866193,-0.24425914792939704,-166.4973017890834
7210.872977888219,7.028313288036482,2.011711197569092,-0.19459722278809796,6.588526601627141
7210.872977888219,13.941430185228786,12.182954309351445,-0.12948884292824037,-6.634657313872399
7210.872977888219,50.34422229191577,50.32372584759069,-0.013505286332777585,-0.3993716673757315
7210.872977888219,66.68680086557922,31.533259800571127,-0.13059308507357725,58.74403992413472
7210.872977888219,17.588422217991987,13.988118747127212,0.09641375536711548,10.572236260578867
7210.872977888219,566.3400218539871,16.161184844304707,-0.17249693096767418,566.107677962363
7210.872977888219,14.236469021579847,9.977238727847446,0.07494922809995883,10.060938589925438
7210.872977888219,87.25104417420533,35.17466115753596,-0.1635620280538834,79.83456340791086
7210.872977888219,19.01216216449051,18.616777277840665,-0.008868007813833912,-3.6019689673423416
7210.872977888219,69.50447849602567,16.559196780652034,-0.14074934241711407,-67.48882920701652
7210.872977888219,44.773832525505966,28.841185656419093,0.3255349075843124,34.21801369315678
7210.872977888219,332.978412317375,33.94313406536145,0.12168783124038285,-331.24095196158873
7210.872977888219,46.966409762956346,35.03903025270466,-0.260429500183297,31.24321568876197
7210.872977888219,95.55688192298341,18.709435093068866,0.1304328122625538,93.69714005106998
7210.872977888219,31.66971707203512,13.704601453373375,-0.08375599836630802,28.517436920010653
7210.872977888219,138.14596900108592,46.464300121162665,0.19466825816942204,130.0901072906617
7210.872977888219,103.24401833545214,31.026705861750656,-0.028333860651564027,-98.46200479240215
7210.872977888219,92.18977335934643,68.51628040928652,-0.04047543593554436,61.664968481220114
7210.872977888219,24.999887389062792,21.86593663692165,0.010912024550765401,12.040407406345048
7210.872977888219,76.82267294099734,10.929325138126073,0.2997655206915828,-76.02814883702136
7210.872977888219,23.835380995874146,9.50578614420398,0.060686205511285056,-21.814171524738192
7210.872977888219,82.35068520098638,17.03270513430397,0.20032457681092272,-80.55792030626681
7210.872977888219,108.81120655449719,37.78458541323641,-0.19434430953156492,102.030693187941
7210.872977888219,114.98744341743377,38.28469483198936,0.23354041133996473,108.41787716655566
7210.872977888219,93.37997460590294,24.041133925740226,0.16628871180774954,90.22146213709424
7210.872977888219,291.4577370707352,25.615136576082612,-0.20743952464330268,-290.3265929785853
7210.872977888219,142.00350120414316,29.831940233030803,0.26387058829160076,-138.82750596912595
7210.872977888219,34.84733787777853,23.298248899756363,0.10705080435883955,25.876890087980925
7210.872977888219,289.05484747428613,30.4947553517544,0.15272574362063915,287.4384243005688
7210.872977888219,234.35982909486137,32.597584190412846,-0.21278873886105637,232.07752597871522
7210.872977888219,25.866977548772052,25.021577381069896,0.07961924002289204,6.411801523404056
7210.872977888219,378.09429006133615,63.519462345040914,0.18414733191409535,372.71789937601596
7210.872977888219,86.51070451535674,69.01944735234017,-0.22083952907056767,52.13890541572969
7210.872977888219,59.89471230298678,13.669180929621657,0.0624268387937856,-58.2977058089572
7210.872977888219,183.29874094926478,37.87251066731425,0.14609796734956082,-179.33816205663214
7210.872977888219,173.59809140314104,41.4560972496294,-0.051770782652412355,-168.56981641016202
7210.872977888219,296.71547238973034,31.081095917260118,-0.11452941052449776,295.07985403985833
7210.872977888219,497.64990697251676,41.93535247692148,-0.014205810941685803,495.8779610606959
7210.872977888219,1274.2577478449334,42.14719717153854,-0.16990597556622675,-1273.5597705606565
7210.872977888219,251.50228954921025,26.938691846202065,-0.27838688130785266,-250.0514494578697
7210.872977888219,59.66731141737455,9.875797387540908,-0.0051715700440483695,-58.82816499025071
7210.872977888219,1411.0262479479884,33.865057843171165,-0.035040007234364616,-1410.6191283875257
7210.872977888219,466.792811976401,27.917841471077438,0.0327506579176525,-465.95516813632725
7210.872977888219,27.276779784974064,25.77036235314307,0.04384099241304218,-8.832075787727385
7210.872977888219,10.765372028452992,6.111730742406449,-0.14664245711614768,-8.752989395640386
7210.872977888219,45.78433412310525,44.04232505528314,-0.12963506987637882,-12.432151651933642
7210.872977888219,33.9733583251126,33.66387790483875,-0.3312698947287477,4.349598335312505
7210.872977888219,45.05998481680115,34.93043464905079,-0.0636250543073337,-28.431659534721277
7210.872977888219,2.2733292565053027,1.7488029046094224,0.04065788786558053,-0.4521132298074311
7210.872977888219,28.111986353516365,21.224692491343507,0.018418209127160627,-18.381844610508196
7210.872977888219,80.61228688296487,22.429485804215012,0.31199198805673184,77.41613507006426
7210.872977888219,413.73098893133374,2.3340923499015753,0.06616775987698156,413.7220989770261
7210.872977888219,238.6128032215358,40.546644435635145,-0.16503978640340042,235.1384881155051
7210.872977888219,128.48976600879783,47.587839399051575,0.22674903865711993,119.34430208571445
7210.872977888219,16.961141337700212,15.596204242505856,-0.17285646110663502,6.519600791033067
7210.872977888219,496.719940182423,28.22530083450841,0.14035536635208518,495.91542425410563
7210.872977888219,58.70219545284277,21.862635737250553,0.19028268792144631,-54.46129861865053
7210.872977888219,20.90508046029931,11.786726834521703,-0.04699949261949445,17.210159666741838
7210.872977888219,531.0510795173312,26.60320970556885,0.12707998207646257,530.3825020545925
7210.872977888219,220.7996925249418,27.077271141220454,-0.027752334841165044,-219.1287776208061
7210.872977888219,110.43483012146729,37.73747943865095,-0.06381064691091383,103.77777518767286
7210.872977888219,12.311707489458739,11.069081095401092,-0.15004368809120566,-5.208398700962947
7210.872977888219,75.59325322697305,27.33858213625114,-0.1888186442998486,70.46277423479285
7210.872977888219,34.49069046404216,33.339833770113565,0.1313494071539366,8.725955840359523
7210.872977888219,40.86939901731202,17.631320672683923,-0.1479135516995575,-36.84452162915917
7210.872977888219,21.818059263130312,21.45693473467096,-0.20894980573612,-3.698695297982793
7210.872977888219,182.2117422020762,49.745703914310916,-0.041311083462293244,-175.28427932050002
7210.872977888219,42.897289026581255,36.07095925999729,-0.013743718233551812,23.176700803414047
7210.872977888219,269.1352672704917,85.01927439006072,0.02719237261720039,-255.34997684873315
7210.872977888219,20.612213445151216,20.390015166451366,0.20940847234715812,-2.6764001642439457
7210.872977888219,20.288779594651174,14.929570685657298,0.05587470152685446,-13.668786329704819
7210.872977888219,180.34223685022877,24.9796615548737,0.08019270878365962,178.59851291375452
7210.872977888219,32.198736214163766,12.081524748910642,-0.04718668156341822,-29.814249815733152
7210.872977888219,693.8370641137782,32.55100126896485,0.11564977490907268,-693.071703956143
7210.872977888219,27.79677498865029,27.758131505843945,0.2702607612296794,0.41247948066280987
7210.872977888219,619.2873975236547,28.213616063334193,-0.1531720723889987,-618.6428254523729
7210.872977888219,13.8548967672668,5.193161372308302,0.07198942069551957,-12.770293733630128
7210.872977888219,162.79511004055112,28.919871042404413,-0.027328714372884172,-160.19982681099978
7210.872977888219,30.67772832883109,30.58222195670955,-0.11649132757691916,1.9833029284044468
7210.872977888219,4.165084439959353,0.444660345706595,-0.2998745624736787,-3.8931511584870204
7210.872977888219,152.16295450896547,55.78157598160957,0.017458761658347022,141.5629773147773
7210.872977888219,709.8364475554255,13.109707344382764,0.20126244114496744,709.714008379437
7210.872977888219,74.62995141468868,61.54288180216368,-0.29976083415570537,-42.19134788334106
7210.872977888219,37.73187912754707,33.339670210834534,-0.24190083294524842,-17.612464956465793
7210.872977888219,56.42228902736924,27.158003520278914,0.17643616901323295,49.43665400576654
7210.872977888219,381.8327399580466,26.34375329044191,-0.26219552659852574,380.92030080460995
7210.872977888219,705.5920887449954,50.93295092688858,0.30098189687551263,703.7499811470187
7210.872977888219,603.7647762854475,44.189309287996984,0.0003846491363967928,-602.1439249653237
7210.872977888219,39.275833883854965,20.266380035406478,-0.18153688779286253,33.61440698596538
7210.872977888219,43.69012179402946,31.818408291298294,-0.039927387766773015,-29.908366506985523
7210.872977888219,71.95148369952341,13.436994752255162,0.03696203482991391,-70.67218800579002
7210.872977888219,44.98357004620542,13.317513171945553,-0.16953723993287653,-42.94453421878392
7210.872977888219,768.1816462709612,50.27580097512206,0.07025760597094813,-766.5334153922254
7210.872977888219,49.00470169123604,35.94672276451502,-0.14675476412479627,33.27715009589067
7210.872977888219,108.9250163286462,26.772360242799735,-0.12168134501835022,-105.57453029970331
7210.872977888219,156.37213805529646,27.994728564545856,-0.3010357266459252,153.83935275215012
7210.872977888219,11.5891820678191,6.932879999403861,-0.05603593987856106,9.183546211320966
7210.872977888219,25.535838983415303,25.323290712154837,0.14708895648794446,-2.9807264316915516
7210.872977888219,55.78820374627309,27.19698250930973,0.08614498789418945,-48.690211991653314
7210.872977888219,23.582677576538902,23.426467481263536,-0.07059152766730703,-2.331236794410758
7210.872977888219,342.98674213624884,22.355410562415578,-0.05473331170899405,-342.25463364170133
7210.872977888219,24.633745399002244,24.542905714581362,-0.023835406363190245,1.600927377658735
7210.872977888219,13.175992921663275,12.454185224148533,-0.27877582970523984,-4.06431901284745
7210.872977888219,330.95545356615906,27.50130266512685,-0.3381093789095963,-329.80778132736367
7210.872977888219,927.7782462546485,19.0099261759281,0.21652988883919566,-927.5824202679087
7210.872977888219,122.69164272194578,22.664214054037316,-0.3166444138665862,-120.5718403134191
7210.872977888219,1633.0813055565234,36.54527504284026,-0.30629871480987375,1632.6717355171145
7210.872977888219,41.53039717608199,26.398276109588096,-0.07139359100263724,32.03117475409438
7210.872977888219,21.87580950133129,17.642643299412303,-0.24342169482587975,12.857887452992676
7210.872977888219,1299.6607791327065,25.17703679381847,-0.29059971027636045,1299.4161263933322
7210.872977888219,154.0843067945295,30.91884146151383,0.20307306502802835,150.94387682011424
7210.872977888219,36.74047940937034,27.60791124475898,0.1326513967435598,-24.202165454064602
7210.872977888219,118.40452268746994,76.34374965041378,-0.13352161919060257,-90.49497996721605
7210.872977888219,370.41724370534575,21.9727580764458,-0.14035031699550585,-369.76236826331456
7210.872977888219,44.52706838730401,40.69023757528867,-0.19981239051757718,18.028333405223858
7210.872977888219,44.01878872371942,7.413457436134069,0.31932472177616406,-43.36690888679107
7210.872977888219,30.98083823223253,30.00348064811847,0.10796249984663785,-7.595273253508961
7210.872977888219,133.9675607085962,26.360458971422478,0.3246915369690482,-131.34087119233027
7210.872977888219,29.89097807852709,29.85712552782432,-0.16220306964692718,0.30440269056869684
7210.872977888219,164.39441858384555,27.4470884059355,-0.10556149578505111,162.08105195072957
7210.872977888219,147.07268356026324,20.265207540150556,0.309886216621237,145.66295317832808
7210.872977888219,347.57428868028677,31.332357644038872,0.07252250893032708,-346.15641060319274
7210.872977888219,16.895154169363998,11.179267444532616,0.051249165200236306,-12.592217138389776
7210.872977888219,65.98416195931125,9.596140622841702,-0.16372169424459695,65.26785774754066
7210.872977888219,29.574109499368493,26.670742889676763,0.11513796044667118,-12.703641791650067
7210.872977888219,258.8232473343912,30.780617086017475,-0.1925014723438765,256.9826575098672
7210.872977888219,361.3609094622609,11.593546125178912,-0.10308135251524447,361.17223356038534
7210.872977888219,144.14169182393454,26.565194784816367,0.17705448709240398,-141.6657430176632
7210.872977888219,91.12780209450631,38.99456269669284,0.04881018153824959,-82.35165060496648
7210.872977888219,879.0502809412839,22.471720195635747,0.007685825064737412,-878.7619213987679
7210.872977888219,183.9584998419611,14.967354243701127,0.1049473771878258,183.3433753977042
7210.872977888219,33.541010345114955,19.051613215423703,-0.1763138623530659,-27.569923239103208
7210.872977888219,191.45013152802372,14.49922018108644,0.03615992755012671,-190.89531296976543
7210.872977888219,234.88601445046302,27.9979337428961,0.26236267996829393,-233.2071675603106
7210.872977888219,54.65165667218345,24.613659352963985,0.1488288923514763,-48.77546048330415
7210.872977888219,22.372789581756308,21.19296064009582,0.10674678880996713,7.0345634709675835
7210.872977888219,99.53880133040927,33.63670390246669,0.00992747970539979,93.67305571745118
7210.872977888219,48.60871241521475,29.767873000528745,-0.15962314308947217,-38.40249373763031
7210.872977888219,30.900669166661082,29.35774359659299,0.13214366879716427,9.54217632629154
7210.872977888219,11.20876795384991,10.84195570732992,0.06621664618713109,-2.4860482630907654
7210.872977888219,6.602231159966125,6.421668548993602,-0.04273176734020517,0.6679434554316978
7210.872977888219,296.86431312582965,20.94984472428446,0.1362917977478542,-296.12092493333176
7210.872977888219,34.15950287102267,31.752316563938642,-0.06877114283274079,12.520129587022943
7210.872977888219,25.23558962838517,9.17828291283159,-0.12099007110527518,-23.46648276146382
7210.872977888219,78.8866564880798,22.03513802258,0.2591011352898651,-75.7336548432924
7210.872977888219,684.6674690014553,27.381105491349903,-0.1645679019576589,-684.1183285320335
7210.872977888219,322.5058717822948,35.02919571801998,0.0754464837926216,-320.5948899068135
7210.872977888219,258.08808941417567,30.920235187518298,-0.1462092013370184,-256.22543964525585
7210.872977888219,218.24338709535192,22.516649409919477,0.030158672996213286,-217.07434658610384
7210.872977888219,56.86174116920586,34.24374751695386,-0.11541325068095931,-45.3729698135084
7210.872977888219,23.988988602050906,8.6157868827304,0.047771736028785955,-22.345779322481363
7210.872977888219,36.54927793655456,19.32451419492736,0.07626226016825953,-30.991989255424368
7210.872977888219,77.68192756908735,28.567867750349393,-0.0008452977010326836,72.22503130812788
7210.872977888219,67.3054845108264,31.6783995240102,0.07971785797825436,59.368318479004465
7210.872977888219,12.029496130757222,11.54727343284549,0.08835492439771936,-3.075352331268464
7210.872977888219,165.69723726244,30.026420926508333,-0.3386747666319411,162.9477527530804
7210.872977888219,829.7408948169075,28.39287057849187,0.1371252474569163,-829.2538061255248
7210.872977888219,27.43535039988034,24.003268594012983,-0.20578520781076345,-13.213460786002676
7210.872977888219,432.02436925607606,53.274798476589275,0.28908037351372484,-428.72469517868205
7210.872977888219,69.62966509426698,26.921051045294046,0.14325279479452085,-64.19986834503898
7210.872977888219,83.25825709962862,10.114787389171845,0.1820656226595022,82.62984720169736
7210.872977888219,66.41933083866418,32.80441590376997,0.12505757798195677,57.73628418938734
7210.872977888219,76.01621259887219,43.059773248721044,0.17187567737228862,62.6289654195588
7210.872977888219,81.85627865346896,26.028383639742827,-0.11115436071601907,77.59547402994534
7210.872977888219,37.187533233181256,7.417899539851985,-0.07969293358384603,-36.41397243571567
7210.872977888219,82.9906639800598,44.13016853833074,-0.0702609989217472,70.27140201496515
7210.872977888219,3036.696282259022,39.09812795851934,-0.2313661303604771,3036.444251075713
7210.872977888219,39.05851281273176,30.718159486368737,0.17960738079485905,-24.08373283418105
7210.872977888219,60.48615967440284,31.71588183774147,-0.17768896692573366,-51.48536804928086
7210.872977888219,23.995422914546605,16.579834526599747,0.1869943478496742,-17.290193352287638
7210.872977888219,31.14831541106147,23.065146886376603,-0.033972963364967204,-20.88807657544614
7210.872977888219,241.43184128035972,28.091587227008795,0.28993200032628025,-239.78784163433815
7210.872977888219,34.73659803287782,20.95537130430147,-0.1342081274380959,27.669152312678825
7210.872977888219,49.39849650650443,21.52460360457505,-0.05850243885733183,-44.440925050687156
7210.872977888219,98.06430058879705,82.40633655295004,0.2391966227279297,53.13983323265746
7210.872977888219,157.11746352592894,30.712884907135805,0.27664064296872526,-154.07996579888118
7210.872977888219,152.9127651988039,27.01130488290437,-0.16261727959688257,150.5017377641029
7210.872977888219,1060.3669546060978,31.508904726942497,0.08224156023541009,-1059.897804943935
7210.872977888219,602.35904843901,16.170594148970547,0.2675942262174896,602.1403157567812
7210.872977888219,56.24134040709499,16.92284439925751,-0.17399031167567755,-53.61689827585887
7210.872977888219,40.58094905018457,26.193410485998957,0.2821761280221915,-30.963452564039283
7210.872977888219,64.0808549569083,15.478639619298818,-0.13967959672790967,62.16787371530049
7210.872977888219,801.1690014819098,41.76214871233719,-0.09669406369786333,800.0786079291423
7210.872977888219,28.63373083918539,25.34558400010947,0.2625907117683752,-13.24836988876384
7210.872977888219,46.45185874235699,40.12583718560194,0.005944415990759542,23.362120635025214
7210.872977888219,842.0515966022779,160.80116272611258,0.2740565582429245,826.5542321254578
7210.872977888219,132.6994510694257,34.363017727621354,-0.327365220767753,128.1651922478074
7210.872977888219,974.6332901091392,15.757821028741631,0.3104503956678709,974.5048697831483
7210.872977888219,80.34813154784585,20.75335721952786,0.01971628764562152,77.60938321970943
7210.872977888219,39.21992149143513,7.751131885798758,-0.27577008411575915,38.42059984267679
7210.872977888219,46.97829824193411,33.987734573217324,-0.1794012468401545,-32.4015210230688
7210.872977888219,73.66044852548612,33.748584797981955,0.010708293637885254,-65.45984212911577
7210.872977888219,220.37540783787506,62.57444950906075,-0.22990981212616698,211.3002653452029
7210.872977888219,36.24711627075205,22.931432291978446,-0.11155304093121361,-28.037238666280697
7210.872977888219,47.23967473073745,21.79414104430881,0.034267778643102716,41.889109033889646
7210.872977888219,29.959085268677054,29.907854488922496,0.18458055288669464,1.0626877019601382
7210.872977888219,242.3466113779303,69.14887797439468,0.01563620922216791,-232.26796770515708
7210.872977888219,58.8264765184702,22.442832595945227,0.027180251105075867,-54.35962850323348
7210.872977888219,44.06176109745259,39.38500656888806,0.03410732857254658,19.70673058614412
7210.872977888219,19.51536630938165,15.930851415495798,0.2977113244891064,-11.183255718310075
7210.872977888219,27.302070625027053,16.865334567753557,-0.03895729344382446,-21.425647663211706
7210.872977888219,136.53458121562025,41.447174772763276,-0.2172797597821591,-130.08409858900475
7210.872977888219,365.7783895583238,36.03188389205496,0.08920528779541086,-363.9967334999231
7210.872977888219,24.446043367128624,23.972772239663037,-0.23439089731122623,-4.577841575145664
7210.872977888219,30.72227350700281,17.962460373183156,-0.06258230841599859,24.885749644378507
7210.872977888219,92.37295685858635,26.697402114443392,0.08898974791285355,88.42002208261336
7210.872977888219,1053.4894695317712,35.593304409036634,0.012761151470736738,-1052.8871142139874
7210.872977888219,37.36118000997852,35.93699900437284,-0.01017360073866805,10.123542656732038
7210.872977888219,50.01087822439221,23.656756329034565,0.17378139344895005,44.03989062109557
7210.872977888219,250.65825976552077,26.5340198338454,0.11592550660578915,-249.2460468824739
7210.872977888219,62.33163375667907,7.490839937544173,0.10543064203933394,-61.86440910017396
7210.872977888219,316.44124163834994,29.386124985068513,-0.026350408218098545,-315.07080270752726
7210.872977888219,58.765437564208405,21.83835875640037,0.18705020865968094,-54.53919779650382
7210.872977888219,138.71082090551482,35.692395061788716,-0.08314526486226069,134.03295939069258
7210.872977888219,45.49694359275016,29.54553142023023,-0.11129622738723335,34.57047016826568
7210.872977888219,111.8645013490383,33.472086400022775,0.04828885418031437,-106.73040854139025
7210.872977888219,45.859220306995944,34.435907192194655,0.14432476147253762,-30.25412200852096
7210.872977888219,21.357068545112885,20.89399244156792,0.2830493757885193,-4.193051975628077
7210.872977888219,1513.576066452409,33.0469363476984,-0.03634049029903945,-1513.2146258743583
7210.872977888219,480.3904318575377,17.079077193812022,-0.13407407811426245,480.0847326376334
7210.872977888219,129.28810398526704,28.264180589933424,0.0291809828565684,126.15326163552885
7210.872977888219,40.007986610313274,25.361359859790888,-0.03073547163983956,30.91174241499623
7210.872977888219,210.61911054801374,48.05706326621819,-0.174639405633207,205.0585141964806
7210.872977888219,550.1032448393308,12.247069441159164,-0.0020611196960288202,549.9651676367723
7210.872977888219,97.83531402560895,12.08043010099695,0.1682224962710036,97.07667034557424
7210.872977888219,83.81418195896377,11.92663431045106,0.2239645028857875,-82.94949473326291
7210.872977888219,173.61540983250293,28.99995037219898,-0.23897409644401585,-171.1705367352287
7210.872977888219,1240.1884751044863,22.214212353810733,-0.19187594748721817,1239.9887265940117
7210.872977888219,50.97613551645153,13.303181926269803,-0.024685841754643497,49.19031895164451
7210.872977888219,9.891591222672911,5.5717622413922845,-0.23898685802108843,8.052221609633467
7210.872977888219,90.04694929827805,27.206235973403725,0.22970538462854437,-85.82725314636082
7210.872977888219,396.67473029942767,38.746867574470734,0.030057230834544795,-394.7754011497931
7210.872977888219,195.94725287753613,27.194516446270704,-0.09736933809753912,-194.04605394041306
7210.872977888219,1219.1301127451645,33.245055877842375,0.2570771398494973,-1218.6759324439731
7210.872977888219,40.39434780968411,17.317831950430133,-0.023063086750076425,36.467682195712996
7210.872977888219,30.014298508675864,18.338826215008282,-0.12579789022241933,23.719740471631287
7210.872977888219,180.68698259765813,17.560113251288406,0.006733779711255178,-179.82637293409346
7210.872977888219,5.5060217563956115,3.0772107758149785,0.11648593688516416,4.350841938834136
7210.872977888219,195.4156044814124,24.162220077928563,0.03482525888909752,193.9111671051206
7210.872977888219,53.323424685937574,17.30479465270411,0.28751778055865845,50.4177090010798
7210.872977888219,356.1811670554232,16.385455423022343,-0.11845579189358266,355.8013812914389
7210.872977888219,617.2618262142649,32.568807408954164,0.039862565465183374,616.4004620710718
7210.872977888219,77.70013081024562,19.72790276824213,-0.03498289753043639,-75.14130223532226
7210.872977888219,26.64109313719411,11.239405816357692,0.26997410203187794,24.113213380866682
7210.872977888219,29.66110873875531,27.072479103071117,-0.18298002284765408,12.038484550157586
7210.872977888219,2809.2003427151385,26.209969981044726,-0.23445233686533626,-2809.077721310265
7210.872977888219,784.7715187456822,32.39906078098839,0.24450307375519806,-784.1011886601682
7210.872977888219,101.7115968797572,32.90771466211498,0.04946718215449083,96.23110283932138
7210.872977888219,303.0974925807394,15.748284816114584,0.02317274306828591,302.6849473334163
7210.872977888219,34.58803768325739,27.930351308318876,-0.21219858275964357,20.353848369802147
7210.872977888219,439.5420604507337,27.24839518473164,0.06065874538344767,-438.69447287466113
7210.872977888219,794.1413475292727,39.23942516813716,0.053954692442377314,793.1701209715995
7210.872977888219,33.74691997052015,30.131004908011526,-0.022530270235597265,-15.135157357758159
7210.872977888219,38.87429052081944,14.913270625800257,0.15672272106798085,-35.87306239860931
7210.872977888219,235.3340093052328,34.67235774897161,-0.08456011956728074,-232.76170805894165
7210.872977888219,7.557419743103572,7.043040111759922,-0.10792396546214489,2.365349171342654
7210.872977888219,203.7864609401613,31.027828922910157,0.0040890803512079734,201.40578895169085
7210.872977888219,41.21830662969505,33.23769584026214,0.2874484414925247,-24.335531536631095
7210.872977888219,1016.6317180988996,14.843603248131515,-0.07578051439442107,1016.5224091429429
7210.872977888219,947.2712328258453,28.682906563456328,0.14460010977474977,-946.835864786714
7210.872977888219,128.98045764294307,23.026464057380597,-0.2059060146038292,-126.90072637553122
7210.872977888219,50.61769151793777,23.4879692009057,-0.1391045562883983,-44.81677133029481
7210.872977888219,188.9867860922936,44.661858840262134,-0.2434198249896983,-183.6283223643421
7210.872977888219,40.0094386293974,39.74464329502315,0.2143909863868129,4.3782291423524
7210.872977888219,25.26910081560549,12.111454003244935,-0.036551558064467235,22.13447869427285
7210.872977888219,252.53417756186232,21.9495701380848,-0.10214209724700014,-251.5746670865701
7210.872977888219,209.99736520941954,40.073493586485135,0.24643783695673602,-206.13355893738378
7210.872977888219,394.9176003078145,23.263203645893462,-0.31239457922217356,-394.22929006324017
7210.872977888219,30.026103531900514,28.83065770581486,0.32577388245902755,-8.267423181569592
7210.872977888219,382.1796024270735,57.673184906531844,0.0219880028117237,-377.8004077759947
7210.872977888219,102.20761020058958,27.02072266432839,-0.1207500487707043,-98.56144222852024
7210.872977888219,67.18884169984267,9.134562531159602,0.23815149456827847,-66.55028058035207
7210.872977888219,34.409769498212945,17.63748235687833,0.060720629970458906,-29.51345644215782
7210.872977888219,26.803419450233275,26.610748492128053,0.2037919085932692,-2.888974367996339
7210.872977888219,156.94146399337836,32.84291257076425,-0.06436987519758447,-153.46028286139799
7210.872977888219,61.204196645545096,60.948466218611266,0.02987200516262807,5.41605072130631
7210.872977888219,570.054219600901,11.533966319528115,0.2369187749355627,569.9358043853301
7210.872977888219,54.10511492772867,24.242728230750618,0.25404127742434174,48.34961631108524
7210.872977888219,96.50306715466353,17.29539241492654,0.1918490227627444,-94.93034767950004
7210.872977888219,47.75214757225901,24.739110284211563,0.20362071771473736,40.820324641516976
7210.872977888219,822.3440197028752,27.124175789358485,0.012884835955270632,821.8954081925136
7210.872977888219,31.818543238781437,31.478889400984094,-0.11528384272121878,4.425185948807452
7210.872977888219,716.1598738430782,19.65823817865624,-0.08797212257418016,-715.8886835120929
7210.872977888219,54.191859843833385,31.950418308227043,0.055643737413293676,-43.74953362225223
7210.872977888219,92.82297232030015,33.23862195238245,0.08413773302228165,-86.65672199576206
7210.872977888219,905.1857022466411,43.96613078120332,-0.1581474878865301,-904.1162570324536
7210.872977888219,212.90313078434633,34.06419972387158,-0.09240403569582681,210.15580220771912
7210.872977888219,67.62933664261584,18.12412485780703,-0.08643674649236037,-65.14086387725327
7210.872977888219,1361.6973564417808,18.73796634408824,0.1011187644755,-1361.567723353468
7210.872977888219,274.98190103163057,30.56199525973201,0.12730729958346815,273.27475272826103
7210.872977888219,27.77648658830041,27.23720808148542,0.07440741316415454,5.2686347168753525
7210.872977888219,150.5339749710941,37.186152127151416,-0.02522746578478383,145.86213840224747
7210.872977888219,20.20348367580441,15.120689799019898,0.1488786838847974,-13.327403081804633
7210.872977888219,605.1289564635471,31.840370298339867,0.016058005323363614,-604.2891202538678
7210.872977888219,62.47076603018627,31.992333063685706,-0.1809267615528941,53.639079449357936
7210.872977888219,269.9735392649598,26.67695490659622,-0.16277696888150206,-268.6486959375491
7210.872977888219,86.80755947512382,31.933875785279838,-0.19369935057208523,-80.70835635202938
7210.872977888219,129.63032882199988,12.101282891503146,-0.2048132637577054,-129.0567142752895
7210.872977888219,20.100362038425928,8.436349747033786,-0.2693655880788496,18.1900067160124
7210.872977888219,131.93934962240147,10.857203648531375,-0.13369398697975124,131.4845678350184
