21262.51541494458,1560.8452923485693,120.02671843397549,-0.05703201961251195,1556.222988391994
21262.51541494458,30.688739282112028,9.149176287010045,0.030934391499071782,29.26550322061081
21262.51541494458,245.02613868488106,19.156579702155856,0.26702881057320094,244.27267987282025
21262.51541494458,35.96085071263364,11.703355833528667,0.11574438048553211,-33.979114072412486
21262.51541494458,332.1598640498128,13.732635880054826,-0.241365093782869,331.87333590387306
21262.51541494458,227.5220718318132,24.558630868982746,0.24985022451733022,-226.18904425069888
21262.51541494458,39.481422770614145,18.366613534852164,-0.09486117429270129,-34.92593014235221
21262.51541494458,140.1089916617594,27.040626099519024,0.06850135972794243,137.4689373490688
21262.51541494458,717.4366262494252,11.899160987799679,0.0547138239604757,717.3368100146812
21262.51541494458,90.41355210535713,24.206009281511918,-0.38049192142022975,87.10289368652869
21262.51541494458,13.954112343147264,8.411843477383117,-0.11724751957715877,-11.06000620767615
21262.51541494458,37.83083665162213,16.978757798903274,-0.0625790942758426,33.78267918508473
21262.51541494458,17.655043898999615,10.344705298448053,0.12199075314703951,14.249635409985437
21262.51541494458,22.08039992201139,16.218572235162814,-0.20962326489996386,-14.92773851435907
21262.51541494458,132.57669838794217,26.419022806515542,0.14396294726235323,129.91141138392544
21262.51541494458,64.13780169087767,38.697709847010174,-0.04111704932946061,51.132401776375794
21262.51541494458,532.6750907826379,42.82808088623504,-0.05575064692061694,530.9490409290296
21262.51541494458,84.65245920295342,33.30850329435381,0.17957909685030427,-77.81342784149268
21262.51541494458,39.419252065782025,18.54609346494172,-0.09701764361769125,-34.76046291247621
21262.51541494458,31.403674933426945,25.76257938288962,-0.3677972643628898,-17.908779180460243
21262.51541494458,53.17786310809272,24.035300709390043,0.24980315066102585,-47.41841822156938
21262.51541494458,38.618333596240625,23.135737297297876,0.1865173326727929,-30.89430213555665
21262.51541494458,133.98836896778053,23.684824406611085,-0.27463082172020414,-131.8719683370327
21262.51541494458,21.727390770618022,12.03816529904237,-0.20120528876895247,18.04164477150963
21262.51541494458,23.40738563413978,20.233871450823187,0.044582699886588674,-11.69929503932893
21262.51541494458,107.06014054363499,70.87594652503546,0.16165304770515004,-80.22983927064078
21262.51541494458,119.456952853952,25.27220066276709,-0.13341599240245988,116.7460534779768
21262.51541494458,32.8859370878815,29.183878290634052,-0.17420253517325232,-15.104141923320167
21262.51541494458,26.525728580255482,22.65247399492263,0.07880230990327076,13.742373612887636
21262.51541494458,269.51300292007454,22.37027480548786,0.07128155511334151,-268.579976563333
21262.51541494458,16.298012006494524,15.982584524919176,0.096972372839432,2.9244020455572914
21262.51541494458,182.70636693523807,11.3957451185333,-0.16636521406264307,-182.34611369091567
21262.51541494458,174.23052353625852,36.89939713581841,0.010843328991261182,170.27357119897263
21262.51541494458,30.40897036738213,28.922108023037,0.18282636343486386,9.303927371085615
21262.51541494458,463.2268081462766,21.48257202212318,0.02880925943875112,462.7266508408886
21262.51541494458,226.62907596427783,29.213449381581146,0.15340056423524828,-224.73466190068814
21262.51541494458,110.80707032491348,27.96798629487051,0.08982490087341319,107.21179903249893
21262.51541494458,41.071263932993105,38.18164373674956,-0.11615561441946122,15.079013700645437
21262.51541494458,58.57684563451812,58.354866278085524,-0.21895056818716477,4.92826850964022
21262.51541494458,37.711295310017356,31.71004204890369,-0.10286518172252959,20.37115091662681
21262.51541494458,67.57558342308957,36.88685502874439,0.22313593440496254,-56.60520254456837
21262.51541494458,92.91444069562763,39.18695232260677,-0.15931250451700485,-84.23674982257121
21262.51541494458,51.909199692969736,7.975844631000969,0.15213939596783418,51.27676971581222
21262.51541494458,88.4812488866013,8.49282605369271,0.2965782203060042,88.06301547875329
21262.51541494458,177.3419200578025,17.924404884894848,-0.3950430994928743,-176.42872669709266
21262.51541494458,131.01279071824752,18.3133379479096,0.06968849731389357,-129.7202662354646
21262.51541494458,22.80911271498217,16.073097117813823,0.2900399598704599,-16.130914183804485
21262.51541494458,41.74628829582362,11.470967094812636,-0.13041311699001185,-40.11897102997736
21262.51541494458,1925.8290593566146,33.50948273792717,0.185716137459854,-1925.5370745021332
21262.51541494458,28.493412517178406,28.46481174117225,0.03106097854059702,-0.08618774178249963
21262.51541494458,9.344427946947823,1.3741720154270902,0.2777306624518848,9.150529728073156
21262.51541494458,37.47484179428483,34.012265680104946,0.32267516220878767,-15.67816236839718
21262.51541494458,49.0722200465229,26.782505109258828,-0.08084890796417564,-41.09930665496037
21262.51541494458,226.30579408047768,25.136870027603486,0.16675824910529788,224.90176018651965
21262.51541494458,478.6126535256321,35.083016706298814,-0.3151273267866474,477.3233014342562
21262.51541494458,64.6817049643709,11.361542458945449,-0.24285436836079297,-63.66285161304645
21262.51541494458,24.342649491174814,20.22365536424019,0.23410108304899807,-13.48676715670022
21262.51541494458,41.48304858481985,24.687554789098495,-0.39302547526226717,-33.31055137789045
21262.51541494458,98.20488700490952,19.538196271544756,0.06412162137682709,96.23322685131583
21262.51541494458,1214.0247873200665,17.892204626443558,-0.16704368467199937,1213.892254148301
21262.51541494458,200.52661943897382,22.31039668879464,-0.19274052699373348,199.2774786522511
21262.51541494458,18.45071657895657,15.30737625184281,0.11700974910931544,-10.221488491292003
21262.51541494458,30.589579974517974,30.152957330805833,-0.17879802404641484,-4.986876997493635
21262.51541494458,171.69607030818005,29.774515677951207,0.3221178720313942,169.08960452727123
21262.51541494458,19.70450870861242,18.601446353340318,-0.266328175630078,-6.368851545761646
21262.51541494458,553.4145615426332,25.4327903057615,-0.13875077036260275,-552.8283731834043
21262.51541494458,124.13068781143294,19.34586035564401,0.18337980495664744,-122.60714114269193
21262.51541494458,94.32041869334589,8.850015736974001,0.030531808231794407,-93.89567090899118
21262.51541494458,384.34809058754365,10.663018613434224,0.32725751842101275,-384.1979008513116
21262.51541494458,16.737999093379745,12.742455010445596,0.006794509447282235,-10.778207248373567
21262.51541494458,177.2916741858931,25.100127798609936,-0.22973725002201648,175.50113357076577
21262.51541494458,25.38327663262422,18.04103921125325,-0.0870052627985097,-17.81020523655174
21262.51541494458,77.8583957375966,11.675002479419184,-0.2252986532025958,76.9672182695472
21262.51541494458,33.379869135871175,32.526309457481325,0.14961013887623345,7.389980859778423
21262.51541494458,44.884403337333794,10.066156483446584,-0.0007179244341371125,-43.72255138691372
21262.51541494458,140.44835487733602,39.86148603183881,0.2924311778155206,134.6666111060473
21262.51541494458,132.71665682031974,18.323819635436493,-0.05001895676161489,131.4394365224227
21262.51541494458,40.62255157862642,17.315124927329734,0.07056727758131799,-36.72536602221908
21262.51541494458,89.91784424946829,44.77923191290137,0.24551467828917853,-77.96382603491489
21262.51541494458,69.04856694427512,27.229112225804997,-0.12642627836298492,-63.440077274119076
21262.51541494458,27.099250815820337,27.013689494828164,-0.08578800221628316,-1.7326161640493765
21262.51541494458,10.002291465588602,6.04656845153783,-0.18436658620140528,7.863217991563403
21262.51541494458,1379.5907578224376,34.98056425303758,0.20329514108741623,-1379.1466046829141
21262.51541494458,168.18650948376103,13.745767233607804,-0.22233015504721307,167.6188705620294
21262.51541494458,50.17243525304821,38.12418721653822,0.06241131832746691,32.59133407555608
21262.51541494458,39.49458654791927,38.60218031352885,0.010615337858731262,-8.250652861743347
21262.51541494458,20.664460018663124,19.60268725412086,0.02149405318314028,-6.413535840956374
21262.51541494458,161.7595097199414,15.88002300939442,0.08073939472326805,-160.9730930277
21262.51541494458,1329.8233228269987,28.88800750021271,-0.11469940775202983,-1329.5089014914681
21262.51541494458,1911.8996773316594,22.077828718256413,0.023167203790674523,-1911.771776250232
21262.51541494458,334.2900809345771,27.0202897214913,0.17393798443793299,-333.1938043299843
21262.51541494458,22.403228415886648,22.36482089549176,0.2638198745427301,0.17079970217306129
21262.51541494458,55.28368955788467,9.082872378286748,-0.19401729678518398,-54.51724003907728
21262.51541494458,28.867081157592466,12.570929001872237,0.3294489694334733,25.95285968179531
21262.51541494458,108.29593269222369,20.184317155208333,-0.16503326119606318,106.39057517645445
21262.51541494458,8.600434589703967,4.76209048702694,-0.30708444677547486,7.040952504114239
21262.51541494458,557.7560324307631,23.521479797116708,0.2366073657095838,-557.2583378126452
21262.51541494458,53.18441953400108,32.43921532765196,0.2502897625215171,42.125959797103064
21262.51541494458,71.97781812321398,48.90458629562285,-0.19033157730989086,52.79669363341446
21262.51541494458,38.95151571243064,36.47410182436218,0.13173197060705502,-13.609645946431156
21262.51541494458,23.614426968181693,23.577176929739704,0.16096669599847593,0.33365023545055633
21262.51541494458,45.87715554748198,17.236076164138716,-0.13599107034055247,-42.49696377058195
21262.51541494458,61.29142352795501,24.970671713322787,-0.2685713317253794,55.959015050355326
21262.51541494458,24.91648518917652,20.27606832672161,-0.17439449886271863,-14.424327285833346
21262.51541494458,46.85481416117751,19.288763613874583,0.23532966632483182,42.680688513333465
21262.51541494458,283.5136999784181,29.50704095919935,0.040529277963722694,281.97115155696287
21262.51541494458,90.61314231982777,16.67140452436832,0.09684008817287469,89.05714905583413
21262.51541494458,181.58967402657808,16.99521166940085,-0.15489019474653173,-180.7880744023682
21262.51541494458,22.617891546639672,21.705209356502642,-0.13224477351552946,6.230149261720982
21262.51541494458,248.7335536357334,17.48230129323221,0.19548989342277523,-248.11507606985913
21262.51541494458,27.12817873519362,17.84908671797135,-0.09575046168024672,-20.389172625919336
21262.51541494458,599.5297402149995,51.371217880227526,0.21445789963762069,597.3233971035069
21262.51541494458,52.31918049572653,37.50856332700357,-0.2766561885851015,-36.45143522468479
21262.51541494458,145.6778852549787,30.246011387209133,-0.0782655856921761,-142.49771319471463
21262.51541494458,615.8456943404219,32.7985445672965,-0.25211468210596444,-614.9703167582871
21262.51541494458,21.266532524973346,18.883056934896587,0.043202266022065935,9.699125924067264
21262.51541494458,35.12888387955589,33.61783632289535,0.09345711950232406,-10.111882765076643
21262.51541494458,114.08903436534678,16.382093792629295,-0.16183614416199876,112.89945933505051
21262.51541494458,21.80117316227233,21.690898339932566,0.31602575147720396,1.753725143800268
21262.51541494458,19.97552140124013,19.4218033854928,0.3348726621000796,-4.481318165935198
21262.51541494458,44.23600838301319,11.524478235828557,-0.28289766857671156,-42.688524824132074
21262.51541494458,78.97029237677422,29.230701418284582,0.0861848771687822,73.35015397756673
21262.51541494458,73.7078099934877,34.579783630718254,-0.23249060544482292,65.07999008838796
21262.51541494458,36.37850688118012,26.376829494954713,-0.26314353822857905,-25.019367055821867
21262.51541494458,37.65133154081176,12.264870224861196,-0.13435247970121036,-35.57466821028888
21262.51541494458,579.2804089428812,27.036328083311282,0.2706006909900975,578.6476780112115
21262.51541494458,26.347746583160536,10.017519853526602,0.018577344338230616,24.335818140642516
21262.51541494458,8.368176604078023,8.24398387195327,0.17588740510895837,-0.6414958411690546
21262.51541494458,20.25687919076124,16.683345801193866,0.08227556797609405,-11.418393138060049
21262.51541494458,284.4145463982556,26.29631972444553,0.3922155886516686,283.19315543018473
21262.51541494458,203.52469132207426,33.31619176253479,0.21501406969719786,-200.77515896354046
21262.51541494458,20.213732763317473,15.126020533030612,0.19577053544551307,-13.346891497877028
21262.51541494458,24.789856470969468,21.661637291860195,-0.21862056853250697,-11.985074152114077
21262.51541494458,19.334443288045726,12.726129825141877,0.24078604179759336,14.497850968742442
21262.51541494458,205.69928606643145,21.166511076833377,0.07896898423091066,-204.60339245640807
21262.51541494458,559.3898682680317,21.192203141636472,0.00016336623554733153,-558.9868465273581
21262.51541494458,564.9848644297945,17.885491527836766,0.09380377125231866,-564.7002539153943
21262.51541494458,23.910989818398562,14.152292241934543,0.15801359321199102,-19.23024788702161
21262.51541494458,12.498652302111818,10.140585688548855,-0.046308740425591036,7.194583411174227
21262.51541494458,480.33130651283875,37.50959944839157,0.14978496486478746,478.86276831020564
21262.51541494458,77.00821060392343,30.79480397104076,-0.19700935556538512,70.57113489107795
21262.51541494458,15.266729912092558,14.722463258161271,-0.09275291410001829,-3.8331264543840677
21262.51541494458,201.7712701656949,52.553349932901625,-0.0493522495191486,-194.80289469913117
21262.51541494458,24.23613283591014,22.00618804354406,0.0711513899998149,10.074328950816582
21262.51541494458,257.4688549805999,101.26625621704261,-0.14864368674688425,-236.71441419051214
21262.51541494458,142.0390363200229,21.2006986157929,0.09137366756077965,-140.44212050333576
21262.51541494458,317.7477713730884,27.774082370937258,0.28510354231672236,316.52890013501843
21262.51541494458,30.68901603531817,15.442184411759861,0.011302609499371207,-26.490259752553104
21262.51541494458,511.67111276989596,19.323538253875768,-0.06963646802988516,511.30451103720424
21262.51541494458,62.06627159752469,18.479182982262042,0.10038931966758587,59.23775090267839
21262.51541494458,17.416734748663114,7.734338578795982,-0.18242553205110748,-15.552129136442801
21262.51541494458,1070.9982047174658,14.044022869576233,0.10110207463344957,-1070.9053595214384
21262.51541494458,1.5843166432306413,0.49220991146575666,-0.18696546877073641,-0.7824169221456154
21262.51541494458,46.656604498958544,32.62084202534308,-0.12874234864072664,-33.33289933436658
21262.51541494458,175.1527305287423,30.188206204570793,0.01521192803716988,172.52689741057557
21262.51541494458,32.80416826120666,32.66049988451713,0.02837573190510355,-2.7899356835516365
21262.51541494458,99.78099129493553,24.17681261004516,0.0374511932403455,-96.79930731634595
21262.51541494458,90.33775303842111,4.319005427563902,0.04907631393471798,90.22545511861023
21262.51541494458,417.62025164748223,32.791066589654875,-0.06383301672761547,416.32895143991936
21262.51541494458,49.97227809165217,36.531836870552276,-0.182673517182518,34.07344195434909
21262.51541494458,33.93211129441662,33.8431985072801,-0.07324099569854904,-2.09763465540582
21262.51541494458,52.631974498412546,28.04244974201209,0.20060264952260407,44.52061156748387
21262.51541494458,278.0911500580387,27.961904050033297,0.05834770864362871,-276.67886728433336
21262.51541494458,124.5190322810222,29.44124382994513,-0.3771302171731597,-120.98115422843661
21262.51541494458,352.928766831609,26.902902743214604,-0.1561658467979957,-351.8995641332839
21262.51541494458,64.97229416106595,25.141926057721978,-0.22555251977023713,59.89666962710407
21262.51541494458,75.64371827411105,27.87881366439808,-0.18110687514336937,-70.30711491020044
21262.51541494458,89.8449750610307,12.862760478224466,-0.030119692831398235,-88.91033333138876
21262.51541494458,185.62855707839861,18.37008768989682,-0.025278031576806376,184.7129659390277
21262.51541494458,172.56993041811384,33.03565184076777,-0.3126476515946835,-169.37328061743293
21262.51541494458,464.62210022840316,20.58511627634702,0.05203420105193789,464.16411499024883
21262.51541494458,31.05264762761147,31.024314668038237,-0.20670596608282463,0.30893430408026173
21262.51541494458,18.581839752531707,17.274015573032464,0.04840767549924376,6.7283099635682815
21262.51541494458,144.2389839662759,14.873636034387262,0.10420545523406545,143.46437861595044
21262.51541494458,177.76667981064497,22.08703481592392,0.37419868531694794,-176.3842245298086
21262.51541494458,34.5517060609383,30.167795458246296,-0.17134211848507416,16.795073518351376
21262.51541494458,57.08449697452274,43.67136939425659,-0.012169786347005692,36.740039271324754
21262.51541494458,26.923645666986946,16.477631919579366,-0.18047967354167901,-21.253637644160175
21262.51541494458,1022.7240831186259,14.576484713063735,0.012389957500204603,-1022.6194089075516
21262.51541494458,30.043270248517658,29.02532832241863,-0.11983607746746675,7.648096888331529
21262.51541494458,71.10779209721758,47.21115851852724,-0.35842368447973805,-53.15708310695308
21262.51541494458,50.03164976226338,35.705329888059026,0.37155266218200855,-35.02194580310171
21262.51541494458,62.189982537271284,40.18385801410098,0.05846810979917315,-47.447101157671554
21262.51541494458,131.56950395068048,40.31761418698988,0.1522668124764621,125.23330433479936
21262.51541494458,191.24797143511617,23.536771354241253,0.30997365175386904,189.78959463652873
21262.51541494458,57.562962468313465,30.774468427094472,-0.38556330716950904,-48.627743375483654
21262.51541494458,32.798077606700424,30.977990108244523,0.18921499586514615,-10.696801621582392
21262.51541494458,9.726429046866517,7.635550310545918,-0.17746604169894903,5.886394733654425
21262.51541494458,14.49720803428527,7.1420600671909815,0.11363834915802568,12.55095409955283
21262.51541494458,21.51830064530005,21.278928677213965,0.02648757774875265,-2.936511385519666
21262.51541494458,70.19355318891496,40.69452060786666,-0.3408656136753686,-57.17826559202249
21262.51541494458,130.74678425556127,21.271001730900423,0.22462220593381646,-128.99843009547217
21262.51541494458,508.42096954428166,19.998279110649598,-0.3494560362128081,-508.0257949446427
21262.51541494458,1535.3100864455491,18.876851489557456,-0.16404316244843029,-1535.193498700675
21262.51541494458,26.350944822080343,16.858551060950724,-0.08036862858756645,20.212234753304216
21262.51541494458,27.388823240193098,16.268858763332563,-0.12643425827011168,-21.996254933445254
21262.51541494458,231.40057183580376,25.292007379078296,0.22707853424414437,230.01057972995596
21262.51541494458,124.93815084912187,21.427720361229806,0.17066838910131596,-123.08023624334385
21262.51541494458,30.689469794485706,19.239396775670617,-0.308876162458015,-23.87410955802814
21262.51541494458,98.09374034425498,19.027948602636936,-0.3246097279048694,-96.22158302025372
21262.51541494458,54.74815846650646,35.10716565935769,-0.1501081955081769,41.99052971882185
21262.51541494458,41.28010196116783,35.68006500756754,0.1981112527080274,20.720035584168684
21262.51541494458,31.621819578339156,29.698465128253286,0.36047400435057814,10.779148605555283
21262.51541494458,64.62455710670895,24.49051392291249,-0.024401523549236023,59.79069206233578
21262.51541494458,258.3033128628232,13.03399452898782,0.21362631823871187,257.9710257568114
21262.51541494458,1180.2626087050523,7.378439295570807,0.0931934351685852,1180.2388549778805
21262.51541494458,427.84372729885297,28.450113986120684,-0.3332328583548541,-426.8947344518454
21262.51541494458,264.47375553061613,30.945355248442098,0.03826145250307154,-262.6540124056257
21262.51541494458,338.16005529327253,21.37902426608986,-0.024628621985514066,-337.4811684442668
21262.51541494458,22.976466582836284,22.555800340408645,0.20014617457478537,-4.182484051627311
21262.51541494458,15.753745243350682,3.974750414538597,-0.1785576057637003,-15.189776470160558
21262.51541494458,157.88856424415602,4.9384391972861925,0.17882786706870218,-157.80607688446963
21262.51541494458,23.68680743940076,20.640146243491934,-0.12539980795740785,-11.55044710408136
21262.51541494458,236.66353415486918,32.984518721870415,0.0947120583774445,-234.35020865508736
21262.51541494458,69.75939087646707,37.03448585816597,0.00882275841815013,59.1032887285763
21262.51541494458,706.326557807166,16.554461030924934,-0.10302585478813688,-706.1313792865079
21262.51541494458,57.37052385373237,40.25687776300884,-0.12103918397085768,-40.85493230002079
21262.51541494458,128.63301528997718,33.16737439286425,0.05709576801249116,-124.27692457671236
21262.51541494458,45.94019191739577,28.32642301283029,0.25805428212479653,36.14453962067205
21262.51541494458,891.1686615521652,28.126772518109586,0.18920166700882463,890.7237571474216
21262.51541494458,448.80226461868523,26.795766699057992,0.1509016611700414,-447.9997948506854
21262.51541494458,33.00383428553815,31.051872501476172,0.1397011086164657,-11.108290552424476
21262.51541494458,14.829741271310045,14.71892322947755,0.0031097033845346547,-1.2860245588586185
21262.51541494458,23.119175848334343,21.889489066810867,-0.19836151000901112,-7.3271110752479025
21262.51541494458,4.7346158124778785,0.26200561448425946,0.28670384757555617,-4.5436862293769416
21262.51541494458,198.36515158349775,15.660955306407544,0.08884013081167783,-197.741850129818
21262.51541494458,977.5154709415201,23.57077440459086,-0.3129692338309855,-977.2303699322621
21262.51541494458,59.97656087672316,11.565373444576132,0.09854008335416456,-58.83705996424571
21262.51541494458,32.864851121047785,24.871745476125266,0.015275240877964643,21.444668953938056
21262.51541494458,32.63241281302243,27.010603766376374,-0.34629211209657307,18.26365449864634
21262.51541494458,14.141190671529607,4.812858719430079,-0.010578399023827465,13.235894240675087
21262.51541494458,82.66051963904664,12.115634838041947,0.0193882874295391,-81.75788565796115
21262.51541494458,10.895442353456687,3.575012834466884,0.2506080799083255,-10.21011687487854
21262.51541494458,32.09020213647714,31.719266474601007,0.30295320077693777,4.685805216700037
21262.51541494458,860.8299916965681,29.533361556159665,-0.2585682658459729,860.3222463970441
21262.51541494458,75.30863227685866,32.67607824612175,-0.1999171772040812,-67.83806735664133
21262.51541494458,479.2148502356958,5.364024906190385,0.1273766737630037,-479.18312057302944
21262.51541494458,315.36026477672965,35.53383229257335,0.20223163990641402,-313.3492968058388
21262.51541494458,406.5251373419253,33.61137064364854,0.356200705195402,-405.1311090487641
21262.51541494458,55.163001025068425,28.04970509901142,-0.2303053422364026,-47.48154408922513
21262.51541494458,26.118720730536232,25.914304253885152,0.1911095199190863,-2.996536081162632
21262.51541494458,53.23210539251211,14.636697739101766,-0.025036835835923203,51.16446853694506
21262.51541494458,259.27492821377894,1.7137484514868777,0.16483627436122486,-259.26608655820263
21262.51541494458,17.946701784650312,12.6966401601406,-0.17841226305977814,-12.618516012311645
21262.51541494458,164.73261655356134,12.37012767389794,0.24915728508401902,-164.2623881546196
21262.51541494458,67.74887205216785,16.942020518968505,0.12060724974418309,-65.5838577903486
21262.51541494458,302.6634739742391,26.335657114908066,-0.18273908884197487,-301.5127818063503
21262.51541494458,67.24658072031959,18.6001590682099,-0.34268946525882177,64.60958604448452
21262.51541494458,150.78090459051555,42.6670340555693,0.3541898385680799,144.61209938069084
21262.51541494458,11.600509850707203,9.052352053646608,0.19652587569697275,-7.1391506757370236
21262.51541494458,1374.6379769008236,24.412582119106627,-0.17133347642125354,-1374.4205845958522
21262.51541494458,1418.1062910211442,25.424738391052724,0.05693914284562217,1417.8777843711086
21262.51541494458,49.08846800262662,26.993681322051003,0.03658429043043314,-40.980444907487836
21262.51541494458,22.027098196798793,18.539006406892014,0.16338005521362725,-11.825859252996871
21262.51541494458,265.9846686742796,34.402558244635706,-0.07906196770560162,263.74738112234115
21262.51541494458,157.7603276826951,36.67657834128724,0.13760260372301994,-153.43242812700225
21262.51541494458,103.73912382739792,24.00120461043356,-0.16276356348226648,-100.91630612266881
21262.51541494458,904.6941768000544,15.490707221799973,-0.3523361239672557,-904.5605821218664
21262.51541494458,117.09398626747895,18.43557396087957,0.05978014411803023,-115.62658432546283
21262.51541494458,258.36970466098137,24.41671838304682,0.2068568889151278,257.21015668890436
21262.51541494458,485.38060101519267,32.97694100343061,-0.24775006274023634,-484.25733568788587
21262.51541494458,47.48978648273428,31.976652730342586,0.20188834729768493,35.08720685850457
21262.51541494458,27.27472992026824,18.064180107671817,0.0012920047201498352,-20.39548065845454
21262.51541494458,40.34445052350614,21.134559870715087,0.12875317587005508,-34.34192530176486
21262.51541494458,76.6866899653861,76.09416639326378,0.23577668106923327,-9.426028422177527
21262.51541494458,287.6353785753354,28.26391181756848,0.13988133206424752,-286.2404969144926
21262.51541494458,29.973199582177514,29.93687478882538,-0.053988808942285325,0.7434043161340915
21262.51541494458,495.89798162252464,31.760314782620895,-0.11245980263312214,-494.8782246964327
21262.51541494458,35.472812714268954,23.664778126774376,0.18284899722569245,26.394026369878762
21262.51541494458,33.024748457401095,32.61122995385107,-0.2901867234382167,5.043493524800375
21262.51541494458,5.713170826207589,4.783776775343689,-0.3801336226379363,2.8267725022633154
21262.51541494458,292.01610208588755,23.868407224261393,-0.24939921263133197,291.036114868486
21262.51541494458,67.1493539059179,28.16301291966813,-0.21850872096146914,60.94433551122844
21262.51541494458,227.5652232720684,30.783615964104243,-0.14710066787484996,-225.4698594848808
21262.51541494458,30.983936381210253,23.487298970880865,0.055519117347377675,-20.16748278919438
21262.51541494458,32.961243501742175,30.9349396651012,0.35492726115963535,-11.301612780239594
21262.51541494458,46.42449903040857,35.225415206178916,0.25766335800643086,-30.211209626033614
21262.51541494458,136.0861567506865,20.210669530693227,-0.3258557510307292,-134.5705913564347
21262.51541494458,27.11185449899364,19.915495944747878,-0.29586289754500616,-18.349863337166546
21262.51541494458,56.40844148812736,31.23418172100457,0.31227085608343913,46.95338107046917
21262.51541494458,330.36340853795406,30.325072994876713,-0.02729444293280537,328.9661840484237
21262.51541494458,1511.300607848873,27.154382842771742,0.21335529817474225,1511.0560878405593
21262.51541494458,35.796181514019636,24.02860371562875,0.05035703362495545,26.502256928959422
21262.51541494458,282.7837905695186,22.58141902912549,-0.2556586131838768,-281.8777495757113
21262.51541494458,11.928318783223016,5.094864571119043,-0.043821689724657664,-10.710021818519168
21262.51541494458,52.55457645343356,11.38006191907752,0.09992445911101182,51.29178351078978
21262.51541494458,121.620074797529,43.82288592434599,0.16330030967170758,-113.44315730675284
21262.51541494458,46.327153595856196,13.648015431335342,0.0289669182953497,-44.25285685348719
21262.51541494458,433.43718515753903,21.354308491594914,0.036934070894236726,-432.90895690168924
21262.51541494458,113.0182839453642,36.11351156336054,0.27264747105518616,-107.08525479995842
21262.51541494458,37.0452242475656,19.928846922761252,-0.268894689163804,-31.200909269205788
21262.51541494458,23.22491015467788,11.80334382434694,-0.1869615181541425,19.960508894949047
21262.51541494458,33.86182325112026,17.89752794614934,-0.14458887164679163,28.71689407060952
21262.51541494458,781.026666238859,29.959914795492704,0.41103168098592496,780.4506821563344
21262.51541494458,74.4411387509217,15.603326399382366,-0.3867146654806473,72.77533331612652
21262.51541494458,84.15744451000373,27.260833612502267,-0.21701678300644453,79.60938804324032
21262.51541494458,128.70847186231384,21.61655152499584,0.2810186734277248,-126.87354255912423
21262.51541494458,225.93135800878065,31.65884820934497,0.1687492354591251,223.69856219730715
21262.51541494458,415.83190124100867,35.27431066974129,-0.08437370905697117,414.3311059059665
21262.51541494458,10.25025142990859,8.073885232406354,0.021545870658618734,6.185378816469625
21262.51541494458,277.23390949013094,18.794157221842536,-0.05769052502280518,276.5931963028079
21262.51541494458,183.23182135635966,30.825704797903548,0.09925977154945993,180.61574065533895
21262.51541494458,249.89433008226317,19.57198698995314,-0.22384699616180637,249.12334850179744
21262.51541494458,30.994473501640343,13.809594786072433,0.2854821280086175,27.717328932284477
21262.51541494458,266.72957448410546,21.79761530384109,-0.06728930807794516,265.834355731881
21262.51541494458,26.377948782936034,5.694519377860128,0.010229927430272946,25.724460540436155
21262.51541494458,36.70677950676707,26.288275583959926,0.07773318516718677,25.58686244598222
21262.51541494458,370.44246377000906,15.23026832954336,0.15235629233130601,370.1270241712461
21262.51541494458,42.00895971185862,35.380054456371255,-0.18969361768924012,22.6130007465987
21262.51541494458,64.89691233332398,5.996016146958811,0.12947277481046673,64.60665291796681
21262.51541494458,269.33926579481215,26.309939564684026,0.15579819814926796,-268.04809689607964
21262.51541494458,36.38351689102864,14.30151629337646,-0.0560431378651865,33.43057187566872
21262.51541494458,109.13938424010625,22.6728483914376,-0.3291089267397452,-106.75026074506927
21262.51541494458,25.134049555550234,23.457952916102528,0.2908843439868799,-8.929704476783927
21262.51541494458,17.971845588343346,17.784378896272138,-0.06770783061408985,2.253410852964865
21262.51541494458,6.550201488556131,3.9165012906928482,-0.2738224210829866,5.086307320630212
21262.51541494458,932.7708090148651,45.734559892780666,0.10952118017667559,931.6480556146017
21262.51541494458,695.6482990481,44.41899170875323,0.0725783133449507,694.2275442678563
21262.51541494458,65.55453890571405,20.56579421265001,0.0037271352711627168,-62.23202559253288
21262.51541494458,75.66774417230629,17.210653497685897,-0.1062997513637029,73.673393829581
21262.51541494458,153.6143940126026,24.340972143282713,0.27944602476077807,151.66805984318452
21262.51541494458,3.2318950231849,1.1402839158695262,0.004654474601546316,2.7430311820070097
21262.51541494458,55.20959387803719,11.690153731054806,0.044489759520459714,-53.942718936673046
21262.51541494458,22.647967660067142,22.212614969927124,-0.0831007652809535,-4.231147987192862
21262.51541494458,351.431178243657,67.5441388882863,0.0429316991078161,-344.87684735878054
21262.51541494458,22.29625695968905,20.49065798354047,0.212804565303032,8.694254869080956
21262.51541494458,19.70575597817694,15.580482949200011,0.23032346821907287,-11.995485173123734
21262.51541494458,179.77691264001817,3.1956691698649573,-0.05640865958621781,179.74399066086775
21262.51541494458,364.04823793072757,27.33951705059661,0.3724300333001303,-363.0177832937053
21262.51541494458,18.732463974825475,17.015905693133234,0.07367569012715702,7.729041053113544
21262.51541494458,2.7199489784353337,2.389849896196206,0.12064768799011091,0.2269972506993
21262.51541494458,27.8720698224013,23.699165447539002,-0.0010617929295872015,-14.614416712448113
21262.51541494458,86.76376305366247,23.910100263764768,-0.17256953018937018,-83.39428786232034
21262.51541494458,270.9471871754654,30.900732276852565,-0.02291849330028682,-269.17633960192546
21262.51541494458,167.57236115495203,33.08829389371929,0.2595461672339214,-164.26799143391602
21262.51541494458,26.48441438377388,11.090305908520543,-0.24995929025328248,24.01554047190276
21262.51541494458,82.39013534644653,31.899608216007938,-0.0318999888615505,75.9534576181966
21262.51541494458,420.8068451795022,11.245104914900418,0.12549018978195492,420.65462336849237
21262.51541494458,59.406796147729146,23.433636318794974,0.07390724645142302,-54.57477438187649
21262.51541494458,244.30014388747375,59.570536540650174,0.25595980041031735,236.92240355858604
21262.51541494458,17.931418113023142,12.586683279685936,-0.061599988344850226,-12.70774207716952
21262.51541494458,700.7185964816033,36.75184726653275,-0.013751622030380651,699.7529795093664
21262.51541494458,9.1116033319757,4.754068244805013,0.018167545231976827,7.668061296103959
21262.51541494458,57.787705426043274,27.63333099487964,0.16210378596473085,-50.73628861667605
21262.51541494458,34.27200681344305,8.881770503752113,0.13303182413984024,33.07636996362557
21262.51541494458,261.0220848390785,23.697913902361442,-0.023129342550320613,-259.94098649337
21262.51541494458,22.84271525643724,22.246185456970096,0.22856159327681952,-5.022347677764017
21262.51541494458,27.427967560370956,27.36765238716227,-0.3878307135854056,-1.2385226454580058
21262.51541494458,58.245384165429165,41.33610198734403,-0.21585560848341986,41.01443891026803
21262.51541494458,48.686381398702075,25.761246553072148,-0.05935026372182481,41.2928290502771
21262.51541494458,271.71042867028757,23.86512711422717,0.2578073419829262,-270.65721057286675
21262.51541494458,1132.2116070967927,27.07501663371816,-0.3302115248085793,1131.8870690236868
21262.51541494458,29.00231929780876,18.43684709260937,-0.2216958102409736,-22.350556785033646
21262.51541494458,227.0711000572915,25.946303866838054,0.28757765921752493,225.58007544919744
21262.51541494458,716.6812001565231,24.12430036973715,0.05288541491596525,-716.273926187667
21262.51541494458,26.19130724790224,19.90356542450665,0.2343720913028871,16.97518990075569
21262.51541494458,26.231669136510426,17.190506787046996,-0.09200706513617284,-19.772653349748232
21262.51541494458,35.517231193823235,29.337628544872636,-0.3215972720842957,19.976315524406715
21262.51541494458,17.617499612461216,14.955367594844963,-0.06395677044296885,9.224344200383404
21262.51541494458,8.982590458984763,7.604002343957904,0.10554232274827473,-4.608067297960792
21262.51541494458,95.40149587987312,29.71610269326849,0.26753910467068465,90.64605023587923
21262.51541494458,299.32412285591056,17.734195433843926,-0.17322302490119795,298.7955457721142
21262.51541494458,43.68307458637258,41.959171606108484,-0.09395295869877694,-12.083436596712911
21262.51541494458,572.5803260623654,28.855730610480162,0.4119910594691408,-571.8511923671093
21262.51541494458,198.18505191942504,29.47495078483205,-0.23715756436587143,-195.97669550363403
21262.51541494458,12.27819784930053,12.06301688033214,-0.19160276357499895,1.8921940307168312
21262.51541494458,10.128715911382164,9.518639467968075,0.21134292704653612,-3.2126416789013423
21262.51541494458,173.0444680522583,15.629810976766898,0.038767557222832774,-172.33245420724907
21262.51541494458,49.813529196959585,15.896382319866055,0.00998557928311009,-47.19186332603006
21262.51541494458,214.5484543870008,15.344816926516554,0.3201151542512927,-213.99498298634984
21262.51541494458,173.30575583657594,29.720459853618415,-0.14646487645518813,-170.7335267717322
21262.51541494458,62.42009302961741,15.55220432635422,-0.18667439960337695,60.437914017472956
21262.51541494458,43.40557598022812,14.379726055154247,0.19232677572757134,-40.93421379314512
21262.51541494458,171.3460251304752,23.258375477872438,0.2448740526794994,169.7551992680623
21262.51541494458,84.46626116270406,21.379221311058167,0.1442681177071121,-81.70579356047305
21262.51541494458,69.07896083898225,37.851626932656046,0.10717146668376001,-57.77131664692178
21262.51541494458,91.32904455623944,28.68420780080536,-0.19004470794108475,86.69806127649146
21262.51541494458,71.64505283290961,24.109707573426242,-0.29591817622377903,67.4538907127288
21262.51541494458,22.561101405805694,19.367911194916513,0.05563647295803663,-11.5005895878973
21262.51541494458,19.511146786024174,18.420836853564374,0.08053050909234971,6.303211646038191
21262.51541494458,140.87374121879787,46.992222614447435,0.19274440239686816,132.7986602794919
21262.51541494458,107.56908571476359,33.31946208335762,0.3568656857092072,-102.27010139119699
21262.51541494458,38.422753795344285,23.228969349263593,0.29063817946982456,-30.578061830906663
21262.51541494458,27.08664720703327,24.301132771593362,0.23309924555233102,11.893965334357475
21262.51541494458,5.243996813769617,3.6825002864577945,0.39317841450855134,3.487613604591069
21262.51541494458,286.1962770403796,26.622984216474304,0.0013857940133648317,284.9524610263265
21262.51541494458,621.0302165634853,36.638748499203494,0.01989363258141761,619.9471839933159
21262.51541494458,27.120950036083652,22.39916921973925,0.19732700162351377,15.236914217687312
21262.51541494458,209.0859240703099,26.83267389302272,0.21209122247556003,207.35299760817765
21262.51541494458,253.70907644113095,23.775662237149238,-0.06403735564826203,252.58936754485768
21262.51541494458,1470.924439502541,31.45139484234709,-0.327775183983671,-1470.5875657013632
21262.51541494458,35.12515735702971,26.492704939127893,-0.0507100836135594,-23.028027196208672
21262.51541494458,111.74178037259753,25.162502684974037,-0.08677759964516589,-108.86434564545087
21262.51541494458,23.58776967195677,7.224853241436422,0.24881439891439747,22.416552117339144
21262.51541494458,430.48496236524755,15.829736815263573,-0.31969262450395836,-430.19181697853287
21262.51541494458,36.04972857158498,28.518496046482557,0.14904101002075723,-22.014437167607557
21262.51541494458,360.07404173323704,26.938079130724326,-0.092979528685399,359.06270499922505
21262.51541494458,80.48588739039656,30.28534420011304,-0.010927889758344548,-74.5597426228055
21262.51541494458,67.36483535970639,23.40140984733227,0.028978488977087928,-63.15673807395538
21262.51541494458,4.848814582395814,1.9570768473152487,0.12876623930416517,-4.247777774468946
21262.51541494458,59.824932433768886,26.90756791307541,0.4115420121012605,-53.41549687663704
21262.51541494458,6.4475830693039065,3.8735334536845962,-0.26388224826232676,4.987662365809529
21262.51541494458,790.165656236908,28.7706890090648,0.061903902104356597,-789.6406697111361
21262.51541494458,367.3100563011407,33.50291271018485,-0.1241360379372392,-365.77670269417445
21262.51541494458,519.8623642482954,40.58139388146215,-0.0071740157228479574,518.2744519313064
21262.51541494458,143.69245694871782,42.647622773276005,-0.04972414647592043,137.21180461955242
21262.51541494458,307.9650431544592,21.337883310147166,-0.08139014302620687,307.22228965410795
21262.51541494458,505.45161488587075,15.096796527538096,-0.02841484838413458,-505.2245048111132
21262.51541494458,268.6020573619522,16.9890335715278,0.32716620188931334,268.0610196640921
21262.51541494458,243.89503736948825,9.260961710426912,-0.06261504732941835,-243.71581660761254
21262.51541494458,41.201176105636414,15.4606032604089,0.28854074241838507,-38.168085454334275
21262.51541494458,92.4513687874237,18.449567864904004,-0.24491170121479863,-90.58249498784315
21262.51541494458,166.51761795024842,22.44932664313311,-0.17604314008136626,-164.99240338150463
21262.51541494458,87.83494917357022,21.326823428321706,-0.22742420580985592,-85.19666965738134
21262.51541494458,92.45065320185722,9.301202386231818,-0.04511555600902553,91.97275803141135
21262.51541494458,522.5413821638333,17.709302180078826,0.08148533936192413,-522.2396474740508
21262.51541494458,761.481384794928,8.945772348880277,0.032151902169426316,761.4277712667405
21262.51541494458,127.5621529154014,33.6509897761135,-0.0321199460966117,123.03695402401148
21262.51541494458,129.33968766543822,11.47528724074276,-0.16969880708775495,-128.82322435860672
21262.51541494458,34.97444437578817,28.27788046829752,0.20629907197365907,-20.540448388635053
21262.51541494458,332.99453500543933,33.01472529827511,-0.022396780194800847,-331.35142537651757
21262.51541494458,100.60252933494228,24.023640060152943,0.14217293628435027,-97.6836360779113
21262.51541494458,325.3615072904554,41.352755137975684,0.05081259101219333,322.7203694076247
21262.51541494458,76.9868277843556,23.596819334573006,0.2168348302375362,73.27000816120771
21262.51541494458,33.13609048862513,16.676062115736826,-0.0651360103893697,-28.605673321564915
21262.51541494458,34.72407659301851,11.043380985081482,0.0699090113104535,32.896499632693356
21262.51541494458,37.352056728066835,18.877601802988494,-0.18366028733603673,-32.204936028206674
21262.51541494458,46.865665461751405,17.049282180299144,0.19636243314496235,-43.63545991280121
21262.51541494458,687.4407454843879,35.605197066627014,-0.33174917491025463,-686.5168007996308
21262.51541494458,89.13141913760552,41.39158879328059,0.028201551427000093,-78.92733875547484
21262.51541494458,859.2218959370282,30.06512344968644,-0.1502163344737599,-858.6947720746451
21262.51541494458,129.03879432584887,22.767380258712222,0.15163392220404218,-127.00792568999414
21262.51541494458,132.79115876885362,0.2930801854115414,0.2229450156546103,132.7845457513686
21262.51541494458,332.20160625508976,25.2665640844436,0.3262484858261424,331.23674440413674
21262.51541494458,97.76824726308374,32.242346784832,0.04549969680421091,-92.28996977016085
21262.51541494458,99.31201204577047,31.34083875099763,0.1413661859251777,-94.22837641741582
21262.51541494458,2762.814912846544,19.7324553857742,-0.27383830061269865,-2762.7441389328815
21262.51541494458,1000.8101976908537,34.45835245328001,0.241230803624838,1000.2159741273921
21262.51541494458,11.857032343361542,5.381299345503497,0.20107439511645822,-10.48664608589104
21262.51541494458,1952.965755136915,36.47600200967397,0.052976974463851315,-1952.6246742659043
21262.51541494458,198.02126069626382,34.98991278945478,0.09630134401054119,194.90124617475558
21262.51541494458,34.401836506047225,16.335770646955673,0.14819894233053607,-30.248741017269747
21262.51541494458,320.02473117514455,29.563842662219248,-0.26737138673535193,318.65359817049944
21262.51541494458,373.83233679668615,35.98830438160873,0.03853603904593858,372.09385353869914
21262.51541494458,14.376433958967183,9.14403692345264,0.028587096815551882,11.020298026572389
21262.51541494458,18.141947856170223,18.072474939543483,-0.29319982333841843,0.8996105472183735
21262.51541494458,147.89606543933627,15.781252410695396,-0.2658870981470504,147.04593463450422
21262.51541494458,1608.8279958120074,33.57693997459457,0.20851492818648087,1608.4770576777414
21262.51541494458,14.44957470363753,12.389997482251,-0.3380029041181261,7.317326645717227
21262.51541494458,119.44317728332105,14.627854578629345,-0.331684762362595,118.53677825416571
21262.51541494458,390.43249252212,26.8163677474557,0.1863841594916086,389.5083545220964
21262.51541494458,117.50425163517167,31.444289280169425,0.2264857428964163,113.21145645168836
21262.51541494458,194.57986930970063,18.00566636309216,-0.1007248787621312,193.74078227775766
21262.51541494458,64.79206534355153,40.88867506900825,-0.054162359613543334,-50.24444638684374
21262.51541494458,34.93120940531115,27.659730268907992,0.17068819953482212,-21.295044522259005
21262.51541494458,39.173259043477444,18.016880901951563,-0.2227773037877481,-34.760119974227614
21262.51541494458,205.5402376806782,33.85420113632463,0.2615627104438091,202.7288664692252
21262.51541494458,105.6464363226998,11.63119236772952,0.0795056474206222,-104.99646610405831
21262.51541494458,153.48582326956597,25.940333901557786,0.11372398796644478,-151.27248075034728
21262.51541494458,164.83493721557207,27.224928902882624,-0.053661976686979126,-162.56609805609634
21262.51541494458,156.87334984169914,25.201470018447086,-0.06733585618996843,-154.8305803420158
21262.51541494458,302.5590365106275,45.01009399163662,-0.17451449472879205,-299.1895902291587
21262.51541494458,90.20123629684844,17.94657185086513,0.18693937202679267,88.38850595892154
21262.51541494458,599.0675829853017,32.47898585222764,-0.05269580896266056,598.1851394248366
21262.51541494458,537.5438401084384,39.01898946928022,0.12385161735055283,536.1242976249043
21262.51541494458,461.9291474698672,28.558142863239503,-0.3489269410525294,-461.0436284692896
21262.51541494458,1007.4272817927056,28.01069692682457,0.15343597345613258,1007.0369828159301
21262.51541494458,37.06125441814123,13.900263033981973,-0.04302729569648434,34.332153427678136
21262.51541494458,41.79533879952825,34.9273774310147,-0.3242244645388687,-22.917305106685017
21262.51541494458,15.894256462411306,14.509404601851442,-0.11314521742611199,6.361690691156667
21262.51541494458,43.287976331915175,8.96044752057087,0.36189085425065953,42.32974904072375
21262.51541494458,224.02296884957408,6.326527732368099,0.08873128379914876,223.9299825603655
21262.51541494458,43.49047716030416,10.115049010568928,-0.04778353880019895,42.27865238599317
21262.51541494458,323.407122306011,16.20022754966377,-0.007415208101925673,322.99860475597484
21262.51541494458,564.3331476621338,11.372400005840454,0.06475477168369428,-564.2171082295146
21262.51541494458,41.37674296293339,38.99447065290836,0.0313112753650345,13.778406294693914
21262.51541494458,1500.861772379862,19.766181737288047,-0.1959103665483738,1500.7310547908228
21262.51541494458,206.00398863372217,39.23881229545703,-0.026609921486264624,-202.22842920384412
21262.51541494458,466.718413712878,4.729274032782658,0.2358566074202599,466.6926562322855
21262.51541494458,180.27741765074308,20.949661145793613,-0.15760093054786292,-179.05142702123624
21262.51541494458,31.94896021111133,24.476723050261278,0.2893190584322842,-20.491991739992276
21262.51541494458,167.8574060960847,27.790359776242788,-0.07503524960384172,165.53603353415738
21262.51541494458,66.81304564229417,29.977587033152158,0.10788317075698702,-59.696692107587
21262.51541494458,29.72833744050188,29.69995654692589,-0.03352228500765459,-0.2546527851165396
21262.51541494458,42.669983244251924,26.647718879318656,-0.03977400818178185,-33.30171632693001
21262.51541494458,34.319527891771166,29.31838617351264,0.09911053031155348,-17.794149254603987
21262.51541494458,1576.8177824610445,51.488047437051314,-0.043425116566057756,-1575.9764203548361
21262.51541494458,412.43120047850425,31.136106994030857,0.11895133231751576,-411.25223788287695
21262.51541494458,26.23538440357784,22.87200288955014,-0.12393831901845806,12.787918580225805
21262.51541494458,94.18441532722217,37.907869496898456,0.19638168267088543,86.20927037545907
21262.51541494458,368.146866443652,61.59913108071987,-0.4087493077844156,362.9543698456892
21262.51541494458,14.437847072316154,14.26748003819843,0.057554899406331725,-1.8073385333832077
21262.51541494458,16.775882084127133,9.310113894647781,0.2869853913838309,-13.894206780232413
21262.51541494458,9.562030930902424,9.067367566108882,0.014461532883707948,-2.755796709878661
21262.51541494458,34.97316502060673,22.422110057059086,0.24279542832287326,-26.808424911307366
21262.51541494458,90.10256369121963,40.07076100108663,-0.07903886637341671,-80.69187811099201
21262.51541494458,146.04056471929277,40.01174717020258,-0.3434581454214448,-140.4463171895852
21262.51541494458,185.41694597956172,17.52136264695036,0.1559680705190765,184.58277472462112
21262.51541494458,27.840234325928783,17.004907940356933,-0.2870614819053945,-22.004742503962987
21262.51541494458,41.178890745530076,24.378382472658537,-0.04280412088663292,33.16282591326942
21262.51541494458,6.994656612312768,6.62171503166481,0.08730286081728506,-1.8573726259391665
21262.51541494458,137.89464925423573,19.512428612327323,-0.16929963434604015,136.50109927736418
21262.51541494458,2196.555541312383,25.748934036690258,0.07402675865029094,-2196.4042461099566
21262.51541494458,232.28729867690583,23.24214043338654,-0.19831807910970087,231.11800459576014
21262.51541494458,231.15778632119907,23.044607143649316,-0.04788703559603297,230.0027071776359
21262.51541494458,424.6857378590523,39.71226483790306,0.03327000710576741,-422.8230010289601
21262.51541494458,54.542918778883454,25.484904259966616,0.3757791526616127,48.2046447710813
21262.51541494458,109.2516177690878,21.934578586131977,0.025148147063684217,-107.01947934222002
21262.51541494458,88.655647497096,31.80974858214963,-0.12965667438819878,-82.74252994146396
21262.51541494458,39.44573571502953,13.657071552089718,-0.11686262020932926,36.98399856081756
21262.51541494458,85.94526275791496,13.986773769250675,0.03846162795709812,84.78995349954806
21262.51541494458,27.924828525794815,27.612858439489127,0.2715322288446824,3.953695858557778
21262.51541494458,37.80243834922051,24.59084326999942,-0.14534912027576258,-28.682276578885375
21262.51541494458,45.0073485912265,10.60310351839588,-0.11346188101587296,43.721872021785785
21262.51541494458,143.50206567890862,17.271796174942367,-0.12038852804103714,142.45312478603216
21262.51541494458,35.686468689051495,11.689991885089546,0.3964303902677579,-33.691101553145536
21262.51541494458,121.0775295727159,8.033215136851428,0.17026408934020731,120.80391539943703
21262.51541494458,6.602982293850466,6.332367143701912,0.13345301254817762,-1.364564223922441
21262.51541494458,537.7359060098736,20.91770337717683,0.25987752524131846,-537.3273360857917
21262.51541494458,32.82439598216129,32.02256034154046,-0.1543140004998548,-7.095923594069803
21262.51541494458,715.6096499883015,35.222666233438154,0.01963035090483944,714.7411516752998
21262.51541494458,23.741660868579576,16.80128046591205,0.265470597327677,-16.724003843693033
21262.51541494458,823.0217534558586,22.80243219769133,-0.05464992248298575,-822.7048268391948
21262.51541494458,79.97246378230088,22.642488362644674,0.11588409130101497,-76.6894947090787
21262.51541494458,46.628738436619265,26.066730804002187,0.05359973271079237,38.64118611208114
21262.51541494458,11.466573519531165,0.3470505430885557,-0.2714573103575189,-11.38716465260377
21262.51541494458,254.12954731569033,27.336268100570614,0.250526090332825,-252.6516808683191
21262.51541494458,29.74785333171265,24.652540647694458,-0.052083575958722206,16.60010989293369
21262.51541494458,32.405421839879615,28.5380578829896,0.26638919032585107,15.297025769229096
21262.51541494458,50.838190534994695,29.64681396561051,0.2318285012918736,41.27848880233377
21262.51541494458,195.01839356895658,13.935734450395085,0.0706662418299644,194.5156638564727
21262.51541494458,33.31063597377704,18.491975585758947,-0.018210069226507176,27.67714436144131
21262.51541494458,52.61212242393424,46.0125310755202,-0.11457843827626969,-25.480357639843177
21262.51541494458,62.43539756971625,13.863427314211076,-0.04817108913195889,60.86346421323542
21262.51541494458,103.88317012415332,21.50095073965091,0.03083897774401052,101.62578681117228
21262.51541494458,8.374017004901194,4.569611217423065,-0.32298829897502446,6.893318241326224
21262.51541494458,33.15229334321897,32.961368892632315,-0.07969921724817591,3.3159774382407505
21262.51541494458,79.63210462973458,23.970205598266958,-0.010660039851088078,75.92812760366779
21262.51541494458,163.58616973809183,29.8821786520446,-0.2115639914458368,-160.82855751688533
21262.51541494458,63.93488455730358,43.39543870703518,0.2540627332407086,46.934210961778916
21262.51541494458,257.3499807702818,16.572040875576118,0.20779780872497014,256.81260916756173
21262.51541494458,28.056217217795712,21.590280091866347,-0.0781586404018557,17.871328015884185
21262.51541494458,87.92428625018086,28.812733107439097,0.08919783938654847,-83.05948417204488
21262.51541494458,81.83813809094437,35.97521165479329,-0.30078765075396385,-73.49526422207052
21262.51541494458,14.497627806475101,14.2897945279812,-0.15508191640338567,2.082853249718572
21262.51541494458,101.60269589771927,17.695746687266254,0.2912071448437576,-100.04130599387844
21262.51541494458,133.51979354153184,38.00078708995957,-0.19983462790820328,-127.99146400340861
21262.51541494458,87.29003316289723,18.253662679698184,0.09263388831022569,-85.3505972504922
21262.51541494458,84.09047565546658,25.210775341830345,0.12681725143959657,80.21214473948825
21262.51541494458,58.342546968356686,31.739084903012838,-0.1819065949933735,-48.93699551425736
21262.51541494458,22.87393933799337,16.677814233541675,-0.05920122206984864,-15.602674518891968
21262.51541494458,136.70259538326752,15.208352568792854,0.340945852482795,135.84759363451317
21262.51541494458,19.467203096567836,16.09907222585104,0.20448559991190504,-10.868734940497006
21262.51541494458,40.67722591648891,21.793541793933052,0.17786904974378248,-34.32238264800119
21262.51541494458,207.05961940288802,37.380837596543145,-0.08632325969060434,203.6534577654944
21262.51541494458,21.790573163085522,16.866854302522746,-0.2157858249913411,13.735759348812342
21262.51541494458,52.59279235585197,7.208763614577801,-0.13161546092929208,-52.08068313686797
21262.51541494458,70.87784838127291,7.855054197581815,0.15093440475573777,-70.42956820267128
21262.51541494458,76.51876893640316,8.788401173797123,0.06622658346287744,-76.0017168364518
21262.51541494458,17.846013909056673,8.395054505783849,0.35899525876968974,-15.692473940996155
21262.51541494458,81.17976700708307,22.264176918309424,-0.10288661394560117,-78.0565804754262
21262.51541494458,81.66904897864899,29.091298451184986,-0.015653242976292368,-76.30143520389727
21262.51541494458,139.1747207085474,11.013710056274801,-0.10192973284738975,-138.73236835405623
21262.51541494458,183.18470798652308,30.916006980223912,0.04750021025902705,-180.55252653987984
21262.51541494458,64.63127981203229,29.748525173856283,0.00037138196352127606,57.3638119695791
21262.51541494458,5.15799832667407,4.912851916427001,0.17349418033203595,0.9044756780162602
21262.51541494458,44.883549778023855,22.511923301550326,0.2909661232334249,-38.807744489394025
21262.51541494458,76.85000215115836,8.712175332655017,-0.33283263388617834,76.34323413205288
21262.51541494458,37.90629300365581,17.758940852701027,-0.08343728656984108,33.46459996751764
21262.51541494458,396.807491741268,24.766782185785747,-0.10506962481253795,-396.0317667892688
21262.51541494458,1147.5067093458479,12.871236887420066,0.15377237388835194,1147.4338041701922
21262.51541494458,534.1406661359465,31.53019318456046,0.1708191684160015,533.2076971522506
21262.51541494458,113.89673337454681,27.67322464996191,-0.23919967552695617,110.4761541604254
21262.51541494458,185.52056758706186,36.70358290943892,0.14838633473099203,-181.84907292760306
21262.51541494458,442.64737968992506,21.54561911458004,0.21129669978088375,-442.12082482136975
21262.51541494458,21.816356329070498,21.716894105996076,0.005023845662115484,-1.6459745819429168
21262.51541494458,108.74227643063004,33.64303267587956,-0.22587995335303118,103.39902009994789
21262.51541494458,112.81057480531804,34.85617087827359,0.03144616706980078,107.28304383474085
21262.51541494458,119.11241530496935,27.548116083069562,0.27285483434953933,115.87568197855015
21262.51541494458,68.45557528444705,29.381527273619028,0.02293810872512965,-61.81642548817303
21262.51541494458,117.5506290725716,35.75505060502553,0.21468621231064644,-111.97347902569211
21262.51541494458,322.98792345991404,21.634903524695364,0.1048871912589214,-322.25998509402154
21262.51541494458,291.654492564942,36.172450719151186,0.05085088208619179,289.399850725894
21262.51541494458,68.7775093053673,48.23928969613051,-0.1461793497628585,-49.00688412006916
21262.51541494458,92.29242733139867,27.610611008000827,0.21903305837914713,-88.05610524377742
21262.51541494458,47.53011762957688,28.680147560948868,-0.14375667909053658,37.88033652805015
21262.51541494458,29.495727348970284,25.016047910890006,-0.14242174190562717,15.5741561090732
21262.51541494458,170.09919106377555,21.41366927759534,0.08553403145473232,-168.741108199062
21262.51541494458,28.52887550965179,28.47795678889411,0.11154180199014713,-1.1267728693033665
21262.51541494458,13.031696787039749,12.909903263689891,0.018765900827385114,-1.240367046473461
21262.51541494458,137.12499209021664,12.733823210816835,0.050697968528711425,-136.5265174813711
21262.51541494458,45.692619379672806,27.991900998863432,-0.2698679820612313,-36.091210276398854
21262.51541494458,31.057043364815456,30.250750892362817,-0.09749896583281413,6.9138882447866665
21262.51541494458,19.945749591893737,19.896402374143808,-0.2308975966436286,-0.5404899130029509
21262.51541494458,1181.8235127944977,27.933502163754305,-0.21493555545587606,-1181.492644072403
21262.51541494458,53.07721381831248,36.76788809807447,0.29030580269467504,-38.257131332089656
21262.51541494458,34.983881734988444,7.613290605553968,-0.1478143114847174,-34.121361081144784
21262.51541494458,571.0192594438263,16.626812596318395,-0.2869753352547462,570.7756483483831
21262.51541494458,213.24004774171095,16.698832006375593,0.04699271819062162,212.5813823124968
21262.51541494458,196.98631063251355,24.23081180961656,0.04632534616015143,-195.48619269226114
21262.51541494458,47.28923738621906,14.471226781475726,-0.06004801141511387,-45.00256999264712
21262.51541494458,93.20129179267548,21.817176102018763,-0.29010582964560155,90.6023553836325
21262.51541494458,172.1217631795002,23.81077184763596,-0.2012749476465517,-170.46198208437193
21262.51541494458,257.31499046292276,28.966146666977146,0.3417237037350353,-255.67602396941527
21262.51541494458,68.40131999236552,17.049031496832132,-0.2277162731393982,66.22989197269203
21262.51541494458,32.4023674046626,32.26958893799347,-0.14213749327535144,-2.6355613880493625
21262.51541494458,17.340363834564847,6.7085864292764485,-0.33308774722985135,-15.935855241754604
21262.51541494458,29.77393572243295,11.79853325290171,0.2406710696110103,27.305737174035322
21262.51541494458,32.66953530576304,10.433560035591222,0.31191627070085887,30.930913565812812
21262.51541494458,25.664252199589495,13.813274486836997,-0.10265760128690274,21.59203774611906
21262.51541494458,46.94749658649686,9.953913350993021,0.2645469606606855,-45.86170955539231
21262.51541494458,10.380394168706596,9.86420171852832,0.2671070872522643,-2.9594095788417736
21262.51541494458,26.271841830886558,16.128173339726676,-0.15528982617357337,-20.698959555452
21262.51541494458,57.276099231255046,39.10132938582127,0.06425241384093443,-41.83315430056524
21262.51541494458,21.14994836337118,7.639449404535753,0.14441896992141173,-19.680386567022307
21262.51541494458,69.41449746365676,39.530458954937764,0.0004713873367464072,-57.044672112470636
21262.51541494458,37.787158703991814,25.055797103722007,-0.0789142310653369,-28.256848915960457
21262.51541494458,96.76097969205503,28.15919845054251,0.07350931184797166,92.56414356362738
21262.51541494458,611.3525996474513,21.051105884834687,-0.2168387455848052,610.9886941354794
21262.51541494458,196.90478632742122,20.250360298702557,-0.20849227826809946,195.85646188238857
21262.51541494458,365.1627378940364,23.098429305002316,-0.02774934462485073,364.4292335743414
21262.51541494458,95.27561971692946,19.826751692496043,0.30467095048450427,93.18063183450997
21262.51541494458,19.09929352731559,15.034847593508452,0.3836809217913088,11.703354379419846
21262.51541494458,13.790494083847724,13.61558332445161,0.1842072566523815,1.7717305651963142
21262.51541494458,25.460709701522365,25.311270690099327,-0.01874708148014815,-2.4426024650257516
21262.51541494458,116.5410275907056,17.165017079891385,0.40363947685157353,-115.26226494137128
21262.51541494458,30.542837351936768,6.8313928240550785,-0.16608259551424967,29.74136422323764
21262.51541494458,82.20053889065052,28.212532670465443,0.045432102255586394,77.196883835119
21262.51541494458,90.75173280188017,16.511183181293333,-0.058389032359059685,-89.22798759871272
21262.51541494458,29.142309801836486,29.072931322840574,-0.2128072241029227,-1.5404355444094722
21262.51541494458,8.25194033388666,7.8465482435221805,0.014636898969889367,-2.2147978225547
21262.51541494458,15.178847686465627,7.685438512703556,-0.18232330374632588,-13.026033696670174
21262.51541494458,101.3693275904687,18.654145118266346,-0.34088720398435807,99.6294463783779
21262.51541494458,8.270706233330609,7.704324370272292,-0.17581484889171725,-2.7196324075307348
21262.51541494458,481.90250370892454,19.701722423002558,-0.3201921069826301,481.4978110388552
21262.51541494458,43.34979123583175,15.865222491836867,0.07976891861331677,-40.32210431130588
21262.51541494458,235.8977861932039,16.93260628844015,-0.384570078032857,-235.2855367945251
21262.51541494458,22.376866572049945,21.600056928634924,-0.3829554752560762,5.691606720823932
21262.51541494458,1227.8119158129775,20.737976784250414,0.033497093301299644,-1227.636108605833
21262.51541494458,545.748116386342,38.791689302017446,0.19771999961478118,-544.3661925862364
21262.51541494458,405.0445409869718,36.16894237524606,-0.29676357517473795,403.42431640380926
21262.51541494458,1145.6508152311267,17.048235532684664,0.1455117863009594,1145.5232456283834
21262.51541494458,634.5127252516636,37.0509066786715,-0.1349418592202402,633.4287568108774
21262.51541494458,35.67114067207941,23.98498526047843,-0.342739277440526,26.3706775109611
21262.51541494458,510.0401785725725,32.71710685466996,-0.11780264080380383,508.98815324488345
21262.51541494458,61.88894257473095,5.489627307115382,-0.0077208461038294355,61.63184638750775
21262.51541494458,66.56338176384844,17.263623834191755,0.10909823846071447,64.27299997061924
21262.51541494458,115.00968164681196,13.459045397010401,0.07117240453708294,114.21232528798538
21262.51541494458,50.445545227613934,4.436242715884827,0.23106143534700843,50.233442428203126
21262.51541494458,44.6875059596091,7.474926016505365,-0.07773476192263885,-44.039436542060315
21262.51541494458,40.42950422838315,22.451133911216004,-0.15858238282178333,-33.59829748036137
21262.51541494458,333.4457804467283,26.99471448839987,-0.01592294571454381,332.3488422991343
21262.51541494458,6.513475877905705,5.441727567772164,-0.2842395417980357,3.333394766688518
21262.51541494458,4.139713436138792,3.7892341867281645,-0.14342648347067782,1.0666321544083672
21262.51541494458,30.06200055507501,25.007266445749888,0.32294959650971905,16.63236452042271
21262.51541494458,200.1939871871395,17.853885571952176,0.2537048796628657,199.39204159995893
21262.51541494458,37.80701893027722,34.809490573568155,-0.10127206594400537,14.698269764471245
21262.51541494458,75.18749833198844,24.202358122399044,0.37922254823648205,71.17331874160652
21262.51541494458,24.606335621127418,22.865370526024055,-0.1791642671001262,8.999657064026884
21262.51541494458,95.01477292034357,27.80813604161849,0.2883900313607327,90.84498234840825
21262.51541494458,11.31462521020779,10.522637950289788,0.1769478601754914,-3.955106492481604
21262.51541494458,660.6554593337521,28.056176181931033,-0.2853430703133046,-660.058167776575
21262.51541494458,409.6790626649498,44.54983230782072,0.084782608232971,-407.24761384566006
21262.51541494458,20.32024950836449,20.10223391441882,0.25076639235221837,-2.670054614824167
21262.51541494458,324.7178967678421,6.158275307886,0.3117592960325108,324.6568500377007
21262.51541494458,7.436611366648115,7.323131157315352,-0.11298864388385839,0.20375459545820665
21262.51541494458,32.51101118657575,30.52043318940136,0.056724339019488035,-11.128572790425759
21262.51541494458,80.94298601553484,25.18399793022562,0.007958307980788374,76.91496937348603
21262.51541494458,97.55556373228245,32.305218087963425,-0.022945074100139323,-92.04259729404436
21262.51541494458,405.81434723774134,9.346043579253076,0.14468492131438296,-405.70468854005105
21262.51541494458,144.44428556400302,19.491173737140183,0.18180358909002323,-143.11740659191798
21262.51541494458,61.371989318375505,14.236729867969862,0.0971928944672034,59.68422314816552
21262.51541494458,32.82908737312769,32.38004745087218,0.10157832964195229,-5.258377161460107
21262.51541494458,126.0791368448308,24.095299549317065,-0.2569383260201721,123.74844893395786
21262.51541494458,283.9234549744542,50.35713868504875,-0.2919563627833096,279.419006106001
21262.51541494458,115.49613021744003,26.879577367902296,0.004525208971489578,112.31751305538599
21262.51541494458,8.562053106308845,8.461516787217747,0.1251844596548735,-0.2741525185842849
21262.51541494458,688.1273454369232,9.244674511110592,0.13290684795076374,-688.0640531307514
21262.51541494458,667.0249432771083,65.08805084927441,-0.10164594565672301,-663.8404850581734
21262.51541494458,117.4060791838713,20.381632669028928,-0.19237024362490399,115.61625671358291
21262.51541494458,36.974855984538884,35.49937406070598,-0.16210233087807985,10.260968906847452
21262.51541494458,26.20497846536599,23.967669589995342,0.0865653302509215,-10.51777357315731
21262.51541494458,283.94688484800537,29.12337023992542,0.10120889082735848,282.44651143395737
21262.51541494458,91.7565511855488,10.296376429425223,-0.10309673839792646,91.16807573185828
21262.51541494458,7.487439205049693,7.353703130442944,-0.1914319145057624,-0.572270598788276
21262.51541494458,33.47908073417211,31.82546657438299,-0.20738138022969324,-10.31139470627902
21262.51541494458,350.35029363843586,31.440593847980672,0.015814025266266376,348.93437263278986
21262.51541494458,1450.598744471636,20.146335741400677,0.05825146050840449,-1450.458278810303
21262.51541494458,118.65663213319326,35.98890663928177,0.046450482453350185,113.0600377416848
21262.51541494458,36.51903661451604,18.287743693553274,0.3148754640451888,-31.582885602663154
21262.51541494458,25.541535513111345,24.880977659453542,0.11691289694200745,5.627847026113151
21262.51541494458,66.20735074280448,17.55615300709885,0.14315468774375664,63.8243968589202
21262.51541494458,784.2177711130523,16.907693494274348,-0.18809153079517427,-784.0344293431896
21262.51541494458,50.24741254076223,17.57148608293312,0.2560771024893751,-47.05697729448754
21262.51541494458,57.540838670377994,37.387243211303755,-0.3885367461566868,43.719223950610946
21262.51541494458,115.45390157715087,10.739466758425381,-0.1773204955424906,-114.94614018865737
21262.51541494458,98.9919074443558,32.42025936438964,-0.039201459617398765,93.52380621617512
21262.51541494458,827.1758513613378,21.063610317042414,0.07511170960610705,826.9066374734783
21262.51541494458,123.65494970660205,38.480816137930574,0.2792089393683255,117.50776468968655
21262.51541494458,200.2518527055304,23.77986492942449,0.3587134157063877,-198.83051376566593
21262.51541494458,157.71223476498832,30.073800142583668,0.03201329820053175,-154.81309330414197
21262.51541494458,5.536043493125452,5.359217196000928,-0.1246883890096315,-0.5388553674324922
21262.51541494458,196.98019114969168,34.96699311710893,-0.22587964740076916,193.8474488349009
21262.51541494458,820.0987528262568,35.57101933711143,-0.055476282970668964,819.3259688528005
21262.51541494458,669.5786189715093,30.52600953677826,-0.11371018428585186,-668.8811973282293
21262.51541494458,51.55218381024247,2.237550387860223,0.055724472628140204,51.48783606200074
21262.51541494458,221.47890673924874,27.215160551532605,-0.14192482163519157,219.79672510665318
21262.51541494458,81.18674603988649,27.97291098847674,-0.23229970188705434,-76.20452325106288
21262.51541494458,40.56982656140327,13.375134067315567,-0.28847808356006754,38.279403600323796
21262.51541494458,170.03053168445436,27.393112071799568,0.24756182511201094,-167.80440152975817
21262.51541494458,26.893841764843522,26.062634378809825,-0.23435666255097157,-6.507091113634387
21262.51541494458,69.3804127153952,28.364755456365984,0.04201040955307001,-63.30450138246186
21262.51541494458,26.123449544580033,17.321622154149782,0.3394565778700914,-19.510513447531995
21262.51541494458,339.91058242231315,18.805428011692552,0.11858828913926257,339.3875737272777
21262.51541494458,27.372298292391314,26.714453543715116,0.17903194098214947,5.824772693414201
21262.51541494458,885.0578326879958,13.148415474115989,0.17363753657324354,-884.9592281944946
21262.51541494458,61.845161803211425,32.490164136834075,-0.02722000772242842,-52.6079069683984
21262.51541494458,48.50398305913884,22.546611726855655,-0.18975591687544846,42.92586642840368
21262.51541494458,43.302508947546585,26.353650285046793,0.22995472780517137,-34.33538790120866
21262.51541494458,50.85887298441993,8.42672562022284,-0.2820995987224754,-50.13895711002315
21262.51541494458,738.845494319673,12.015816525333854,-0.34830791343752127,-738.746602465965
21262.51541494458,180.4845477096294,7.631228233731679,0.31108114197894965,180.31838200753356
21262.51541494458,17.15884672262654,15.78990935587079,-0.28427521328973293,-6.588119206919728
21262.51541494458,147.30414040512719,14.615451482768869,0.09692136405924241,-146.57171728677721
21262.51541494458,93.59915250175996,28.462068637841412,-0.007628819172447422,-89.1576765253623
21262.51541494458,232.7324285557059,31.039583910341502,0.005931825844855844,-230.6497492750004
21262.51541494458,529.6118913398902,35.910278520974686,0.09983264569499276,-528.3914994796017
21262.51541494458,1003.4260359291139,23.577225913305572,-0.37451284247884675,-1003.1481261919779
21262.51541494458,141.83236764788433,40.61493044447174,0.265899332770229,135.8865577562317
21262.51541494458,29.654160150440845,20.098326213710518,0.3185634158794118,-21.76475037033123
21262.51541494458,32.49413487942855,18.13920107012718,0.20390484512170629,-26.929091195427073
21262.51541494458,296.83436251492316,22.285762304820732,0.3411160565417109,295.9936596477488
21262.51541494458,43.95460066329129,36.15529602763485,-0.22519093082121394,-24.962574413823496
21262.51541494458,101.72787517140512,22.16925453101561,-0.17384961636693086,99.27453782534783
21262.51541494458,280.85927048235453,78.8348549835719,0.23956584262457878,269.56505227403665
21262.51541494458,23.673373618003662,21.147493916404393,-0.0425733332116852,10.563600272730413
21262.51541494458,19.945701243043782,17.115937401459135,0.08270019814680715,-10.161111618362295
21262.51541494458,97.149579848021,22.957369301747345,0.18121214676135536,-94.38933501855794
21262.51541494458,406.96414806211544,22.00911842863304,-0.010599631030695068,-406.366578036707
21262.51541494458,49.35613125590545,23.209754570597404,0.0029286368629225876,-43.5398015664218
21262.51541494458,170.1353865739327,35.198155952430646,0.027282239826159647,166.44974671529772
21262.51541494458,111.41686376666058,23.343920956476634,0.05548675794753684,-108.93647300557132
21262.51541494458,24.18237595232324,19.433738796307207,0.3033136958584138,14.331938026513038
21262.51541494458,135.7508335362295,25.007399886117717,0.12856617448131327,133.4214434457714
21262.51541494458,48.79271988283242,21.023184771101928,-0.32987521799327457,44.01165461196287
21262.51541494458,41.127701872627476,26.94135316428953,0.11822925619235548,-31.048618593123145
21262.51541494458,36.748252881454064,17.598257942176513,0.34466346971695677,32.23346022427721
21262.51541494458,17.360153734493935,10.475092409079242,-0.007194494550800571,-13.785016091512638
21262.51541494458,40.760170731990186,19.424591507381606,-0.03691425923850732,-35.811377296989185
21262.51541494458,711.1933392305785,10.692670801472051,0.29047491860546704,711.1117545963442
21262.51541494458,40.59432323690837,36.43375705573782,0.032344841695349694,-17.856615675283738
21262.51541494458,40.38280058023372,15.404192385643594,-0.39046497650023626,-37.30560709127558
21262.51541494458,145.34884241672358,18.92219272891404,0.21014126111354103,-144.1061129812308
21262.51541494458,548.6820856532745,28.311686224661514,0.1011850805561465,-547.949677110244
21262.51541494458,167.66287045782988,21.034319936313366,-0.15899043768434834,-166.33324857259922
21262.51541494458,147.0299024777371,31.849802181330325,-0.09625571993327825,-143.53310559643336
21262.51541494458,38.87914293659483,18.926771212516957,0.09777067770764711,-33.93721956120288
21262.51541494458,6.962773648371632,6.74350086128312,0.03720142787882335,-1.176168679907779
21262.51541494458,53.67377175970335,13.353403984166778,-0.19506214726509608,-51.97019983995224
21262.51541494458,36.507828508355544,32.301191675839256,-0.04857563502870365,-16.96559880526978
21262.51541494458,29.90456933881171,27.905571029922825,0.40365539035675657,-10.666713592155045
21262.51541494458,115.81955603890864,13.221196865597125,-0.0551041677368444,-115.0554032704211
21262.51541494458,6.6906614015192245,1.5784947805684975,0.15117854508142295,6.374150371814605
21262.51541494458,12.064011099445448,10.45034064504134,0.2554695116424498,-5.8859853241629025
21262.51541494458,42.209467017641025,42.18753194557067,-0.3215953072181454,-0.35661521371860927
21262.51541494458,57.04459637037035,26.566702220882814,-0.29786911267778615,50.463718906305566
21262.51541494458,23.655504992104927,18.92630697412579,-0.06163377314251239,14.133413095504103
21262.51541494458,626.9282458443267,17.796955853008523,-0.13709791810174107,626.6742809048964
21262.51541494458,18.493021640555515,12.862312335294058,-0.1915424670453183,13.22480343779124
21262.51541494458,72.2499268819343,29.22057479213161,-0.32268257813689155,66.06425026376644
21262.51541494458,15.753089371746677,15.370313660507204,-0.2979913623653961,-3.1943430588024495
21262.51541494458,69.70053829269447,16.67051912629135,-0.04927790654039311,-67.66561716068767
21262.51541494458,46.9831964596212,30.01424169186066,0.2890698662516603,36.1228712526546
21262.51541494458,258.2453577122204,26.621990974348265,-0.22613476474756172,-256.8662348056671
21262.51541494458,49.40840991501892,36.76226509393731,0.12555025210460796,32.98621555021603
21262.51541494458,72.88987522824185,14.105398239545137,-0.13080358689154142,71.50058660886396
21262.51541494458,40.662741741426814,17.386787807920403,-0.25830457843777205,36.73514391008403
21262.51541494458,113.41595132469588,38.210466841371606,-0.1403628731896448,106.7777967585563
21262.51541494458,76.78832833588699,23.219704112082308,0.14471897795868632,-73.18231418643612
21262.51541494458,66.59519048272551,49.29796916932493,-0.08673373031418326,44.75490422476972
21262.51541494458,24.756228682226805,21.65848379611281,-0.1989117377250036,11.921439344237044
21262.51541494458,67.52306661230885,9.349797437831821,0.2779135773830986,-66.85991265581207
21262.51541494458,30.95741174770862,12.660899455298749,0.12188595615050718,-28.221046306102416
21262.51541494458,68.59152718455584,14.498532781923451,-0.06263844156528296,-67.02958726416486
21262.51541494458,88.19061146678374,30.378720626002835,-0.2791367052586055,82.7829614740241
21262.51541494458,102.758268979171,34.55356085591029,0.17080643753055239,96.76602422664145
21262.51541494458,95.7268831375944,24.638307593674924,-0.41602951025481866,92.49214138132069
21262.51541494458,292.15814736667807,25.770492228851204,0.1355861069484958,-291.0165386419085
21262.51541494458,155.0178610126615,32.31974573045878,-0.25990465818118974,-151.60568281606555
21262.51541494458,30.961731982712784,20.718457484090813,-0.19519743133549128,22.972061477141335
21262.51541494458,262.64155719214347,27.78420367138655,0.18548694009831182,261.16464257045476
21262.51541494458,209.58701847854232,29.382787871598367,0.03907526190745263,207.51324754925622
21262.51541494458,27.637342279044315,26.72434808561363,-0.1946347418079979,6.92628101240418
21262.51541494458,298.770795080247,50.413578364176175,-0.029207043182286365,294.4840192608898
21262.51541494458,74.34755726295604,59.31104848983657,-0.22730940006973036,44.81167785453832
21262.51541494458,40.780907712121824,9.233469182798665,-0.2072231226990489,-39.700905316501576
21262.51541494458,207.75269101017926,43.19879978496884,0.009293326381610149,-203.2078334524552
21262.51541494458,149.9228977140559,35.721912266506145,0.2733348505445998,-145.59919256218515
21262.51541494458,250.61522634307696,26.405791107161626,-0.019268837240411424,249.2169834569989
21262.51541494458,344.3985514794438,29.18242221302559,0.2536918460698355,343.1574907809308
21262.51541494458,1043.1175067464683,34.607060173044836,-0.2884233110532686,-1042.5424597697875
21262.51541494458,265.8218448357913,28.088544552485143,0.20685689662534296,-264.3305192571383
21262.51541494458,65.73267040605646,10.732881450926829,-0.011609823791892546,-64.83801680635437
21262.51541494458,1323.4262899230212,31.92421881487241,0.05593972325459475,-1323.0405758429777
21262.51541494458,544.0154961837503,32.732031752090144,0.12455512808251025,-543.028395219946
21262.51541494458,23.873825521754185,22.53440613150586,0.03345253177188113,-7.780636861409911
21262.51541494458,10.221630744540263,5.9880927293364845,0.007486790041809002,-8.185582947357702
21262.51541494458,40.458619422730834,38.93270280893471,0.18120137911796627,-10.931196061833605
21262.51541494458,30.35435784697571,30.098140224078065,0.2725656022772141,3.714033796823228
21262.51541494458,30.369075509769296,23.527652106401217,0.10236984968985285,-19.159832926975074
21262.51541494458,1.5837271983601169,0.931944722518458,-0.13621079796444682,-0.021475311719909296
21262.51541494458,20.93221683214787,15.819576931611087,-0.0447169582915508,-13.648297743822638
21262.51541494458,78.33117476099932,22.099238094899025,0.05547326522168754,75.13835825646927
21262.51541494458,308.3367098269331,1.9585338864217767,0.24619145671761591,308.32776311156
21262.51541494458,253.61580394722952,42.98140451982158,0.4168232333879636,249.94355458661587
21262.51541494458,126.87766209957793,46.73112143087546,-0.22643334811071913,117.9511403137071
21262.51541494458,16.148803900941974,14.801210414283334,-0.28466848867403144,6.325056936680136
21262.51541494458,398.9621233080945,22.441111379519928,0.27240760077953646,398.3283538644364
21262.51541494458,48.1644209125796,17.989825568927802,0.24004677310211997,-44.65981794732161
21262.51541494458,17.312593298644686,9.871897992953215,-0.08068912058553897,14.164898506672126
21262.51541494458,562.6319033047905,28.324718267155554,-0.08320850441449898,561.9170235644225
21262.51541494458,239.26079409761547,29.607878764874794,-0.23542994379731674,-237.41824913789816
21262.51541494458,68.18362762888754,23.29932671797728,-0.026171273766177353,64.0665834104307
21262.51541494458,12.352412206856432,11.024082916130872,-0.2353814456292821,-5.419928270643498
21262.51541494458,70.78792071765888,25.418225657130115,-0.12636341203412807,66.05457516295424
21262.51541494458,26.482493909108808,25.66583171312598,0.15165682043447526,6.398742847294104
21262.51541494458,35.89127468955592,15.054344054245863,0.07019103642638733,-32.55648538852829
21262.51541494458,24.599822246807744,24.215784804048745,0.12853047126814748,-4.1364047812073075
21262.51541494458,257.18425911933207,70.54567954254442,0.20509247497054792,-247.31637130892602
21262.51541494458,40.967140809252754,34.45511203052428,0.3310113306601163,22.1228763104086
21262.51541494458,171.52326448082266,54.26611223693562,0.1539830509824899,-162.70763643346325
21262.51541494458,21.96624942493429,21.81948975023524,-0.03882228276257833,-2.1917612474141395
21262.51541494458,18.04908792326286,13.110747875287467,0.3070310085961615,-12.335434352692202
21262.51541494458,127.25409215175155,17.840452980772316,0.28726862314247265,125.99055134113425
21262.51541494458,41.253516243183824,15.413107596690262,-0.016068759960725387,-38.244840202724525
21262.51541494458,767.0816462430635,35.78953817514601,-0.08128684550906393,-766.2452177314544
21262.51541494458,28.93065749029482,28.89979487570045,0.22090971319925765,0.33961972749490577
21262.51541494458,728.0288946455127,33.477260841724046,-0.1576403473671432,-727.2576565004458
21262.51541494458,12.741762889301034,4.97912171831817,0.2472577557430595,-11.656718051881764
21262.51541494458,133.23012308940315,23.884481045822685,-0.11201692033319101,-131.06549530481433
21262.51541494458,25.19569639952605,25.074347124277935,0.19118412833248621,2.1078485891729755
21262.51541494458,4.2014057887606855,0.5703183403234076,-0.22447153619067572,-3.9567036557547177
21262.51541494458,140.09491346686886,51.15298093161176,-0.1409232766374023,130.41593769715126
21262.51541494458,544.905833809417,9.876311136474571,0.31099259543871954,544.8147472537565
21262.51541494458,74.72763532154259,61.525836728417936,0.26999437706336676,-42.39218492070646
21262.51541494458,38.67235788662671,34.04560451043938,0.2307491648909603,-18.29683515120828
21262.51541494458,51.499016773244776,24.506384659556247,0.10892917445416897,45.27641016756149
21262.51541494458,276.91041174021166,19.01702848832881,-0.07123169858876512,276.25369323748464
21262.51541494458,535.4532777422928,38.548004179818705,0.16969312431742734,534.0623695474703
21262.51541494458,411.8095104707603,29.949663626706535,-0.026420454527990675,-410.717018406191
21262.51541494458,52.47919758040819,27.026149005307897,-0.12472154293660251,44.966845974124574
21262.51541494458,36.433211819678796,26.43789134509777,-0.21704636200204674,-25.03495674645013
21262.51541494458,63.35992335101922,11.744643119443076,0.1841212212424892,-62.24860390496591
21262.51541494458,53.02724458474472,15.547638862193788,-0.01665101355010539,-50.680752367169816
21262.51541494458,812.3316086454379,53.282257525260775,0.09456639774241783,-810.5812814507813
21262.51541494458,33.56962907257355,24.496798000436744,0.03318253049030845,22.91735426294108
21262.51541494458,90.83576896603782,22.50430912475917,0.2694122485935462,-87.99431660741786
21262.51541494458,115.42094999865343,20.56752042352175,0.02450316139541222,113.56650714674753
21262.51541494458,10.289353554162197,5.932332869694311,0.29857265179295484,8.304722834315182
21262.51541494458,29.358593926176745,29.16495640487248,-0.15992383168054605,-3.112253731556961
21262.51541494458,64.8141490341731,31.89099347980505,0.30222567892739044,-56.410339949618546
21262.51541494458,26.863590453445866,26.71273970881085,0.07012359324584405,-2.540955662532909
21262.51541494458,269.0384503578898,17.203931829916527,-0.15380753302169325,-268.48476341778985
21262.51541494458,19.108919320325377,19.03706821850086,0.1931204073965425,1.040614933871354
21262.51541494458,12.623095807692804,11.97424213749392,-0.012621124151338158,-3.7867211948573454
21262.51541494458,270.7062727802963,22.431337600401523,0.1374661309225533,-269.772277417116
21262.51541494458,776.8945779817659,15.920597092783371,-0.2740454174035531,-776.7303419646244
21262.51541494458,120.81133815505626,22.334869701933414,-0.39230489852948064,-118.7213479656338
21262.51541494458,1276.489076639351,28.68381067756121,0.35707609939784324,1276.166076035934
21262.51541494458,41.156188337328494,26.3303767540789,0.24886523531603913,31.604754519503345
21262.51541494458,17.78534888323569,14.525231039701598,-0.12738050774055737,10.18329102232917
21262.51541494458,1164.4616509862906,22.158941026361532,0.14565984985290364,1164.2500917230857
21262.51541494458,96.94256918733188,19.287198005543765,0.14288258633462605,94.99591908076684
21262.51541494458,27.886304130923737,20.68966359917903,0.24252946126621217,-18.65219293791211
21262.51541494458,107.53750508651056,69.08219464839723,-0.14451385563787628,-82.40342130175948
21262.51541494458,391.39892820920767,23.07224157222072,0.0318859227441764,-390.71622822597857
21262.51541494458,31.845861870478018,28.962504566935408,-0.024929609461138372,13.179945739489357
21262.51541494458,38.49854365892664,6.214992975090021,0.11688352967927075,-37.97206088844602
21262.51541494458,46.33190010378606,44.917284541979036,-0.005960276196613805,-11.289899236694277
21262.51541494458,115.15668000546745,23.007865518441196,-0.0008881117282794947,-112.82764916932244
21262.51541494458,36.84391806789012,36.819845203037545,-0.0521920184802897,0.38719182385515744
21262.51541494458,128.9467077164843,21.617417918529824,-0.15083232678994257,127.11529123894871
21262.51541494458,166.33593557993896,22.810919218440013,-0.15051899120569134,164.75940676451282
21262.51541494458,266.46637262716627,24.22729471927444,0.03797154269277936,-265.35964997249437
21262.51541494458,15.25392679877659,9.994785901731655,0.217200450832731,-11.450707629777243
21262.51541494458,51.98642056964472,7.297708469945443,0.17123494630902086,51.45562551385737
21262.51541494458,17.112463018974324,15.394968426076579,0.03911983343640995,-7.362686403209157
21262.51541494458,242.1705525454425,28.697495895368792,0.4127163018475343,240.4604733806617
21262.51541494458,341.94488174952176,11.005520114227654,-0.03364613435916013,341.7653564850376
21262.51541494458,186.07438820485902,34.30154210497591,-0.19760690517959661,-182.88089689806773
21262.51541494458,106.51234419003929,45.61483489987502,0.08414509623891335,-96.24208313006747
21262.51541494458,912.1967300934531,23.031922005823542,0.30843882460905103,-911.9049781479947
21262.51541494458,221.38626386815403,17.634297230625084,0.25322662620534314,220.67900808789034
21262.51541494458,31.512006452343726,17.42895683632575,0.09741116503544946,-26.222278104933462
21262.51541494458,251.84735898106814,18.701166677549093,-0.0811428059866082,-251.14882311127812
21262.51541494458,209.72821766856453,25.051428327414193,-0.24489845577657124,-208.2226466877056
21262.51541494458,69.58626673887332,31.537445801739413,-0.10956335917636942,-62.016170234252655
21262.51541494458,27.68725609911241,26.37456916731991,-0.13624725558553874,8.326285601571714
21262.51541494458,80.1934284793786,27.025569579730558,-0.11433645581183026,75.49152820708244
21262.51541494458,41.491570331535094,25.46027925252387,0.16733049579920659,-32.73646183024215
21262.51541494458,29.46805288924905,27.916473537794175,-0.08557704808300844,9.349260214774116
21262.51541494458,12.057811538966085,11.77459022525447,0.332035966665661,-2.2402990762186192
21262.51541494458,9.798723158853901,9.667052974560104,0.044839100591556214,0.9697399050604135
21262.51541494458,253.32735503021783,17.832703147842636,-0.14487220102278084,-252.69567044330174
21262.51541494458,30.935509145635,28.750609956180963,-0.18308849729259105,11.346980900084125
21262.51541494458,20.056165513758955,7.099525803105435,0.280955741354554,-18.712213018647308
21262.51541494458,72.15480963507284,20.053844796511136,-0.37020187627753304,-69.29936620647656
21262.51541494458,653.4957158895845,26.04201170610843,-0.07943533780328323,-652.9753726949158
21262.51541494458,252.6082183544301,27.461847367670785,0.13993715060696044,-251.10778299496332
21262.51541494458,305.3102552338795,37.024579135502954,0.03545354531649994,-303.0543030177251
21262.51541494458,185.02087246996888,19.267279699256456,0.03201631288468146,-184.01052551740707
21262.51541494458,49.231834974617016,29.758329792504306,-0.16733256270054117,-39.19906537711626
21262.51541494458,19.50450000861816,7.130852353463621,-0.11788435542357056,-18.109166526252235
21262.51541494458,43.00284376936564,22.896679047287932,0.15766640693880954,-36.37775619605446
21262.51541494458,52.688206500915015,19.48496742545227,-0.034731048113865653,48.93629824745558
21262.51541494458,45.67508313734656,21.668446975430104,0.12832125483398812,40.187740700735496
21262.51541494458,15.743870956158823,15.278063006924405,0.07397159735810319,-3.5810801919132866
21262.51541494458,155.86386097569516,28.415253505191785,0.31012484214097247,153.24620612845948
21262.51541494458,599.7765960321633,20.926408045145116,0.2153218277956944,-599.4100295911513
21262.51541494458,27.013026268716786,23.350474899887388,-0.18659686020127472,-13.520482071781862
21262.51541494458,382.86816143899864,47.16389481919094,0.3721421625955211,-379.949782106888
21262.51541494458,69.96777356441747,27.244499187011485,-0.027856064084669285,-64.43295095948748
21262.51541494458,80.91228494517539,9.756662001222603,0.2589864012323835,80.3113794638383
21262.51541494458,73.28952411454522,35.80730677638319,-0.03595195407806041,63.93410027139652
21262.51541494458,60.703871682769694,34.48149380206046,-0.08199558689066372,49.94356057469136
21262.51541494458,69.53320916718893,22.190315083453363,-0.16794940812554549,65.88481031526857
21262.51541494458,36.857485352008624,7.196292237741035,-0.2653346640787517,-36.12473592590119
21262.51541494458,57.02992489739143,30.215597542919404,-0.19306616718992892,48.35051259375662
21262.51541494458,3035.054320171988,39.31506860544764,-0.25452100115502024,3034.7993947439027
21262.51541494458,33.78669732150296,26.66060092388377,-0.24480725072501772,-20.71406979277023
21262.51541494458,60.796124891427674,31.624185014579027,0.17599140453008838,-51.9078808534964
21262.51541494458,16.842775853588886,11.699259936861978,0.1965190449036343,-12.047702658451666
21262.51541494458,29.95940597954434,22.145152487201408,0.33348973882789806,-20.13520191747158
21262.51541494458,290.59257065846407,33.80203660169327,0.14338536709432984,-288.6170875533987
21262.51541494458,36.4705834007281,21.958924175227573,0.08422025249129868,29.090915305343028
21262.51541494458,31.49782661442085,13.54153008477871,-0.018309650534246154,-28.40984077479753
21262.51541494458,120.72511620265222,101.46190185812559,0.008978185456485644,65.40959728178778
21262.51541494458,141.53385914190875,27.406759175357003,0.2420043915928411,-138.84892370010508
21262.51541494458,143.19912889139917,24.971767261413305,0.09217369124075694,140.9991922062162
21262.51541494458,1328.0246801846088,39.78902295861079,0.10315836648999548,-1327.4278713110855
21262.51541494458,666.1171615265004,18.155683164348197,-0.1086001134818898,665.8684641869371
21262.51541494458,55.034799513295035,16.416532550143096,-0.1667633591890065,-52.513599668830594
21262.51541494458,33.24061292359181,21.395326991289,-0.19188667032468906,-25.40710242580076
21262.51541494458,65.05358353206229,16.201035351525945,0.008072135953338234,62.99106652883197
21262.51541494458,705.9763504408204,36.67581652233949,-0.15697580213986925,705.0218766580615
21262.51541494458,29.48611803021695,26.181003731321436,-0.3286237635888653,-13.500279635323226
21262.51541494458,39.40821545275597,34.21445029951384,0.16219893088122006,19.512351756701513
21262.51541494458,573.9453743429075,109.50319678460913,-0.33233108887109053,563.4009331935084
21262.51541494458,122.5824200102532,31.637600697994504,0.2862452561966828,118.42216568276056
21262.51541494458,1109.9079612818628,17.799612119850885,-0.008715440859939349,1109.7644955543415
21262.51541494458,50.96356379557279,13.048335375288547,-0.03593292422037123,49.248389122913125
21262.51541494458,38.447802631286315,7.176032451386339,-0.13168369661657878,37.750497858075235
21262.51541494458,40.96493775678877,29.701859153670284,0.13442640215895507,-28.183097088024468
21262.51541494458,78.64401812601886,36.049253271806776,-0.2994570901666534,-69.88292062227623
21262.51541494458,150.65442829954202,42.91009554443565,0.2588495243461064,144.408423602124
21262.51541494458,29.96357456268343,18.938276808044662,0.07779476852627097,-23.18470969813634
21262.51541494458,32.249749526109895,14.627356014720174,0.11492480979332473,28.713288500292833
21262.51541494458,24.983030871630202,24.944981987040574,-0.041658175191500973,0.5266056332673257
21262.51541494458,231.89636122075345,66.55448429671803,0.1005858071018756,-222.13687715824446
21262.51541494458,64.38529506450276,24.745108755101654,0.126724300398554,-59.426501646070854
21262.51541494458,39.07797303360011,35.020956471242535,0.22854836659191785,17.290103920906347
21262.51541494458,19.04979748505005,15.414956411068028,0.05039493093786199,-11.119833951760599
21262.51541494458,24.355869993359594,14.747062337220145,-0.0633391070120302,-19.341868767277887
21262.51541494458,95.8163924384746,29.013175328086824,-0.00228509635731299,-91.30934265331943
21262.51541494458,289.20891752192256,28.18440242976514,-0.1985311895514136,-287.82942407430045
21262.51541494458,26.201568617200056,25.700802824471463,-0.12937633852085476,-4.934930358172583
21262.51541494458,30.740529338532294,17.718406634914263,-0.030024152618835603,25.088177546022557
21262.51541494458,101.95559783065181,29.6877222742687,-0.006171086437415727,97.52928986097815
21262.51541494458,889.0125363814824,29.951184493750155,0.05769389301279143,-888.5069456149287
21262.51541494458,28.16336544497903,26.974750720018584,0.0943450735239998,7.994274168734637
21262.51541494458,50.53978026431722,23.597349987870114,0.2012554322202388,44.67407864370499
21262.51541494458,257.98636251703834,27.470169343832332,0.022079066812898483,-256.5165333798315
21262.51541494458,64.83833787590955,8.121482188880602,-0.09485625914228664,-64.31502104138586
21262.51541494458,270.4812158657516,25.188377019360455,-0.17484526115123758,-269.30277119290474
21262.51541494458,63.75278125682485,24.29638540431554,-0.052537870688440395,-58.92774692566452
21262.51541494458,120.16830082592067,30.976377954552472,-0.395383426704145,116.09955877542805
21262.51541494458,40.83781255040492,26.557969870530567,0.09172502192613287,30.996323983270223
21262.51541494458,108.3061734890984,32.25608760410113,0.3703433262380551,-103.38285262965732
21262.51541494458,50.393290290176694,38.072705090917054,0.11723953589957048,-32.98967159458847
21262.51541494458,18.77951869065937,18.422287207958764,-0.06855691095916827,-3.4153037826470394
21262.51541494458,1480.1374212512394,32.265454181061344,0.35453037458224707,-1479.7851127466683
21262.51541494458,431.2792722334516,15.114939342219644,0.21860335062300992,431.0123905680314
21262.51541494458,122.25953406322208,27.208309958735036,0.032016670673333365,119.18674363022029
21262.51541494458,29.26698392330415,18.46041742780987,-0.02139021604530807,22.674836769293726
21262.51541494458,136.75571577947025,31.174668558938457,-0.16895704662745567,133.14885142504792
21262.51541494458,680.8636847109125,15.543881010445558,-0.06329500950770223,680.6850374870106
21262.51541494458,90.7181329149295,10.694120762766467,-0.0009845585836130268,90.0766049727138
21262.51541494458,73.80730049391543,10.704261189947884,-0.14226525052705596,-73.0157209296224
21262.51541494458,176.68790169786007,29.508386972401805,-0.3209291775871252,-174.2014524992261
21262.51541494458,1150.1433607161796,20.835382641387476,-0.07745734934345379,1149.953916630467
21262.51541494458,50.78248522651247,13.093894580862898,-0.04016593069778056,49.04883750795443
21262.51541494458,8.893605203099177,5.262996851683842,-0.2673687158580646,7.05017271526302
21262.51541494458,95.47287114416609,28.633742913078134,0.2898170583871811,-91.06850850359008
21262.51541494458,268.1579094937722,26.160866491511733,-0.0867653829058982,-266.87571134134555
21262.51541494458,260.582966955205,35.834094457666396,0.2101243736855631,-258.10411762120646
21262.51541494458,884.7823133585953,24.47609002250475,0.03954338030908028,-884.4427855036279
21262.51541494458,24.67861573691368,10.55642265400896,0.04652032655317712,22.270455653104353
21262.51541494458,26.722763539824893,16.412920664132848,-0.2859154726273875,21.04803369719575
21262.51541494458,195.3037030699818,19.433531958982652,-0.09239177168046316,-194.3302474549571
21262.51541494458,3.4608865309240624,1.7029549922343081,0.0451266239803763,2.73038223691555
21262.51541494458,153.89156053708598,19.020236656402375,-0.32533713145676335,152.70598056894312
21262.51541494458,52.07880167567244,16.80491789637013,0.15957485814238895,49.276264042969316
21262.51541494458,362.3160508530116,16.767750387077648,0.08895590971610616,361.9255927441749
21262.51541494458,531.5905177926824,27.943374492404885,0.3670937671162295,530.8539262498989
21262.51541494458,94.75664738786355,23.84423220862177,-0.07126292452219767,-91.69868635843328
21262.51541494458,26.87502359866161,10.903025615624633,-0.10898045972620815,24.53076421171076
21262.51541494458,22.011010617545455,20.01440320356446,0.17094134894249693,9.069640321620762
21262.51541494458,2833.393750915546,26.563832473613825,-0.32887583880261007,-2833.268921531446
21262.51541494458,622.8508815605871,25.602056413759758,0.30478871330306545,-622.3231008212092
21262.51541494458,105.26948269508192,33.711609665224564,-0.2928233717342668,99.7170244183016
21262.51541494458,285.0189099246691,14.933887341045729,0.02208985400899674,284.62455424518015
21262.51541494458,35.6407454568002,28.694047270231135,0.14354662514347177,21.101495824563603
21262.51541494458,375.9936758164142,23.110699611768098,-0.3202120569875453,-375.2804506303646
21262.51541494458,549.9516310250237,27.35338209124019,-0.1223691483602346,549.2694724128983
21262.51541494458,32.804461661913315,29.40759847866696,-0.043737269941566646,-14.48113556991176
21262.51541494458,41.546374492220046,15.957929662046183,-0.30329339248046333,-38.33709784483637
21262.51541494458,188.42209293701754,27.744935710864826,0.047395154990417014,-186.36383969687583
21262.51541494458,6.4728748785501775,6.048052428281341,-0.1781882220208612,1.9148795453393945
21262.51541494458,162.94230660991997,24.69212468135481,0.3618863914412219,161.05509195309162
21262.51541494458,39.94509004295374,32.33726804064789,0.2756002092752687,-23.413985188966038
21262.51541494458,948.9441062181812,13.651413638184694,0.2881808258809679,948.845009433791
21262.51541494458,755.7152836695773,22.876606165927498,-0.2731913246112736,-755.3678279966101
21262.51541494458,130.87140025012854,23.38603440573358,0.020890271851331917,-128.75867235063134
21262.51541494458,48.92921748200405,23.156942682476696,-0.08382749409546918,-43.08360065791244
21262.51541494458,203.75811261177833,48.71106597982671,-0.14264941909629905,-197.8457972792544
21262.51541494458,29.39147806855188,29.219649320117604,0.09352084770659178,2.9054559387575107
21262.51541494458,32.62241089868311,15.414783265857492,0.1009554219792218,28.72238328219702
21262.51541494458,241.60158507975504,20.337389292148377,-0.053872361239301975,-240.74071726921454
21262.51541494458,196.27732988776162,37.3430015946349,-0.29401658560893484,-192.68778725626902
21262.51541494458,426.59766418270345,25.234519955763222,-0.2183464338451661,-425.84870289490505
21262.51541494458,21.399731303923566,20.490803614535622,-0.08801001304159947,-6.037140469275554
21262.51541494458,419.44918569014925,62.98759915884172,-0.0616637749522853,-414.6909177563584
21262.51541494458,106.99677247827157,28.76785903828683,-0.10805505216361021,-103.04895571971348
21262.51541494458,69.48189761320731,9.571045450739081,-0.28329154779894444,-68.80718185268566
21262.51541494458,38.83262640856449,19.55702517194455,-0.031206620178141162,-33.524230193330666
21262.51541494458,26.2671351005813,26.099860621827403,0.07383852365961009,-2.6708712966553407
21262.51541494458,147.17218532244328,31.049493096195206,0.2569416787847099,-143.8537258319162
21262.51541494458,48.69234921703503,48.50970105120956,-0.20451972687243003,4.011395215481732
21262.51541494458,498.41907648454054,10.298499304146617,-0.12037676278220366,498.3110289456949
21262.51541494458,52.290432542886,23.504053925488247,0.28318362839006134,46.692054306059006
21262.51541494458,92.75630720813062,16.87556281809409,0.044786699923944524,-91.19937085479633
21262.51541494458,38.19076554760629,19.89127494155879,0.21383817721628337,32.57614727439406
21262.51541494458,759.7896520671821,24.867642676567254,-0.35256408104275855,759.3814395798375
21262.51541494458,31.089857999705966,30.71139299991081,-0.04836477258814252,4.665470500730075
21262.51541494458,636.9476271120016,17.75207278816583,-0.06431443432237008,-636.6989231989355
21262.51541494458,59.68901418325055,35.374403047167284,-0.21303423557759443,-48.060003988106565
21262.51541494458,98.59978242752575,35.34591983353678,0.0852714977001056,-92.03779179416348
21262.51541494458,807.5422386893352,39.4693795331948,-0.14501336077912363,-806.5760929146552
21262.51541494458,160.65610381756125,25.436445359640345,-0.16885726578731725,158.6244677602618
21262.51541494458,60.21662120730515,16.20158515052442,0.31838633561363183,-57.98127354649236
21262.51541494458,1240.5829410905285,16.82201284591229,-0.07056361223930022,-1240.4682293283904
21262.51541494458,274.7936669847434,30.664589269456616,-0.40972247321304034,273.07408125094935
21262.51541494458,29.149943996121284,28.676173352535336,0.3455918165465467,5.06519760978637
21262.51541494458,105.17277987691332,26.218239578321842,0.26137204120676655,101.84413860799727
21262.51541494458,20.583330574467414,15.560562951486153,0.23880226467557084,-13.411364410324822
21262.51541494458,454.1770511031265,23.904370241854238,-0.1991553662733479,-453.5457138072301
21262.51541494458,41.53637746898476,21.340944948422372,0.21022325927946162,35.61137278782086
21262.51541494458,321.9175151585537,31.81408676210615,-0.1757389925733385,-320.33903744135654
21262.51541494458,78.82709846060087,28.90091153869571,0.38239502748845605,-73.32586093384924
21262.51541494458,118.24326746339209,11.21152341934082,-0.23819528991177927,-117.70341817355269
21262.51541494458,15.411489427097349,6.53798826592297,-0.13937253413913492,13.89707288569843
21262.51541494458,160.5790160712275,12.863348603752579,0.16706871443672147,160.05782110488707
