777340.129988494,885.0987744269307,67.91502824366366,0.17891979474863978,882.489142719855
777340.129988494,6.047878110509101,1.6664936797365644,0.1806370215390071,5.787624618219701
777340.129988494,154.34743956710602,11.906042505632952,0.5084015253925093,153.88583229350414
777340.129988494,17.79592856749447,5.834634290416883,-0.17816900092826948,-16.80327265991853
777340.129988494,361.0214882638858,15.282705978965858,-0.37888292770765936,360.69729682097505
777340.129988494,181.6930978327178,19.94589655307824,-0.32904823928733173,-180.59392109924318
777340.129988494,21.31359217638842,10.043168356558212,0.6307549698607148,-18.781260048016737
777340.129988494,91.00665203635315,17.32060584733291,0.6878910811684094,89.3390381289593
777340.129988494,226.0776168620611,3.9021930382017644,-0.03905748536396715,226.04333613277413
777340.129988494,28.955149949470396,7.939433927082055,0.12543187530809496,27.84025797938069
777340.129988494,9.71845705432138,5.524581302653717,-0.22771038803421964,-7.975284128245166
777340.129988494,9.767605313798676,4.09337041259217,-0.01564077222158893,8.853235995821386
777340.129988494,6.6573179156759466,4.257756942654071,0.4594094932294021,5.070496086695234
777340.129988494,9.228641791964836,6.612169528005973,-0.5919468856622996,-6.389541637853524
777340.129988494,87.14620685377449,17.530425603353862,0.5456988350096886,85.3614512525859
777340.129988494,18.474456885702825,11.15469713873444,0.4910046027760195,14.709412069992975
777340.129988494,458.5775221413479,36.38538782538103,0.10005438411654086,457.1314547864927
777340.129988494,79.72707066069947,31.176257159043328,-0.32110278934994263,-73.37624464830589
777340.129988494,33.95152036399421,16.25406333822869,-0.5550733671235056,-29.798198831148742
777340.129988494,11.128362103413522,8.976922970452216,-0.36547747240754713,-6.546092216308924
777340.129988494,39.64957080658796,17.766518881078085,-0.6921552790981692,-35.43571352554574
777340.129988494,65.25124828885282,39.27488581136212,0.014944793423467008,-52.105068125961935
777340.129988494,50.62101852563222,9.263802592257164,0.16431478981162995,-49.76315985499655
777340.129988494,8.945119878684947,4.870520518112486,-0.089020005034637,7.48430858298838
777340.129988494,22.15154649509486,18.83883200302067,-0.2349961558841033,-11.638891600708089
777340.129988494,73.67149861129955,49.2002495962791,0.20704447567117779,-54.831668585623426
777340.129988494,52.825278322714944,10.96194429057485,0.0862986444266972,51.6727003337991
777340.129988494,16.304190127905798,14.371746696049776,-0.7119808960262691,-7.648672815278276
777340.129988494,25.865265446129467,22.083044151401644,0.26974418489133806,13.453919714369565
777340.129988494,240.3566052060711,20.10136263423675,0.6162888532359263,-239.51322024991316
777340.129988494,5.914838807584768,5.7453051517757245,0.573815411890517,1.1735087156757895
777340.129988494,220.66045394393103,14.527247096846047,-0.07480793527333392,-220.18110507103398
777340.129988494,52.99581818012601,11.097017630249795,-0.18666032217657128,51.818024877633306
777340.129988494,7.730786280925051,7.246190644730793,0.505349557588023,2.594609698239885
777340.129988494,284.2659453718691,13.834603187218804,0.04059419066040537,283.9286167418254
777340.129988494,111.5842251167893,14.818842514847642,0.5113850178455633,-110.59344142759088
777340.129988494,67.96969196942995,17.62013911905699,0.5101007033558668,65.64205299285437
777340.129988494,13.868782451231946,12.88927406668504,-0.13701208609827834,5.091224646560257
777340.129988494,20.740530629215744,20.659819323227172,-0.596303695755927,1.647876881163582
777340.129988494,19.553783416706118,16.38713787561192,0.24756963404732998,10.652721127929427
777340.129988494,37.967649440385124,20.39787746395932,-0.4824353443391586,-32.01508792947178
777340.129988494,26.204195061256,10.591988769616975,-0.34643338627975767,-23.959949845972815
777340.129988494,51.57304201475962,8.022142714035454,-0.4488123884741523,50.94067192697561
777340.129988494,31.41587012760234,2.948803879896956,-0.11406279286491043,31.27264045825944
777340.129988494,59.69280157490305,5.5521458388188325,0.35676358552554055,-59.43068699072288
777340.129988494,27.923676661016884,3.876527906913039,0.021656290038335115,-27.64838839174982
777340.129988494,7.1891542946196605,5.276952354058091,0.5574780782429649,-4.822502619711846
777340.129988494,10.251739001132975,2.5783942279315895,-0.26172023012367407,-9.905106676551444
777340.129988494,1540.466818489324,27.071632893786273,-0.3515876159752984,-1540.2287984404243
777340.129988494,4.43563163540891,4.402193089669981,0.1584550387459551,0.004000874677854982
777340.129988494,6.105717188724,1.1242953253978676,-0.283346258695542,5.972022882378419
777340.129988494,10.179602160472403,9.20998338681163,-0.32050853107231503,-4.292712480665111
777340.129988494,7.847428179718074,4.112948677928361,0.1337612393580478,-6.661643201148349
777340.129988494,90.80208273587346,10.056502614345474,0.47529553341744735,90.24072627420496
777340.129988494,288.93406233993176,20.99088535801349,-0.3320388879557125,288.1699055458762
777340.129988494,32.16047786148562,5.611082308848659,-0.5103468671961388,-31.658825589045072
777340.129988494,5.631008007028397,4.895854841725178,0.03751550868797264,-2.7325901870902536
777340.129988494,22.87360068650647,13.554850817058847,-0.4561414128721139,-18.411658336621706
777340.129988494,21.56523724605868,4.247904576727487,-0.2943765331821406,21.134278001448877
777340.129988494,1107.7936541346326,16.625380972752293,-0.33801934282997564,1107.6687195147279
777340.129988494,101.96872761458046,11.164268565533629,0.6079157071052472,101.35255575083538
777340.129988494,9.532955519511463,8.126920336445192,-0.3447933691042411,-4.943796548673833
777340.129988494,15.031603152703346,14.810654790784683,0.4828581241211467,-2.4678018641167503
777340.129988494,222.66446682389818,39.066302940991214,0.3559493184300337,219.20969791634738
777340.129988494,4.440441372749165,4.078940446319696,0.32522548920699784,-1.6442605637093572
777340.129988494,239.6277726458803,11.477550388369654,0.3949309786358233,-239.3518516532309
777340.129988494,69.04720694971327,11.26103988201186,0.10491024400950023,-68.12066031809273
777340.129988494,24.09480926928523,2.08106177944531,-0.3586436104273843,-23.99645787098722
777340.129988494,319.0366385129321,8.905666560966873,-0.20258751450452336,-318.91182852794145
777340.129988494,8.618952547100102,6.352080528727921,0.29931745734852827,-5.7946030947292115
777340.129988494,82.17696885495334,11.1888979458667,-0.5518277800108362,81.40815597374849
777340.129988494,20.127407909548428,14.347464435707112,0.6848385260417044,-14.089833555323548
777340.129988494,65.1245951628736,10.196677174200804,-0.10018011840735194,64.31920579171657
777340.129988494,13.075502248130585,12.648555836519888,0.44753301045001725,3.2422381923393795
777340.129988494,7.160932983176117,1.619624180695732,0.20990341691028058,-6.952792191516632
777340.129988494,88.34185641424651,24.75472802967988,-0.2667897309013067,84.80062180274044
777340.129988494,145.42660783425163,20.807601774651673,-0.24634433444296355,143.9291870644506
777340.129988494,22.362953604474175,9.008627005416226,0.1494674859189515,-20.461026192833124
777340.129988494,27.372859372856006,13.860856294298966,-0.19331095811134483,-23.597506730763264
777340.129988494,42.57467828851422,16.501035464808652,0.19234973275782583,-39.24298232219258
777340.129988494,16.832415659056927,16.79850629864564,0.21543109222522178,-0.9075199712018954
777340.129988494,6.6381273814078705,4.259967513021712,0.11820158682907995,5.062908285231682
777340.129988494,943.4301548509195,23.816582233070456,0.39780843178574027,-943.1292588193928
777340.129988494,165.66561727485686,12.911847702817445,-0.4991102887175441,165.16010845503308
777340.129988494,42.007065388649295,31.800478793215426,0.4621401534722736,27.437913870538015
777340.129988494,15.647709376181593,15.410751489320097,0.1670668257383072,-2.657298615435896
777340.129988494,11.894471334170255,11.34002988551604,-0.7240721613273913,-3.4767067780000707
777340.129988494,39.628642779724615,3.401428038653748,-0.183417256180114,-39.47854574285904
777340.129988494,1551.524885754584,33.497265937466466,-0.08664567725697923,-1551.1631527286277
777340.129988494,543.4207586250001,6.419649609122592,-0.2828883563771183,-543.3825158924827
777340.129988494,204.72114682246016,16.56262933932539,-0.43574116959521614,-204.04893284529703
777340.129988494,16.527056933189517,16.504484544374275,-0.46768994875848047,-0.5064256206281172
777340.129988494,34.31252337533675,5.241934945558185,0.5535591062242913,-33.9012470379112
777340.129988494,8.64281802161974,3.522074218155198,-0.41678495134586074,7.864425399288434
777340.129988494,81.24735639932017,15.037610564598054,0.770726145662013,79.83820370971551
777340.129988494,5.169823096712638,2.385052447189948,0.29449790492517736,4.547688056524036
777340.129988494,254.4964440806421,10.299784298651275,-0.1744048358190607,-254.287344702889
777340.129988494,14.113368748453766,8.489524919397603,-0.05439865430052997,11.262405820213058
777340.129988494,21.95678026015401,15.208645437361685,0.09859021602786074,15.827734623837042
777340.129988494,11.543429386705194,10.703918069445345,-0.05534701578547878,-4.289922688848145
777340.129988494,4.116360707892715,4.077234445065055,0.20319360889670945,-0.09432451834808059
777340.129988494,25.91849381490952,10.166765090093486,0.25482353051873385,-23.834216458794145
777340.129988494,21.073283417910915,9.051958861754777,0.0670237092731015,19.022892067167213
777340.129988494,12.795967584360014,10.692308150406761,0.04194243756459833,-7.00993392755371
777340.129988494,39.44346382299249,15.506853867730893,-0.06739692405566197,36.26360957123801
777340.129988494,90.46973949038855,9.571921051909065,0.004097592847901601,89.96044505250363
777340.129988494,33.77279074901667,6.371672017774568,-0.5572773575479547,33.157536588557655
777340.129988494,62.720913171721335,6.0836229683030885,0.011893883213577422,-62.42300809164586
777340.129988494,8.445975955654452,8.035491237217755,0.2935859391314635,2.5315603323709377
777340.129988494,195.93784397118566,13.45579954033542,0.2913666315328264,-195.47435858519404
777340.129988494,36.05986626804258,24.360515986845595,-0.116378641583258,-26.581859832140026
777340.129988494,161.098345303714,13.299900180355117,-0.22823665127185885,160.54739805683008
777340.129988494,26.940360986587336,19.220474861041033,-0.21416357605140848,-18.8690256814288
777340.129988494,85.51532240575614,18.269082643452116,0.6676038717405836,-83.53678764830244
777340.129988494,163.96433920234801,8.854454150759945,-0.10587801558807476,-163.72422411360066
777340.129988494,3.970518762295521,3.552241122317366,0.2907201105178208,1.670833345369521
777340.129988494,9.755249058696188,9.175500390940988,0.15631479706891138,-3.2680640228202247
777340.129988494,49.707542710170905,7.163048550277592,0.738634090454672,49.18042860153061
777340.129988494,10.249624520117472,10.15608716763646,-0.6097589694134823,1.125384488067615
777340.129988494,6.323861424146189,6.165062385476439,-0.11229404083241627,-1.3039245159829482
777340.129988494,14.981381101187122,4.294894570044929,0.33864356236555926,-14.339127618822342
777340.129988494,15.272042479211976,5.808588733738848,-0.3244129290073913,14.110986310695303
777340.129988494,38.28898886465333,17.644790178228057,-0.4874871577368347,33.973519160000116
777340.129988494,11.886515388372876,8.478281059551964,-0.03921523057489614,-8.314809710327621
777340.129988494,47.581276706405234,15.18991866267828,-0.297344401409086,-45.08753098518115
777340.129988494,571.2179354562531,27.063654998911474,-0.1516608116164044,570.5761955812758
777340.129988494,25.95382531654051,10.227598452713094,0.3349183715161771,23.84564337852894
777340.129988494,2.5311004800331336,2.47400239885853,-0.04324422788418855,-0.11623986932588087
777340.129988494,10.303514085954479,8.490951323616349,0.6948795994920215,-5.771732017484003
777340.129988494,101.3459329508731,10.028992184765821,0.06658125900543266,100.84712493857583
777340.129988494,121.36121176017714,20.190636255665094,0.2836527771444002,-119.66842135079747
777340.129988494,9.372354454025858,6.907171889994126,-0.5752238751525854,-6.28734618002125
777340.129988494,9.76738281792047,8.682038399209539,-0.06119635117850334,-4.444078234354283
777340.129988494,15.327205827819576,10.196084361982276,0.6394884541116772,11.414191022089328
777340.129988494,245.94977301247724,25.450086742766025,0.17143499868690804,-244.62887020896773
777340.129988494,279.61041454242053,10.706332236106261,0.005483697825547322,-279.40488174075165
777340.129988494,354.17851071897644,10.532305003938248,0.24314180677610028,-354.02140964704085
777340.129988494,12.963293853825714,7.488657787566875,-0.12735684483610746,-10.567893466316876
777340.129988494,11.597765078222329,9.395375523076487,-0.5566513828521116,6.756834527201142
777340.129988494,507.78324374278753,40.14747502003188,0.34399478129887123,506.19325770208906
777340.129988494,41.72792143826873,16.695121716417212,-0.28323152380154754,38.237961744008615
777340.129988494,5.446352616054915,5.219051178869462,0.06274084911935096,-1.4662623218923878
777340.129988494,163.74526252713594,42.45927095522584,0.0006653346042250956,-158.1437665846767
777340.129988494,5.738846544738809,5.106916856587007,-0.058108923193554776,2.5651478002277632
777340.129988494,145.2242547953786,57.07580288146103,-0.5681985128041835,-133.53592646460243
777340.129988494,50.603754532170896,7.712585048432501,-0.4549934986521961,-50.00778524928981
777340.129988494,99.28403641063653,8.351182114418087,-0.0513305372690182,98.93080717580528
777340.129988494,10.71133425574123,5.674445174174169,0.016031351747149446,-9.069878527260881
777340.129988494,449.2873759937261,17.291880115409153,-0.2848168622691224,448.9541018731838
777340.129988494,59.39969099558387,18.001080407584872,-0.1464465206891305,56.60382096596563
777340.129988494,13.696568154677395,5.816489656469587,0.29657440781965044,-12.385720443822866
777340.129988494,419.88289075750816,5.2202944245743135,-0.18102347375041608,-419.8500771793477
777340.129988494,1.0720176741454899,0.019979249437377507,0.005992057361084983,-0.9372229289346296
777340.129988494,26.592754262444643,19.06219551156702,-0.5106975310597806,-18.52771085626423
777340.129988494,70.18660006783031,12.215805902093825,-0.19219483929040335,69.11313606245687
777340.129988494,36.95369565317111,36.80777778074425,0.07648218574056607,-3.2383433644089603
777340.129988494,20.152691341839382,4.393401577930159,0.18415183674880287,-19.660230898835117
777340.129988494,90.43664768978692,4.2347155314036184,0.5920453144534946,90.33401082693254
777340.129988494,173.68923273073455,13.90088118781826,0.3990283234723617,173.13083331743803
777340.129988494,13.682296586547826,9.762278243630147,-0.4285732441821076,9.562901670025415
777340.129988494,12.921497839620342,12.896289927077333,-0.4146250820714043,-0.45661644450694217
777340.129988494,52.814553383935696,28.230647005992036,-0.12440047113893553,44.633191049828014
777340.129988494,170.0496396965484,17.134891266052197,0.5184470728284678,-169.18255310421102
777340.129988494,64.68761908007829,14.960540961707984,0.0713848308612091,-62.931667549718476
777340.129988494,85.02057971184882,6.705994759355473,-0.30597965751746553,-84.75355205108241
777340.129988494,66.60033324263871,26.442359023911433,0.4408476654603976,61.12234690043368
777340.129988494,31.468500086241836,12.305058590366187,-0.18587550639526515,-28.95767741138055
777340.129988494,54.6529941958401,8.300312950822452,0.5984913058438334,-54.01320197549642
777340.129988494,172.77020186616377,16.691448184483107,0.47028167113937097,171.96059620020364
777340.129988494,81.37999059075611,15.181400881274268,0.5702155553218643,-79.9476853326853
777340.129988494,580.2000182224972,25.56899338458878,-0.592331978013185,579.6358050237346
777340.129988494,25.55514938701291,25.54002285882439,0.679341863279036,-0.20245294779387032
777340.129988494,18.607124625132915,17.22942301276756,-0.1653476291300489,7.005307246929611
777340.129988494,148.79357273118745,16.137781286471803,0.3097718855998265,147.91461368857392
777340.129988494,106.77300348959781,12.692581447024388,-0.09535758342201882,-106.01458936076489
777340.129988494,19.70690030619669,17.284508665068188,-0.19564251322933618,9.449815018960699
777340.129988494,54.01513582666565,41.37909299170842,-0.5271326364184341,34.71105433057759
777340.129988494,11.876224732883975,7.39681720128863,0.21288325328645344,-9.274485965117202
777340.129988494,329.1470611687216,4.178510592015269,-0.1618389048436289,-329.12008649337633
777340.129988494,13.952266595331585,13.440378869299154,0.23008834045312243,3.7011644589898873
777340.129988494,43.78694586833465,28.842512784435176,0.5127090410835893,-32.937407520862266
777340.129988494,50.458519569635826,35.955740504557156,-0.5421613468955055,-35.39325617970465
777340.129988494,16.84240041832368,10.629784756214612,-0.37949121564672933,-13.048360598364237
777340.129988494,189.24190827308104,57.56028437593956,0.07798585205927153,180.27489294853308
777340.129988494,167.24343859306498,20.60515581729462,0.48781714599276127,165.96772861194847
777340.129988494,29.51692944970845,15.616300976376065,0.5679617237409403,-25.035720229996716
777340.129988494,26.220801666409162,24.597333335863958,-0.530613762544967,-9.052606355550811
777340.129988494,5.642965194525981,4.134918442983999,-0.2905299816279617,3.793507346279652
777340.129988494,8.917220382368397,4.746744645000974,-0.7603058445165467,7.4924475070349965
777340.129988494,7.6155465981739585,7.539087333630649,0.48242216804819105,-0.8096795765144218
777340.129988494,72.45230586142279,42.091776673710584,0.21537502193662442,-58.968654170563866
777340.129988494,161.44896393131685,26.67979265448275,-0.3043622085131622,-159.22811806353639
777340.129988494,187.31246876017846,7.358233731797794,0.19990661461608605,-187.16705636069213
777340.129988494,1420.036945398204,18.062515063617234,-0.02738442569793035,-1419.921969931986
777340.129988494,14.895196338701396,9.28335390530938,0.3174396000504323,11.63249957393338
777340.129988494,25.715235316769057,15.170597968984653,-0.7831476530235791,-20.742289276109545
777340.129988494,125.34949512375704,14.07084870392783,-0.6878473553488473,124.55425970454687
777340.129988494,47.14032103244152,8.167075162108327,0.31424155056704806,-46.42348115540258
777340.129988494,19.15256958450478,12.148094781743156,0.44884398252346774,-14.790972041838042
777340.129988494,29.745718719547156,5.72095694085329,-0.2308118587730851,-29.18483783935026
777340.129988494,19.3754164798865,12.42475597241166,0.010242565398546817,14.858051618059896
777340.129988494,18.324507102886894,15.793821333822116,-0.622775747083123,9.256593250645873
777340.129988494,10.13688212330377,9.570990735799434,-0.5052849219235241,3.2598777070119764
777340.129988494,12.030553982501669,4.460765390386838,-0.027678687798049214,11.160852796630522
777340.129988494,143.55039105014163,7.096403382777645,0.5360490303513215,143.37293357225602
777340.129988494,769.0908365860089,4.823787335981994,0.29131779237490774,769.0754779150407
777340.129988494,265.29908233712837,18.205599955143548,-0.21260149502153022,-264.67308820467565
777340.129988494,198.80587286978252,23.44309043844121,-0.41440263774799835,-197.4177156910317
777340.129988494,121.30125494274078,8.051088160964564,0.22874214959114628,-121.0324407220526
777340.129988494,19.72861632367495,19.48734242266697,-0.5691427794152715,-2.9778287131964367
777340.129988494,10.607376024396974,2.1249190197651453,-0.32845276874708923,-10.374144015825811
777340.129988494,149.2902650475888,4.658565506931699,0.4825900020794939,-149.21587620721476
777340.129988494,9.464892538990307,7.879200652070951,0.06386778772234661,-5.218036868855039
777340.129988494,101.9663360053204,13.79943315311573,0.5365875306935508,-101.02549676603668
777340.129988494,31.39382767869981,16.576365805112747,-0.4153469522529176,26.652459547370878
777340.129988494,119.70858502834903,2.748557968376665,0.30528690838300065,-119.67550776365027
777340.129988494,45.25336502533355,31.702030361549365,0.46095686006430403,-32.28568468911019
777340.129988494,47.420783038070866,11.937350717075983,0.47941471291030785,-45.888234694029805
777340.129988494,19.437003073405975,11.936395243571189,0.06405379869841887,15.33117915151071
777340.129988494,901.1204007236095,28.51499349662187,0.20124632272436993,900.6689518608289
777340.129988494,417.80721788817357,25.31509282938498,-0.4806848876402131,-417.038986111052
777340.129988494,24.271321235272932,22.9223310923104,0.2786352132987989,-7.957118461994937
777340.129988494,11.512383298354656,11.46056933584371,-0.451354551182969,-0.8462852803165706
777340.129988494,16.59803905429951,15.63728927136892,-0.6548660521235788,-5.501893778087536
777340.129988494,2.7240128008188256,-0.22677377147479774,-0.037443646510762575,-2.6640227793567934
777340.129988494,114.4661618632478,8.90364479338896,0.2939335628514119,-114.117792320729
777340.129988494,191.00301132987073,4.729473789260485,0.3245628047417777,-190.94346460075877
777340.129988494,29.202278257227892,5.707720073536576,0.12653734347212284,-28.634045737118946
777340.129988494,20.237687765106795,15.529474710569778,0.3206614359119853,12.962491949283745
777340.129988494,11.021142829490591,8.963775479999992,-0.2098460576540644,6.387635168375678
777340.129988494,10.438290999509869,4.239614761213776,-0.30768478342073924,9.519375806269984
777340.129988494,19.24781510881134,2.9350537544018254,-0.2045277928890162,-19.01451062488052
777340.129988494,4.393397800583693,0.8138499999535719,-0.051320059032926524,-4.2856223192542355
777340.129988494,9.90943405287869,9.81375936787381,0.09523220759301912,1.2678884589970008
777340.129988494,402.171949082072,14.063307859547951,-0.1532517924056337,401.92562261494163
777340.129988494,31.14706751133481,13.497253016169974,0.636090466176501,-28.0586700413968
777340.129988494,287.1377275059298,3.338720842638953,-0.741244915460686,-287.11688849034954
777340.129988494,94.18893281160288,10.667656849350937,-0.16682132162188973,-93.58129050285528
777340.129988494,237.1145228367779,20.185009821226142,0.1448367279876973,-236.25319244605367
777340.129988494,57.070979024937124,29.300954672667675,0.3963016793481216,-48.970636580649355
777340.129988494,19.35154339072523,19.234194790605198,0.2160782025640033,-2.0520459474763157
777340.129988494,24.74426205717578,6.451342963463748,-0.4051965370776959,23.879365454054593
777340.129988494,168.34128846112998,1.0352686984982908,-0.5657563201108492,-168.33635121167836
777340.129988494,15.295662540817965,10.996513607919818,0.300868846545463,-10.61475666092231
777340.129988494,69.69730866793199,5.5386522472107,-0.036948332140689065,-69.47493362111408
777340.129988494,44.412167916006894,10.842830958395979,0.20030664565246795,-43.0646392421317
777340.129988494,319.12984690306723,27.780551873194526,-0.45876947443216615,-317.91762966618444
777340.129988494,43.9444193840454,12.31688212811571,-0.24126204605217083,42.17911571225864
777340.129988494,144.46013811100215,40.81559229281929,-0.41213396721634954,138.57264764169452
777340.129988494,4.482653916372576,3.5253165332863183,-0.2655042849552944,-2.706554442234426
777340.129988494,1174.6208274423761,21.51283283461309,0.413135863531511,-1174.4236225500576
777340.129988494,354.8663733430753,6.295814967356106,-0.11073714010412483,354.8101224329001
777340.129988494,55.449287398640685,30.889126767051,0.17530295368056054,-46.04545785916931
777340.129988494,14.585593822858659,12.434925545294094,0.5767037915386556,-7.58348116535078
777340.129988494,203.46640973035034,26.65532928977878,-0.5312355742854411,201.71147884485123
777340.129988494,52.9899411835307,12.170633710837048,0.39404412668057304,-51.56921437191872
777340.129988494,56.627834971419645,13.531376410766123,0.4360409256983706,-54.98320665704772
777340.129988494,284.2750395959408,4.928230012151751,-0.2749201639402884,-284.2317095348872
777340.129988494,81.85562498874954,13.402952016617693,0.5747249226156468,-80.74715791160929
777340.129988494,228.807361700199,21.51002066213511,0.29448058636032415,227.79326298313669
777340.129988494,335.6226087361214,22.391035378317618,0.4566702699141181,-334.8741526033192
777340.129988494,20.48330406249905,13.988240691986162,0.12304897383880528,14.953572369500534
777340.129988494,21.69620265257631,13.94424044543576,-0.23069257540603477,-16.612036265226052
777340.129988494,15.339984230880866,7.947467712884156,0.554665185277431,-13.09865717119807
777340.129988494,88.26523444158802,87.63777600294333,0.13711716586972472,-10.492026837997118
777340.129988494,60.02196971850904,5.650561746642936,-0.04628748641400254,-59.75312090849815
777340.129988494,23.587531705597744,23.581443592636408,-0.12684208347705977,-0.02609857745946298
777340.129988494,121.77600603921687,7.7016948546201425,0.003209250595015298,-121.53110356172375
777340.129988494,23.653579073400785,16.00107342301235,-0.490172949648179,17.405366493481957
777340.129988494,20.584562678804353,20.312612792053834,-0.1923933176205324,3.28855090412948
777340.129988494,2.991429057432758,2.7714036673285785,0.4175204069373177,0.9073291729916122
777340.129988494,279.73956384553657,23.474317636335574,0.527626120985719,278.75191694888105
777340.129988494,31.035480569009177,12.472350840571242,0.011352409502393183,28.414274401818645
777340.129988494,98.23180248242303,13.49595365748086,0.4376755528945436,-97.29791515716715
777340.129988494,47.5406072245556,35.73576643930942,-0.14325383896194002,-31.34921706537847
777340.129988494,19.20393441649531,18.115976735918498,0.5944637328252581,-6.3228709339245945
777340.129988494,20.879130281832573,15.86059666750058,-0.47175304621089675,-13.560479480460787
777340.129988494,61.86749980047325,8.933966112045493,0.0522612460093031,-61.21681672410404
777340.129988494,3.722596078408964,2.779776045987952,-0.0504516894126159,-2.420252326550437
777340.129988494,10.242681488977535,5.765168417090775,-0.07912042966025316,8.44977497717143
777340.129988494,285.4506934928834,26.075289703239978,0.07843417361024317,284.2567521283189
777340.129988494,852.751236698636,15.37150603843911,-0.3042051918147288,852.6124709106506
777340.129988494,23.075197934602283,16.088895487358315,-0.021241325389607192,16.53303815165351
777340.129988494,107.4770909869538,8.357357141419023,-0.17101162284247692,-107.1502684254854
777340.129988494,2.8160376543955605,1.1210321012437459,-0.3029598171273132,-2.5122043006413435
777340.129988494,25.25842997901507,5.305149764873729,-0.2444299904353928,24.688327706769513
777340.129988494,46.376716345496476,16.79586893011583,-0.19169187624948267,-43.22489398596127
777340.129988494,27.36502992125918,7.484886822776489,0.11190874327481128,-26.31612449193109
777340.129988494,167.97745224580464,8.098315074342239,-0.028905205959750647,-167.78131755483787
777340.129988494,96.9441274756546,31.04301033593193,-0.5256808122934926,-91.83653206095481
777340.129988494,9.545597302084882,5.2262033030334045,0.3290129746992162,-7.964080446066097
777340.129988494,22.222351417336576,11.400365942387728,0.2665414174646083,19.06628213805782
777340.129988494,39.19636090116576,21.17011791995671,0.5076451449623902,32.97958022104526
777340.129988494,495.5540131144162,19.078820192959682,0.18365175144910537,495.186302724421
777340.129988494,24.59510609670978,4.914562959490472,-0.5190061410216418,24.087892133833464
777340.129988494,28.113602709414398,9.084330394587548,0.21594617034624097,26.599484315232097
777340.129988494,106.31974492924127,18.535625252569524,0.6428363402070563,-104.68827594222256
777340.129988494,190.0449750321044,25.960465909843204,0.12038033823002303,188.26274685468508
777340.129988494,505.00286523545435,42.867098448256314,-0.513168517970272,503.1796617757101
777340.129988494,13.209192905997734,10.028045316658725,0.40125293978239773,8.572612229257537
777340.129988494,151.21357995662748,10.879850476664323,0.25506077098496316,150.82055616164496
777340.129988494,159.51708026949518,26.929505262452807,0.22324629867119491,157.2265257681229
777340.129988494,81.74498804143428,6.2600010654426885,-0.5400522503918287,81.50149323860109
777340.129988494,22.28231870524696,9.636659414826397,0.49551223283456763,20.07786317893286
777340.129988494,158.6330570334913,12.872328890507768,0.3935256046335892,158.1085850620516
777340.129988494,2.896840174669972,0.6224470086464873,-0.10572083926906331,2.778968481856756
777340.129988494,17.20340972434572,12.291723349254934,-0.015783759928542168,12.024982084062184
777340.129988494,143.41748449649882,6.383630127966875,-0.3306540917075078,143.27401855732404
777340.129988494,18.112127098139446,15.423566511311122,-0.6500432974423495,9.458847065143278
777340.129988494,60.01555162691323,6.099640346342693,0.027565397442696052,59.70250970333509
777340.129988494,270.5720598446091,26.38371893492534,-0.0510212547405805,-269.28213074867995
777340.129988494,6.798273300087169,2.509672165476768,0.18204949688974487,6.294006948295458
777340.129988494,81.7781375443626,17.51320348575008,-0.0419508948067346,-79.87915450237203
777340.129988494,30.394174063399383,28.44688711026111,0.2881443257862059,-10.687703381914975
777340.129988494,7.915026983955172,7.885160276393599,0.04116735363741372,0.4469953258339563
777340.129988494,4.805854833042504,2.719329446482476,0.4425697573138542,3.9032320002380674
777340.129988494,941.9038279028679,46.35784167585,-0.14068912479828544,940.7621810743683
777340.129988494,370.16668465127293,23.612043131389175,0.34169738213051926,369.4123152898065
777340.129988494,31.416414730763435,9.524985901056446,-0.49522270197103574,-29.929084726991864
777340.129988494,47.170701936985786,10.166388249593943,-0.39407335243228553,46.05750728577672
777340.129988494,80.32223908153436,13.089519023571885,0.5687609713091237,79.24476445646256
777340.129988494,4.325711063380449,1.7426427522693442,0.019661907665566542,3.9248166646611784
777340.129988494,43.828481483934596,9.685805698400223,-0.5003291318011727,-42.73874387391733
777340.129988494,12.835310048124434,12.483454466938671,-0.6176377382833768,-2.873442574265436
777340.129988494,112.1079777745914,21.238392364064648,0.3480692494721627,-110.07605469990233
777340.129988494,5.927570846293388,5.424663597583558,0.20070488486119337,2.323454010750368
777340.129988494,11.244922633214934,9.190503680857208,-0.5085658194181242,-6.438469377612908
777340.129988494,52.45387611555167,0.9901532101346431,0.34164775490985955,52.4408389804899
777340.129988494,160.42260054325928,12.651032675027034,0.24821559014965433,-159.92195010797715
777340.129988494,3.944561725397559,3.5599831582543318,-0.2601788180973587,1.5962437473739235
777340.129988494,3.0352077256264844,2.9110939374132596,-0.6783449472740996,0.08640693123911522
777340.129988494,24.973496161282448,21.248559752881295,-0.11305069925948415,-13.110722271683564
777340.129988494,105.53629007006104,29.480742108490315,-0.2175627081939076,-101.33349215808539
777340.129988494,81.71237551136329,9.452575988543739,0.2676482148987,-81.1616848230981
777340.129988494,84.82647779594504,16.555804257615275,0.05699380370682268,-83.19352758692123
777340.129988494,14.168065942487075,5.913462108657945,0.347915642045426,12.859767227525893
777340.129988494,16.21773133617296,5.927300150328431,0.112251985284583,15.086382008685938
777340.129988494,518.9199710353421,14.195921733206326,-0.24755489699614358,518.7254384180884
777340.129988494,15.754983797925252,6.219654554496616,-0.24205997546208172,-14.463969671701328
777340.129988494,155.5866254274052,37.73014615029942,-0.07960487369190795,150.94156931219717
777340.129988494,11.402052487294869,7.882272130876047,-0.11390535400930328,-8.221509140551381
777340.129988494,281.34596831388063,15.102595208564479,-0.5747188339154272,280.9392546489422
777340.129988494,9.201694131306525,4.865339536226289,-0.19144115055072744,7.7905453191179195
777340.129988494,38.656529793010016,18.923935924396055,0.2055160539651921,-33.7031053156647
777340.129988494,23.870561302126585,6.657514462346249,-0.35305668614394925,22.914758323809632
777340.129988494,89.22263434520102,8.062772949196164,0.3974518340746035,-88.85517319721313
777340.129988494,11.191298233905156,10.904373317950752,-0.6731262749079323,-2.369873355477245
777340.129988494,16.58427827364049,16.564772944351784,-0.023585608355244692,-0.6128840662747392
777340.129988494,30.23517651341013,21.122559719049995,-0.37648633229268763,21.62385783697792
777340.129988494,44.17914358481517,24.022903621691306,-0.2175547391344629,37.07261926821637
777340.129988494,50.84345694363586,4.545881011694001,-0.10542370849101494,-50.63704736305779
777340.129988494,1107.5531087605864,26.795854753020407,0.6544564392677913,1107.2285997841925
777340.129988494,11.528798287625822,7.15827521110261,0.21530870254171267,-9.019729936172574
777340.129988494,89.11037367606764,9.754030319602718,0.4334168048149045,88.572339582321
777340.129988494,793.4032081261407,26.945320923204623,-0.4043425560648852,-792.9452480797743
777340.129988494,25.487574823310055,19.065801174585584,-0.19698014222407656,16.90569415222484
777340.129988494,21.964191834026636,14.821547967785277,0.3584906512216756,-16.197176396321343
777340.129988494,30.772908312237757,25.366913841961175,-0.271481795702,17.41113051362584
777340.129988494,14.53124951698713,12.193026208123037,0.803978944505172,7.846689892544228
777340.129988494,4.848000867632544,3.9163360211911424,0.06156091709350312,-2.809134178919411
777340.129988494,44.95377819974706,14.068774669255031,-0.4723422488356113,42.68979089358188
777340.129988494,250.65243893892642,14.606228020405492,0.6133181408763738,250.22521193897757
777340.129988494,33.769308087825316,32.422312795248516,-0.6193977444494972,-9.40774936803164
777340.129988494,480.77417211510385,24.64104887297775,0.4176759292673291,-480.1418315771093
777340.129988494,138.6658442862379,20.691619942853336,0.10550955185746341,-137.11233242670096
777340.129988494,11.099375810619454,11.009021341987653,-0.10523690299674397,1.3100067447430501
777340.129988494,10.735927257326738,10.088188599409257,-0.10179985305804064,-3.6342566842860324
777340.129988494,151.25192175127603,13.835107933394848,0.10375805305071917,-150.6169062761278
777340.129988494,17.425198442995722,5.376330911401577,-0.013221146717987036,-16.566895663043447
777340.129988494,106.533875611533,7.867558036598929,-0.4930701145484528,-106.24055094556162
777340.129988494,67.63906280845444,11.635282314117822,0.30599163203882424,-66.62806459892064
777340.129988494,7.35745009873262,1.852765890088497,-0.06253439668843523,7.101057664960621
777340.129988494,18.377083990484838,6.049753740015577,-0.09595786430293478,-17.344684712233317
777340.129988494,122.72063817852907,16.80541710504789,-0.11625642625346468,121.56335416281573
777340.129988494,66.18402733877925,17.436285284098,0.26005282802581114,-63.843272181166135
777340.129988494,21.48938877376169,11.447211122723377,-0.2855462932709071,-18.176997846071078
777340.129988494,43.65314227342863,13.276862401495098,-0.2120096228405304,41.58132281488638
777340.129988494,40.58313457111282,13.049895172061856,0.04314452081113276,38.42419532229104
777340.129988494,6.10047063796905,5.293764280056607,-0.34557110693101606,-2.9668135030658305
777340.129988494,19.215454120300652,18.07813745662476,-0.11074855392983485,6.4909134878353285
777340.129988494,109.15960357744218,36.241888631990165,-0.720339795230785,102.96385420209444
777340.129988494,76.40368847692514,23.807194139615248,-0.49327844518848224,-72.5963318388278
777340.129988494,13.304669354933129,7.539360241211764,0.20554383669200108,-10.948042086534464
777340.129988494,4.379603757179825,3.871506675464305,-0.27481493734208057,1.961234785014947
777340.129988494,4.264645189105294,3.2573104887142827,-0.33482901065341686,2.682278229918683
777340.129988494,229.49460486416802,20.944979511309285,0.11729302924766319,228.53620574730982
777340.129988494,544.6541358938724,32.154962990296184,0.37267351692699807,543.7037583241846
777340.129988494,10.667822418378597,8.803581107266293,-0.4717487829400246,5.983848922193777
777340.129988494,120.57071183615466,15.649601689959571,-0.052434869170735955,119.54962722738684
777340.129988494,190.3008518660478,17.30750168146589,0.12620850860310626,189.51141991421488
777340.129988494,383.91576308172046,8.427957569984699,-0.3252284564674628,-383.8227540157948
777340.129988494,36.8648965688565,27.351967055150812,-0.4510094665165493,-24.706612226437375
777340.129988494,40.28194943965096,9.375733735394281,-0.04489348732679927,-39.17216680445929
777340.129988494,4.832662090329613,1.3684424705063485,0.19162975315544317,4.601615599105279
777340.129988494,378.64525510106324,14.066157368200042,0.42487821590364516,-378.38329971861066
777340.129988494,4.233745946410805,3.3180709123893246,0.14934715638193682,-2.573384072770021
777340.129988494,121.41453461227692,9.60144956694918,0.04868435663827612,121.03317153228099
777340.129988494,19.368162093639906,7.22735388285011,-0.10032657508950715,-17.961363904667483
777340.129988494,20.30141030596759,7.0846417765390495,-0.3057744291865533,-19.01555188018008
777340.129988494,1.2097463608797083,0.3254350633101426,0.2848822551373952,-1.00300567193703
777340.129988494,42.55583831423982,19.259750268963707,0.5296263422016639,-37.94088151509556
777340.129988494,2.642958622839279,1.8368376355854334,-0.00267801826971524,1.8277993901836063
777340.129988494,452.24469823469093,17.319698206236463,0.06957919391907781,-451.9126241810105
777340.129988494,63.4274019380218,5.99096088745061,-0.24581475179478343,-63.14121379384636
777340.129988494,265.25797904042076,20.37362645555753,0.14800597398062237,264.4738521742544
777340.129988494,46.02209643582021,13.45514706081871,0.47194221674097536,44.00567291229319
777340.129988494,298.3323112859557,19.96107942505804,0.07731792461957945,297.66331128868643
777340.129988494,316.47554849064716,9.384975760230374,-0.3257342632428619,-316.3357686377334
777340.129988494,94.31020609465598,6.017885500122361,0.2398188169356915,94.11626912845061
777340.129988494,152.0577379397734,6.0373275046614285,0.4355643098957368,-151.93632293725622
777340.129988494,23.32967527428119,9.062389269134833,0.13434531250556256,-21.490891104723524
777340.129988494,120.59446668267422,23.901964965120264,-0.05971191399467537,-118.20087774535398
777340.129988494,91.83096900066364,12.570804226199874,0.5309565823284941,-90.96345108786872
777340.129988494,64.3640230664677,16.30832975836257,-0.2742531442320318,-62.260904514841165
777340.129988494,54.32618786196853,5.556295464101484,-0.04873598953222364,54.038777679855315
777340.129988494,771.3517809162203,25.677068373773913,0.4547945950966859,-770.9239786413634
777340.129988494,261.0375967621194,2.6076542552030317,0.19051245925899604,261.0239842766005
777340.129988494,124.92566066630886,32.56061144461293,0.002021821609883399,120.60662034556364
777340.129988494,116.17820605483547,10.420188174955232,0.595102130307313,-115.70726292663235
777340.129988494,21.38845703391615,17.52797857486482,0.5166895024007373,-12.235141737179262
777340.129988494,339.20818121942267,34.40558075658093,-0.1337806503893469,-337.4583795399495
777340.129988494,100.34497026692239,23.39280417935646,-0.08308962274891718,-97.5787500771065
777340.129988494,81.11317962861776,9.932304156380408,-0.20664392712832677,80.5008331751724
777340.129988494,12.15673565211005,3.893302706815641,-0.03836557517954587,11.504631407873383
777340.129988494,19.09544141886198,9.929968133827025,-0.7071485955047303,-16.286839985283986
777340.129988494,27.063192250862265,8.78169807299048,0.18790373827695633,25.592820203078595
777340.129988494,24.372845290031485,12.70282052527116,0.39425541037950607,-20.790577214352332
777340.129988494,12.102062179575174,4.646381704145857,-0.21836724482947623,-11.1603298250575
777340.129988494,335.0929127415215,17.22344802783815,-0.12863411052320461,-334.64955709054044
777340.129988494,35.63718924163511,17.227865253242854,-0.17242434847059876,-31.191501818672915
777340.129988494,769.8673638552012,26.852660702012685,0.4710767343248452,-769.3985964565375
777340.129988494,95.81279220432211,16.887888926987948,-0.6730121158444279,-94.30889148044447
777340.129988494,83.61283144976828,0.614873108366681,-0.7059742708906585,83.60597295909432
777340.129988494,155.38960317978322,12.005387003453732,-0.4634718317800418,154.9235755239626
777340.129988494,16.497906350342774,5.617637472298302,-0.2523392811395524,-15.501257628389489
777340.129988494,67.3597976277067,21.378138594796933,0.2069327493060495,-63.874911393320296
777340.129988494,1253.6305135195278,9.048619138762245,0.7529224250626972,-1253.5975229820529
777340.129988494,470.96894442548825,15.445462559927133,-0.0026377215720322063,470.71532149762345
777340.129988494,2.7236960313989913,1.2711570253955684,0.058238611267342706,-2.351358788531379
777340.129988494,1825.234013443831,34.26408314931375,-0.31004850985122084,-1824.9122745787358
777340.129988494,57.24593745271416,10.315353367688544,-0.24756267911064553,56.30594242581939
777340.129988494,44.10069949445794,20.782488973373848,0.03374115022634796,-38.89329388862377
777340.129988494,176.15799668752268,16.543349801692667,-0.6188887287664966,175.3776039038095
777340.129988494,203.6279754310869,20.001534334986665,-0.5096230158063736,202.64195243530258
777340.129988494,10.320869682172003,7.2561950969275575,0.12568548899477044,7.319958119385509
777340.129988494,3.354022833638058,3.2768342359180633,-0.2865720587465371,0.39912781665341845
777340.129988494,24.852768357023663,2.522962817149412,0.21083248455330883,24.718007672436173
777340.129988494,685.8935080643779,14.162759690207952,0.6563031677810061,685.746760480112
777340.129988494,8.752837140527488,7.598150116978846,-0.12389447022040484,4.312136705706417
777340.129988494,77.04381645178141,8.946735886271622,0.2889466521860095,76.52026973468712
777340.129988494,192.79453809463058,13.224726768714325,0.2075452007520801,192.33961382410143
777340.129988494,30.663553246859543,7.7413084407895925,0.14492061025296543,29.66537104713633
777340.129988494,57.54929833471925,5.720008424505472,0.3159053042083697,57.26109539889089
777340.129988494,44.04698880712358,27.427822067462532,0.4942032242903484,-34.45775910856054
777340.129988494,18.18779523126529,14.368946456854621,-0.06001690693916024,-11.138010193268945
777340.129988494,18.19921525913051,7.785980758511873,-0.04694691047715941,-16.441330106285445
777340.129988494,159.69442740194893,26.564147218195323,0.5150971242876262,157.46783957608275
777340.129988494,85.85589394320765,8.943549138665407,-0.09431694219470803,-85.38716623653706
777340.129988494,84.83425767612397,13.978803934983134,-0.18204212100308,-83.67281982025273
777340.129988494,160.74522533769942,26.73187199726805,0.30448546184548725,-158.50574556461024
777340.129988494,87.4468896332097,14.271011909991216,-0.122197517911202,-86.27288909822286
777340.129988494,67.73553327482539,9.800802477866062,0.25564222424262517,-67.02022818424315
777340.129988494,26.77772884986079,5.392008809825349,0.484184058515501,26.219614206713885
777340.129988494,476.7011676481408,25.658184759557592,0.6109284259166403,476.0094717108092
777340.129988494,271.78585405849134,19.3370615911713,-0.49415138544949266,271.09613411063435
777340.129988494,221.29563820004267,14.254758971045897,-0.4164202033353459,-220.83504596701997
777340.129988494,734.5117188283488,21.00213068259223,-0.5617613687606698,734.2109980292662
777340.129988494,10.85653693506704,3.521538099831138,0.35455458170665344,10.250222177226371
777340.129988494,18.03758718011361,14.839927015414888,-0.35529624849491576,-10.233986614861465
777340.129988494,9.418682795824648,8.25440576183496,0.16480039068508281,4.503200190817536
777340.129988494,35.7409774699646,7.31787395271739,0.3718388805423674,34.97795773294339
777340.129988494,116.89165568805718,3.6500814182320407,-0.4627866361524076,116.83257894810413
777340.129988494,29.94950212015365,6.676443818352494,-0.4007352332644687,29.188470094513193
777340.129988494,179.46509151550694,8.864858479749348,-0.3022558236389039,179.2450043884637
777340.129988494,258.73588243798906,5.0904902812843,-0.5662500523327864,-258.6846588619806
777340.129988494,34.08821161982831,32.111257866667366,-0.10813127513641604,11.427650558444991
777340.129988494,1090.8857934721896,13.549748796357704,-0.043387313839218525,1090.8015155950902
777340.129988494,146.38408054347414,27.291283723973294,-0.41716174397557676,-143.81599509559177
777340.129988494,329.3293595972031,3.0214652721631556,0.13968795132439646,329.31505876225776
777340.129988494,123.32190166467535,14.364673088372916,0.3880867625328772,-122.48071924152299
777340.129988494,11.949825486608237,9.088008483231256,-0.12695835440748934,-7.740795343203098
777340.129988494,139.16966794806717,22.388162471577324,-0.5895139425750858,137.3548278410083
777340.129988494,44.47177584900858,20.574756018460402,-0.15457869803566074,-39.42237901714461
777340.129988494,5.946633022902065,5.9059824245234065,0.07042314200019313,0.4543748357477372
777340.129988494,18.274848476639264,11.453591600242863,-0.6442709075358791,-14.216182374205587
777340.129988494,21.664730820485786,18.67063789220885,0.7144804503480093,-10.953855937896583
777340.129988494,314.04036169529945,10.146885917359992,0.18560934061553633,-313.8759064169583
777340.129988494,172.83507214548285,13.849449180750502,0.17386396047904012,-172.27842085486878
777340.129988494,15.592160107893054,13.224255523676572,-0.12741460757961937,8.243050903182422
777340.129988494,43.657046521898565,17.167053519730064,-0.6908058386998295,40.13081573752466
777340.129988494,401.2763364874026,67.47664682473184,-0.06272616493792242,395.5620381475829
777340.129988494,7.15340450589172,7.004332169332008,0.04485019247592086,-1.355771126262699
777340.129988494,2.3050895708075227,1.082544911393987,-0.07983056119917677,-1.9658996733707488
777340.129988494,9.85784100230481,9.424917078854094,-0.6927301588476932,-2.7563911570147575
777340.129988494,19.62079096342287,12.5846426762721,0.006032796937791701,-15.044326849222886
777340.129988494,54.658616632935,24.522450694235438,0.39376610165527715,-48.844532267513195
777340.129988494,146.58101481417083,40.80681773327667,0.2297379496607376,-140.78520643487292
777340.129988494,90.79031620216517,8.220967405778742,0.2878515653431068,90.41539665609275
777340.129988494,18.40168063496285,11.007759538554277,0.6117175309861459,-14.724349961706912
777340.129988494,28.908950641449906,17.675501308507297,-0.4576492152501503,22.865350158668576
777340.129988494,9.171533558744896,8.706526245902078,0.5072539932280918,-2.790290654207242
777340.129988494,51.71200918848055,6.947962007539844,-0.2850751079152202,51.23969213836209
777340.129988494,1107.7860451639062,13.313944893539102,-0.4419414249145658,-1107.7058251264352
777340.129988494,223.87441763806223,22.304670860300494,0.7173988145612273,222.75877416958468
777340.129988494,334.8249455223452,33.75668434987732,-0.0069709885432396295,333.1185373964492
777340.129988494,352.1106791333294,33.34423835719445,-0.07555322866543861,-350.52791047193756
777340.129988494,29.76740398086125,13.590779698518173,-0.4126408532707018,26.475429637162684
777340.129988494,46.684016257386745,8.893375679883727,-0.26302643006408527,-45.82538226827454
777340.129988494,71.60366273297024,25.656827506218,-0.46618733695094305,-66.84552332400422
777340.129988494,17.636704834721506,6.55112833037537,-0.44695974312812986,16.360498220227427
777340.129988494,26.629706490878313,4.584459785766066,-0.31677228218424913,26.225050077821784
777340.129988494,22.82820596500266,22.645414311117534,0.674886741381761,2.7543286195956465
777340.129988494,38.316130243242156,24.684733717829705,0.44240076690171776,-29.29716094877424
777340.129988494,44.95694386562662,10.966140661441617,-0.3947323505883309,43.59408614826074
777340.129988494,94.8246054747935,11.430600837305054,0.4228589893126311,94.13074927048864
777340.129988494,17.612329529415337,5.760746888826993,0.35499441109574453,-16.63164230326267
777340.129988494,97.74080567797718,5.737524460886633,-0.15455086684842298,97.57075187611491
777340.129988494,5.218913569188787,5.080722433796843,0.257250100994205,-1.0424685985269762
777340.129988494,489.82546399970397,18.62678374802151,0.018571017706522332,-489.4708953194736
777340.129988494,11.186810066189896,10.77231499049193,-0.38278223745823703,-2.9470369799710623
777340.129988494,230.59395254741085,11.81182249027848,0.06175073830198658,230.290637212506
777340.129988494,16.92038846232887,12.271440103311313,0.543773196081706,-11.625197384052363
777340.129988494,466.9682763271707,12.356473363360468,-0.24641422185482204,-466.8044103712182
777340.129988494,36.21635125213504,9.8197218537497,-0.09141832894122544,-34.85567964366994
777340.129988494,7.9009336113472965,4.522707454047179,-0.1424995925919715,6.455940139293011
777340.129988494,9.052365346664814,-0.22896627135445535,-0.4303923683154846,-9.024259261866085
777340.129988494,159.40363714426186,16.842099563562435,0.36423157024327374,-158.51012634047638
777340.129988494,27.12149496812337,22.256103241062092,0.12472376648643492,15.490493917599913
777340.129988494,29.04540221267799,25.70576356139434,-0.6776404123381669,13.495166278838388
777340.129988494,60.312238490677444,35.21925257519996,-0.5710636212148514,48.954814330575815
777340.129988494,152.4754127338685,10.828163913678273,-0.12935569775257796,152.08949740769583
777340.129988494,20.820725967636477,11.415812144913417,-0.30096299125855364,17.401749457148036
777340.129988494,17.436144312614747,15.252033934439043,0.6368461819586397,-8.409436145995294
777340.129988494,49.07051701783503,11.313078281065412,0.6211140669611785,47.741739783128416
777340.129988494,60.412953237773905,12.055912233954215,-0.7108731332808839,59.19125069218447
777340.129988494,3.469212728121279,1.7760326046093942,-0.3274919860478485,2.9160751258150905
777340.129988494,31.37168563773337,31.206210366238732,0.19591986118013613,3.169591415122116
777340.129988494,59.9639029793737,17.691661608602082,0.24668125631693538,57.2917404029956
777340.129988494,72.2943679087889,12.848454046104687,0.015021714072754266,-71.14156474456101
777340.129988494,48.148596560902305,33.19449637173844,-0.502587109219614,34.86961094719618
777340.129988494,148.3280337923756,9.734186770547552,0.7348269299524441,148.00554329487537
777340.129988494,20.15192182277059,15.323412250015313,-0.08944378412219461,13.077254680422037
777340.129988494,73.80580168836885,24.592509451847597,0.21375476175364447,-69.58583728479124
777340.129988494,19.69380490541248,8.585572139907752,0.19151033535323023,-17.71515809905013
777340.129988494,6.309520070260542,6.204132013853667,-0.33727887666381223,0.966763896229599
777340.129988494,115.34534180145886,20.008001599762437,-0.11159412021881192,-113.59553201614757
777340.129988494,120.9337281346307,34.708309428215124,0.17995019670561851,-115.84471103638158
777340.129988494,58.66705860863048,12.223612536742053,0.13312553982099523,-57.37698963810085
777340.129988494,23.48392329418334,7.533079953524625,-0.29150030866465615,22.23492719284102
777340.129988494,17.80285242002646,9.570766602663651,-0.37479147480629665,-14.997703566779569
777340.129988494,14.234214193392301,10.721472765046336,0.2217860587679812,-9.345763018388421
777340.129988494,32.96699520309849,3.392878807629328,-0.01809172569384316,32.78780899674939
777340.129988494,22.646487413374867,18.724310101271666,-0.45427280188549446,-12.719545574313154
777340.129988494,32.50206074613773,17.212531384499634,0.08176204241635457,-27.56511619876946
777340.129988494,275.9203149341686,49.472529159929294,0.17952017044601612,271.4483126202834
777340.129988494,7.294041872637021,5.322740975260221,-0.14836735917955035,4.957727551691216
777340.129988494,42.42689548094157,5.292473853929693,-0.6127533455262133,-42.08782857304183
777340.129988494,62.369905871867196,7.473525672688613,0.01780841123914247,-61.91834021794938
777340.129988494,83.8663837845446,9.599177203795039,-0.4534091437674637,-83.31236490614712
777340.129988494,13.021464434029008,6.148804885709481,0.49894353693172855,-11.45562699423788
777340.129988494,24.83312034400627,7.1705025296148905,0.3604533877323147,-23.766939913416646
777340.129988494,53.69165814111721,19.42738282131979,-0.061233212267775845,-50.05094206056667
777340.129988494,106.79151225556629,8.077135637634353,0.3820600056655087,-106.48366353518315
777340.129988494,61.944936228472415,9.988160290577296,0.16405506764579764,-61.13194307638217
777340.129988494,25.9882759910933,11.949921444685506,-0.2605696782513259,23.070578013952268
777340.129988494,7.417653399120043,7.191924794831077,-0.02400879139130551,1.7397767882423976
777340.129988494,23.191636828648733,11.501878106667476,0.5483530096376944,-20.124306889632773
777340.129988494,44.07703252500469,5.0041163186908095,-0.15465165607193562,43.78868916677693
777340.129988494,8.835409748409987,4.147006405373708,0.306023623193062,7.77835155017665
777340.129988494,240.55818527759232,15.075312182608329,0.1901196038144271,-240.08471196888317
777340.129988494,1335.2169090154007,15.643461148303164,-0.07492536223759909,1335.1251627582083
777340.129988494,454.13009547434837,26.6817528362765,0.10223461081156907,453.34528433547086
777340.129988494,25.32995384760086,5.755147512119285,-0.1882661492719456,24.661285345504098
777340.129988494,56.168781362542745,10.5839301646194,0.27774975852467404,-55.15944957208354
777340.129988494,298.61046507349346,14.307120165567593,-0.43704817831583365,-298.2667510012906
777340.129988494,7.306607620116654,7.264722082748697,-0.06325053826768726,-0.5795923948595808
777340.129988494,35.07761956266953,11.357367290691087,-0.16421958548458432,33.1836139432621
777340.129988494,93.81094817048614,29.830979509301855,-0.05861474404481264,88.94005184658391
777340.129988494,119.87060730307599,27.796367853533106,-0.16063550552008632,116.60200781115945
777340.129988494,18.983423078852773,7.830455086332881,0.09268716604052243,-17.285118860479244
777340.129988494,112.71861774195389,33.689908842527934,0.34640872877554546,-107.56433623107384
777340.129988494,164.81240753126144,10.429711321526678,-0.3783047780146967,-164.48081129267072
777340.129988494,121.5254695540079,15.470372636299299,0.5993954147537481,120.5341347749795
777340.129988494,46.13142338107187,31.977039312674748,0.5862497706373984,-33.24098511124161
777340.129988494,58.18939976842589,18.05473149563039,0.29161339980317874,-55.31435146194367
777340.129988494,66.98996300619436,40.89374326604033,0.11084574322308789,53.05727300270604
777340.129988494,30.348749986803238,25.885710689942698,0.1406205175029646,15.833080360692076
777340.129988494,65.2703733113872,8.247464345777448,0.6136353955012663,-64.74221200788838
777340.129988494,24.73517899464955,24.725757616952183,0.0711207136456588,-0.4364997241394703
777340.129988494,6.002878925529091,5.935040914628139,0.2799122016393863,-0.6790389500055714
777340.129988494,22.49087801629814,1.9930406986910656,-0.165477974595784,-22.39574959132397
777340.129988494,51.359093350465066,31.705331761557865,-0.2248405281517022,-40.40058730276375
777340.129988494,8.99385626564112,8.734361847032377,-0.12311779372203331,2.07721343655056
777340.129988494,13.308474060796781,13.260836683843227,-0.15943758304282274,-0.9848207595557805
777340.129988494,498.5582680810501,12.000185621665928,-0.6545683592075215,-498.41312518560846
777340.129988494,19.16735560261513,13.203618233444194,0.09508382250581254,-13.884255306254618
777340.129988494,8.21479582743449,2.109201936268188,0.07350038885162628,-7.92201586537897
777340.129988494,246.88647615322176,6.76215203262578,0.33134492671636473,246.7930817867116
777340.129988494,165.73323233287144,12.684878732571399,0.6471428786032226,165.24499676884676
777340.129988494,62.3787297309406,7.802830876414156,0.16653767386339255,-61.88637667825603
777340.129988494,46.43224021262537,14.302337562342228,0.23853536051137725,-44.17090413719812
777340.129988494,17.334454874098164,3.932700415929313,-0.1280632554835417,16.873956057288083
777340.129988494,117.40012185121998,16.61964087902316,-0.598517688157822,-116.21509163749157
777340.129988494,63.43110062858902,7.040223338122889,0.2821686403786919,-63.03641616686279
777340.129988494,16.67660980429974,4.2145112775433,0.4837985166256044,16.119638589361653
777340.129988494,8.21882237428223,8.145673564819106,-0.10187762021352456,-0.9572169795344534
777340.129988494,2.611938948020292,1.0610734304941931,0.18837018052794124,-2.3217374783494567
777340.129988494,33.3567020094699,13.82629661303797,0.44894530337734695,30.34849483963651
777340.129988494,5.076740493164722,1.7209748047471627,0.03476922173915669,4.747623706401287
777340.129988494,22.918574723333016,12.57370438170863,-0.5275517627519162,19.14717510778071
777340.129988494,28.39776402545177,6.627064132388581,0.11227269668962127,-27.608549716926994
777340.129988494,10.95085577447204,10.24156491916354,-0.13264783427794147,-3.8397388911106587
777340.129988494,18.018310393472433,11.296626906354012,0.4267394102043195,-14.021170544927186
777340.129988494,29.870406332310907,20.278778988124444,0.052258531557215014,-21.925764895529678
777340.129988494,4.812466004027936,1.5277265044343769,0.23372284304158214,-4.5277869208051165
777340.129988494,15.20791502592374,8.739375174893377,0.24844766462325188,-12.432693784780415
777340.129988494,17.880882463909394,11.418317917125584,0.1435090176467673,-13.749799227386752
777340.129988494,56.384226876328036,15.977609271365203,0.10206070866024843,54.07047462362954
777340.129988494,482.2353086948721,16.321873683824304,-0.5572420446943847,481.95840948446124
777340.129988494,60.5568858990587,5.801697399883915,-0.013784047243293199,60.276082711734304
777340.129988494,196.34672985399874,11.971194057573886,-0.48135097560098156,195.98016924789445
777340.129988494,34.19133425045818,7.1015405905810445,-0.6186971617111447,33.43594282937113
777340.129988494,6.4898100003216275,5.384264297767794,-0.24971910158459196,3.576950122990462
777340.129988494,8.882593364960202,8.753984624835432,-0.48874558195964635,1.3262525519277255
777340.129988494,12.602909327523802,12.44907824881489,-0.5233425876551774,-1.8191994966514449
777340.129988494,51.9524058546974,7.521631955453353,0.18491416867722837,-51.40207129647718
777340.129988494,27.923659027804398,6.753449214170585,0.20210805055198838,27.088935186688357
777340.129988494,41.31018114592693,14.392601289866759,0.41711966674747564,38.71614270047878
777340.129988494,96.68552155499931,16.665185297658596,-0.049781509817803875,-95.23701380848846
777340.129988494,23.143806290745058,23.084585819532485,0.2625035859640018,-1.5486636276243273
777340.129988494,7.7870060489454245,7.639142823725152,-0.25918002577673377,-1.3940537433253959
777340.129988494,6.306288644626621,2.9419296755898285,0.038022047069069545,-5.553600685786408
777340.129988494,90.94334199530334,16.642791833028685,-0.26509446257714836,89.40563885014797
777340.129988494,9.248083516045227,8.789215308837726,-0.37763178339099984,-2.804235584042989
777340.129988494,125.4676400636515,4.770859300252505,-0.004033977902354785,125.37582377957172
777340.129988494,17.674924580599406,6.543412134375089,-0.026877383351101587,-16.41083770487826
777340.129988494,121.92865781189029,9.069213924359588,0.19242684718015174,-121.58963576930283
777340.129988494,16.414548941977387,15.685784982340621,0.47824881578251066,4.784813949000632
777340.129988494,903.5939358309208,15.128610991075345,-0.4058013154476983,-903.4670392024202
777340.129988494,375.9434093035487,26.638908921727776,0.17888001512137286,-374.9980175043271
777340.129988494,240.00719172041914,22.05415005794889,-0.16265185678063573,238.9911498091864
777340.129988494,630.2788125353809,9.501231296152863,0.5868666945258563,630.2067068211427
777340.129988494,288.3154166213868,16.804776256404875,0.03150198050288288,287.82478622273175
777340.129988494,24.95525739905803,16.39076737664335,0.2970636122660244,18.808215488670694
777340.129988494,357.2521655133236,23.14950935430838,0.2652084288132044,356.50086850539816
777340.129988494,34.043320767135384,3.0946733624042633,0.25579457917226245,33.89741663854876
777340.129988494,65.18219725221451,17.32961952018811,0.4461691203868348,62.832584373302126
777340.129988494,65.18390047499958,7.229913361050273,0.015689935911840515,64.77961552643139
777340.129988494,26.10269556635056,2.7007793813012357,-0.10038149681921824,25.957196114338153
777340.129988494,32.15993205575237,4.986700764575637,-0.15974476699133577,-31.766304898817054
777340.129988494,19.3315391316456,10.425854610069571,-0.5584024132553863,-16.26123450396392
777340.129988494,64.15375568943399,5.104029061741784,-0.289340679434072,63.947628090240414
777340.129988494,6.564282986543826,5.684528852767118,-0.3566218348648363,3.221546789414135
777340.129988494,2.6536174104264116,2.3260818874732325,0.6592481424465007,0.9622994857984595
777340.129988494,14.116583222228739,11.853415487363852,-0.22573616877843872,7.645463121102472
777340.129988494,88.52043157707436,7.405384976611749,-0.27642769515143184,88.20816440482727
777340.129988494,32.25344990681674,29.7372574795645,-0.6821258869909821,12.45972924103564
777340.129988494,37.72466104031783,12.427101955185385,0.4794471828778885,35.612033331461596
777340.129988494,18.5660902981298,17.10216310178366,0.4744912949038669,7.191674645682981
777340.129988494,91.10979921801393,26.53892191853685,0.0028744726592922648,87.15739055688866
777340.129988494,3.623766266983888,3.475293386514601,0.13181876821830157,-0.8753522992050864
777340.129988494,526.2852566863332,21.785258761919984,0.008980274400468611,-525.8339123957588
777340.129988494,133.22913653107932,14.985449924249455,0.2090439093801144,-132.38249511181135
777340.129988494,9.684399394159076,9.462209165757034,0.010177711571352858,-1.9959172686359938
777340.129988494,188.81061598271796,3.247213223106974,-0.40863685603545385,188.7815322799796
777340.129988494,5.62994571306178,5.603461127552594,0.10147175602996811,-0.12967500436830892
777340.129988494,14.2830557215667,13.202224647062184,-0.5646777936763214,-5.396080438912293
777340.129988494,38.205109886870034,11.619862920284735,0.4646692647908088,36.388499414732195
777340.129988494,80.5306394670925,27.628258302018544,0.015998550169920713,-75.64120953701212
777340.129988494,132.95697452177092,2.852713013723038,-0.35853051534161307,-132.92486659129565
777340.129988494,156.37370534994454,20.99830116508746,-0.3852803341235884,-154.95608485024297
777340.129988494,31.012774240228257,7.410476314227442,-0.04890019039739603,30.109869073827248
777340.129988494,15.355855189360376,15.117464862956462,-0.33385894860649534,-2.623486786000297
777340.129988494,41.01050484133751,8.173842958440252,-0.18566551657385524,40.18388889776696
777340.129988494,79.14219120396467,14.491024979967566,0.23819984275295575,77.80211748037308
777340.129988494,66.02474287682635,15.020224195933807,-0.7526209677229776,64.28703367502547
777340.129988494,1.6980107773027533,1.6100318233448756,0.10806302241566837,-0.09465997485456353
777340.129988494,177.0837057218785,2.3771376320414515,-0.26709385285993814,-177.0667848856611
777340.129988494,156.06277659153903,15.383259982613717,-0.07288779530458646,-155.3018668179402
777340.129988494,88.01843938341717,15.253739166281008,0.010510957633264215,86.68505408926683
777340.129988494,32.17028633882065,31.039306671681416,-0.22141157942155193,8.4361923505526
777340.129988494,27.388123784970574,25.409048252028548,0.15240202162505387,-10.207642480551556
777340.129988494,161.52891172488089,16.756264031224603,0.4817700519350501,160.6558882716638
777340.129988494,82.28430376692589,10.289401324121606,0.12008771240119541,81.63669546068259
777340.129988494,3.760853765556732,3.678479502754983,0.12310153154473882,-0.5720625897968217
777340.129988494,10.232170669680198,9.877737145208755,0.28553975685749994,-2.6030160489095513
777340.129988494,369.9191554805859,33.16703774448161,0.09718039233639479,368.4288932137345
777340.129988494,489.1433668869995,6.34833324018439,-0.5799972853537668,-489.1015490036506
777340.129988494,64.30261279057694,19.516761534784834,-0.06452571979811433,61.2670177772731
777340.129988494,20.304196122981573,10.596008420149168,-0.12395084904109799,-17.31182318381429
777340.129988494,13.031895285035898,12.724579140206203,-0.27183022479760266,2.751561148449464
777340.129988494,54.459682407938345,14.122680543555317,-0.5837819974336346,52.590832859136825
777340.129988494,121.79098962247127,2.689242503161159,0.2594973797544161,-121.7599087922211
777340.129988494,26.609461805535368,9.66823432505455,0.11807554682770677,-24.785164126576284
777340.129988494,15.24217484845072,9.796496856276125,-0.1483048392303211,11.664482377301468
777340.129988494,37.47163678808744,3.2467333240281118,0.2335228228897762,-37.32636271313056
777340.129988494,74.22367090935674,23.958323667646802,-0.2673595770713287,70.24820402795586
777340.129988494,804.730112962961,20.45013489704943,0.6455948854666131,804.469800240703
777340.129988494,18.029982576981567,5.6037283794946955,0.0936780095795361,17.12890318746726
777340.129988494,91.43796825018424,10.630866875026921,-0.5908830022257308,-90.81446561250492
777340.129988494,154.00854087071477,30.070257647177367,0.5202974860862482,-151.04260709046625
777340.129988494,3.401253305867286,3.233438885208908,0.2546826822091566,-0.8821189022319302
777340.129988494,166.42170586396898,29.073707932373658,0.2483561831038339,163.86144027483329
777340.129988494,275.92140960796365,11.700024046001142,-0.11833152128103021,275.6727213835634
777340.129988494,304.5076539726304,14.532140153549138,-0.20085963353074363,-304.1601839259709
777340.129988494,68.83302166453893,3.148308240513252,-0.04124051316451278,68.75900614402215
777340.129988494,173.60531964136138,21.304091846162592,-0.39258099853947603,172.29195616322056
777340.129988494,31.44347089432017,10.758779302135062,-0.17447067280132916,-29.54047544969854
777340.129988494,54.077641906692584,17.62860916435666,0.1273834086396183,51.120806591700386
777340.129988494,42.12506965816545,6.813086228987345,0.14373977861134768,-41.56696150331076
777340.129988494,27.310148760243553,26.50439833169732,0.19071008211488902,-6.561579386545008
777340.129988494,27.919642171980474,11.343472595098492,0.390539435973602,-25.503119955108033
777340.129988494,5.916069909725493,4.235372591220266,0.09077102366915028,-4.096689250060541
777340.129988494,372.1094129389503,20.06995375436722,0.34439938967738454,371.5672525171293
777340.129988494,12.236782154725363,11.866567822981347,0.029565043388375487,2.9414505797307324
777340.129988494,656.1768812924362,9.29833457978405,-0.2777497095926755,-656.1107322486114
777340.129988494,20.58620652694062,11.342519639543017,0.18736998575542527,-17.170720424166017
777340.129988494,69.0249933546569,31.704604549540644,0.29959885598303365,61.30993066782225
777340.129988494,30.717421655094252,18.407552828499483,-0.6140602897092442,-24.577927535971302
777340.129988494,7.490198072572307,1.2312251748392988,0.04175967246487173,-7.36987163151187
777340.129988494,522.7578274077255,7.943192725895782,0.22992287383547302,-522.6971671444535
777340.129988494,38.115739131971054,1.8399710311586124,0.4273392147282824,38.06535245307106
777340.129988494,5.896434863874964,5.476712106676933,0.5426097570848367,-2.0515221802395436
777340.129988494,171.20568962970333,17.41717391902245,-0.2218326935016857,-170.31650126899893
777340.129988494,16.973970542639265,4.987068329373857,0.15193005611024943,-16.215774502582114
777340.129988494,101.3837090796323,13.941358251986843,-0.4292287923665202,-100.4183268107823
777340.129988494,101.14200900389943,6.971669651722824,-0.29229745232721865,-100.89968270421599
777340.129988494,470.29331250954965,11.22351874765365,0.40099451226772426,-470.1589106052624
777340.129988494,39.6317758254169,11.36273885495279,-0.18614709830316561,37.96394039148255
777340.129988494,18.711424474420348,12.361584670692718,-0.43804110129456947,-14.030194235462607
777340.129988494,27.99072496840907,15.885033404933225,0.21054728736034248,-23.039784456914084
777340.129988494,282.7235127168642,21.000815340465117,0.3833782918790872,281.94171918870734
777340.129988494,33.23585110097258,27.029242430357765,-0.07403373906987809,-19.333027984577267
777340.129988494,126.12438714112007,26.566333526865762,0.025068111254894762,123.29363295098517
777340.129988494,266.8590788777044,75.21376192618176,0.43298414089924686,256.03945032182486
777340.129988494,15.344861549484232,13.384751133853872,0.16953919020891656,7.484254773898353
777340.129988494,16.231482865389,13.642332563388251,0.05671778686447452,-8.779190243523969
777340.129988494,30.690690059026977,6.8253722158156105,0.4850814242611241,-29.91365986345814
777340.129988494,301.85188064285836,16.78810800782853,0.495878443834738,-301.3838100856062
777340.129988494,38.679208530809674,17.707207237873934,-0.0771320792777984,-34.384002603641
777340.129988494,44.13634578368967,9.257899147213772,0.22764669381513666,43.150736951994595
777340.129988494,117.28494970452361,24.153892123567147,-0.36039087184404517,-114.76911013376034
777340.129988494,10.908600095316492,8.75651309386038,0.3730933905878728,6.473904216042307
777340.129988494,134.20227057652536,24.868805529185988,0.2391496848093824,131.8767013041906
777340.129988494,43.791229048275504,19.21135966765203,-0.14658384975048735,39.34848808345288
777340.129988494,39.92670366016634,26.14548985565022,-0.1369870077243826,-30.170612521699756
777340.129988494,13.124577303041452,6.233314419032812,0.4918759749895225,11.527704834971122
777340.129988494,3.5724479530737394,2.0869764137636757,-0.1391108480067633,-2.849063354469619
777340.129988494,31.69864102428481,14.998061319253583,-0.6634730189313841,-27.913283629905163
777340.129988494,712.4959704071093,11.496472627478582,0.22704695640408817,712.4029877907402
777340.129988494,13.037733405612604,11.804967769827389,0.28746618561179194,-5.502017039349588
777340.129988494,23.1236510928449,8.961753784732293,-0.5345704088192218,-21.303381033147723
777340.129988494,85.13365868134188,11.432838969558837,0.0785570970851337,-84.36085266490527
777340.129988494,198.7522768417857,10.270271132804002,0.20586001606643445,-198.48595996267923
777340.129988494,190.3326583896627,24.60952433789396,0.26526186542215324,-188.73407587842055
777340.129988494,87.70754383751304,19.223634908165703,-0.2258672222444377,-85.57303132953011
777340.129988494,26.126329112090925,13.152761640241122,0.12718530484247895,-22.56775039755897
777340.129988494,1.2561490841849627,1.0635291221607255,0.021550565342967367,-0.41946620978113985
777340.129988494,17.41761429942261,4.805269201008255,0.3610948768970541,-16.729670835948056
777340.129988494,14.707830320024238,13.320629523934752,0.1911620636185882,-6.2108098404423195
777340.129988494,14.977395002825578,13.83506496971442,-0.4034450643098018,-5.699137692189017
777340.129988494,32.11490487622212,3.30354743347453,-0.11312335237876622,-31.94010790011088
777340.129988494,5.239372571099552,1.9040996728649302,0.5982131785933092,4.816344087328405
777340.129988494,5.185775792163609,4.5105966034959,0.09834699839775933,-2.5033411104017573
777340.129988494,23.55652000768798,23.54097916259912,-0.21029660360369928,-0.6459955705661999
777340.129988494,45.32762086896436,20.73631046595056,0.07223064644262764,40.302891020793986
777340.129988494,22.45032944443719,18.125651347572227,0.3307292749933282,13.232470424553352
777340.129988494,156.14296586560596,4.608731352916089,0.5321263091439571,156.0731617742639
777340.129988494,8.05970833121498,5.805641111553884,0.07135586057669406,5.565782784950638
777340.129988494,43.485895878302195,17.306560443860647,0.5304301068815922,39.88676910760323
777340.129988494,7.186946536480351,6.938867438341696,-0.04694286145041071,-1.7976972935138724
777340.129988494,52.04152091214989,12.768218697309248,0.21421192986284532,-50.44775716914005
777340.129988494,7.984117032151433,5.272686840654961,0.2100659397590842,5.969118072582221
777340.129988494,204.3666895116438,21.060976072459518,-0.07633219550934532,-203.27789560653133
777340.129988494,40.4104687228639,29.73960028693605,0.15213545936781828,27.354498934852327
777340.129988494,15.419085148595638,2.824333634868866,-0.17734637433036893,15.148249885782281
777340.129988494,17.895733044181913,7.948286946346188,-0.264933366931696,16.02315219044784
777340.129988494,96.89402769972908,32.47873837937385,0.29617515108226816,91.28650523182458
777340.129988494,28.346666820189796,8.231557884452714,-0.2058287557618571,-27.11940650407112
777340.129988494,56.995470993290105,42.665530526080246,0.5901507697305802,37.78250310321003
777340.129988494,25.13770684918392,22.17427333780094,-0.14891615098415076,11.82849658899958
777340.129988494,37.66348241011832,5.944007260991963,0.17903551012280972,-37.18742033570871
777340.129988494,31.196629501531383,12.39786962365066,0.45333686969977827,-28.61899031645507
777340.129988494,62.13061761938696,13.179794408907842,0.5442912818651623,-60.71194291163711
777340.129988494,71.6511550051888,25.047280515103125,0.12085359479611343,67.12850919530355
777340.129988494,110.56106240736294,36.733653240024225,0.4846550697784421,104.27790729464124
777340.129988494,81.16678875412627,20.654590751010485,0.717684190885101,78.48980829997858
777340.129988494,78.32481553702044,7.075885745795851,0.4909205014316615,-78.00126388002954
777340.129988494,70.7895844565333,15.13074030455476,0.35989667338989695,-69.15074865646258
777340.129988494,4.7175037896212455,2.9849839514472816,-0.14485397907942363,3.612939265949244
777340.129988494,95.82855730223632,9.905789545882207,-0.48896168832012216,95.31252931576223
777340.129988494,115.99681932096976,15.83985027365846,0.5053098595378528,114.90794358022268
777340.129988494,7.7467943954385365,7.603957000714356,0.009345350407119618,1.3864248991239108
777340.129988494,200.03336875092572,33.24346317382593,-0.07666837716819455,197.2509682917025
777340.129988494,27.01279134287317,21.598049456371637,0.2427576907834532,16.213754177157554
777340.129988494,47.67040279268407,11.413789870660658,0.14642235515799282,-46.280674840575244
777340.129988494,132.7569459234246,27.334044504374095,0.4391068022930929,-129.91071351957143
777340.129988494,119.93918092581563,28.305568809411472,-0.19475244027907526,-116.5499616774635
777340.129988494,42.14278781243067,4.668516732762956,0.07302654399069905,41.88011202520045
777340.129988494,279.40520876430264,23.538655010745188,0.5856756376678914,278.41082771500845
777340.129988494,883.5160537600673,29.025471518118223,-0.6215751670843827,-883.0387774606644
777340.129988494,125.27080498656996,13.527058901370534,-0.6070747517609548,-124.53575518584157
777340.129988494,13.161052070024395,2.0654108567088043,-0.20866534562920386,-12.985893436972916
777340.129988494,254.60720930546148,6.168323198272551,0.06787032800292431,-254.5319386891464
777340.129988494,207.19789538532027,12.468695676531068,-0.06466547192810013,-206.82172250179354
777340.129988494,27.382646715970765,26.07901703393636,0.2217517700232497,-8.329143885647158
777340.129988494,10.554561647506215,5.8957713702819685,0.07789129895535073,-8.738545901116481
777340.129988494,26.688435717011252,25.650663653882976,-0.7643535974649209,-7.311731581127095
777340.129988494,32.09040780304795,31.75871515267737,-0.013287749486862543,4.572494751526218
777340.129988494,31.89280411153453,25.10546899686244,0.30564142540949396,-19.659668457615606
777340.129988494,0.5395952959935887,0.1346286265424152,-0.051115582239917676,0.0050411929129582644
777340.129988494,28.60363499307764,21.923525777007402,0.15877219610049106,-18.36385971716875
777340.129988494,58.959658225560446,16.278828276579617,0.41442174967130846,56.663911818986946
777340.129988494,127.3977403405242,0.6543704069606726,-0.2785399342802089,127.3946939976196
777340.129988494,102.59678961759475,17.592882958483244,0.06107889607280231,101.07580115148512
777340.129988494,92.27628093253807,33.842017929076334,0.7130985947570728,85.84201148402177
777340.129988494,20.04596348066026,18.307880449485527,-0.1130341821953569,8.147330150973746
777340.129988494,114.89309725696037,6.192001816758067,-0.10126988480763072,114.72489814861046
777340.129988494,32.420767409052225,12.265801995881409,0.19124781182887726,-30.005820853030585
777340.129988494,16.052307998024773,8.567658399918775,-0.28950154691479,13.561622707481774
777340.129988494,261.16026679284937,13.421248148131692,0.003216125082078122,260.8146557214818
777340.129988494,136.4967612598229,16.436662070757876,0.043660927666971425,-135.50250797721864
777340.129988494,42.992827070626646,14.470429813438706,0.500442662503903,40.478006345183275
777340.129988494,7.270257283311748,6.188702656929737,-0.35319892297556715,-3.7631703270603163
777340.129988494,47.12237543211946,17.279146152063454,-0.11927485930993435,43.83679673663648
777340.129988494,23.51517690113505,22.90588288929341,-0.18491762919408986,5.289563235661741
777340.129988494,27.915520144174423,11.440190613087385,-0.3581861968621941,-25.455836389802883
777340.129988494,12.699107595219473,12.56951774428946,0.24418689464905136,-1.7159633304458946
777340.129988494,101.91583523407272,27.745446504859196,0.13097751718617195,-98.06497904244227
777340.129988494,6.881330090099966,5.803933976140145,0.1494186936294467,3.6570928705073
777340.129988494,72.62854152873349,22.650641373843932,-0.15829818749396746,-69.00404358896884
777340.129988494,10.085357914590007,10.016993289987877,-0.3376978286932619,-0.9949119911916988
777340.129988494,13.314389077019026,9.52845552428661,-0.4083228618046293,-9.276010147496782
777340.129988494,93.14391464803691,13.316541192225118,-0.5076195983914578,92.18422039036771
777340.129988494,10.7673240296379,4.413518852002296,-0.372527741895785,-9.800354135629803
777340.129988494,344.91396489659667,16.256623169852,-0.20793332622548027,-344.5301898927523
777340.129988494,10.423852034560376,10.38029094955636,-0.4430178195148587,0.6630130108520387
777340.129988494,674.9998432617566,30.610468701291005,0.22449244275753932,-674.3051733543399
777340.129988494,13.954417607334067,5.862227073104366,0.14183371765384256,-12.65185945621329
777340.129988494,110.70237412067993,19.03121953707008,0.025559299894616236,-109.05300209351881
777340.129988494,5.530236145592222,5.499960195263961,0.006467497012789967,0.2520076348230558
777340.129988494,3.4057635273726774,0.8338655959977341,0.3885970270308901,-3.2376667096500342
777340.129988494,145.63757815861885,53.804993463877665,0.2161131209345428,135.33295882887828
777340.129988494,739.7041284664267,13.817480611533878,0.2279555899956651,739.5748457972828
777340.129988494,48.65284378818541,40.158193507531024,-0.11890369605212645,-27.461503323749948
777340.129988494,18.178702588321578,15.735364046333824,-0.018071443580013762,-9.088059173823712
777340.129988494,39.445153440184576,18.51555432880129,-0.19322050531818905,34.82508641271745
777340.129988494,143.6161446774627,10.084596781295698,0.5151764057847406,143.25977144002255
777340.129988494,230.32867662000882,16.397508244887117,0.02116832138117251,229.74366182505588
777340.129988494,280.64737551089536,20.60733865241167,0.40157199606001737,-279.8890053481028
777340.129988494,44.229691376162656,22.510793982111963,-0.11608332494950016,38.06896213698474
777340.129988494,29.907771412414203,21.348202812472284,-0.6220799777849043,-20.93016110869694
777340.129988494,43.05540050641167,7.631359525212845,0.6688928228657748,-42.36522213981625
777340.129988494,31.094224470376485,9.147938953126252,-0.2310214585042542,-29.712661230689953
777340.129988494,210.6671482483784,13.636558356375133,-0.08241942764445864,-210.22467608331652
777340.129988494,18.84245775614521,13.627608926015807,0.5589487557785142,12.990137241003447
777340.129988494,98.50803947245566,24.542447759540604,-0.39218351386723566,-95.39956965714549
777340.129988494,165.60902475226317,29.83920870603524,-0.3772437929716985,162.89738484798966
777340.129988494,14.118272184436622,8.001578072442513,-0.013116824146870031,11.620231743531122
777340.129988494,19.85516169377145,19.687400964802034,-0.15663071678704282,-2.517688613685131
777340.129988494,19.273303363487905,9.04654845632878,-0.010744271456800215,-17.010281247791298
777340.129988494,27.756871686115403,27.58777629872691,0.6028103121074243,-2.9537678342235596
777340.129988494,59.87516340745256,4.228939367698754,-0.32483500221090106,-59.722486109628846
777340.129988494,15.606291961043269,15.576538795518125,0.002634097983816959,0.8107903468655675
777340.129988494,5.529089806825718,5.128961821389716,0.5978131123736028,-1.9070406942026497
777340.129988494,51.79435491015468,4.3082728897948925,0.24593090969803325,-51.61165666062058
777340.129988494,637.1601033766865,13.487555809543661,0.5708554776125856,-637.0168654731975
777340.129988494,29.648488110968763,6.009285646170628,-0.03674005216389522,-29.028427161276774
777340.129988494,421.13282543068266,9.276534643538158,-0.4652131749973029,421.0300651223603
777340.129988494,13.813244788732312,9.074933763304037,0.08584655794188835,10.400650900476109
777340.129988494,4.342038485372784,3.377816587400255,0.413908955605138,2.646116529333495
777340.129988494,519.7842183923294,10.00088888778923,0.5212198170523158,519.687477087029
777340.129988494,44.60983571407482,8.695985656234463,-0.5729465139291986,43.747212576294345
777340.129988494,25.964087860033832,19.099826953576652,0.5531534077726138,-17.571399775045027
777340.129988494,16.398561481559074,10.44934950966955,-0.05119772051902363,-12.627386597497319
777340.129988494,235.303346776777,13.466249852415354,-0.41486279934157483,-234.91675676316112
777340.129988494,46.748592752248,42.81350863835731,-0.06996600844477868,18.76590277994908
777340.129988494,13.912070528256045,2.141015262962098,-0.19890004932684513,-13.735057291373472
777340.129988494,42.517389084443664,41.17834527707761,0.13292782079130736,-10.57280402704076
777340.129988494,37.717391274337,7.569170894360884,-0.45791677601823166,-36.943594420949815
777340.129988494,16.143940996229503,16.1171442418159,-0.25197620700310686,0.7284232075822572
777340.129988494,119.09669525910105,20.047962819603203,-0.1576129338089879,117.39594016228197
777340.129988494,81.33063460070571,10.659921491516748,-0.28028221330282926,80.62685185612243
777340.129988494,211.38819939053755,19.170193039727486,-0.5038581112946936,-210.51591452286198
777340.129988494,9.140360575077908,6.122290214956932,0.06538736608536826,-6.766762775407275
777340.129988494,18.67840990447864,2.7890948917182175,-0.3082198103772537,18.45910471266709
777340.129988494,18.366250056935225,16.67036782159604,-0.18049276686178362,-7.688627979534396
777340.129988494,167.3225271884107,20.361828700401592,-0.4552915766556395,166.07753113010855
777340.129988494,129.26346968213213,4.622816288025411,-0.010934338098561782,129.17973387598738
777340.129988494,30.3772561838135,5.448620360864384,0.2843818066245809,-29.878737530362137
777340.129988494,24.010735831469475,10.109060388675307,0.1819164043948843,-21.77197371963645
777340.129988494,573.4128959340628,14.853625011712092,0.4913095969731577,-573.22003389831
777340.129988494,194.17129737590562,15.305085277949711,-0.466331216331288,193.56590408559492
777340.129988494,19.746011250408458,11.543656405055113,-0.0718511776687573,-16.011664326719906
777340.129988494,168.5092287317865,12.486570159438301,0.238413324410171,-168.04498948948674
777340.129988494,141.22725708691434,16.39159516289852,0.2055009796836792,-140.27166899148375
777340.129988494,28.438312685022552,12.323181737331634,0.428716686119239,-25.620745934551824
777340.129988494,7.911435212158158,7.5089695227660265,-0.21225395347222345,2.4270830396964893
777340.129988494,72.48578147239499,24.231606003755903,0.3490698530896756,68.31270406286231
777340.129988494,19.888228079822305,12.44497165112117,-0.22239865306267653,-15.503046010282583
777340.129988494,18.145982245442934,17.363112801312752,0.3239030573271955,5.236761624350811
777340.129988494,4.320238562438486,4.118886545834934,0.17049971820534016,-1.183116522161877
777340.129988494,4.766699324583784,4.6536211910984475,0.5644759171056215,0.6900718801362278
777340.129988494,262.5115553937536,19.042380901428935,0.16765709504666518,-261.8194147422057
777340.129988494,31.67472679171931,29.73050617780066,-0.09594598992554594,10.913556437240562
777340.129988494,16.04708394326098,6.19783708520595,0.42922595495977184,-14.786516953863712
777340.129988494,37.24734532308781,10.469561690817317,-0.23283535771479355,-35.741130358673885
777340.129988494,101.99649611978629,4.176800781709115,-0.09539511688480215,-101.90956802830237
777340.129988494,157.48798449776834,17.511597239709488,-0.2511134536280028,-156.51030562016334
777340.129988494,226.60498411669684,27.17786436788222,-0.6024448360137817,-224.96788476391242
777340.129988494,164.91902885753692,17.470692655434092,-0.17460206777576712,-163.9901219329091
777340.129988494,23.747639746141466,14.674178368952942,-0.13894847925301826,-18.66357886442964
777340.129988494,17.581229174691867,5.993001322746852,0.43777767166685766,-16.51428185386155
777340.129988494,23.5287521061816,12.035664034511116,0.38918023113861494,-20.207006351021217
777340.129988494,21.52396875093904,7.620265954742971,0.05292309114179932,20.123110512960206
777340.129988494,44.45156489202222,20.957072940027253,0.03800749847929304,39.197842677449714
777340.129988494,8.774272690580258,8.391513338405288,0.021105076591780778,-2.5098844028701257
777340.129988494,149.83937470299915,27.777528531983517,0.32480855233059236,147.24086124254012
777340.129988494,481.38570468478116,16.3570886261866,-0.7825853165635577,-481.10680673501264
777340.129988494,9.086184327044695,8.117097023235306,-0.20137922485603543,-4.044814946102426
777340.129988494,196.2862735300062,23.672116808057353,-0.1224061712720757,-194.8528847075437
777340.129988494,26.033576582346033,10.581354100317029,0.0005567430801055068,-23.78048895129402
777340.129988494,17.97834474877614,2.148433964087946,0.288622285645465,17.839602254087072
777340.129988494,12.007616918564832,5.806357654409144,0.3200538013990512,10.492675560423027
777340.129988494,47.69371007770599,26.685824922548363,-0.36602799274348546,39.5240730781621
777340.129988494,23.110503935268184,7.569191665467582,0.07509046999387134,21.829491315529516
777340.129988494,13.641605699403422,2.7481312050089395,0.20176487238966376,-13.3502835877865
777340.129988494,54.79239876541469,29.22020804959947,-0.7739002384917464,46.34131075430649
777340.129988494,447.6064838046443,5.871345942788944,0.10263379960190404,447.56766047948645
777340.129988494,25.100672644262417,19.833158487378466,0.5045544656789209,-15.367648369224042
777340.129988494,15.29051011954019,7.983457400105091,0.25777592889891515,-13.027941480792288
777340.129988494,6.313508360272731,4.373529031376755,0.21295989008302152,-4.518504145417397
777340.129988494,21.023187283732188,15.979624257521783,0.19849458398730974,-13.649769670416715
777340.129988494,36.774380036591566,4.3805114291873934,-0.043086372820240436,-36.50881934901348
777340.129988494,14.477492588191016,8.779356841378485,0.5723536166014407,11.485760594337226
777340.129988494,43.716289598847155,19.18497777481717,-0.3678098566424927,-39.2765186845703
777340.129988494,32.11189480063391,26.789920533554323,-0.06161328050361065,17.697450361464202
777340.129988494,172.2786288549105,33.3750273650564,-0.20562328810656047,-169.0139663683837
777340.129988494,30.904883311654544,5.822313658065733,-0.07138953241060048,30.34694349862516
777340.129988494,803.6427283540156,24.82659299839385,-0.1174343723175484,-803.2589812293082
777340.129988494,693.1374667558076,18.55429717336638,0.6038992380452045,692.8886279791082
777340.129988494,24.189849381144825,7.474154050797676,-0.4104871714325489,-22.996672250338893
777340.129988494,19.20513006427265,12.674317311129002,-0.381117041534951,-14.414681796109708
777340.129988494,85.52509641780136,21.125067587051383,-0.2625789212765879,82.87300096549437
777340.129988494,473.9162402396834,24.819186321827882,-0.057011024389304166,473.26560946574466
777340.129988494,16.16067651021977,14.270697230722003,0.599843122920152,-7.542178335528661
777340.129988494,16.42443925236764,14.074825040936947,0.5390232949287647,8.432114723439982
777340.129988494,154.97642423100177,29.30106344115643,-0.26054784047535196,152.1801612020029
777340.129988494,133.4851815170108,34.239253148510585,-0.37642354264181455,129.01765434923266
777340.129988494,436.71311135971433,7.600351095049181,0.0804112178578295,436.6466528335586
777340.129988494,82.76392269808073,21.406205081090338,0.19858496741762113,79.94580319448232
777340.129988494,40.90118115599625,8.166886589916238,0.4185795814091532,40.07197243107826
777340.129988494,10.373932805745179,7.457829832773305,-0.10364138349970795,-7.1915307485360005
777340.129988494,26.880306009217925,12.482820985512461,-0.012516510261185384,-23.80040912946284
777340.129988494,43.85026528790705,12.55309461328105,-0.38937396596370494,42.01004129210621
777340.129988494,17.830977374732047,11.0373701100367,-0.5755512456455385,-13.982794997993443
777340.129988494,30.470674780470183,14.131047248178437,-0.26909149843068225,26.98949267793678
777340.129988494,29.06108680785972,29.04572019259854,-0.3220492940997212,0.7202702266522061
777340.129988494,77.33919957454202,22.146967137219907,-0.47018802832755674,-74.09704555966962
777340.129988494,21.99285386564602,8.758658633333091,-0.5478145916488991,-20.159390349749593
777340.129988494,25.82974431507461,23.08105160987974,-0.3566426463938202,11.577700721083188
777340.129988494,8.142592270103009,6.853530616845088,0.5190987201955913,-4.33486602789516
777340.129988494,9.062757800614719,5.974435344845126,-0.1442502644707147,-6.793268221119222
777340.129988494,86.39090155090608,26.494657189804403,0.07305735008658447,-82.22618362660819
777340.129988494,77.5582784341351,7.591163852767179,-0.5132016053977734,-77.18242681556137
777340.129988494,18.631102826446167,18.28715754253664,-0.7684934182802893,-3.4404766254278427
777340.129988494,20.39029226636365,12.05679608112729,0.049593988020964465,16.435474663124126
777340.129988494,80.72994322069219,23.836361440783914,-0.4652700596382877,77.12758734364832
777340.129988494,653.887091013412,22.455004531670976,-0.16580293473300978,-653.5011879674371
777340.129988494,17.147723269403116,16.61755815554158,0.5228648031633716,4.166219709621151
777340.129988494,25.015952027926495,11.8144498780797,-0.40331322056731517,22.040498369773264
777340.129988494,159.09050128686985,17.077081781116895,-0.5754976285615684,-158.16940058060564
777340.129988494,15.79349277139612,1.7062994032963057,-0.010610861831658153,-15.692432688275684
777340.129988494,184.28349901929602,17.231804394950434,0.6705142809312967,-183.47412062383106
777340.129988494,50.9362281816068,19.339337778766836,-0.2361940052157444,-47.11860745012927
777340.129988494,51.09169159028754,13.248232939094112,-0.4396429876344166,49.33945264787586
777340.129988494,15.136563759258102,10.264175246256485,0.13879902898896843,11.11182270294901
777340.129988494,50.84331978714085,15.245456655067375,-0.5014628455198974,-48.498426297875824
777340.129988494,10.156528344722664,7.762892233517918,-0.4859836625988923,-6.5104525240285085
777340.129988494,17.83654374709802,17.556747388629404,0.5788973651601377,-3.0491624775677053
777340.129988494,706.4509764369943,16.055072737340723,0.3512648814605986,-706.2682372591621
777340.129988494,200.71071702037247,7.212381632878013,0.11711131776923052,200.58038130124544
777340.129988494,42.02289972380913,8.745066466099317,-0.10046165582971586,41.09948200593932
777340.129988494,41.603955779324515,26.573410356396028,0.3301042831750573,32.00568120944784
777340.129988494,182.58388982932263,41.72427300016178,-0.3600377033290016,177.75140460954557
777340.129988494,240.47824029925798,4.947981211211359,0.4042059386633674,240.4264289900765
777340.129988494,16.46741317242394,2.270471428727994,0.03506989344750106,16.301810518627228
777340.129988494,13.091710568015998,1.7862510391237345,0.2647228142941082,-12.956145825573422
777340.129988494,41.84551646027044,7.25720509803754,-0.034162113912345124,-41.20811394545686
777340.129988494,1427.9941723796478,25.26691029007506,-0.21625138006097097,1427.7705076201737
777340.129988494,35.78833611064385,9.078495237015675,-0.5114463728500819,34.6100267033644
777340.129988494,10.807744638605934,6.349498890191452,-0.07922291152121583,8.730093455803491
777340.129988494,44.62344926420705,13.472042634311176,-0.5347067944656653,-42.53469148987112
777340.129988494,152.8962868272431,14.987051945097143,-0.2131279693710038,-152.15895299331623
777340.129988494,95.26741085192448,13.186079822058344,0.3197989433678665,-94.34847215504607
777340.129988494,437.5523509184703,11.53889759837374,-0.3242624404660832,-437.3997463309325
777340.129988494,16.936527394510087,7.469511425835746,0.6155922931697737,15.179031766647363
777340.129988494,16.838855818810927,10.537534968028798,-0.20576945797357118,13.122297093666115
777340.129988494,92.99100866322316,9.321061544144577,-0.34536250759566717,-92.52056975955273
777340.129988494,2.732723176454705,1.0167743080855711,-0.49781975318557187,2.432225618417842
777340.129988494,66.71127636276886,7.914769515894426,-0.3014722824996603,66.23737262243176
777340.129988494,43.113217099275516,14.262124056231288,-0.31185336860226737,40.68136739995871
777340.129988494,79.62729707869187,3.507567499461484,-0.12035133031197398,79.54821510161156
777340.129988494,127.7202732682421,7.008749550103223,-0.02733698659539081,127.52675988257346
777340.129988494,55.58381866026703,14.718492791230666,-0.38755169438935827,-53.595767281531806
777340.129988494,10.632080499019331,4.063187578019173,0.5508792618538195,9.795803922206552
777340.129988494,15.375894780155845,13.86348677852574,0.3901996493058248,6.6180978283603045
777340.129988494,1701.4436928844643,15.648087015172381,0.11690383173109821,-1701.3716505697932
777340.129988494,461.39203771095305,18.5868117455837,-0.228103528988487,-461.01715853206576
777340.129988494,99.1745185981631,31.84696217525458,-0.4912375426580215,93.91935064225044
777340.129988494,140.74261174237898,7.286309954797719,-0.14357245551524617,140.55284214223013
777340.129988494,33.78006885873003,27.241858594221142,-0.07117198941236665,19.967441673407375
777340.129988494,266.1519719943002,16.480611233053978,-0.6894308201550575,-265.6398236992788
777340.129988494,248.18311742829778,12.324966895689428,0.2782166734172264,247.87619321534495
777340.129988494,20.022324452185217,17.87664041922874,-0.1833181067998451,-9.000844308279676
777340.129988494,18.451681448720624,7.5481794109854885,0.06980243177146676,-16.82897095740421
777340.129988494,191.50745366673982,27.758031347288053,-0.22455189415158253,-189.48423597251647
777340.129988494,7.9772037179972015,7.420584741297496,0.7209570322432189,2.7893587458966618
777340.129988494,72.36006965686326,11.468340069896945,-0.2108541334793383,71.44327818151751
777340.129988494,35.03111652648201,28.486226419708885,-0.6145561080765075,-20.373167408311016
777340.129988494,411.4665737116376,6.237109611235681,0.15198403829479204,411.41894249845126
777340.129988494,853.2474326524044,25.06153523993352,-0.27072031439076083,-852.8790987530697
777340.129988494,87.06484113571311,15.481769947356451,0.4006031704506777,-85.67479488381585
777340.129988494,7.506294254646907,3.506146038188106,0.007636654605971768,-6.616716336503284
777340.129988494,185.08160316869657,44.359270908188385,0.31614311534410644,-179.6860722747299
777340.129988494,8.427927215683063,8.363048368084113,-0.20896795852634723,0.880517767138294
777340.129988494,26.508186099293596,13.060033803701806,-0.4027596728861768,23.058335411881856
777340.129988494,182.0214752018647,15.735755574316023,0.6648595475923701,-181.33805721069803
777340.129988494,66.86841606793132,12.493298219021376,-0.2735642436487128,-65.6883348064873
777340.129988494,283.41191965396774,16.0426646345986,0.35233256939653357,-282.9568069072193
777340.129988494,13.99234334500424,13.475456299146453,0.722681781984995,-3.6612949698522987
777340.129988494,337.3581272989151,50.93025480907138,0.4136520530678181,-333.4908899680666
777340.129988494,96.75040272876832,26.087285656477405,0.3601915713374337,-93.16487437488522
777340.129988494,59.45971374365054,8.406835904412935,0.16613349312964026,-58.85987315833766
777340.129988494,18.714860912620328,9.635136434583268,0.651231041713478,-16.022348860139044
777340.129988494,20.87322999769145,20.718158989853517,0.1688537396603508,-2.4800618988809062
777340.129988494,46.83697861353168,10.379935504672174,-0.1233539826336104,-45.669178757212606
777340.129988494,39.0255853264481,38.91614429965609,-0.06452313346980751,2.8732315753300064
777340.129988494,208.9863355884686,4.944546558077738,0.042091161829795214,208.92718289003253
777340.129988494,12.034647327527862,5.607204867093169,0.3139733121354102,10.63122808689979
777340.129988494,44.15310984764708,7.715335997558251,0.16614910855276555,-43.47036570051945
777340.129988494,39.06359581620229,20.76638538688525,-0.16791380956360744,33.082067060683094
777340.129988494,547.93294438347,18.22864773411551,0.6964560252385467,547.62895512521
777340.129988494,32.82965407518854,32.399005109192416,0.38160218679499364,5.260668626904837
777340.129988494,568.8946718180971,15.178016196601607,0.4441343376655642,-568.6917511201004
777340.129988494,42.79108116916114,25.49034768258564,0.22800220013445593,-34.36562843370352
777340.129988494,50.01914387096745,17.716463267614646,0.42935949591512607,-46.77164668145722
777340.129988494,597.9363728121472,28.465208758160642,-0.23202405383442418,-597.2581632652164
777340.129988494,42.50743687804242,6.564875503624271,0.06830465120430447,41.99416071357182
777340.129988494,39.04626581824033,9.933259474675632,-0.195226215076699,-37.75755179142839
777340.129988494,785.3369413824735,9.968905197959717,-0.09575216797859999,-785.2734892129337
777340.129988494,69.44338944059605,8.087830302239343,0.04748003069959152,68.96882399785538
777340.129988494,5.369799064465183,5.261558083023643,-0.0728438290980691,0.9354369611374405
777340.129988494,57.62364469892881,13.961036868986596,-0.2331766985930575,55.90392746988726
777340.129988494,4.188569832887708,3.1301009432487783,0.1740565675604584,-2.728715749457818
777340.129988494,79.27445808659644,4.071834152554532,-0.0492870238571117,-79.16809358792784
777340.129988494,27.018269177811465,14.07168727399177,-0.025598720939467072,23.058695351930503
777340.129988494,185.61343420481634,18.368266153572794,0.5406493898257005,-184.7008149793998
777340.129988494,74.99869602232873,27.31606655037706,-0.43945659452025987,-69.84392164796141
777340.129988494,53.722537290733726,4.8404619805215585,-0.6331361849498461,-53.497753965383524
777340.129988494,7.390257985885751,3.0175713799795427,0.08459029015650311,6.725520094943419
777340.129988494,92.27081458521441,7.708927096614149,-0.6827033515927506,91.94421778106454
777340.129988494,64.79706753513491,30.85531742814718,-0.713621070298973,-56.97218349799432
777340.129988494,9.48762871256417,2.525247775656026,-0.23623348964575203,9.127541618496522
777340.129988494,103.79594316473059,7.114721071032323,0.09502442139347479,-103.55046659429752
777340.129988494,10.659104808416487,9.866759685974928,0.5928383734461437,3.954960338485968
777340.129988494,19.436322410620555,10.188793000057016,0.016752955138073303,16.54353182939102
777340.129988494,10.03321578784663,7.838686097749998,-0.06893501247027833,-6.240614334381789
777340.129988494,51.65121166973442,10.572885765814338,0.3629964340291333,-50.55353189564139
777340.129988494,79.68799288770809,38.64315857275349,0.459275317125346,-69.68788396970825
777340.129988494,6.167877450572751,3.612871275633961,0.09935815839014046,-4.970875309977528
777340.129988494,14.478972491102393,3.7713591398146864,-0.21327948541700326,13.967877666193111
777340.129988494,79.43757702778552,2.6888045545113877,-0.4517821285577192,-79.38907019874536
777340.129988494,65.99023206129624,3.0272905212215147,-0.03775566602993084,-65.91869548249218
777340.129988494,234.35651740158656,6.243372021936819,0.3296785651836828,-234.27253032833258
777340.129988494,8.489273781931468,8.459941545112718,0.18831766374457906,-0.437372673342344
777340.129988494,11.03533406590142,6.746071511180794,-0.13510913562516802,-8.716677270241789
