12974.755151024954,1282.882485828429,98.36002534963575,-0.1591175327092568,1279.1055453194851
12974.755151024954,28.90549147603661,8.552949780962365,0.16537270162769266,27.578808282496862
12974.755151024954,326.3339910134817,25.31638596365905,-0.27869897631263185,325.3476911648588
12974.755151024954,62.805428042309266,20.213410619331395,0.04277787113632954,-59.44898249476883
12974.755151024954,401.3330929836344,16.74828701381644,-0.054703660026888444,400.98128003726123
12974.755151024954,240.3019610742495,26.15023026175178,-0.19974933609221315,-238.8710982527769
12974.755151024954,54.80215036921813,26.01806787380129,0.04095321156937575,-48.21387434065767
12974.755151024954,170.20627383274652,32.702609876660134,0.07029875826235354,167.02979837222176
12974.755151024954,1023.249728818522,16.4382213902744,0.06649399849398674,1023.116822024811
12974.755151024954,79.19624130267364,20.89536626244643,0.1452645743001063,76.37833940542684
12974.755151024954,16.33612792799646,9.894167751378202,-0.20719891882993555,-12.929621637661683
12974.755151024954,35.5019018916184,15.724152314100897,-0.22621409379071236,31.801390315620228
12974.755151024954,17.018941537730974,9.978970211140822,-0.28508375637565725,13.719576478132247
12974.755151024954,26.1039854298663,19.421631789798415,-0.10447322520732456,-17.391115150759557
12974.755151024954,131.74182034936717,26.44652067301721,0.1801232330285831,129.05308929186907
12974.755151024954,58.255699555282504,34.93088654040209,0.28558302352533066,46.60173457513328
12974.755151024954,617.4986313017566,49.59723122633837,0.21327803346430058,615.5021302591908
12974.755151024954,77.29016373504697,30.26467536710998,0.0645050103817488,-71.10596459591173
12974.755151024954,43.06554772349596,20.552925375425048,0.3308413563999648,-37.820004364508115
12974.755151024954,33.040509745694735,27.095608725983997,-0.17467992496360213,-18.860442355500144
12974.755151024954,47.134706557788114,21.340187851250352,-0.22682996989034548,-42.00558319824284
12974.755151024954,59.54869943338968,35.9966866642518,-0.0745353872873903,-47.41860525972377
12974.755151024954,117.85563062970007,20.880945280868755,-0.1505751679983738,-115.9834326501766
12974.755151024954,20.12401476061631,11.279098784828976,-0.012649828719027065,16.613285875076183
12974.755151024954,23.888444043769038,20.48383888636664,0.24763015839600655,-12.216886244535104
12974.755151024954,76.29348881702634,50.765535924804155,0.06367114577499676,-56.93677432928511
12974.755151024954,105.20457166231893,22.50888125518331,-0.016996963500322853,102.75989198754975
12974.755151024954,34.714689759546026,30.789062262630996,-0.0016253541671339005,-15.980827711516884
12974.755151024954,22.19888467281893,18.925124860392245,0.08981977872036256,11.526733667463192
12974.755151024954,311.3011685301303,25.889548062635345,-0.09199480076764471,-310.2198960305276
12974.755151024954,13.686273910041674,13.450929890435896,0.23338160998205884,2.1390742261520073
12974.755151024954,224.9622475684165,14.123986432416446,-0.012890293025063134,-224.51451890474337
12974.755151024954,194.1569709114729,41.60629746833212,0.2788108026317721,189.64179696451183
12974.755151024954,29.10299404862739,27.56036073810688,-0.26246287913020266,9.251238766486178
12974.755151024954,480.4283570497639,22.914278823507395,-0.06564893924938181,479.87975712739575
12974.755151024954,200.2284066191906,26.01952536480455,0.002853635740734248,-198.52617619801316
12974.755151024954,126.73368816867598,32.24406978225378,-0.23245825484851756,122.55585327013027
12974.755151024954,39.43685218231713,36.73106554310091,-0.21452330767672229,14.29306267972051
12974.755151024954,46.760212431070855,46.56965432197805,0.10678041203569875,4.002110414712447
12974.755151024954,33.25985466938467,27.9969890968086,0.05992294312572749,17.906045634931697
12974.755151024954,61.54484492263903,33.57254770753919,-0.0678930502110527,-51.56443439433837
12974.755151024954,82.1203946010084,34.35653624037872,0.0896062018150173,-74.57629063325065
12974.755151024954,51.47628741680299,7.518923077272953,0.03225738911233936,50.90693909806216
12974.755151024954,84.31447727123344,8.044697715484089,0.2789941312393282,83.91888705982795
12974.755151024954,219.0840587438189,22.047365222929727,0.04025682936179951,-217.96784255636683
12974.755151024954,176.10336816863526,24.532658234187945,0.2285169545879874,-174.3810089063643
12974.755151024954,14.932944296943436,10.415642819877576,0.041454820825904064,-10.618334069889615
12974.755151024954,33.803474205622514,9.64325700156575,0.21331484486659277,-32.37098216684968
12974.755151024954,2029.3343710880936,35.14669522150549,-0.22078430302285693,-2029.0295449489408
12974.755151024954,28.752070851580484,28.7207960623249,-0.1070128415310338,-0.17183407692772207
12974.755151024954,12.062456621927618,1.8994771952983915,0.10315171159462788,11.837556029959137
12974.755151024954,45.04762842850958,40.83513594664912,-0.10394801498133614,-18.974014360686326
12974.755151024954,41.60943303994509,22.34702735531112,0.1209074752531674,-35.0739817324278
12974.755151024954,208.67693494765376,23.294321173306482,-0.1854977014953941,207.3683845182831
12974.755151024954,523.4641042417023,38.448172619436136,0.002428069631013516,522.0485130452877
12974.755151024954,60.57407130808925,10.75897941206871,0.022852028883939182,-59.596186803607985
12974.755151024954,21.69159634491542,18.033926258153393,-0.1253942518622232,-11.980428159520581
12974.755151024954,45.99197810733928,27.251089705798204,0.026884700179467317,-37.02543671832935
12974.755151024954,74.02721492740447,14.823465722047619,0.21700473738613282,72.5154455942799
12974.755151024954,1600.879690696266,23.446915249147622,-0.08305320449415785,1600.7074257584159
12974.755151024954,214.40973913633795,23.26941214971864,0.12136481206676605,213.1391552300961
12974.755151024954,22.83021996667618,18.95877566953453,0.3664609874569066,-12.644880469239602
12974.755151024954,29.360605900906624,28.879798272848372,-0.08618860095067522,-5.122355806716614
12974.755151024954,186.89083207937333,32.745212266352986,0.14683121434993243,183.9949894873339
12974.755151024954,15.268676035867562,14.37688399318242,0.0989792546928405,-4.967031763497389
12974.755151024954,509.8299809110098,23.23574051592619,0.21489018257454806,-509.2984460485859
12974.755151024954,148.6727881587579,23.519364823944166,-0.1770139027621881,-146.79458304090429
12974.755151024954,76.53847590813861,7.272942597083549,-0.28978919682263277,-76.18006398946673
12974.755151024954,454.9978891127035,12.930470632308893,-0.014835880107263633,-454.8121868783171
12974.755151024954,19.1503568742938,14.267758152853952,0.07144856459820985,-12.704553030496518
12974.755151024954,134.07572233380168,19.218973428345915,-0.004354486281178862,132.68449000402148
12974.755151024954,30.377416749853733,21.52691881226761,0.03668469283043286,-21.39208722811416
12974.755151024954,96.38534365962909,14.660063419496296,-0.1454496598692493,95.25460295552753
12974.755151024954,28.978418423859907,28.173751259828663,-0.15514854835716546,6.648904430291416
12974.755151024954,58.9451307713025,13.214482858323398,-0.10815654659965852,-57.42941505441317
12974.755151024954,134.31322359392968,37.93391150151869,-0.16421997095764415,128.83818125496276
12974.755151024954,158.52413872492232,21.89066848343117,0.3432772559463637,156.99944865970096
12974.755151024954,41.00249812382235,17.316139124601946,-0.04728180573961193,-37.14293296900408
12974.755151024954,90.27033648792893,44.86790744241685,0.21136792202703952,-78.31860176153405
12974.755151024954,70.36803248562632,27.809123493219246,-0.13095489030996305,-64.62614814571072
12974.755151024954,29.641421930964253,29.557789626702814,0.06098962658023325,-1.7862736733428155
12974.755151024954,9.63502658953465,5.767200778290185,0.2656399080401849,7.599085135776885
12974.755151024954,1064.055261062296,27.18382575616179,-0.173334057366367,-1063.7071268416944
12974.755151024954,216.5985186042489,17.34613742216703,0.260631675159315,215.898599754871
12974.755151024954,37.82669995889454,28.85466156965625,0.09395301321608308,24.423399337720014
12974.755151024954,37.837701498670725,37.02546079359652,0.08144183765982191,-7.683996476380926
12974.755151024954,24.30885160221562,23.095949973611123,-0.2204607191232048,-7.462726378738325
12974.755151024954,175.8229056759059,17.03145167599829,-0.28516134641110674,-174.9908169705792
12974.755151024954,1336.5945400267856,28.96011125483266,0.11129414343699474,-1336.2801006997122
12974.755151024954,2538.7530538829283,29.048496904504947,0.03061155932683428,-2538.586515369786
12974.755151024954,284.0204324448594,23.175172439342536,0.14372181199871598,-283.07020383556807
12974.755151024954,22.83321040626902,22.791174659262396,-0.32148909678848686,0.24088745545046053
12974.755151024954,56.16939729676628,9.55745696819864,0.17598868991749175,-55.334155490633705
12974.755151024954,21.724433822335797,9.307102070013439,0.05611452858656581,19.584924151415052
12974.755151024954,90.50892817272015,16.602143324326818,-0.027058843468663107,88.96335037941024
12974.755151024954,11.074292487428258,6.40952923193051,-0.21261000054345944,8.930633404602784
12974.755151024954,631.8051122517732,27.072692082921954,0.2171998574471088,-631.223388002994
12974.755151024954,60.920552125259746,37.225127642972424,-0.03624070206911608,48.20628337385091
12974.755151024954,61.866615737781174,42.04656999821729,-0.08086131095669029,45.362992434111725
12974.755151024954,35.30823701989796,33.09201353887745,0.20178900250935558,-12.23899707868706
12974.755151024954,18.424251776527157,18.370150150103093,0.051523644534783974,0.48115402854527917
12974.755151024954,53.283346843605145,20.44620709762694,-0.2119226556337269,-49.186037468599835
12974.755151024954,51.61737506767686,21.115825544911523,0.2250766067555969,47.0815057942371
12974.755151024954,29.729351075776016,24.376637354767027,0.08262844670084456,-16.966159438668416
12974.755151024954,37.15834342293429,15.252784964820965,-0.04445366389003322,33.857592760310375
12974.755151024954,327.7175916286623,34.51093175219015,0.36417514671249107,325.89250736377244
12974.755151024954,97.2917253350225,17.847765280507513,0.18515217249310592,95.63130417770111
12974.755151024954,170.99295118401696,16.428813231258115,0.23442032761622167,-170.19656877986594
12974.755151024954,33.54014153001495,32.18046047032761,0.008343887103917254,9.359621522703998
12974.755151024954,184.45183115725618,13.136668869972713,-0.04661126500246762,-183.978659910744
12974.755151024954,28.121277721885818,18.77178115588788,0.04739959852956357,-20.896597166106822
12974.755151024954,570.4005252957941,49.110849810003394,-0.04491863325312048,568.2808506345001
12974.755151024954,64.72566079439274,46.34460869784129,-0.06961292021432874,-45.16444498556029
12974.755151024954,118.41216380485035,24.59275510348516,0.20406341661686,-115.8224452271075
12974.755151024954,566.7978811903694,30.102932388063103,-0.29266665636653605,-565.996298094482
12974.755151024954,28.05221153706861,24.895990475312164,0.08850004618023119,12.85892394460117
12974.755151024954,25.820505245946546,24.6086261210661,-0.2454462313782541,-7.700473663005312
12974.755151024954,99.3651253833194,14.156964704976474,0.03369356175958383,98.34251819241935
12974.755151024954,22.751359802051514,22.646170028635066,0.03504402782739828,1.737139801590538
12974.755151024954,17.77112525049472,17.2506863434867,-0.17849580771653456,-4.0544271471615065
12974.755151024954,55.20050659771046,14.387308251871454,-0.18314058347321882,-53.27580385441211
12974.755151024954,78.74052655942774,28.865082804835886,-0.016365400658368046,73.24698476112975
12974.755151024954,76.99206526792887,35.929350388183984,0.3041360533463034,68.08091452868987
12974.755151024954,33.415069267908216,24.197174530154737,0.3386376193787084,-23.00418332383647
12974.755151024954,56.05117383537621,18.46203255467847,-0.010800998187815063,-52.90681291203991
12974.755151024954,501.1134122098504,23.278043071684674,-0.2568059396522188,500.57063655887697
12974.755151024954,31.50138333253447,11.774586322104486,-0.018643278425088936,29.188001783821374
12974.755151024954,10.069734291586279,9.945203073769584,0.1287668113738446,-0.848192507937471
12974.755151024954,19.265685778196286,15.9682278221765,0.2432784421356147,-10.694236355180067
12974.755151024954,236.21798486344906,22.106276999446234,0.0882952272425649,235.17755977351004
12974.755151024954,158.88607516942753,25.84211910839426,-0.19759463998513915,-156.7647098233157
12974.755151024954,33.08632243266988,24.92945725143568,0.015680776001103357,-21.713363955829124
12974.755151024954,30.935214190963833,27.054266163115308,0.14250525503003017,-14.942468958174635
12974.755151024954,22.127294672452837,14.830007100529635,-0.2823194141720891,16.366181031804025
12974.755151024954,244.56314157469933,25.693787276884137,0.13161262122483078,-243.20605608675163
12974.755151024954,783.2457438348803,29.94068430990454,0.14091259390882754,-782.6721371871162
12974.755151024954,638.4738125941578,20.19564496435868,-0.030299299789997302,-638.152950241432
12974.755151024954,30.227619173023296,17.941848028936008,0.0826144319829293,-24.290651533648056
12974.755151024954,13.331980317038072,10.585064015314904,-0.04258885984350639,7.996238619012901
12974.755151024954,405.5608037128105,31.683135856847265,0.20584979206996648,404.3191135269492
12974.755151024954,80.54880735758968,32.37257513463358,-0.007453882779514813,73.74530640806796
12974.755151024954,21.37449221388167,20.75459671983056,0.04724654207950375,-4.9352737573865335
12974.755151024954,154.63540960756035,40.19005826973621,0.10536733372291035,-149.31544309077935
12974.755151024954,41.33289591203972,37.35120850214381,0.07636546006133721,17.65030320189993
12974.755151024954,244.64772100795523,95.69404307612393,-0.11107891393179532,-225.15192360382733
12974.755151024954,155.4228960368436,23.11306491646214,0.05604169751682133,-153.68898213233322
12974.755151024954,384.31744791673725,33.45480239764794,-0.3884820693202605,382.8560690107285
12974.755151024954,27.01401993388746,13.400809298854933,-0.13313783556020103,-23.41797139674003
12974.755151024954,595.3586827204225,22.69550282612478,-0.2540045707453369,594.9244105351887
12974.755151024954,68.24970435541532,20.198477909767263,-0.09697264190045339,65.17881371990873
12974.755151024954,17.44597115027436,7.606563947766942,0.34367637181162175,-15.640572487405823
12974.755151024954,1105.547600107867,14.746983902819021,-0.22323856858780167,-1105.4484231575316
12974.755151024954,2.010921081926027,0.5493445363232207,-0.13411823647119817,-1.4026986042597407
12974.755151024954,47.402898549087766,33.480322227350236,0.22006510368805499,-33.53055192888485
12974.755151024954,199.37109744363235,34.381918923262084,-0.12387116881041438,196.37959753972336
12974.755151024954,44.39176878396256,44.23337232027177,0.005597952423781025,-3.504483486269662
12974.755151024954,86.78385918630201,20.609080833219547,-0.002176533953414675,-84.29085077657017
12974.755151024954,139.7288692405612,6.773076645170945,-0.11683888620303595,139.55827531026875
12974.755151024954,425.3849560415255,33.439815713888194,-0.049057437166721826,424.0664814291944
12974.755151024954,45.80628357605854,33.494914326917296,-0.24681878598176815,31.21680535652627
12974.755151024954,33.82063657600186,33.68497659653826,0.1179221890678111,-2.717982956456785
12974.755151024954,43.79177345105881,23.223045575298922,-0.023554535695145998,37.10326870072092
12974.755151024954,222.73365103823352,22.553933140210177,0.0034006421132627405,-221.5848436154011
12974.755151024954,119.58088551346843,28.361149116020176,-0.2858825747341458,-116.16107437112993
12974.755151024954,366.9166963767115,27.576200985143977,0.34973245367110556,-365.87639502068913
12974.755151024954,89.90061646741394,34.70705818919869,0.011564118165006526,82.92034940978847
12974.755151024954,72.23875494304777,27.123920970931817,-0.04885042231120147,-66.94006100548603
12974.755151024954,109.4845306309771,16.250625259525815,0.163188824724863,-108.26355121861148
12974.755151024954,199.00465520712063,19.952939834838638,0.08684138363612255,197.99739637561896
12974.755151024954,198.50657786814958,37.84516467373835,0.10539137359027788,-194.86107201618623
12974.755151024954,507.4485235685782,22.37567680544877,-0.108312910461581,506.9532177180051
12974.755151024954,29.996264813133305,29.96539872438318,0.18388378814459835,0.2459586924904453
12974.755151024954,26.496311939776913,24.5930049460641,0.20507173455204658,9.769346273631578
12974.755151024954,153.95703685575035,15.924423808699721,0.12909485442947216,153.12546746109854
12974.755151024954,206.21526396366644,25.436443212473627,-0.048308237128086906,-204.63617383423448
12974.755151024954,38.64063475086475,33.467833158279426,0.0909911767290804,19.267538637373118
12974.755151024954,42.08662569905336,32.069424740760184,-0.12904749190575276,27.222471106998537
12974.755151024954,19.706329203103692,11.901312554601786,-0.1629501264807774,-15.64976499161107
12974.755151024954,938.7174122297305,13.267409256123344,-0.29796368222049696,-938.6226667939858
12974.755151024954,32.58687211971476,31.36738912322595,-0.15625493515987113,8.729847961540218
12974.755151024954,56.41615041026992,37.61639392264435,-0.011267894762755562,-42.02418750318431
12974.755151024954,40.35585425418501,28.835639677515005,-0.21612076370136105,-28.201022600016504
12974.755151024954,66.42250809063366,43.074451579101975,0.1639480110138433,-50.54461247410231
12974.755151024954,172.95665068043238,52.60810962564007,0.2575592045567424,164.75608336678644
12974.755151024954,172.1481592864478,21.056635081163414,-0.13654996511297793,170.85031971224274
12974.755151024954,48.59369898282311,26.236048334905803,-0.10367001293570674,-40.880926212938554
12974.755151024954,38.62778197841862,36.39581623272057,-0.11410440799535547,-12.87169796133954
12974.755151024954,13.456597129886433,10.76316026005203,0.27912839148562524,7.9624118061785225
12974.755151024954,15.425940739961531,7.927927022128402,-0.13838786912653436,13.16556100361431
12974.755151024954,24.09419791686249,23.863863142880867,-0.015914954078850338,-3.04789808993503
12974.755151024954,75.45006521359305,43.62497029733829,0.17232179950230506,-61.54500905343025
12974.755151024954,137.3157859250947,22.23792484882273,-0.1380550330092095,-135.49658383276682
12974.755151024954,507.18540103708324,19.961238380325458,-0.0958492282291439,-506.79070071114546
12974.755151024954,1880.6769370096854,23.03146833153602,-0.14462240899739034,-1880.5354331886126
12974.755151024954,31.56252642314052,20.543346360685774,0.08309093836385224,23.924895345850597
12974.755151024954,27.88706280609329,16.646862798989687,-0.200656155733147,-22.33323744796915
12974.755151024954,196.24278503336194,21.4182005686603,-0.13173574707724234,195.06593125054277
12974.755151024954,140.0652415708449,23.777281193812318,0.25329789807752046,-138.02569384865245
12974.755151024954,30.01696966147204,18.948486996793758,0.016037039306815742,-23.24255962455601
12974.755151024954,100.33055567050812,19.415751905530772,0.004406709131181465,-98.42506025689966
12974.755151024954,40.14774970818189,25.781595342227163,-0.08495655780153223,30.747153649099886
12974.755151024954,45.93109566267096,39.61965058327922,0.12428714788962586,23.1986403919446
12974.755151024954,35.653681157810524,33.67220700393242,0.13841500620818023,11.644390227521312
12974.755151024954,67.47247372970119,25.611683530280324,-0.2782887670741624,62.40787178080745
12974.755151024954,315.6065824361702,16.30796115955588,-0.34683412659420826,315.1819926849308
12974.755151024954,1084.3914425331711,7.326715871212711,-0.17755007416098248,1084.3658662446837
12974.755151024954,385.34835430524777,25.34598785556556,0.10748276562125292,-384.511595455509
12974.755151024954,252.70818628245783,29.603589112044283,0.2155531120168891,-250.96464290733897
12974.755151024954,256.64298998895276,15.767627547284627,-0.02789304310357557,-256.1547364014094
12974.755151024954,26.409725000916588,25.958946933116756,-0.15344582766157036,-4.671897903768851
12974.755151024954,16.228642873653882,3.741128026376102,0.22983771161926891,-15.734151141220735
12974.755151024954,155.0996070551176,5.434625320839284,0.08955725975619405,-154.99867245453686
12974.755151024954,25.601240514017647,22.194994120125816,-0.3577030121356565,-12.685477023623044
12974.755151024954,299.6771913529411,41.46209452864268,0.12447546030003055,-296.7920850818676
12974.755151024954,60.69121552211647,32.235441297641444,-0.0014567151612505985,51.40567566596012
12974.755151024954,554.2570672753036,13.26889422175227,0.10900236804925016,-554.0966203796353
12974.755151024954,52.13832813358792,36.83960803041457,-0.2844961358747473,-36.87019296908238
12974.755151024954,130.6112722205892,33.73155310484168,0.05802726071246865,-126.17340019176277
12974.755151024954,38.002150325291424,23.3939820218918,-0.17159624208636703,29.918207100906837
12974.755151024954,715.814198005023,22.674611857117842,0.18467241477510465,715.4537283889854
12974.755151024954,392.1504593556118,23.666530861209445,0.04589414041472974,-391.43341644580914
12974.755151024954,24.541985714769357,23.100218673367756,-0.0959433278822538,-8.180665122223857
12974.755151024954,14.706881193296494,14.577269794037395,-0.1797748613571376,-1.4166042786915025
12974.755151024954,40.013061293685,37.997334351547195,-0.032498865918356705,-12.469568035430806
12974.755151024954,5.957607074418982,-0.12364845231242494,-0.11635209287464615,-5.805840352738914
12974.755151024954,212.71111874842416,16.676403803494807,0.2132340989569744,-212.05215314517704
12974.755151024954,838.2068589646069,20.704872174123324,0.04408705747223904,-837.9500511765569
12974.755151024954,73.91144138687454,13.948283383914667,-0.12318587477096184,-72.57117134692851
12974.755151024954,34.071398812154506,25.8506332848753,-0.2743562587597954,22.153402251768476
12974.755151024954,35.4134780880787,29.134072322080918,-0.17813964604610408,20.08810726252464
12974.755151024954,18.311749490002086,6.178326253625959,0.00758619137760333,17.186969582670706
12974.755151024954,92.77786739706534,13.25928498983934,0.2712709794523973,-91.81554323347963
12974.755151024954,12.376264918807921,3.608873870203815,0.28369478261498376,-11.760570007333522
12974.755151024954,24.44778809720601,24.187879726480457,0.09664726987545552,3.2977270029566115
12974.755151024954,687.172925636041,23.40124518772543,-0.15975360317458973,686.7730552784842
12974.755151024954,67.2664459523589,29.061640511870056,0.10958659976308636,-60.650039732016694
12974.755151024954,539.2091109628868,6.3515853183781825,-0.2602512326771227,-539.1700089076946
12974.755151024954,300.82548349893705,34.0435691270045,-0.29462505240864095,-298.88988548701377
12974.755151024954,443.9166031429927,36.83470845464683,0.09943269985247077,-442.38375697928853
12974.755151024954,51.366794779894136,25.906447818356213,0.20276967373503582,-44.335155111396176
12974.755151024954,28.97517175632915,28.814213482258786,0.25522741211770933,-2.7349708541946995
12974.755151024954,45.65887913041458,12.540769861189405,-0.0674061452744996,43.88281347000977
12974.755151024954,338.3487832826074,2.4856692227936397,0.27274415967727456,-338.3369470437077
12974.755151024954,17.70191786584362,12.596386642320429,-0.002577378721859502,-12.366586430416596
12974.755151024954,173.38886258022274,12.741705672867786,0.3515008461434778,-172.91462221993294
12974.755151024954,73.03810390238635,18.421277791135857,-0.15821034590100316,-70.66427416015563
12974.755151024954,401.2114649733031,34.97551912239378,0.06576120547711575,-399.6818633494702
12974.755151024954,60.469806446058634,16.47840586535986,-0.20235351551679392,58.1658165223581
12974.755151024954,136.0039409717371,38.73511529908423,-0.08471296107209289,130.364485782065
12974.755151024954,16.98316921841769,13.434960815228855,-0.1399567266685562,-10.303096796931273
12974.755151024954,1163.3042936926056,20.56718996620544,-0.15316675628962534,-1163.1217006347138
12974.755151024954,1163.6478874014917,20.837469299493772,-0.019158951456814507,1163.4605489173152
12974.755151024954,44.887630444694224,24.474651754543306,0.18282118361184932,-37.60453286168694
12974.755151024954,21.74863915668056,18.230139801996653,0.040784570301655484,-11.785888659052471
12974.755151024954,266.47474791578736,34.578184996447604,-0.03393209213740964,264.2184376129808
12974.755151024954,165.24481284643912,38.33866686470728,-0.017496019434609822,-160.73032699673882
12974.755151024954,99.44608472490064,23.297531418582537,-0.011049092471781074,-96.66949985247379
12974.755151024954,997.8677236853638,17.518289280621552,-0.07634287312778856,-997.713055548715
12974.755151024954,168.60687790710492,27.25832014933366,-0.01761446383811234,-166.38361240472597
12974.755151024954,173.84426542241437,16.47438754392187,-0.12491961753729257,173.05678575917875
12974.755151024954,482.332165636528,32.40585336187359,-0.036227000588533884,-481.2405021296668
12974.755151024954,39.7839712120701,27.049626016783776,0.1471034731319849,29.142820474702667
12974.755151024954,24.30097106402463,16.121044433802656,0.26328544898748424,-18.133486390870193
12974.755151024954,44.87126547641322,23.381161512277174,0.10709739892529892,-38.27510690822829
12974.755151024954,76.71893362602194,76.13759723069101,-0.06963382778801329,-9.332724290294891
12974.755151024954,339.2369971429535,33.306021255156246,-0.20198363804504949,-337.5953967521282
12974.755151024954,28.972117439663645,28.94160925999383,0.039085818557980954,0.09402965430882881
12974.755151024954,519.9247611182471,33.52586454770762,0.11852631911270915,-518.8410191075917
12974.755151024954,38.887008240143835,25.558624908389636,-0.15311766081710945,29.277571356600006
12974.755151024954,32.01297037150156,31.614550844641766,-0.15680856682224595,4.854831085544406
12974.755151024954,4.72255122922457,3.8997958657214147,0.3247448521537433,2.287389340919537
12974.755151024954,296.904721164445,24.31561349130338,0.25957289228120184,295.9042759729733
12974.755151024954,69.56344113124042,28.756103306040984,0.08776113489657862,63.327677121087035
12974.755151024954,205.61714601533515,27.24204863430012,-0.14248531542147483,-203.8001588481485
12974.755151024954,29.828751911080904,22.42517619651974,-0.12057588209769537,-19.623835035031085
12974.755151024954,41.10699297988288,38.7311166768252,0.0004768534698851636,-13.708719833905155
12974.755151024954,36.15524465285496,27.43096677929356,-0.2262688663115209,-23.514593484872915
12974.755151024954,132.81789005148545,19.850811392313023,-0.33353307309906877,-131.3189608829663
12974.755151024954,23.94133095159867,17.401254713367997,-0.20483215768949423,-16.388570188373382
12974.755151024954,50.96434879471643,28.028865763539255,-0.025291816498258967,42.54398217492844
12974.755151024954,291.17662305314997,27.1875297591557,-0.1370206619068301,289.9015156746632
12974.755151024954,1274.8875533443597,22.89733219770005,-0.23472744080156466,1274.6812049608805
12974.755151024954,31.64341847443163,21.431414190818895,0.15523037563908035,23.242629992271667
12974.755151024954,225.37728085580994,17.965877781486263,0.13131254331662576,-224.65611998210264
12974.755151024954,18.283758925487803,7.311878826672208,0.1030284094282022,-16.70524410219343
12974.755151024954,65.63589042006556,14.615055851953398,-0.024269009231039,63.97431665592004
12974.755151024954,79.33351946891116,28.5392800154167,0.10298580504891197,-74.01047039674388
12974.755151024954,55.00534845814963,16.014792203246188,0.2217136270971754,-52.60521988980247
12974.755151024954,566.6692527411728,28.215014108241498,-0.0689970972880166,-565.9648343734876
12974.755151024954,104.05779980368031,33.24953893176464,-0.1585586230818245,-98.59367244843111
12974.755151024954,41.96072680810925,22.550726610467354,-0.05002100013143955,-35.36111350624982
12974.755151024954,17.853654213748836,9.017982995604603,-0.06577218190865704,15.35148697660213
12974.755151024954,40.310277970601376,21.878070315608124,-0.009000836489943154,33.830636931855125
12974.755151024954,895.382668603756,34.67792262714142,0.09175183910568092,894.7098971324432
12974.755151024954,68.06852065696246,14.439647309108908,-0.05034987519085705,66.50609807982674
12974.755151024954,88.13152272717402,28.920176769998072,0.02155857460155807,83.24080571407221
12974.755151024954,158.80114047346203,27.216374124098806,-0.07923245777188458,-156.44586426085075
12974.755151024954,211.47344274175558,29.5899928793815,-0.2046435649146403,209.38875555854872
12974.755151024954,525.8525142221763,44.561752128615396,0.22703816910296945,523.9592626737114
12974.755151024954,12.316755740721044,9.514682339080817,0.2801353054089859,7.7031385208388805
12974.755151024954,241.32304954538074,16.16065708635651,-0.18476788179587766,240.77760857718255
12974.755151024954,174.26819490420388,28.8837387042558,0.006053916834404194,171.85277677093714
12974.755151024954,220.4476845402816,17.76783694266076,0.029635222087619612,219.7264850631388
12974.755151024954,26.600705937472306,11.734587123657006,0.2760622428601927,23.83410031750401
12974.755151024954,257.4560238087208,20.818166565557572,-0.33834855224097937,256.60930845041474
12974.755151024954,20.744651000399,4.22188157060501,-0.345960964945935,20.264256686108048
12974.755151024954,40.67073438635507,28.79775151351637,0.1927370721307781,28.688055399588116
12974.755151024954,333.945849466456,14.032439676249696,-0.220748011392254,333.6481916777287
12974.755151024954,49.195006350204125,41.43257376470078,0.28540353096385757,26.48872501181147
12974.755151024954,95.71130211207351,8.703192895719424,0.09499223703881816,95.30552076758727
12974.755151024954,331.25513611067316,33.03784124697959,-0.17688279245299376,-329.6007865354925
12974.755151024954,40.73789649988757,16.478546638934745,0.21745159981013867,37.23210917478816
12974.755151024954,126.54966462157584,26.04265210893307,0.052111047802273665,-123.833915783612
12974.755151024954,27.224624884068312,25.437621352930748,0.15056388860570294,-9.60877085772166
12974.755151024954,13.974059126525624,13.811542415789074,-0.011308782612115504,1.6610308779577796
12974.755151024954,6.743768704904967,4.204115958231185,-0.1962554055829736,5.09988588778033
12974.755151024954,841.2585841035848,41.609942560526974,0.32465528869114707,840.2278001434604
12974.755151024954,584.2297859941661,37.22620632844227,-0.1624970279707161,583.0410530372583
12974.755151024954,75.39240012597398,23.379275832260085,-0.25648592655891916,-71.66310906024896
12974.755151024954,100.50398638863348,22.52751027899834,-0.11581352772755621,97.9376979245512
12974.755151024954,175.36267118972043,27.863259830343445,0.29510491258164095,173.12960936364684
12974.755151024954,4.905885750358466,2.1978009816471977,-0.26458384357608616,4.172638029827099
12974.755151024954,61.509683503181165,13.242449424452738,0.2030620486636168,-60.052318777914984
12974.755151024954,24.583363699777408,24.07960195701719,0.10447326525935972,-4.7693975113837475
12974.755151024954,335.6901540951502,65.18474737121699,0.01644143986454801,-329.2978462169969
12974.755151024954,20.824068485319547,19.201519647348697,-0.13247046940288332,7.94792111096333
12974.755151024954,20.443888057977563,16.36420623731029,0.14208864379277594,-12.18148803984134
12974.755151024954,172.85764980325735,3.4119545062783145,0.2662435119977379,172.81868620968788
12974.755151024954,290.46095970385545,22.02652130077752,-0.0885100550310133,-289.6215412643522
12974.755151024954,15.569427305664728,14.058988192406844,-0.1112530220407197,6.556147290507612
12974.755151024954,3.3578369631912435,3.0807898652088546,0.15589407560549742,0.05501647563141934
12974.755151024954,24.031189598692716,20.490444126416037,-0.035828185149909444,-12.485271974181748
12974.755151024954,89.22311199476864,24.72014022831655,0.1681945110010728,-85.71985545150821
12974.755151024954,301.69912312888164,33.88487443791956,0.21130134489590152,-299.78721630466794
12974.755151024954,143.1194235080008,28.060194876073584,0.016662820901339866,-140.3354484726766
12974.755151024954,21.194139985910766,8.673882759366183,-0.05227838379966484,19.29238506476944
12974.755151024954,68.07113219060281,26.348174411028307,-0.10787599208060665,62.75097316045774
12974.755151024954,625.9439549876018,16.926170762565164,0.2154452098637521,625.7136219062971
12974.755151024954,63.931100920917686,25.221556652289934,0.28634811621227,-58.730062801344204
12974.755151024954,254.80316949593103,61.746209633091276,-0.10778772628099983,247.2049608924185
12974.755151024954,25.105090812561432,17.670039787896897,-0.3117093506608301,-17.78149720297499
12974.755151024954,734.6229536178512,39.183306321294815,-0.1731351348638133,733.5760124479735
12974.755151024954,9.892252995769066,5.002244809732091,-0.008995740171145452,8.430756915607828
12974.755151024954,41.06800585843028,19.362289519026696,0.1133747114242628,-36.192727485530334
12974.755151024954,32.24421154003742,8.398908862977512,0.16363992507422034,31.10247991113573
12974.755151024954,430.42080472382315,39.40966397438703,-0.05693151579762307,-428.6107649257418
12974.755151024954,24.855643746817815,24.246601022375188,-0.2203128227248471,-5.300976710778991
12974.755151024954,24.26433920676191,24.18110744522344,-0.037858487034539784,-1.5080760908926742
12974.755151024954,53.44077899839979,37.858619905348974,0.06795777302482127,37.694570795497995
12974.755151024954,52.254391972339995,27.8905108389993,-0.14694986815729727,44.16857274321259
12974.755151024954,272.2359314884844,23.929126511239506,-0.1923556244256508,-271.17891847269993
12974.755151024954,1057.0907818899757,25.20803181870419,-0.24699884836403302,1056.7893161870318
12974.755151024954,31.428616162006048,19.537655548545914,0.11927679980641105,-24.581847560094193
12974.755151024954,183.35105061558244,20.99220554879012,-0.17412678665181688,182.14046303552377
12974.755151024954,746.4684402384557,25.040047951217716,0.31393006829268744,-746.04709854368
12974.755151024954,34.01688512005104,26.00933187848974,0.0452735358209008,21.883889181539043
12974.755151024954,18.862387432781883,12.295567305298587,-0.2610905181544781,-14.2402262251753
12974.755151024954,30.54648891840347,25.338710879128783,-0.0893213186172009,17.008035301753917
12974.755151024954,20.43025879766379,17.226790847483798,0.27458211479891853,10.8996001392895
12974.755151024954,10.385834337875483,8.876552170858247,-0.09196569304725079,-5.225652654045003
12974.755151024954,95.6655387718022,29.711540821906695,0.08590098399330866,90.92500095356563
12974.755151024954,371.195173318798,21.78039965052249,-0.31196933962740614,370.55312316625367
12974.755151024954,35.96200950255774,34.48700653823428,-0.28450364087805585,-10.103221865809225
12974.755151024954,605.8394609306084,30.632585617657817,-0.19341039480967728,-605.0630572414613
12974.755151024954,156.3835529444965,23.127190320043873,-0.03678464135789594,-154.6583036025947
12974.755151024954,10.384490174250255,10.094550855601929,-0.022069846128501408,2.044680665105999
12974.755151024954,11.968747909612176,11.09619069152754,0.2255432576830269,-4.279969135124356
12974.755151024954,197.89438244132185,17.4582473302498,0.02377560303871595,-197.11833796886143
12974.755151024954,51.157408981517975,16.79292356763373,0.3609548806153893,-48.30312050194756
12974.755151024954,206.9742185366789,15.011728786814029,-0.08777395107099548,-206.42483125905946
12974.755151024954,204.58756794181332,34.96575837884036,-0.2968453537869436,-201.5728754249246
12974.755151024954,54.92298042224523,13.108286253581781,0.02733874136123309,53.319315350511694
12974.755151024954,50.20749857678694,16.638196978963048,0.2549322996511128,-47.351260289959356
12974.755151024954,205.9116663039249,27.922498055504864,0.21085826455877377,204.00526338329877
12974.755151024954,111.90594207165724,28.870365875676118,0.1923062843180475,-108.10942785132255
12974.755151024954,74.38234611099682,40.67974474168253,-0.18502072687491566,-62.25834140864904
12974.755151024954,97.42966377619629,30.488153926260832,0.015088575300751991,92.52705092535791
12974.755151024954,70.13651069282143,23.369023500609835,0.01891261121752881,66.11552043206599
12974.755151024954,20.54143835661293,17.643420394930338,-0.15533483664994413,-10.434548601276814
12974.755151024954,16.93124228667066,15.964951501334095,-0.1740520507007075,5.477273200347204
12974.755151024954,138.1003100147965,46.07482483451852,-0.20924060037073383,130.18066633690307
12974.755151024954,89.05259988949715,27.458003982196708,0.13759549282104847,-84.70329485191523
12974.755151024954,29.87634570175863,17.943179409809744,-0.21366558035084557,-23.85028760991667
12974.755151024954,23.86995156160068,21.379606772553437,-0.1996983008421394,10.530462919092916
12974.755151024954,5.588806329230784,4.0660336071744565,-0.21713363593613913,3.5914491187712922
12974.755151024954,363.84365621116973,33.4456686359103,0.2531188481623714,362.3006663978897
12974.755151024954,716.4904521852939,42.18967799085328,0.08211040259322211,715.2459967930574
12974.755151024954,37.791246072276365,31.321245909123405,0.05063786968444542,21.104473390713114
12974.755151024954,290.4670201608683,37.92214431072522,-0.17543199993504438,287.97780039878387
12974.755151024954,309.8817134488259,29.119470887386512,0.09403456241325717,308.5076456582844
12974.755151024954,1088.597929054887,23.517589442067887,0.09347983012483338,-1088.3430566314291
12974.755151024954,33.96193161922975,25.368695311692182,0.2682673953824365,-22.539158302694887
12974.755151024954,126.70258675111997,28.388969651458652,0.21819951125189752,-123.47391549402056
12974.755151024954,24.546628373440402,7.8276753327480755,-0.23375378437162175,23.226135052022084
12974.755151024954,600.2631467506415,22.031833476438443,0.015605027618759882,-599.8572221320915
12974.755151024954,35.15301852803627,27.73515121334936,0.16942835876174994,-21.55715472259624
12974.755151024954,306.5863623848718,22.72806666866115,0.07573087120304368,305.7398737123204
12974.755151024954,65.54240468582722,24.691712703970946,-0.23874748637781845,-60.6985392104345
12974.755151024954,62.67066321961266,21.594773444848336,0.3864743270679335,-58.81642587529356
12974.755151024954,5.694083014214353,2.6581212837002037,-0.3162327565206408,-4.847731052276699
12974.755151024954,66.05453115221731,29.53062781399233,0.16652422204739714,-59.07079568815526
12974.755151024954,8.595064475982921,4.980095209331376,0.16894076924584697,6.876683136977076
12974.755151024954,905.7593422780609,33.59657440670006,0.05937614955015436,-905.1350707565643
12974.755151024954,319.0875721751603,29.625370945529628,-0.02945538392716255,-317.7065607951084
12974.755151024954,490.27730252371066,38.19344141014611,-0.2955962499671613,488.78548521097724
12974.755151024954,146.86138524464278,43.993042147787484,-0.13337514932837655,140.11104330681974
12974.755151024954,377.70545519701056,26.06173549407064,0.012841480251645896,376.8029195622189
12974.755151024954,569.4007783451365,16.959302494969783,-0.1537645463290036,-569.1465965129662
12974.755151024954,305.8378297903917,19.312656701456167,0.14057890645609897,305.2245455177171
12974.755151024954,247.9666367129353,9.518457430050809,-0.091208241293658,-247.7803202411997
12974.755151024954,46.18885541443353,17.467913432665092,0.08382478947880521,-42.737792000834965
12974.755151024954,93.8927553933071,18.613597851936117,0.25415126286667633,-92.01935896531221
12974.755151024954,139.00460286391564,18.637174843181942,0.049505818918535185,-137.74315375833044
12974.755151024954,116.92119727150178,28.80545474894649,0.014959513388490588,-113.3095558689486
12974.755151024954,126.32490883194257,12.282971917465064,-0.3545712397370643,125.71884901798506
12974.755151024954,737.2877566424687,24.93663767707885,-0.30612820318136774,-736.8646755060709
12974.755151024954,758.5476455988446,9.22094644195338,-0.15418773713245748,758.490424819789
12974.755151024954,156.7276622461921,41.42547673084088,-0.09082048525949467,151.14802436458137
12974.755151024954,116.22154566618758,10.284908979594295,-0.3359600382310135,-115.75750075943024
12974.755151024954,35.41482702362176,28.60051930657775,0.10491322020910686,-20.843531097703895
12974.755151024954,313.4455234904661,31.71206019845344,0.16399649711149952,-311.8343439492008
12974.755151024954,139.2655998850284,33.173407406300186,-0.14149859757328456,-135.25034512871653
12974.755151024954,427.4214321110087,54.03247934622933,-0.18001604590067302,423.9903099419204
12974.755151024954,81.32238721231363,24.611381688517238,-0.05495504727842676,77.49742615165982
12974.755151024954,32.11741930595825,16.46874099007835,0.1451571624850053,-27.54145329085291
12974.755151024954,41.169909874179126,13.280452918428551,-0.09672356719268785,38.94644041216839
12974.755151024954,46.79073274288938,23.68962760460391,-0.00568312727003708,-40.32886942590078
12974.755151024954,38.209355007349494,14.186254790016958,-0.10342736440493641,-35.45331881204179
12974.755151024954,898.864946176773,46.425127588715235,-0.2487076414137794,-897.66423603993
12974.755151024954,93.2314219135788,43.62804373678246,0.14144873557359627,-82.38273697129722
12974.755151024954,843.0989186701378,29.197229122531347,0.339481756718675,-842.5920939300086
12974.755151024954,117.0480686617775,20.368956761271605,0.0289734807698075,-115.25449520667142
12974.755151024954,179.10939078373022,0.9551239724805196,-0.006818281249103148,179.10194048509027
12974.755151024954,295.8708557707556,22.769951867563584,-0.2322505211495012,294.99030860870846
12974.755151024954,90.52250542025061,30.07639823997266,-0.25828042801057555,-85.36926305520021
12974.755151024954,104.06128128774199,32.629394440009555,-0.10750563429912252,-98.80437668019076
12974.755151024954,2817.0122305101136,20.382438325501866,0.12955457539428122,-2816.9381764238246
12974.755151024954,982.9240066732663,33.71989679777544,-0.05252094279804467,982.3445486299715
12974.755151024954,13.03118784168472,5.783101827608707,0.047273679854903244,-11.602106787716334
12974.755151024954,1583.058708910664,29.748837079445067,-0.1424385717100987,-1582.778602896966
12974.755151024954,220.86148057216212,39.032461950001334,-0.026409087631515834,217.38100962160178
12974.755151024954,43.529104986080334,20.690440333874974,-0.3147962568660622,-38.27313796768992
12974.755151024954,415.41726929484054,38.80007818191754,0.07676950339748519,413.599201153484
12974.755151024954,335.02107832956915,32.361428644879695,0.2028789435342203,333.45174047859086
12974.755151024954,14.598690925778495,9.526597323343102,0.1409866234543425,10.981319130909835
12974.755151024954,15.511734216505705,15.443262157007775,0.1963957854647074,0.5696559896088063
12974.755151024954,151.213046315603,16.298901475984,-0.22950325759962562,150.32605243893425
12974.755151024954,1174.3540674934377,24.61385450338738,-0.20468845513154635,1174.0953264681714
12974.755151024954,14.534161628215593,12.247657573548773,0.042695048949266276,7.712226800774415
12974.755151024954,137.48167709884126,17.258170215136875,0.26932374774456813,136.38745576610748
12974.755151024954,399.86454788106147,27.25551444111238,0.02144911087787435,398.9323710248509
12974.755151024954,128.0579434494725,34.3607989521424,-0.05761697958292473,123.35482391483525
12974.755151024954,185.05787111256612,17.13687860170569,0.25909787545647656,184.25775274786693
12974.755151024954,70.13652465972791,44.00334864844104,-0.2682527254366849,-54.598616891284486
12974.755151024954,31.51461983289427,24.96461473163448,-0.03226461578501169,-19.18806296646641
12974.755151024954,40.14077691639927,18.175252337049248,0.08443247866697853,-35.765605992221964
12974.755151024954,288.92269763540287,47.32548547499187,0.056203337912242426,285.0173047405318
12974.755151024954,145.2417314486013,16.627364138551062,-0.1610122019147575,-144.28066023539012
12974.755151024954,135.7473361561051,22.37857059590536,-0.14783923246416736,-133.8833840400728
12974.755151024954,151.24452104402278,25.30726285926445,0.2302791173329802,-149.1061302925995
12974.755151024954,206.53564907676946,33.873526935231325,-0.19684147416981845,-203.73454123653715
12974.755151024954,255.61441265810151,37.937576770753864,0.16409642926549578,-252.7799138115386
12974.755151024954,79.32850232435325,15.81782109694944,-0.24588656246347265,77.72381156033087
12974.755151024954,608.4021376192442,33.01573396297639,-0.2542378065507818,607.5041574018954
12974.755151024954,455.63753731076713,32.7225963476878,-0.19231991004095353,454.4590230536047
12974.755151024954,545.6649147107998,33.511517534765154,0.04740771661700689,-544.6332882025004
12974.755151024954,1065.4783564531558,29.49722439148265,-0.25523973510211034,1065.0691152234635
12974.755151024954,35.467144614782285,12.969502742626057,0.28812642317006,32.98288731746762
12974.755151024954,41.326814912436234,34.71064075905199,-0.1074163320236358,-22.389931610704277
12974.755151024954,16.71999828312205,15.12762715147917,0.23490751771591442,6.9929668030926
12974.755151024954,39.066550263823174,8.36651294727668,-0.020242307668471963,38.13712007697297
12974.755151024954,272.12707587019275,7.636973294122427,0.1500083833721333,272.0166228099838
12974.755151024954,51.18135833736566,11.617625369327385,-0.06072598612335365,49.82772382206515
12974.755151024954,507.3144434157439,25.563134792662233,0.03415477036479213,506.668247473776
12974.755151024954,651.635019997385,13.41531904746512,-0.017161977727878364,-651.4955653987304
12974.755151024954,36.348790712906705,34.18265732140033,0.14999501824883676,12.28826892326617
12974.755151024954,1323.3310100811493,17.38403524912499,-0.18058862428507108,1323.2161457885475
12974.755151024954,201.37276089560152,38.068839635092225,-0.1542729298607855,-197.73712854776525
12974.755151024954,487.6345832169524,4.728872618115183,0.2787007563385083,487.60977263147487
12974.755151024954,185.05220821954003,21.477220795193084,0.016829392440227117,-183.79687700696024
12974.755151024954,33.52886149301214,25.470920976793078,-0.17718967418855106,-21.763016066908456
12974.755151024954,209.28064409842563,34.456459723412614,0.21759366154722348,206.4202910507511
12974.755151024954,56.0968985909908,25.174419233817698,0.216313462184463,-50.112946262932624
12974.755151024954,31.44954531761995,31.420793004713826,-0.043361663981041215,0.2220682409848097
12974.755151024954,51.915090917333195,32.74454152236111,0.02333671884620771,-40.2643098505425
12974.755151024954,37.516092771023445,32.23250218619215,0.298688826973591,-19.14882062956872
12974.755151024954,1841.2545599183816,59.89013688457318,0.18112268643453652,-1840.2797984669753
12974.755151024954,334.500830984153,25.35586310136115,-0.0025235022062173144,-333.5357996617506
12974.755151024954,23.801519751146728,20.593317152800616,-0.2632029205983649,11.857566454740368
12974.755151024954,66.68769213181302,26.524032535699163,0.07161270799777558,61.17158146092268
12974.755151024954,303.14007788548815,50.778376489400166,-0.3333334985881255,298.85380325034663
12974.755151024954,20.978562481151112,20.847196501957175,0.09328714566135766,-1.9311411627325565
12974.755151024954,16.186013963689376,8.762673159520855,0.07476741480954371,-13.544022440303435
12974.755151024954,10.44982324036207,10.044634396514518,0.1683490947407929,-2.5532941614840565
12974.755151024954,28.465204260668052,18.55247710340499,-0.2211377839822831,-21.546880792989118
12974.755151024954,71.97203017364059,32.09070511092417,-0.04594274885199466,-64.40808325793094
12974.755151024954,137.4556443498917,37.841275302116806,-0.0891415400094606,-132.13753300193235
12974.755151024954,120.69255718883102,11.299496894180995,0.12824379235827552,120.15507401331399
12974.755151024954,31.322442906375834,19.189726158710535,0.2673355565355662,-24.718857137308877
12974.755151024954,48.768025503201955,28.815361497236815,0.16452868232618487,39.32189861228488
12974.755151024954,10.506102185811978,10.007834003665959,-0.1695282646088574,-2.9045186793837736
12974.755151024954,182.957981093609,25.311519401351205,0.0022781264039352478,181.19380053730356
12974.755151024954,2167.0724307298233,25.147925143571953,0.11334657470675152,-2166.92610224015
12974.755151024954,302.29010918746127,29.954236715446303,-0.3188067121147971,300.7992614760551
12974.755151024954,310.55121879023505,30.920470029150625,0.3644904709719454,309.0050075627756
12974.755151024954,326.3827663324282,30.831122797335226,-0.13177893983713024,-324.9205721204379
12974.755151024954,63.07164353722634,29.63161681235699,0.30756234408863986,55.661013608042445
12974.755151024954,165.49734018557427,33.021882172358396,0.0961224073289462,-162.16398858462685
12974.755151024954,90.51032967395574,32.37774487073539,-0.2836297112129497,-84.5101443369862
12974.755151024954,53.72982604880311,18.883892580281906,-0.1128134731413244,50.28442709496543
12974.755151024954,96.99419004083606,15.708187409162246,0.3074639084709231,95.70409992700964
12974.755151024954,30.380352294676516,30.122675843945473,0.06589532667436696,3.718788815295028
12974.755151024954,51.62445690533718,33.32551539095823,0.21399193316038742,-39.40421689423816
12974.755151024954,64.54952570106225,15.7862102456287,-0.12627733088612095,62.57526999738959
12974.755151024954,165.1169005119309,20.0371722163187,-0.1310343944903793,163.89121062804293
12974.755151024954,40.46382134186387,13.587348876446836,-0.09540655434308555,-38.0911959983273
12974.755151024954,157.3531065204531,9.945396283223639,0.027630981340736636,157.03290097248149
12974.755151024954,5.642298543853698,5.34248003294139,-0.1471502902965323,-1.2309807655937506
12974.755151024954,646.2849247740289,25.337923434536332,0.26326868831223554,-645.7866271785853
12974.755151024954,34.8194478978919,33.9672703014777,-0.1183432541177471,-7.539762725189969
12974.755151024954,529.3642829386532,25.987407741146892,-0.00421847970938242,528.7243537034698
12974.755151024954,33.75355064096354,23.888356855674747,-0.1989226960298931,-23.808665318884046
12974.755151024954,745.3789136017148,21.133352687823447,-0.02756544850285531,-745.0780824942365
12974.755151024954,83.67463895045425,23.214490831598138,-0.14042771436161322,-80.37883070730228
12974.755151024954,47.549767396718444,26.79261530836514,0.022806469849341274,39.26040182146025
12974.755151024954,15.157532549245259,0.7235196265872558,-0.13449529652436348,-15.081536733509134
12974.755151024954,307.5599725359602,32.84820973333301,-0.2860900575248535,-305.7977983946453
12974.755151024954,41.5324487485186,34.516144672625565,0.0044975289831807085,23.061300107681248
12974.755151024954,48.60515599847615,42.67621994917399,-0.12267182137486436,23.22563064822495
12974.755151024954,65.74810525643322,38.17349600218043,-0.10686202243031254,53.51476109624613
12974.755151024954,210.0652432216494,14.92110303658304,-0.04680528919110918,209.53044750132352
12974.755151024954,48.05551145932452,27.033668281026358,0.04451002688798187,39.708368219354035
12974.755151024954,46.836516483912874,40.92647611736978,-0.2683119289935208,-22.734431256764804
12974.755151024954,99.67042484133121,22.233725597622964,-0.3005386731439278,97.1494119256756
12974.755151024954,79.9040445070284,16.45601037260882,-0.2162322118127434,78.17961896636452
12974.755151024954,7.474010058126634,3.6980071983119798,0.12365655033437936,6.357185309975656
12974.755151024954,46.58561948003405,46.29642644031894,-0.18741902281869577,5.0069194323606485
12974.755151024954,66.99844945628563,20.18669202570537,0.17374145169239164,63.87098743100304
12974.755151024954,144.28583574568032,26.095237675976296,-0.07565420264893552,-141.90024232115658
12974.755151024954,78.23509332864086,53.14235811387634,-0.24711509594176356,57.40036640357469
12974.755151024954,257.69914531366675,16.509617787766693,-0.006091745933528469,257.16633820483656
12974.755151024954,30.167044781484623,23.372429679592333,0.2420883600938857,19.025378888319604
12974.755151024954,81.38738027863141,26.703245157604346,-0.015045600918350577,-76.87057738302043
12974.755151024954,83.17987335878632,36.51434620971111,0.15263405461944202,-74.724922767468
12974.755151024954,18.729563563150638,18.479376111582056,0.16251372854169566,2.743415021178136
12974.755151024954,98.77673120475797,17.445974406373228,-0.09145434263964221,-97.21479191722824
12974.755151024954,129.56407501130195,37.0207415485647,-0.19311184748155838,-124.15522729003648
12974.755151024954,85.52088754380624,17.846770251458306,0.09658722710036055,-83.62744283832417
12974.755151024954,79.87515987586602,24.46429788298275,-0.02425745244723851,76.02487903812438
12974.755151024954,41.59167324662699,22.856550203057587,-0.20365448455381926,-34.7224343619196
12974.755151024954,27.982454231451264,20.780521932809734,0.220674335294885,-18.691775805166838
12974.755151024954,112.93602481648271,12.437738648898561,0.2396597122903769,112.24096600070223
12974.755151024954,17.512279749107933,14.526992217396032,0.0702526844844771,-9.689428805902521
12974.755151024954,51.59782436133145,27.46368544925962,-0.10539259328685988,-43.66135453310873
12974.755151024954,171.67314594406096,30.749519445286012,0.0727869813787978,168.89160524184663
12974.755151024954,31.178710433569307,23.81888751747611,0.22293167343011344,20.07402326632024
12974.755151024954,76.37427658837849,10.134432696386442,0.029647362824352427,-75.68729118056763
12974.755151024954,66.0441883313229,7.473926543713081,0.11900127239734157,-65.6064371838404
12974.755151024954,96.27514384237881,11.063166353553061,0.22973142664597546,-95.62792700081684
12974.755151024954,17.194751193732934,7.936977088240311,-0.28830564029328726,-15.192901963433567
12974.755151024954,71.96832631534078,19.848880218986857,-0.009188873898413547,-69.16433610717219
12974.755151024954,86.23704658301654,30.634112404266425,-0.1219761847387574,-80.60153850437405
12974.755151024954,191.05856132163356,15.444780380155496,0.14605405143128278,-190.42860816697902
12974.755151024954,126.05058068074881,21.204897219767933,0.1870097718615472,-124.24697090108828
12974.755151024954,66.87905653584784,31.16052269894921,0.2164540209201266,59.16102351048221
12974.755151024954,6.419845205092919,6.104421464470483,-0.24695223426810217,1.4604768170212696
12974.755151024954,47.52117783692419,23.874670395288614,0.12645418702101535,-41.066896556242106
12974.755151024954,74.76598005198349,8.646485803472833,0.12435695222350376,74.2523946996322
12974.755151024954,40.61846498168312,19.357064603043725,-0.10075010988125557,35.68469032701233
12974.755151024954,318.83301506583825,20.013322645344005,-0.17666610817386005,-318.2014624866615
12974.755151024954,1609.1508353938673,17.879726619170004,0.02976181343915237,1609.0509529116646
12974.755151024954,388.995384852444,23.052513576205847,-0.2340540224547106,388.309386700775
12974.755151024954,95.83245226732794,23.61002910140437,-0.25742376242144505,92.8687390530563
12974.755151024954,168.1716457447679,32.930270686374584,-0.18599636831470032,-164.91060801923683
12974.755151024954,500.4070902658433,23.726621641832757,0.011473970924476872,-499.8425220097213
12974.755151024954,16.4509280422856,16.336052344320695,0.15704393216168308,-1.4090036753125723
12974.755151024954,110.13220468482817,34.115997609580596,0.18234201217312318,104.70631067004592
12974.755151024954,146.3471665453265,45.317429907193535,0.017284611580156917,139.14764435875992
12974.755151024954,153.18829461385943,35.89062760580246,-0.03264290208101937,148.91863187023557
12974.755151024954,102.26057986737138,43.72584746622009,-0.14816331801581947,-92.43104474526237
12974.755151024954,127.57849357151144,38.67200795303623,0.1083790532457043,-121.5688266116561
12974.755151024954,289.06003656531345,19.259146557317848,-0.2089882997660773,-288.41461451149155
12974.755151024954,286.69666413907424,35.35199915068499,-0.2156857849495732,284.50555423587593
12974.755151024954,52.62762741613658,36.76823756646293,-0.20741841844950673,-37.629302122217524
12974.755151024954,87.74017609120632,26.44768555598738,-0.07234605159712881,-83.64865045052387
12974.755151024954,49.76909279803683,30.070273500428527,-0.05105323257255575,39.63561744206934
12974.755151024954,40.231378372726816,34.17226725626425,-0.3774816341919727,21.187755682219134
12974.755151024954,160.34419054916395,19.772774792961375,0.32052172703446186,-159.11454242957663
12974.755151024954,28.379541181387058,28.33176833124456,0.10832975177069015,-0.9700785809474435
12974.755151024954,17.041287443013978,16.94805685615106,0.22638590433033606,-1.1666716916156576
12974.755151024954,147.17899561582198,13.162760661203276,-0.055681156120137125,-146.583214962575
12974.755151024954,40.98986334302797,25.20793579818482,-0.34992289429466544,-32.293187370409086
12974.755151024954,45.70480021561496,44.49827971713878,0.22529157448179998,10.345271169409742
12974.755151024954,27.854295279906868,27.799222237902267,-0.1071067059515475,-1.1388869825853494
12974.755151024954,1049.4728922780037,25.289056074688897,0.1613921998173967,-1049.1673044603824
12974.755151024954,40.47830485278124,27.823199345861674,-0.19751540684588278,-29.369495339157506
12974.755151024954,62.67984134038777,13.933632985561779,-0.019021635688572708,-61.09713207143871
12974.755151024954,504.74519942788856,14.377274156746086,0.14825865264037286,504.53863269286944
12974.755151024954,185.50603808151507,14.371097441785857,-0.0118750945586736,184.9437890519683
12974.755151024954,268.2808376520239,32.72377864405891,0.0845977497912996,-266.2742919108875
12974.755151024954,66.32077372592927,20.907491521162054,0.042106268944747706,-62.92506320901206
12974.755151024954,111.82200224481834,26.21455003868528,0.16247937538932222,108.69762959540375
12974.755151024954,175.95721605075587,24.698420366200615,0.238059964173529,-174.2099789509714
12974.755151024954,294.36826720840077,33.42629263509305,-0.19629146695329533,-292.46121913256667
12974.755151024954,60.583431832995544,15.293659543298144,-0.19030965548154763,58.60600224865654
12974.755151024954,23.920225728912982,23.818562655209814,0.11539995767984869,-1.7559845413222002
12974.755151024954,17.55911231097933,6.887416347337061,-0.11026067532781758,-16.09712057136606
12974.755151024954,42.5472799061711,16.69161840926856,0.03325504314946837,39.113978617537015
12974.755151024954,25.232779058167907,7.8197043343714885,0.0184108858502724,23.95388384079314
12974.755151024954,21.311019792474486,11.513046079268847,0.19605068961012687,17.883356105512604
12974.755151024954,53.92945900807144,11.4266043995604,-0.1255969407707542,-52.688205635656956
12974.755151024954,9.87073033052294,9.28904008213112,-0.16179017715751132,-3.059804315089822
12974.755151024954,36.46098577211177,22.35317605093271,-0.05365448045332014,-28.77463556684033
12974.755151024954,54.134365323070384,37.011437326275306,-0.31720860109877536,-39.481969575691494
12974.755151024954,30.480776199092148,10.783750443658333,-0.359972910463556,-28.476347913125608
12974.755151024954,77.25468021427176,44.16020100229447,-0.09583168425625667,-63.37504718445765
12974.755151024954,38.595555405675704,25.74317086575464,0.22740927453937299,-28.72451675430935
12974.755151024954,89.10094264507276,26.002032736853913,0.1113303865128895,85.21210833112137
12974.755151024954,666.1124586415373,22.98537869349321,0.1515214754259588,665.7144286343286
12974.755151024954,301.42017158701776,30.935532746476984,-0.10534416564751517,299.8255244016814
12974.755151024954,564.217444116906,35.23961800495552,-0.02074969765882952,563.1143193571146
12974.755151024954,90.23131669731879,18.71254738220909,-0.31866457993277336,88.25912453216107
12974.755151024954,17.376895686302642,13.71634769870993,-0.08390760137449249,10.585593791222568
12974.755151024954,12.391584111993463,12.239526178637561,-0.2268049128977005,1.3919203124245745
12974.755151024954,27.927360955103342,27.734393230159714,0.006767433232193353,-2.9973994013059957
12974.755151024954,110.02787868217433,16.077268419762735,0.18570584699720716,-108.83870895822943
12974.755151024954,28.22778391325813,6.190966951923159,0.31718597453905695,27.506774307594572
12974.755151024954,87.06300520273706,29.740502460491385,0.03471898795198795,81.8151068557562
12974.755151024954,129.4508486010465,23.1173222381588,-0.1785826447343145,-127.36295870937037
12974.755151024954,38.59928777718625,38.48452101759794,-0.03973736820485621,-2.662443763024907
12974.755151024954,7.183513529347105,6.8696976739920625,-0.04071005158161002,-1.6284931942016783
12974.755151024954,19.80332288515002,10.485035993865612,-0.06643619143192182,-16.74737981389677
12974.755151024954,75.7938162783241,13.849723889453562,-0.13580430174562064,74.50579050186282
12974.755151024954,13.520947796587617,12.736818824929108,0.291269481802447,-4.329915071401467
12974.755151024954,552.8790288287926,22.69884539355089,-0.04121997662562735,552.4112822565083
12974.755151024954,64.1588828310659,23.819220599765323,-0.2883516489424936,-59.558100678029575
12974.755151024954,236.0776843279563,17.010978983776976,-0.1465528452531873,-235.46023375683802
12974.755151024954,20.953231869197868,20.12912878793898,0.28103349278163614,5.658678916184456
12974.755151024954,1223.00714001346,20.20413264030709,-0.08868668912731828,-1222.8395206280031
12974.755151024954,461.3139407932402,32.50271344928454,-0.024394012214421477,-460.1655881532784
12974.755151024954,401.98592371835645,36.243836622455625,-0.03808477856462802,400.34648649767405
12974.755151024954,1662.1131395083082,24.783480315741453,-0.30772203183289365,1661.927801218709
12974.755151024954,671.4979663907221,38.808776274135276,-0.046611637422629575,670.3742530148606
12974.755151024954,40.25504060902078,27.246887798451613,-0.1954734202177216,29.602039064430844
12974.755151024954,515.4314706939933,33.21486998685944,0.052204172146458214,514.3584491336279
12974.755151024954,66.01180239481799,5.446479753613469,-0.11430537738257317,65.77328009826086
12974.755151024954,92.09136857366602,24.161218236989594,0.1726278167513932,88.85532862811236
12974.755151024954,139.06236183251093,16.03632843920942,-0.19015360145752827,138.12814346515867
12974.755151024954,66.67287943981557,5.24403373190469,0.07245454263321725,66.45307547624624
12974.755151024954,56.335746721109366,8.788460339810095,-0.03307164253608513,-55.63022340998308
12974.755151024954,32.935830867083446,18.424521495983072,-0.10568619468934211,-27.267899073361647
12974.755151024954,290.2770605851897,23.45654192911765,-0.16659462904773575,289.32469358116083
12974.755151024954,6.35740011324401,5.489522329115618,0.16243275085070966,2.9152741375498565
12974.755151024954,4.456045843780287,4.118593853040921,-0.16235760261162277,1.0538956978939236
12974.755151024954,28.271998750428278,23.37516257847672,-0.02880491830746773,15.847724913951557
12974.755151024954,213.92579114781495,19.02213778235013,0.3113892988630174,213.07404571183696
12974.755151024954,34.72648015719641,32.0639928656789,-0.1381278722142852,13.268505311690786
12974.755151024954,67.16316387391598,21.54055766434108,0.19296624759000786,63.601110430467955
12974.755151024954,31.614334155698256,29.371292077869946,-0.0807126287502564,11.620255511552388
12974.755151024954,125.50541273631086,36.91655312942797,-0.10857358688813232,119.94585640958044
12974.755151024954,10.865636693464966,10.060947929605819,-0.011480516063035417,-3.883655830204788
12974.755151024954,680.5773174388811,28.841302012732832,-0.2231252412676025,-679.9646005878087
12974.755151024954,369.1661178201609,40.13391033372727,0.22559307352913593,-366.9755910444128
12974.755151024954,18.877501084333293,18.599466345764917,-0.01242307249039519,-2.9433435760428717
12974.755151024954,328.35372514718483,6.1033122649461635,-0.14610273434698595,328.29428959139415
12974.755151024954,6.95552662861876,6.8199510979620666,0.24075674919378004,0.23060960116238377
12974.755151024954,31.597755393126427,29.645096999307384,0.21682935260551495,-10.852782210795306
12974.755151024954,88.41129882467607,27.254086908081668,0.0552489597865312,84.09526134761067
12974.755151024954,109.29420618371442,36.475241027181994,0.07936634500847255,-103.01950070359564
12974.755151024954,296.2532471225941,7.1284043291821995,-0.1402340004966801,-296.1644748171583
12974.755151024954,151.25025014850115,20.31321608812679,-0.09807520834498021,-149.87409826348366
12974.755151024954,58.206025349928105,13.20694836898433,0.2453459579585005,56.67187339477996
12974.755151024954,35.51635253818522,34.987593320493716,-0.2771274504491162,-5.9536827703704995
12974.755151024954,165.31176560094224,31.77133792755524,-0.23012000123741394,162.2243893626251
12974.755151024954,263.0796005669601,46.79784965456758,0.13199426746450904,258.8804040606216
12974.755151024954,127.7135572527265,29.518729092903676,0.09469625235644584,124.24826718470806
12974.755151024954,9.671418493987543,9.554360208579334,0.3538850765230881,-0.6073128854012315
12974.755151024954,832.6354346236143,10.764588210757209,-0.347064342263209,-832.5647204300383
12974.755151024954,519.3102010261453,51.086876779937484,0.23366415544995411,-516.7895169589327
12974.755151024954,176.68580004208974,31.00904503648748,-0.1983755248428565,173.93825121716944
12974.755151024954,29.092328544722953,27.965948012186118,0.1345056099980237,7.9053631840848375
12974.755151024954,25.083152577731173,22.96613454260448,-0.04056945937469833,-9.998154250925385
12974.755151024954,262.8708079495362,27.190654477215563,0.12159002507062061,261.4573745831355
12974.755151024954,121.99257916822701,13.922335773033645,-0.14921753018824332,121.18819744416257
12974.755151024954,10.551979430941453,10.409647208881454,0.2636098191083898,-1.0758957470441457
12974.755151024954,27.75652395476726,26.504785694665244,0.0873899021653963,-8.133685956197045
12974.755151024954,280.14583198790547,25.368313842871885,0.07123249244183878,278.9917100664371
12974.755151024954,1119.4665940622886,15.504670727255764,-0.07551537841498147,-1119.3584315273572
12974.755151024954,95.20576867367299,28.80504344600478,-0.0983159422664618,90.73390613046374
12974.755151024954,34.824862147383264,17.449874362987327,0.07689470333625337,-30.10831317763259
12974.755151024954,33.09941605266551,32.1434141717724,-0.05847641049021358,7.785395032775693
12974.755151024954,78.14510762719817,20.751456699328628,-0.059393870240296597,75.3277829899968
12974.755151024954,742.3671649248398,16.056887511397694,0.31691680180351856,-742.1922439722937
12974.755151024954,50.30665962533016,17.57018169486572,0.22411999355316342,-47.11944412866432
12974.755151024954,55.108169616223385,35.89895964233701,0.17446869822298394,41.78980907612818
12974.755151024954,141.0962600792662,13.129106232137355,-0.2777834903222666,-140.477569530268
12974.755151024954,98.5027421955295,32.307399001033836,0.1794830808290012,93.04425561284395
12974.755151024954,920.6930965348189,23.927147200215927,-0.1762957158461674,920.3811613024525
12974.755151024954,106.56154730716942,32.76566974131459,-0.07668810129294754,101.39039351306377
12974.755151024954,191.71558455478277,22.858663033424154,0.22239054107272063,-190.3432188307513
12974.755151024954,178.13469980247461,34.08001107872454,-0.1906621385617158,-174.83915835257926
12974.755151024954,5.717347689992803,5.5059597580076325,-0.2725455274681556,-0.7360146632531672
12974.755151024954,139.5604569918795,24.64067101798529,0.13986516114443304,137.36150280264107
12974.755151024954,667.5444001399342,28.96207264503486,-0.06403986236393605,666.9145102125773
12974.755151024954,714.3418260706527,32.66310700616781,-0.11078597060181856,-713.5934396895929
12974.755151024954,56.37992215101636,2.435421039545757,-0.14461636187194885,56.31151710902737
12974.755151024954,179.90074804299832,22.284826862353473,-0.16720042759262183,178.5101711641662
12974.755151024954,67.12104195595406,23.300823073496822,-0.10197469476828179,-62.93281374140021
12974.755151024954,43.78134897609083,14.581427219949987,-0.08718871059769968,41.26044623391628
12974.755151024954,172.91309478174227,28.054026016546864,-0.1386606278268339,-170.61692258211255
12974.755151024954,18.773471575264914,18.106777001484,-0.0020130663688092422,-4.778219799357648
12974.755151024954,69.43333490841084,28.217445286820773,-0.05017687256269341,-63.42716127313185
12974.755151024954,28.118049028662405,18.736866373624558,-0.025128357434349418,-20.923609037124848
12974.755151024954,475.6781577419446,25.831015757668382,-0.29625349777730614,474.9743405053161
12974.755151024954,34.57017762031525,33.76560047598325,-0.000671561693944257,7.295541901944651
12974.755151024954,1009.4517863365595,14.62684168915795,-0.17768504240281388,-1009.3449243916542
12974.755151024954,53.83926360089691,28.356884879467017,0.23508170443256082,-45.746493291938336
12974.755151024954,64.16056529771181,29.680274126680597,0.2486604153659175,56.866872271846155
12974.755151024954,56.816018712327065,34.19081287063093,-0.298545830350166,-45.356396405025144
12974.755151024954,45.805043980183925,7.4979092891242765,-0.0855536928721696,-45.1676833342367
12974.755151024954,720.7941317286386,11.697471633931286,0.3344246887868328,-720.6979125672841
12974.755151024954,130.52190058244074,5.509992168304526,-0.13359780644995184,130.39874307861052
12974.755151024954,16.839067931448113,15.594510205702658,0.25521194176929274,-6.208369673798289
12974.755151024954,131.58793781945246,13.046442103639345,-0.11320489601539266,-130.93283178623147
12974.755151024954,95.68368616213863,29.008323256490193,0.1402420589507838,-91.17076745582496
12974.755151024954,259.41046988562897,34.42496948610975,0.25149558756821555,-257.1126088682355
12974.755151024954,521.8566160086216,35.99915682585253,0.11001767363898757,-520.6117745525993
12974.755151024954,1089.306524478968,25.618017573579305,-0.24564389058205277,-1089.0044098322214
12974.755151024954,188.0526401787978,54.27972125937339,-0.133910772998443,180.0436972876963
12974.755151024954,37.271589441724196,25.232314265335813,-0.07898107373324598,-27.399616515845047
12974.755151024954,37.20464818003691,21.00722830057615,-0.07971291921675348,-30.67766904567402
12974.755151024954,336.91513446852167,25.18204812324105,-0.0572550831602309,335.97010660922484
12974.755151024954,58.573350764474945,48.432029346477215,0.049393391535423825,-32.91530100653283
12974.755151024954,153.8364172207571,33.26166296788628,-0.06368905630804782,150.1916925483274
12974.755151024954,284.47909318074653,79.83506082696836,-0.11301852399223149,273.04385778369925
12974.755151024954,23.21166420399115,20.692833374721925,-0.30987581245566787,10.427631846363456
12974.755151024954,23.10033946115299,19.829482306661845,0.1485160116147348,-11.774497210589551
12974.755151024954,77.00988824215611,18.00598163730416,-0.04848822945278981,-74.86353376735327
12974.755151024954,354.06754317996143,18.81288007302153,-0.08794845857008733,-353.5648971105844
12974.755151024954,31.154342648472785,14.610739088265735,-0.1566370982118657,-27.483419744823195
12974.755151024954,195.14883524694582,40.529761189737535,-0.03977126881411565,190.88909948262162
12974.755151024954,105.18032971158561,21.81348682672014,0.10325773956607434,-102.88491830892994
12974.755151024954,20.621679212964047,16.4959267622905,-0.25544284342998314,12.301070265098161
12974.755151024954,180.6057984247002,32.6138081856855,0.20457754616033058,177.63162898306132
12974.755151024954,46.2138063840148,20.019802980995692,0.006710222665126989,41.63132079302595
12974.755151024954,40.137675525402045,26.547632322081654,0.17603338549506545,-30.074387006534565
12974.755151024954,38.237243353521514,18.468097600154277,-0.3576513940213297,33.45342677044544
12974.755151024954,18.74381169302608,11.500673447477798,-0.2038553966021074,-14.739978185634351
12974.755151024954,40.18859938994957,19.354134121640225,-0.028601055193960456,-35.19635950215104
12974.755151024954,611.444748423972,9.038878027915462,-0.04616713199466137,611.3764964853854
12974.755151024954,36.08611357848853,32.27976981227201,0.021896521810855545,-16.07691206377143
12974.755151024954,46.35854011481412,17.82624107094742,0.20523896414466353,-42.77313145799001
12974.755151024954,171.0237648457942,22.587372734393497,-0.17689087358439895,-169.5203556258172
12974.755151024954,595.3403731437331,30.178509876667825,-0.14339808152867994,-594.5734945323675
12974.755151024954,259.35218026265704,32.92617358862783,0.23558537801241677,-257.25008945816245
12974.755151024954,168.0184981861446,36.5016037331271,-0.3383589016346894,-163.99993200543872
12974.755151024954,66.04659509130923,32.05481465537948,-0.07814403615061347,-57.73109215121289
12974.755151024954,6.729626333491694,6.4223454227641685,-0.188758724542441,-1.4997489458686422
12974.755151024954,56.377205710942775,14.582085114886512,-0.02668624919146293,-54.44258381283779
12974.755151024954,39.13890971556513,34.89069515044185,0.10260529948304033,-17.684078847715227
12974.755151024954,33.372259822796515,31.180950733100957,-0.21984564503557402,-11.817412231539016
12974.755151024954,176.44299344181468,19.72220969668358,0.04714279378378353,-175.33227222574538
12974.755151024954,5.852996506986958,1.5960701208997445,0.12898454252271976,5.47147312570964
12974.755151024954,11.285127242389649,9.96928189106396,0.17673256524229158,-5.116620755089447
12974.755151024954,32.262024285307824,32.23452097039027,0.1318843518702956,0.0014868065374957773
12974.755151024954,80.88030242007208,38.03213862657845,-0.10081222779271778,71.36815196460788
12974.755151024954,20.855945053057763,16.769648043689624,0.09775762336924854,12.32815147909915
12974.755151024954,598.0286606180111,17.043016863138924,0.035023273327366794,597.7842895200936
12974.755151024954,11.938508719049663,8.36454632343454,0.13092175284290974,8.413604556322756
12974.755151024954,76.81730977571199,31.142827299804537,-0.015803769425311767,70.20873639434566
12974.755151024954,24.177442120368667,23.686676910110258,-0.0397385737942445,-4.661758486148671
12974.755151024954,63.427203303753515,15.48347466542176,0.0676707847401438,-61.493992216991536
12974.755151024954,48.378939155543215,30.949417860646847,-0.23977080334450768,37.159673367271274
12974.755151024954,305.8087267477006,31.118097621730257,0.12458427210546304,-304.2184566411299
12974.755151024954,58.92929627679556,43.826117175978005,0.12984855736634257,39.372072325514495
12974.755151024954,78.98937029286502,15.512913414755506,-0.3749198547451902,77.438834564124
12974.755151024954,36.16027326307715,15.611040525815463,0.03974653965080818,32.589917509437555
12974.755151024954,136.07340707987203,45.743846738062885,0.21430226623027485,128.14706473956193
12974.755151024954,104.70163427840264,31.206164836164465,0.29095920503803413,-99.93380992649642
12974.755151024954,82.79358758506727,61.39736763964384,-0.1221049880736925,55.52810107862604
12974.755151024954,23.962361402707522,21.145665709255923,-0.030767791562563228,11.1936663317685
12974.755151024954,94.666763284182,13.140402063157268,-0.13125878680584968,-93.74087796874107
12974.755151024954,27.87424169616517,11.23787358785841,-0.2695401228204218,-25.472621034737216
12974.755151024954,75.65103922637986,15.725057676719723,0.1349532948092285,-73.98667185109034
12974.755151024954,94.67199570655116,32.739197580802774,0.32900455153822883,88.82041992542635
12974.755151024954,78.77942266780148,26.171991147454783,0.02093351591165874,74.2931181465361
12974.755151024954,93.31962814334253,23.715294039954138,0.1187097431116745,90.24614817433891
12974.755151024954,228.6639397601515,20.2617633987893,-0.15710158231762114,-227.7605697582356
12974.755151024954,193.46613703358975,40.512890363784855,0.03537647887241796,-189.17212841344784
12974.755151024954,38.01070082565275,25.306881276245097,0.23747049700937228,28.329530034717553
12974.755151024954,233.2543890548253,24.718518596827504,0.05885727938443982,231.9371572526411
12974.755151024954,293.45138561886415,40.92034244348677,0.14571711232742515,290.58125126951984
12974.755151024954,23.12358229046339,22.40661910005326,-0.1325252785482141,5.556027573465234
12974.755151024954,333.9300729700082,56.00595715086718,-0.17136973765290706,329.1972669337959
12974.755151024954,82.27908958077008,65.4957032507482,-0.03874209805312774,49.78356620289225
12974.755151024954,50.03969589942671,11.34678924648426,-0.20753616708378386,-48.717779045641265
12974.755151024954,173.53013867389697,35.80330048133423,-0.07438007276767197,-169.79125624521294
12974.755151024954,151.31369113687254,35.93274040003593,0.20184878746292415,-146.97916204949962
12974.755151024954,237.22330381207024,24.41250761757674,-0.12620007166636735,235.96006641755093
12974.755151024954,420.9347046509385,35.93025270900668,-0.1875025745991886,419.3962933664554
12974.755151024954,1123.4339022801375,37.433841725164164,0.21981826539500976,-1122.809260512622
12974.755151024954,260.21114563350494,27.480109272290186,0.26670574515885376,-258.7525000869116
12974.755151024954,70.43174031216684,11.61587953612523,-0.10394957565397117,-69.4545470605493
12974.755151024954,1010.6837803731894,24.425765571308567,-0.09148713559404559,-1010.3877082796973
12974.755151024954,387.7105449822484,23.14880925976428,-0.10903318285772502,-387.0165771113037
12974.755151024954,37.37221629182619,35.25210913457234,0.20167204120411064,-12.335891026295444
12974.755151024954,9.948991883943643,5.510744513960315,0.08495047909246521,-8.176212125571032
12974.755151024954,35.00174960027918,33.75378316003059,-0.12029648789294245,-9.166987134215873
12974.755151024954,37.26391226049799,36.91951829842306,0.03610322100909472,4.8775556404340366
12974.755151024954,31.96533060415905,24.8314818449184,0.2727296763249301,-20.083550867312454
12974.755151024954,1.7635535684906758,1.0298151705236946,-0.06724064126267947,-0.5372220185901115
12974.755151024954,25.9055339239833,19.85261365336615,0.16441580995882676,-16.588758644210397
12974.755151024954,66.99038020564637,18.767356808479754,-0.054398102702505786,64.29415157122992
12974.755151024954,270.69532683889844,1.7850537987828867,0.17250199958666243,270.68614173117777
12974.755151024954,235.49951328225242,40.10714152199237,-0.05600328004956509,232.05533466318522
12974.755151024954,80.9787641934024,29.949800370001785,0.08147261860854607,75.22503969555439
12974.755151024954,14.006204662179844,12.923836140527921,0.17023697817857392,5.2309439607506185
12974.755151024954,434.27593696072563,24.724378271778832,0.13414055780470016,433.56951008505945
12974.755151024954,65.14863789737399,24.583051865992765,0.07334242527630841,-60.317963564955654
12974.755151024954,23.01151080946044,13.236541881873944,0.0058302463276519376,18.77676973414595
12974.755151024954,485.83122358426283,24.617546331936037,0.17425695881658324,485.20528375460515
12974.755151024954,163.41216059682762,20.136565131932393,-0.26873583470416146,-162.16110595195008
12974.755151024954,89.47445005930533,30.718844818325035,0.09852642395141906,84.0253747738394
12974.755151024954,10.925401343143145,9.692586564646515,-0.21776230935743401,-4.859451272500967
12974.755151024954,82.54569578147398,29.378229256033904,-0.2525154069035049,77.12905613771272
12974.755151024954,30.749280466398215,29.763008988881747,0.31449236990624946,7.604351818257343
12974.755151024954,33.27336885395284,14.195322961611812,0.1968407217367255,-30.063510465922004
12974.755151024954,28.189937035021238,27.717313570511482,0.25854443628494544,-4.959814527224603
12974.755151024954,175.75410301053688,47.89661712405808,-0.13331964235597157,-169.09655391485762
12974.755151024954,39.190776831335015,32.86147601573478,-0.011694082519856907,21.31393377246039
12974.755151024954,252.73105156246388,79.67345443975546,-0.017519556105789525,-239.84029749286864
12974.755151024954,23.71937118965011,23.513560355470066,-0.24651082630898521,-2.8113712583333115
12974.755151024954,18.399634703009966,13.296008443964805,-0.29132322302899144,-12.646002306640199
12974.755151024954,175.96067543618278,24.194134373946834,-0.049752469955033934,174.28437742219583
12974.755151024954,33.17134651907021,12.593679930097128,-0.012040101354333884,-30.65910692828577
12974.755151024954,796.8491894348294,37.01230734655603,-0.31216482885083124,-795.9879809945913
12974.755151024954,28.261836701721375,28.229727839603118,-0.19208665583304516,0.14321128081598478
12974.755151024954,496.8413389177649,22.803550732848066,0.0066367598157679,-496.3159856527116
12974.755151024954,17.52202348297151,6.70420943342012,0.08771010475182084,-16.134147533903676
12974.755151024954,135.02651607575498,23.974227454323383,-0.013414701861344445,-132.87452655971293
12974.755151024954,23.13693549902326,23.046213138068993,0.10089617935086702,1.5566602517092314
12974.755151024954,3.9508952814048,0.2146534453824902,0.021043286739988454,-3.7157208588234014
12974.755151024954,161.26331606244418,58.88076712465864,-0.013462624604456377,150.12380129720546
12974.755151024954,628.7456883166496,11.400331080191323,0.06601284023988842,628.6409246917051
12974.755151024954,65.85542410138328,54.47265670730145,-0.18723701790606734,-36.98479449744539
12974.755151024954,31.296807501784567,27.739103938738484,-0.11873888006079529,-14.431275080726008
12974.755151024954,71.35563256323293,34.02022027665779,0.11029408088201365,62.70950703792936
12974.755151024954,348.41749543298334,24.064227878968275,0.266364499147983,347.582848594739
12974.755151024954,712.1364910061642,51.271785253776045,-0.04060585629821803,710.2871445672695
12974.755151024954,378.88869198170994,27.805735985799657,0.0038024780713196947,-377.86469201334205
12974.755151024954,45.21086253305516,23.407636027100164,0.2153427399305034,38.656200291901065
12974.755151024954,46.79840545838786,33.93625576335274,0.0387743353831718,-32.19725643064158
12974.755151024954,55.15229875071624,9.974673511317874,-0.09012627341734868,-54.22653732245227
12974.755151024954,58.05640640764052,17.243507538089467,0.26344666976328396,-55.420049580479144
12974.755151024954,624.3987625485927,40.82076912852175,-0.1721431972158683,-623.0615486238795
12974.755151024954,40.79886018400252,29.622119293315855,0.08688793769399238,28.02343694606773
12974.755151024954,105.95408434000453,26.216997312757805,0.1429935833145405,-102.65067033373126
12974.755151024954,167.87071980542245,30.216035616422225,-0.27908058161705,165.12339446772623
12974.755151024954,11.193156037737857,6.784268981119708,0.06843416835574788,8.803367545386589
12974.755151024954,32.83339789216282,32.60704730740514,0.08829986064886138,-3.612231037729206
12974.755151024954,49.469726815424806,24.39625559529091,-0.19860703964353035,-43.01488889051559
12974.755151024954,26.71191086525542,26.56206642806281,-0.29987478669127254,-2.4771780627229965
12974.755151024954,282.14959224043344,18.253690551748416,-0.31321913088360576,-281.55521768093286
12974.755151024954,18.27709837194206,18.204374721727614,-0.131110098965101,0.9377648575848776
12974.755151024954,11.214743290422758,10.625612339070152,0.06235640783552476,-3.332636803776296
12974.755151024954,385.09157567137333,31.85566204002388,-0.2884220934876294,-383.76933018239805
12974.755151024954,1029.852839000158,21.218960976989536,-0.07626250329285773,-1029.6333635827223
12974.755151024954,108.10812141564807,20.11470532151959,-0.14912895459725395,-106.21198535618021
12974.755151024954,1415.7159361213894,31.468858031968484,-0.25863243811934955,1415.3655002854864
12974.755151024954,45.09323318750194,28.79411557145652,-0.1075025762134965,34.67752237190164
12974.755151024954,17.96603059203896,14.332054171816674,0.22811944588056457,10.749975203050617
12974.755151024954,1155.989032743557,22.404171180619304,-0.1299885326102335,1155.7711380576054
12974.755151024954,140.9793950006252,28.433632083895915,0.01829455847459233,138.07592684268565
12974.755151024954,30.210777594757722,22.670564951926742,-0.18439026255133345,-19.92350608625555
12974.755151024954,79.69296012653412,51.449220314357476,0.06299413090826717,-60.845584732264115
12974.755151024954,430.465129987416,25.396234247404756,-0.15180119178537899,-429.71325311704044
12974.755151024954,33.165176218495574,30.28682857064855,0.0014050775394885728,13.449180408462365
12974.755151024954,51.936252420740196,8.527273567438165,0.02122221441831217,-51.214285092463484
12974.755151024954,45.958388009584965,44.46974733231956,-0.03202134608687857,-11.526382874528185
12974.755151024954,135.62333083418457,26.502319514976573,0.2320996499854042,-133.00189691705472
12974.755151024954,34.70997273279421,34.68414262889227,-0.16126134220356547,0.09989437965412667
12974.755151024954,155.9087195753081,26.359268711837473,0.08900896843924211,153.65856109208605
12974.755151024954,111.66553801823291,15.471461079704753,-0.035906250888802296,110.58059735143118
12974.755151024954,269.82424168283524,24.03007447554554,0.17404706474536633,-268.748749122547
12974.755151024954,16.248025036717898,10.747314956955924,-0.2492560734828987,-12.110942866566383
12974.755151024954,55.498881298770456,8.09588226133509,-0.06370489521515572,54.88917911947254
12974.755151024954,22.48473938589917,20.237754587459108,-0.06918602585110126,-9.707498890085434
12974.755151024954,330.5977250585942,39.195187806348514,0.05489066523665328,328.26336009468895
12974.755151024954,394.16946650309234,12.375042136505943,-0.06831897219157716,393.9729248500052
12974.755151024954,163.81059887874017,30.314315530224945,-0.08413736922437569,-160.97574670349002
12974.755151024954,63.964077972723544,27.29655190372634,-0.14015427959907703,-57.83187191111267
12974.755151024954,907.8021714088834,23.04258421871797,0.21392513258206275,-907.5086883827295
12974.755151024954,220.45912723071427,17.690557979051054,-0.21029148414031826,219.74410172313472
12974.755151024954,32.70746023421927,18.601231343618775,-0.27676658842279567,-26.868923957377636
12974.755151024954,216.7182205183191,16.26530242356995,-0.13058139590833884,-216.10287716060895
12974.755151024954,194.67360258355995,22.994089829121613,-0.019070118649747843,-193.30630237791084
12974.755151024954,68.1343393888204,30.903523463867018,-0.27848669520311287,-60.707712965712844
12974.755151024954,19.876115303541,18.930847826659093,0.08924506465601835,5.90918965168388
12974.755151024954,108.36957417943702,36.43121741482295,-0.3521965796106214,102.05317481574649
12974.755151024954,44.91834581526384,27.15402749395961,0.29451503819011765,-35.75574596378596
12974.755151024954,26.05004244134899,24.742013207357306,0.11775818356397352,8.04158899415059
12974.755151024954,8.797130406372881,8.53755683331372,0.2853401480615714,-1.6314823327798353
12974.755151024954,8.92107634920469,8.749554806032602,0.06787633569088117,1.1268600734892709
12974.755151024954,368.4159866895898,26.46232785143312,0.06978558307011684,-367.4620022669245
12974.755151024954,27.603191667083518,25.669804513834897,0.0350757546369293,10.061790249269121
12974.755151024954,27.19643390377394,9.60045754822469,0.07208024814602293,-25.41093393172528
12974.755151024954,85.65387593078145,24.021619448531013,0.3431930924535126,-82.20507287530711
12974.755151024954,793.9765729616809,31.67932510933236,-0.22902245464685925,-793.3431854173865
12974.755151024954,336.55631321042256,36.783477469043774,0.07515835266894451,-334.53753993415455
12974.755151024954,224.78376896408633,27.456418021073908,0.07308042056031341,-223.09667430354384
12974.755151024954,225.91451552549879,23.168117165789493,-0.026692463104619885,-224.71949066897398
12974.755151024954,51.686380396634135,31.339466356279566,-0.22985428238500896,-41.07931913890073
12974.755151024954,21.14358117443322,7.804152196887272,-0.021162889797138713,-19.60584893335052
12974.755151024954,43.32552995099215,23.17033840626746,-0.0524548694469588,-36.58521202696024
12974.755151024954,77.21025545872604,28.276173039585768,0.05015913255853619,71.83399332625298
12974.755151024954,57.446839178974045,27.31109907129405,0.01985202707409813,50.52213704869865
12974.755151024954,14.414486615018205,13.930633970713163,0.243730948281954,-3.4494903494575757
12974.755151024954,153.1643700898554,27.401317621360654,0.14066760010079218,150.68747724067646
12974.755151024954,686.355781653328,23.662530782229467,0.35237427441564734,-685.9463995132561
12974.755151024954,30.112613180900016,26.163583611943427,0.16895910644139728,-14.847604011466256
12974.755151024954,401.34434354465867,49.61408468739163,0.20534340105988722,-398.26363888373044
12974.755151024954,64.96844803952382,24.985034959994778,-0.35251156592555977,-59.95637189828646
12974.755151024954,74.19252915633888,8.7460476846498,-0.11433114015788945,73.66320986625561
12974.755151024954,52.04369297061567,25.359253723168,-0.1313040223584269,45.42775049212775
12974.755151024954,66.89476599183124,38.02163459946982,-0.13786951097230282,55.02262751252255
12974.755151024954,84.23406883416317,26.84615884733424,-0.21750917548203438,79.8301842923992
12974.755151024954,34.14548440172764,6.979334522293885,-0.25242422241768225,-33.39734725339843
12974.755151024954,64.51793196704251,34.154324866007705,0.0008684001872525845,54.720098358780525
12974.755151024954,3227.965978833985,41.60488270584898,-0.25960557978588555,3227.697564886853
12974.755151024954,39.68711478983411,31.18007244880668,-0.08805755544020885,-24.51746184239237
12974.755151024954,67.77250314449887,35.510872006862876,0.35174585389480834,-57.70797131709951
12974.755151024954,23.7914289864778,16.38960898974277,0.13070319212152223,-17.194163368862366
12974.755151024954,28.419588344580163,20.919402737867685,-0.24498388063466223,-19.18945284686668
12974.755151024954,263.24804926931716,30.628651723150327,0.37815249607073476,-261.4565387694675
12974.755151024954,41.61919600224846,25.380906690287148,0.06812861299609116,32.95763852041287
12974.755151024954,35.6940326935809,15.39275211106257,-0.04104280999113523,-32.177150196422744
12974.755151024954,119.43683572709517,100.21824799642351,0.03957033474616337,64.95923689603103
12974.755151024954,170.16533535809037,32.76317329596699,0.20245836608026122,-166.9761011960017
12974.755151024954,104.12784256653515,18.337164039026405,0.07907825999219142,102.49191815013202
12974.755151024954,1229.860138288546,36.75672184405913,0.03460720520134529,-1229.3100282189348
12974.755151024954,591.4764586537519,15.535379989728835,-0.19907570940685032,591.2708829343094
12974.755151024954,57.474967076481235,17.101630881112182,0.027714890778507795,-54.85570909605693
12974.755151024954,42.85104262344665,27.429118398901938,0.05311699759211226,-32.89522797090222
12974.755151024954,74.56394996164319,18.429239330226597,0.14534948907838618,72.23827359520217
12974.755151024954,919.3699518496405,47.931745837690706,0.0137238247875569,918.118673943361
12974.755151024954,21.427971394068834,19.039835516219043,0.2887916580675108,-9.736670265351865
12974.755151024954,33.20587697217861,28.574700499624182,0.08669128151854205,16.862762773862045
12974.755151024954,706.7954171366229,134.9103746185312,-0.16646343473005082,693.7990835410801
12974.755151024954,149.30783390438575,38.78205243201042,-0.06537565440239657,144.17704715835268
12974.755151024954,952.079994492892,15.183141264741739,0.314812018918599,951.9579468417764
12974.755151024954,73.95168467716489,18.873373074170093,-0.14599683746487463,71.49034667152667
12974.755151024954,38.51232721597389,7.6045073934065455,-0.30909871740686884,37.72954809925989
12974.755151024954,45.30543676820942,33.02739094654149,-0.22751933107815586,-30.98331502396276
12974.755151024954,77.56400522355855,35.325276924229215,0.08682151685766198,-69.04010215424474
12974.755151024954,204.44169790066965,58.09334699069642,0.1865913539202544,196.00964156513183
12974.755151024954,36.984261641923325,23.553426172700572,-0.13595680404316102,-28.483271711136332
12974.755151024954,48.507469395460156,22.430523709534608,-0.28327728400530433,42.988480714552786
12974.755151024954,25.74996007402362,25.69081953996648,-0.013171049625135257,1.1338379953673379
12974.755151024954,282.3199846131888,80.82133093993085,0.23246773776075744,-270.5007868061345
12974.755151024954,52.5450005547867,20.18662070709735,0.28220152681394056,-48.49372451076722
12974.755151024954,40.48030730745617,36.2120747636756,0.04462570531512667,18.043903581544733
12974.755151024954,16.537366094965282,13.497658718275124,-0.10055907281402396,-9.462087573804933
12974.755151024954,32.17856179249834,20.102823663257553,-0.0975123550196555,-25.091240264997353
12974.755151024954,138.19101291138682,42.046069789050115,-0.0023074311288915727,-131.63254759497275
12974.755151024954,343.7282200800995,33.55363925726764,0.18001524128960922,-342.08398631540314
12974.755151024954,26.924554845902136,26.405901769798312,0.09706745285990886,-5.088625568947852
12974.755151024954,34.04585116542879,19.70062301925099,0.20828783845352827,27.73455565365775
12974.755151024954,142.7120029855985,41.35255089468663,0.1269789041907047,136.58297746761605
12974.755151024954,696.0053207275162,23.49126058648016,0.06332073371194984,-695.6075090699157
12974.755151024954,35.868015971563935,34.48419668686175,-0.02775455228455412,9.777397669146264
12974.755151024954,41.71113374697591,19.513923503358924,0.13659110208819872,36.84087862323047
12974.755151024954,260.0861994279759,27.647790906748575,-0.05509166068839506,-258.60910904813863
12974.755151024954,61.55973529824739,7.455886428654598,0.07172065529293514,-61.092136569271275
12974.755151024954,342.16427299282054,32.04059619993403,0.19566660589231613,-340.6581793371988
12974.755151024954,63.77990843513386,23.827008755179044,-0.12357290401404249,-59.14709316956899
12974.755151024954,117.89753000234491,30.070231623192157,0.05084242198250113,113.9905684375998
12974.755151024954,48.664768402643716,31.48939966989903,0.12502600580334272,37.079715310500774
12974.755151024954,107.04246284684561,31.9650979349745,-0.18570096786425042,-102.1495492323581
12974.755151024954,43.947755714694644,33.089325052539195,-0.2532006818323573,-28.89085004353797
12974.755151024954,23.195149341399834,22.749006088249416,0.19823838007684422,-4.324569736852064
12974.755151024954,1302.8497758263666,28.640965002232527,-0.2241696650120444,-1302.5342324750675
12974.755151024954,398.7468983828627,14.028224200995467,-0.20705228019696445,398.49780244308806
12974.755151024954,130.26455762258882,28.664323730026474,0.23970744988019044,127.06454102126634
12974.755151024954,45.51839444965243,28.83989939481283,-0.16877953294164855,35.19090047921598
12974.755151024954,186.87886857955613,42.60091968095432,0.13462961747113303,181.95356156359125
12974.755151024954,515.462878098246,11.718749363708708,0.2624147016705979,515.3278803597761
12974.755151024954,98.26979280274723,12.071813795389396,-0.1903333732875142,97.51631037569527
12974.755151024954,91.35895427336308,12.6658449676266,-0.1448455180705369,-90.46688589673015
12974.755151024954,210.82782833175787,34.991620099297464,-0.16500409328619822,-207.8994372826882
12974.755151024954,1092.3032094028774,19.37687437981929,0.1300273646326954,1092.1305162987057
12974.755151024954,48.86355144727287,12.583761561528334,0.09149375963041605,47.19672404725177
12974.755151024954,10.488028908385584,5.913175299267054,-0.07615017556966489,8.559838568082366
12974.755151024954,78.79870219218145,23.877923727945344,-0.07281704640969877,-75.08207808918104
12974.755151024954,339.9204810184728,33.08532080877731,0.0965455149925114,-338.30390061107977
12974.755151024954,182.94378707852275,24.96608278953619,-0.09647933034558638,-181.22736592306995
12974.755151024954,1440.9140427893872,39.57759472416804,-0.1401039877965136,-1440.369784673809
12974.755151024954,27.64642729921441,11.558866120779744,0.10153669205950554,25.078890996421748
12974.755151024954,29.1409498859111,18.034861879845565,-0.03495529760744535,22.851280538579115
12974.755151024954,198.76529096824967,19.45792600331583,-0.08670717039170081,-197.80613240773565
12974.755151024954,4.253657559710336,2.2177154966162242,0.29674279877088083,3.366127035678654
12974.755151024954,214.99122085413313,26.930676121248663,-0.22087178675163543,213.2935968812812
12974.755151024954,43.39986887456242,13.865298454267236,-0.16081225833793772,41.10376848195887
12974.755151024954,349.08296262965337,16.291946838245565,-0.18210577810912107,348.70001094192554
12974.755151024954,449.19619609133156,23.855248073551245,-0.03244692905637293,448.5603551322448
12974.755151024954,96.79470979781212,24.40500290756146,0.2084802233871109,-93.65795076136696
12974.755151024954,27.718847088059544,11.37970203323598,-0.06386999017493113,25.240370699495422
12974.755151024954,27.79465932622787,25.46272285310821,-0.13032779626409283,11.064328878426721
12974.755151024954,3380.340893689893,31.497840125149835,-0.022142123286570597,-3380.1938829978762
12974.755151024954,760.1610822247251,31.223757427937155,0.25849973587341885,-759.5183504076322
12974.755151024954,114.97552159429107,36.853719743455066,0.23118642329687608,108.90070700728002
12974.755151024954,341.33350889928886,17.643399867848583,0.29194696885694044,340.8745121484871
12974.755151024954,37.75111166190223,30.493723876557247,-0.1618186993752863,22.214782858624243
12974.755151024954,329.91505713001897,20.662020734251794,-0.18123881024268476,-329.26469063607834
12974.755151024954,520.1733353194952,25.930491465783078,0.22054749681934413,519.5248822486275
12974.755151024954,33.6741885567223,30.116414498739516,-0.2129196477691004,-15.00502398581867
12974.755151024954,41.12781170172782,15.824676995437166,0.1686105138691854,-37.937996662384194
12974.755151024954,225.99607336749358,33.47385502380457,-0.005582788462652366,-223.4993729367063
12974.755151024954,8.893012988227268,8.181164026820568,-0.038773648938560924,3.2243229796011312
12974.755151024954,232.16103115483298,34.87498004937245,0.060533422300681594,229.52280935896894
12974.755151024954,28.249769484134465,22.861773622415946,-0.11543217830334242,-16.541432376126117
12974.755151024954,851.3447560127413,12.403518693170241,0.17949195793018613,851.2533451469994
12974.755151024954,899.9298105282845,26.818712922793257,-0.10767524855851075,-899.5291281818379
12974.755151024954,90.75369560362233,16.08278615111606,0.07097125404574978,-89.3074226775754
12974.755151024954,40.966697545903074,18.920584218474353,-0.10662851257963744,-36.31134750883014
12974.755151024954,184.37831024184987,43.9783372848124,-0.02177654999670882,-179.05169697599234
12974.755151024954,28.14007306611298,27.968721737496324,-0.1365615965845163,2.7998561328424834
12974.755151024954,32.64339522000447,15.861214583656228,0.27050854972161986,28.498832878606606
12974.755151024954,203.35325420847064,17.163263259483116,-0.21551728411155965,-202.62321059211953
12974.755151024954,221.53288124170498,42.06328007288278,-0.09534130627391316,-217.49881006041048
12974.755151024954,383.92763164434615,22.698091999969296,0.12845209074567848,-383.2537670872338
12974.755151024954,26.99647266213551,25.931842729716475,-0.2158653990205437,-7.385526241628738
12974.755151024954,333.2843869904864,49.7418509547006,-0.23033768974478455,-329.54881481606174
12974.755151024954,79.5969899972381,21.200767282366847,-0.28353754548098126,-76.70965660604438
12974.755151024954,52.315237221177966,7.090568679846797,0.17032933007168,-51.81527184258919
12974.755151024954,31.103207522096078,15.775883450119098,-0.13311332281922217,-26.772314566949944
12974.755151024954,25.017895389174676,24.829372768912982,0.013674608803881034,-2.764177546526981
12974.755151024954,157.97584577932048,33.43186540359686,-0.34862109868427144,-154.39171032006408
12974.755151024954,50.2114601580634,49.9791852351951,0.2448700648944737,4.631990930449131
12974.755151024954,423.7292003249218,8.775926587436224,-0.17953873295591904,423.6361996020531
12974.755151024954,35.3230945529233,16.00634815805572,-0.04299150833971207,31.460443513492887
12974.755151024954,90.5246228386584,16.35093113956232,-0.14744687220345878,-89.0257051489519
12974.755151024954,36.74073843772,19.193293751767573,-0.2044095949210001,31.30017698867563
12974.755151024954,774.3301011545273,25.514876655442354,0.23386847388695556,773.9084477221273
12974.755151024954,32.863408528781164,32.51387255026214,-0.002816229838953599,4.592954482827649
12974.755151024954,769.1926142238518,21.465796819149627,-0.15876211437260682,-768.8918751456092
12974.755151024954,69.38801112456004,40.92228482444937,0.06926958452052574,-56.02054463490132
12974.755151024954,73.11748217043402,25.914286486001707,-0.014272719226942003,-68.35831535411221
12974.755151024954,824.406807081806,40.165951373615,0.11652243149987479,-823.4266876064262
12974.755151024954,159.07104550189263,25.477240619509494,0.00044789155332381316,157.01194621485914
12974.755151024954,58.33780290216573,15.451076782072846,-0.1975002910791644,-56.23849210513249
