701279.0787640095,1263.3327473105578,97.50170820623546,0.14606886993832438,1259.5644921005803
701279.0787640095,10.818100595038532,2.8782764744758995,-0.10026007274631234,10.41251869330296
701279.0787640095,158.32397739513553,11.769701852871055,0.45408411251309416,157.88424087516898
701279.0787640095,34.09635214146693,10.949962889829042,0.6151981296778274,-32.27948026110773
701279.0787640095,64.23076331208266,2.6732651350035495,-0.10424620204484764,64.17256044837106
701279.0787640095,183.9029246743204,19.360896002754874,0.060109475339214416,-182.88007428145352
701279.0787640095,26.261624163175657,12.971727201604484,0.09707698359596893,-22.827210643309463
701279.0787640095,40.74129374486514,8.08797549519457,-0.07010375054549615,39.926388848209115
701279.0787640095,372.7318131161601,5.919904362103908,0.06450619600688463,372.6843689407351
701279.0787640095,42.13458076346639,10.532064695393728,-0.06179540919860261,40.793117842256606
701279.0787640095,6.839033861923554,4.159614609407841,0.5216469938921342,-5.3741648169013345
701279.0787640095,17.639285387294827,7.600660778795403,-0.03828038211766417,15.9077544585079
701279.0787640095,2.725119159671471,1.6818822139006793,0.14526953308892704,2.0640290733049804
701279.0787640095,7.366935908668861,5.361061880515435,-0.4999822702105448,-4.99645379493427
701279.0787640095,83.42175535233679,16.22240027052268,-0.41549708369479227,81.82624353042999
701279.0787640095,53.96745703230959,32.301153858007496,0.7265318729899046,43.22357923648571
701279.0787640095,602.4526728244716,48.17102152899639,0.0773386475665229,600.5234828626906
701279.0787640095,50.399545058462614,20.136857696577888,-0.6211797365333638,-46.194361263496376
701279.0787640095,10.5453473618219,5.253169191068156,-0.09797606141468539,-9.12593763525728
701279.0787640095,8.541237987889655,6.896994808622678,-0.35655620909763125,-4.994081421550328
701279.0787640095,9.955240399252384,4.389465457368884,0.22178757051408723,-8.914818409746585
701279.0787640095,28.969617062193233,16.953230142804337,-0.19391538315053652,-23.483459495549724
701279.0787640095,27.212091024669242,4.78728973101806,-0.3706866394872692,-26.779210574271957
701279.0787640095,13.556374789802287,7.5331393598209315,-0.47129839715124483,11.246722155706763
701279.0787640095,21.4547919740523,18.281266962778197,-0.15014163532884844,-11.214482019895218
701279.0787640095,46.28785537849511,30.146243721112846,-0.2861791736083287,-35.119388080205134
701279.0787640095,37.1396102251957,7.964241068172006,0.5627746801347386,36.2669073556958
701279.0787640095,10.503798423243374,9.25121070582186,0.38409753249209627,-4.927587997983345
701279.0787640095,11.98274966838421,10.289943743314103,0.3145017341749157,6.1064071788174115
701279.0787640095,92.639461779975,7.73228957811612,-0.4500594109457871,-92.31339445546321
701279.0787640095,2.8859805854279434,2.724414317154344,-0.12703727473857346,0.7576837720958829
701279.0787640095,75.30525529406492,4.808082271997219,0.2841490846709894,-75.14896440848273
701279.0787640095,70.20076590560294,14.944532304033627,0.1256360964409965,68.58918629141148
701279.0787640095,13.320667993046944,12.830270812765717,-0.12946823401656885,3.534311422070375
701279.0787640095,335.029369280367,16.378398883718003,-0.1358767826155389,334.62828876307816
701279.0787640095,269.62917111123573,35.2453356737234,0.3837675632741006,-267.3147820874029
701279.0787640095,114.5127473794399,29.702698517808386,-0.0006977018869572918,110.59205570591648
701279.0787640095,16.03039857899278,14.929230298797737,-0.22525756584986764,5.80730513367257
701279.0787640095,24.358532180852645,24.219791523157706,-0.23056451193474606,2.5239653694072315
701279.0787640095,13.88740455800626,11.580495483027192,-0.35834200822290524,7.635934345591346
701279.0787640095,17.920804207329383,9.866076430969732,0.09395308347885052,-14.949605503608508
701279.0787640095,15.781786577715692,6.6435213641694,-0.1585139340830656,-14.303393212829352
701279.0787640095,43.759762468564034,6.584185424431112,-0.12081594196753617,43.25776796957675
701279.0787640095,42.631798328213165,4.109853805134602,0.5249155721911929,42.42626034238287
701279.0787640095,158.38178596383383,16.352221146460483,-0.12893869841979308,-157.5343205021772
701279.0787640095,146.85969301827987,19.88345506169186,0.24008791810826632,-145.5061640571436
701279.0787640095,17.506607428515927,12.508544806741453,0.3596599983652222,-12.229964340062708
701279.0787640095,26.627230759411248,8.024969737631963,-0.20502194153339176,-25.38210033130112
701279.0787640095,2195.1098826971956,38.074784092110164,0.07578659785848765,-2194.779575711472
701279.0787640095,28.183524960814577,28.175090712392418,0.17648734084064005,0.3577252906334127
701279.0787640095,3.6418824912253114,0.9071916267986344,-0.23428600647604825,3.4740745672838456
701279.0787640095,24.48018383239207,22.131809482443135,0.22262741603443004,-10.444932701262326
701279.0787640095,52.36722610213391,28.040250599323755,-0.38009461079135,-44.222279640987594
701279.0787640095,81.03837426849154,9.48898950418953,-0.3698078817990339,80.4780976228922
701279.0787640095,478.29323794740606,35.18599140777997,-0.3374536106502894,476.9967896878617
701279.0787640095,45.031790678856964,7.720200167143543,0.1551299418155199,-44.36124872481046
701279.0787640095,16.395291562072096,13.886790166747438,-0.04044254120697848,-8.697400834195172
701279.0787640095,15.120701193423429,8.65828957743946,-0.43930381940578483,-12.37579940561314
701279.0787640095,56.47953256906896,11.374148645054152,-0.24908801127705985,55.318966635170355
701279.0787640095,533.6046128606401,8.340707199405779,-0.4360363319699778,533.538948076412
701279.0787640095,130.16308232194308,14.742718975753442,0.2415568449960241,129.32403357319643
701279.0787640095,9.752643709999498,8.105950062975724,0.3963693867449812,-5.379060960772522
701279.0787640095,11.868627701546961,11.72881981264575,0.4315328392141823,-1.6723221366755856
701279.0787640095,162.3268878859246,28.81485777636171,0.34186800481912194,159.74758026625815
701279.0787640095,5.17438451736974,4.916430590976103,0.10940968369296547,-1.5082332374481198
701279.0787640095,534.0156198537284,24.986369715901333,-0.44995092275163084,-533.4302624457569
701279.0787640095,148.82054176773266,23.449339688993405,0.23724530644426656,-146.960231380656
701279.0787640095,55.28997445276831,5.587482801343861,0.5808818535457324,-55.000978716786484
701279.0787640095,214.1185096144593,6.1966210007012545,0.5646333421377341,-214.02734173343276
701279.0787640095,2.838898708731948,2.080223341335762,0.047883397986028635,-1.8475650214588137
701279.0787640095,125.79203602741414,18.085153325540126,-0.6815190864694212,124.48205839175563
701279.0787640095,5.140874428689723,3.6539030072955416,0.1291511243070804,-3.5699685281024136
701279.0787640095,25.04356249005101,4.2429727738979235,0.1988513855808802,24.67430718296307
701279.0787640095,32.77014084680602,31.96450377916677,-0.3544432169447159,7.191020225031952
701279.0787640095,37.62619669868156,8.610919133837049,-0.02579937569806009,-36.62329663848309
701279.0787640095,59.025434682140485,16.461081619920975,0.48545475912400526,56.678768843319936
701279.0787640095,154.33513443619407,21.801940506554793,0.1846871170320202,152.7863173679347
701279.0787640095,38.458768087710595,16.678972715688776,0.19771299634586728,-34.64871417736035
701279.0787640095,63.94337401221842,32.37634613195343,-0.12363347395767114,-55.13797038860091
701279.0787640095,42.902231853179714,16.92310583995438,0.17484434087864165,-39.419071383911
701279.0787640095,18.77504805071485,18.72874802259123,-0.21173948336880868,-1.1727599088638385
701279.0787640095,9.755585155808376,6.040454349330798,-0.3191740147360145,7.633233491379369
701279.0787640095,777.0096985231725,19.91248516159094,0.6535185199495671,-776.7540287761016
701279.0787640095,206.9040270595396,17.056770160166487,0.466473968450759,206.19847036240213
701279.0787640095,6.995241121691455,5.320998583352518,-0.22599035148765623,4.500341474523594
701279.0787640095,16.06380443489497,15.673237740852825,0.25235141082682927,-3.4663414440055953
701279.0787640095,7.575252816711118,7.162647716536948,-0.18580119349641733,-2.393780157427178
701279.0787640095,198.36907323326332,18.78519681302561,0.17337483244016513,-197.47673105935004
701279.0787640095,1028.7571920391174,22.604914186213584,0.30495781061176497,-1028.508613867758
701279.0787640095,2106.7050859863652,23.98100382990325,0.49511359392770316,-2106.568458277883
701279.0787640095,262.7409036255947,21.63149757450706,-0.23244110927092,-261.84822033844074
701279.0787640095,18.39409732847935,18.38306456190265,0.2976523401723533,-0.03048813866196398
701279.0787640095,21.1760222335217,3.3773481094643865,-0.17908432000711672,-20.89662984282751
701279.0787640095,6.361885687741283,2.4963966320759963,0.056905097018774914,5.824270578269807
701279.0787640095,43.38023875048885,8.38764498750449,-0.2025064728246812,42.55743518283482
701279.0787640095,4.637031541458692,2.5179145606491717,0.43220998605742217,3.8287249717660425
701279.0787640095,435.0537006784982,18.352034291059663,-0.748128206477052,-434.665445357947
701279.0787640095,57.81128264991216,35.305880887996764,0.08031705494330471,45.774627230825445
701279.0787640095,20.490604022873605,14.359927621614826,-0.1042604690679189,14.605828777529059
701279.0787640095,24.957571946885558,23.47518450604786,-0.05899480427410176,-8.454371774636314
701279.0787640095,12.871008055811068,12.848404023982017,-0.4897552057286201,0.15898065120294902
701279.0787640095,62.09952769577705,23.9169553136238,-0.33093846697980306,-57.305364852651415
701279.0787640095,32.10787691075152,12.300957303595572,0.16183289346964425,29.652315117801503
701279.0787640095,14.17365978499442,11.62978230415005,0.11036090247745342,-8.08160802871371
701279.0787640095,40.737023097489285,16.282320564216008,-0.03888730197157025,37.33729165682681
701279.0787640095,145.01284261364407,15.922670616893708,-0.2114953600534082,144.13477070307437
701279.0787640095,60.29048370342892,10.916019997861266,0.42391983570492914,59.28985576953562
701279.0787640095,138.61369172116426,12.948875003265229,0.5614566926309813,-138.0052560872295
701279.0787640095,16.091573538162237,15.516228959326902,-0.24700267564731537,4.2199692053106865
701279.0787640095,47.451251115037905,3.525561282687269,0.33991310128516583,-47.315535310378735
701279.0787640095,36.60756346446037,24.320304651136233,-0.024082695497932932,-27.355432314330407
701279.0787640095,198.54874012660818,17.641600105562247,-0.3312937886491964,197.76235781514157
701279.0787640095,62.88618315472775,44.92360365445174,-0.252745776704426,-44.00183812796656
701279.0787640095,49.15337861164657,10.235609895302856,0.36475935200929355,-48.07117267371261
701279.0787640095,394.6486601074608,20.731090590935846,0.3016037213312004,-394.1032600922245
701279.0787640095,13.738479895106439,12.376468106781791,-0.3187317186460919,5.9288320705940825
701279.0787640095,12.901572466820936,12.217495054854439,-0.07854016393105426,-4.10621367486009
701279.0787640095,37.136348758384074,5.4990225172793625,-0.3559914985587273,36.720923097213415
701279.0787640095,10.631162330144164,10.537173827686903,0.4458716078177898,1.2143110491334126
701279.0787640095,6.394693589316023,6.048266649567242,-0.02968585881629684,-1.9983663293994458
701279.0787640095,54.20319923613967,14.69552637715981,-0.045121680154635524,-52.17001100790138
701279.0787640095,25.248717560417937,9.187713344980619,0.057316766632923656,23.51093680235231
701279.0787640095,30.1769782710514,14.490357813553192,-0.18372639391840195,26.463740574956578
701279.0787640095,39.093352246033675,28.502261648456987,0.30864718434367583,-26.748827642920723
701279.0787640095,25.580681799680708,8.603053010411312,0.6708795272119588,-24.074726446966224
701279.0787640095,532.8189337933094,25.10222919768847,-0.2234800239904313,532.2269517106629
701279.0787640095,29.768417655863868,11.39044742660547,-0.15679124842015377,27.4968286582257
701279.0787640095,13.811620882101021,13.780533927239874,0.26854421211920715,-0.6851369767689108
701279.0787640095,20.127627923632183,16.420310351122353,0.20667055311942018,-11.624795640663725
701279.0787640095,91.18152900800982,8.660492250187813,-0.253861110261398,90.76721012215471
701279.0787640095,138.80172142800285,22.323738096028123,-0.35194588399974747,-136.99316952129874
701279.0787640095,6.946271458147842,5.195076833596028,0.4701867024962589,-4.552423632289502
701279.0787640095,18.688297396129258,16.270775181867794,-0.31326679289663817,-9.170603636810053
701279.0787640095,4.931863430017598,3.266987662210451,0.43574938626070764,3.6254604644654527
701279.0787640095,138.5914933164825,14.982107485280933,-0.19171253188150675,-137.77802979392956
701279.0787640095,424.3269821756294,15.685828552140496,0.2419552068818135,-424.036517077465
701279.0787640095,243.68589897605824,7.028690332233081,0.09075869869856196,-243.58384677035042
701279.0787640095,16.821926195941725,10.195084820031063,-0.008068646561391668,-13.36866313251793
701279.0787640095,5.881512344589865,4.380464460725756,0.07291331175387344,3.8835775795739766
701279.0787640095,381.969205765724,30.018141911709392,0.33186981294487244,380.78728831789203
701279.0787640095,12.762644945518922,4.911506108888512,-0.13224882631818943,11.765564015183749
701279.0787640095,16.697124885136798,16.203296720507485,0.3779407062293072,-3.973422736047585
701279.0787640095,99.42484132243646,25.67616971682868,-0.7081144689914594,-96.04798658567915
701279.0787640095,23.024861065343064,20.580508638272914,-0.4543225686991495,10.298750160656114
701279.0787640095,215.73868759330577,84.85314039430992,-0.2677405178767654,-198.35003901517214
701279.0787640095,75.92149642318296,10.745593579000067,-0.38092896580973684,-75.15413829918525
701279.0787640095,155.14995063207053,13.733303325797818,-0.0004028036327711553,154.5399214874041
701279.0787640095,16.867479572315165,8.596832570751031,0.32304144964060855,-14.497784440888775
701279.0787640095,471.5733509342675,17.62341722127516,0.04290837303218512,471.2435913710551
701279.0787640095,33.345561516882384,9.541851466505154,0.3390348146653567,31.944457601616982
701279.0787640095,14.029604321789787,6.265187287903562,-0.2196826812747849,-12.538450374457812
701279.0787640095,554.5331782760513,7.080291639827387,-0.5645035879538745,-554.487403272187
701279.0787640095,0.9985108598433384,-0.3263660399548006,0.16976180216974437,-0.7385544498765038
701279.0787640095,34.94688353253875,24.772039312617615,-0.6094008649602451,-24.636216026745267
701279.0787640095,56.402322101822904,9.829943694702003,-0.5124397069015159,55.53391147383081
701279.0787640095,12.937831858371533,12.876291120908101,-0.3059695603720835,-1.0857142317209925
701279.0787640095,67.48352313310801,16.963525087713396,0.1515293502616144,-65.31405302468198
701279.0787640095,36.62379031964744,1.4884865871886277,0.014077999760123718,36.58920605133301
701279.0787640095,206.69286659369402,16.041832022901037,0.21126447230102,206.06853196446588
701279.0787640095,50.72675837037959,36.6104530411903,-0.300532451061641,35.10658336738642
701279.0787640095,19.990410869008436,19.936123886395094,0.6462219984719223,-1.1973557643772934
701279.0787640095,27.21322168266591,14.247981374226526,-0.5838769968236641,23.171044891456898
701279.0787640095,221.13425615088477,22.210539081989833,-0.19368042071256306,-220.01522096797504
701279.0787640095,103.01770548126288,24.114423876557492,0.2516086141593626,-100.1536952360268
701279.0787640095,86.92406143477594,6.303272564325285,0.10457314339279927,-86.69333335588115
701279.0787640095,43.575063273748235,16.820021293587963,0.17104390332868447,40.193625608761195
701279.0787640095,15.236563121244732,5.733424349546956,-0.20105977506706085,-14.104043694709187
701279.0787640095,58.210830582949065,8.717810091477796,-0.36447374883858175,-57.55042585291487
701279.0787640095,158.21037878194616,16.468893276683694,0.18704422411210597,157.3497642058164
701279.0787640095,85.54592000475957,15.865123392822799,-0.3062621146154575,-84.05945672741466
701279.0787640095,245.22534256035848,10.995550556239477,0.32771920908963414,244.97784159905166
701279.0787640095,24.361912063200915,24.35107051713236,0.45978781500534505,0.022176782294167956
701279.0787640095,14.552996041943448,13.45697826445787,-0.46984862221587637,5.492034655630911
701279.0787640095,66.31741711311929,6.869307048936391,-0.4533645888464421,65.95673329063668
701279.0787640095,42.16204083054946,5.4022602208373405,0.30338465333968134,-41.809628099937875
701279.0787640095,24.130388118911235,21.06085971560132,-0.5334595815106652,11.752234352822752
701279.0787640095,16.336392119161825,12.301741302717375,-0.28732715555356186,10.730614339236615
701279.0787640095,8.675546017905418,5.172471942505669,-0.534116595864408,-6.921641768722752
701279.0787640095,1017.5151644312757,14.748790593877041,-0.04418687241738974,-1017.4081112531705
701279.0787640095,20.224377578462303,19.518917248897115,-0.7539907403331432,5.210814564933819
701279.0787640095,28.491420532980875,19.102965798601982,0.1472115346525567,-21.130542895259254
701279.0787640095,17.279131116696032,12.512874767445846,-0.2745714240391826,-11.899778163268849
701279.0787640095,54.38625901355216,35.75984761404441,0.178335347340549,-40.972557123190576
701279.0787640095,30.181155524678985,9.20775072858028,-0.2333118077439072,28.73584544650246
701279.0787640095,90.23326976109873,11.814521666686964,-0.24741404117517715,89.45436047761198
701279.0787640095,15.570255820060815,8.611122429954353,-0.39697584453788154,-12.954058035111892
701279.0787640095,13.64525362666729,12.8057828346753,-0.47855393323851625,-4.653990895985211
701279.0787640095,4.604631222039981,3.3537552627793135,-0.27575407015985864,3.092359393873024
701279.0787640095,5.155266518347516,2.580510572999543,-0.1370949436401423,4.425236223522966
701279.0787640095,15.561115822133972,15.447453378641425,-0.21474606840040458,-1.7782481464613813
701279.0787640095,52.951202156332315,30.302589233164134,-0.3522399687768729,-43.418228835029794
701279.0787640095,116.39929060472585,18.440633421437084,-0.15513235380615384,-114.92779297825274
701279.0787640095,412.15547317019076,16.771643929497532,-0.028697220629656704,-411.8137066357982
701279.0787640095,837.9450081879086,10.661521169471378,-0.02687570274285085,-837.8769908308043
701279.0787640095,6.789808983763721,4.3187911933714975,-0.1446785217431157,5.20695586587024
701279.0787640095,16.732758394559326,10.369900582242598,0.06799904530458112,-13.119813799542165
701279.0787640095,84.3467124950569,9.528868774757132,-0.41005853803282366,83.80384354665571
701279.0787640095,119.64239824854049,20.623824883361394,-0.4007913249521262,-117.84941427413361
701279.0787640095,15.991986572053225,9.943100573924175,-0.15101455927675514,-12.511568754563308
701279.0787640095,43.8323133575383,8.85377793634743,-0.17316534682206558,-42.92477253160064
701279.0787640095,49.63409963596879,31.496432829154507,-0.12206620057370472,38.35606129615281
701279.0787640095,21.956597065565976,18.85838562269057,0.3845305174829224,11.224497997075918
701279.0787640095,8.269755468565055,7.651237331806361,-0.06155834456027727,3.0866496354734245
701279.0787640095,57.18338904697176,21.977182903166323,0.11014912329799892,52.7883988610041
701279.0787640095,111.72968752438757,6.059129954949665,0.08893408015366688,111.5638197706381
701279.0787640095,654.8125475314182,4.627736366175862,0.6975863871416487,654.7955815417076
701279.0787640095,537.3309895919101,35.61381102323923,0.2670875995187108,-536.1491035868999
701279.0787640095,152.48318834779357,18.086534156338118,0.6041014429142134,-151.40448753245954
701279.0787640095,143.64636364664912,8.536862843498206,-0.005582267456092619,-143.39136481369675
701279.0787640095,17.50916918775948,17.28548489729591,0.5340175423827644,-2.6798536107570463
701279.0787640095,10.760209766397159,1.8404778859100743,-0.0010848121762388353,-10.586714636337673
701279.0787640095,104.38340014801797,3.613142421467665,0.3545149499895085,-104.31873043731589
701279.0787640095,9.318823776933405,7.9054561808237285,0.23944843646274933,-4.895985723489174
701279.0787640095,137.16920341101792,18.687014328149417,0.09037194936342641,-135.88915138973837
701279.0787640095,37.023187084363315,20.178139926992365,-0.062008616919836536,31.03609154680451
701279.0787640095,484.64455024243705,12.016388191189488,-0.5157074269464654,-484.4949579850984
701279.0787640095,13.991923327703287,9.793036557431336,0.032261673277912836,-9.977629236311458
701279.0787640095,40.732482861765014,9.927223854232311,-0.010131749879084394,-39.500241221786325
701279.0787640095,46.40477731575821,28.98115960894102,-0.11590865646459676,36.23763352137206
701279.0787640095,1015.6791925547855,31.74030397670364,-0.2123278304718224,1015.1829460652398
701279.0787640095,354.19907610138193,21.48533411227084,-0.3967104341173066,-353.5461671728147
701279.0787640095,24.870881364269003,23.47106225238861,-0.17106185101817217,-8.205150030492247
701279.0787640095,17.4928071085267,17.419455824570587,-0.0232133520799804,-1.4980297233233593
701279.0787640095,10.591819967448911,9.90946769497534,-0.032344663319125055,-3.6975433259886707
701279.0787640095,1.842963367079376,0.06540412620383047,0.27364549139865013,-1.7323761189269073
701279.0787640095,79.71932028192742,6.804587050891954,-0.10684641469023097,-79.42631791618405
701279.0787640095,226.7750996996914,5.754107222951322,0.20693946156476234,-226.70129475265617
701279.0787640095,67.52695079192023,12.352428588324589,0.03306791441056226,-66.38515850954573
701279.0787640095,18.110207239989744,13.751458691076602,0.5263173745645674,11.759411242232378
701279.0787640095,28.307109099076772,23.336088933047236,0.7695482801676128,15.994090999495889
701279.0787640095,19.783192241765054,6.834864472094521,0.2238017672871503,18.555134283842065
701279.0787640095,55.522930258219404,7.922002768154553,0.5472755382479513,-54.949266771135385
701279.0787640095,13.174635856114708,3.9226798131643585,0.0020004579569062593,-12.564528706740383
701279.0787640095,27.61975763023996,27.403007402768182,0.41706062836099816,3.381719957214215
701279.0787640095,481.2921263833065,16.829215572391732,-0.36121156869714277,480.9973406585374
701279.0787640095,29.77999396085729,13.190073489131857,0.3584683731889716,-26.691295859982894
701279.0787640095,531.055034805356,6.455803254379306,0.7079178833640278,-531.0150235363673
701279.0787640095,129.08917847144593,14.68765415217835,-0.30958015726405574,-128.24927581341254
701279.0787640095,84.21622282086099,7.206779127652798,-0.2569352917894824,-83.9050193830719
701279.0787640095,41.6118898934005,20.613285506675073,0.2612591109676071,-36.14218252122361
701279.0787640095,24.7297354683433,24.622261226753146,0.4670882979552551,-2.183957311258092
701279.0787640095,14.884093604344137,4.382740379432898,-0.041457560705428734,14.213018084127864
701279.0787640095,171.08452600272844,0.8323748688843648,0.36774397882829696,-171.0811816846659
701279.0787640095,10.22128582518729,7.026914174640177,-0.6734843837926515,-7.370709089831314
701279.0787640095,33.80450569864476,2.1907993000987904,0.17203031568928623,-33.72831424970116
701279.0787640095,50.312063756880704,12.693241576252337,-0.23104736942589627,-48.680753563149864
701279.0787640095,133.89722975644395,11.228034270019872,-0.23496757514500327,-133.42424047270998
701279.0787640095,12.641596036039363,3.4288902385611886,0.1766469395959287,12.15340407164825
701279.0787640095,121.55110286078713,33.89625019321192,0.06281849463212255,116.7278658073953
701279.0787640095,11.946345213742406,9.429876421341241,-0.3481476137645702,-7.304461683306141
701279.0787640095,460.3654043237097,7.804907290646721,0.23007184000701433,-460.29883745222014
701279.0787640095,591.9714297424927,10.710275463899332,0.4859173680976753,591.8740670850257
701279.0787640095,28.280552447645817,15.77144163944601,-0.08648776329329283,-23.467585470689436
701279.0787640095,27.707104729641266,23.260804792926788,-0.0026438007458362287,-15.04334997580991
701279.0787640095,181.111290140444,22.870896693446728,0.345928098744238,179.66019483214413
701279.0787640095,113.15075332842494,25.788331977092472,-0.3533750844745916,-110.170839205657
701279.0787640095,70.59122777893968,16.63078255976594,0.5001460093747819,-68.60008846464382
701279.0787640095,556.5117549344507,9.700406008463835,0.2901403204670535,-556.4268461304571
701279.0787640095,162.13895429267694,26.030559486267894,-0.23019342034706483,-160.03462517700228
701279.0787640095,39.4156285766052,3.8442557611568926,0.10612364941118742,39.223538648399156
701279.0787640095,479.61512260332677,32.95921769935514,-0.45374657231622206,-478.480755814796
701279.0787640095,55.48833282456405,37.64583409348249,-0.2817662271167962,40.75966922643705
701279.0787640095,4.811433170199798,3.2052291525043017,0.21635322077526803,-3.5374226655595757
701279.0787640095,35.427837482168556,18.594660545579437,-0.00027361042893470555,-30.150523053215434
701279.0787640095,77.60746617902032,76.93709186158308,-0.06559260007497986,-10.16278371415254
701279.0787640095,81.70980067159002,7.98566243266362,-0.40361627469590355,-81.31569090775187
701279.0787640095,13.632992493490981,13.608895994096784,-0.3745230903880099,0.4471456182534083
701279.0787640095,306.44590321342275,19.726332924792636,-0.49119119495376035,-305.8094274044547
701279.0787640095,22.646642230089608,14.866603423554508,-0.5486189779205791,17.06567598313115
701279.0787640095,10.201697367812676,10.039498455190458,-0.008380174013329033,1.7224408045175421
701279.0787640095,5.6325896278282785,4.793801938768328,0.5303853905017193,2.8544689216456822
701279.0787640095,192.47231614222284,16.533136654574683,-0.2705498128702969,191.75989791640848
701279.0787640095,44.73978392787018,18.13217351556966,0.20571205407287094,40.89638131502973
701279.0787640095,243.5116058199383,32.15569236065582,0.23434546140330734,-241.37842172119758
701279.0787640095,16.246042307716003,12.017954324622611,-0.1432008642270545,-10.916314883127301
701279.0787640095,40.344679928730265,37.984411123970574,-0.2479949276998909,-13.58307701636209
701279.0787640095,50.69945680849596,38.526685076579305,-0.14977486414410027,-32.95133984797005
701279.0787640095,35.11491943616125,5.249470199421012,0.18321344311457896,-34.71528244257082
701279.0787640095,15.85376261153349,12.077475866481372,0.010193329337408812,-10.25475666864764
701279.0787640095,30.903474523692644,17.673580501989285,-0.11654256655878795,25.344417142757965
701279.0787640095,181.59796008787004,16.892076484816982,-0.15423567914115432,180.80967021722518
701279.0787640095,1026.4790706582928,19.153730294716155,0.30621089227613707,1026.3001544980877
701279.0787640095,28.083541152593924,18.90582226979394,-0.57921318838571,20.750986787488415
701279.0787640095,150.87271770085428,12.187409303200557,-0.22917386782415275,-150.37844011977234
701279.0787640095,7.917010783545745,3.4965852051628143,0.07392123435709888,-7.080343205003996
701279.0787640095,32.70860881905257,7.103594574999291,0.26533255302206704,31.921864078212437
701279.0787640095,109.3426616594552,39.29919698655537,-0.019749885885325634,-102.03467135012363
701279.0787640095,38.37247748205121,11.570391242066812,-0.6127556682919939,-36.57706081284724
701279.0787640095,392.4340815471164,18.798120413589647,0.5758300268109502,-391.9827690358659
701279.0787640095,110.85523117063578,35.52963757387668,-0.7491080363208911,-105.00309396162432
701279.0787640095,41.41067292479036,22.22392105953264,0.47396132006649544,-34.93422817367556
701279.0787640095,24.692357352855673,12.240983273718497,-0.46271496212737057,21.432230579135062
701279.0787640095,31.743176598107418,16.7012146526352,0.5523647037678154,26.98290858115537
701279.0787640095,371.95485709562877,14.922542223790625,0.1319942598432102,371.6549472302554
701279.0787640095,25.607335656775554,5.955391855943722,-0.1165078974617445,24.898577184057633
701279.0787640095,104.77011792360504,33.69834929518727,-0.08193918645394893,99.20118912127568
701279.0787640095,68.79159484816635,12.172768501841347,-0.022264997344887186,-67.70369639557694
701279.0787640095,86.29524715361559,11.628862968820037,-0.07212822771108465,85.50624420166338
701279.0787640095,149.94825732480797,12.337946605282163,0.15216510239466755,149.4386682445122
701279.0787640095,13.728101412244866,10.42686703112485,-0.01185247411535719,8.912061737819005
701279.0787640095,237.32477501886044,16.187778789163417,-0.05917792338977665,236.771376914945
701279.0787640095,195.6933034409044,32.187457216015844,-0.07900610955519936,193.0272367833498
701279.0787640095,85.21860249698028,7.040074623563467,-0.4712748020223252,84.92413810863016
701279.0787640095,33.10791289776818,14.870614000823874,0.4171752150285931,29.572089427776167
701279.0787640095,180.6108131400063,14.409689621465528,0.7527449561788033,180.03261875487442
701279.0787640095,18.63695405902585,4.505438397738431,-0.04610472434130502,18.075362469298828
701279.0787640095,31.38591242969827,22.515126796628792,-0.38854955346936104,21.855831400810043
701279.0787640095,382.46685712603664,15.711773966344088,0.1226127052723216,382.14356686646295
701279.0787640095,28.026805326034392,23.332184068858076,-0.2985933894732563,15.514690391620352
701279.0787640095,45.949418000090155,4.377555623842978,0.6664114945398545,45.732107863369194
701279.0787640095,144.21651559565007,13.914489575194283,0.27023290430260355,-143.54233207381486
701279.0787640095,15.785542140036373,6.08090924950013,-0.09429062928329475,14.556124663905443
701279.0787640095,48.25917168357367,9.948487289215551,-0.19793158996521415,-47.218850557021916
701279.0787640095,9.932262695492238,9.120637548836518,0.26307408761823403,-3.8830886648598346
701279.0787640095,10.069469260750074,10.033289578730171,0.04625967653817837,0.6394873451294738
701279.0787640095,4.1318048119780055,2.6773839746546693,0.18158248341377511,3.0909911772736036
701279.0787640095,424.10767278631045,21.011916068360904,-0.23738301445827636,423.58640785707524
701279.0787640095,357.1818366613315,22.87519442219248,0.7252323144788376,356.4473982674004
701279.0787640095,23.514644462167894,7.364209586549716,-0.3101481505487527,-22.322511105876107
701279.0787640095,70.37631574312942,15.351860325275391,-0.14535137103088966,68.67902771376819
701279.0787640095,24.947279008034243,3.8330097525840845,-0.0038290314921631857,24.644644937177304
701279.0787640095,4.036559725401609,1.2573190388728668,0.31117711486356986,3.7815214734450886
701279.0787640095,37.686927778698646,7.86170022485982,-0.3179456557922701,-36.852148894344936
701279.0787640095,12.788572499151847,12.51783710469554,-0.4801039483069667,-2.5108989595182067
701279.0787640095,140.49164164824074,26.790557629707365,-0.1750990280722561,-137.9123653188397
701279.0787640095,16.103437702779168,14.876549786115591,0.11982884724055338,6.13827222886063
701279.0787640095,8.401761767612655,6.742000312051154,0.5042737538865704,-4.95625999851501
701279.0787640095,100.80967935096314,1.8244665283318793,0.4618122633720359,100.79054159376322
701279.0787640095,241.5063561878704,18.8586603407993,-0.038094857138648595,-240.76825648468377
701279.0787640095,6.857550868351913,6.380880708683983,0.18916954782830875,2.4409737351049277
701279.0787640095,2.5934889439497972,2.501270937951932,0.2977620878483208,0.25483119139168225
701279.0787640095,19.92988993761033,16.959516732275905,-0.49677806531953095,-10.440895042401852
701279.0787640095,66.9067493522644,18.22353668598268,0.2516375905065271,-64.374189475784
701279.0787640095,60.49828989804361,6.659660002915118,-0.03827692203951604,-60.12798280925662
701279.0787640095,75.00730291761592,14.712112244036092,-0.3753078957134385,-73.54721042212961
701279.0787640095,13.959102126167707,5.511882870927542,0.016391110594849396,12.812462031833224
701279.0787640095,85.06735893925679,33.491900908916406,-0.46812193577033734,78.19343172454224
701279.0787640095,320.7741685153383,8.567618742659095,0.5554947221760455,320.65875677112024
701279.0787640095,21.37125806063677,8.628123714549789,0.42137739291830933,-19.539507822696358
701279.0787640095,115.73877580505435,28.23819558854228,0.030774778880791356,112.2397049188413
701279.0787640095,25.632119845008187,17.966435752552552,-0.3596331903331565,-18.26929639220936
701279.0787640095,195.45152257208088,10.509833419743641,0.27996434376740104,195.16773931620918
701279.0787640095,5.794046263476137,2.749615841403216,0.3114335893686101,5.059384008665308
701279.0787640095,35.81042451870989,16.64574893297804,0.5762352233800422,-31.69632900254435
701279.0787640095,19.070572527420115,4.841152632234585,-0.25251090817593125,18.43556314724262
701279.0787640095,166.75515271283365,15.73590895288184,-0.09135534409679749,-166.01005256462005
701279.0787640095,22.50750055914782,22.069482801964757,-0.21040692422980026,-4.377786175657331
701279.0787640095,5.605778299954529,5.562793704668535,-0.0916451877986821,-0.3942718691632907
701279.0787640095,25.289966275512366,17.96403897669728,0.5015116271139455,17.785048679940196
701279.0787640095,43.98258044154101,23.537118499034165,0.7201588096167533,37.1434594369951
701279.0787640095,226.13434424589565,20.51345887061456,-0.30546659282068533,-225.20108817553532
701279.0787640095,608.4580146567693,14.826586592896298,-0.7126929264587454,608.2766671272644
701279.0787640095,29.058354223318183,18.595758586326994,0.19829332463542368,-22.321069981611632
701279.0787640095,87.28074133347481,9.589354489045201,-0.23183874242868202,86.7502283086425
701279.0787640095,473.2397797065674,15.62608334784365,0.6493272358853915,-472.98094756836355
701279.0787640095,17.515184322783398,13.489970020657905,-0.3877756536389047,11.150596098190993
701279.0787640095,10.27601972203829,6.761783540525449,-0.6233274552427527,-7.692210356071826
701279.0787640095,30.63584237256069,25.121699360327355,-0.018152816623225498,17.52536739131824
701279.0787640095,5.431615391421312,4.521787617349439,0.47928930222965377,2.91717960852557
701279.0787640095,6.653509870711065,5.409713215311028,-0.218192025529803,-3.826272516098794
701279.0787640095,69.28724144459163,21.124110048050472,-0.47238125372443157,65.98450143957925
701279.0787640095,77.694399374682,4.777042913180823,0.13481319274697381,77.54524584525473
701279.0787640095,21.84230854983833,20.93696785851921,-0.7587746346855223,-6.151248111655944
701279.0787640095,504.26828851157165,25.304410976555154,0.6543652504992152,-503.6322558794642
701279.0787640095,103.79147154608144,15.18866002332626,0.10641916403492785,-102.67252125061547
701279.0787640095,8.252981550355873,8.21126973781302,0.034758421178714166,0.6077155710253904
701279.0787640095,7.230308263104017,6.700595953709611,0.5834990868547054,-2.5928117671746507
701279.0787640095,141.54864446962787,12.673083854759522,0.3846280633361359,-140.97853570899352
701279.0787640095,42.98210221587216,13.795558440091842,-0.6463945134613424,-40.699012579599255
701279.0787640095,239.28813404565562,16.581239256913985,-0.21373657663794154,-238.7121942612739
701279.0787640095,50.318428476751336,8.314182482942709,0.40235143263889306,-49.6219759777323
701279.0787640095,14.961624554789513,3.52692894005997,-0.26749564829633676,14.526637609856909
701279.0787640095,9.274268817674976,3.1539212244155,0.15711621996517586,-8.701949787594884
701279.0787640095,210.50078750755867,28.941800585512585,0.04171435668831191,208.50092506433384
701279.0787640095,101.48189706213323,25.56566521128244,0.6651035182285266,-98.20495712306882
701279.0787640095,67.09051663884094,36.71999260569692,-0.23508119810807193,-56.14630954331879
701279.0787640095,36.28591628513399,11.700754187054002,-0.31873927140287206,34.341552818451234
701279.0787640095,48.67687837917494,15.693947004051822,-0.3305700112904286,46.07290974360481
701279.0787640095,8.65168083132917,7.562826138458439,0.4145818989544021,-4.143324324189063
701279.0787640095,11.464185784377284,10.866710967175667,0.2750646263380447,3.5986470382129436
701279.0787640095,94.1710249165387,31.406939488103717,-0.2464793686562717,88.77730062545544
701279.0787640095,89.674697259652,28.197416998179285,-0.32641885457258357,-85.12364082070341
701279.0787640095,10.390532715947824,6.332201043083958,0.3565028781855013,-8.21115572673622
701279.0787640095,5.70183886391929,5.229445975616317,0.08017656988027788,2.2002739682984855
701279.0787640095,1.405823334578401,0.9076737547020363,0.3604100182127028,0.840443229231554
701279.0787640095,137.19141473860674,12.977607413034022,-0.12546180312928923,136.5750124135057
701279.0787640095,339.27035803801766,19.730748042260053,-0.6822073999143509,338.6949834151678
701279.0787640095,16.88652759445445,13.812178903965085,0.49651865211242197,9.685854115717262
701279.0787640095,100.01313185340423,13.223467466913572,-0.2611721428217736,99.13315294587088
701279.0787640095,261.2019787132176,24.00871908237881,-0.2372686791340544,260.0955258513634
701279.0787640095,877.8614719825679,19.0706082811767,0.37667074493937047,-877.6540421959761
701279.0787640095,11.646229152421895,8.80597040589088,0.39785778391200904,-7.590455879905716
701279.0787640095,39.43059961347899,9.375678975994306,-0.04424659978761518,-38.29556951470645
701279.0787640095,31.12022388692549,9.837414916183505,0.21515612070124382,29.51831775326403
701279.0787640095,343.6750145811794,12.635565482337439,0.3913186611074436,-343.44197293665303
701279.0787640095,19.11292254218402,15.41182469814446,-0.18825598921745168,-11.288392261940285
701279.0787640095,207.79443356006738,16.010088767050167,0.16094412311818707,207.17591931932967
701279.0787640095,23.69055569955232,9.068494015756553,0.3193236399419136,-21.87662338324796
701279.0787640095,49.427362993298146,16.86028609268311,0.4573506721716284,-46.45717994354069
701279.0787640095,6.865878177952675,3.105357451803945,0.24547506018647794,-6.09266385463353
701279.0787640095,11.389400389574394,5.365394484572612,0.08146589248656884,-10.03035987225958
701279.0787640095,5.091387945839933,3.224277163782313,-0.12502916330718022,3.898000550820608
701279.0787640095,246.379363844102,9.479616360071823,-0.24643515208079897,-246.19616334176652
701279.0787640095,68.71226410164212,6.274122622181038,-0.3033634562675687,-68.42223590696801
701279.0787640095,265.69164582646835,20.029564669289176,0.2885569319739211,264.9348367214719
701279.0787640095,123.92813647432781,36.92136139398525,-0.020214451321513317,118.29911008452277
701279.0787640095,311.64233371385757,21.52415617212982,0.3766151888654343,310.89740558148185
701279.0787640095,150.01812932414134,4.36165602428729,0.30121581364238975,-149.95335316115438
701279.0787640095,183.151261750558,11.63251040680406,0.10162900762039985,182.78058656925668
701279.0787640095,162.26883322236034,6.293626650370618,0.12784644682418556,-162.14571202106362
701279.0787640095,12.373674877044678,4.169766917640279,0.2644219086568024,-11.633345497719066
701279.0787640095,67.13887346329908,13.203011263257515,0.1580851913276149,-65.82528089704732
701279.0787640095,115.92002386528696,15.388151366800422,-0.1057979344149965,-114.89268605893905
701279.0787640095,109.18533881506818,27.31294252382126,-0.40848838562576784,-105.7116752903396
701279.0787640095,82.47573610393485,8.577911007950073,-0.5425817412644031,82.02472716369961
701279.0787640095,225.09913018034644,7.527687908540296,-0.45112673868911385,-224.97207066648406
701279.0787640095,577.3246336514447,6.862300844934815,-0.405681071884618,577.2834318108879
701279.0787640095,146.5604181321897,38.31647685892107,-0.3985325934502236,141.46140360032388
701279.0787640095,26.12525485571981,2.577205731627691,0.1636223885551981,-25.99122837048798
701279.0787640095,43.883927026646326,35.42530210921816,0.16318767016724067,-25.89409515960478
701279.0787640095,229.3349364635489,23.379374700807183,-0.649602845865038,-228.13850992342702
701279.0787640095,97.0227085349578,23.060459097056047,0.7902494772333436,-94.23736242094124
701279.0787640095,470.68787017146144,59.26330181095018,0.027531508576741023,466.94176853182296
701279.0787640095,22.139778498284034,7.0582346817574155,0.3421550000441417,20.974217927874705
701279.0787640095,20.625145559125276,10.567107011398514,-0.44956704873023484,-17.69786825618194
701279.0787640095,26.19688595778418,8.62713425811757,-0.42852121692567974,24.725483423867118
701279.0787640095,10.98225495160887,5.762362670555881,-0.22227016721965168,-9.32949456549521
701279.0787640095,19.67193322842222,6.924465149639126,-0.411507496445908,-18.39976014830148
701279.0787640095,532.4151309559453,27.302099960221973,0.7200798687099439,-531.713863150267
701279.0787640095,21.04071209878169,9.71853964260341,-0.3626812865740587,-18.64976642542883
701279.0787640095,275.3295842423983,9.673673973484846,0.2126378087924875,-275.1589332525997
701279.0787640095,39.59215481158593,7.054550113886346,0.06566095002368608,-38.954479929202165
701279.0787640095,77.50239264682385,0.7420234391902312,0.4064900716288537,77.4957341123983
701279.0787640095,88.77783826502588,6.786540046820455,-0.16330358166616948,88.51612590790408
701279.0787640095,67.36109442179065,22.65007947151356,-0.050363587332318965,-63.43636321341495
701279.0787640095,86.44304911655732,27.96750068323859,-0.25162102699100036,-81.79144274041803
701279.0787640095,1745.5201115573063,12.357855354513209,0.6287520977484679,-1745.4761618840482
701279.0787640095,465.36080205018504,16.249900592477236,0.4109280578705062,465.0764794377986
701279.0787640095,4.356832495272059,2.0503781334681896,-0.36403789163325223,-3.7853913819878997
701279.0787640095,591.0874637284029,11.126445867699312,0.3523921133554466,-590.9823614725125
701279.0787640095,155.5920120139246,27.1494737220478,0.41026131624210893,153.2034455794295
701279.0787640095,10.767589751269771,5.502068166592704,-0.08420893132375877,-9.238231237494617
701279.0787640095,148.73290658130907,13.393125075168783,-0.5172695209596502,148.12669545253385
701279.0787640095,229.53573631351105,22.329886002274392,0.7422787777303059,228.4450989426714
701279.0787640095,4.582050819049963,3.1700107317202497,0.15335761006879656,3.2567584669864416
701279.0787640095,5.763141761797512,5.705123164709014,0.12613276009234073,0.577265769490653
701279.0787640095,90.67690403067142,10.272808076306063,-0.10129736412484552,90.09130840574309
701279.0787640095,550.4942565032002,11.858181973516885,0.3243202656425728,550.3661404485736
701279.0787640095,6.464120900128774,5.46758507443625,0.24174554431299186,3.3934796532184204
701279.0787640095,84.64079599030444,10.103009304263768,0.38911068107594504,84.03288590990962
701279.0787640095,68.75890630861787,4.673359864374101,-0.16013069906993052,68.59741274344304
701279.0787640095,71.12135475195713,19.210878819722495,-0.43864520689699654,68.47394102656759
701279.0787640095,206.62786655720737,19.208178860845976,0.7252068439497233,205.73108406477144
701279.0787640095,67.34326302129222,42.19356356078406,0.034968670532331055,-52.483338481739324
701279.0787640095,27.40620915721469,21.224163820763653,0.08444916521277569,-17.32950695826628
701279.0787640095,30.183771387671612,13.502677281985093,0.47658916591052825,-26.98507729780374
701279.0787640095,249.64907766825695,41.145470423513906,0.017242279085230856,246.23443244100253
701279.0787640095,102.24532876824301,11.650333309212538,0.6486967259630837,-101.57578428871616
701279.0787640095,41.41125386483078,6.824680791882548,0.07277341344642856,-40.841084160149165
701279.0787640095,137.23220784690193,22.14474673086204,0.011412264073600268,-135.43253931430664
701279.0787640095,36.24207648129317,5.7201168582823385,0.18140965263181547,-35.782946132776004
701279.0787640095,147.32448956972667,21.794465269837755,-0.49700839469803837,-145.70155546814752
701279.0787640095,55.49518622708203,11.375641963439632,-0.0027112386426181917,54.31384933464991
701279.0787640095,447.5307005405937,23.741834094675774,-0.5608976475441799,446.8997901169838
701279.0787640095,454.93337384601364,33.421287258681794,0.13657061581516572,453.7037109369462
701279.0787640095,188.55326021042896,11.068432653776277,-0.15650430881031127,-188.22720582735008
701279.0787640095,1010.9530777491472,28.217124444225483,-0.08113386909486918,1010.5590514603622
701279.0787640095,21.721070603374567,8.124215925989123,0.34556366892987034,20.133712576053185
701279.0787640095,29.640558733957,24.998188151438878,0.6750382202971459,-15.902245351121724
701279.0787640095,14.782193562611381,13.420275339502824,-0.36442104867097563,6.161203310510554
701279.0787640095,19.397318503210446,4.316496315152738,0.32893880477605325,18.899719483068914
701279.0787640095,253.59294200807193,7.236371780238612,-0.12243272368866404,253.48902134529493
701279.0787640095,10.281569026769247,2.330265580547583,0.33764020701357017,9.992511979810818
701279.0787640095,334.84094155678144,17.612695985318076,-0.37274792174988897,334.37672454037113
701279.0787640095,294.560697093952,5.637512492650314,0.18894155449532946,-294.5061473026647
701279.0787640095,28.993783731548444,27.250184899415093,0.2479534801721139,9.883785190446142
701279.0787640095,1211.9658377921749,15.902911125326739,0.3115444700810523,1211.8613270938517
701279.0787640095,95.5928724103417,18.637388672921254,0.5217813882300805,-93.75530126823205
701279.0787640095,191.79389841068104,1.7309292236613827,-0.13497932193306508,191.7852155531591
701279.0787640095,88.29469430479637,10.771775437182658,0.5682377907501915,-87.6315170171168
701279.0787640095,29.28882237785446,22.340474493790428,-0.6323719324640054,-18.92147441434093
701279.0787640095,101.68680783298308,16.683751826530585,0.1656975099011087,100.30710657370044
701279.0787640095,28.382125449078707,13.04165793590904,0.4424266701677934,-25.198179190791258
701279.0787640095,7.814117393861556,7.77469208780424,0.47806407834515674,-0.26423648801559185
701279.0787640095,37.34081577696742,24.05434290357971,0.3291248268647921,-28.553468437555587
701279.0787640095,19.479268076234632,16.349264465518637,0.005697266863653326,-10.57483694263001
701279.0787640095,1399.39647306353,44.901676584952824,-0.013753184070374357,-1398.6758065563147
701279.0787640095,285.57166181416085,21.23864741676942,0.39448898350560885,-284.7799537155822
701279.0787640095,18.465509976144787,16.0403085195833,-0.4460944128894057,9.119667408968049
701279.0787640095,39.84183248856426,15.494929766158032,0.005329555799922756,36.70098788567138
701279.0787640095,193.18566761100513,31.738613630964508,0.3182041520295016,190.55955786528122
701279.0787640095,14.937162699814817,14.793888113256832,0.6527949704468907,-1.8754560350633418
701279.0787640095,8.452157087711711,5.199065564249782,-0.35584615482437404,-6.63067287745393
701279.0787640095,7.096715843942334,6.793615873379041,-0.1262770701162996,-1.9692602255457097
701279.0787640095,30.308436375468265,19.58880072509044,-0.3691900980086131,-23.11769177382888
701279.0787640095,58.73760319640415,26.336868792040626,-0.0868674681387967,-52.499062830985494
701279.0787640095,93.7673603350464,25.642429707782135,-0.6483289868192867,-90.1889522336769
701279.0787640095,69.82464536042005,6.509305906038413,0.09060370409805431,69.51823933255622
701279.0787640095,32.50884742925106,19.57901391114129,-0.37943841894843683,-25.942767287465774
701279.0787640095,40.16176083167318,23.416466071153252,0.21105759989533351,32.6232337012794
701279.0787640095,3.439224617081366,3.3679206731432867,-0.10512970465056275,-0.39761369577974204
701279.0787640095,169.8942831672764,23.16816300886173,-0.0793702229313978,168.3062124482781
701279.0787640095,1601.551182395818,18.19036849014941,-0.011943538809665007,-1601.4477774681216
701279.0787640095,233.7555515880686,23.21804573860428,0.0008389090007647667,232.5989338372346
701279.0787640095,281.18982227395037,27.427083004045837,0.1581844790581104,279.8484054244642
701279.0787640095,166.69398243060857,15.62977942909432,0.4947451486551848,-165.95792470807618
701279.0787640095,54.94946490312611,25.419865480340523,-0.2710563704867305,48.71226163036385
701279.0787640095,161.61840608007668,32.75645765578833,0.3469765461165235,-158.26271527300827
701279.0787640095,46.66561596806112,17.278797343667662,-0.4244085866887841,-43.343125475515585
701279.0787640095,21.758649286553002,7.825658141878846,-0.5551404103238237,20.287273970304714
701279.0787640095,46.436119168075635,7.850563108787331,0.10716305149859387,45.76411378959263
701279.0787640095,31.738377768069757,31.41399491328049,0.3140784980749419,4.48003060635287
701279.0787640095,17.204098702010892,10.707372784129294,-0.10743822656175904,-13.453825100595457
701279.0787640095,14.789190001342199,3.720595732999655,-0.3602842939529045,14.297946569862209
701279.0787640095,85.37361222583249,9.932950515783869,0.19979414910372734,84.7917095796252
701279.0787640095,24.19096956328129,8.165167758980768,0.013966302794623828,-22.76437175547368
701279.0787640095,68.52797757980302,5.010367202759955,0.24177545539419668,68.34182649666586
701279.0787640095,3.7190595016861048,3.588137313399198,-0.16270470479721133,-0.7835649150070062
701279.0787640095,261.65764055914974,10.248604342804478,-0.6717601949523985,-261.45538717503234
701279.0787640095,21.96975380449947,21.33573969925359,0.5606682574637161,-5.179354923231727
701279.0787640095,210.5457763498311,10.531041534730392,-0.33604767374490824,210.2812211004767
701279.0787640095,6.326023100318192,4.352850071671975,0.10963167347297155,-4.554450352698467
701279.0787640095,232.44752130890674,6.548713081765394,0.48380804715886033,-232.3540708100476
701279.0787640095,22.217390258824945,6.66677140009018,0.2723225373242478,-21.18433860301646
701279.0787640095,21.0722905985499,11.94438972320993,0.6858189285097109,17.337428015909055
701279.0787640095,8.904418199122029,-0.34632292994014746,-0.4380145259688856,-8.869083366831804
701279.0787640095,121.00120987809848,12.950667698767777,-0.5606012546891247,-120.30354316042686
701279.0787640095,28.996843652607005,23.693245241881687,-0.595781001667016,16.696583163017447
701279.0787640095,18.138958178114947,15.977823024129409,-0.1836655399220761,8.566271929268138
701279.0787640095,33.70274927511066,19.195784721372892,-0.5689985780254747,27.690380474988117
701279.0787640095,60.62211586260723,4.4087017161653765,-0.28445293090943524,60.458309106086276
701279.0787640095,31.54313138949557,17.741087247291155,-0.6462631019402867,26.06701129285391
701279.0787640095,25.50269858118645,22.56235061967542,0.37163735501812284,-11.869019661023218
701279.0787640095,90.26708286428688,20.06293740037824,-0.09682015215514687,88.0073814526622
701279.0787640095,51.04119961124149,10.974180645604363,0.05137998305250419,49.84428301830915
701279.0787640095,3.4585372237854437,1.4530217674071146,-0.3695172329768931,3.0655239496703874
701279.0787640095,29.106320000932843,28.90507823057297,-0.696132821368895,3.2974972594214624
701279.0787640095,99.52879342928179,30.359497471701964,0.2345080607847339,94.78349230390025
701279.0787640095,46.37347010869493,8.068671774518979,-0.02291003637289672,-45.66265994712808
701279.0787640095,76.29701986800467,51.99429413509324,0.03773748401752127,55.83467530678517
701279.0787640095,169.35236747194517,10.851155591191153,-0.12423750375170538,169.00338791968312
701279.0787640095,12.250202091924809,9.375527391315114,0.6533236806512505,7.837338718960561
701279.0787640095,63.65487237050416,20.981839638784095,-0.368825129622818,-60.093701188236025
701279.0787640095,112.54108398575696,49.60517980427985,-0.15250884255130806,-101.01723731585085
701279.0787640095,10.272076271479156,9.993798746753829,-0.12440961578070361,2.303873343672988
701279.0787640095,48.95198476787325,8.811972606131748,0.028308929150832524,-48.149028263373374
701279.0787640095,58.941582598055454,16.525215570935536,0.32845602164424736,-56.57387470148274
701279.0787640095,51.325216138998236,10.145908296720506,0.0797645052135084,-50.309201611363804
701279.0787640095,73.08842156047707,21.702944503034008,-0.45659880477521136,69.7880710166962
701279.0787640095,21.156931020371477,11.17366050959787,-0.09562017391686332,-17.95660520251723
701279.0787640095,11.520998720515452,8.452521439345938,-0.5482594399335197,-7.789189753867774
701279.0787640095,95.2089524740412,10.931265371171248,-0.5544555691989994,94.5760456998006
701279.0787640095,5.610767586485832,4.482793763605872,-0.3459875057129777,-3.308978426666734
701279.0787640095,48.71756324308729,25.63412734524281,-0.09457932714842603,-41.424235791897
701279.0787640095,75.55158876069392,13.2785450831838,0.001245658620680218,74.37342654326824
701279.0787640095,14.428099471803105,11.198969563678723,-0.29869441264059343,9.074562762338408
701279.0787640095,47.225130072889996,6.615697647519668,-0.01698441727301491,-46.75605778043387
701279.0787640095,34.83057836548485,4.432487548416781,0.013091702618953831,-34.542811764741344
701279.0787640095,99.8171604280042,11.701201499629542,0.3152610690149716,-99.12684693075371
701279.0787640095,12.683622241900713,5.5871314329128055,0.17751807030521183,-11.371477276986937
701279.0787640095,30.07593153754752,8.090053070498616,-0.2800123734333693,-28.960629565639703
701279.0787640095,59.070279616768254,20.621312160747593,-0.5511714861739851,-55.34834596774088
701279.0787640095,58.01930828451019,4.561899111135336,-0.15342077042527463,-57.836748222732716
701279.0787640095,43.054039673328234,6.846286807147132,-0.06583760657214222,-42.50244848424717
701279.0787640095,32.64855452845519,15.722883343241445,0.38405932258943815,28.605162527221967
701279.0787640095,1.1149567290168896,0.9139651103375869,-0.12821884368704362,0.2740963562475839
701279.0787640095,31.245185889747077,15.158924814370152,-0.3619062819265215,-27.313392982197286
701279.0787640095,33.750472299991415,4.400819980507983,0.12132693784443126,33.45737910156027
701279.0787640095,24.110253125175664,10.99978867918953,-0.6492457358906037,21.437611978654793
701279.0787640095,178.27973550366036,10.927168603160354,0.41993195630448643,-177.94316088943964
701279.0787640095,856.3035526166619,9.27626040354117,0.32636386830957503,856.253059834572
701279.0787640095,379.8482442914249,22.416546000356156,-0.3024034051156076,379.1856794256242
701279.0787640095,123.13577276214934,30.413673907559755,-0.23751636586076771,119.31912810506105
701279.0787640095,102.35766690080794,19.667504721775106,-0.6043233866005913,-100.44699994146085
701279.0787640095,467.0880119385797,22.661951762311524,-0.49983837944996407,-466.53733052484836
701279.0787640095,12.102870699810302,12.058381273599894,-0.1300521705665065,-0.861266085174642
701279.0787640095,60.728170018614584,18.242911984228652,-0.5144820750773071,57.91826893942522
701279.0787640095,98.52669056790539,30.882284902741333,0.02228335268094177,93.56001554885295
701279.0787640095,126.62706911410655,29.783478555509987,-0.4549297833682259,123.07248209512196
701279.0787640095,31.672994479479023,13.620745761180082,0.3618394955872512,-28.586827543215712
701279.0787640095,91.33902090596695,28.088731038489037,-0.6038693173126662,-86.90891233444023
701279.0787640095,170.35730137781565,11.417827860585506,0.08647108056170949,-169.97329094604802
701279.0787640095,215.15581003858324,26.45143976982477,0.4674066470863222,213.5223857844611
701279.0787640095,42.14627772602844,29.21538901632797,-0.10492387108779119,-30.371739073769533
701279.0787640095,52.62101989375854,16.03780388753327,-0.36400757965257496,-50.11299085273228
701279.0787640095,45.768971752438915,27.74262020655851,-0.5808882682388126,36.393572794790906
701279.0787640095,16.65817866011848,14.005718145671205,0.3318007041557665,8.994912806074543
701279.0787640095,214.38600318416917,26.339474404433457,0.13337456827165114,-212.7610312844085
701279.0787640095,22.716872607154833,22.68064191628961,0.5793099129529462,-0.9964717453203125
701279.0787640095,5.056677341841591,4.964874913977762,0.161664034952542,-0.7600264255736886
701279.0787640095,101.90533037207113,8.76607526946224,-0.2760679312344304,-101.52566100108953
701279.0787640095,45.19453684724994,27.392848169320537,-0.38744076540290223,-35.94039081956412
701279.0787640095,19.56221230194906,19.05605147167759,-0.48297089366738616,4.358619525823562
701279.0787640095,29.378532304614723,29.36337485829076,-0.07490094353886607,-0.7540157512709903
701279.0787640095,954.9071615716696,22.913548897864363,-0.7391294540470104,-954.631758301607
701279.0787640095,13.377986483212306,9.354045580444145,0.45407932029808296,-9.53676770161574
701279.0787640095,32.4764969273641,6.610040047678039,-0.05091714591761273,-31.791687644495266
701279.0787640095,203.51409139898294,5.574837355708944,-0.46457785532149626,203.43641396374215
701279.0787640095,102.35192091352472,8.52149118899327,0.5416908763342663,101.99357943615149
701279.0787640095,201.14456972874711,24.4017770434217,0.006391336268063075,-199.65814518881135
701279.0787640095,27.6234897465237,8.871656774346041,-0.15134617463479874,-26.15361846455749
701279.0787640095,55.898245921644026,13.26670240414009,0.2174081246975956,54.297744066799034
701279.0787640095,36.39655552243033,5.32693670951458,-0.28256513154175333,-35.999123999568866
701279.0787640095,287.1130818641224,32.35254188540216,-0.4805590364819162,-285.283521512687
701279.0787640095,60.50129520222642,14.75930713834595,0.04048355233171465,58.6707057024596
701279.0787640095,21.637560121036234,21.57684645742007,-0.2679709604297605,-1.4952154053720337
701279.0787640095,19.10999468312449,7.2061119308280075,0.11995797386857654,-17.68991888940277
701279.0787640095,31.748872683053957,12.717838410060683,0.6424398681170913,29.077801609405206
701279.0787640095,27.022220762587708,8.32122314919624,0.453013795268234,25.698953506793274
701279.0787640095,9.087311949327757,4.96140016731561,0.5318701868682297,7.573944385074098
701279.0787640095,45.226204770765314,9.097591770410252,-0.40567702686429574,-44.29630481988032
701279.0787640095,12.71679360183302,11.997850393193241,0.4356148377647864,-4.154808992843369
701279.0787640095,9.094950522991134,5.36847271194814,0.3384437732314188,-7.312103265737212
701279.0787640095,56.52103425215401,38.535392652817094,0.3260432450386946,-41.342814302227424
701279.0787640095,26.15911238500108,9.551646626228028,0.2039487367807841,-24.34558245372799
701279.0787640095,30.16797770826934,17.241616338908216,-0.3976369769434116,-24.745892638230195
701279.0787640095,19.38929901405828,13.2329290152895,0.39110432334257045,-14.155045600097958
701279.0787640095,61.29884961371184,17.746253573680356,0.20259489304821818,58.67079491512048
701279.0787640095,513.7361371066927,18.535229596223818,-0.11634819093861351,513.4013382031841
701279.0787640095,78.65042083531736,8.001575068351544,0.3881518115873353,78.23935457791643
701279.0787640095,341.72373441626826,20.879051676194024,0.03595895434288662,341.0848257311609
701279.0787640095,67.68449836578117,14.49714975356109,0.3013374725940654,66.11064162733248
701279.0787640095,14.8316133431524,11.87559344330352,-0.03538047837764252,8.86733080197257
701279.0787640095,5.469942255199307,5.398086072932817,0.26221218384095296,0.6292474829413222
701279.0787640095,7.441970794811487,7.404985792357604,-0.13757267888825023,-0.4625592757168798
701279.0787640095,37.913131410825166,5.500425552055908,-0.3660347199965829,-37.50600809609394
701279.0787640095,7.8862659552054915,1.8706943621092647,-0.5496738559053146,7.620716801696471
701279.0787640095,92.73643064842172,31.845733411449892,0.3624399090187972,87.09447308990659
701279.0787640095,129.37621088727906,22.953235105211746,0.20813936645496472,-127.32239941329428
701279.0787640095,12.887660639144027,12.836627530660918,0.30650422793970633,-0.9500621804884575
701279.0787640095,8.3544185774943,7.943670339261471,-0.5329675792775189,-2.4686290665625563
701279.0787640095,9.433076437939029,5.105464010708152,-0.6182275577822082,-7.887885369722476
701279.0787640095,13.744727757179021,2.5126987982232833,-0.11377204412722905,13.500915316750522
701279.0787640095,12.31714309718191,11.80713056829225,0.25964004933148266,-3.4525413052209686
701279.0787640095,416.8063979615539,17.75993944611041,-0.27122625160795055,416.4273863970474
701279.0787640095,33.66863067429268,12.971963843716338,0.23865740257549714,-31.063349155607046
701279.0787640095,146.03345515246974,9.811993522035781,-0.2558464440691076,-145.70213835798256
701279.0787640095,15.923516227806465,15.253351894431681,0.20986122017212366,4.531374615923976
701279.0787640095,727.3153009570361,12.193007017818807,0.6978850953070722,-727.212537237279
701279.0787640095,207.33919279304607,14.088729404370019,-0.13084284403392255,-206.8591676107014
701279.0787640095,142.94556246528427,12.580042997330251,0.44944613330917377,142.38910814200216
701279.0787640095,565.1045935699901,9.053808497229596,0.0712441480249786,565.0317769138921
701279.0787640095,160.70477485364933,9.039390733000854,-0.029175553243326678,160.44935960397308
701279.0787640095,26.686854278840613,18.36506362994271,0.6159405538841504,19.34468968482123
701279.0787640095,305.29285023905777,19.657329264706703,0.08386157531239072,304.65881006972796
701279.0787640095,52.207694081670695,4.250323349182478,0.6353651851958464,52.02747501497519
701279.0787640095,56.973301736262286,15.24819451722951,-0.11715650398714463,54.891891219461655
701279.0787640095,16.332615512453224,1.7325440594091432,-0.05619110517534663,16.23062647340675
701279.0787640095,20.04909506984281,2.0743556823978877,0.16468901399805136,19.932885183808356
701279.0787640095,39.61792972350471,6.370747247148625,-0.6398003874330396,-39.09307308403198
701279.0787640095,24.719268490658692,13.601072717318253,0.37961167693870457,-20.629898769163738
701279.0787640095,214.12813756446235,17.74729603844057,-0.4472587274876581,213.3901977888855
701279.0787640095,6.857278295567281,6.035204470706199,0.36965580020038563,3.1852315157180064
701279.0787640095,2.8569886076649293,2.6604121504262555,-0.7377572024791308,0.47336878234703017
701279.0787640095,33.83252279984304,27.893379769074972,-0.35583067223563836,19.135206327407957
701279.0787640095,208.6338481451242,18.250445912465572,-0.4832288104145053,207.83275506607572
701279.0787640095,35.7714375193229,33.0547976549787,0.29899780617041744,13.659080023883805
701279.0787640095,32.07277466121837,9.900187912472077,0.08244435870991577,30.501247995688125
701279.0787640095,8.742788958366342,8.285565608563488,-0.13203878335645478,2.729853416601546
701279.0787640095,42.01686627042626,12.491646866465722,-0.5183457703775856,40.10973572603604
701279.0787640095,5.069959796154471,4.755914050740111,0.0009031876056826188,-1.664195199057676
701279.0787640095,165.87421791324743,6.8790186057731635,-0.05445784479864459,-165.73055263980683
701279.0787640095,307.54655820179323,33.31098980542522,-0.010204956928193804,-305.73672839292703
701279.0787640095,24.976192757342194,24.789431862657477,0.15930944581956213,-2.992100546232817
701279.0787640095,252.9827337403741,5.024265058734489,0.05594363995544888,252.9322062812118
701279.0787640095,2.4638518425851816,2.340787917869403,-0.03325309805734334,0.5233972267366429
701279.0787640095,21.98130793023161,20.308364357022622,0.1473004415573233,-8.391085188800808
701279.0787640095,54.683597680697005,16.469769220504382,0.39836900551499876,52.13988523062571
701279.0787640095,97.02844370820661,31.980055379446128,-0.40481032695345337,-91.60412025429363
701279.0787640095,181.98892825209305,3.6913647097139552,-0.0513967983953665,-181.95061133146595
701279.0787640095,80.49485740108247,10.199169580574594,-0.0005276457827591008,-79.84411550144816
701279.0787640095,61.15625576806613,14.399641617100439,-0.18259976713589074,59.433899172046175
701279.0787640095,6.849483883942546,6.705302429826197,-0.29896663736185813,-1.2444839695307754
701279.0787640095,52.06128296861017,9.637300661116086,0.19936365862042194,51.15802622303065
701279.0787640095,268.14002907156765,47.03839668616878,0.461705166559293,263.98093686596894
701279.0787640095,33.960882510202765,8.40747154552196,-0.011832473930557667,32.89893000806126
701279.0787640095,1.6981822824867407,1.570998127515195,0.23999266417559798,-0.20485133330424357
701279.0787640095,610.1799609842774,8.114787619416322,0.43227088046355266,-610.1255870090614
701279.0787640095,348.1987224887577,33.88341475345481,0.15694648764888797,-346.54570216329057
701279.0787640095,92.42843058594038,16.498652017952416,0.1600710068538289,90.94211022426848
701279.0787640095,12.574967351700433,12.089652251976906,0.3292735744285419,3.3978616563220574
701279.0787640095,7.131972256556277,6.6701997823887105,0.0026521656447310686,-2.4611437782149923
701279.0787640095,279.7787297314063,28.205684794152006,-0.02493337532560049,278.3527619879832
701279.0787640095,118.5604965117325,13.359425998019564,-0.2735568769364953,117.80376059085202
701279.0787640095,11.397000188728342,11.296617696723041,-0.2614235109446915,-1.3760349790619484
701279.0787640095,7.957764485347862,7.463595056535157,0.14099942652834102,-2.699010225576299
701279.0787640095,193.92809416014202,17.198545530443017,0.23060335251458647,193.16300456069663
701279.0787640095,814.4268159678952,10.777965938050844,0.4065656258250232,-814.3552004468527
701279.0787640095,43.471918155586785,13.498011340620629,-0.07172371802714994,41.31936575363305
701279.0787640095,33.97404448252055,17.472390884617457,-0.33901717189682945,-29.129368260096204
701279.0787640095,11.711997796902388,11.478557164037984,-0.044920687554973485,2.2572931927659092
701279.0787640095,21.931159230367815,5.450414022475684,0.019358007081780492,21.235633497464327
701279.0787640095,464.8935411134339,9.970789299476198,0.7734662991728171,-464.78562096112364
701279.0787640095,15.88959443281709,5.413520002395962,-0.2153669427564759,-14.926834966018664
701279.0787640095,49.49972739996619,32.27130762081486,0.4995857654616303,37.52625619185009
701279.0787640095,77.48323999202803,7.279914014798392,0.7190722354794516,-77.1350895463228
701279.0787640095,112.3897270403372,36.641229247255204,-0.06985646449149867,106.24758800144915
701279.0787640095,505.4065160142911,12.398016313644169,0.35045961021915467,505.25399213846083
701279.0787640095,89.59302686006625,27.243731247751697,-0.5218885690144152,85.3469447289713
701279.0787640095,76.89428550828123,8.848764565890917,0.4859502507024828,-76.3798280597702
701279.0787640095,57.49732590589567,11.188225001161946,-0.2509332599269031,-56.39491921043012
701279.0787640095,5.385493119732169,5.348327814235694,-0.26515102436138244,-0.11132505627434874
701279.0787640095,98.023193173889,17.844279318034456,0.4918727217684883,96.38241504263539
701279.0787640095,306.8747769030801,13.352387571274432,-0.10100337970636855,306.58361994140967
701279.0787640095,650.4956941775182,29.519510139477457,0.4687000483730385,-649.8251386007477
701279.0787640095,43.29776796804144,2.315231210501432,0.2572981901193416,43.23140045958905
701279.0787640095,172.4824799527514,21.764514606280144,0.00029553334930867124,171.10288006669174
701279.0787640095,26.76494709944604,8.676076032359536,0.12965166511933884,-25.313140084989698
701279.0787640095,53.05761370792459,17.258706006449835,-0.5538622054129624,50.16596902900824
701279.0787640095,98.94363742835667,16.277322500888776,-0.27887704993929274,-97.59353544137488
701279.0787640095,15.855928724854543,15.323043076983495,-0.7249368529297485,-3.9715319144580574
701279.0787640095,12.33768028309753,5.059416140620431,-0.05788854985848258,-11.23837553205432
701279.0787640095,10.641537551896084,6.553507204548909,-0.2622712477135479,-8.361151307127612
701279.0787640095,167.96388973720786,9.371549424842282,0.5159589003442187,167.70050648714073
701279.0787640095,26.535322144290095,25.858869393763932,-0.7139300583735,5.8835594200264065
701279.0787640095,708.3762093302872,10.95508275381091,0.17032088431827833,-708.291250030946
701279.0787640095,56.806860075967364,29.930215076226084,0.4783196431616766,-48.27687396777123
701279.0787640095,44.745714850937325,20.665200348587444,0.7465059664210814,39.67688235630353
701279.0787640095,17.458562169368182,10.305395103856759,0.14559704248733044,-14.080582334407802
701279.0787640095,49.27401151942597,8.242457941748777,-0.10334684242804526,-48.57636452355101
701279.0787640095,835.1917396624915,13.411421782812914,-0.028999866489409686,-835.0838632723243
701279.0787640095,49.389287003405386,2.4806652754695344,0.2452541218863146,49.32313446559581
701279.0787640095,4.166831652031474,3.885576296791535,0.3418650804890884,-1.3533971053036544
701279.0787640095,156.5446923417693,15.780732381435524,-0.29519133283806975,-155.74596566383815
701279.0787640095,51.26535589727605,15.613023234657927,-0.2960051624063797,-48.82587812105335
701279.0787640095,141.0432180074001,19.40523919025603,-0.24160303015258416,-139.7005778027689
701279.0787640095,451.4925903803611,31.617704924706626,-0.024517941845614077,-450.3837953069947
701279.0787640095,828.7751399555584,19.980528898491794,-0.41208983329118387,-828.5339613002359
701279.0787640095,116.86435797375343,33.213503177448956,0.45039289960219003,112.04294841771565
701279.0787640095,17.663271488974324,11.952598276372239,0.4965033595091317,-12.983212666770568
701279.0787640095,35.96601179087459,19.834614606790424,0.1986725114098902,-29.996439278260258
701279.0787640095,318.6317379226816,24.025445995936835,-0.30181539875116303,317.7240233856886
701279.0787640095,36.63381744137531,30.16657349578982,0.3107707494267347,-20.775023898714167
701279.0787640095,35.454310732864,7.277848468232476,-0.24210341683907868,34.693893263097415
701279.0787640095,106.11777648328423,29.643404568823755,0.26373090214178935,101.89143864886924
701279.0787640095,13.782487844469713,12.064977249792426,-0.2785696391451983,6.633209381650186
701279.0787640095,4.719026793598169,3.9261656058492322,0.01495673791004604,-2.556948652173924
701279.0787640095,65.2370654616004,15.343710351410236,-0.32085061421414995,-63.403675683482575
701279.0787640095,249.38764543617447,13.328191381274824,-0.28071968004425946,-249.03044388139395
701279.0787640095,41.31025962335406,19.443260474776203,-0.22211066196090395,-36.443540054617145
701279.0787640095,141.15703215779257,29.64908717761845,-0.025259147652957475,138.00696537387248
701279.0787640095,96.42029360376544,20.46312030804666,-0.5582001721739809,-94.22051746335424
701279.0787640095,14.420880253446414,11.5421367439359,-0.748808159787074,8.594412464391088
701279.0787640095,49.46010337946912,8.635417767372564,0.061511106046261095,48.69713929251153
701279.0787640095,29.70288284381198,13.308997017363579,-0.5010765961988102,26.543634688367163
701279.0787640095,41.502723329288294,27.55289886220299,-0.6688913249341294,-31.024992587135475
701279.0787640095,25.84928573645879,12.886635734188632,-0.5821120671421484,22.393416681704267
701279.0787640095,23.451814265796457,14.034941141775677,-0.3668165881807354,-18.77650760111318
701279.0787640095,20.543660723877515,10.505121065938116,-0.07427982690989818,-17.64547200940808
701279.0787640095,232.05771055842473,3.8212699309583895,-0.04956911008371246,232.0255594567879
701279.0787640095,17.967232584099566,15.958800679519213,0.33628512225857304,-8.228536474900794
701279.0787640095,26.16551482739823,10.612986933675153,0.08649305013599201,-23.909725345148445
701279.0787640095,195.2176652885787,26.117437389717168,0.4195690597911455,-193.46142778166796
701279.0787640095,264.78275434842766,14.126594068852004,0.2169639627785189,-264.40496031578573
701279.0787640095,114.00410735090466,14.90055537283737,0.12472398378290295,-113.02467942438587
701279.0787640095,73.85165101119664,15.727992992550995,0.03725417963675433,-72.15524220894604
701279.0787640095,38.33996059421571,19.0288816541229,-0.5350626760812243,-33.27539213731044
701279.0787640095,7.208317849360902,7.0463084391695086,-0.03050974138956849,-1.4114621330035326
701279.0787640095,33.35011514744757,8.59914891230489,-0.6649861681891491,-32.21065637840765
701279.0787640095,21.681293261076046,19.36138153612841,-0.15805669879794096,-9.740337425619895
701279.0787640095,22.251102461347838,20.8580661369191,0.5780216362296726,-7.707288846350432
701279.0787640095,115.2741034318252,13.419984406569503,-0.25283216324519003,-114.48861423318701
701279.0787640095,6.687435715620245,1.8463719229481965,-0.11774249061957442,6.401766668531705
701279.0787640095,9.395107492468158,8.008638249928616,0.41296128925461933,-4.862406168771567
701279.0787640095,23.827852689178265,23.819615383224093,0.18084234076542888,0.20869935304036544
701279.0787640095,23.783912041147563,11.654864949002558,0.23173419051781,20.723625813699194
701279.0787640095,18.09057258684343,14.428483202938507,0.5231530549709406,10.885668213902438
701279.0787640095,296.4849123177031,7.8460736044421,-0.011397270264635906,296.38054255252945
701279.0787640095,5.431045182913412,3.4143536868555193,-0.3338907334726814,4.172616715889823
701279.0787640095,14.67162207555116,5.754318568158341,-0.3342831621218191,13.480220306478277
701279.0787640095,17.094691031903203,16.73016971168144,0.3239616030906018,-3.4508990674910405
701279.0787640095,27.270472714979146,6.493651521527381,-0.28997540901222413,-26.47849804798743
701279.0787640095,33.40049895958672,21.6467271699398,-0.633235101701013,25.422338985334072
701279.0787640095,83.61243030715718,8.55866042697155,-0.40238679176974684,-83.17036546171082
701279.0787640095,16.674999452396833,12.143529311056218,-0.11348591099552145,11.413202712502642
701279.0787640095,63.58517211385388,12.201212502785447,0.2260382400401741,62.40061863094028
701279.0787640095,8.676606273753062,4.0158753706577155,0.303735605887178,7.664708651900023
701279.0787640095,46.1251271350287,15.847954157302738,0.17397767564167405,43.313083550108615
701279.0787640095,40.42869673073758,11.91488041607613,-0.3024787143109441,-38.62780634780682
701279.0787640095,43.073356215542304,31.90062727906162,-0.37445534833465927,28.934539060873437
701279.0787640095,13.342289019375936,11.565646666696214,0.26751768097070244,6.623043133468597
701279.0787640095,25.170255554299704,3.88974756529029,-0.3961196931372766,-24.858368617741203
701279.0787640095,21.596717174774973,8.474135413332894,-0.20966642083520978,-19.85565497069817
701279.0787640095,17.355499625621896,3.4993591369527826,0.29758847324690046,-16.987144156269935
701279.0787640095,28.21614202452649,9.842474303391693,-0.36023004521463203,26.43540007735022
701279.0787640095,44.24545158471256,14.33182522969872,0.16656358760846174,41.85588131543185
701279.0787640095,20.169985108907838,5.130057804498437,-0.18316680109420908,19.4977185521477
701279.0787640095,99.8601353452822,8.499711164513053,-0.4383260848104317,-99.49519176392913
701279.0787640095,45.822340283772085,9.060503302600548,0.09797298010468372,-44.91401031838788
701279.0787640095,19.236876997657284,12.230947528882238,0.09683634007681877,14.83697255142318
701279.0787640095,329.47389936830547,34.819133407816146,-0.4465389824549315,327.6280859285752
701279.0787640095,78.89625259431676,10.832912419781538,0.01981536466380715,78.1469773048364
701279.0787640095,29.184505577879552,28.20914949745829,-0.5331577436986127,7.44169106288245
701279.0787640095,317.6608979895857,53.40793759400806,0.040826827423289705,313.1385003784658
701279.0787640095,52.00874674018341,41.313598827979604,0.4842450843914532,31.58394479261991
701279.0787640095,8.858093939606537,1.943874291305129,-0.001146443305355571,-8.623859476353019
701279.0787640095,68.12845780821475,13.79073191848507,-0.3050892722681779,-66.715014574036
701279.0787640095,39.03342684928934,9.318185324508123,0.1298332439813969,-37.9004848225642
701279.0787640095,79.76690202689996,8.004639579077686,0.09421993670989941,79.36220321652722
701279.0787640095,246.27468383882044,20.22298797532337,0.44886413330995045,245.44191359841216
701279.0787640095,338.97470318702517,10.944365353116465,-0.47082365594193404,-338.7971847070664
701279.0787640095,198.69584729303565,20.6155018366059,0.5261490484717692,-197.62198196380066
701279.0787640095,16.25051995760669,2.647314594286672,0.08040303550085924,-16.023371439339833
701279.0787640095,801.8539193059553,19.628654460294953,-0.13172951067599717,-801.6134294348715
701279.0787640095,157.36811711601294,9.959058390011895,0.09289862469718481,-157.05163667745953
701279.0787640095,18.001444290265848,16.84485792450406,-0.17079115451209648,-6.321183514190781
701279.0787640095,5.454728110212524,2.974615394764477,0.5787668062792146,-4.500502593404569
701279.0787640095,17.180771328799462,16.42357734482309,-0.43438838732422547,-4.994005404461274
701279.0787640095,13.71408071536126,13.649134603344283,0.09403643269124243,1.2050162639064328
701279.0787640095,27.937570347486655,21.464259693618047,0.7156884680691663,-17.85959001047004
701279.0787640095,1.3256101871248511,0.7805598943166685,0.04300712393111871,-0.9109838673674235
701279.0787640095,26.843947129448544,20.1984718821567,-0.29980122829688816,-17.66955355795909
701279.0787640095,56.73013462066177,15.958399584994154,0.6519160440602686,54.43249429187754
701279.0787640095,280.9355478669049,1.3928794148687156,0.05636969157530978,280.93152642106804
701279.0787640095,250.81293839286926,42.89557027644348,0.20591774735560758,247.1168579567265
701279.0787640095,70.75422431512709,25.795881029941803,-0.00992542228874536,65.88183706007386
701279.0787640095,15.618207309653773,14.337580127067623,-0.31962950347074187,6.1598543203121485
701279.0787640095,398.30063414162544,22.547282737486746,-0.2920612298505452,397.6614309580633
701279.0787640095,23.02270638784946,8.794292352420154,0.40203237932436553,-21.265643042404857
701279.0787640095,9.9987195829281,6.117408484918221,0.24715452380371725,7.8850741256986785
701279.0787640095,187.9034421027251,9.064143043569352,-0.26472005091171763,187.68366620681795
701279.0787640095,168.0354998886251,20.221463071013645,0.23980691289907255,-166.81321266414125
701279.0787640095,17.160497050292953,5.678540108031244,0.08620967055454101,16.18373200924357
701279.0787640095,9.110027598434819,7.94259723693752,0.45433245604496725,-4.402852097804297
701279.0787640095,71.68300055165709,25.204895853435204,0.1279477587083681,67.10315339145482
701279.0787640095,9.504521242450167,9.118739430716465,-0.18206735299082555,2.6144099375532432
701279.0787640095,30.657485682621576,13.410430349422938,-0.39762110919257254,-27.560251382682754
701279.0787640095,10.538712347499423,10.443647072881467,-0.2734783511935072,-1.2663632778862195
701279.0787640095,76.93261440860599,21.211491908385476,0.4731038334459313,-73.94700613362409
701279.0787640095,14.49533352142737,12.179497480072197,0.6066375854788125,7.816028305343736
701279.0787640095,147.28113616306575,45.89752217519238,-0.20333696276945717,-139.94567858401533
701279.0787640095,5.249171686635893,5.158578022523294,0.298473488351659,-0.7331864413570011
701279.0787640095,15.641757532813415,10.955334788846246,0.42534421608278916,-11.142175428397469
701279.0787640095,100.28089249673523,13.854456400831456,-0.23877783579513998,99.31736099758231
701279.0787640095,21.052856809588846,7.783828974512575,-0.6800778444810084,-19.54113745578172
701279.0787640095,490.40903381321664,23.148710603913322,-0.05834753613594344,-489.862060187512
701279.0787640095,19.426569589661817,19.414050529225754,0.3051694091156218,0.27729461246394527
701279.0787640095,145.61365658103466,6.340861252091383,-0.19424809158912504,-145.4743156084944
701279.0787640095,16.994251480975542,6.245144326789646,0.1707848739300704,-15.794219222955027
701279.0787640095,89.48593409045014,16.472894358216273,0.16466935320535006,-87.9547202150474
701279.0787640095,4.201726496143392,4.1447263208350895,-0.021335486918504332,0.39883163175354963
701279.0787640095,1.5110532125976874,0.046453623662029445,0.22026674275305433,-1.3843334258430722
701279.0787640095,40.01348911057208,14.727194220392617,0.04237785416610802,37.200417173922936
701279.0787640095,281.1146816101733,4.526466218495759,-0.27713957786821175,281.077537854977
701279.0787640095,31.62077329026664,26.162600448827483,0.2744496908567321,-17.748241918465038
701279.0787640095,12.74403533917122,10.95970970692494,-0.003584341412188783,-6.479117194355699
701279.0787640095,50.50134792522827,23.955975505975257,-0.3017837097824621,44.45323474185316
701279.0787640095,119.61846960564725,8.619911324103487,0.26170840845605187,119.30587026995116
701279.0787640095,633.9421267757498,45.84137910576564,0.24812389742195576,632.2822235914697
701279.0787640095,450.66285054986656,32.95005306303008,-0.5260965296373762,-449.4560110443691
701279.0787640095,39.77312434132143,20.85345102375024,-0.020820659323204014,33.86322990162234
701279.0787640095,9.092514147365174,6.515033881193425,0.05668562025866672,-6.317333803679559
701279.0787640095,31.04420478953242,5.274471705757427,0.08268133375679505,-30.58757158776026
701279.0787640095,38.04598620516873,11.77358911476133,-0.6335436079538573,-36.16852306601975
701279.0787640095,528.5428616950135,34.29751990998713,-0.04327803038902117,-527.4285910683928
701279.0787640095,11.438594668773176,8.299023036691008,-0.00016530277061503737,7.851842917771098
701279.0787640095,59.96343215206575,15.496325365145841,0.01831417739267026,-57.923747572334754
701279.0787640095,78.18462285711995,14.006987137592294,0.1228435555237944,76.91754185293489
701279.0787640095,6.394700798237649,3.4903889755886213,-0.6567925998131683,5.287889860674133
701279.0787640095,12.78844002878223,12.67927844757245,0.43082088739459873,-1.5093913943665915
701279.0787640095,25.295373429844968,12.046270506972514,-0.22597150763901439,-22.234567531337444
701279.0787640095,9.427179402259494,9.385534939201523,-0.39051120477598755,-0.560998205056398
701279.0787640095,149.47641009830056,10.152865383874412,-0.11933755136692668,-149.13009767153247
701279.0787640095,15.74627497121971,15.67203282055499,0.022443685806796836,1.4197998525827271
701279.0787640095,6.916295896924552,6.702173693359731,-0.014348091828976617,-1.6123223777619913
701279.0787640095,287.0198562579875,23.777579341684678,0.25320755318219396,-286.03259301265024
701279.0787640095,454.1942080208321,9.596690836214556,-0.523161704334162,-454.09216267085685
701279.0787640095,57.12657601531937,10.17479982035535,-0.5428925553411016,-56.207723456148216
701279.0787640095,1234.1177177589698,27.740822388477174,-0.20423083475070744,1233.805750562942
701279.0787640095,53.77039253346928,34.364485606114826,-0.07552049780669293,41.35233139116373
701279.0787640095,12.805048990362163,10.352358646152458,-0.0875361326447389,7.514922496753248
701279.0787640095,576.8166250060407,10.634478583764427,-0.013913116102319333,576.7183110736435
701279.0787640095,64.7130793957846,13.083383665411707,0.0359460616808814,63.37420766549377
701279.0787640095,36.39005321590051,27.23166207966877,0.5453397337982814,-24.125897508885764
701279.0787640095,27.274004261326343,17.396702829159466,-0.47311117791131935,-20.99252194315434
701279.0787640095,141.25575935144235,8.589945209076777,0.4570140898156591,-140.99247250111998
701279.0787640095,12.845270555477892,11.808831616703323,0.3282969484408547,5.01283005947127
701279.0787640095,12.556361123441384,2.2587678959381536,0.504025409867905,-12.328418521468016
701279.0787640095,10.187218728080634,9.842076828148205,0.16482513198632537,-2.5631141992056614
701279.0787640095,132.63611383611396,25.928581134387187,0.3247064233894256,-130.07546160687806
701279.0787640095,10.0377990933492,10.020324009895996,0.06340203442969679,-0.17398320865247097
701279.0787640095,147.14745163587727,24.6801071175703,-0.752108540782216,145.05992879131264
701279.0787640095,84.81499042769178,11.707571626623857,0.7102133152560391,83.9981829416772
701279.0787640095,168.9239679633095,15.101268651063283,-0.5257551098840882,-168.24584985003872
701279.0787640095,10.623047024850344,6.832452987289756,-0.2479805486017645,-8.111041395276636
701279.0787640095,17.078630208439847,2.428232253962026,0.12088336739874644,16.895338343124664
701279.0787640095,15.246037570659816,13.842938792044631,0.7170560314862962,-6.323314831091738
701279.0787640095,150.63306791099816,18.31885229272407,-0.45649805195352217,149.51326423125485
701279.0787640095,254.90358459699428,8.642938820643812,0.23974308015624454,254.75628224794548
701279.0787640095,126.40011002668018,23.574491667971877,-0.24144455981594867,-124.18074180193094
701279.0787640095,57.3294609134831,25.04657591317176,-0.27430913671355084,-51.56495564580218
701279.0787640095,372.87395288971345,9.508234312057741,0.6063867436012302,-372.75178643647575
701279.0787640095,226.58309177157048,18.588162855425015,-0.3512320819458243,225.81837411302132
701279.0787640095,19.960213744599645,10.973838280290527,-0.14466958981103822,-16.662768360558747
701279.0787640095,62.90202834121416,5.0208128286139,0.40453080855550205,-62.69750182745388
701279.0787640095,195.55188219853807,23.621917208610064,0.016788707347466535,-194.1191055757251
701279.0787640095,39.67005553500782,17.463776965637813,0.024220782355066514,-35.61478606138866
701279.0787640095,13.598223882874946,13.006668036141521,-0.5206876842056689,3.892420365484763
701279.0787640095,119.74252211498721,40.14242073998616,-0.43038509774047673,112.81115282125029
701279.0787640095,16.592026574459688,9.74815750214015,-0.39233859996597015,-13.40890055835082
701279.0787640095,9.540295508856557,8.873217616253955,0.2206524841081526,3.4522938188811487
701279.0787640095,2.952855786688994,2.798703942265297,0.32808444062205794,-0.680254908157284
701279.0787640095,4.78011964598621,4.700695390199535,-0.4152128987764097,0.514176552274481
701279.0787640095,204.59269134061935,14.196441187366744,0.35336253956502556,-204.0984794532456
701279.0787640095,15.05129202776969,14.130671445387073,0.264408022578623,5.145811617717942
701279.0787640095,29.62512065931557,10.644522915324972,-0.05489209149936871,-27.640959922588387
701279.0787640095,53.221842256379816,14.641979821320996,0.48938232348499017,-51.16269341635744
701279.0787640095,489.1683794574851,19.639234433084738,-0.37516883885684865,-488.7735129412053
701279.0787640095,108.79690887622581,11.403077465836136,0.05525947633770098,-108.19620106232898
701279.0787640095,115.76506519367712,13.852065869751563,0.5509051910105381,-114.93063502176699
701279.0787640095,164.5397041306246,16.7558079948993,-0.6779950028059095,-163.6819514461122
701279.0787640095,40.09119699234391,23.616491453924972,-0.03950823714370427,-32.3920919266498
701279.0787640095,15.630819747203363,5.1331104036313775,-0.45969497972828266,-14.746055631219672
701279.0787640095,9.958089433387277,5.688622551194232,0.18250872386334935,-8.15190663580101
701279.0787640095,50.344839660541496,18.043693318435622,-0.27416254683816915,46.996134089662135
701279.0787640095,11.824945898571613,5.512034846683474,-0.10497039152241086,10.446031359789963
701279.0787640095,4.763871216919588,4.666300102108393,0.38936265369154716,-0.6725188860451327
701279.0787640095,114.41070042984163,21.101448389166222,-0.12819810683470426,112.44645208529897
701279.0787640095,508.13229161651094,17.482868305903786,-0.6264345442542458,-507.83074587071525
701279.0787640095,9.00411490799738,7.954878469626358,-0.28326228392758634,-4.171034510540373
701279.0787640095,293.48009448933993,36.81153847740408,0.16153159385591648,-291.16169764675834
701279.0787640095,37.411333117945944,14.091381593373294,-0.3807124928338102,-34.64938153920469
701279.0787640095,21.074270302715554,2.489208070336996,-0.2790921015468973,20.917327558105058
701279.0787640095,22.813810162151675,11.173521066313839,0.24531696024070898,19.880793577824633
701279.0787640095,48.64053989702685,27.09555724798192,0.01771027890796196,40.3907954593783
701279.0787640095,72.10329189267001,22.813799287996073,-0.025503998018661274,68.39662554506917
701279.0787640095,30.218573955432845,6.4433122890101515,0.09582176944415063,-29.51813899002569
701279.0787640095,56.10430666761599,30.314939398352205,0.12305881090603672,47.205574936197
701279.0787640095,2412.0607791760904,30.918305011209146,-0.6063022711970124,2411.8624705867783
701279.0787640095,17.932821121190795,13.821586366125144,0.020884843528786404,-11.411974417750855
701279.0787640095,44.37602605432684,23.813872702986735,0.4503453036582927,-37.43811048874434
701279.0787640095,21.51892421581376,14.978067246512296,-0.33779559090333033,-15.4366857745883
701279.0787640095,28.92611421388368,21.043239783551776,0.050173657953230394,-19.838936416309064
701279.0787640095,147.0806798021276,16.896660939676078,0.25316541988620517,-146.10560872196353
701279.0787640095,9.781165833639582,6.196499804382306,0.2271894627230051,7.543656460046082
701279.0787640095,9.283370123377937,4.01466174924379,-0.3876450317206844,-8.342478997029964
701279.0787640095,83.44561657242122,70.4504665680672,0.20461380117534295,44.71626763589813
701279.0787640095,45.30261221131414,9.115894408705653,0.25789233539350553,-44.3716622005656
701279.0787640095,48.24963258495015,8.227943195315614,-0.5617676025646897,47.5362617915815
701279.0787640095,494.4818569956306,15.093487274613613,-0.16927611262608921,-494.251098792846
701279.0787640095,630.4152522794125,16.505188244975205,-0.0550104222353796,630.1988970269356
701279.0787640095,35.07061823722454,10.50211346350293,0.1338798446141599,-33.4562359677203
701279.0787640095,7.909801834624661,5.150472766468498,-0.29966326967692414,-5.969218530881873
701279.0787640095,47.514642886519766,11.873716943062961,0.07633434641721489,46.00363116382009
701279.0787640095,278.0336592227836,14.626095139782532,-0.5585643544195945,277.6475549689475
701279.0787640095,19.169629020734313,17.170963492071543,-0.13146757991565616,-8.502892356232413
701279.0787640095,19.847315064092705,17.235990654662245,-0.4864382936998215,9.812425377647385
701279.0787640095,227.68691272197833,43.88823199333726,-0.4084698348138534,223.41591313592357
701279.0787640095,80.16025126846739,20.442439362493083,-0.04940671759314398,77.50776662961329
701279.0787640095,701.856779833901,12.046156943472608,-0.06949849129017618,701.7531677479379
701279.0787640095,55.41361680601108,14.759661303141712,0.1578186602342907,53.40861533133184
701279.0787640095,33.673866606620415,6.647905681078469,-0.07831712659235797,33.00624609560062
701279.0787640095,20.746796098913578,15.488809447194354,0.05674744875673045,-13.791551131224393
701279.0787640095,38.27272476543256,17.912785213402323,0.18524568914810538,-33.81690470021525
701279.0787640095,140.04735386133407,40.25826127961931,-0.21527724653731897,134.1348990777958
701279.0787640095,12.115029406160218,7.576278684251407,0.5021453296523185,-9.423670276400378
701279.0787640095,16.227837609372628,7.638180113514789,-0.3906460937440621,14.301471471804485
701279.0787640095,16.17979532584088,16.16266205005455,-0.4091081894084895,0.2655848845600452
701279.0787640095,139.93796182259655,39.665267543750524,0.33508867974281586,-134.19713558016653
701279.0787640095,51.3917204486145,20.274342605215452,0.3901304511815146,-47.218550734067065
701279.0787640095,33.626196119455486,29.9115234228745,0.002604208079397224,15.352706530274478
701279.0787640095,4.769609113882337,3.774637727414388,0.3529319574315784,-2.839100695493541
701279.0787640095,17.255332952514248,10.7068110482062,0.008863220217197692,-13.520148169424031
701279.0787640095,58.677705562537966,17.829223689615013,-0.3263343438866613,-55.89963498275538
701279.0787640095,300.05464342696155,28.72022907672091,-0.24927448085051593,-298.67634509397396
701279.0787640095,6.639619097485847,6.519185219707154,-0.18277085441032057,-1.1113654868438443
701279.0787640095,16.1689986427348,9.441174663256769,-0.6045916678211528,13.100342728400598
701279.0787640095,143.4018732502066,41.69006054384218,-0.12022995384924424,137.206798012624
701279.0787640095,229.0358417721891,8.046200387995821,0.21865785910011457,-228.8936684073018
701279.0787640095,27.929285548721598,27.027251717822907,0.3250585242824639,7.010760686186514
701279.0787640095,36.37710065201895,17.437639709002283,0.33422328435524246,31.918556368076214
701279.0787640095,300.41486043394775,31.821072552257036,0.40348122215698795,-298.72400085476124
701279.0787640095,18.333191783581167,2.3760124108701777,0.29585455754537676,-18.167463462945438
701279.0787640095,298.5350922092532,27.68243918441579,0.4714010258365187,-297.2479527176949
701279.0787640095,13.976933114589233,5.017236263248411,0.1968646658188691,-13.031769506537369
701279.0787640095,56.05743117520936,14.262554349771843,0.06577237842050868,54.20972772461687
701279.0787640095,28.902534444191225,19.153867262002805,-0.3195803187699314,21.63486785785416
701279.0787640095,67.82607251115364,19.603536395296643,-0.15318016769429277,-64.92871307459049
701279.0787640095,34.025573575792734,25.75708580379769,-0.07762129430574147,-22.225884360175133
701279.0787640095,7.389409863961244,7.208061306299019,0.08794926275211135,-1.5242269742866255
701279.0787640095,526.1304442895155,11.071770669963838,-0.31372166218816006,-526.0135413217354
701279.0787640095,100.55455345843896,3.321222623295628,0.25595330025094215,100.49779083154206
701279.0787640095,109.59026309018897,24.67430868414104,0.4749796975235424,106.77388455059231
701279.0787640095,46.81900640701339,29.945254069385115,-0.4059522335989201,35.98360869956888
701279.0787640095,34.21095901332157,7.4573200277457445,-0.03264938686272043,33.38354087319391
701279.0787640095,172.82005052559646,3.66503104196459,0.41219418137901004,172.77977682497368
701279.0787640095,40.734800060506174,4.758772800199884,0.44794453321277145,40.44948869516616
701279.0787640095,75.18015837314269,10.35592163767474,0.017819495014294775,-74.46136283409318
701279.0787640095,239.37413702703958,39.93330811466828,0.1042505195599581,-236.01902737891237
701279.0787640095,773.1776988781056,13.206834509966967,0.3657788144857814,773.0646050254322
701279.0787640095,50.68007973546864,12.838955954601005,0.06250040719132106,49.02358165503715
701279.0787640095,2.336847142908864,1.4314020720789393,-0.16569511852131966,1.7516450567357076
701279.0787640095,28.986916695114665,8.84682667118578,-0.1741086781784438,-27.597616855580394
701279.0787640095,253.3813746265318,24.86521586978684,-0.5743032598109511,-252.15708595188283
701279.0787640095,42.51836824010847,5.867249597845266,-0.17036693175059567,-42.10750251043554
701279.0787640095,342.24208851855843,9.114853358004712,0.2559032013490753,-342.12013224590874
701279.0787640095,14.048536827108016,6.009703801522826,0.3797236971960792,12.680080035791535
701279.0787640095,10.151415395262047,5.8643043137550475,-0.4211106359795532,8.256367716788125
701279.0787640095,136.0704915940485,13.363945868620991,0.38931239392711214,-135.4109147813656
701279.0787640095,1.865928977894636,1.2132039136560686,-0.47167276626000665,1.212899260336221
701279.0787640095,115.360050125,14.82244758450317,0.18495656071690247,114.40229794946227
701279.0787640095,25.393617172290774,8.002279927075547,0.5851024278914988,24.086110869340846
701279.0787640095,200.92784671210487,8.951250598364572,-0.3304697330359651,200.72730073271958
701279.0787640095,446.41532286138937,24.293454988194,-0.03634422982788862,445.75346435206967
701279.0787640095,52.61443674077915,13.712430444577954,0.6375892844891659,-50.78902890739383
701279.0787640095,15.995624667824119,6.97738747905327,0.5142594364431652,14.37342625516972
701279.0787640095,22.126467863680453,20.20781286851193,-0.28147992466499233,8.990518385800513
701279.0787640095,1142.1816391332543,10.741462138188139,-0.2998498304150256,-1142.1309520483805
701279.0787640095,451.8498150699745,18.876321320640187,0.4285217928334616,-451.45480395477347
701279.0787640095,76.93874248638174,24.387782974190245,-0.21454518752604898,72.96878702535618
701279.0787640095,264.47293574685125,13.016787664184614,0.4207361330852932,264.15147876771323
701279.0787640095,16.658888940146543,13.488101987424702,0.05616834647943921,9.76065075768718
701279.0787640095,389.5221464262604,23.58693790284476,-0.24270504926109424,-388.8068720891481
701279.0787640095,390.7671487125391,19.63774023186039,0.5342091247901447,390.27262530790495
701279.0787640095,20.980880033153106,18.74575784087679,-0.24935171755915117,-9.402950933480314
701279.0787640095,20.204057095914408,8.39241878190333,-0.21915895217713083,-18.3686409970233
701279.0787640095,51.397759121568654,7.684330729174535,0.416337897227706,-50.81526482582281
701279.0787640095,8.57306169126249,8.189323751669676,-0.1457130777117952,2.4687858455593323
701279.0787640095,169.72288374470787,25.98293493090315,-0.029733195176140256,167.72127845784178
701279.0787640095,15.384727443895057,12.432539294794259,0.46950083612403626,-9.03244965504553
701279.0787640095,894.3097854713117,12.494402546244144,-0.4313048973997738,894.2222207278462
701279.0787640095,392.86992821954505,11.65439088754573,0.6256115948522001,-392.69612686529376
701279.0787640095,77.89422424706328,13.872498715895535,-0.14606160607698238,-76.64676372187029
701279.0787640095,30.739033488471627,14.2740175841647,0.41883748949960165,-27.21486633385227
701279.0787640095,37.173802320604906,9.034341663327151,0.17411678951073215,-36.05448246230988
701279.0787640095,28.44604116880345,28.17972511694101,-0.2569784451218929,3.833808183694952
701279.0787640095,10.462409337128054,5.175178025120639,0.337644174440782,9.069140563312374
701279.0787640095,158.1703815889418,14.255852168498732,0.32535574993838257,-157.5252938647539
701279.0787640095,52.86497075312292,10.50386983397551,-0.03616288216563535,-51.80787889969166
701279.0787640095,372.5061342367053,21.457178598035252,0.3900988382374433,-371.88700048009537
701279.0787640095,7.429437107421573,7.055807738112437,-0.18055083889953247,-2.250174857698173
701279.0787640095,284.14414404612864,42.84527844909998,0.14988553761630333,-280.89470984205377
701279.0787640095,64.67556549742095,16.543823561235502,0.36765854152346844,-62.52023091913896
701279.0787640095,55.1073111263357,6.919305248992688,-0.6093925897897475,-54.66490069246676
701279.0787640095,16.46650910146248,8.273971527205497,-0.22912448352920095,-14.223874005569156
701279.0787640095,21.475649913012195,21.34507095660317,0.6313296696425882,-2.2083207402423572
701279.0787640095,87.67229795244933,18.633935752748783,-0.2946769485516218,-85.66682674595339
701279.0787640095,9.762013778914362,9.698221294079037,0.18403649886591858,0.9440974089520401
701279.0787640095,172.78200538710433,3.934429033395913,-0.3569282493785545,172.73591991417143
701279.0787640095,47.627744762355476,21.477765733973957,-0.6321927210033276,42.50166767537297
701279.0787640095,63.42832413641702,10.691715483948949,0.09288398169086232,-62.5181147182985
701279.0787640095,27.389171885783462,14.039110679214922,-0.6732998195457807,23.501075462166902
701279.0787640095,858.6345027746111,27.709766704089883,0.32321578124365985,858.1870177813032
701279.0787640095,34.98164344580851,34.555200158514765,-0.18220586780986514,5.4133255764005765
701279.0787640095,356.6369300990563,9.514068451557721,-0.006678762333713487,-356.50955967543445
701279.0787640095,55.689142164554184,32.3822686934801,-0.4089318726371788,-45.30105712464606
701279.0787640095,47.515964662490106,16.98462785111481,-0.6220945863259448,-44.36875122754219
701279.0787640095,208.70443991119316,10.364807600015787,-0.23710215139617116,-208.44601593033377
701279.0787640095,122.70317430922378,19.071711004290464,-0.052999039190436574,121.21064222513692
701279.0787640095,44.26255708987851,11.714496180262419,0.24586697619182615,-42.679829678749996
701279.0787640095,1309.7211647194713,17.843088553393837,-0.20312818864215104,-1309.5994792365123
701279.0787640095,91.49291679496089,10.21973382037788,0.48077213553530385,90.91734430263388
701279.0787640095,15.119429243176043,14.859266257072264,-0.45886814441114565,2.6967683561263067
701279.0787640095,76.34807282671319,19.01304121713099,0.22262577423390104,73.94029144108876
701279.0787640095,15.159929171134259,11.629201753566708,-0.4652806354952724,-9.69806194961656
701279.0787640095,526.693978439778,28.287284292921065,-0.15364245859112183,-525.9334906988216
701279.0787640095,9.624080053671758,5.036495632743634,0.12319582540200977,8.180783826086557
701279.0787640095,122.90103618882134,12.174558002516884,-0.558001329027563,-122.29397875956872
701279.0787640095,32.21371280216245,12.074487544989445,-0.20144810383362188,-29.8592236048977
701279.0787640095,55.949595477823635,4.916979185491598,-0.26851415095611,-55.7296350478989
701279.0787640095,13.846936916246737,6.245085621377071,0.014179997507894773,12.345855137315347
701279.0787640095,69.08515649296886,5.646796532192814,0.261689584100039,68.85120062673784
701279.0787640095,36.85912390734573,17.401485500814914,-0.701562958052911,-32.480377146788214
701279.0787640095,26.323207235329875,7.551823960734607,-0.23311490552703507,25.209336049581665
