400382.51916939754,849.3927823591227,65.29277578579186,-0.044364664175207805,846.8792049901353
400382.51916939754,19.638819049951014,5.184438315801559,0.2516292784869573,18.925621646892864
400382.51916939754,288.7225549174274,22.950020696104335,0.36139188419788665,287.80777842683483
400382.51916939754,39.6489654254591,12.32682867340358,-0.37224964454781073,-37.67477728343865
400382.51916939754,180.64000172885392,8.005287386683277,0.012347213847001676,180.46097391123666
400382.51916939754,179.5106307908426,20.05939730545248,0.023807057584990535,-178.38476459294662
400382.51916939754,51.10570852353674,24.539659375565073,0.20656364313966424,-44.821797731394426
400382.51916939754,80.9109529560059,15.690692332077372,0.3362572481907382,79.37070663942015
400382.51916939754,339.3039399512095,5.406367227445655,0.04745288365016521,339.26003340657223
400382.51916939754,50.767947515228244,13.892092187442413,0.4872680064574345,48.82206978860296
400382.51916939754,15.29473063575413,8.948060172547681,0.22725521162317447,-12.379297977926537
400382.51916939754,35.41082665334372,15.45532524575312,0.2196993895151737,31.85041533462563
400382.51916939754,8.740278577432536,4.999819221126399,-0.2562972831146777,7.125043723277292
400382.51916939754,17.506805130715428,12.558371356100773,-0.1396087183140662,-12.173483608304007
400382.51916939754,96.38708231685109,18.98495360843082,-0.6855941860851567,94.49343254238322
400382.51916939754,62.06320525734633,37.23860693874963,-0.4695968802986548,49.642166933319785
400382.51916939754,511.72936703358795,41.44272462753663,0.0741070393635846,510.04791718737386
400382.51916939754,29.39752573875475,11.80276086359773,-0.21062927486890898,-26.912871453169124
400382.51916939754,15.931343545770975,7.847673804333785,0.3259516993264172,-13.840272306303165
400382.51916939754,13.024610087163564,10.484633953794173,-0.4417574824086081,-7.678243815683984
400382.51916939754,33.96386371442711,15.312000347194799,0.04030724902647572,-30.307139721427443
400382.51916939754,58.24041239457381,34.67142733897026,0.07403872891091058,-46.78963495715604
400382.51916939754,91.08154611836608,16.701398209628753,0.3303887346095691,-89.53345655914478
400382.51916939754,20.087593976877066,10.925979689395897,-0.02351817204633858,16.83958151175746
400382.51916939754,18.244146765206448,15.744848480584626,-0.018886535524453553,-9.186182003496592
400382.51916939754,59.61502179003952,39.54829505995618,0.39229414185331724,-44.60007786061101
400382.51916939754,128.54297444072984,27.905330551844816,0.17176295129006156,125.47508502224545
400382.51916939754,13.284190083941628,11.805134738817245,-0.2258520318123079,-6.041121570797402
400382.51916939754,11.55986018159522,9.838578129710973,-0.24849972208411578,6.01736276789855
400382.51916939754,202.11872295499472,17.238443372314432,0.1089688263210249,-201.38083330804125
400382.51916939754,8.22057677704632,8.084379698244003,0.2883238617460688,1.255076006242363
400382.51916939754,114.59061685221263,7.0529512485366945,-0.34970951496388386,-114.37036640450303
400382.51916939754,145.18232206521813,30.78279156760135,-0.5607071984464002,141.87829167980811
400382.51916939754,29.369951660549976,28.014187501381535,-0.1724069249746048,8.786768121526006
400382.51916939754,320.4755492333509,15.297101602087343,-0.33401357395491854,320.1092039178419
400382.51916939754,147.07473352008216,19.570719699244787,0.34396913095732534,-145.7644796055695
400382.51916939754,50.25170535089568,13.0751089431645,0.26269823564187056,48.51436967974922
400382.51916939754,25.182979705287377,23.349344586283003,0.6594665312734082,9.380476379738223
400382.51916939754,24.752741718574526,24.669353926167247,0.07235773119228474,1.8851055141442576
400382.51916939754,19.68985557515705,16.59402166009681,-0.1361793175440652,10.571091329518355
400382.51916939754,51.848620623368234,27.549828712601943,-0.05930113191782564,-43.91720096746576
400382.51916939754,65.71776616559575,27.086555909874257,-0.06887907728763848,-59.871330312584945
400382.51916939754,37.58638019038165,5.02021326968926,-0.04785754183109694,37.24203006264835
400382.51916939754,54.606402299386346,5.554119151577779,0.2263677396437583,54.31756022841707
400382.51916939754,155.23079499815543,15.642545501150082,0.3412193415965716,-154.43843988577936
400382.51916939754,133.02190677944054,18.084183300731002,0.32883097952985,-131.78436753560493
400382.51916939754,9.97000891169633,7.195301747418377,0.14134998823205414,-6.859037077643851
400382.51916939754,29.999099925076468,8.8624333639862,-0.20459598275656268,-28.649591108011144
400382.51916939754,1033.8989649395694,17.615186036768563,-0.3480660434714971,-1033.748562965396
400382.51916939754,17.491205360136775,17.47313405773163,0.2073618235121433,-0.16282264563029622
400382.51916939754,10.60522819885605,1.7193337680738838,0.22153913776164968,10.435676113361138
400382.51916939754,40.664225291140696,36.716389704393464,-0.11426993532977472,-17.461687976092122
400382.51916939754,32.11465408867015,16.97183746865894,0.4152003921278945,-27.25019280290515
400382.51916939754,164.19690858819837,18.0818152672593,0.6953017984061332,163.19505801634983
400382.51916939754,332.4800387457372,24.625604016588674,0.4490296638406239,331.5656674363841
400382.51916939754,33.82592979738257,5.924770416989734,-0.10181373416853866,-33.294412671133216
400382.51916939754,34.03779408146139,28.28830856463795,-0.21273886567853664,-18.913895041677524
400382.51916939754,31.016420212096797,18.235577253117,-0.5513495394451029,-25.072210067983367
400382.51916939754,60.41057059361487,12.30786818178481,0.052104953074736,59.13872136196863
400382.51916939754,600.7742091664684,8.983469963193043,0.4302017297671788,600.7064176887712
400382.51916939754,74.89958617605897,8.132171824601201,-0.26592033879548266,74.4525535903385
400382.51916939754,19.624001082758323,16.493472557048943,-0.5435242699964975,-10.59287599581256
400382.51916939754,21.999220310133094,21.593462682827745,-0.48540495239968373,-4.109757248311395
400382.51916939754,105.50913652689549,18.386395405054124,0.5744874203337332,103.89045181272783
400382.51916939754,11.10737933905643,10.642208293911875,-0.0036861972098947973,-3.091103979390714
400382.51916939754,406.764650539768,18.47321688715689,-0.05139287002670186,-406.3442582396623
400382.51916939754,92.20416796916103,14.745421351909615,-0.1894729432013962,-91.01419064647266
400382.51916939754,45.25819149055443,4.605606213650734,0.06674877843324592,-45.01694671998332
400382.51916939754,450.71463830148343,13.265240428674527,-0.12666182530322984,-450.51874566035235
400382.51916939754,6.38556621758921,4.970661402793077,-0.21484831088277373,-3.931854566241551
400382.51916939754,125.52380730423543,17.87159121848086,0.1176741148665039,124.24273113249646
400382.51916939754,12.053433753766935,8.366342695917844,-0.2580230431899613,-8.640639921259144
400382.51916939754,71.43533247916888,11.202588371921742,0.5155149310624144,70.54559265838866
400382.51916939754,27.654558931531955,26.833165861913088,0.15398293402234287,6.646035492639944
400382.51916939754,30.122677286468754,6.5448364560187855,-0.3374247403993904,-29.391573727890762
400382.51916939754,145.5933202348651,41.05251264939116,-0.5985530917687523,139.68244519397797
400382.51916939754,108.63196874825132,14.854725116193125,0.046450563546837416,107.60890891174999
400382.51916939754,58.45640354554135,24.610259787117226,0.47925965991522773,-53.01598058941211
400382.51916939754,47.47910822981362,23.47593178907284,0.14699867010752077,-41.262118163188184
400382.51916939754,37.86940329587924,14.412415981578954,0.12185990536853494,-35.011380731300854
400382.51916939754,20.61161666643732,20.556907759115365,-0.4193384684108613,-1.2304873932933675
400382.51916939754,9.726901388463201,6.273456631059577,-0.003742066811547473,7.395539027332758
400382.51916939754,460.0253645601454,11.755771803243505,-0.08757540170710518,-459.87451316369186
400382.51916939754,261.55163912279295,21.362053708285334,-0.1997242651420245,260.6766586374598
400382.51916939754,18.297474339739612,13.90025035852191,-0.12562589571983523,11.874446694769809
400382.51916939754,25.345549107856367,24.731757612943316,-0.4893443205200649,-5.4713093568283915
400382.51916939754,6.902317113439695,6.638927940771501,-0.05838128951652688,-1.7323013437402675
400382.51916939754,59.05186491963795,5.573527728390778,-0.17846998300238,-58.783197825585816
400382.51916939754,832.9851851031694,18.61692948281917,0.39052214978169436,-832.7766889685569
400382.51916939754,1011.8263105283668,11.230552477485087,-0.07402699181207655,-1011.7637024263576
400382.51916939754,153.0434156255049,13.089002430609941,0.12010951606396597,-152.4807801474843
400382.51916939754,21.046467139472824,21.02227784213133,-0.5355396720590796,0.41045052023138295
400382.51916939754,24.67089371914326,3.5361505026399955,-0.19201775117072617,-24.403881344899634
400382.51916939754,29.967567033100416,12.779853838454855,0.43771935584498006,27.092000120060906
400382.51916939754,93.23360521740018,17.265751820901045,0.6358744464519711,91.6156770349387
400382.51916939754,3.5700322389619465,1.9904403423716703,-0.14204330357052683,2.8636969321773154
400382.51916939754,661.7169538692171,28.562091505328397,-0.30789546313887806,-661.099748015509
400382.51916939754,61.11789445368545,37.24121471242557,0.18677264762171136,48.45504848993258
400382.51916939754,32.74151470533698,22.151707090211808,0.4028385925814898,24.095311540761397
400382.51916939754,46.832763646653945,43.62342858658433,-0.07261311672740223,-17.02165137284194
400382.51916939754,14.489491564318513,14.458993371845233,-0.07353963342719715,0.5613620725274615
400382.51916939754,42.88079021467484,17.00185452147092,-0.2635656949015723,-39.358192341352876
400382.51916939754,50.336469838067586,20.190955834207795,0.5189188006244203,46.100475925166776
400382.51916939754,10.402703416683128,8.45973825402206,-0.09807800053303842,-6.006422124982732
400382.51916939754,48.86055528751008,19.981551841438442,0.552911630326873,44.57828391413862
400382.51916939754,111.10389058262234,11.406616867970632,0.27558984291416816,110.51391452414444
400382.51916939754,45.334027401075225,8.061434850911219,0.3444563144984855,44.60388231288977
400382.51916939754,143.04115929363724,13.428942736611175,-0.023693093829662483,-142.4074220210119
400382.51916939754,34.59912104790493,33.25685235734366,0.4891492335903504,9.501544115851166
400382.51916939754,79.502137595378,5.32939767484188,0.22276706811738864,-79.3194518165622
400382.51916939754,34.792007816121526,23.31148182996644,0.012614150690092696,-25.8165861926044
400382.51916939754,288.5146452915843,25.309040124050775,0.42292419309407503,287.4011340093208
400382.51916939754,17.935691098276948,12.648677187807937,0.08026272570182927,-12.693746391631768
400382.51916939754,90.95062785449608,19.633529305689407,0.0485125567883897,-88.80302100520154
400382.51916939754,408.51190368580615,21.332630174651637,-0.07210977534730321,-407.95382925277454
400382.51916939754,18.765925215736086,16.989877645793364,-0.11505176743476428,7.93274409414199
400382.51916939754,15.601455311487392,14.808020951130537,0.121014576318165,-4.852930847261231
400382.51916939754,86.18574167604724,12.46762112849009,0.49204980515325436,85.2744747132739
400382.51916939754,10.98390623381132,10.925002156745144,-0.2852053855930402,0.804264201034611
400382.51916939754,19.84820289769758,19.331447192042674,0.4156750823486384,-4.417146244365736
400382.51916939754,19.529849002474425,4.950324026155158,-0.439072304735578,-18.87204728150871
400382.51916939754,92.11341029393677,33.65155746661795,0.36924976789649366,85.7423719618703
400382.51916939754,72.82632211356001,34.02679659721801,0.48243816070419154,64.382103245618
400382.51916939754,26.329137132625803,18.787709457654785,-0.4729406655603158,-18.42442459342997
400382.51916939754,40.18064438104611,13.355797579924127,-0.0881717064877753,-37.88847764979643
400382.51916939754,172.09248120352225,8.305511832860674,-0.06474712552711252,171.8902964881304
400382.51916939754,31.188790560496635,11.294074693182976,0.09452180858511466,29.062230782715112
400382.51916939754,8.960692774442055,8.872248634666159,0.6105733453687646,-0.8012979104501212
400382.51916939754,15.06436256328816,12.883849569512837,0.22708745171532588,-7.767079887988732
400382.51916939754,316.83258325194555,29.195320150292353,-0.26016741818205885,315.48357970475456
400382.51916939754,101.0782609639083,16.7780469205481,-0.054173037562767604,-99.67319953372925
400382.51916939754,13.94406311656096,10.276917266606805,-0.1978185014290594,-9.39257124131678
400382.51916939754,14.756341309342552,13.013255409686664,-0.3349675453546418,-6.908708143523896
400382.51916939754,7.6561787403260535,5.065411334172502,0.0165164421283152,5.69175430911778
400382.51916939754,163.0003337135532,16.36464710918426,-0.25033794301944245,-162.1748504103661
400382.51916939754,520.3605422025295,19.88080693351177,-0.6634851504436515,-519.9796581054175
400382.51916939754,532.2173939889274,16.755741934164426,0.10342066863829541,-531.9530303887316
400382.51916939754,25.13422043821339,15.291845785848622,0.1966174675977782,-19.93207189578461
400382.51916939754,11.903780988614542,9.41985849040286,-0.3169741684459147,7.232112707292953
400382.51916939754,290.0153388666986,23.354037915974565,-0.26107463669204833,289.0724047535635
400382.51916939754,45.48437079133345,18.41671377314028,-0.10602496383451371,41.58219640396044
400382.51916939754,13.195606330987525,12.915098084332763,-0.04215206884631393,-2.6000288664394064
400382.51916939754,44.2140277994281,11.413132343194423,-0.10735645956462787,-42.70886088324864
400382.51916939754,16.71018642985745,15.157980633275727,-0.10029225528694792,6.992392587242482
400382.51916939754,115.47216378300143,45.08833379183096,0.10819766958413739,-106.30281612853821
400382.51916939754,55.096630741020604,8.370819752344065,-0.1218894784993602,-54.45172997830225
400382.51916939754,230.31656821172618,20.378810427838232,0.17935120111384875,229.4119246475831
400382.51916939754,11.2543193175485,5.907501121396498,-0.10492224677278822,-9.549229503627007
400382.51916939754,411.04144753364966,15.780361346918385,-0.28181540306720365,410.7376413544127
400382.51916939754,63.0437845027328,18.573811416204286,-0.14390052703000575,60.24076066526199
400382.51916939754,4.5113375767297486,1.9062159431765462,-0.17677792208232415,-4.015584149812036
400382.51916939754,593.4686400044128,7.1716131068405,-0.03973905302545857,-593.4248315616138
400382.51916939754,1.0656108006172063,0.36881107640465305,0.47476638262400583,-0.46017457449037835
400382.51916939754,39.2174907519224,28.076115959828698,0.10812930354989592,-27.370956514704574
400382.51916939754,161.48946430695503,27.821745085581576,-0.03293043467765823,159.07304660788844
400382.51916939754,48.24843227091685,48.02375016241372,0.15646447866452812,-4.5873537900405985
400382.51916939754,59.24640409790122,14.025353343571823,0.42481129649723764,-57.555912437132804
400382.51916939754,94.53550148292851,4.699940279021886,0.04664763311368657,94.41560826997566
400382.51916939754,258.90086701811185,20.41712116621316,0.6502308901958491,258.0926480254571
400382.51916939754,46.631892948417395,33.88073448228118,-0.43521359872868426,32.02932279967949
400382.51916939754,7.806365767870542,7.740378152510064,0.15365579148566053,-0.6632808186830917
400382.51916939754,32.582505466853235,17.32936355926708,0.16500647441360955,27.58121195633782
400382.51916939754,131.98918963120315,13.408393904616556,-0.13695403577288384,-131.30415094345344
400382.51916939754,99.53086148403597,23.60775263316788,-0.26501742785014354,-96.687299207896
400382.51916939754,190.42543845235753,14.290388313324337,-0.416480093342845,-189.8865361602755
400382.51916939754,39.045334794404084,15.43481721753593,0.012405214103751276,35.85724601482644
400382.51916939754,70.42221274608238,26.184564326931643,-0.0458118487324787,-65.36889320867033
400382.51916939754,62.67624735890009,9.78612281881391,-0.030043084932715812,-61.902992977488026
400382.51916939754,223.73525180797117,21.623143533306376,-0.03351296315783744,222.6866388025657
400382.51916939754,177.76925166691254,33.729944217067505,0.1385440017618947,-174.5382942676934
400382.51916939754,477.40367127960883,20.793521816830644,0.520779750541602,476.94974708992345
400382.51916939754,25.4371157649883,25.423273440339052,0.23862836720177366,0.2911039510171738
400382.51916939754,16.58348780028337,15.448752445762398,0.5721077512877847,5.9547012688612755
400382.51916939754,100.74539585284217,11.289170845813073,0.04932639444831195,100.10806477529914
400382.51916939754,168.7123222966241,20.474562435986165,0.17377020660568454,-167.46357051812473
400382.51916939754,23.92003430253953,20.587236115570903,0.3474210459148874,12.151160757805
400382.51916939754,22.429269709171237,16.984811032826176,0.13228416195120166,14.629029146023106
400382.51916939754,14.08881704540022,8.346578402814124,-0.522144216235219,-11.313461853502343
400382.51916939754,918.3990294613395,12.850998509905606,-0.2651859313820084,-918.3087696892801
400382.51916939754,25.411722743486845,24.637153331673527,0.43664115761607386,6.165495275457946
400382.51916939754,49.74353108179684,32.965361884393324,0.6655884856499497,-37.238400224408274
400382.51916939754,41.987799424665404,30.36139292012241,0.23524991090004507,-28.99212715452349
400382.51916939754,38.09445582529002,24.717300340598545,-0.21730838497404809,-28.976422563046047
400382.51916939754,146.1386763636628,44.28527475552646,0.5626440798009135,139.26395175988338
400382.51916939754,140.96998961270552,16.961541495872343,0.35947582017825574,139.94339040345415
400382.51916939754,48.836258974631754,25.92510913175393,0.40256024890283276,-41.37806799959027
400382.51916939754,28.599595952287828,27.082378135889506,0.02108112118148928,-9.160725828989015
400382.51916939754,8.979273957612095,7.007185512921341,-0.6492172031508574,5.526562042106562
400382.51916939754,10.266075424331618,5.574546175219699,0.5059071918891221,8.573124078209059
400382.51916939754,23.11089341784102,22.908168923954136,0.057693380834676795,-2.9603245742588893
400382.51916939754,37.713032284484285,21.71165541390193,-0.5594117974369729,-30.822095008421947
400382.51916939754,144.0910051121763,23.656503987049778,-0.5901184922543529,-142.1326035521118
400382.51916939754,429.69302708458326,16.720618371639148,-0.6516515697015154,-429.3664302849059
400382.51916939754,1397.8113976591198,17.407400543788064,-0.3581966214998662,-1397.702756377843
400382.51916939754,10.501976755232828,6.847456036309303,-0.04390532245762562,7.927142796095313
400382.51916939754,10.772611096826264,6.441305526933475,-0.0005403888107958045,-8.602115533338562
400382.51916939754,162.45889398461637,18.396986865884934,0.141736916294794,161.41208343428502
400382.51916939754,128.55338454993125,21.701415744296664,-0.19722707219777488,-126.7060377188335
400382.51916939754,19.63257612638565,12.679090832483887,0.24687364792107452,-14.968480664739399
400382.51916939754,87.61110203763236,17.335385664477222,-0.2051587239085424,-85.8754049364487
400382.51916939754,36.13489240841335,22.766291128136984,-0.23676605089224181,28.050098724646734
400382.51916939754,27.182399132733238,23.6206307158283,0.05726164447585208,13.430674118990495
400382.51916939754,12.596865983216336,11.722119938759034,0.1641298970598051,4.547928880943044
400382.51916939754,26.569153869806676,9.93647117642183,-0.07874232896446336,24.62961503052766
400382.51916939754,238.29863367403868,12.065957990068473,-0.07719370737117197,237.99177122080476
400382.51916939754,928.3877372470636,6.2561717311537635,0.17653047889594206,928.3663379733089
400382.51916939754,371.19542521226066,24.18463526959485,0.35881345469799103,-370.405799127499
400382.51916939754,83.85395866699898,9.680167676932916,0.24839118861675544,-83.28959538069216
400382.51916939754,100.76781722848968,6.071852544595481,-0.3666417464738188,-100.581254856407
400382.51916939754,16.135439501220446,15.954729817316217,-0.18509576724126856,-2.2808776599588505
400382.51916939754,11.041560327617827,2.0481637333023355,0.19881090509183302,-10.822163046396478
400382.51916939754,111.33817989806872,4.105052701456156,0.3893641970515355,-111.25926882666357
400382.51916939754,17.8961935846147,15.742471535634014,0.1034552732899465,-8.477929627152466
400382.51916939754,147.7417165037826,20.33395873504152,0.35406352844238365,-146.33337697071127
400382.51916939754,30.849929596120717,16.03301654946666,0.27800867918677846,26.344276542983565
400382.51916939754,272.0016110774006,6.305653189312087,0.021895616411795334,-271.9274762618304
400382.51916939754,35.58713538267662,25.04534457615231,-0.48425628326719905,-25.266144831525686
400382.51916939754,36.372462529488956,9.523110544992843,-0.03551554159134317,-35.09562356821708
400382.51916939754,43.964116356551976,26.750106593063087,-0.3252118503184754,34.879897082895475
400382.51916939754,495.2547299795039,15.753860902656713,0.38208956057481425,495.00338897858825
400382.51916939754,585.099579043261,34.61895166501746,0.24792128896809937,-584.0739865601272
400382.51916939754,22.820548136342182,21.64925156425919,0.10093873504389014,-7.177380741681704
400382.51916939754,19.820540532091854,19.759587798265287,-0.05181651587903754,-1.3592244348847848
400382.51916939754,18.627981130096504,17.734942598928733,0.13838595158703534,-5.647300267659029
400382.51916939754,3.561822044815795,-0.48520445556641356,-0.3078436060179128,-3.4342458004971275
400382.51916939754,119.5795799607954,8.723758522142358,0.03910542020759559,-119.25857667523323
400382.51916939754,638.4712138685686,15.026251284650588,-0.2933764377453276,-638.2938620262524
400382.51916939754,45.766847336841096,8.547343110683915,0.47612170439495105,-44.952844270561236
400382.51916939754,15.21155148430132,11.882852860532566,-0.013707946481687187,9.467131431191287
400382.51916939754,9.548266479232824,7.909848218516771,-0.12606894473834135,5.293907774829938
400382.51916939754,14.685384850305478,4.633736053413452,-0.011841292770727107,13.914975284254997
400382.51916939754,102.51199048415906,14.489408459801195,-0.092221447603697,-101.4800196575795
400382.51916939754,13.717845249684832,3.9370206898281364,-0.012468803329923697,-13.119323530574029
400382.51916939754,15.059683613986548,14.961023950430283,-0.016659369565815145,1.5489397542177077
400382.51916939754,361.9215012438618,12.840960069566918,-0.3321859524669954,361.6927012238211
400382.51916939754,18.61972997339767,7.893451472288191,-0.11421757417123006,-16.846732070980106
400382.51916939754,360.2651528638142,3.8510648595379666,-0.46383418983135044,-360.2434901344758
400382.51916939754,110.52666686517358,12.239903859345075,-0.2610186600124417,-109.84397284369744
400382.51916939754,265.06176672350426,21.354307250192,0.13105758740167353,-264.19908066332727
400382.51916939754,15.209043403729812,7.735019203910191,0.2590874472834708,-13.071151894729944
400382.51916939754,18.036522439037494,17.978410790603537,0.19784619352383076,-1.2212301219204031
400382.51916939754,29.45983145437801,8.18231167283323,-0.15284039684695355,28.290382532069668
400382.51916939754,140.43051576440052,1.1581029001244072,-0.12406348902157255,-140.4236832687696
400382.51916939754,10.566162949426127,7.722920307467332,-0.07035227016780599,-7.171681179833664
400382.51916939754,137.18928964221845,10.312726603386615,0.3398279856643834,-136.7986514497465
400382.51916939754,44.89616611467665,10.918779011493992,-0.40544462253053226,-43.53985840975625
400382.51916939754,392.96909154759373,34.0032668310815,-0.47126459427050055,-391.4941893888418
400382.51916939754,20.852264565570856,5.675878366908944,0.23637343302787012,20.049516923495677
400382.51916939754,101.30260200713327,28.04305060377571,-0.07036974087674676,97.34083004237249
400382.51916939754,9.232844212041568,7.523911275455284,-0.18549371759292543,-5.295226381601061
400382.51916939754,1155.6868256725302,20.480525478461082,0.2510171868013684,-1155.5050678203604
400382.51916939754,660.489598079767,12.259729614777164,-0.2697183466239428,660.3753274557938
400382.51916939754,45.15637605476769,24.868383035149378,-0.40521005541992217,-37.68202870622071
400382.51916939754,10.773163596860027,8.995908992041482,-0.20933159828839215,-5.87609688163319
400382.51916939754,175.58305833647086,22.986911884890347,0.07076414313855396,174.07022981604186
400382.51916939754,140.69032763726,32.07536981608127,0.1421349335803795,-136.9830515008722
400382.51916939754,64.02968929028104,15.44836337831229,0.12300046655100093,-62.133499091999816
400382.51916939754,515.608380550532,9.463261955241421,-0.039062105340620136,-515.5209839572485
400382.51916939754,124.18790473885116,19.36397136312628,-0.4617460066470122,-122.66579289308045
400382.51916939754,80.04366085385277,7.553540084749631,-0.04439351773738944,79.6829176378415
400382.51916939754,408.81831360600654,27.503689037288765,-0.5545339458478162,-407.89102807010954
400382.51916939754,23.335179135037812,16.040938176946675,0.4807708635364025,16.924107244791884
400382.51916939754,12.965636253696118,8.586660826446973,0.10646201274405297,-9.685210588486271
400382.51916939754,22.935674575263157,11.313598537680603,0.06755645672212143,-19.93691930726719
400382.51916939754,55.81233825062677,55.39739317927435,-0.1117508187081425,-6.750637057829855
400382.51916939754,223.74804639942153,21.43661405565532,-0.27562857895493503,-222.71735795231993
400382.51916939754,29.71550263706965,29.702554508396975,-0.25002220299326033,0.3801322614226242
400382.51916939754,448.0923718845363,28.406664243884226,0.474416831512935,-447.19016956469824
400382.51916939754,26.236950674916603,17.78831103971908,-0.11538180158133517,19.271168026376678
400382.51916939754,24.288038285700384,23.976434548488946,0.2765957106817938,3.794804858127728
400382.51916939754,3.1270305492794668,2.655758563654649,-0.22665046582979106,1.4531190807381131
400382.51916939754,319.3535711346979,26.99868744141411,0.10011531448844649,318.20936804066275
400382.51916939754,47.68513424314391,19.839297185592645,0.02920678622667015,43.35563539980464
400382.51916939754,116.34953118261602,15.916429794303557,0.4371311440562008,-115.2524500579888
400382.51916939754,25.95928566801767,19.057108773700666,0.16878563832715085,-17.610232479389566
400382.51916939754,12.258750997369859,11.505652204695078,0.09200517015155413,-4.162467705285079
400382.51916939754,36.70501583488415,28.146513607258804,0.5458858915812271,-23.540850171088287
400382.51916939754,111.25798796778015,17.127214180324216,0.303162846890651,-109.92881411321164
400382.51916939754,23.311328378735478,17.135111260990726,-0.4919226511861483,-15.779786562204224
400382.51916939754,36.05824985550265,19.798744809255215,0.40160041916771544,30.124466181360546
400382.51916939754,138.23876019426012,13.348616553706899,-0.1856496045154151,137.5905972418223
400382.51916939754,1038.8934134156295,18.877335836327624,0.3898531000740493,1038.721548974339
400382.51916939754,35.781765224611235,24.065736012185774,0.4761000700860958,26.46480796251903
400382.51916939754,226.0344766428783,18.136413984693732,0.4731977146066988,-225.3039477281909
400382.51916939754,9.170668196977832,3.6522668615614045,0.6531196269179277,-8.353035118608066
400382.51916939754,46.988887782675675,10.730739443014818,0.5627266238850799,45.73759726739641
400382.51916939754,71.67883790259746,25.876925053006616,0.6283224630324994,-66.83773950949522
400382.51916939754,72.61200359383261,21.47210530265997,-0.25530079523121413,-69.360105538234
400382.51916939754,552.4906716039461,26.60705735694372,0.05632843282342492,-551.8491108938024
400382.51916939754,51.242137204297876,16.395054973119223,-0.34161256747918495,-48.54152611460614
400382.51916939754,28.753827241864315,15.705161997843213,-0.44469199460213865,-24.070113744957258
400382.51916939754,16.048217756436284,8.484156802659594,0.47376472116483764,13.593291819262372
400382.51916939754,30.045281612682686,16.42056695558933,0.26041075415326176,25.148633626308637
400382.51916939754,965.2561250268309,37.0897228178738,0.17084432405421335,964.5429735549952
400382.51916939754,63.26572367964837,12.948196536829235,0.3323477565281053,61.921104666428214
400382.51916939754,67.75093831170432,21.939558028095398,-0.267810707682158,64.09533034521169
400382.51916939754,108.99788656695847,18.69535806459907,-0.535260686700692,-107.37864786765576
400382.51916939754,146.37068503779275,20.17250514425089,0.4642358170077972,144.97127170144043
400382.51916939754,333.6041898545256,27.76555283916031,0.3033433014864524,332.44574776324083
400382.51916939754,9.228484913174547,6.946515129925889,-0.11436473029742414,6.027888605442949
400382.51916939754,189.36915728237858,12.3194355292961,-0.4632595630000968,188.9659553666845
400382.51916939754,95.9008483302978,16.392880154338176,-0.2665005819480566,94.48604567418869
400382.51916939754,156.0109132947133,12.871756531297889,-0.14135044719290477,155.47713860850857
400382.51916939754,35.41914902918524,15.854688688970402,-0.4240894677498035,31.660744963433437
400382.51916939754,100.65313183649344,7.9260422344715336,-0.26104636545704124,100.33743228115692
400382.51916939754,21.671693165229158,4.4766893988014935,-0.33787835427817975,21.188323054951113
400382.51916939754,13.83150183510946,9.702128998821507,0.3357102753055291,9.823649703887119
400382.51916939754,218.16013838603288,9.035289694944995,-0.3813515862423416,217.97133240565802
400382.51916939754,47.382645786010464,39.728371924198775,0.032560815491439514,25.811008982934553
400382.51916939754,100.02671608410473,9.12902703479641,-0.317830812817032,99.60593073974682
400382.51916939754,161.4694847199334,16.431394517032448,-0.2323154068153893,-160.62934806095356
400382.51916939754,15.94517477055734,6.3534236541542946,0.22145347070408994,14.603808533513725
400382.51916939754,86.33298177167379,18.1224589386877,-0.23437950491082912,-84.40582295576638
400382.51916939754,21.754167849115003,20.342220841177102,-0.13437687431760678,-7.671862348912507
400382.51916939754,7.261158581580028,7.209434581973861,0.02054301363718421,0.43094538917054726
400382.51916939754,6.142757646150354,3.682713819478953,-0.24420488971316717,4.852742872207589
400382.51916939754,862.8734275175473,42.50293306502011,-0.1259563728387684,861.8256635716596
400382.51916939754,329.38564208884884,21.290122489261755,0.24830769667501335,328.6959201160731
400382.51916939754,58.43787351815076,17.927709320078996,0.20949833973427928,-55.614531098378876
400382.51916939754,78.80544779421041,17.458392048829182,-0.055843019682957185,76.84359237868385
400382.51916939754,190.15211204249246,30.349988846812106,0.13496073893445046,187.71287472042695
400382.51916939754,3.7925268370308345,2.070905589855672,0.4168327519004049,3.0591697065071064
400382.51916939754,41.96324897092182,8.859481183016733,-0.24892702026523855,-41.009749471201225
400382.51916939754,15.64548973067488,15.422881357459243,0.08628169980759816,-2.5191851864107804
400382.51916939754,381.1403802212465,73.35834639853024,0.3583031116637245,-374.01317052576974
400382.51916939754,10.016853562099953,9.104730259628711,-0.22823132444016392,4.1020496870788925
400382.51916939754,21.07037161613625,16.532499002160357,-0.11278638632770568,-13.040781226808079
400382.51916939754,63.14763772767571,0.8526924296582161,-0.11695769248065592,63.13731896503931
400382.51916939754,336.8733637357994,25.024326913004003,-0.13823081569105783,-335.941758060015
400382.51916939754,19.10559689044561,17.60325566108513,0.010208607869443909,7.388286502550421
400382.51916939754,3.743661862421755,3.614927249751782,0.18044559056449228,0.5936358284023753
400382.51916939754,18.995164950961758,16.27055175826767,-0.15643028385634378,-9.77233981965606
400382.51916939754,81.68570268760111,22.846124555574786,-0.01896416172220155,-78.42222845410387
400382.51916939754,152.70755785559464,17.352392181204674,-0.6347553278155817,-151.7152841887462
400382.51916939754,106.92608364910953,20.66586364178101,0.24559732547471258,-104.90703877918853
400382.51916939754,16.263342831495134,6.2995570844428075,-0.1467337955567851,14.97424551610518
400382.51916939754,55.62965905648229,21.269494395661305,-0.358353714822107,51.39627239885428
400382.51916939754,348.7370152196317,9.164526179588368,0.06708753498444099,348.6157632730521
400382.51916939754,69.73440457797469,27.607960477433565,0.32963339670091435,-64.03137278657758
400382.51916939754,252.0459936914565,62.01842446745103,0.015894807539744534,244.29559015428964
400382.51916939754,17.73695500844581,11.914311480714476,-0.12112651762585973,-13.117611911763438
400382.51916939754,655.1009499609427,34.89152844822909,0.5315423750174124,654.1704602043478
400382.51916939754,7.234095347124446,3.934798430560768,-0.0018198501051391604,6.023881844712233
400382.51916939754,37.618455448937674,17.95183801421941,0.19263250663858805,-33.04966344731949
400382.51916939754,17.24159358677437,4.4767914574321575,0.22777828037887357,16.631796767093842
400382.51916939754,158.98926398913855,14.560613422770594,-0.6125844457770886,-158.31815120145313
400382.51916939754,12.542573860566971,12.250462230449319,0.073590082969421,-2.5835204037446826
400382.51916939754,12.082604161649416,12.013507021844138,0.059949185958308046,-1.0483498686393926
400382.51916939754,24.940172283706595,18.05286961042529,-0.05328345118025164,17.191303389578813
400382.51916939754,19.531244151753842,10.591042162239617,0.214938642000342,16.39179015245196
400382.51916939754,170.73390256520491,15.639103149220468,-0.2479914389268636,-170.01429380222095
400382.51916939754,1054.3017334428084,25.973806562158213,-0.06381737760667006,1053.9814704725663
400382.51916939754,12.109701050277426,7.794044620920872,-0.364395692094956,-9.23052559405645
400382.51916939754,219.26327922943923,24.801602964198725,0.15411834248161316,217.85472227009123
400382.51916939754,403.9386460361858,13.4694611325016,0.38602556704046326,-403.7131308511
400382.51916939754,11.621330898281407,8.936502752669375,0.2201836972503588,7.388059862177075
400382.51916939754,13.951331965610049,9.43916898544387,0.10600415457127162,-10.245397727119474
400382.51916939754,20.427466151676278,16.70458329196012,0.06523231660478833,11.73335732659162
400382.51916939754,14.921525862565934,12.774477423578361,0.29751843105227027,7.669015738258664
400382.51916939754,3.9823254169298608,3.5396488993770348,-0.1839456708808565,-1.6533675859870764
400382.51916939754,55.24575826597851,17.495617071112004,0.5454859576841568,52.39405780947568
400382.51916939754,316.98596774339245,18.55872317216269,-0.6788550768459316,316.4406016224964
400382.51916939754,26.8278073336455,25.893211032243617,-0.17949187123095384,-6.97698433621765
400382.51916939754,399.7666047754165,19.854138236886367,-0.6405709860058841,-399.27206115171066
400382.51916939754,89.80216740154147,13.176861112940706,0.2609998148781275,-88.82662404544114
400382.51916939754,6.856473242794306,6.666281875122316,-0.17538156661165347,1.4067023798326428
400382.51916939754,11.169015269187273,10.413096498168803,-0.5344499930672147,-3.9327275009638667
400382.51916939754,133.07971346711386,11.665835726024556,-0.36940174348991045,-132.56477516536287
400382.51916939754,57.01973867667288,19.068105716456408,0.26452442544371824,-53.73104902157796
400382.51916939754,196.28744716238083,13.959257807913335,0.25366072734763745,-195.78885144512395
400382.51916939754,203.65195792453443,34.89067413663955,0.3529137610671152,-200.6391635141385
400382.51916939754,66.80748818779627,16.09706138693607,0.2845606262294329,64.83426391119524
400382.51916939754,45.12906902971675,14.627263914031492,0.4064031784402427,-42.68428888154902
400382.51916939754,224.66678135039297,31.03852121276564,0.09151734201284759,222.51112809662993
400382.51916939754,44.69725888888625,11.339514152189338,-0.42675795312469333,-43.22633349719392
400382.51916939754,49.28653361599342,26.705815425303086,-0.2012684627176615,-41.416892306699836
400382.51916939754,57.877250247599804,18.401266588838837,0.5480990115623591,54.86626222563429
400382.51916939754,49.47997141883668,16.88857213728733,-0.47036221476179363,46.50010882942345
400382.51916939754,24.083238907690422,20.615904056732735,0.14666408355150076,-12.425902174242491
400382.51916939754,5.825409840218657,5.456768755678161,0.1755339084102668,1.8883647394857808
400382.51916939754,54.364030496892006,18.494450707562407,-0.023114479612422703,51.11594887705935
400382.51916939754,108.84088887435146,33.88719034084233,0.19181234091822658,-103.42822771747122
400382.51916939754,21.001537938848642,12.906112077210985,-0.36192134671999704,-16.54700996479183
400382.51916939754,22.03088800982536,19.79371967756043,0.08238946820705936,9.64362788539234
400382.51916939754,2.420039822212782,1.597779378035857,-0.5091128425628755,1.5754862432025774
400382.51916939754,238.0062616518342,22.517395748497712,-0.33174038837000547,236.9372809025426
400382.51916939754,261.65648346159134,15.513761022584148,0.1856882248355269,261.1950262453175
400382.51916939754,39.50329700971794,32.9277936179998,0.25091993475407043,21.80930031577147
400382.51916939754,83.24612394242989,10.512169952066253,0.09498791595297378,82.57626820474428
400382.51916939754,155.91003877398472,14.99929076981945,-0.10705465418343042,155.18501108418178
400382.51916939754,793.276098905577,17.597566200457393,-0.1276889839463896,-793.0805230953434
400382.51916939754,24.77833128478517,18.245860054998094,-0.29209557590369006,-16.745346555843213
400382.51916939754,72.26938399663997,16.124929194368537,0.3774567660528076,-70.4424992962979
400382.51916939754,28.242286996517983,8.769190798544226,-0.10635233897929817,26.835692942444652
400382.51916939754,352.7882285355413,12.439906808822819,-0.01741876172105653,-352.56803636661203
400382.51916939754,31.17651220683016,24.990429919007795,0.2701170735197786,-18.62305081347165
400382.51916939754,150.06622160307424,11.302573587985353,0.281344789715249,149.63783345333906
400382.51916939754,33.901409176662035,12.237612221535283,-0.33297270653572364,-31.604954982474844
400382.51916939754,26.35835251487571,9.440123600155637,0.0628397576868218,-24.598384578379473
400382.51916939754,3.06382457984435,1.6999508063612805,0.13189408024704427,-2.432581191321232
400382.51916939754,20.054347319781364,8.954070939049352,-0.0310857971288021,-17.928696346998418
400382.51916939754,3.64748426440196,2.146191619397626,0.5217270617952524,2.8041866652635306
400382.51916939754,377.9869308487639,13.5399943199516,-0.07266451932361497,-377.74359137534066
400382.51916939754,165.2206645146082,15.321313927336435,0.5784885961600822,-164.5060130576436
400382.51916939754,367.7707243214021,28.31447648383267,-0.5283858531888072,366.6779984628395
400382.51916939754,76.61343883789569,22.785293812320095,0.11017136010986275,73.1428391417397
400382.51916939754,99.53054398937132,6.566003974723808,-0.006109629388215682,99.31089769146828
400382.51916939754,842.3134788950204,24.824063320669367,-0.2715788326051992,-841.9472231158018
400382.51916939754,208.58520288299084,12.454885044089202,0.06991293255054204,208.21166026773716
400382.51916939754,172.22798552864512,6.7044423541202285,0.1601520249321621,-172.09573342268874
400382.51916939754,29.837526039898087,11.029475303405592,-0.2547117207660333,-27.712838462366694
400382.51916939754,50.96572981713284,10.001242978481567,0.5562944744045921,-49.96607799422392
400382.51916939754,141.5260041010987,18.652298610799765,0.428666960008105,-140.28882883887766
400382.51916939754,43.09233747650065,10.740283227459459,0.21420769464443132,-41.72514397141002
400382.51916939754,114.08043763075928,10.783606271061362,0.552779146662906,113.56580550509062
400382.51916939754,775.4867302184158,26.575654692683827,-0.4687143084422422,-775.0307228029033
400382.51916939754,940.2679473465419,11.49449391788286,-0.15552480716782258,940.1973744314934
400382.51916939754,156.32440791107953,41.212465485858104,-0.07573411684791245,150.79219184247853
400382.51916939754,46.713020921672175,4.298111156338921,-0.0562715117125656,-46.50878472527604
400382.51916939754,30.836450394068237,25.065852010446278,0.22451883104387907,-17.94371717843067
400382.51916939754,139.50242276054192,14.144531592454761,-0.23726521817240478,-138.78126511275218
400382.51916939754,108.12936039694443,26.22081897241498,0.1998766954613096,-104.89911792080765
400382.51916939754,365.2473717337331,46.67315929488077,0.5337331531537683,362.25186203488926
400382.51916939754,34.839881571432414,10.61351552194742,0.53706892555398,33.171069505440805
400382.51916939754,40.178381966629445,20.505914049412443,-0.051338550429657355,-34.543376930990505
400382.51916939754,18.95972467666228,6.5050480315356936,-0.24477575448479166,17.791381445549145
400382.51916939754,39.40306097003583,19.32820950668822,-0.4905964318044437,-34.32518762080978
400382.51916939754,13.637630284924935,5.0940655924651495,-0.11631249951212326,-12.627730830168407
400382.51916939754,482.8860336834722,25.270581008439226,0.16880313656064294,-482.2237327491682
400382.51916939754,26.04763919126202,12.0881838435928,0.3989603567175814,-23.057185613691082
400382.51916939754,359.1080337080258,12.787511617966562,0.061387958214156865,-358.8794969216998
400382.51916939754,109.72941105630912,19.281796536246635,0.6295391125708308,-108.01757872028861
400382.51916939754,95.92807239324662,0.3091990029452376,0.6351472905310888,95.92254018721896
400382.51916939754,152.7819538240029,11.46558574946392,0.4056504129817364,152.34874093484544
400382.51916939754,100.32837103068769,33.179698446714006,0.36292606929693333,-94.67943593153399
400382.51916939754,72.01448279035267,22.510178110157565,-0.15433733513543724,-68.4016918795634
400382.51916939754,945.9510429928259,6.81827309387821,-0.24293900829961168,-945.926141689117
400382.51916939754,453.6358868412495,15.403229913921932,0.08232760964475616,453.373675040379
400382.51916939754,3.554253661276074,1.4552976007712413,0.3550865615968419,-3.1347089983635117
400382.51916939754,555.1560832988174,10.079714314302871,0.2793082232889151,-555.0639925530485
400382.51916939754,100.92521630476841,17.435382015272506,0.08344417807083948,99.40491655951284
400382.51916939754,39.78052835603134,19.283201641179996,0.2562217095352249,-34.78535007980995
400382.51916939754,247.81546088706835,22.41971830246433,-0.016982562837486618,246.79808803248375
400382.51916939754,133.0753603634205,12.934626277197701,0.03575346658480713,132.44313254979232
400382.51916939754,13.754597645080842,9.156969131025942,0.0035501886513182447,10.236040205881668
400382.51916939754,7.4457164051649185,7.3849314979371945,0.1072079174729304,0.5724028372678149
400382.51916939754,90.69368387596772,9.965365422193681,0.2512093937851273,90.14105801367847
400382.51916939754,417.2238202205083,9.009418178621994,-0.08853166533534097,417.12585194951737
400382.51916939754,4.245132973278916,3.5417683317853212,0.06406304401343099,2.215984196680621
400382.51916939754,69.6307593625037,9.117914176595473,-0.39969035737972997,69.0259675562329
400382.51916939754,229.10334411513273,15.360287453854786,0.02148942572466867,228.58661608078725
400382.51916939754,44.17439377038744,12.064777820534125,0.3772960565196419,42.486627399652384
400382.51916939754,193.65662096620724,18.266887079461654,-0.46656359511080414,192.79115036192906
400382.51916939754,68.47560954949631,42.62264242828438,-0.05053311932164714,-53.5878210137182
400382.51916939754,8.30153812569095,6.471584434605086,0.162056518713816,-5.142521446876414
400382.51916939754,24.90980040593908,11.720188232166162,0.43372434485254674,-21.963262195032932
400382.51916939754,109.26705487166882,18.172654670868987,0.3563345540767264,107.74207435916557
400382.51916939754,39.089048966227935,4.489850380053751,0.0396902225344505,-38.82307401950412
400382.51916939754,55.3009214913127,9.206429987555577,0.3388691610201655,-54.52298956727374
400382.51916939754,131.95292830693518,21.41822310327934,0.31714977584895376,-130.2005072297407
400382.51916939754,156.71580544916384,25.814885976433843,0.12543796578864186,-154.57314535167285
400382.51916939754,111.21507510373254,16.579723317522053,-0.12514076163597232,-109.96966719883184
400382.51916939754,32.16869893821605,6.146705481638638,-0.13141809195626028,31.56681154905334
400382.51916939754,255.99578631104674,14.115493172639868,-0.1853756384208433,255.60516183435288
400382.51916939754,420.34538401412783,29.729104650792646,0.1116546243601691,419.2920788553969
400382.51916939754,317.3850712584616,19.648277782341736,-0.6494076687308561,-316.7747536761654
400382.51916939754,783.0425654018861,21.251592824952205,-0.29940222157690133,782.7537141725153
400382.51916939754,14.478858190401352,4.825920432449735,-0.06265149767333306,13.630170954761336
400382.51916939754,29.25220917471507,24.252702337286074,0.2081296053416794,-16.336845227779662
400382.51916939754,8.346484529487077,7.49440245826748,0.005128918438016727,3.596577328160919
400382.51916939754,38.11092740312952,7.985512086906517,0.44972706243361166,37.254661302910236
400382.51916939754,121.99243333426196,3.095892238866326,0.19151109521125265,121.95068767558818
400382.51916939754,22.358443456291695,5.058363153090012,-0.1907983261395246,21.76497670541277
400382.51916939754,202.32325635832797,10.502723938017823,0.2278629934483668,202.04895097664934
400382.51916939754,497.2561872786782,10.338613685706475,-0.6804876544878469,-497.1476676496899
400382.51916939754,37.63729196635207,35.58493696096543,0.09298873128457044,12.235482014582178
400382.51916939754,1040.1500811008764,14.225619060699572,0.3322582340935301,1040.052474753055
400382.51916939754,177.3842156973512,33.916711022002914,-0.5040646426579494,-174.1091619353765
400382.51916939754,215.27316991016312,2.4686935397458214,-0.4923249889547928,215.25714508575737
400382.51916939754,128.15779181152791,14.711897606480473,-0.43502306883691705,-127.30761204555567
400382.51916939754,22.229789999703776,16.7587467833629,0.4976229380520538,-14.577311140342113
400382.51916939754,72.49724725370702,11.791337274068225,-0.3105671494791582,71.52731248752974
400382.51916939754,30.33311566577131,13.848437411901672,0.07070852955519735,-26.976866877647502
400382.51916939754,12.565186303650066,12.540035741859223,0.11549446301747215,0.23607298893497058
400382.51916939754,23.467316487298888,15.001349604789969,0.25887155778604704,-18.029007117843495
400382.51916939754,27.889224133320504,23.804082573468495,-0.2862817261112011,-14.509658071647973
400382.51916939754,1652.9400886209237,53.69481499220168,-0.14967827725102548,-1652.0675587482806
400382.51916939754,437.49098960598747,33.8376407189216,0.08579464641949143,-436.1797913192114
400382.51916939754,13.63885277302504,11.493045799519061,-0.03476184578053041,7.305111485614162
400382.51916939754,34.98789927505155,14.226617125068957,-0.3302495931488431,31.954421525867676
400382.51916939754,174.4393502077006,29.621669098898344,-0.0707164312180056,171.90426486523046
400382.51916939754,5.900814174708849,5.8279804093576635,-0.3710604445491012,-0.3927154285780147
400382.51916939754,10.004651489577862,6.108685502733767,-0.10102077824384839,-7.886980832215194
400382.51916939754,10.200928393083984,9.831658853132959,-0.091701868979614,-2.612790468527645
400382.51916939754,24.857193286301552,15.80507909137917,-0.26054097842887053,-19.168967378946817
400382.51916939754,60.48105018592594,26.705223594144606,0.6153332866326384,-54.25723443297087
400382.51916939754,139.81149573978502,37.934067113643856,0.07242836950951578,-134.56482938098475
400382.51916939754,66.50324440257178,5.892052337946389,-0.00958718870430753,66.23747279591569
400382.51916939754,14.696700383187487,9.206775995128472,0.17160507156507537,-11.429632042060081
400382.51916939754,51.493301600367666,31.067047016859764,0.38529023561628634,41.0571298288343
400382.51916939754,6.163189121013898,5.865620741614925,0.281765902423646,-1.7139604493442187
400382.51916939754,113.8038060441578,15.660525784118914,0.35388370808345115,112.71808474069788
400382.51916939754,1069.8896983646744,12.244249494060158,-0.3260375594787166,-1069.81931950198
400382.51916939754,292.8025177953062,28.91407005659641,-0.23411896228612156,291.3703379332445
400382.51916939754,109.97357617443728,11.173807236538817,-0.3041725141591715,109.4014562357642
400382.51916939754,147.09398106801797,13.67050102610981,-0.3301309454502722,-146.45506253005104
400382.51916939754,54.44134858949072,25.32515100474454,0.23262787358675321,48.18589737766148
400382.51916939754,148.8530697343378,30.223529951071193,0.41143968225877575,-145.74993304632756
400382.51916939754,54.85337958015566,20.28602252557697,0.2960391669056781,-50.958027446682465
400382.51916939754,22.055225311786984,7.4984766468562585,0.10718416699712346,20.727565753685347
400382.51916939754,93.09298153675991,14.687655199653058,-0.41465918904553695,91.92302058181798
400382.51916939754,8.747428826305587,8.598299618719262,-0.12078093068259303,1.4176832134019253
400382.51916939754,23.894172636512515,15.426676218756871,0.5274926101056491,-18.223845844391693
400382.51916939754,23.559890203492934,6.005018031106915,-0.05845492967078977,22.76933083901861
400382.51916939754,102.15039837637991,12.368891716481375,-0.2828537324524215,101.39562149774456
400382.51916939754,25.661976793794228,7.986644117315639,0.24467753185052327,-24.374748421322273
400382.51916939754,102.69022654493574,6.572796775671934,0.3986263343820679,102.47614223042476
400382.51916939754,6.346837153557617,6.019750516939677,0.3181262269684573,-1.8388584121847582
400382.51916939754,194.12889733974896,7.629173387106915,0.18495585870025336,-193.97739029612538
400382.51916939754,20.877396980276096,20.339448312505386,0.06871182522613875,-4.648170036562924
400382.51916939754,469.75692397169473,23.1771705171632,0.3174132326039672,469.1841038377105
400382.51916939754,19.673388862448586,13.69248955264615,-0.17512939134767824,-14.105493535103346
400382.51916939754,867.3390636136883,24.605863828079116,0.10635581300164787,-866.9896360874063
400382.51916939754,25.172070321459266,7.05562838201949,-0.36260281152420415,-24.14865235563197
400382.51916939754,56.80715841776494,32.197343931892675,0.09808677190677842,46.79543064452335
400382.51916939754,6.222757874561961,0.11228699252701049,0.23227233286577487,-6.172018774184119
400382.51916939754,118.9734276943249,12.686364199201718,-0.11161652143840231,-118.2926788160741
400382.51916939754,34.698285222773244,29.001432011434765,-0.32883651598768154,19.032011565296184
400382.51916939754,12.561646513912201,11.079837822700966,-0.1759691059005888,5.868462390239891
400382.51916939754,30.103240267408065,17.024209663781456,0.29893903238460845,24.813900426264894
400382.51916939754,173.32717062745314,12.74418948721616,-0.6105482014761509,172.85531117647102
400382.51916939754,25.402095946670016,14.089276472655701,0.2102025683266856,21.122316180521796
400382.51916939754,20.00933326450394,17.719567260090148,0.06142352702686909,-9.264137301671255
400382.51916939754,62.16702449865223,13.474275282025,-0.41532843909968564,60.683177256276515
400382.51916939754,27.8234963928882,5.787995303830038,0.17380361477999784,27.203924591502552
400382.51916939754,7.298776896710931,4.289362611294154,0.27841982791314746,5.850953252674462
400382.51916939754,30.39936369442539,30.16321795183103,-0.24133292079255855,3.6987853717663186
400382.51916939754,43.33073626593875,13.352935830507981,-0.3326549883062945,41.21381818883315
400382.51916939754,56.416335209424886,10.4296278291069,0.14814359206647157,-55.4386278173748
400382.51916939754,31.733931263680024,21.38908026226991,0.24235250453860843,23.429224554697747
400382.51916939754,244.9190998418534,15.80012158331284,-0.3255997189312165,244.4075556710718
400382.51916939754,34.48550248125778,26.504879294037476,-0.16148221118218403,22.04887383694632
400382.51916939754,77.99561548364355,25.570077423698052,-0.34580340264614656,-73.68042653387633
400382.51916939754,77.50040016979621,34.293977483787,-0.137989315628925,-69.49571031910958
400382.51916939754,11.45565087643619,11.293078785092964,0.2513406669720472,1.7529390789090595
400382.51916939754,82.47508624937994,13.696084688258994,-0.012967881062781052,-81.32646928815687
400382.51916939754,64.22048362621979,18.496937042397583,-0.009844545564746877,-61.494482673723105
400382.51916939754,76.54999178010749,15.57199652718195,0.4293997723586669,-74.94442901587962
400382.51916939754,46.420314128009466,13.880069571565292,-0.35136908320610705,44.288863512035526
400382.51916939754,37.078097987280536,20.70582420534193,0.1732586997470592,-30.74836312299533
400382.51916939754,27.488553396343246,20.46385070438755,-0.07883020149195676,-18.33801589486299
400382.51916939754,127.85595341260333,13.729564279815568,-0.24209904172155558,127.11421216675564
400382.51916939754,26.66475418642182,22.16041984141176,-0.3415811379342139,-14.80695409561452
400382.51916939754,40.744214852633505,22.327915272178124,-0.5074933507834963,-34.069566375926634
400382.51916939754,81.57573785626157,14.895524518349653,0.37541495965533894,80.1998820367809
400382.51916939754,22.18300640595746,17.279965298659672,0.46472571661791406,13.88201215533776
400382.51916939754,30.56808918672911,3.7180921544409298,0.0009524116328515786,-30.33185660886233
400382.51916939754,36.24840882739824,4.391943551602578,0.4644854628732706,-35.97054192810114
400382.51916939754,81.39613592205728,9.371990938702286,-0.31340235123823973,-80.85070294587369
400382.51916939754,16.469731584023815,7.745021141440548,0.19379772753714872,-14.51436555272038
400382.51916939754,79.72120570417316,22.754724239665315,-0.08459567941140211,-76.40107110678272
400382.51916939754,40.8215365661581,14.779897792545057,-0.3704056843366518,-38.04277759945876
400382.51916939754,142.81473605273447,11.329388003933232,0.43335846020185076,-142.36201621465707
400382.51916939754,70.20901758350465,11.465879308470722,-0.3661208154018765,-69.26141332850304
400382.51916939754,68.71432769943684,32.07053034145519,-0.10683418584443315,60.76648879315713
400382.51916939754,4.562155737329686,4.461149994601149,-0.14750931431357464,0.5721063609811481
400382.51916939754,30.651518400439148,15.346991964496613,-0.5794135636290535,-26.515794478106496
400382.51916939754,23.540258915315107,2.709695970310385,0.16458078742562007,23.37117690022756
400382.51916939754,21.992321678308038,10.107153049311094,0.6277855157598098,19.507721916588448
400382.51916939754,444.25608750867127,28.355037184699924,0.3307936998975066,-443.3495138029175
400382.51916939754,1271.1820358909843,14.341051977081138,-0.6143642019422249,1271.1007681595327
400382.51916939754,130.15270630185228,7.93099219509266,0.005055501473803336,129.90867543750983
400382.51916939754,31.917941260484014,7.709250930555994,0.3590597469770814,30.96176932095925
400382.51916939754,187.78517836458616,36.66709493763637,-0.572547431045247,-184.16814928396758
400382.51916939754,174.446308025667,8.096749271878426,-0.29613169293486263,-174.25644034015912
400382.51916939754,11.857640553036132,11.816325485069209,0.4087244739648895,-0.4986931010723472
400382.51916939754,31.063070634996805,9.785884814755285,0.10538118510793536,29.471636694654933
400382.51916939754,132.95566940298903,40.894871511849566,-0.256501589327878,126.5076731915881
400382.51916939754,82.92194083857046,19.070391431238242,-0.33634020442854123,80.69506166643896
400382.51916939754,50.24718586138062,21.511502865206886,0.24794081121563297,-45.40276550840514
400382.51916939754,39.745521532004545,12.063191964857122,-0.18192736007137228,-37.86278440493336
400382.51916939754,235.47755703688398,15.8413758803088,0.08043961010920458,-234.94289064948444
400382.51916939754,215.981166572237,26.523258708106656,0.08125744826350628,214.34507719474942
400382.51916939754,47.898011703233784,33.267911130121746,-0.6235426233721658,-34.44581930724026
400382.51916939754,85.83224653745805,26.089228877942443,0.05040928630628598,-81.76773079958825
400382.51916939754,58.77818810044188,35.62830633349587,-0.015277614656353187,46.74330550742812
400382.51916939754,30.160693246840715,25.94555116719085,-0.28161068288378316,15.35754362431553
400382.51916939754,93.79264728484979,11.006551372000523,-0.19005553723749025,-93.1413874143889
400382.51916939754,14.95160360402925,14.911138603523558,0.05929306599269373,-0.8015854287717772
400382.51916939754,5.726022486008766,5.67427264303514,0.14879318843272873,-0.07404767802587531
400382.51916939754,107.72944410501238,9.32214476063811,0.035833027029646754,-107.32272415113042
400382.51916939754,53.18335652126848,32.730850663436996,0.09910039901612566,-41.91167693872217
400382.51916939754,32.59427923702478,31.786939653280104,-0.6156702964406443,7.143956574246359
400382.51916939754,19.400904321025973,19.38008287225056,-0.3131634123821433,-0.38348924915016425
400382.51916939754,764.7292155526583,18.532674152046102,0.39871145998148777,-764.5041476648238
400382.51916939754,32.552502274194445,22.1923711168113,-0.3585041759346187,-23.800697516454335
400382.51916939754,53.61294570011913,11.527414875304796,0.42267327300193025,-52.35194035782797
400382.51916939754,550.7926553929168,16.095192032407237,-0.4338817102653546,550.5567576861359
400382.51916939754,174.64143696087478,13.57230338570502,-0.5181020057264839,174.1108650080919
400382.51916939754,253.66557842632676,30.73996733891255,-0.37719331490238195,-251.79470898046574
400382.51916939754,48.83795359791321,14.6818258495605,-0.09119797461139553,-46.57272853584266
400382.51916939754,75.70780421057015,17.873597774463306,0.42228301073784813,73.56266347156233
400382.51916939754,65.14293260397682,9.518781639596629,0.04112314305216345,-64.43935468500455
400382.51916939754,195.66029740280402,22.401776368110163,-0.5641999724072104,-194.3713758059216
400382.51916939754,62.54583773249773,15.55194666305312,0.38859947882883633,60.575617389204595
400382.51916939754,12.08974845331516,12.034235067518901,-0.112226797333874,-0.8742243069481344
400382.51916939754,10.994175372560234,3.907527716676518,0.45775761038933344,-10.238712625369919
400382.51916939754,23.275472085849252,8.966412392946607,0.15787864737268317,21.465408986092697
400382.51916939754,28.61627518411998,8.607809985592493,0.13279161628431943,27.280337938534117
400382.51916939754,19.074143916200143,9.91665000061264,-0.3172327388032853,16.27329226922012
400382.51916939754,48.56024648573483,9.898153221618056,-0.5866084096187374,-47.531228167587074
400382.51916939754,6.673316354937185,6.256277518096057,-0.4213653815505241,-2.1569082024121364
400382.51916939754,15.780976349648974,9.95586025721874,0.3791270599742045,-12.21531754593682
400382.51916939754,26.15042858693976,17.961740456321753,0.5742570777720536,-18.982325538715315
400382.51916939754,25.5395692793698,8.712096937603956,-0.09671614805970209,-23.995776105410503
400382.51916939754,69.19258478156071,40.041847293760355,0.16614493630809166,-56.42405789116507
400382.51916939754,16.190086089699285,11.034378723418522,-0.4199605894638732,-11.816203530411284
400382.51916939754,81.60686584472357,24.056708441706373,-0.5847323598167937,77.97468229499619
400382.51916939754,606.4518316856313,20.439012996703887,0.05628070814034748,606.1068432166464
400382.51916939754,152.96530664442625,15.8278177444133,0.3112324596678373,152.14205866760776
400382.51916939754,243.3481522646295,14.93619675395893,0.18578453386289534,242.8881149423167
400382.51916939754,76.03157768364446,15.51430650403258,0.48206482908817777,74.42655689505133
400382.51916939754,18.284549780156606,14.009474486134268,0.06384947127283237,11.725739529733726
400382.51916939754,6.468151216505373,6.397173696502486,-0.2797601114500386,0.5220556724738367
400382.51916939754,23.85548759698327,23.74337910147469,-0.48730215945019434,-2.129890355778175
400382.51916939754,79.52350279165887,11.518224226222179,-0.2136685136575066,-78.68106514075977
400382.51916939754,26.476195099793642,6.360221370848796,-0.4508857744319203,25.686004984880654
400382.51916939754,58.895374778999276,20.29063799572055,-0.6526646044668817,55.28080017499969
400382.51916939754,102.1257671109907,18.72486813383722,0.12599309711728945,-100.39160027665143
400382.51916939754,33.24815575785265,33.16620909430053,-0.46754213821163043,-2.1590504740112486
400382.51916939754,5.368319171290851,5.183979797625495,0.11189854740095628,-1.1706160286418354
400382.51916939754,5.380059255611284,2.562435750544225,-0.019781171886759628,-4.670784549968484
400382.51916939754,61.54705775144416,11.063035620253064,-0.20787988430398946,60.53960691701821
400382.51916939754,10.165878947424991,9.538895612604593,-0.5678797281304353,-3.3866999968515055
400382.51916939754,363.05691281187427,14.725624872935551,-0.4689894319131628,362.7570752176889
400382.51916939754,47.80533489290345,17.137491605963397,-0.12037306308657537,-44.621514933859345
400382.51916939754,155.54536642640232,11.06536629125106,0.03624909789692104,-155.14946029733997
400382.51916939754,18.441458475312697,17.793579855923806,-0.6385430435735628,4.744030815436695
400382.51916939754,1248.477524102642,21.302706002369153,-0.3392827235878919,-1248.2954960475754
400382.51916939754,443.852085998579,31.70792830529458,-0.3841863328057236,-442.717259193412
400382.51916939754,268.82523084307746,24.63016053812961,-0.49054092758794254,267.6930274741705
400382.51916939754,1025.7156896356767,15.153669445394723,0.36208656459533445,1025.603407180105
400382.51916939754,514.4337643911614,29.255378261875244,0.10016599589451648,513.6006701847045
400382.51916939754,27.393545067399433,18.37228330383659,0.1189937030545405,20.304901306103627
400382.51916939754,342.5478609353276,21.9784674410171,0.5462864186172582,341.84078637642153
400382.51916939754,60.16382696881697,5.280775279821168,-0.6051343589056702,59.92387637139484
400382.51916939754,69.79443769815605,17.536159519364467,-0.32579238474800054,67.55056003634606
400382.51916939754,54.447196350214455,6.525569681593191,-0.0038693183953721236,54.049530754176004
400382.51916939754,63.96901833645387,5.518152303351288,0.008001019287703753,63.726155517644756
400382.51916939754,29.53275450286823,4.512191475878775,-0.10185526789490834,-29.176206077981703
400382.51916939754,26.850656524305677,15.152137461396388,-0.08513616461294157,-22.154026653397036
400382.51916939754,378.67930497516693,29.978852344157687,-0.19283567717878708,377.48997986965566
400382.51916939754,4.149088249254614,3.0918718008376787,0.02855581843210871,2.663100753123164
400382.51916939754,3.9790005218573827,3.752397887428566,0.5325589369680529,0.9518378090738031
400382.51916939754,20.74225013550094,17.290294334695975,-0.3305638099908092,11.428694109982883
400382.51916939754,221.85167284348813,19.53221884420266,0.35773366819557545,220.98861250319587
400382.51916939754,18.424972261814105,16.83405354367595,-0.4517737910350089,7.438266166773569
400382.51916939754,19.692655962472976,6.5302744611592445,0.08264174427678277,18.56305588121527
400382.51916939754,20.47809496130348,18.95738957751236,-0.7076484364306657,7.675066535852959
400382.51916939754,90.7544023134527,26.468088297400705,0.19126289376021524,86.80554658918554
400382.51916939754,9.839221283633714,9.20626588122166,0.6412344263486,-3.328876896461336
400382.51916939754,375.27429241215106,15.577521022730004,0.344072083402821,-374.9499362016445
400382.51916939754,333.887258384759,35.48100607626352,0.05072494203235737,-331.99583522308836
400382.51916939754,16.618829335078146,16.430188837958646,-0.016406442008722228,-2.3815484531912707
400382.51916939754,329.6867957361286,6.595358104743441,-0.06938327826748034,329.6199590121561
400382.51916939754,4.147484598730134,4.034435313325983,0.4316957308041161,0.4198308993647768
400382.51916939754,21.67328473832671,20.478091315469214,-0.24507367127324908,-7.053839047518918
400382.51916939754,76.70853640570184,24.15493357896027,0.03425037625640756,72.80230234821828
400382.51916939754,36.65345650595572,12.353051770472895,0.10374118299484618,-34.50079539004456
400382.51916939754,151.90769363221318,3.4456979406343,0.06932901401417567,-151.86674225398008
400382.51916939754,113.87907687479941,15.04045771504992,0.2919958286353525,-112.87861258450643
400382.51916939754,36.91232792474125,8.548594148085714,0.2703996735807057,35.899944762077816
400382.51916939754,23.872974191983186,23.62547577985767,-0.04836382608466693,-3.345311775536666
400382.51916939754,156.01891783808267,29.907034340512347,0.11161328382582782,153.12379704600278
400382.51916939754,85.79289472836457,15.168013726003625,-0.4145752253365255,84.43706491731764
400382.51916939754,35.32691805481592,7.9856844178214486,-0.11024166328165079,34.40414930491791
400382.51916939754,8.781681865411311,8.70601603496693,-0.007670724335425486,-0.8722507282569124
400382.51916939754,465.1912468129408,6.331424918875047,0.40481284035576887,-465.14737767231156
400382.51916939754,522.5644795467409,51.49649099546645,-0.5408286474465831,-520.0200879412957
400382.51916939754,56.875124165481125,10.344619923845414,0.2821966104352828,55.92071719436275
400382.51916939754,28.707453457942165,27.76369781906005,0.13261284768923276,7.2605123974295065
400382.51916939754,7.399144764378567,6.756869702544103,0.11884796146387813,-2.918148251527353
400382.51916939754,146.77596031563726,15.527411610799197,0.0876306513326644,145.95037511121393
400382.51916939754,55.7339295053225,6.826281200997626,0.4943574252116503,55.30701630710221
400382.51916939754,3.601575575844967,3.4751242210612094,-0.24226155237644054,-0.5232844405492009
400382.51916939754,21.462112503427207,20.532104817194355,0.4456420158466964,-6.188215176283618
400382.51916939754,239.59702664130086,21.73719042225642,-0.5742660231854373,238.60707786111914
400382.51916939754,747.0208262193905,10.83729328816904,0.05165859056017566,-746.9418336591316
400382.51916939754,94.64374001683359,28.34592645305503,-0.24832028940822384,90.29574726372564
400382.51916939754,26.373895803794,13.104820444734106,0.048175475987961826,-22.87534478631828
400382.51916939754,18.28729996432213,17.702268857956884,-0.0610693327763849,4.526471781759433
400382.51916939754,70.29554689582676,18.762956711770336,-0.03586406737407076,67.74106392412986
400382.51916939754,599.8699781787136,13.214268576167429,0.13724701202342646,-599.723930361607
400382.51916939754,36.02418904636909,12.783300234807147,-0.18419494715982976,-33.67095428949888
400382.51916939754,30.079574802943906,19.344788909862,0.321068249313635,23.019438232216366
400382.51916939754,36.61703428624536,3.491203944792707,0.010523895732271206,-36.442505994680374
400382.51916939754,76.83098467984068,25.032448987390918,0.5668862614455449,72.6325891285925
400382.51916939754,767.2960698383547,20.126818565056844,-0.17884740203245772,767.0316653414188
400382.51916939754,54.95032677982918,16.622330642427123,0.03952309549937949,52.370532116234294
400382.51916939754,121.03199964643932,14.481613317613954,-0.3322369009509664,-120.15970660652098
400382.51916939754,175.49946732882083,34.06924706537038,0.5748258811611082,-172.1582314944415
400382.51916939754,2.7539466515334956,2.5085875553892802,-0.2740117186424165,-0.8085710873196139
400382.51916939754,196.8329864020066,35.144040280686525,-0.18838586603947652,193.66859099615576
400382.51916939754,611.0569763200406,26.271469052199418,0.371345405833727,610.4913905902428
400382.51916939754,226.19114013673553,10.24960542371195,0.07752623936561445,-225.95753829798537
400382.51916939754,50.887078443711005,3.0184378509246983,-0.20441621800393578,50.791531365721625
400382.51916939754,146.39623378006036,18.27777826368016,0.46421587024990696,145.248071413511
400382.51916939754,72.85040098828829,25.385763316559846,0.4332010140281383,-68.27879568987878
400382.51916939754,41.72786473835212,13.819089617360731,0.37849334670568124,39.36422055045453
400382.51916939754,125.84447876282944,20.946012655682452,-0.04926137703951275,-124.08679470927481
400382.51916939754,8.625252599970013,8.27805638627005,0.20989714114076347,-2.2939849733439854
400382.51916939754,22.789100082367572,9.493890926710835,0.02050560212668932,-20.70377637400793
400382.51916939754,23.84127558280396,15.6111752792319,0.4434620398700329,-17.998295147714998
400382.51916939754,435.3462498306486,23.66956413743175,-0.17078857011997886,434.7016418940772
400382.51916939754,22.77427273739359,22.254341690633503,-0.32545016216854616,4.769016231302755
400382.51916939754,514.625672502246,7.411258642452646,0.2785508323111017,-514.5716821902912
400382.51916939754,14.464999026685796,7.636970998735343,-0.23500430991575397,-12.259498471372364
400382.51916939754,47.37615276287864,21.84595163931726,0.27938608778487084,42.03110574309153
400382.51916939754,24.781129833034687,14.9019078565151,0.1238479535910157,-19.78534454364671
400382.51916939754,22.006844967319793,3.5696064177867006,0.5286986518063113,-21.69601973086508
400382.51916939754,501.523748985609,8.753459411782432,-0.1742759044973751,-501.44676191177496
400382.51916939754,64.00404643949811,2.8385542206510666,-0.11303606307830777,63.93657366799588
400382.51916939754,9.490921666325981,8.748541837786014,-0.6074019732940305,-3.5509620696997337
400382.51916939754,107.73113334149372,11.043105760261728,-0.09377484269632436,-107.16098063884081
400382.51916939754,122.71210154223323,36.791165813838454,-0.5251757934555729,-117.06336673932086
400382.51916939754,205.84028214941767,26.830372645036903,0.1425776797978253,-204.08275328815594
400382.51916939754,435.87404397969857,29.791246360906943,-0.24465167983217334,-434.85404638800856
400382.51916939754,534.9000557564364,13.182400906841213,-0.18407989378068956,-534.7370360543127
400382.51916939754,59.39126295984525,17.016951382490664,0.2138130944079571,56.895847164453585
400382.51916939754,20.579800101097792,14.135788919245144,-0.3454490696170511,-14.934053962697325
400382.51916939754,46.194086182467544,25.98951449390846,0.21583084513264075,-38.18153756253425
400382.51916939754,158.4027145916791,11.288272343968323,0.02402711300792597,157.99820245555946
400382.51916939754,39.82480014390221,33.23702431646829,-0.1805356232278016,-21.925327522428457
400382.51916939754,49.34573939705151,10.723624189298215,0.4497512935174096,48.15850146808105
400382.51916939754,237.69480921756184,66.31172783835154,0.05625555661918077,228.2564600933928
400382.51916939754,12.693430384477729,11.404308269988089,0.006474423696898467,5.522910906330602
400382.51916939754,15.73389938507339,13.187021011906886,-0.3667604791944715,-8.541733572923246
400382.51916939754,28.83100284628964,6.648178345061513,-0.3115239596757533,-28.042272761428038
400382.51916939754,189.0106533944308,9.965134965095896,-0.5818612692303334,-188.74539008455065
400382.51916939754,41.91095563662437,19.98808804009911,0.20909484439565096,-36.829315459442824
400382.51916939754,59.8211419156015,12.82830082537021,-0.19815612917787082,58.42432807621812
400382.51916939754,70.93529672787703,14.804804507886619,-0.2620642450065783,-69.36860288830584
400382.51916939754,27.131724335218507,21.647166069662045,-0.17799683422003346,16.338195820546783
400382.51916939754,100.82286254250036,18.835033115273127,0.43019941769793374,99.04415038890616
400382.51916939754,63.81170000027379,27.64035391220387,-0.1724573841132448,57.509580158200485
400382.51916939754,29.45763949220083,19.580688755185523,-0.17784415969093273,-21.994435268236582
400382.51916939754,22.01732471957661,10.63816369470022,-0.238634711690761,19.2606535059219
400382.51916939754,23.594473166246104,14.141204267987643,0.4198242912774801,-18.86761544013904
400382.51916939754,29.291753285136558,14.529855067724846,-0.13325262923950726,-25.422628207047826
400382.51916939754,528.8849054734184,8.399621064289873,-0.5720176081190232,528.8173598308283
400382.51916939754,28.20735174484339,25.132333148837084,-0.47621253015723203,-12.776204583837455
400382.51916939754,19.604452927483457,7.808970637642094,0.36207710302266416,-17.962770146238274
400382.51916939754,141.70615879088666,18.816650309240732,-0.44275315419730715,-140.44860532963986
400382.51916939754,678.9009585696836,35.11158756141018,-0.35245080521099525,-677.991888891874
400382.51916939754,194.07231260056776,24.78852025924693,0.3288326809736906,-192.48096349911094
400382.51916939754,126.80569325230233,26.736557020392926,0.05789783594087367,-123.95271141335164
400382.51916939754,18.461201615439826,8.966095623608773,0.1452098294831727,-16.119605064901783
400382.51916939754,8.21095600626788,7.96769600890033,-0.038875097675863425,-1.8362370658945482
400382.51916939754,37.9371775778819,10.155634719312133,-0.29703237399189086,-36.54369927608877
400382.51916939754,33.163395819902256,29.72122300865268,-0.19228389108435723,-14.692188777423134
400382.51916939754,21.80779726145598,20.458472849681193,-0.23764978155312427,-7.510798334778809
400382.51916939754,58.84813781164164,6.879721787487445,0.1926830600860331,-58.43948394922611
400382.51916939754,6.472908521794739,1.8376547672378432,-0.19548469493293208,6.158004093111822
400382.51916939754,5.840054996180301,5.302012374479913,-0.12941634889035078,-2.327190911093518
400382.51916939754,47.058601152450514,47.0524569292085,0.06926620644279137,0.1053590613306718
400382.51916939754,36.82119834638522,17.129696961665154,-0.0802661898562011,32.585354777766206
400382.51916939754,20.785567854461483,16.288314878505734,-0.3159913569780648,12.886754358726272
400382.51916939754,468.9482337749523,12.611574426240878,0.41311661507738007,468.77783772784073
400382.51916939754,9.137336060849094,6.426432998180913,0.10014937510686843,6.451317563119524
400382.51916939754,46.04745190111127,18.893693100988358,0.4954149654977353,41.983192000984715
400382.51916939754,15.719233128574528,15.328880878507674,0.3010321602851818,-3.3862574902441698
400382.51916939754,18.924444852272263,4.484926521230685,0.012328912073795441,-18.370017802183714
400382.51916939754,11.100165095264334,7.101897124579372,0.05706186303653862,8.497712945644063
400382.51916939754,74.4424546674213,7.562024583302785,0.1937921805108661,-74.05332500767366
400382.51916939754,20.796244463549634,15.665994344358424,-0.003513129993252948,13.656428948921093
400382.51916939754,18.30725702726896,3.5034163034253014,-0.028039756528483655,17.95323388217846
400382.51916939754,20.53576141610474,9.283634826952023,-0.16159589507144034,18.30145259520237
400382.51916939754,64.06192428068996,21.167740643918236,-0.31663606213879286,60.458202910519816
400382.51916939754,49.41894405529424,14.343473261866189,0.12723154853493418,-47.28549753833889
400382.51916939754,62.14477720004595,46.599571465690445,0.1290828082326921,41.10808033799127
400382.51916939754,24.04847615315851,20.81206530541015,0.274035002819877,12.022882633477298
400382.51916939754,79.35553410801155,11.411420755707958,0.4650412772749369,-78.52580254606238
400382.51916939754,19.056601019594975,8.187469055276416,-0.06783858830781482,-17.191638950478794
400382.51916939754,80.83335098072277,17.269421440466722,0.3451016039858586,-78.96275247074378
400382.51916939754,62.23823815901162,21.905923658712613,-0.041143649318741225,58.25087779583576
400382.51916939754,39.123335826150566,12.869620807564266,0.28053274472404705,36.93734190224259
400382.51916939754,77.14285191263602,19.912869337245777,-0.28100442606230086,74.52419695289555
400382.51916939754,142.52384767170426,12.841451539441106,0.14781141591731456,-141.94210118312833
400382.51916939754,97.58002974992769,20.406871417775637,0.07509726652747627,-95.41935770232612
400382.51916939754,33.67273757207435,22.25185011007568,0.30260339899811567,25.2597409418266
400382.51916939754,259.8835855302012,27.46849104178393,-0.257835246122428,258.426645700275
400382.51916939754,276.1349018700713,38.28173961854047,-0.6364227478063309,273.46667999529114
400382.51916939754,9.085503249247042,8.813157967124118,0.01462442754330913,2.0765502771371165
400382.51916939754,121.34118645417158,20.30360808688762,0.15970049144629436,119.62800334161686
400382.51916939754,84.34360440590274,67.23133052114208,0.6688142137886017,50.91936907575113
400382.51916939754,29.188991440648365,7.258972277686567,0.1615544366421912,-28.261565808475407
400382.51916939754,106.21258352036992,22.40535464889475,-0.31697156537566845,-103.81931500999373
400382.51916939754,126.90345798915459,29.67397249964575,-0.08542434345161488,-123.38303516839622
400382.51916939754,105.40288677095828,11.018205124698422,-0.48586497388825306,104.82160697917881
400382.51916939754,148.21756584873683,12.805177755727996,-0.32310095552397033,147.66112390717527
400382.51916939754,809.2642117195683,27.232198782052265,0.36966014704092903,-808.8054603734779
400382.51916939754,131.9118547496807,13.612846567021762,-0.5017836767320025,-131.20447288097353
400382.51916939754,53.791335360715564,9.202948875813073,0.1591511427214328,-52.992695928596376
400382.51916939754,998.0579021385562,23.650618119067055,0.5600486201836362,-997.7772037325436
400382.51916939754,290.1279880133983,17.243141003640194,-0.15325671081792494,-289.61411859300034
400382.51916939754,15.611387733692947,14.564368367359256,0.29459769298004146,-5.562865468409122
400382.51916939754,4.185262378115409,1.9786926162562053,-0.13391248040772408,-3.6084516264454054
400382.51916939754,35.12789240082859,33.6931045221199,0.08939817138966016,-9.908238952579358
400382.51916939754,28.28804846143602,27.976165963252743,-0.1945369374359512,4.116750918118371
400382.51916939754,17.28069119997866,13.434145775393699,-0.37244247184003165,-10.837202647751182
400382.51916939754,1.840954789871925,1.5869386644238357,-0.5209118737681917,-0.19248382332130556
400382.51916939754,24.542917777972566,18.238742481361065,0.38003980128525083,-16.401107111811694
400382.51916939754,50.968318944754884,14.32036561322936,-0.09674452718855243,48.90935456784234
400382.51916939754,211.9715325485352,1.5235098366804525,-0.44600919547313767,211.9642617601811
400382.51916939754,181.7492946482014,31.371830363659225,-0.3262094558603472,179.01940009711848
400382.51916939754,80.92529224324619,29.82910501673088,-0.432371191500817,75.22219175680252
400382.51916939754,15.85822163089792,14.392168709864489,-0.17439969431973545,6.614825534877046
400382.51916939754,598.8858168246838,33.67516642266567,0.0824042217211833,597.9378191992105
400382.51916939754,62.90380784289613,23.11618481667314,0.174207478800607,-58.49733627611178
400382.51916939754,18.03664908020985,10.33307229815701,-0.07159737628722179,14.764174874613476
400382.51916939754,138.7639413739448,7.151143294426699,-0.009479499350496206,138.577523950827
400382.51916939754,201.68728751990932,24.970155825294988,0.20918129843135963,-200.1340729795209
400382.51916939754,98.33185172630365,33.940657462767014,-0.5734054916572364,92.2837672619068
400382.51916939754,3.9420619390673637,3.4639230275241477,-0.34506079067388856,-1.691059321944387
400382.51916939754,33.99215875664995,11.738854307622951,0.06936850830475805,31.891989644431327
400382.51916939754,19.96958274579967,19.266957689670114,0.29187566333158166,5.188549316689608
400382.51916939754,12.247830373164263,5.313145984881025,0.2399033144753269,-11.007267325799603
400382.51916939754,19.275660016683652,18.928175094407187,0.17565075331142563,-3.5611883516412566
400382.51916939754,183.59365936554613,50.33040252916503,0.6373203511968903,-176.55739526353213
400382.51916939754,35.170898479911116,29.525815259234644,0.05524863648884418,19.095888032209732
400382.51916939754,200.1034947350731,62.83166482627347,-0.08429403846815454,-189.98163346453282
400382.51916939754,18.03980412712473,17.821789550740483,0.047043822349863235,-2.69328721485219
400382.51916939754,10.373219974872057,7.5584755268552835,-0.5060241994050166,-7.046611870636477
400382.51916939754,92.37062643918546,12.577261049652094,-0.5878268524044781,91.50539465975112
400382.51916939754,30.27963572242603,11.629306131445436,-0.31083368695373076,-27.945601081239296
400382.51916939754,335.33061297022334,15.482323845049658,0.5712018149797413,-334.9716839239072
400382.51916939754,28.513622636677397,28.502177198830125,0.2884488289605022,0.08382753226168449
400382.51916939754,593.507334689122,27.567162544361743,-0.13223219990745463,-592.8662817640013
400382.51916939754,12.268715634610587,4.813093645590271,-0.2705083452882269,-11.25699769501665
400382.51916939754,138.67960691740024,24.536960939151243,-0.5214169044274755,-136.48859551638648
400382.51916939754,20.888084972146174,20.855297894837168,-0.12326968090264864,0.8894420136992958
400382.51916939754,2.6072823503539735,0.5143927456720127,0.22908957055188822,-2.432796398200166
400382.51916939754,62.64700029575473,23.10153624663015,0.43623223711282566,58.225535888697436
400382.51916939754,472.8275127039725,7.974391632278235,0.3137601773337282,472.75956369116443
400382.51916939754,35.63221304121893,29.34389026986527,0.5794977742676538,-20.191397954656374
400382.51916939754,24.303080573148765,21.539447918790355,-0.6372869007796419,-11.212646123620301
400382.51916939754,28.020004160950826,12.99986585026123,0.010413850089304127,24.810515343204862
400382.51916939754,352.5559012158757,24.763088049505164,-0.22041047401215685,351.68429312467526
400382.51916939754,394.3406012389313,28.71025981157972,0.15954956070553117,393.2933294246927
400382.51916939754,515.7238324853837,37.730225942990465,0.12585147279212694,-514.3412517619976
400382.51916939754,32.550465553173105,16.298425782236645,0.18572909012464392,28.16553369711069
400382.51916939754,20.483151204553153,14.634885937471457,-0.5959520136836972,-14.299024339161672
400382.51916939754,77.51845363007801,14.158700414747386,0.324269877893831,-76.21006733889587
400382.51916939754,30.694381100227872,9.64612460085722,-0.2304624732485051,-29.12871190677596
400382.51916939754,276.98233133531585,17.72684890320467,-0.08068680300555545,-276.413461771561
400382.51916939754,29.53729618721059,21.662006464087575,-0.15410867645226148,20.065474116138876
400382.51916939754,57.294652130156834,13.743389786699806,0.36755070417116403,-55.61563597905852
400382.51916939754,108.6533639005762,19.620419319433477,0.23530279563190004,106.86428273386655
400382.51916939754,6.706352714071178,4.373895297612715,0.13477739936775096,5.026300895532904
400382.51916939754,28.014938369651123,27.844007935048634,0.13021855899118515,-2.994778136015653
400382.51916939754,64.14575710779098,31.473572144919,0.08279703759190957,-55.88848911009876
400382.51916939754,29.453561641404402,29.272772375266484,-0.056963826827481814,-3.170410847357361
400382.51916939754,303.65144655945267,20.11212689717533,-0.21419750288832637,-302.9836548854386
400382.51916939754,18.292784181651978,18.256847579565598,0.04788320183889056,0.8653529688817023
400382.51916939754,11.128712961469885,10.563712565529826,0.39989807727959203,-3.396169832061872
400382.51916939754,311.3082617459807,25.46281077046899,-0.497781343885165,-310.2638699102649
400382.51916939754,293.3563931680635,6.148214417436318,-0.2246321133337747,-293.29091372126607
400382.51916939754,84.23053929652251,15.153922942528022,-0.16592224272189476,-82.85259500120125
400382.51916939754,723.4036424967139,16.71642891859331,-0.15031248201398328,723.2100704822005
400382.51916939754,15.121681599841645,9.90646372895482,0.2510624612481565,11.39744960169634
400382.51916939754,22.45345970196548,18.19716664913721,0.18949862952453267,13.130983504272956
400382.51916939754,804.883718487407,15.83733947875747,-0.5135989687154899,804.7273779606596
400382.51916939754,53.35118754766898,11.194934000115374,-0.25375801497735406,52.157414921928506
400382.51916939754,28.182882418813374,21.17807063224337,0.04700746074866778,-18.579548837788526
400382.51916939754,43.51911011505237,27.841600910640043,0.14820576152040316,-33.43910731433656
400382.51916939754,266.03226983126524,16.156507235172384,0.07945295125466369,-265.5401423735255
400382.51916939754,32.95595686920384,29.930616456357182,0.3535266199876784,13.768295814115426
400382.51916939754,51.95893418448438,8.920095243935332,0.0411606729213611,-51.18201546651393
400382.51916939754,22.397056864520113,21.824275248208675,0.17132847004912727,-4.973677877294499
400382.51916939754,69.34942839221213,13.865733459163614,-0.17080569952965896,-67.94478006710864
400382.51916939754,33.57361530812224,33.56111853583482,-0.47551364504589827,0.22475151515352562
400382.51916939754,101.27555432695085,17.042176642329938,0.33169005614273084,99.82800088260919
400382.51916939754,124.31806427441715,17.660683345743706,-0.11598674857332429,123.05488846349178
400382.51916939754,214.28932909953878,18.979617597521152,0.37346124396295344,-213.44551732812366
400382.51916939754,16.264405827638203,11.014421454910513,-0.3192508743905152,-11.93939507712528
400382.51916939754,59.20199142662407,8.754790569318843,0.4714504640564198,58.544383372054924
400382.51916939754,26.682055883982446,24.13202159089996,0.02524246017627185,-11.358462129147092
400382.51916939754,150.06953351157173,18.158373114804,0.21662319860149368,148.96485863311156
400382.51916939754,385.1788217430309,11.961531958298849,0.1916656039735204,384.99226926763754
400382.51916939754,103.39106822791106,19.096587758013698,-0.17195145161764278,-101.60925852005859
400382.51916939754,40.27902684310427,17.681590693302688,0.18267583977775328,-36.18239409586313
400382.51916939754,539.6624752745762,14.262884788244282,0.00960424218612551,-539.4734422599013
400382.51916939754,230.28262763024526,18.87851291548132,-0.2612310870872267,229.50612139047206
400382.51916939754,20.66850521807456,11.681943180400818,-0.30813634838546494,-17.031207310670304
400382.51916939754,105.09456933349117,7.845816836451247,0.5452381347600023,-104.79719479034736
400382.51916939754,203.51923468034323,23.77814341398607,0.3564082226159814,-202.12369829593
400382.51916939754,47.16570043364551,21.203576541301917,-0.08244264031154903,-42.12413205578676
400382.51916939754,9.691490823784397,9.12487351251194,0.4450524662171821,3.1466275691974053
400382.51916939754,38.47129962372095,12.804593399942195,0.2774842293979893,36.269049396027285
400382.51916939754,38.07825344461672,23.460224764460666,-0.36386205163393043,-29.98126919911158
400382.51916939754,20.506443788922784,19.42771524176477,-0.19895735831208958,6.517376183057742
400382.51916939754,5.140450468738156,4.941179817170223,-0.5699408657754511,-1.0591503359878167
400382.51916939754,4.065608784155986,3.9661386612064926,-0.22023160655970983,0.4336772234342285
400382.51916939754,369.55010146318784,26.086817107591674,0.3486497019255293,-368.62728000925483
400382.51916939754,27.471114154950843,25.80497114895183,0.11123565354059263,9.390999016837872
400382.51916939754,12.757085920948644,4.776981282130567,0.5071376725994879,-11.794242722380893
400382.51916939754,35.84580300843864,9.816381147991917,-0.027590619079007644,-34.46733456801731
400382.51916939754,656.3562800891435,26.050084750671274,-0.13867614481441284,-655.8386828518555
400382.51916939754,292.95699053529034,32.13806505514968,0.1929868650762188,-291.1878148086967
400382.51916939754,126.53109320213002,15.555791342063639,-0.19428684433303584,-125.56884491886979
400382.51916939754,172.98002747722077,17.83146938716836,0.6126352754459585,-172.05577857928097
400382.51916939754,36.68746504138938,22.55658491813601,0.15111326250373552,-28.92378591686687
400382.51916939754,22.054688119637497,8.546377484542518,-0.44598913387616684,-20.312741140166498
400382.51916939754,41.54953044122204,22.368577357623238,-0.09549044934950875,-35.006267545182666
400382.51916939754,43.859329831357904,16.17401442531646,0.3628676059880688,40.759637593025595
400382.51916939754,47.87740829659654,22.435377355338904,-0.454059911636352,42.286304599810634
400382.51916939754,8.209378612451575,7.939299424864462,-0.3013123148992189,-1.9256925306440469
400382.51916939754,164.40046758202246,29.79245802632441,0.24008218357357372,161.6765388220295
400382.51916939754,303.193763790296,10.771171160404357,-0.35619396412055015,-303.0012393671153
400382.51916939754,21.92266186077321,18.964864750461967,0.053604190813131225,-10.971408006175718
400382.51916939754,134.59728408915745,16.601054730171192,-0.01539087148972553,-133.5674784074816
400382.51916939754,27.999614504850626,11.31855294990324,-0.21068099602683799,-25.598086726299606
400382.51916939754,80.09635483843819,9.94290397834541,-0.07541291755021753,79.47324512540703
400382.51916939754,18.316078989030803,9.248996073720924,-0.08721925865901578,15.79129104761208
400382.51916939754,76.10748659830071,43.107419092472426,-0.12747622062198954,62.71779129001917
400382.51916939754,35.57026720632178,11.155157992247542,-0.22616841556411774,33.76674201242536
400382.51916939754,26.35967604101634,5.4556544944420535,0.39315861087261644,-25.775015816097294
400382.51916939754,78.09320665672483,41.25710261917403,0.17937356683008354,66.3008740026341
400382.51916939754,2845.5524592185475,36.209176197280506,-0.2612521684856532,2845.321961242722
400382.51916939754,9.176658049413698,7.318300067167922,0.041677762517537464,-5.485385951383436
400382.51916939754,35.2237616263166,18.750956926401752,0.060880341070218925,-29.808538206772823
400382.51916939754,20.018676170915445,14.19356169791742,-0.12076847385499492,-14.096569651084486
400382.51916939754,13.362546727596238,9.554261928334135,0.1410654983804451,-9.31082668541889
400382.51916939754,188.29048743745756,22.035862134393756,-0.035507454122986025,-186.9950930843877
400382.51916939754,14.761657366529146,9.214259343941205,-0.30571417828374015,11.504266633704066
400382.51916939754,40.82321898654407,17.482477435274994,-0.2593539759307722,-36.881819174931785
400382.51916939754,78.98036287253683,66.06698767235659,0.5020569313166082,43.26934777882325
400382.51916939754,77.41820107426275,15.21268690228741,-0.04226373853521727,-75.90512425095636
400382.51916939754,114.17367651324585,20.106834129765154,-0.4628195635003033,112.385795752265
400382.51916939754,448.06900918610154,13.368701597620843,-0.32061111395570296,-447.8687862288582
400382.51916939754,223.7270076428309,6.0695722759634485,-0.2163801258645925,223.6432987590553
400382.51916939754,47.3551476353025,14.230715410899396,0.4047808916676817,-45.15828338050275
400382.51916939754,13.495694854981135,8.866957151760616,0.21126090736313366,-10.14415488374412
400382.51916939754,77.26476593361957,19.196396394082466,0.2938903388383894,74.83778262158613
400382.51916939754,441.9476155734557,22.87186641986541,-0.20363958129999402,441.3546972984931
400382.51916939754,20.740080225021543,18.19553812976754,0.17041162977596433,-9.92380666748937
400382.51916939754,19.556909018571943,16.63594168653614,0.13089887103106868,10.253714401971441
400382.51916939754,360.10213238692074,68.95978905450588,0.32064503359087937,353.43659698581956
400382.51916939754,58.52569491458372,14.954243058687059,0.3322739679090734,56.57698147458608
400382.51916939754,412.07453813573807,6.543923553892884,0.5317880725915662,412.0215490781244
400382.51916939754,29.241156929018494,7.615275560195405,-0.296091337831698,28.220609943766306
400382.51916939754,28.96894590250687,5.662974531247058,-0.18386599364026765,28.399549264838043
400382.51916939754,33.446134159714205,24.231506726542296,-0.18617695244137847,-23.040854348792724
400382.51916939754,69.04009471693138,31.40735327908692,-0.5154298768179408,-61.47588819656316
400382.51916939754,79.89409837808626,22.80634351696907,-0.3879303005287016,76.56516714605945
400382.51916939754,24.62346564952369,15.246942058083098,0.45955033628685193,-19.315079366855123
400382.51916939754,25.432993641854726,11.2541231394596,-0.372554250999569,22.79212013541806
400382.51916939754,18.5934842867448,18.571576265766804,0.4894835837710757,0.11080494671125285
400382.51916939754,142.68704699210275,40.444948334681015,0.25634788515116586,-136.8326403979769
400382.51916939754,59.39410443426223,22.709263556718085,-0.041784925080135545,-54.8760868071728
400382.51916939754,25.294460483447953,22.41972063099505,-0.2609755248804618,11.684836701512875
400382.51916939754,8.483540389267153,7.234015937775359,0.06094089605432659,-4.367312233432742
400382.51916939754,17.570502903921547,10.76983921662492,0.16946963583203187,-13.861532187173905
400382.51916939754,140.2015468118585,42.66498117222924,-0.42058473010200204,-133.54936868995168
400382.51916939754,148.3219048945142,14.767773563425866,-0.31793062939592664,-147.58264435434256
400382.51916939754,24.72599935728398,24.245031445985457,0.005512896687169122,-4.794905942384876
400382.51916939754,12.27494002174855,7.200687888901455,-0.2870935592492718,9.908556037140517
400382.51916939754,58.80446750199664,16.98786729645154,0.5293647369426897,56.28974324755423
400382.51916939754,359.7324955483979,12.458437127926864,0.04860178282251533,-359.5159120187353
400382.51916939754,17.524495273841247,16.682607438903894,-0.113831732407894,5.3125554084427105
400382.51916939754,43.52758130602673,20.528793857858552,-0.6271957332880556,38.370082637326014
400382.51916939754,109.29556768649638,11.48074575481551,-0.3993572499441305,-108.68758790957902
400382.51916939754,21.866909147859644,2.8948670247758974,0.13068183600485322,-21.66107203801593
400382.51916939754,285.1591428298498,26.169057407974417,-0.16017173588851727,-283.954801293862
400382.51916939754,64.47281460683695,23.58452034393042,-0.08919861881187077,-59.999532715425936
400382.51916939754,63.86543780272404,16.37465527301555,-0.3793337307385696,61.7248618899468
400382.51916939754,47.827259359416914,31.29127844640864,0.1820043495679066,36.1622339523951
400382.51916939754,122.33559409675344,36.147973932527684,0.12108784631450885,-116.87063172714159
400382.51916939754,28.257088745098702,21.198628596448813,-0.5715540616652888,-18.659908759733113
400382.51916939754,14.706803857575368,14.447644845404861,0.04150272571121147,-2.644158588050751
400382.51916939754,676.4719331971055,14.173088356096613,-0.09928497625784712,-676.3230202879106
400382.51916939754,290.4440427660785,10.784208416368937,-0.13614430044351264,290.2427638216914
400382.51916939754,115.46339941178863,25.739613994722312,-0.4106167962330313,112.55459976368954
400382.51916939754,43.4629462085042,27.800741792595048,-0.2843208638095305,33.39915073081882
400382.51916939754,69.46761857073656,15.669880349105359,0.055422725567637506,67.6730335292007
400382.51916939754,230.09912042575877,5.3322034256078386,-0.2314062677411522,230.03599052640394
400382.51916939754,68.56440728205563,7.837613559454892,-0.3539893918250568,68.10992666367723
400382.51916939754,28.15503192061376,4.045743516324615,0.043670913790454194,-27.85271142440086
400382.51916939754,133.52702226489453,22.524711079175656,-0.2906071811163134,-131.61100361362017
400382.51916939754,579.5527230050791,9.803939969802094,0.21329450851583723,579.4692689592018
400382.51916939754,30.02045701909378,7.494197722527666,0.4714336647697191,29.056500983762717
400382.51916939754,6.015375644814734,3.244970565893498,0.6035231727341808,4.9727586854232095
400382.51916939754,60.913529632650054,18.018733120045813,-0.5207068716215011,-58.18032203760056
400382.51916939754,335.9042383833721,33.06845778339884,-0.176449829651583,-334.2716574706675
400382.51916939754,90.04128334634828,12.635103344171824,-0.4270456956944415,-89.14618422064976
400382.51916939754,666.9607522196935,17.719152655577517,0.2874058370957782,-666.7248545595861
400382.51916939754,14.997653184206664,6.640338642252196,-0.12017645802963331,13.426046341259815
400382.51916939754,20.433248463323388,12.648545850241801,0.34530999619720404,16.026551426727114
400382.51916939754,160.1782592069372,15.437678906853904,0.25391190863993107,-159.4306306211735
400382.51916939754,2.119735799223885,1.2652913150144847,-0.18176402999227154,1.515565430070641
400382.51916939754,102.15963003863826,12.424423077145777,0.05663281046760353,101.39851168801775
400382.51916939754,44.428085178560835,14.514363711105688,0.5001479911449103,41.98065637494146
400382.51916939754,142.5289309769118,6.968108860779377,0.0775813909224793,142.35650060479207
400382.51916939754,172.9684270944984,9.268352756085513,-0.2570936636976155,172.718111298643
400382.51916939754,55.04601346465215,14.317266975396757,0.11938727239427056,-53.146052255777505
400382.51916939754,17.899047244489932,7.992130495136012,-0.34944539260619895,15.994289271972981
400382.51916939754,18.308195504293806,16.724405331438767,-0.14625542587265686,7.4094910265384035
400382.51916939754,2442.58212696935,23.28595517347759,0.09159889645080113,-2442.4710111996014
400382.51916939754,271.88495795371847,11.021642276538248,-0.41558935277350867,-271.66011615160215
400382.51916939754,123.36005885744763,39.9111147971872,-0.008512325401223734,116.72293957696476
400382.51916939754,265.45663296552283,13.477682667968356,-0.3756355069201683,265.11294312471534
400382.51916939754,10.562636673764912,8.593972227288027,-0.09452417451922919,6.094395706529151
400382.51916939754,331.842207500647,20.402563309120133,0.690411572737408,-331.2128425652738
400382.51916939754,542.1619771166439,26.80357508061309,-0.10066897660173221,541.4984813632188
400382.51916939754,14.665151781530195,13.067999409744779,-0.42269832898759996,-6.59947371490057
400382.51916939754,12.054834155857517,4.7640965042992685,-0.296640196044725,-11.044096821642182
400382.51916939754,146.39274832790335,21.495707053954977,0.006249909031451531,-144.80403641188596
400382.51916939754,4.953558487178173,4.703627282123246,-0.24007696429863035,1.339273727338051
400382.51916939754,195.42958044864957,29.179674692448366,0.34974962814123745,193.23711556883802
400382.51916939754,32.69156874031892,26.22333939224603,-0.16914800217741535,-19.506003838926055
400382.51916939754,700.7732073970524,9.545205567105178,0.33761969058457,700.7077143347054
400382.51916939754,492.0789087173735,14.811580619423935,0.6212678289573341,-491.85497981550316
400382.51916939754,45.646607969431585,8.442745301240624,0.020376943291182417,-44.85276039066382
400382.51916939754,48.00973540251513,22.811445518726714,0.30055054276937904,-42.23647683135613
400382.51916939754,102.26924762050798,24.138930975894016,0.5033292966772409,-99.37552686055895
400382.51916939754,34.279077110265284,34.11506093703282,0.2667768460513553,3.2533419582370304
400382.51916939754,14.179962704424451,7.101872193321648,0.4734319660877028,12.241252991864982
400382.51916939754,174.80374859548283,14.735305191310747,0.24824759664139473,-174.17978452183024
400382.51916939754,136.39199900455804,25.790738514383868,-0.32584469962307117,-133.92888666588152
400382.51916939754,213.85174697244966,12.547765596994825,0.4744876520066328,-213.48146472738176
400382.51916939754,21.891492149537726,21.110329025102235,-0.5035799407246097,-5.724989363943102
400382.51916939754,208.37805932953432,30.735621729750406,-0.3208598787455848,-206.09723888193074
400382.51916939754,75.3525999985237,19.482350277409097,0.3014026614696153,-72.78598195827459
400382.51916939754,50.846959838707335,6.5323288926454826,0.09857157471339364,-50.41993600462864
400382.51916939754,13.844590676000763,6.919929984942395,0.09627421244553083,-11.967274136338833
400382.51916939754,20.049775437033976,19.912097623168798,-0.698869204130819,-2.109764002244815
400382.51916939754,164.93367095553396,34.691984383146355,0.42984108976781726,-161.24154219696047
400382.51916939754,35.31227048261574,35.15517528147916,0.35444333167795905,3.2221307359082174
400382.51916939754,642.8025413684209,13.299034460475164,0.15712708382700818,642.664497107307
400382.51916939754,26.23599766232312,11.579467614717622,0.34635087997289815,23.527881399604084
400382.51916939754,40.7098591561051,7.584056159925968,-0.27227682414367116,-39.98922666159975
400382.51916939754,26.298512373196864,13.443410991851275,-0.6037577864235193,22.58228485940822
400382.51916939754,333.5465835708335,11.231985245196691,0.01689642936987672,333.3565707957866
400382.51916939754,26.396225844347125,26.096674984856882,0.04749023545499502,3.8935455855587837
400382.51916939754,484.2843858790733,13.677830692663393,-0.022349675436348658,-484.09061188303866
400382.51916939754,31.556880254973525,18.521037685430716,-0.34224143545250124,-25.53680450389627
400382.51916939754,76.91692628140815,27.494758529633646,-0.018111134981770027,-71.83097613809983
400382.51916939754,693.3349173373629,33.370531414971445,-0.5891080578455983,-692.5307255587834
400382.51916939754,203.93817951876866,32.71637800944072,-0.3461612448626619,201.29515023157967
400382.51916939754,25.762472259585177,6.785427110177667,-0.44249192941391113,-24.837568635829253
400382.51916939754,1535.5358267302688,20.356744469234837,-0.11700107042122941,-1535.400697569388
400382.51916939754,227.63905671949038,24.840691131753072,0.19049348197774374,226.27832768397928
400382.51916939754,12.723914501847712,12.481469046126621,-0.1685444324507776,2.3495068554842296
